8.322652429342269897e-03 -8.436262607574462891e-03 -9.835660457611083984e-03 -1.892091706395149231e-02 3.456522151827812195e-02 -2.822876535356044769e-02 -1.506187766790390015e-02 6.814982742071151733e-03 -2.658954262733459473e-02 1.067147031426429749e-02 1.454206183552742004e-02 2.430253103375434875e-02 -1.822674274444580078e-02 7.928967475891113281e-03 -7.866574451327323914e-03 1.236592233180999756e-02 3.282301127910614014e-03 -2.610836923122406006e-02 4.117462784051895142e-03 2.330027148127555847e-02 5.010217428207397461e-03 2.449396997690200806e-03 2.076108008623123169e-03 2.002675458788871765e-02 2.147053554654121399e-02 -7.828149944543838501e-03 -3.634504973888397217e-03 5.300369113683700562e-03
6.322167813777923584e-03 -2.428329922258853912e-02 -3.466983139514923096e-02 1.956725120544433594e-02 1.142372936010360718e-02 2.692415937781333923e-02 -1.032172888517379761e-02 -2.151735126972198486e-03 1.311992108821868896e-02 -2.231603860855102539e-02 -1.183079369366168976e-02 1.739882677793502808e-02 -3.148117661476135254e-02 1.018553972244262695e-02 1.993686333298683167e-02 2.487919852137565613e-02 -1.671169139444828033e-02 1.098667457699775696e-02 5.070406943559646606e-03 -8.082326501607894897e-03 3.456639125943183899e-02 2.644155919551849365e-02 1.982038095593452454e-02 5.003176629543304443e-03 2.152793481945991516e-02 -6.026029586791992188e-05 -3.006475418806076050e-02 -2.965327352285385132e-03
4.291571676731109619e-04 5.171027034521102905e-03 -1.094368658959865570e-02 2.549839392304420471e-02 2.207584306597709656e-02 -2.449350804090499878e-02 3.752019256353378296e-03 9.819872677326202393e-03 3.020903095602989197e-02 -2.920160256326198578e-02 3.228166997432708740e-01 3.405116200447082520e-01 1.827166676521301270e-01 -1.193083673715591431e-01 -3.300048708915710449e-01 -9.208158403635025024e-02 -2.243851274251937866e-01 2.764707803726196289e-02 -2.169275097548961639e-02 3.686745464801788330e-02 -5.595178809016942978e-03 -3.395154699683189392e-02 -1.077524758875370026e-02 2.419190108776092529e-02 2.519676089286804199e-02 -2.079578489065170288e-02 1.097830757498741150e-02 -1.899765804409980774e-02
2.631502225995063782e-02 -1.553239673376083374e-02 3.140019997954368591e-02 -3.555871546268463135e-02 2.936270833015441895e-01 6.218019723892211914e-01 7.246177792549133301e-01 9.017257094383239746e-01 7.591289877891540527e-01 1.057588696479797363e+00 1.337284088134765625e+00 1.486715793609619141e+00 1.187761068344116211e+00 6.937664151191711426e-01 1.572372019290924072e-01 -7.842389494180679321e-02 -2.034445106983184814e-01 5.685203671455383301e-01 3.747137188911437988e-01 -3.033509552478790283e-01 -1.864480525255203247e-01 -3.168036416172981262e-02 2.062711119651794434e-01 -3.412478417158126831e-02 -3.496728837490081787e-02 8.568812161684036255e-03 -2.657130919396877289e-02 1.592855155467987061e-02
2.992078289389610291e-02 1.758171990513801575e-02 9.903696924448013306e-02 5.073732733726501465e-01 6.555088162422180176e-01 4.155110120773315430e-01 6.526414752006530762e-01 1.124779105186462402e+00 1.230284929275512695e+00 5.820142626762390137e-01 9.252022504806518555e-01 1.106647968292236328e+00 6.350520849227905273e-01 3.070378601551055908e-01 5.355026721954345703e-01 1.189945712685585022e-01 2.724733352661132812e-01 3.269376456737518311e-01 5.932717919349670410e-01 3.360391259193420410e-01 7.998674176633358002e-03 7.173753976821899414e-01 6.781216263771057129e-01 1.410016417503356934e-01 -1.482039038091897964e-02 -2.191691473126411438e-02 2.622651308774948120e-02 1.811880990862846375e-02
2.327555418014526367e-02 3.630507737398147583e-03 1.086312308907508850e-01 1.066156983375549316e+00 5.082172155380249023e-01 -8.149322867393493652e-02 -3.141746623441576958e-03 1.891974359750747681e-01 4.239559173583984375e-01 3.088628053665161133e-01 7.001993656158447266e-01 7.483795881271362305e-01 4.964277744293212891e-01 4.841884076595306396e-01 3.574255853891372681e-02 2.636709809303283691e-01 3.899067938327789307e-01 1.936989873647689819e-01 4.486419260501861572e-01 1.791916340589523315e-01 -1.836014389991760254e-01 -1.864560395479202271e-01 -3.746816813945770264e-01 -5.109347105026245117e-01 -2.427053451538085938e-01 4.477720707654953003e-03 -3.138206899166107178e-02 -3.012074530124664307e-02
2.026947960257530212e-02 2.753103673458099365e-01 4.635448455810546875e-01 9.363036155700683594e-01 1.015460848808288574e+00 5.794408321380615234e-01 2.546608150005340576e-01 1.014671325683593750e-01 3.664530515670776367e-01 3.026705384254455566e-01 1.372121125459671021e-01 3.431887328624725342e-01 4.523469507694244385e-01 7.742320299148559570e-01 2.811274230480194092e-01 7.224208861589431763e-02 2.370324879884719849e-01 6.694132089614868164e-02 -6.977868825197219849e-02 -1.972902566194534302e-01 -4.104203581809997559e-01 -4.033208265900611877e-02 -3.254318982362747192e-02 -1.838897615671157837e-01 -1.829030215740203857e-01 -1.644734479486942291e-02 -1.374315842986106873e-02 -1.411008834838867188e-02
-2.900572866201400757e-02 3.386019170284271240e-01 5.598204731941223145e-01 1.004071474075317383e+00 1.478388786315917969e+00 8.542513251304626465e-01 5.845769047737121582e-01 4.683781862258911133e-01 9.991520643234252930e-01 3.028121888637542725e-01 1.401082128286361694e-01 2.483023405075073242e-01 2.165517359972000122e-01 5.661115050315856934e-01 8.264557458460330963e-03 3.086577914655208588e-02 1.515666842460632324e-01 1.690882444381713867e-01 1.597515493631362915e-02 -2.921494543552398682e-01 -3.801730871200561523e-01 -2.139265835285186768e-01 -1.900021731853485107e-01 -1.714072525501251221e-01 -1.966389417648315430e-01 -9.497771039605140686e-03 -3.198567032814025879e-02 -3.093821741640567780e-02
-3.506847470998764038e-02 3.391295671463012695e-01 3.560453951358795166e-01 8.715775609016418457e-01 1.343719363212585449e+00 7.973603606224060059e-01 2.498432695865631104e-01 -1.289411168545484543e-02 -1.649799793958663940e-01 3.876032829284667969e-01 4.455341100692749023e-01 2.249379642307758331e-02 1.627448201179504395e-02 -1.513708084821701050e-01 -1.852607578039169312e-01 -7.622142881155014038e-02 4.024728536605834961e-01 8.466954529285430908e-02 2.752698957920074463e-01 -1.629928499460220337e-01 1.851732283830642700e-01 -7.631640136241912842e-02 -3.963135778903961182e-01 -2.087298333644866943e-01 -1.451647579669952393e-01 3.522887453436851501e-02 -2.484892681241035461e-02 -6.139133125543594360e-03
1.878251135349273682e-02 8.939504623413085938e-02 1.264553368091583252e-01 1.571699500083923340e+00 1.839436292648315430e+00 1.451349020004272461e+00 4.296710491180419922e-01 -2.289191633462905884e-01 -3.363369405269622803e-01 -1.020095646381378174e-01 -1.735391914844512939e-01 -2.350254803895950317e-01 -4.448505043983459473e-01 -6.654174327850341797e-01 -2.214469164609909058e-01 -1.631463170051574707e-01 2.552925236523151398e-02 2.394065260887145996e-01 3.899585604667663574e-01 2.844210565090179443e-01 7.127656936645507812e-01 1.968334466218948364e-01 -5.586936324834823608e-02 4.560328722000122070e-01 1.175055131316184998e-01 7.281104475259780884e-02 3.214412368834018707e-03 -7.975809276103973389e-03
1.087944582104682922e-02 1.001886278390884399e-01 1.759415715932846069e-01 1.084360361099243164e+00 1.390880227088928223e+00 1.831684947013854980e+00 6.375245451927185059e-01 2.183250337839126587e-02 -3.461015820503234863e-01 -2.342123910784721375e-02 -1.394768506288528442e-01 -4.087038934230804443e-01 -4.215223491191864014e-01 -6.981805562973022461e-01 -7.234544157981872559e-01 -5.466192364692687988e-01 -1.835424304008483887e-01 7.200976461172103882e-02 6.431481838226318359e-01 4.986009895801544189e-01 6.663439869880676270e-01 1.671194881200790405e-01 2.227947860956192017e-01 7.821070551872253418e-01 1.924488991498947144e-01 9.779976308345794678e-02 -3.774628788232803345e-02 -7.385279983282089233e-03
3.757279366254806519e-03 6.662636995315551758e-02 1.671205163002014160e-01 8.552693128585815430e-01 7.674765586853027344e-01 1.212223887443542480e+00 9.214741587638854980e-01 7.619898319244384766e-01 8.039488792419433594e-01 7.789760231971740723e-01 -1.546276807785034180e-01 -1.300822645425796509e-01 -2.943601906299591064e-01 -4.113392829895019531e-01 -5.027163028717041016e-01 -4.611033797264099121e-01 -4.225133061408996582e-01 2.049051374197006226e-01 5.850830674171447754e-01 6.236801147460937500e-01 4.447055757045745850e-01 4.790391623973846436e-01 1.867115944623947144e-01 4.655913412570953369e-01 2.867508828639984131e-01 3.019345104694366455e-01 -3.290292248129844666e-02 -1.133828982710838318e-02
2.102046459913253784e-02 3.520196303725242615e-02 7.727231830358505249e-02 5.653484463691711426e-01 4.404481351375579834e-01 4.003407657146453857e-01 1.383406072854995728e-01 3.693701028823852539e-01 5.793778300285339355e-01 7.119762897491455078e-01 1.235143393278121948e-01 7.976811379194259644e-02 6.641463935375213623e-02 -1.344242319464683533e-02 -6.704780459403991699e-02 -3.741986155509948730e-01 -4.737838208675384521e-01 -2.549961507320404053e-01 4.613156914710998535e-01 4.442766606807708740e-01 4.822969138622283936e-01 3.301931917667388916e-02 -8.296856656670570374e-03 4.027445018291473389e-01 3.806790709495544434e-01 3.083568513393402100e-01 2.529121562838554382e-02 -3.276699781417846680e-02
-2.380671724677085876e-02 -1.480062492191791534e-02 -1.240525394678115845e-03 3.002301454544067383e-01 -1.395151913166046143e-01 2.120467424392700195e-01 4.880253225564956665e-02 3.772114515304565430e-01 3.311330378055572510e-01 3.151702284812927246e-01 3.569023907184600830e-01 1.539327800273895264e-01 5.074083805084228516e-02 2.110154032707214355e-01 6.987767666578292847e-02 -3.172416090965270996e-01 -6.214093565940856934e-01 -6.469914317131042480e-01 5.128970146179199219e-01 5.462114214897155762e-01 6.227799654006958008e-01 1.295960247516632080e-01 5.765333026647567749e-02 7.153441905975341797e-01 2.740551233291625977e-01 3.793603181838989258e-02 -2.864593267440795898e-02 8.563030511140823364e-03
3.780663013458251953e-03 5.796182900667190552e-02 5.143607780337333679e-02 1.139211356639862061e-01 -2.286702692508697510e-01 1.635369211435317993e-01 2.563741803169250488e-01 8.128774762153625488e-01 4.047402143478393555e-01 1.307568699121475220e-01 4.200030565261840820e-01 4.497044086456298828e-01 1.001080125570297241e-01 1.563175171613693237e-01 -7.401736080646514893e-02 -5.526332259178161621e-01 -3.904373645782470703e-01 -3.154383897781372070e-01 7.184771895408630371e-01 5.540058016777038574e-01 3.669814467430114746e-01 6.122230887413024902e-01 8.141272664070129395e-01 9.293026924133300781e-01 5.270392894744873047e-01 2.667588181793689728e-02 -4.557220730930566788e-03 6.030231714248657227e-03
-3.560884669423103333e-02 3.775426372885704041e-02 1.957384198904037476e-01 3.143740892410278320e-01 6.212354898452758789e-01 7.325023412704467773e-01 7.160636186599731445e-01 3.244448900222778320e-01 -1.554996985942125320e-02 -7.901126891374588013e-02 3.366161286830902100e-01 4.092200696468353271e-01 2.004429697990417480e-01 2.474797368049621582e-01 -3.926323354244232178e-01 -6.469637751579284668e-01 -2.448855787515640259e-01 6.558352708816528320e-01 1.210182189941406250e+00 1.743202447891235352e+00 1.626622557640075684e+00 8.857175707817077637e-01 1.086931109428405762e+00 1.127506017684936523e+00 7.563316822052001953e-01 -4.414522647857666016e-02 7.424943149089813232e-02 2.788474783301353455e-02
7.507774978876113892e-03 1.152635142207145691e-01 3.084956109523773193e-01 6.201285123825073242e-01 8.990940451622009277e-01 7.310934066772460938e-01 8.538571596145629883e-01 1.756411641836166382e-01 -1.503061652183532715e-01 -1.864496171474456787e-01 2.110689580440521240e-01 -6.277388893067836761e-03 8.887943625450134277e-02 -3.009771369397640228e-02 -6.713962554931640625e-01 -5.508805513381958008e-01 1.010784953832626343e-01 8.976103067398071289e-01 1.129144906997680664e+00 1.235773086547851562e+00 7.957203984260559082e-01 4.451831281185150146e-01 1.849284470081329346e-01 3.218370079994201660e-01 -1.291613578796386719e-01 -2.804267033934593201e-02 4.548828583210706711e-03 2.556787431240081787e-02
-3.142335265874862671e-02 1.038826629519462585e-01 3.352594375610351562e-01 9.480459094047546387e-01 1.165575742721557617e+00 8.227863907814025879e-01 5.897523760795593262e-01 2.768623530864715576e-01 7.069563120603561401e-02 4.308608919382095337e-02 -1.265616267919540405e-01 -4.948467314243316650e-01 -6.213353276252746582e-01 -3.602125644683837891e-01 -8.085617423057556152e-01 -3.193950951099395752e-01 4.265155494213104248e-01 1.046302437782287598e+00 3.060546815395355225e-01 3.096455335617065430e-01 1.467595696449279785e-01 3.415412604808807373e-01 5.742606706917285919e-03 -1.125834137201309204e-01 -4.311628937721252441e-01 -4.758878785651177168e-04 4.737917333841323853e-03 3.229350224137306213e-02
1.436149328947067261e-02 1.503914594650268555e-01 6.822527647018432617e-01 1.013646125793457031e+00 1.432600975036621094e+00 1.657130360603332520e+00 8.823329210281372070e-01 1.036219000816345215e-01 -2.386921644210815430e-01 -2.752663940191268921e-02 -1.493873447179794312e-01 -3.979159891605377197e-01 -4.723185896873474121e-01 -4.356324076652526855e-01 -4.602534770965576172e-01 -1.148035600781440735e-01 5.850745439529418945e-01 8.674548864364624023e-01 2.150088995695114136e-01 5.358611047267913818e-02 -2.780043184757232666e-01 1.285849418491125107e-02 8.903106302022933960e-02 4.932392016053199768e-02 -1.530938595533370972e-01 -2.656421959400177002e-01 -3.153307363390922546e-02 -2.511613629758358002e-02
-9.464690461754798889e-03 7.184237241744995117e-02 6.404506564140319824e-01 9.551500082015991211e-01 1.604858636856079102e+00 1.241518616676330566e+00 5.829831361770629883e-01 3.100485801696777344e-01 5.090197920799255371e-01 2.369469106197357178e-01 -2.237815707921981812e-01 -3.377830088138580322e-01 -4.553082883358001709e-01 -1.213149353861808777e-01 -5.288927932269871235e-04 2.372422069311141968e-01 2.616691887378692627e-01 2.257592231035232544e-01 5.594806000590324402e-02 -1.671880930662155151e-01 -3.421005010604858398e-01 -1.689690351486206055e-02 -1.210798770189285278e-01 -4.577346444129943848e-01 -3.023089170455932617e-01 -3.286987543106079102e-01 2.711568400263786316e-02 -3.618771210312843323e-02
-3.322704508900642395e-02 1.542760431766510010e-01 1.014793038368225098e+00 1.398806691169738770e+00 1.793728947639465332e+00 5.742375254631042480e-01 1.123901829123497009e-01 -4.181983321905136108e-02 -8.404651284217834473e-02 -4.314045011997222900e-01 -3.075327575206756592e-01 -1.539843082427978516e-01 -1.951925754547119141e-01 -1.280155479907989502e-01 1.408476680517196655e-01 5.814485996961593628e-02 -2.670906782150268555e-01 -6.298236250877380371e-01 -8.123682737350463867e-01 -1.019231826066970825e-01 -1.618591248989105225e-01 -1.877635419368743896e-01 -2.095456719398498535e-01 -4.039225876331329346e-01 -4.465239048004150391e-01 -1.722985208034515381e-01 5.077236890792846680e-02 -2.689679339528083801e-02
-3.468776494264602661e-02 2.550476789474487305e-01 8.005207777023315430e-01 1.697304725646972656e+00 5.786447525024414062e-01 -2.347266674041748047e-01 -5.440107583999633789e-01 -4.160346090793609619e-01 -1.359668821096420288e-01 -7.190815359354019165e-02 1.784892082214355469e-01 2.662372589111328125e-01 1.306587308645248413e-01 1.473506242036819458e-01 -2.079225843772292137e-03 -2.074186801910400391e-01 -3.781135678291320801e-01 -5.313180685043334961e-01 -6.314597725868225098e-01 -1.955725848674774170e-01 -2.299488633871078491e-01 -7.717114090919494629e-01 -6.040990352630615234e-02 -1.904347240924835205e-01 -4.390016198158264160e-01 -1.675024628639221191e-01 6.061702221632003784e-02 -2.425058186054229736e-02
3.438773378729820251e-02 7.799506932497024536e-02 7.628220915794372559e-01 1.215542078018188477e+00 1.101235374808311462e-01 -5.073352456092834473e-01 -3.318347632884979248e-01 1.944405436515808105e-01 1.726535260677337646e-01 3.627036511898040771e-02 3.349886536598205566e-01 5.774132013320922852e-01 4.298125505447387695e-01 1.747927963733673096e-01 2.187899351119995117e-01 3.420561552047729492e-01 9.677778929471969604e-02 -4.602633416652679443e-01 -5.181919932365417480e-01 -8.724117279052734375e-02 -4.838620722293853760e-01 -4.124472141265869141e-01 3.645492792129516602e-01 2.774961590766906738e-01 -4.137125015258789062e-01 -9.630808234214782715e-02 4.871507361531257629e-02 -3.184194490313529968e-02
-1.652417890727519989e-02 -1.336257345974445343e-02 6.682782769203186035e-01 6.185906529426574707e-01 4.715693593025207520e-01 5.250552892684936523e-01 5.882989168167114258e-01 6.372549533843994141e-01 7.654891610145568848e-01 2.133044153451919556e-01 2.297793775796890259e-01 2.949195504188537598e-01 9.621796011924743652e-02 2.225787788629531860e-01 4.760103523731231689e-01 3.769658207893371582e-01 1.204100549221038818e-01 2.052827626466751099e-01 5.265773087739944458e-02 3.969581723213195801e-01 2.700082957744598389e-01 3.153603374958038330e-01 5.073581933975219727e-01 2.344851046800613403e-01 3.338918983936309814e-01 2.858786582946777344e-01 1.119888871908187866e-01 -2.411489561200141907e-02
-2.476194500923156738e-02 -3.238343819975852966e-02 3.871855437755584717e-01 5.053053498268127441e-01 7.173185944557189941e-01 6.487751603126525879e-01 7.219424843788146973e-01 4.038262963294982910e-01 4.890215694904327393e-01 5.576134920120239258e-01 9.763988852500915527e-01 7.601376771926879883e-01 6.325519680976867676e-01 5.782276391983032227e-01 9.492454528808593750e-01 9.414562582969665527e-01 1.186157107353210449e+00 7.635878324508666992e-01 4.693746864795684814e-01 6.926564574241638184e-01 7.672996520996093750e-01 2.163313180208206177e-01 2.593176364898681641e-01 3.706719279289245605e-01 -1.391305215656757355e-02 1.103954203426837921e-02 -1.998743973672389984e-02 3.348113968968391418e-02
-1.434858888387680054e-02 -8.502595126628875732e-03 6.841706484556198120e-02 1.356038451194763184e-01 7.006676793098449707e-01 8.096261024475097656e-01 1.086737513542175293e+00 1.179715275764465332e+00 1.098507761955261230e+00 9.188544750213623047e-01 1.538440108299255371e+00 6.939085721969604492e-01 6.397292613983154297e-01 5.531340241432189941e-01 9.540171027183532715e-01 1.947725415229797363e+00 2.177975654602050781e+00 1.822327971458435059e+00 1.745746970176696777e+00 1.464836120605468750e+00 1.383669614791870117e+00 6.026765704154968262e-01 3.767077922821044922e-01 1.789657399058341980e-02 1.828878372907638550e-02 2.271382510662078857e-02 1.994858682155609131e-02 2.104591950774192810e-02
-2.412941306829452515e-03 -3.234078362584114075e-02 2.733797207474708557e-02 2.176072448492050171e-03 1.181636154651641846e-01 1.466368883848190308e-01 1.600616574287414551e-01 1.676602065563201904e-01 2.527231276035308838e-01 3.068592250347137451e-01 6.722426414489746094e-01 6.939960718154907227e-01 9.826350808143615723e-01 9.436588287353515625e-01 6.006647944450378418e-01 6.261498928070068359e-01 8.844825625419616699e-01 1.135907649993896484e+00 9.880140423774719238e-01 7.213931679725646973e-01 6.258614063262939453e-01 3.578679859638214111e-01 2.776373028755187988e-01 5.709435790777206421e-03 -2.357939817011356354e-02 2.295184135437011719e-02 -2.700318768620491028e-02 1.497401669621467590e-02
3.190561011433601379e-02 -3.380449116230010986e-02 -2.607935667037963867e-02 -3.193598240613937378e-03 -2.319506369531154633e-02 1.577695086598396301e-02 1.782711967825889587e-02 -9.318241849541664124e-03 3.545826300978660583e-02 2.000678330659866333e-03 1.678164675831794739e-02 1.939220353960990906e-02 1.625256240367889404e-02 -1.033884286880493164e-02 3.217541053891181946e-02 2.877301350235939026e-02 -3.381095454096794128e-02 3.418046608567237854e-02 -1.728875376284122467e-02 -1.067109219729900360e-02 2.059164643287658691e-02 -1.848363131284713745e-02 1.354940235614776611e-02 -8.827576413750648499e-03 3.290100023150444031e-02 3.761086612939834595e-03 2.781195566058158875e-02 -9.454451501369476318e-03
