-2.990252673625946045e-01 -3.914840817451477051e-01 -2.637103796005249023e-01 -4.229179322719573975e-01 -2.460257336497306824e-02 1.770943850278854370e-01 2.426143549382686615e-02
7.358069717884063721e-02 2.130919508635997772e-02 1.050343289971351624e-01 -2.908983528614044189e-01 3.786345571279525757e-02 1.531496196985244751e-01 1.439248863607645035e-02
-3.551797196269035339e-02 1.137978136539459229e-01 1.743080019950866699e-01 -1.499178856611251831e-01 3.015176951885223389e-02 1.723221093416213989e-01 4.988538473844528198e-02
-5.877048894762992859e-02 8.802870661020278931e-02 2.919238805770874023e-01 -1.688416004180908203e-01 1.840779930353164673e-02 2.218873351812362671e-01 -1.360013522207736969e-02
1.522150039672851562e-01 8.981429040431976318e-02 1.343715041875839233e-01 -1.537546068429946899e-01 -1.882945746183395386e-01 3.341762125492095947e-01 -4.154344648122787476e-02
9.494189918041229248e-02 6.570444907993078232e-03 2.414689362049102783e-01 6.305020302534103394e-02 -2.075136899948120117e-01 2.896587550640106201e-01 -1.337985843420028687e-01
7.694539427757263184e-02 8.288323134183883667e-02 4.042949527502059937e-02 9.243349730968475342e-02 -2.094911336898803711e-01 2.641934454441070557e-01 -2.480998188257217407e-01
