1.774218529462814331e-01 2.466737478971481323e-02 8.259589970111846924e-02 -1.310819536447525024e-01 -6.500320881605148315e-02 -1.274301856756210327e-01 1.158680617809295654e-01
1.323867887258529663e-01 -2.325268536806106567e-01 -2.840583212673664093e-02 -1.092342212796211243e-01 1.728568971157073975e-01 1.531843543052673340e-01 -2.587772347033023834e-02
-2.004650384187698364e-01 -1.443797349929809570e-01 -1.703813225030899048e-01 3.155422583222389221e-02 5.819402262568473816e-02 1.265333294868469238e-01 1.012520305812358856e-02
-2.751867771148681641e-01 -7.745878398418426514e-02 2.923103794455528259e-02 5.988438054919242859e-02 7.260362803936004639e-02 7.697000354528427124e-02 2.191406041383743286e-01
-1.198545936495065689e-02 -1.843385100364685059e-01 8.047589659690856934e-02 -1.110495477914810181e-01 1.626076847314834595e-01 -5.227928236126899719e-02 9.505601972341537476e-02
-7.358901202678680420e-02 2.902963012456893921e-02 -8.563703298568725586e-02 -1.139767765998840332e-01 2.434728592634201050e-01 5.567668378353118896e-02 1.881386041641235352e-01
-4.545208513736724854e-01 -3.409543633460998535e-01 -2.177266776561737061e-01 -3.693031147122383118e-02 -1.337522119283676147e-01 -4.942631348967552185e-02 1.682946830987930298e-01
