5.263149738311767578e-03 3.124476373195648193e-01 2.884718775749206543e-01 2.975082695484161377e-01 -1.862991899251937866e-01 -2.906338572502136230e-01 -2.730817198753356934e-01 -6.051583886146545410e-01 -8.795015215873718262e-01 -4.493981599807739258e-01 -1.542634844779968262e+00 -1.464764595031738281e+00 -9.276555180549621582e-01 -9.669630974531173706e-02 2.696462273597717285e-01 2.734808027744293213e-01 -2.943284623324871063e-02 3.767254650592803955e-01 9.299027323722839355e-01 1.050784230232238770e+00 1.605835556983947754e+00 1.439675688743591309e+00 1.000198006629943848e+00 9.709352254867553711e-01 1.384970396757125854e-01 7.951990962028503418e-01 1.049427866935729980e+00 6.605491042137145996e-01
5.410819128155708313e-02 3.602153658866882324e-01 3.206374645233154297e-01 2.754496932029724121e-01 -1.873553544282913208e-01 -1.905064582824707031e-01 -3.697995245456695557e-01 -6.113222837448120117e-01 -6.664202809333801270e-01 -6.686649322509765625e-01 -1.178117513656616211e+00 -1.092568993568420410e+00 -5.889854431152343750e-01 -1.540751904249191284e-01 2.001753896474838257e-01 9.377133101224899292e-02 -3.349081277847290039e-01 1.873841695487499237e-02 2.600518167018890381e-01 5.339066982269287109e-01 6.962054967880249023e-02 4.409078881144523621e-02 -1.797615177929401398e-02 1.681987196207046509e-01 6.538498997688293457e-01 1.206036061048507690e-01 1.029822587966918945e+00 7.276567816734313965e-01
6.081896275281906128e-02 3.520904779434204102e-01 3.301001787185668945e-01 3.709793090820312500e-01 -3.180578351020812988e-01 -2.753415405750274658e-01 -4.354621171951293945e-01 -7.598112225532531738e-01 -4.137216210365295410e-01 -1.008151531219482422e+00 -5.769662857055664062e-01 -4.886389076709747314e-01 -4.556850492954254150e-01 6.397508084774017334e-02 2.252933531999588013e-01 3.788412511348724365e-01 -1.618042588233947754e-01 3.414194881916046143e-01 3.803879320621490479e-01 3.830709457397460938e-01 9.795752167701721191e-02 -4.131764769554138184e-01 -5.772558450698852539e-01 -8.218465447425842285e-01 1.781139075756072998e-01 6.821564435958862305e-01 2.291336953639984131e-01 1.683098316192626953e+00
5.308629870414733887e-01 6.958534717559814453e-01 7.727057933807373047e-01 6.336547732353210449e-01 -1.339974701404571533e-01 5.241675302386283875e-03 -4.338121116161346436e-01 -7.695050835609436035e-01 -5.800879597663879395e-01 -1.611717104911804199e+00 -2.354958951473236084e-01 -1.147949770092964172e-01 -5.022788643836975098e-01 2.049857005476951599e-02 4.764259755611419678e-01 1.564221382141113281e-01 -3.545119464397430420e-01 9.352782368659973145e-02 5.559397935867309570e-01 2.881091237068176270e-01 -1.915021389722824097e-01 -2.502870559692382812e-01 -3.130951523780822754e-01 -2.777315080165863037e-01 1.623234003782272339e-01 7.052312046289443970e-02 4.092786312103271484e-01 1.958413481712341309e+00
5.360272526741027832e-01 6.075142025947570801e-01 6.869769096374511719e-01 4.730990827083587646e-01 -1.041981857270002365e-02 -2.299099117517471313e-01 -3.566305041313171387e-01 -8.377204537391662598e-01 -8.933414220809936523e-01 -4.975892901420593262e-01 -4.423336386680603027e-01 -7.149246335029602051e-01 -4.806715250015258789e-01 -9.844800829887390137e-02 -1.289566457271575928e-01 -2.413140684366226196e-01 -2.507071197032928467e-01 2.724417112767696381e-02 5.694055557250976562e-01 6.143203377723693848e-01 4.748460650444030762e-02 -1.420004963874816895e-01 -4.639771878719329834e-01 -5.308817028999328613e-01 7.351717352867126465e-02 -1.285023540258407593e-01 4.324876368045806885e-01 1.994600296020507812e+00
4.823960363864898682e-01 5.839438438415527344e-01 5.400456190109252930e-01 5.265209078788757324e-01 -2.467894107103347778e-01 -1.789044886827468872e-01 -2.601871192455291748e-01 -7.337790727615356445e-01 -9.844187498092651367e-01 -6.852099895477294922e-01 -7.996120452880859375e-01 -7.136352062225341797e-01 -1.556003689765930176e-01 1.245128065347671509e-01 3.178243637084960938e-01 3.692393302917480469e-01 9.142698347568511963e-02 -1.114447191357612610e-01 2.689158618450164795e-01 7.941302061080932617e-01 7.057296037673950195e-01 5.299004912376403809e-01 -3.741003870964050293e-01 -8.938571810722351074e-02 -1.569291204214096069e-01 -2.446299493312835693e-01 3.199936747550964355e-01 1.998753547668457031e+00
5.458016395568847656e-01 5.924973487854003906e-01 6.623957157135009766e-01 4.827210307121276855e-01 1.396974176168441772e-01 -3.758080303668975830e-02 -3.075742423534393311e-01 -1.087370395660400391e+00 -5.179944038391113281e-01 -8.167588114738464355e-01 -7.591602951288223267e-02 -1.259972602128982544e-01 -1.149975210428237915e-01 -2.274071983993053436e-02 -1.433141380548477173e-01 4.444308578968048096e-01 1.386266201734542847e-01 -2.644485831260681152e-01 -1.141008496284484863e+00 -1.927139461040496826e-01 4.003134369850158691e-01 4.224698841571807861e-01 6.665962934494018555e-02 -2.704260051250457764e-01 -5.083727240562438965e-01 3.265744745731353760e-01 1.006100535392761230e+00 1.396781444549560547e+00
2.338274270296096802e-01 5.330597162246704102e-01 5.483394861221313477e-01 2.196658402681350708e-01 -2.770743668079376221e-01 -1.183952912688255310e-01 -5.507194399833679199e-01 -6.907736659049987793e-01 -9.206233620643615723e-01 -6.644211411476135254e-01 -7.215384244918823242e-01 -2.453226745128631592e-01 1.817648559808731079e-01 -3.910820782184600830e-01 7.641808688640594482e-02 7.507181763648986816e-01 1.928349882364273071e-01 -2.515730559825897217e-01 -8.004519939422607422e-01 -5.679435729980468750e-01 1.984076648950576782e-01 8.321585655212402344e-01 7.863533496856689453e-01 5.195136368274688721e-02 1.041268780827522278e-01 9.616351127624511719e-01 9.629788398742675781e-01 4.345150291919708252e-01
9.158972650766372681e-02 2.351679801940917969e-01 5.021897330880165100e-02 1.738910675048828125e-01 -6.052508950233459473e-01 -2.259945422410964966e-01 -5.999353528022766113e-01 -4.280950725078582764e-01 -9.211927056312561035e-01 -1.244749903678894043e+00 5.437527969479560852e-02 2.572236657142639160e-01 4.210371151566505432e-02 -1.468758285045623779e-01 3.078677654266357422e-01 5.819973945617675781e-01 1.765662282705307007e-01 3.165063261985778809e-02 -3.217868506908416748e-01 -5.755276978015899658e-02 -4.844551905989646912e-02 1.221544519066810608e-01 6.154842302203178406e-02 2.062504291534423828e-01 3.730839788913726807e-01 7.178580760955810547e-01 4.970964491367340088e-01 -9.553027749061584473e-01
2.740703523159027100e-01 1.697238087654113770e-01 8.654214441776275635e-03 3.635694459080696106e-02 -9.001184999942779541e-02 -3.523803055286407471e-01 -6.598910689353942871e-01 -4.650746881961822510e-01 -1.167812705039978027e+00 -1.443621158599853516e+00 2.329451143741607666e-01 3.604342639446258545e-01 -2.569504380226135254e-01 5.581862851977348328e-02 5.928400754928588867e-01 4.857736527919769287e-01 -1.511050760746002197e-01 -3.681219816207885742e-01 2.476512342691421509e-01 1.890430897474288940e-01 1.413251906633377075e-01 2.453510910272598267e-01 2.432781308889389038e-01 3.466919958591461182e-01 6.345751285552978516e-01 7.341284155845642090e-01 7.126075625419616699e-01 -1.372347593307495117e+00
4.359839856624603271e-01 5.086161494255065918e-01 2.924731932580471039e-02 -1.098975837230682373e-01 -1.679724007844924927e-01 -4.507934153079986572e-01 -1.042016386985778809e+00 -2.030214667320251465e-01 -9.804673194885253906e-01 -1.363721847534179688e+00 -1.248282417654991150e-01 -2.041225433349609375e-01 -5.267720818519592285e-01 7.481675744056701660e-01 6.730059385299682617e-01 5.338585376739501953e-01 -1.269405335187911987e-01 -4.928038120269775391e-01 5.523049235343933105e-01 4.684641063213348389e-01 5.957216024398803711e-01 5.725848078727722168e-01 4.851902127265930176e-01 3.687796741724014282e-02 1.801668703556060791e-01 3.099183142185211182e-01 5.702285766601562500e-01 -1.177378177642822266e+00
-1.181183695793151855e+00 -7.913587093353271484e-01 -1.314994692802429199e+00 -1.882904052734375000e+00 -1.905098557472229004e+00 -1.218288421630859375e+00 -7.377865910530090332e-01 -7.555640935897827148e-01 -1.358582615852355957e+00 -8.491588830947875977e-01 -5.143804550170898438e-01 -6.843391060829162598e-01 -1.318823397159576416e-01 3.195807933807373047e-01 2.128764837980270386e-01 4.637226164340972900e-01 -1.026604101061820984e-01 -3.432710766792297363e-01 8.221673220396041870e-02 4.189563915133476257e-02 5.725656151771545410e-01 5.004410743713378906e-01 2.187171019613742828e-02 2.652936987578868866e-02 -2.317320257425308228e-01 -2.528039216995239258e-01 -4.653708338737487793e-01 -1.120898604393005371e+00
-1.713096857070922852e+00 -4.217553734779357910e-01 -5.047185420989990234e-01 -4.770675897598266602e-01 -1.121585130691528320e+00 -2.393342256546020508e+00 -3.082795619964599609e+00 -2.617484331130981445e+00 -2.208018541336059570e+00 -9.564566612243652344e-01 -4.088405519723892212e-02 5.777360126376152039e-02 3.408288359642028809e-01 3.264346718788146973e-01 5.385944247245788574e-01 2.490557730197906494e-01 -2.106011658906936646e-02 1.468591392040252686e-01 3.489603996276855469e-01 -7.976918667554855347e-02 3.683700263500213623e-01 3.103418946266174316e-01 1.693071722984313965e-01 -2.499392181634902954e-01 -1.735699921846389771e-01 -1.561935544013977051e-01 -4.955492019653320312e-01 -7.612845301628112793e-01
-3.884349346160888672e+00 -1.984071969985961914e+00 -1.674681663513183594e+00 -7.843494415283203125e-01 -2.133530378341674805e+00 -2.733655929565429688e+00 -2.332899093627929688e+00 -2.641943454742431641e+00 -1.911920189857482910e+00 -7.582053542137145996e-01 -1.300365626811981201e-01 1.653282940387725830e-01 1.043860390782356262e-01 3.713495731353759766e-01 2.732253968715667725e-01 5.640429854393005371e-01 3.187140524387359619e-01 1.480420231819152832e-01 2.414204627275466919e-01 3.037387430667877197e-01 -1.620095521211624146e-01 2.219253033399581909e-01 2.322342693805694580e-01 -1.875060610473155975e-02 -4.887882620096206665e-02 -2.738744318485260010e-01 -1.613703072071075439e-01 -3.215203881263732910e-01
-3.581997871398925781e+00 -8.320637941360473633e-01 4.333214461803436279e-01 8.500472307205200195e-01 6.099873185157775879e-01 -9.052667766809463501e-02 -1.242116928100585938e+00 -1.878266811370849609e+00 -1.487671732902526855e+00 -5.682003870606422424e-02 -8.980538696050643921e-02 9.919358789920806885e-02 -1.876772791147232056e-01 3.916118666529655457e-02 4.273458123207092285e-01 2.638002634048461914e-01 1.287630647420883179e-01 1.374500691890716553e-01 1.299032866954803467e-01 2.328743934631347656e-01 1.219060346484184265e-01 1.254994571208953857e-01 -1.934921741485595703e-01 -4.223277866840362549e-01 -3.833514153957366943e-01 -3.307097852230072021e-01 -6.563764065504074097e-02 2.295930385589599609e-01
-1.018463373184204102e+00 2.397589385509490967e-01 1.439449191093444824e+00 1.234567761421203613e+00 5.326635241508483887e-01 -5.807771682739257812e-01 -1.144077062606811523e+00 -1.381569862365722656e+00 -8.481488823890686035e-01 -8.238667249679565430e-02 1.150299236178398132e-01 6.653194874525070190e-02 3.372785449028015137e-02 3.368407189846038818e-01 3.107747435569763184e-01 2.549405395984649658e-01 1.089529618620872498e-01 9.499493986368179321e-03 -8.404853194952011108e-02 -1.955633014440536499e-01 -4.355877935886383057e-01 -3.240804672241210938e-01 -3.719273507595062256e-01 -9.606351703405380249e-02 7.629087660461664200e-03 -2.702331244945526123e-01 -1.495617534965276718e-02 7.255090475082397461e-01
-1.849254965782165527e+00 6.458927392959594727e-01 1.853560805320739746e+00 1.586347818374633789e+00 6.499750614166259766e-01 -7.989801168441772461e-01 -1.402525067329406738e+00 -9.932419061660766602e-01 -5.458636283874511719e-01 -2.266934514045715332e-01 -3.024550341069698334e-02 3.012337684631347656e-01 -3.159315884113311768e-02 3.924574553966522217e-01 4.175583124160766602e-01 3.330752253532409668e-01 7.830221205949783325e-02 -1.888076514005661011e-01 -2.551638334989547729e-02 -1.474056541919708252e-01 -1.021829526871442795e-02 8.898481726646423340e-02 -4.545702636241912842e-01 -1.875921189785003662e-01 6.779696792364120483e-02 -2.638748288154602051e-02 -3.630187828093767166e-03 7.994264960289001465e-01
-1.023699045181274414e+00 2.307230681180953979e-01 1.144971847534179688e+00 1.185780763626098633e+00 1.619926840066909790e-01 -1.170915603637695312e+00 -1.320361018180847168e+00 -9.949791431427001953e-01 -5.777533054351806641e-01 -8.057899773120880127e-02 3.215608000755310059e-02 -7.526481151580810547e-02 4.579156637191772461e-02 3.925932645797729492e-01 2.801557183265686035e-01 1.907961219549179077e-01 -2.287662178277969360e-01 -4.336499422788619995e-02 4.153645932674407959e-01 1.791076213121414185e-01 1.951568722724914551e-01 -7.103460282087326050e-02 -4.101519286632537842e-01 -4.550832509994506836e-01 -2.213120460510253906e-01 -6.369531154632568359e-02 -2.500891983509063721e-01 -3.064690232276916504e-01
-7.191941738128662109e-01 5.346092581748962402e-01 1.615870475769042969e+00 1.258535027503967285e+00 3.440344929695129395e-01 -1.215545415878295898e+00 -1.191081285476684570e+00 -9.451787471771240234e-01 -6.741160154342651367e-01 -2.260033339262008667e-01 1.647383868694305420e-01 1.852852553129196167e-01 1.081769540905952454e-01 5.098919570446014404e-02 -1.004245206713676453e-01 -1.289305742830038071e-02 1.520515084266662598e-01 9.340061806142330170e-03 8.452396094799041748e-02 7.413941621780395508e-02 2.911548316478729248e-01 -2.653237879276275635e-01 -3.113926053047180176e-01 1.890994310379028320e-01 -1.601764708757400513e-01 -1.498264372348785400e-01 -2.077967226505279541e-01 -1.018559217453002930e+00
-1.935642719268798828e+00 2.200100272893905640e-01 1.023121356964111328e+00 7.302381992340087891e-01 4.206359386444091797e-01 -4.634258747100830078e-01 -5.412254929542541504e-01 -2.954358160495758057e-01 9.454210847616195679e-02 1.276324540376663208e-01 3.619706630706787109e-01 3.326874673366546631e-01 4.102411866188049316e-01 6.345989108085632324e-01 1.732959151268005371e-01 -1.443266272544860840e-01 -1.733328551054000854e-01 -1.623151749372482300e-01 -9.598346054553985596e-02 1.588826328516006470e-01 4.663383960723876953e-01 1.149110049009323120e-01 -1.773083955049514771e-01 1.916838586330413818e-01 1.601936072111129761e-01 3.065335452556610107e-01 3.386434316635131836e-01 -1.702607035636901855e+00
-9.797374010086059570e-01 1.601322293281555176e-01 8.388796448707580566e-01 5.824918150901794434e-01 -1.847499758005142212e-01 -1.002983689308166504e+00 -9.827383756637573242e-01 -8.702570796012878418e-01 -1.893129646778106689e-01 1.172311138361692429e-02 3.747285306453704834e-01 7.753212451934814453e-01 5.422850251197814941e-01 4.888859093189239502e-01 -1.695808023214340210e-01 -2.577514946460723877e-01 -3.152000904083251953e-01 -3.660629093647003174e-01 -4.175031930208206177e-02 6.727212667465209961e-01 8.642091155052185059e-01 2.341472357511520386e-01 2.347955256700515747e-01 2.604298293590545654e-01 4.442121684551239014e-01 4.855887889862060547e-01 6.771079301834106445e-01 -1.284641742706298828e+00
-4.880203902721405029e-01 -2.853979468345642090e-01 5.702207684516906738e-01 5.334292054176330566e-01 -1.108058076351881027e-02 -7.307281494140625000e-01 -7.649577260017395020e-01 -6.944469213485717773e-01 -4.971653521060943604e-01 -1.028796061873435974e-01 1.924324333667755127e-01 5.182458162307739258e-01 1.222559809684753418e-01 1.985455900430679321e-01 -2.904026806354522705e-01 -3.369143605232238770e-01 -3.199477791786193848e-01 -3.055837154388427734e-01 -3.313627243041992188e-01 3.027737438678741455e-01 9.758978486061096191e-01 1.236574947834014893e-01 4.266057908535003662e-01 6.028766036033630371e-01 5.184280276298522949e-01 1.053468044847249985e-02 1.071870550513267517e-01 -8.733697235584259033e-02
-1.739938706159591675e-01 8.329202234745025635e-02 9.032892584800720215e-01 6.539103388786315918e-01 2.963073551654815674e-01 -6.597006916999816895e-01 -8.182479143142700195e-01 -5.925710201263427734e-01 -1.451358497142791748e-01 2.615716308355331421e-02 4.309863150119781494e-01 7.132355570793151855e-01 2.646912932395935059e-01 -1.828172653913497925e-01 -3.062703311443328857e-01 -1.165886893868446350e-01 -2.538510560989379883e-01 -7.177259027957916260e-02 -3.792788982391357422e-01 -6.373020261526107788e-02 5.563798546791076660e-01 4.054091125726699829e-02 4.126633405685424805e-01 4.287559688091278076e-01 3.839734494686126709e-01 -1.844846904277801514e-01 5.280494093894958496e-01 1.008145570755004883e+00
-2.165906280279159546e-01 -2.017948627471923828e-01 3.993640244007110596e-01 5.823139548301696777e-01 5.240693688392639160e-01 3.848881646990776062e-02 -3.884969651699066162e-01 -2.592876255512237549e-01 -2.880327217280864716e-02 -3.386263847351074219e-01 -3.575142621994018555e-01 -1.054446473717689514e-01 5.390416830778121948e-03 2.829404771327972412e-01 2.746195793151855469e-01 -2.888858616352081299e-01 4.197984635829925537e-01 3.411216437816619873e-01 -4.821312725543975830e-01 4.728001728653907776e-02 1.585143655538558960e-01 6.644307076930999756e-02 1.602525413036346436e-01 1.623088121414184570e-01 -6.055781152099370956e-03 -6.543112993240356445e-01 -2.539952285587787628e-02 1.327087759971618652e+00
2.937397956848144531e-01 -1.303270608186721802e-01 1.768714040517807007e-01 6.130527853965759277e-01 6.126704216003417969e-01 4.944191873073577881e-01 2.775018215179443359e-01 -4.200077429413795471e-02 -3.213711977005004883e-01 -4.012864232063293457e-01 -3.044582009315490723e-01 -5.954353809356689453e-01 -2.908360660076141357e-01 -1.362398862838745117e-01 -3.454256653785705566e-01 1.999358385801315308e-01 -1.220376640558242798e-01 8.979077637195587158e-02 -3.023614883422851562e-01 2.238437682390213013e-01 4.300809800624847412e-01 -2.071335315704345703e-01 8.305889368057250977e-02 2.851162850856781006e-01 -1.363309770822525024e-01 -6.449486017227172852e-01 2.783196866512298584e-01 1.811358332633972168e+00
-2.755900025367736816e-01 7.231884449720382690e-02 -8.620873093605041504e-02 4.085391759872436523e-01 4.547858536243438721e-01 2.884293794631958008e-01 2.863913774490356445e-01 2.253618240356445312e-01 -1.728784888982772827e-01 -1.874338388442993164e-01 -1.868256628513336182e-01 -7.215930223464965820e-01 -6.684464216232299805e-01 -3.647052347660064697e-01 -2.034677118062973022e-01 -4.842560365796089172e-02 -1.674623053986579180e-04 -1.079310402274131775e-01 -9.849658608436584473e-02 1.568151265382766724e-01 4.951880499720573425e-02 -3.017928302288055420e-01 2.873465232551097870e-02 1.532819122076034546e-01 -1.689818501472473145e-01 -4.413459897041320801e-01 -8.186160027980804443e-02 9.867665767669677734e-01
-2.106831967830657959e-01 -2.885374724864959717e-01 -3.832751214504241943e-01 -7.880526185035705566e-01 5.611449852585792542e-02 3.828264474868774414e-01 3.958005905151367188e-01 5.162145495414733887e-01 3.926750421524047852e-01 -3.218755125999450684e-02 -4.325208961963653564e-01 -5.860757827758789062e-01 -1.044579744338989258e+00 -9.281575083732604980e-01 8.027491718530654907e-02 -5.568127632141113281e-01 -9.732678532600402832e-01 -8.666596412658691406e-01 -7.910673022270202637e-01 -3.255136013031005859e-01 -5.406755954027175903e-02 -3.363144993782043457e-01 -3.099181354045867920e-01 1.211986467242240906e-01 9.618166089057922363e-02 -3.252586126327514648e-01 3.712292313575744629e-01 9.080304503440856934e-01
1.658146232366561890e-01 1.904576867818832397e-01 -5.811747908592224121e-01 -6.653482317924499512e-01 -9.786938428878784180e-01 -1.145881295204162598e+00 -6.108788847923278809e-01 -1.437832862138748169e-01 1.292689293622970581e-01 1.975100189447402954e-01 7.250829786062240601e-02 4.391499795019626617e-03 -1.518470048904418945e-01 9.786170721054077148e-02 -7.395379245281219482e-02 -1.175469517707824707e+00 -1.870337605476379395e+00 -1.327135682106018066e+00 -9.641746282577514648e-01 -7.948670983314514160e-01 -2.151372730731964111e-01 -4.179401099681854248e-01 -3.412398099899291992e-01 1.343936771154403687e-01 1.176081374287605286e-01 1.368401050567626953e-01 4.781157374382019043e-01 8.121505379676818848e-01
