6.760021299123764038e-02 8.086878806352615356e-02 -4.688400030136108398e-02 3.869921900331974030e-03 -1.708809472620487213e-02 6.613139808177947998e-02 5.725509952753782272e-03 -3.827905654907226562e-02 1.116455793380737305e-01
-5.785474181175231934e-02 4.133104160428047180e-02 -4.328272491693496704e-02 -1.845703227445483208e-03 1.140216141939163208e-01 -2.062505297362804413e-02 1.582362353801727295e-01 1.531985700130462646e-01 9.761684387922286987e-02
3.652047738432884216e-02 -7.455513626337051392e-02 -1.631336286664009094e-02 1.242163553833961487e-01 8.577197790145874023e-02 4.737890884280204773e-02 4.150677844882011414e-02 -3.629483282566070557e-02 4.144335910677909851e-02
-5.061512440443038940e-02 -9.591583162546157837e-02 -6.379507482051849365e-02 2.237679436802864075e-02 3.726238757371902466e-02 1.144398525357246399e-01 4.978245124220848083e-03 3.913303092122077942e-02 1.281764060258865356e-01
-8.986078947782516479e-02 -1.130342390388250351e-02 -1.207487285137176514e-02 1.755224540829658508e-03 2.186142466962337494e-02 -7.973432540893554688e-02 -6.458333879709243774e-02 5.738815665245056152e-02 1.235556229948997498e-01
7.066275179386138916e-02 3.997018188238143921e-02 -6.711416412144899368e-03 3.408350050449371338e-02 6.991463899612426758e-02 1.160471737384796143e-01 -5.151604115962982178e-02 -5.068220198154449463e-02 1.226590350270271301e-01
1.312189847230911255e-01 8.808944374322891235e-02 -6.913715600967407227e-02 -5.444961786270141602e-02 -1.134480461478233337e-01 6.439046561717987061e-02 -2.225279994308948517e-02 9.049715101718902588e-02 1.092128008604049683e-01
1.244656369090080261e-01 1.115933433175086975e-01 8.242949098348617554e-02 -1.799295470118522644e-02 -2.007547952234745026e-02 2.200147323310375214e-02 5.094488710165023804e-02 7.750434428453445435e-02 1.781045943498611450e-01
1.008110586553812027e-02 9.884305298328399658e-02 -2.971976995468139648e-02 -9.363264776766300201e-03 2.955719456076622009e-02 5.594303831458091736e-02 -1.028733910061419010e-03 1.412971615791320801e-01 1.916596293449401855e-01
