-8.556379005312919617e-03 -1.408240199089050293e-02 6.144642829895019531e-04 -3.090477176010608673e-02 1.472990214824676514e-02 1.731618493795394897e-02 -2.691349387168884277e-02 -3.454355522990226746e-02 -4.904555156826972961e-03 -1.187710277736186981e-02 -2.768509462475776672e-02 -2.647056803107261658e-02 3.177586793899536133e-01 3.341315984725952148e-01 -5.498877726495265961e-03 -3.536057844758033752e-02 -1.120902784168720245e-02 9.891428053379058838e-04 -2.909976802766323090e-02 -2.755282819271087646e-02 1.799192279577255249e-02 -1.858476363122463226e-02 1.638356223702430725e-02 -3.523784503340721130e-02 2.885835990309715271e-02 3.273254260420799255e-02 -2.947376109659671783e-02 -7.729351520538330078e-03
-2.868611365556716919e-03 -3.221422061324119568e-02 -2.548757940530776978e-03 6.129171699285507202e-03 2.726736366748809814e-01 4.353289902210235596e-01 1.436560630798339844e+00 1.557591438293457031e+00 1.378369927406311035e+00 1.512060046195983887e+00 1.986565828323364258e+00 2.395745992660522461e+00 2.981951951980590820e+00 2.364774227142333984e+00 2.054656505584716797e+00 4.140012860298156738e-01 -1.190321370959281921e-01 1.309241652488708496e+00 3.909765243530273438e+00 4.191269397735595703e+00 3.172550916671752930e+00 2.351563215255737305e+00 1.243619084358215332e+00 5.203042626380920410e-01 -2.550235018134117126e-02 -2.971338108181953430e-02 -9.851967915892601013e-03 3.227029368281364441e-02
1.609133929014205933e-02 -1.048691570758819580e-03 3.420405685901641846e-01 3.315584957599639893e-01 1.597405314445495605e+00 1.922825098037719727e+00 2.349170446395874023e+00 2.492848157882690430e+00 1.130820274353027344e+00 7.024341225624084473e-01 1.098333120346069336e+00 8.383250236511230469e-01 1.198346018791198730e+00 1.005808353424072266e+00 6.864543557167053223e-01 1.042327761650085449e+00 8.813512325286865234e-01 1.171904087066650391e+00 1.579947829246520996e+00 2.923254489898681641e+00 2.556777238845825195e+00 3.683842658996582031e+00 3.063170909881591797e+00 2.798783302307128906e+00 1.535303354263305664e+00 2.568769156932830811e-01 3.504369407892227173e-03 1.969613507390022278e-02
-3.369349986314773560e-02 -4.221022129058837891e-03 -3.560343757271766663e-02 3.193786740303039551e-01 1.138288974761962891e+00 9.213012456893920898e-01 1.189397454261779785e+00 1.467153906822204590e+00 8.838490247726440430e-01 -4.540537595748901367e-01 -1.619005501270294189e-01 1.322827041149139404e-01 -7.314255237579345703e-01 -1.526737213134765625e-01 -4.045957624912261963e-01 8.495664596557617188e-02 -3.746634125709533691e-01 -2.311707884073257446e-01 -1.562697887420654297e-01 6.133835911750793457e-01 -2.305988408625125885e-02 1.433493942022323608e-01 5.304543375968933105e-01 1.263575553894042969e+00 2.460374087095260620e-01 3.584106266498565674e-01 -8.794794976711273193e-02 8.823968470096588135e-03
-2.124101482331752777e-02 2.521498873829841614e-02 -8.331082761287689209e-02 -2.562017440795898438e-01 -1.317631155252456665e-01 -3.178365230560302734e-01 -1.896076500415802002e-01 -9.263955950736999512e-01 -1.600173711776733398e-01 -6.855874657630920410e-01 -2.924246191978454590e-01 -5.626777410507202148e-01 -6.379957795143127441e-01 -3.087376058101654053e-01 -3.177318572998046875e-01 -4.228269159793853760e-01 -2.684201300144195557e-01 2.345392853021621704e-01 -4.062107503414154053e-01 8.036553859710693359e-02 2.370913177728652954e-01 -5.147745609283447266e-01 1.120277941226959229e-01 6.359171867370605469e-01 -6.458373665809631348e-01 -1.041705489158630371e+00 -1.122097849845886230e+00 9.845681488513946533e-03
3.475652262568473816e-02 -4.234686493873596191e-04 7.316718697547912598e-01 -7.047049403190612793e-01 -3.430729210376739502e-01 -7.832843661308288574e-01 -1.015308856964111328e+00 -3.681331574916839600e-01 -3.564155697822570801e-01 -4.113171100616455078e-01 3.103179037570953369e-01 -4.390438795089721680e-01 -4.103112816810607910e-01 -6.562783122062683105e-01 -5.514244437217712402e-01 -4.814473688602447510e-01 -5.268762111663818359e-01 -3.509716689586639404e-01 3.028424382209777832e-01 2.705765366554260254e-01 8.900840282440185547e-01 7.127650380134582520e-01 4.677944257855415344e-02 6.933084726333618164e-01 2.530850768089294434e-01 -1.245899438858032227e+00 -1.691744565963745117e+00 -2.546980977058410645e-05
-1.047100871801376343e-02 -3.411602228879928589e-03 8.702536225318908691e-01 -4.245340824127197266e-01 -8.783187270164489746e-01 -5.118747949600219727e-01 -5.861243009567260742e-01 5.528355836868286133e-01 -4.077328443527221680e-01 3.612135723233222961e-02 -5.811076164245605469e-01 -1.100399866700172424e-01 -1.212913077324628830e-02 -6.965091228485107422e-01 -3.438801765441894531e-01 -1.644630171358585358e-02 -6.297719478607177734e-01 -1.000716537237167358e-01 -4.894888699054718018e-01 1.938314586877822876e-01 6.531405448913574219e-02 1.197123408317565918e+00 1.214399456977844238e+00 5.493117570877075195e-01 -3.775911033153533936e-01 -1.210427999496459961e+00 -1.144337058067321777e+00 -1.058315560221672058e-01
-3.777366131544113159e-03 8.523188531398773193e-03 -3.541306033730506897e-02 -5.685645937919616699e-01 -8.120132088661193848e-01 -1.660118103027343750e+00 -1.055778980255126953e+00 7.176382541656494141e-01 -4.781104624271392822e-01 1.026944071054458618e-01 5.775328353047370911e-02 -1.845649033784866333e-01 -1.215416342020034790e-01 -2.242977768182754517e-01 -8.415563404560089111e-02 2.995414286851882935e-02 -6.433075070381164551e-01 -3.576206862926483154e-01 -8.894901871681213379e-01 -8.835071921348571777e-01 -1.428127408027648926e+00 -1.732969880104064941e-01 1.488796621561050415e-01 2.965002954006195068e-01 8.456137776374816895e-01 -1.008920788764953613e+00 -2.066632658243179321e-01 -4.336210489273071289e-01
-8.569028228521347046e-03 -2.196920476853847504e-02 -3.725634515285491943e-02 -1.089055657386779785e+00 -1.248078107833862305e+00 -1.194811463356018066e+00 -5.566225647926330566e-01 -1.151066869497299194e-01 -1.821615844964981079e-01 2.280225008726119995e-01 -4.000536203384399414e-01 -1.044535487890243530e-01 -9.581077098846435547e-02 -1.833144873380661011e-01 -9.580597877502441406e-01 -7.026939392089843750e-01 -9.760082960128784180e-01 -5.298126935958862305e-01 -6.916385889053344727e-01 -1.813179731369018555e+00 -2.104255437850952148e+00 -3.020698785781860352e+00 -3.658803462982177734e+00 -2.202404499053955078e+00 -2.024535894393920898e+00 -1.050308585166931152e+00 5.478146672248840332e-02 -3.451100289821624756e-01
2.388348057866096497e-02 2.192048728466033936e-02 -3.965709209442138672e-01 -4.283204078674316406e-01 -1.349565863609313965e+00 -1.244166016578674316e+00 -9.601964354515075684e-01 3.313759267330169678e-01 -6.350187957286834717e-02 -5.127574801445007324e-01 -5.715892910957336426e-01 -4.389882683753967285e-01 -2.629247307777404785e-01 -6.131311058998107910e-01 -3.915289938449859619e-01 -6.366506814956665039e-01 -5.284785032272338867e-01 -8.956794142723083496e-01 -1.142090797424316406e+00 -1.132870078086853027e+00 -4.999525249004364014e-01 -6.291199922561645508e-01 -2.294466972351074219e+00 -2.202686786651611328e+00 -2.548216104507446289e+00 -1.787591099739074707e+00 -8.796601891517639160e-01 -3.169659078121185303e-01
8.103311061859130859e-03 -3.757731616497039795e-02 -5.950800776481628418e-01 -5.895822644233703613e-01 -1.818112254142761230e+00 -4.260002672672271729e-01 -8.518669009208679199e-02 2.995939552783966064e-01 7.680839300155639648e-02 -4.025774896144866943e-01 -2.101089805364608765e-01 -4.833310544490814209e-01 -3.230822384357452393e-01 -1.054400391876697540e-02 -2.259259521961212158e-01 -6.120965480804443359e-01 -4.173984751105308533e-02 -1.035501360893249512e+00 -7.374240756034851074e-01 -1.391412317752838135e-01 -1.104888841509819031e-01 -2.420999808236956596e-03 -3.571687638759613037e-01 -5.749416351318359375e-01 -1.695878744125366211e+00 -2.500519752502441406e+00 -1.147982716560363770e+00 -4.360122978687286377e-01
-5.337851122021675110e-03 -3.032897412776947021e-02 -2.406981885433197021e-01 -7.084893584251403809e-01 -2.615347862243652344e+00 4.086380824446678162e-02 -3.052689731121063232e-01 2.031044065952301025e-01 -3.766496479511260986e-02 2.607681155204772949e-01 4.371555522084236145e-02 -2.128070145845413208e-01 3.382828831672668457e-01 5.642378926277160645e-01 -2.133896052837371826e-01 -8.505127429962158203e-01 -2.216187417507171631e-01 -4.693100452423095703e-01 -3.263640701770782471e-01 -4.075475037097930908e-01 -6.177061051130294800e-02 -1.791361123323440552e-01 2.766143679618835449e-01 5.181648731231689453e-01 -4.443294703960418701e-01 -2.533237695693969727e+00 -1.125578284263610840e+00 -2.826571464538574219e-01
1.105180010199546814e-02 6.244677584618330002e-03 -5.123259425163269043e-01 -8.812257051467895508e-01 -2.769286632537841797e+00 -8.994510173797607422e-01 3.612199127674102783e-01 3.227566778659820557e-01 3.171970248222351074e-01 5.162957906723022461e-01 2.479539066553115845e-01 8.470352888107299805e-01 3.328025341033935547e-01 3.154309988021850586e-01 -4.485297203063964844e-01 -3.851079046726226807e-01 -2.279982417821884155e-01 8.775773644447326660e-02 1.066716834902763367e-01 -3.195672035217285156e-01 -1.702591925859451294e-01 9.606517851352691650e-02 7.938752770423889160e-01 7.841528058052062988e-01 7.256768941879272461e-01 -2.055818080902099609e+00 -2.178151607513427734e+00 -2.804794609546661377e-01
-2.307988703250885010e-03 1.594562828540802002e-02 -2.683222293853759766e-01 -9.499794244766235352e-01 -3.105985164642333984e+00 2.203385904431343079e-02 1.259163856506347656e+00 -2.328227162361145020e-01 3.581327572464942932e-02 1.288843601942062378e-01 8.391239047050476074e-01 -7.881461828947067261e-02 3.852679431438446045e-01 3.061769902706146240e-01 -4.073153436183929443e-01 3.293619155883789062e-01 1.031002849340438843e-01 -3.279584050178527832e-01 -1.045689731836318970e-01 3.252418339252471924e-01 1.004306823015213013e-01 1.110809296369552612e-01 3.491703867912292480e-01 6.022393703460693359e-01 1.058704972267150879e+00 -2.179733514785766602e+00 -3.021386861801147461e+00 -5.500222370028495789e-02
1.153334882110357285e-02 -1.861756294965744019e-02 -8.063312619924545288e-03 -5.031776428222656250e-01 -2.602740049362182617e+00 -1.854366213083267212e-01 3.993755280971527100e-01 2.439111173152923584e-01 4.974269568920135498e-01 5.832749232649803162e-02 4.678805470466613770e-01 3.781410455703735352e-01 9.268777817487716675e-02 1.226818710565567017e-01 3.572411835193634033e-02 1.329509764909744263e-01 1.824785172939300537e-01 -6.849927827715873718e-03 5.228489264845848083e-02 -1.090562045574188232e-01 -1.936655491590499878e-01 1.406756788492202759e-01 6.769161224365234375e-01 1.879754215478897095e-01 -2.944583296775817871e-01 -2.880005240440368652e-01 -2.437631130218505859e+00 -3.864216208457946777e-01
3.210477530956268311e-02 -2.603930793702602386e-02 -2.504100650548934937e-02 -4.868142604827880859e-01 -1.568368911743164062e+00 -3.260186016559600830e-01 2.024830281734466553e-01 7.055472731590270996e-01 2.184753566980361938e-01 2.624876201152801514e-01 -1.307567860931158066e-02 1.364170759916305542e-01 3.756467998027801514e-01 1.303011476993560791e-01 4.717245101928710938e-01 -3.493221942335367203e-03 -1.465526223182678223e-02 2.252402305603027344e-01 -4.618812724947929382e-02 -5.519682541489601135e-02 4.494858384132385254e-01 8.365156054496765137e-01 -9.483245760202407837e-02 -5.132622718811035156e-01 -1.554421037435531616e-01 -2.185278087854385376e-01 -1.808823466300964355e+00 -2.753210067749023438e-01
2.315803244709968567e-02 -2.560486644506454468e-02 -2.064118534326553345e-02 -1.980627775192260742e-01 -1.362482428550720215e+00 -2.001899927854537964e-01 2.703181505203247070e-01 2.545656859874725342e-01 -9.525135159492492676e-02 4.153333604335784912e-01 1.844219863414764404e-01 1.179239511489868164e+00 -4.747952818870544434e-01 9.948725812137126923e-03 4.593711197376251221e-01 2.362166792154312134e-01 -1.084406971931457520e-01 -3.067355751991271973e-01 -1.942182183265686035e-01 4.218584895133972168e-01 -2.029702663421630859e-01 7.089937478303909302e-02 -5.563759431242942810e-02 -5.633106827735900879e-01 5.376467481255531311e-02 -1.032172441482543945e+00 -2.554174900054931641e+00 -7.512413859367370605e-01
9.551882743835449219e-03 -6.406051106750965118e-03 -3.301580250263214111e-01 -2.468267083168029785e-01 -9.059538841247558594e-01 -2.704574763774871826e-01 -2.350017987191677094e-02 -9.630026668310165405e-02 5.278311967849731445e-01 1.592274308204650879e-01 7.334812879562377930e-01 7.146542668342590332e-01 1.707053780555725098e-01 2.850944548845291138e-02 2.683523595333099365e-01 -1.561751067638397217e-01 -1.693565845489501953e-01 4.060053452849388123e-02 7.951574772596359253e-02 5.737957358360290527e-02 -3.948622196912765503e-02 1.502369344234466553e-01 4.555876851081848145e-01 -1.136661544442176819e-01 -1.234588623046875000e-01 -4.649439752101898193e-01 -1.480294942855834961e+00 -8.572944402694702148e-01
-2.057302556931972504e-02 -3.059514984488487244e-02 -5.923090577125549316e-01 -3.409691751003265381e-01 -5.968665480613708496e-01 -1.393902599811553955e-01 -4.092661142349243164e-01 4.919185042381286621e-01 1.416243314743041992e-01 9.090209007263183594e-02 -1.028678864240646362e-01 -2.371788471937179565e-01 7.064780592918395996e-01 3.852727413177490234e-01 3.374923467636108398e-01 2.027270048856735229e-01 2.396866679191589355e-01 -4.070127382874488831e-02 3.945508301258087158e-01 -3.518552780151367188e-01 -1.056768298149108887e-01 1.626862883567810059e-01 -1.908782273530960083e-01 4.031912982463836670e-01 -1.080013632774353027e+00 -7.661514878273010254e-01 -5.766617059707641602e-01 -1.115518584847450256e-01
-3.054019436240196228e-02 -1.637510582804679871e-02 6.665930151939392090e-03 -5.471890568733215332e-01 -5.163997039198875427e-02 -1.679658591747283936e-01 -7.585345506668090820e-01 -5.000911280512809753e-02 -4.077668488025665283e-01 3.135959804058074951e-01 4.742774963378906250e-01 6.179069876670837402e-01 9.758968353271484375e-01 1.615971326828002930e-01 5.494561418890953064e-02 4.408775866031646729e-01 2.372011989355087280e-01 -1.056103259325027466e-01 3.938445448875427246e-01 4.354017972946166992e-02 -3.918365240097045898e-01 -2.537880241870880127e-01 -4.221297502517700195e-01 3.063345253467559814e-01 -8.243669867515563965e-01 -5.695620775222778320e-01 -8.349417448043823242e-01 -5.421756953001022339e-02
5.018364638090133667e-03 -2.447117865085601807e-02 2.329964935779571533e-01 -7.498687505722045898e-01 2.368596382439136505e-02 -1.568321436643600464e-01 -4.640788435935974121e-01 -2.909748256206512451e-01 -5.426952838897705078e-01 -1.841450780630111694e-01 2.675400078296661377e-01 1.761896759271621704e-01 4.337386190891265869e-01 -2.047661319375038147e-02 7.285929918289184570e-01 4.961961507797241211e-01 1.252442449331283569e-01 7.172064483165740967e-02 5.040888786315917969e-01 -3.342615440487861633e-02 -1.620879620313644409e-01 -1.818654686212539673e-01 -7.603878378868103027e-01 5.369353890419006348e-01 -6.790056824684143066e-01 -6.161477565765380859e-01 -8.942073583602905273e-01 -1.003815978765487671e-02
-6.507709622383117676e-04 -9.312344714999198914e-03 3.164366185665130615e-01 -3.190135955810546875e-01 -7.205739617347717285e-01 -2.105419337749481201e-01 -1.244540929794311523e+00 2.371219545602798462e-02 -2.516894042491912842e-02 1.942776143550872803e-01 1.130864620208740234e-01 2.638069689273834229e-01 7.472303509712219238e-01 9.466981291770935059e-01 5.465019345283508301e-01 5.306679606437683105e-01 6.142969429492950439e-02 4.828731715679168701e-01 2.092199176549911499e-01 -1.924351155757904053e-01 3.372504115104675293e-01 -9.245212674140930176e-01 -8.496175408363342285e-01 3.535214066505432129e-01 1.082048863172531128e-01 4.719417691230773926e-01 1.455942094326019287e-01 3.419084474444389343e-02
3.482476249337196350e-02 -1.043830066919326782e-03 2.368840575218200684e-02 -2.101393491029739380e-01 -1.456531882286071777e+00 -1.712729334831237793e+00 -9.999846220016479492e-01 3.665449842810630798e-02 -5.627415329217910767e-02 7.828267216682434082e-01 5.741523504257202148e-01 2.472045123577117920e-01 6.844486594200134277e-01 6.149712800979614258e-01 -2.435179352760314941e-01 8.735001683235168457e-01 4.772416651248931885e-01 1.832447946071624756e-01 4.821062982082366943e-01 -1.166606554761528969e-03 2.106411457061767578e-01 -1.046356797218322754e+00 -3.759848773479461670e-01 -6.649070978164672852e-01 -1.691454768180847168e+00 -5.105301737785339355e-01 2.992205917835235596e-01 2.017176151275634766e-02
-1.185038313269615173e-02 1.042369008064270020e-02 3.317445889115333557e-02 -1.829485292546451092e-03 -3.301281630992889404e-01 -1.090693950653076172e+00 -2.506702661514282227e+00 -3.456677675247192383e+00 -2.595638751983642578e+00 -1.440786361694335938e+00 -1.042051315307617188e+00 -1.036429524421691895e+00 -1.163419485092163086e-01 -3.137500882148742676e-01 -3.974045813083648682e-01 3.672512248158454895e-02 -4.057990312576293945e-01 -9.924471378326416016e-01 -7.386851310729980469e-01 -1.510978221893310547e+00 -5.048086047172546387e-01 -8.823827505111694336e-01 -1.060256004333496094e+00 -1.615874052047729492e+00 -1.363820195198059082e+00 -7.845084071159362793e-01 -1.901986263692378998e-02 -3.301001712679862976e-02
-3.524977713823318481e-03 -1.027752645313739777e-02 -3.539555706083774567e-03 -2.840707078576087952e-02 1.000244729220867157e-02 -2.635728567838668823e-02 -7.506704330444335938e-02 -8.766646385192871094e-01 -1.159117698669433594e+00 -1.721971750259399414e+00 -2.809808731079101562e+00 -2.864898681640625000e+00 -3.322638034820556641e+00 -3.490271568298339844e+00 -4.552230358123779297e+00 -4.101178646087646484e+00 -3.622021198272705078e+00 -3.430790185928344727e+00 -2.805097818374633789e+00 -1.841233611106872559e+00 -1.371023535728454590e+00 -8.270310759544372559e-01 -3.892034590244293213e-01 -7.656907290220260620e-02 -5.590504407882690430e-02 -4.004596546292304993e-02 -3.410506248474121094e-02 1.443612203001976013e-02
-3.508403524756431580e-02 -9.796297177672386169e-03 2.679333463311195374e-02 -1.061707735061645508e-06 -3.315290063619613647e-02 2.513240277767181396e-02 -1.045168489217758179e-01 -1.340303719043731689e-01 -2.356757074594497681e-01 -5.027214884757995605e-01 -7.398131489753723145e-01 -1.889038383960723877e-01 -3.498598337173461914e-01 -5.828815698623657227e-01 -7.034895420074462891e-01 -9.835241436958312988e-01 -1.032278060913085938e+00 -4.205473065376281738e-01 -3.294454216957092285e-01 -3.024639785289764404e-01 -1.844608187675476074e-01 -9.856797009706497192e-02 -2.575135417282581329e-02 -2.034732513129711151e-02 -1.685240119695663452e-02 2.609779499471187592e-02 5.661550443619489670e-03 -7.622728124260902405e-03
-3.303712606430053711e-02 4.314213991165161133e-03 -2.622090280055999756e-03 -1.107962615787982941e-02 2.774999290704727173e-02 1.512594800442457199e-02 1.256864983588457108e-02 -3.493773564696311951e-02 -2.191174961626529694e-02 -3.870663791894912720e-02 7.333757355809211731e-03 -3.759259358048439026e-02 -5.983762443065643311e-02 -1.196087524294853210e-01 -1.326835304498672485e-01 -2.630094885826110840e-01 -5.460049957036972046e-02 -7.483997941017150879e-02 -4.746174439787864685e-02 -8.455781638622283936e-02 -7.278482615947723389e-02 -4.220729321241378784e-02 -1.581039093434810638e-02 2.226560749113559723e-02 -1.841113902628421783e-02 -2.694413997232913971e-02 -1.078224182128906250e-02 -2.861965447664260864e-03
1.942951604723930359e-02 -5.519840866327285767e-03 2.354581654071807861e-02 4.614144563674926758e-05 -1.237925514578819275e-02 -1.256537996232509613e-02 3.220109269022941589e-02 3.389545902609825134e-02 -2.562979795038700104e-02 3.323724027723073959e-03 -1.719634234905242920e-02 3.059545718133449554e-02 3.203125204890966415e-03 -8.807595819234848022e-03 1.354809384793043137e-02 -6.040150299668312073e-03 -3.415929898619651794e-02 -3.177483007311820984e-02 1.782209426164627075e-02 1.763899065554141998e-02 -1.355087943375110626e-02 -2.189716883003711700e-02 -5.731163918972015381e-02 2.816278859972953796e-02 -1.127864606678485870e-02 4.546321928501129150e-03 -1.310986839234828949e-02 7.826521992683410645e-03
