1.895094290375709534e-02 2.134687453508377075e-02 9.072563610970973969e-03 1.268959883600473404e-02 -8.313209749758243561e-03 -5.217570066452026367e-02 -5.818781629204750061e-02 -5.775318145751953125e-01 -9.030427932739257812e-01 -7.199823856353759766e-01 -1.502738595008850098e+00 -1.442468166351318359e+00 -1.580829739570617676e+00 -1.703212738037109375e+00 -1.986939668655395508e+00 -1.866396546363830566e+00 -9.637834429740905762e-01 -1.656679034233093262e+00 -1.347474098205566406e+00 -8.490174412727355957e-01 -8.650972843170166016e-01 -7.409792542457580566e-01 -8.263351768255233765e-02 -1.025843769311904907e-01 -2.035834640264511108e-02 1.231323741376399994e-02 -3.627787157893180847e-02 3.034312650561332703e-02
3.337882459163665771e-03 -1.669652760028839111e-03 7.846269756555557251e-03 -2.853432670235633850e-02 -4.698902368545532227e-02 -6.668850034475326538e-02 -4.229564368724822998e-01 -8.812685608863830566e-01 -8.766772747039794922e-01 -1.133092522621154785e+00 -1.324851155281066895e+00 -1.646476507186889648e+00 -1.295190811157226562e+00 -1.506893992424011230e+00 -1.808296799659729004e+00 -1.954471945762634277e+00 -1.740281343460083008e+00 -1.273716688156127930e+00 -1.631510257720947266e+00 -1.163363695144653320e+00 -9.276353120803833008e-01 -7.737840414047241211e-01 -3.657623827457427979e-01 -4.696518182754516602e-02 -3.816156461834907532e-02 -7.454482838511466980e-03 -2.758293645456433296e-03 8.029750548303127289e-03
-6.489846855401992798e-03 1.834247820079326630e-02 -3.166636079549789429e-02 2.015045471489429474e-02 -5.778453778475522995e-03 -3.611840307712554932e-01 -3.889390230178833008e-01 -8.401844501495361328e-01 -9.452055692672729492e-01 -1.554588198661804199e+00 -1.086088061332702637e+00 -2.205805778503417969e+00 -1.347908854484558105e+00 -1.730207443237304688e+00 -1.699661850929260254e+00 -1.733278036117553711e+00 -1.811088323593139648e+00 -1.558410286903381348e+00 -1.031634092330932617e+00 -1.984171271324157715e+00 -1.035845398902893066e+00 -8.891062140464782715e-01 -4.685815870761871338e-01 -4.405343234539031982e-01 -5.026184394955635071e-02 1.246682461351156235e-02 -1.233644559979438782e-01 8.664743043482303619e-03
-3.579953312873840332e-01 -3.028629422187805176e-01 -2.971159517765045166e-01 -2.949569821357727051e-01 -6.662068367004394531e-01 -6.879517436027526855e-01 -6.685102581977844238e-01 -1.418613195419311523e+00 -1.719252943992614746e+00 -1.603438615798950195e+00 -1.175058126449584961e+00 -2.008652210235595703e+00 -2.054825782775878906e+00 -8.635176420211791992e-01 -1.339718580245971680e+00 -7.048068642616271973e-01 -6.612654328346252441e-01 -9.561907649040222168e-01 -5.215056538581848145e-01 -1.428812742233276367e+00 -1.899657368659973145e+00 -1.549798607826232910e+00 -1.927886843681335449e+00 -1.123106956481933594e+00 -3.711478710174560547e-01 -8.855162262916564941e-01 -5.460054278373718262e-01 -4.025788307189941406e-01
-3.236335515975952148e-01 -3.303509950637817383e-01 -3.383972644805908203e-01 -3.359334468841552734e-01 -6.495941281318664551e-01 -7.225868701934814453e-01 -7.168913483619689941e-01 -1.141815304756164551e+00 -1.807181000709533691e+00 -6.737602353096008301e-01 -2.615523576736450195e+00 -2.178238391876220703e+00 -3.068393707275390625e+00 -2.659602642059326172e+00 -1.920403838157653809e+00 -9.212086796760559082e-01 -1.212239027023315430e+00 -2.619941532611846924e-01 1.240157246589660645e+00 -9.580649733543395996e-01 6.175549626350402832e-01 -3.540245890617370605e-01 -5.055995941162109375e+00 -4.022167682647705078e+00 -3.559736728668212891e+00 -3.308831453323364258e+00 -2.067708015441894531e+00 -2.358361721038818359e+00
-2.470861524343490601e-01 -3.196944296360015869e-02 -6.450556963682174683e-02 -9.284361451864242554e-02 -3.724849224090576172e-01 -2.517694532871246338e-01 -5.995627641677856445e-01 -1.018495321273803711e+00 7.883173227310180664e-01 3.675438091158866882e-02 -1.754763007164001465e+00 -8.700463771820068359e-01 -2.039392709732055664e+00 -2.716753721237182617e+00 -1.253915071487426758e+00 1.352084755897521973e+00 4.910842478275299072e-01 2.571242451667785645e-01 2.099438011646270752e-01 3.511171936988830566e-01 9.761474132537841797e-01 6.686781048774719238e-01 -2.750509500503540039e+00 -2.975342035293579102e+00 -2.457789182662963867e+00 -2.664638280868530273e+00 -1.919146180152893066e+00 -2.449246168136596680e+00
-3.597896099090576172e-01 -4.773685634136199951e-01 -4.250883460044860840e-01 -6.350728273391723633e-01 -4.690977036952972412e-01 -1.193914860486984253e-01 -8.074251413345336914e-01 -1.472201108932495117e+00 2.865395069122314453e+00 -1.258939951658248901e-01 5.362355113029479980e-01 -1.923690915107727051e+00 -1.536845564842224121e+00 -7.237116694450378418e-01 2.251373678445816040e-01 -3.529820144176483154e-01 -1.914801821112632751e-02 1.730704605579376221e-01 5.847782492637634277e-01 9.826200604438781738e-01 5.801450610160827637e-01 -4.218553006649017334e-01 -1.113163113594055176e+00 -2.041033267974853516e+00 8.815145492553710938e-02 -5.515287518501281738e-01 -2.154366254806518555e+00 -2.676298379898071289e+00
-5.628394484519958496e-01 2.109059505164623260e-02 2.727421820163726807e-01 -4.841052740812301636e-02 8.356401920318603516e-01 1.146764874458312988e+00 -5.804305672645568848e-01 -3.127704620361328125e+00 1.167412519454956055e+00 -8.377179503440856934e-01 -1.072455525398254395e+00 -4.372870922088623047e+00 -1.927041769027709961e+00 -6.266204714775085449e-01 -9.342476725578308105e-01 -3.902429342269897461e-02 -4.784627817571163177e-03 3.005887269973754883e-01 7.619528174400329590e-01 1.104532599449157715e+00 -1.534350514411926270e-01 -8.312417864799499512e-01 -8.236137032508850098e-01 4.047949612140655518e-02 -5.044138804078102112e-02 -9.170081615447998047e-01 -6.551364064216613770e-01 -1.577988147735595703e+00
-5.174313858151435852e-02 -5.274154245853424072e-02 1.479471772909164429e-01 7.463888525962829590e-01 7.433375716209411621e-01 2.092626571655273438e+00 4.927294254302978516e-01 -4.986426532268524170e-01 1.913915514945983887e+00 5.018553137779235840e-01 -2.245907306671142578e+00 -3.254997134208679199e-01 1.042117714881896973e+00 -4.951340258121490479e-01 3.973984718322753906e-02 -5.108998417854309082e-01 2.389281094074249268e-01 3.071832358837127686e-01 5.283527970314025879e-01 3.836698830127716064e-01 -4.167906343936920166e-01 -2.946541011333465576e-01 -3.567230105400085449e-01 -3.807285726070404053e-01 1.721365004777908325e-01 -1.703972369432449341e-01 -9.914249926805496216e-02 1.842433661222457886e-01
3.657459020614624023e-01 7.186903953552246094e-01 -2.284548580646514893e-01 6.863573193550109863e-01 1.314630031585693359e+00 1.082111597061157227e+00 1.670207262039184570e+00 -4.576861560344696045e-01 -1.399431943893432617e+00 -2.271970272064208984e+00 -7.836898565292358398e-01 5.713616013526916504e-01 2.083592675626277924e-02 2.487208843231201172e-01 -4.450578391551971436e-01 -2.604210078716278076e-01 2.300361394882202148e-01 7.298961877822875977e-01 2.850418090820312500e-01 -1.577205955982208252e-02 -2.749110460281372070e-01 -9.684768915176391602e-01 -1.386272758245468140e-01 4.367720782756805420e-01 -3.442981243133544922e-01 5.540773645043373108e-02 -9.939663857221603394e-02 5.140269994735717773e-01
-1.124661564826965332e-01 1.029653176665306091e-01 -4.014224708080291748e-01 -1.976695656776428223e+00 -1.404551506042480469e+00 -4.068525791168212891e+00 -4.210080146789550781e+00 -4.261814117431640625e+00 -1.639165401458740234e+00 -2.785383462905883789e-01 -2.277456074953079224e-01 7.000463008880615234e-01 3.285082578659057617e-01 -3.827916085720062256e-01 -3.312301123514771461e-03 -3.220005035400390625e-01 -4.239103198051452637e-02 5.783865451812744141e-01 -7.239484786987304688e-02 4.423294216394424438e-02 -3.741231262683868408e-01 -8.048290014266967773e-01 -9.627066552639007568e-03 3.353229165077209473e-01 -1.692895591259002686e-01 1.463502049446105957e-01 -2.020042836666107178e-01 -8.645087480545043945e-01
-2.655757427215576172e+00 -6.842923164367675781e-01 -9.099480509757995605e-01 -3.265668451786041260e-01 -3.430411577224731445e+00 -6.715075016021728516e+00 -3.553245067596435547e+00 -7.793970704078674316e-01 1.817333698272705078e-01 9.846380352973937988e-02 2.475526034832000732e-01 7.871680855751037598e-01 2.970741316676139832e-02 -1.732879690825939178e-02 5.590794235467910767e-02 -2.844587527215480804e-02 1.485386788845062256e-01 3.439924716949462891e-01 -2.501119300723075867e-02 2.333659119904041290e-02 -1.992124766111373901e-01 -3.538378179073333740e-01 1.218420043587684631e-01 -1.218071952462196350e-01 1.212436556816101074e-01 -4.607205837965011597e-02 2.724218964576721191e-01 1.156244874000549316e-01
-3.103513717651367188e+00 -1.512217640876770020e+00 5.627610087394714355e-01 1.098784804344177246e+00 8.692461848258972168e-01 -4.216442406177520752e-01 -9.622145295143127441e-01 -1.157317161560058594e+00 4.258530437946319580e-01 7.289710920304059982e-03 1.443513296544551849e-02 2.482358217239379883e-01 -8.236698806285858154e-02 9.349533170461654663e-02 -1.894636601209640503e-01 3.319749534130096436e-01 3.701012581586837769e-02 1.192437782883644104e-01 1.690712571144104004e-01 1.185247600078582764e-01 -8.880586177110671997e-02 -1.861519068479537964e-01 6.527692824602127075e-02 -1.334293633699417114e-01 4.541617631912231445e-02 -5.190582573413848877e-02 5.704392790794372559e-01 6.286934614181518555e-01
-2.803555488586425781e+00 -5.275326594710350037e-02 5.689806342124938965e-01 1.471888184547424316e+00 4.819381237030029297e-01 -1.506899118423461914e+00 -4.760155677795410156e-01 -1.764995157718658447e-01 9.974315762519836426e-02 4.156023561954498291e-01 1.899688392877578735e-01 2.048878669738769531e-01 -5.734614096581935883e-03 1.689340323209762573e-01 1.913800835609436035e-01 1.484727561473846436e-01 4.571333527565002441e-02 5.168724060058593750e-02 2.275822013616561890e-01 7.465994451195001602e-03 8.397094905376434326e-02 5.706764012575149536e-02 6.350847333669662476e-02 2.930155992507934570e-01 1.012037228792905807e-02 5.338695049285888672e-01 4.392984211444854736e-01 3.917472064495086670e-01
-7.866312265396118164e-01 6.818552315235137939e-02 3.142260015010833740e-01 1.027401804924011230e+00 2.855206727981567383e-01 -1.700187444686889648e+00 -3.228309750556945801e-01 -4.429746419191360474e-02 3.251271843910217285e-01 -4.531548917293548584e-02 3.175613284111022949e-01 2.952607572078704834e-01 -7.951165735721588135e-02 3.507296144962310791e-01 9.355245530605316162e-02 1.398963928222656250e-01 2.782827019691467285e-01 1.679485291242599487e-02 5.264417827129364014e-02 1.383486948907375336e-02 -3.520752489566802979e-01 2.966687679290771484e-01 -3.929983973503112793e-01 2.826966941356658936e-01 4.164329767227172852e-01 8.984391689300537109e-01 7.933306097984313965e-01 3.950178027153015137e-01
3.269026875495910645e-01 1.405507028102874756e-01 3.805558979511260986e-01 8.558897376060485840e-01 4.498074352741241455e-01 -1.664970755577087402e+00 -7.079713344573974609e-01 -6.320297718048095703e-02 8.075896650552749634e-02 2.672400176525115967e-01 -1.237841099500656128e-01 1.681631505489349365e-01 -3.989601507782936096e-03 -5.190668627619743347e-02 6.656109541654586792e-02 5.400447174906730652e-02 -1.162697449326515198e-01 -1.917532533407211304e-01 2.993588522076606750e-02 -3.460092842578887939e-01 -2.363645285367965698e-01 -1.296760588884353638e-01 -3.737856075167655945e-02 2.266029864549636841e-01 2.679886519908905029e-01 7.708519101142883301e-01 1.451425105333328247e-01 -1.398427963256835938e+00
8.230879306793212891e-01 4.731384217739105225e-01 -1.324620693922042847e-01 5.951847434043884277e-01 9.868777543306350708e-02 -1.237215518951416016e+00 -7.342994213104248047e-01 -4.379941821098327637e-01 -2.613368928432464600e-01 1.129650920629501343e-01 1.495478004217147827e-01 -6.794974207878112793e-02 4.560001194477081299e-02 1.151712834835052490e-01 -6.560394167900085449e-02 3.014325499534606934e-01 2.087943851947784424e-01 2.605352997779846191e-01 -9.602237492799758911e-02 -1.070001944899559021e-01 -9.279071539640426636e-02 4.825193434953689575e-02 -4.012588262557983398e-01 5.321713164448738098e-02 4.133184999227523804e-02 3.442898988723754883e-01 -4.105375409126281738e-01 3.993229940533638000e-02
6.748090386390686035e-01 2.791983783245086670e-01 4.518686532974243164e-01 1.983270794153213501e-01 -1.335598379373550415e-01 -7.679969072341918945e-01 -5.181466937065124512e-01 -6.940297484397888184e-01 2.880216836929321289e-01 -2.085191607475280762e-01 3.299245238304138184e-01 7.349773645401000977e-01 -1.420221328735351562e-01 -6.744157522916793823e-02 -4.095902740955352783e-01 1.278707534074783325e-01 3.597103357315063477e-01 3.085842430591583252e-01 -5.486972630023956299e-02 -2.032618224620819092e-01 -2.161933295428752899e-02 -3.439963757991790771e-01 -7.001028954982757568e-02 1.707576066255569458e-01 -9.636933356523513794e-02 -2.332061827182769775e-01 -2.532607913017272949e-01 -2.100288271903991699e-01
5.182515382766723633e-01 1.607120484113693237e-01 2.171620875597000122e-01 3.508610650897026062e-02 -3.151784241199493408e-01 -4.231019318103790283e-01 -5.071332454681396484e-01 -2.417007088661193848e-01 7.711030542850494385e-02 5.734473094344139099e-02 3.040222227573394775e-01 3.891419246792793274e-02 -1.481673270463943481e-01 3.402033150196075439e-01 -1.941344887018203735e-02 1.413071453571319580e-01 9.783232212066650391e-02 -1.036367565393447876e-01 2.769880592823028564e-01 2.903116643428802490e-01 -1.066433414816856384e-01 -1.467733737081289291e-02 -4.400747418403625488e-01 -1.795590817928314209e-01 -1.601354330778121948e-01 -5.975116491317749023e-01 3.976299166679382324e-01 1.422622054815292358e-01
3.216702044010162354e-01 -3.714929521083831787e-01 -1.308290660381317139e-02 -1.818340271711349487e-01 1.166300550103187561e-01 -1.023592829704284668e+00 -1.247069612145423889e-01 -2.123872935771942139e-01 4.725474119186401367e-01 -3.451522067189216614e-02 4.252612590789794922e-02 -4.302962422370910645e-01 -5.099619030952453613e-01 -5.601085722446441650e-03 2.709063589572906494e-01 6.039393544197082520e-01 2.705863416194915771e-01 5.915590524673461914e-01 5.134058594703674316e-01 1.747541725635528564e-01 -2.483758926391601562e-01 -9.393835067749023438e-02 -1.889826208353042603e-01 -2.226949930191040039e-01 2.736991085112094879e-02 -9.276857376098632812e-01 -2.326139658689498901e-01 1.353086471557617188e+00
1.193515062332153320e+00 -2.495739758014678955e-01 -3.850606083869934082e-02 1.510298531502485275e-02 3.667777776718139648e-01 -4.309336543083190918e-01 4.407829791307449341e-02 4.066444933414459229e-02 5.776544213294982910e-01 -2.103394716978073120e-01 -3.889932334423065186e-01 -5.480319857597351074e-01 -8.740463852882385254e-01 -7.421967983245849609e-01 -2.442556172609329224e-01 8.036575913429260254e-01 7.617280483245849609e-01 1.725421309471130371e+00 1.162481427192687988e+00 6.682825088500976562e-01 -1.049344658851623535e+00 -8.538721799850463867e-01 1.061767488718032837e-01 1.445553451776504517e-01 -1.605724543333053589e-01 -9.596862792968750000e-01 -2.223330736160278320e-01 1.039752244949340820e+00
6.588705778121948242e-01 -1.025096535682678223e+00 2.276422083377838135e-01 2.943598628044128418e-01 1.584165543317794800e-01 -3.042151927947998047e-01 2.980917990207672119e-01 1.917925029993057251e-01 3.934108912944793701e-01 2.136427313089370728e-01 -7.009087800979614258e-01 -1.004061579704284668e+00 -1.104714512825012207e+00 -1.302066683769226074e+00 -1.107364296913146973e-01 7.238662242889404297e-01 1.795280575752258301e+00 1.809932231903076172e+00 1.611841082572937012e+00 8.538699746131896973e-01 -1.720827221870422363e+00 -8.491469025611877441e-01 -1.905011385679244995e-01 -2.974279224872589111e-01 -5.279023051261901855e-01 -5.792494416236877441e-01 -3.076502680778503418e-01 3.794915275648236275e-03
-9.329111576080322266e-01 -8.258051276206970215e-01 1.353292018175125122e-01 3.067759275436401367e-01 1.809962093830108643e-01 6.627562642097473145e-01 5.752044916152954102e-01 6.579212099313735962e-02 9.059979021549224854e-02 -4.297974705696105957e-01 -9.795001149177551270e-01 -9.904715418815612793e-01 -1.242967844009399414e+00 -3.787963092327117920e-01 5.150867104530334473e-01 1.107467055320739746e+00 1.927115559577941895e+00 1.887762427330017090e+00 1.867011904716491699e+00 -1.380649507045745850e-01 -1.228310585021972656e+00 -9.241808652877807617e-01 -4.848935604095458984e-01 -1.020213842391967773e+00 -1.996075063943862915e-01 -6.332678198814392090e-01 -3.810715377330780029e-01 -3.558340668678283691e-01
-1.551302313804626465e+00 -1.190057992935180664e+00 -6.777486801147460938e-01 -4.121416509151458740e-01 3.601379096508026123e-01 1.030667662620544434e+00 8.558973670005798340e-01 -6.512304395437240601e-02 -8.600208908319473267e-02 -8.191640973091125488e-01 -1.005873918533325195e+00 -1.209754586219787598e+00 -1.048589944839477539e+00 -2.734282016754150391e-01 6.974297761917114258e-01 1.594153881072998047e+00 1.918905735015869141e+00 1.892245173454284668e+00 1.194513082504272461e+00 -2.881580293178558350e-01 -1.294872641563415527e+00 -9.075213670730590820e-01 -1.313157916069030762e+00 -1.265483260154724121e+00 -1.395577788352966309e+00 -1.523693919181823730e+00 -6.359350681304931641e-01 -3.586230576038360596e-01
-6.271909475326538086e-01 -2.644208669662475586e+00 -1.351452112197875977e+00 -2.753345966339111328e-01 4.204882383346557617e-01 8.345463871955871582e-01 6.972084045410156250e-01 -1.842717081308364868e-01 6.668202579021453857e-03 -2.904818654060363770e-01 -9.415844082832336426e-01 -4.977903366088867188e-01 -7.254453897476196289e-01 -3.086878955364227295e-01 -1.823085360229015350e-03 2.220793366432189941e-01 1.044171690940856934e+00 9.215201139450073242e-01 6.805901527404785156e-01 4.437982141971588135e-01 -4.990822970867156982e-01 -2.939619719982147217e-01 4.270954430103302002e-01 -5.826263688504695892e-03 -1.745440065860748291e-01 -5.966163873672485352e-01 -6.365360617637634277e-01 -1.097764730453491211e+00
-4.440258145332336426e-01 -8.038724064826965332e-01 -3.555553555488586426e-01 -2.366465926170349121e-01 -1.000494599342346191e+00 -7.255538105964660645e-01 -1.235786557197570801e+00 -1.679529547691345215e+00 -1.310581922531127930e+00 -1.204897642135620117e+00 -1.728771686553955078e+00 -1.681905865669250488e+00 -1.281977772712707520e+00 -1.996220469474792480e+00 -1.744114160537719727e+00 -1.489820361137390137e+00 -1.464894771575927734e+00 -1.147778153419494629e+00 -1.046033978462219238e+00 -8.210419416427612305e-01 -4.498388469219207764e-01 -5.398535132408142090e-01 -3.669218122959136963e-01 -2.906968295574188232e-01 -1.350315660238265991e-01 -2.517357468605041504e-01 -7.766362428665161133e-01 -4.026385545730590820e-01
-1.766007579863071442e-02 -3.590886294841766357e-02 -1.325075030326843262e-01 -2.170142382383346558e-01 -2.239112108945846558e-01 -2.546723783016204834e-01 -4.254519343376159668e-01 -8.232997655868530273e-01 -1.135690569877624512e+00 -1.181046485900878906e+00 -1.248024702072143555e+00 -1.582555055618286133e+00 -9.765262007713317871e-01 -2.058463811874389648e+00 -1.889827847480773926e+00 -1.330712795257568359e+00 -1.809929013252258301e+00 -1.456564188003540039e+00 -1.618598580360412598e+00 -1.332927823066711426e+00 -8.581033945083618164e-01 -4.202840626239776611e-01 -1.067039519548416138e-01 -1.055262237787246704e-01 -1.989498361945152283e-02 -7.323665916919708252e-02 -4.565724730491638184e-02 1.905319280922412872e-02
-1.322318799793720245e-02 -1.734924875199794769e-02 -3.609428182244300842e-02 7.243268191814422607e-03 7.487530820071697235e-04 -1.327117979526519775e-01 -4.465562701225280762e-01 -5.896030068397521973e-01 -1.008956551551818848e+00 -7.348580956459045410e-01 -1.325567960739135742e+00 -1.479444980621337891e+00 -9.274960756301879883e-01 -1.538172125816345215e+00 -1.678899049758911133e+00 -1.129612803459167480e+00 -1.530107140541076660e+00 -1.393711566925048828e+00 -1.376601576805114746e+00 -1.217597126960754395e+00 -5.912892222404479980e-01 -5.128011107444763184e-01 -1.347370296716690063e-01 -8.968206495046615601e-02 1.233029412105679512e-03 1.552637433633208275e-03 -7.838671095669269562e-03 -1.030480489134788513e-02
