-9.075097739696502686e-03 3.514995798468589783e-02 2.888241782784461975e-02 3.377357497811317444e-02 1.035219803452491760e-02 2.584323659539222717e-02 2.096474170684814453e-02 -2.563919872045516968e-02 7.735416293144226074e-03 -3.450338169932365417e-02 5.730252712965011597e-03 2.996009960770606995e-02 5.914294160902500153e-03 9.008977562189102173e-03 -1.357732899487018585e-02 2.045207098126411438e-02 -2.147357910871505737e-03 -1.366785168647766113e-02 2.112276852130889893e-04 1.724334433674812317e-02 -2.755777537822723389e-02 -1.693947054445743561e-02 -2.400847151875495911e-02 -3.254856914281845093e-03 -1.228259317576885223e-02 -3.116906620562076569e-02 -1.844929531216621399e-02 -2.678400836884975433e-02
1.289110630750656128e-03 -1.350264064967632294e-02 -1.246912218630313873e-02 -2.211153507232666016e-03 -7.814978249371051788e-03 2.543129213154315948e-02 1.986484974622726440e-01 3.494570851325988770e-01 5.771239399909973145e-01 4.411396384239196777e-01 3.307287693023681641e-01 5.566570162773132324e-01 4.816898703575134277e-01 2.714627981185913086e-01 9.697906374931335449e-01 7.309988737106323242e-01 1.056652545928955078e+00 5.599222183227539062e-01 5.654365420341491699e-01 1.016866788268089294e-01 -1.838206797838211060e-01 -5.911791697144508362e-02 -8.195669203996658325e-02 -1.307817399501800537e-01 -1.073254458606243134e-02 -1.449249126017093658e-02 1.710089296102523804e-02 -8.602933958172798157e-03
-2.335191331803798676e-02 -1.416181214153766632e-02 2.237524986267089844e-01 -1.829236149787902832e-01 -6.757266819477081299e-02 2.118208855390548706e-01 4.611101746559143066e-01 9.030762910842895508e-01 -1.096305921673774719e-01 -2.924486994743347168e-01 -2.840285301208496094e-01 3.309399783611297607e-01 -5.200606584548950195e-01 -6.954961270093917847e-02 5.113986730575561523e-01 -4.155065119266510010e-01 6.696595549583435059e-01 2.375943213701248169e-02 4.333721846342086792e-02 -3.319618403911590576e-01 -1.864858269691467285e-01 -1.435458183288574219e+00 -6.865617632865905762e-01 2.779136784374713898e-02 -3.231398388743400574e-02 -1.263761818408966064e-01 2.796339616179466248e-02 -1.308213919401168823e-03
1.307714357972145081e-02 -1.687750220298767090e-02 2.871563732624053955e-01 3.764426112174987793e-01 6.948707252740859985e-02 -5.674578547477722168e-01 -4.657172858715057373e-01 -5.032528638839721680e-01 -9.212455749511718750e-01 9.914384782314300537e-02 -3.831618130207061768e-01 -7.714238166809082031e-01 -2.662670314311981201e-01 1.760016232728958130e-01 -1.639955341815948486e-01 2.970637679100036621e-01 3.035063482820987701e-02 -3.087855577468872070e-01 2.397659271955490112e-01 1.297414898872375488e-01 4.129930138587951660e-01 1.865436732769012451e-01 -1.183071285486221313e-01 -2.033924609422683716e-01 6.327950954437255859e-01 -6.379296183586120605e-01 2.342802584171295166e-01 -2.389309369027614594e-02
-1.741393283009529114e-02 5.212601274251937866e-02 -3.763315826654434204e-02 -1.018702462315559387e-01 -7.085183858871459961e-01 -2.788926064968109131e-01 -7.234676182270050049e-02 3.194867372512817383e-01 -2.499894350767135620e-01 -3.252497613430023193e-01 -5.906013250350952148e-01 2.110594511032104492e-01 -2.376883924007415771e-01 7.450636476278305054e-02 -4.240906238555908203e-02 1.254392564296722412e-01 -2.207043468952178955e-01 1.856185197830200195e-01 3.540015816688537598e-01 -5.889094620943069458e-02 -4.856026545166969299e-02 1.845283657312393188e-01 -4.541193600744009018e-03 -1.623118370771408081e-01 5.840927362442016602e-01 3.331801593303680420e-01 1.232864618301391602e+00 -7.394663244485855103e-02
-8.247792720794677734e-06 1.791123300790786743e-03 5.473029986023902893e-02 -1.192836016416549683e-01 -5.159741044044494629e-01 1.999172270298004150e-01 -5.434154868125915527e-01 -1.170972809195518494e-01 1.504277717322111130e-02 2.379676094278693199e-03 -8.590507507324218750e-02 -2.807619795203208923e-02 -8.830367028713226318e-02 -1.819737814366817474e-02 -1.136823445558547974e-01 1.394090503454208374e-01 1.297467947006225586e-01 -7.758606970310211182e-02 1.434243768453598022e-01 6.501135975122451782e-02 3.071939349174499512e-01 1.831677407026290894e-01 -1.025544553995132446e-01 4.622830450534820557e-01 1.595825105905532837e-01 9.733074307441711426e-01 1.299481153488159180e+00 2.371592074632644653e-01
1.162073016166687012e-02 1.012335494160652161e-01 5.769869685173034668e-01 -2.610014081001281738e-01 -7.752289175987243652e-01 -1.112949177622795105e-01 -4.833513200283050537e-01 -3.045517206192016602e-01 4.388143122196197510e-02 -1.751256175339221954e-02 1.725655198097229004e-01 -3.376603126525878906e-02 3.070726431906223297e-02 -8.365499228239059448e-02 7.355968654155731201e-02 9.870058298110961914e-02 -6.148694083094596863e-02 1.967353522777557373e-01 5.791668593883514404e-02 -1.439704000949859619e-01 3.082123771309852600e-02 1.408345699310302734e-01 -3.422279953956604004e-01 -1.234094798564910889e-01 1.553097367286682129e-01 1.305519938468933105e+00 4.106565415859222412e-01 6.433185935020446777e-01
3.806618601083755493e-02 2.435222119092941284e-01 6.416447162628173828e-01 2.896513938903808594e-01 -8.158059716224670410e-01 -2.061860859394073486e-01 -5.861516296863555908e-02 2.256619185209274292e-01 2.804836034774780273e-01 1.475007086992263794e-01 1.217978000640869141e-01 6.912534683942794800e-02 9.782239049673080444e-02 -1.695565283298492432e-01 4.131405353546142578e-01 -1.686755567789077759e-01 7.417137175798416138e-02 -9.288849681615829468e-02 9.625697880983352661e-02 3.889357745647430420e-01 1.625752151012420654e-01 1.855433285236358643e-01 1.945490539073944092e-01 -3.425975441932678223e-01 4.756941795349121094e-01 8.209177255630493164e-01 5.019788146018981934e-01 6.014240384101867676e-01
4.199170321226119995e-02 1.053832173347473145e+00 5.799612402915954590e-01 -1.196418255567550659e-01 -3.281049728393554688e-01 -1.399038732051849365e-01 2.727731131017208099e-02 -1.056590005755424500e-01 3.393669426441192627e-02 -2.277907729148864746e-02 1.613283157348632812e-01 3.513900339603424072e-01 2.925039529800415039e-01 -5.008159950375556946e-02 6.433610338717699051e-03 -1.004348788410425186e-02 1.012318953871726990e-02 -1.223428249359130859e-01 -8.873590826988220215e-02 2.118024975061416626e-01 2.050013989210128784e-01 3.981531262397766113e-01 -6.109055876731872559e-02 5.606161430478096008e-02 1.430867910385131836e-01 4.506504535675048828e-01 6.454042792320251465e-01 5.827304124832153320e-01
3.406482040882110596e-01 1.007636189460754395e+00 7.374807000160217285e-01 -5.550223588943481445e-01 5.267030000686645508e-01 -1.758448779582977295e-01 3.417110741138458252e-01 2.372995913028717041e-01 1.251942813396453857e-01 6.386388093233108521e-02 9.985852986574172974e-02 7.416655868291854858e-02 2.111708223819732666e-01 1.229781955480575562e-01 -8.706544339656829834e-02 9.841323643922805786e-02 -4.335002601146697998e-01 -1.579335182905197144e-01 -1.013682931661605835e-01 -2.954848408699035645e-01 -2.451418787240982056e-01 -1.722674071788787842e-01 1.504203528165817261e-01 4.483090639114379883e-01 2.849386334419250488e-01 8.802161365747451782e-02 1.053342223167419434e+00 1.057368516921997070e+00
3.781978785991668701e-01 1.033111572265625000e+00 1.024039268493652344e+00 -1.751063168048858643e-01 8.921733498573303223e-02 4.387215375900268555e-01 5.750167965888977051e-01 1.629868149757385254e-01 9.274325966835021973e-01 3.871364295482635498e-01 2.350549548864364624e-01 1.993341147899627686e-01 2.337799221277236938e-01 3.987797796726226807e-01 -1.128669381141662598e-01 -3.009480535984039307e-01 -3.338137567043304443e-01 -1.811177581548690796e-01 -4.626329541206359863e-01 -3.962681889533996582e-01 -3.147765398025512695e-01 -3.359715640544891357e-01 -3.144980669021606445e-01 -3.623168766498565674e-01 3.394825458526611328e-01 -7.257970422506332397e-02 1.438206434249877930e+00 8.675656914710998535e-01
3.554589152336120605e-01 4.990329444408416748e-01 7.236040830612182617e-01 8.916833251714706421e-02 1.031805157661437988e+00 1.475583463907241821e-01 5.505528450012207031e-01 4.828223213553428650e-02 -8.281699568033218384e-02 2.374173402786254883e-01 2.925511896610260010e-01 4.677120596170425415e-02 -1.423837733455002308e-03 -4.828356206417083740e-03 -3.585813939571380615e-01 2.663929772097617388e-04 1.196005865931510925e-01 3.312684595584869385e-01 2.784714698791503906e-01 4.471896588802337646e-02 -2.384985424578189850e-02 -5.859749913215637207e-01 -6.794769763946533203e-01 -3.554896414279937744e-01 -5.297192335128784180e-01 -7.202067226171493530e-02 1.013101100921630859e+00 8.684846572577953339e-03
2.296951226890087128e-02 7.287300229072570801e-01 7.227531671524047852e-01 1.437744349241256714e-01 2.384251803159713745e-01 4.830082133412361145e-02 2.261840701103210449e-01 1.013695672154426575e-01 1.893434971570968628e-01 -2.446977496147155762e-01 -4.952118173241615295e-02 -6.227941438555717468e-02 -2.891428172588348389e-01 -5.759987235069274902e-01 -8.845727890729904175e-02 1.100386232137680054e-01 5.674062296748161316e-02 -5.169518664479255676e-02 3.930174410343170166e-01 -5.491453036665916443e-02 7.062782347202301025e-02 -2.986638545989990234e-01 -3.938967287540435791e-01 -6.396223902702331543e-01 -6.218774914741516113e-01 -8.082671761512756348e-01 2.436120957136154175e-01 -2.164995521306991577e-01
-1.721724569797515869e-01 4.126065075397491455e-01 9.151230454444885254e-01 2.103866338729858398e-01 -4.809975326061248779e-01 -1.173535957932472229e-01 -1.012534126639366150e-01 -4.893482476472854614e-02 -4.135808646678924561e-01 -1.638017594814300537e-01 -3.091581761837005615e-01 -2.679875791072845459e-01 -5.081951618194580078e-01 -1.056930720806121826e-01 2.886062674224376678e-02 -1.108485087752342224e-02 -1.222602352499961853e-01 2.890030741691589355e-01 1.889339536428451538e-01 1.688204822130501270e-03 1.941065639257431030e-01 -6.307034194469451904e-02 -4.968728497624397278e-02 -1.893477290868759155e-01 -5.529450178146362305e-01 -4.614350795745849609e-01 5.315320193767547607e-02 -3.544123768806457520e-01
3.406175673007965088e-01 -3.711433410644531250e-01 6.049768924713134766e-01 3.689803555607795715e-02 -4.004478156566619873e-01 -6.454774141311645508e-01 6.533241271972656250e-02 -2.255406826734542847e-01 -1.412091851234436035e-01 -3.766921758651733398e-01 -1.510570794343948364e-01 -2.582270205020904541e-01 -1.821015030145645142e-01 -1.687608212232589722e-01 1.701051145792007446e-01 4.984541982412338257e-02 -6.235862150788307190e-02 -8.195493370294570923e-02 1.627984270453453064e-02 5.586751177906990051e-02 1.422530859708786011e-01 -1.800591647624969482e-01 -3.800497204065322876e-02 8.944239616394042969e-01 -3.626228123903274536e-02 -2.525622546672821045e-01 -1.393902897834777832e-01 -2.344272434711456299e-01
5.506477355957031250e-01 -4.073261618614196777e-01 -2.668059766292572021e-01 -4.569483101367950439e-01 -6.322807073593139648e-01 -4.839728772640228271e-01 -3.114418983459472656e-01 -4.655431807041168213e-01 -5.121565461158752441e-01 -1.705018579959869385e-01 -3.503760099411010742e-01 -1.017510145902633667e-01 4.452597349882125854e-02 -7.850109785795211792e-02 5.651516467332839966e-02 1.041605547070503235e-01 -5.791343376040458679e-02 -1.478908956050872803e-01 1.461739689111709595e-01 -9.722176939249038696e-02 2.918215692043304443e-01 2.473226040601730347e-01 -3.232025504112243652e-01 -2.477678954601287842e-01 1.031333021819591522e-02 1.775086075067520142e-01 -2.109455615282058716e-01 -2.495804876089096069e-01
3.207418322563171387e-01 8.561617881059646606e-02 2.541809678077697754e-01 -1.168639287352561951e-01 -3.829079270362854004e-01 -1.821432560682296753e-01 -7.440637946128845215e-01 -3.580995276570320129e-02 -3.135086297988891602e-01 -3.410274088382720947e-01 -1.254251897335052490e-01 -2.151280343532562256e-01 -2.098954319953918457e-01 4.290943592786788940e-02 9.147080779075622559e-02 1.439215689897537231e-01 -8.785507082939147949e-02 1.976033598184585571e-01 -3.079321086406707764e-01 1.729219406843185425e-01 5.079690366983413696e-02 5.600047707557678223e-01 3.792692720890045166e-01 6.713359802961349487e-02 6.488780975341796875e-01 3.885510861873626709e-01 -1.648837476968765259e-01 -2.953924834728240967e-01
-1.215430721640586853e-02 2.796686887741088867e-01 -3.910526335239410400e-01 3.329227492213249207e-02 -4.871965348720550537e-01 -1.964949667453765869e-01 -8.289661258459091187e-02 -2.384861260652542114e-01 8.478505164384841919e-02 -2.522728741168975830e-01 -4.110738039016723633e-01 -7.411827892065048218e-02 8.247809857130050659e-02 -1.041868049651384354e-02 -7.721469551324844360e-02 -1.870414614677429199e-02 -3.329997062683105469e-01 3.130618333816528320e-01 2.278201133012771606e-01 1.246832758188247681e-01 6.411130074411630630e-03 -1.801098138093948364e-02 4.243390262126922607e-01 1.518974155187606812e-01 -2.437526732683181763e-01 3.693809211254119873e-01 1.331093758344650269e-01 -2.896000742912292480e-01
2.533815987408161163e-02 -9.587939828634262085e-02 -9.205672740936279297e-01 8.346073627471923828e-01 4.147497415542602539e-01 7.819727808237075806e-02 8.168138563632965088e-02 4.234614670276641846e-01 1.820922642946243286e-01 -1.855339556932449341e-01 9.158680588006973267e-02 -3.325785398483276367e-01 -4.586766362190246582e-01 -3.342779576778411865e-01 1.859336197376251221e-01 3.153887689113616943e-01 3.072180449962615967e-01 1.637513935565948486e-01 1.540782153606414795e-01 1.809706091880798340e-01 5.720370449125766754e-03 3.312984108924865723e-02 1.399150490760803223e-01 -3.818716406822204590e-01 3.599918633699417114e-02 7.073811888694763184e-01 -1.339646100997924805e+00 -3.586268723011016846e-01
-2.887316420674324036e-02 3.017974793910980225e-01 -5.183022022247314453e-01 -9.493441134691238403e-02 1.303475350141525269e-01 5.550502240657806396e-02 2.790333926677703857e-01 -1.534843593835830688e-01 5.994346365332603455e-02 -2.169831097126007080e-01 -1.847749762237071991e-02 1.754572242498397827e-01 -6.380477547645568848e-02 -4.109371453523635864e-02 1.167045906186103821e-01 1.964775323867797852e-01 1.511368751525878906e-01 1.398278474807739258e-01 -1.020895093679428101e-01 1.545524448156356812e-01 1.770834326744079590e-01 1.138403490185737610e-01 -2.369810044765472412e-01 6.593099236488342285e-02 5.756529569625854492e-01 -3.617609441280364990e-01 -1.465936899185180664e+00 -1.837298125028610229e-01
-3.409083932638168335e-03 -1.836109161376953125e-01 -4.152927696704864502e-01 -5.182977393269538879e-02 4.711599349975585938e-01 5.522105842828750610e-02 5.145350098609924316e-01 4.052378609776496887e-02 2.572970092296600342e-01 4.277890324592590332e-01 -1.183981597423553467e-01 3.153138235211372375e-02 1.570847481489181519e-01 -5.512886121869087219e-02 8.127930015325546265e-02 1.865094751119613647e-01 2.157990820705890656e-02 3.282318413257598877e-01 2.741405069828033447e-01 2.443625926971435547e-01 -2.883384190499782562e-02 1.483947187662124634e-01 1.284946352243423462e-01 5.355085134506225586e-01 5.784494280815124512e-01 -7.637804746627807617e-02 -6.407740712165832520e-02 1.036509796977043152e-01
-5.537499487400054932e-02 -5.803015232086181641e-01 -5.045800209045410156e-01 -5.529053807258605957e-01 2.271931767463684082e-01 2.526112794876098633e-01 5.915111303329467773e-02 2.616157829761505127e-01 -8.537443727254867554e-02 -7.636567205190658569e-02 3.001336455345153809e-01 2.311731874942779541e-01 2.472202181816101074e-01 1.344093978404998779e-01 1.982554942369461060e-01 1.688587814569473267e-01 2.535958886146545410e-01 -3.862727060914039612e-02 4.776146411895751953e-01 1.220105811953544617e-01 1.466040611267089844e-01 3.365049362182617188e-01 -6.701821833848953247e-02 3.071077764034271240e-01 6.371541619300842285e-01 -1.944871395826339722e-01 4.769744575023651123e-01 1.996773779392242432e-01
-8.130610734224319458e-02 -1.297170519828796387e-01 -8.635478615760803223e-01 -2.281551063060760498e-01 5.352211371064186096e-02 -3.118757903575897217e-01 -7.154227793216705322e-02 4.483985155820846558e-02 1.959933638572692871e-01 1.738834381103515625e-02 7.363809645175933838e-02 9.252727776765823364e-02 1.048054099082946777e-01 -1.154754459857940674e-01 2.159613072872161865e-01 1.310748755931854248e-01 -9.251308441162109375e-02 2.207347452640533447e-01 -2.179487198591232300e-01 5.055888742208480835e-02 2.916834354400634766e-01 -2.034078538417816162e-01 -4.177245199680328369e-01 6.248241662979125977e-01 4.752273261547088623e-01 -5.426475405693054199e-02 -3.297182172536849976e-02 2.172831892967224121e-01
-8.449677377939224243e-03 -3.553114086389541626e-02 2.410433292388916016e-01 2.985787689685821533e-01 3.869221359491348267e-02 -2.111063152551651001e-02 2.913774251937866211e-01 4.203897435218095779e-03 -1.649065315723419189e-01 4.748847708106040955e-02 1.252117156982421875e-01 3.200654685497283936e-01 -1.047247201204299927e-01 1.306722406297922134e-03 2.143682241439819336e-01 2.334530353546142578e-01 5.202208831906318665e-02 2.491367235779762268e-02 -6.423670053482055664e-02 -4.880782216787338257e-02 4.446206390857696533e-01 2.385448962450027466e-01 1.834305226802825928e-01 5.532849431037902832e-01 3.343327939510345459e-01 -2.963615655899047852e-01 6.913698464632034302e-02 1.559092476963996887e-02
3.500895574688911438e-02 1.726430281996726990e-02 -5.171779990196228027e-01 9.071104228496551514e-02 2.237978279590606689e-01 9.783885627985000610e-02 3.707107007503509521e-01 4.095799326896667480e-01 -1.373239606618881226e-01 2.872262299060821533e-01 -1.999837905168533325e-01 1.451935917139053345e-01 2.160113304853439331e-01 -6.736900657415390015e-02 8.765761554241180420e-02 -1.214225310832262039e-02 -4.409398138523101807e-02 3.895704150199890137e-01 -5.557667464017868042e-02 7.129003852605819702e-02 3.637419268488883972e-02 -1.037411205470561981e-02 -9.381388127803802490e-02 -5.699583888053894043e-02 5.810241103172302246e-01 -2.403053641319274902e-02 2.704041004180908203e-01 1.166445016860961914e-02
2.065589278936386108e-02 -2.217561937868595123e-02 7.766276597976684570e-03 -6.244357824325561523e-01 7.568960189819335938e-01 1.984297037124633789e-01 1.448840647935867310e-01 1.528552770614624023e-01 5.978933572769165039e-01 5.890175104141235352e-01 -7.697299122810363770e-02 -1.569682359695434570e-01 6.882938742637634277e-01 1.436946243047714233e-01 -6.636085361242294312e-02 3.313390910625457764e-01 1.341027468442916870e-01 1.416497677564620972e-01 3.685594201087951660e-01 4.350607097148895264e-01 -3.728158175945281982e-01 -9.554847143590450287e-03 2.772342562675476074e-01 6.658286321908235550e-03 4.859919250011444092e-01 1.278283540159463882e-02 3.270631730556488037e-01 -2.586945891380310059e-02
-1.151159405708312988e-02 -3.250893205404281616e-02 1.786414161324501038e-02 -2.465534061193466187e-01 3.956218361854553223e-01 3.952609300613403320e-01 7.784680724143981934e-01 9.672723412513732910e-01 1.045210480690002441e+00 6.995347738265991211e-01 6.360747814178466797e-01 3.982308804988861084e-01 -2.974295914173126221e-01 1.122832059860229492e+00 9.179326295852661133e-01 3.753955364227294922e-01 4.976715445518493652e-01 5.573112368583679199e-01 9.017835855484008789e-01 1.008068203926086426e+00 7.175392508506774902e-01 4.918217957019805908e-01 1.645724654197692871e+00 1.175138354301452637e+00 4.805670306086540222e-02 2.002789527177810669e-01 -1.103221997618675232e-02 -3.146428614854812622e-03
-8.033722639083862305e-03 8.911564946174621582e-04 7.624503225088119507e-03 -2.200274169445037842e-02 4.198000133037567139e-01 6.873546838760375977e-01 1.073294401168823242e+00 1.490728378295898438e+00 8.116525411605834961e-01 1.122166752815246582e+00 5.886753201484680176e-01 4.767399430274963379e-01 1.046186089515686035e+00 1.275371789932250977e+00 9.870918989181518555e-01 3.323745131492614746e-01 5.195174813270568848e-01 1.012977004051208496e+00 6.704447269439697266e-01 4.080172479152679443e-01 5.176582559943199158e-02 3.439682424068450928e-01 5.889014005661010742e-01 6.127144694328308105e-01 -2.568401396274566650e-04 -2.652561292052268982e-02 -3.281497582793235779e-02 -1.530047133564949036e-02
