-4.205150902271270752e-02 9.333750605583190918e-02 1.075809523463249207e-01 5.689794570207595825e-02 4.745475202798843384e-02 -1.026819497346878052e-01 -1.020007580518722534e-01
-1.821561306715011597e-01 -1.861648447811603546e-02 1.214928776025772095e-01 2.949751541018486023e-02 -6.144921295344829559e-03 -6.465617567300796509e-02 -8.362493664026260376e-02
-5.475896969437599182e-02 -7.180224359035491943e-02 -3.931762278079986572e-02 7.521718740463256836e-02 1.043518483638763428e-01 3.731882199645042419e-02 -1.507430672645568848e-01
4.134233668446540833e-02 -1.355393379926681519e-01 9.639759361743927002e-02 8.950278162956237793e-02 1.196886301040649414e-01 -1.410201564431190491e-02 -2.843042910099029541e-01
-1.531111001968383789e-01 -1.698533743619918823e-01 8.628356456756591797e-02 1.694915443658828735e-01 1.254242956638336182e-01 -1.923146247863769531e-01 -8.842686563730239868e-02
-5.034540779888629913e-03 -1.551022678613662720e-01 3.231497108936309814e-02 1.599393934011459351e-01 -5.739973857998847961e-02 -1.873153150081634521e-01 6.423678249120712280e-02
-1.907729804515838623e-01 -1.109265536069869995e-01 1.189524680376052856e-01 6.265812367200851440e-02 8.764300495386123657e-02 -8.602095395326614380e-02 6.695517897605895996e-02
