-9.981836378574371338e-02 2.551950141787528992e-02 1.456693559885025024e-01 4.846690595149993896e-02 6.540087610483169556e-02 8.716736733913421631e-02 -7.983443886041641235e-02 7.114154100418090820e-02 -2.755634486675262451e-02
-1.369123440235853195e-02 9.768872708082199097e-02 -1.767482981085777283e-02 3.581922128796577454e-02 8.833804726600646973e-02 -1.680819876492023468e-02 9.035184979438781738e-02 -6.545974314212799072e-02 1.196412891149520874e-01
-5.899767950177192688e-02 5.409387126564979553e-02 -6.704720854759216309e-02 9.727627784013748169e-02 5.432345718145370483e-02 4.192699491977691650e-02 1.193883270025253296e-01 1.416109129786491394e-02 8.610377460718154907e-02
-1.004529297351837158e-01 -6.582708656787872314e-02 1.306427419185638428e-01 6.664211396127939224e-03 4.341990873217582703e-02 1.012675389647483826e-01 9.151920676231384277e-02 -8.782682567834854126e-02 -2.454442158341407776e-02
-6.486087292432785034e-02 -2.961465530097484589e-02 1.039642989635467529e-01 1.638826448470354080e-03 -1.249933894723653793e-02 -3.962472453713417053e-02 1.028819382190704346e-01 3.386304900050163269e-02 9.578364342451095581e-02
-1.366213113069534302e-01 3.826190903782844543e-02 6.192824989557266235e-02 -4.219741374254226685e-02 -8.558285236358642578e-02 -9.793914854526519775e-02 -8.927170932292938232e-02 -4.436738416552543640e-02 -5.654141306877136230e-02
-1.164386421442031860e-01 -8.388487994670867920e-02 -6.780066341161727905e-02 5.875508487224578857e-02 -5.813927203416824341e-02 -5.046137422323226929e-02 9.758761152625083923e-03 1.699518226087093353e-02 -1.169921234250068665e-01
-9.005428105592727661e-02 -5.747159942984580994e-02 1.218828186392784119e-01 6.761024147272109985e-02 8.805364370346069336e-03 3.477964177727699280e-02 -8.938713930547237396e-03 -1.425561457872390747e-01 -8.864378556609153748e-03
-1.480198800563812256e-01 3.345115482807159424e-02 -8.193650841712951660e-02 4.927583783864974976e-02 5.833772569894790649e-02 -4.591052606701850891e-02 -2.325183339416980743e-02 -9.762445837259292603e-02 -8.850232511758804321e-02
