3.643162921071052551e-02 -1.232927143573760986e-01 -1.036173030734062195e-01 3.011525794863700867e-02 6.821278482675552368e-02 9.918163716793060303e-02 9.147991985082626343e-02 9.008293040096759796e-03 1.333318501710891724e-01
2.541509643197059631e-02 -1.864288374781608582e-02 -9.894476085901260376e-02 8.506976068019866943e-02 2.726168185472488403e-02 -6.953086704015731812e-02 -4.213643819093704224e-02 4.089000076055526733e-02 -5.364616215229034424e-02
-7.112818956375122070e-02 -1.020516827702522278e-01 -9.640318341553211212e-03 -7.038474828004837036e-02 -5.626947060227394104e-02 2.116842195391654968e-02 -6.355590373277664185e-02 -2.257617749273777008e-02 2.509547583758831024e-02
-2.383664064109325409e-02 -9.524071589112281799e-03 6.823181360960006714e-02 7.427692413330078125e-02 2.643698453903198242e-02 1.261311769485473633e-01 1.095120832324028015e-01 -4.040524736046791077e-02 1.051588952541351318e-01
2.766043506562709808e-02 -5.605973675847053528e-02 8.737014234066009521e-02 -6.234221160411834717e-02 -4.231919348239898682e-02 6.366269290447235107e-02 -3.581678122282028198e-02 2.399451471865177155e-02 -1.580304279923439026e-02
-4.222217574715614319e-02 6.561160087585449219e-02 3.784868121147155762e-02 -8.395345881581306458e-03 1.575594395399093628e-02 1.005916595458984375e-01 2.961689606308937073e-02 1.036650389432907104e-01 1.356256902217864990e-01
-3.033717907965183258e-02 -6.281574070453643799e-02 1.115574911236763000e-01 1.277335733175277710e-02 6.412953138351440430e-02 8.333563059568405151e-02 8.100019395351409912e-02 -6.230928748846054077e-02 5.741981789469718933e-02
-1.610680297017097473e-02 2.971829473972320557e-02 7.814901322126388550e-02 9.815429896116256714e-02 -1.232542004436254501e-02 -6.340290606021881104e-02 8.525633811950683594e-02 -1.823418587446212769e-02 -9.176598861813545227e-03
1.345729231834411621e-01 -2.178122289478778839e-03 9.631183743476867676e-02 -1.408269722014665604e-02 4.661996383219957352e-03 5.827069655060768127e-02 1.227544769644737244e-01 1.034279614686965942e-01 1.080777645111083984e-01
