2.925742417573928833e-03 -2.501023374497890472e-02 -8.378408849239349365e-03 -1.142277009785175323e-02 2.977154031395912170e-02 -1.263954862952232361e-02 -4.608809947967529297e-03 2.641059458255767822e-03 -5.596028640866279602e-03 -2.454925142228603363e-02 1.832283660769462585e-02 -6.407562643289566040e-03 -4.614961892366409302e-02 -9.279943257570266724e-02 1.862163469195365906e-02 -2.493779733777046204e-02 3.306838497519493103e-02 -1.804098114371299744e-02 -3.015712834894657135e-02 1.985774561762809753e-02 1.945253834128379822e-02 3.218888863921165466e-02 -3.502367436885833740e-02 9.710341691970825195e-03 3.030904009938240051e-02 9.344507008790969849e-03 -5.020597949624061584e-03 -3.184996545314788818e-02
2.751519903540611267e-02 1.542014628648757935e-02 2.950032427906990051e-02 3.402734175324440002e-02 3.062672540545463562e-02 -1.697710156440734863e-02 -3.609041869640350342e-02 -6.661650259047746658e-03 -3.558138560038059950e-04 1.466769073158502579e-02 -1.748859882354736328e-02 -2.911704406142234802e-02 -1.257966756820678711e-01 -8.414375036954879761e-02 -6.882124394178390503e-02 -4.599352777004241943e-01 -4.804572165012359619e-01 -4.415736794471740723e-01 -1.030029132962226868e-01 -2.255887240171432495e-01 -5.163297653198242188e-01 -4.520222544670104980e-01 -3.390069007873535156e-01 -3.402996659278869629e-01 -1.627638190984725952e-02 -2.574399113655090332e-04 8.486673235893249512e-03 -2.649570070207118988e-02
1.661410927772521973e-02 -1.088486425578594208e-02 -3.234705701470375061e-02 -1.858690194785594940e-02 -1.171781797893345356e-03 -1.652657613158226013e-02 1.510779373347759247e-02 -9.105686098337173462e-03 -1.102111069485545158e-03 -1.484593302011489868e-01 -1.581813991069793701e-01 -3.299230337142944336e-01 -2.991944849491119385e-01 -3.413690924644470215e-01 -3.862402737140655518e-01 -4.956771433353424072e-01 -8.391725420951843262e-01 -9.787445068359375000e-01 -5.717719197273254395e-01 -4.856828153133392334e-01 -5.901260972023010254e-01 -5.692951679229736328e-01 -4.054762423038482666e-01 -3.195322751998901367e-01 -4.694964271038770676e-03 2.284937538206577301e-02 4.066430032253265381e-03 2.666797861456871033e-02
2.888147160410881042e-02 -3.850974142551422119e-03 -1.388280931860208511e-02 -3.965409472584724426e-02 -2.512746863067150116e-02 5.973736289888620377e-03 -6.772412359714508057e-02 -7.612668722867965698e-02 -2.504513040184974670e-02 -1.205622330307960510e-01 -1.658323258161544800e-01 -6.896595358848571777e-01 -7.846843600273132324e-01 -6.528813242912292480e-01 -7.940053939819335938e-01 -9.328936934471130371e-01 -9.625390172004699707e-01 -4.362698793411254883e-01 -3.524057269096374512e-01 -5.797148942947387695e-01 -7.059751749038696289e-01 -5.969169139862060547e-01 -4.362315535545349121e-01 -3.395750522613525391e-01 6.288134609349071980e-04 2.057929150760173798e-02 -1.002024859189987183e-03 -9.955674409866333008e-03
2.739820629358291626e-03 -4.477540031075477600e-03 -3.532966598868370056e-02 2.219060622155666351e-02 -3.533299267292022705e-02 -9.552992135286331177e-02 -8.922446519136428833e-02 -4.509296715259552002e-01 -5.749507546424865723e-01 -7.707418203353881836e-01 -1.014753699302673340e+00 -1.784214496612548828e+00 -2.306637287139892578e+00 -2.771921634674072266e+00 -3.626088857650756836e+00 -3.622376203536987305e+00 -4.082900524139404297e+00 -3.125643968582153320e+00 -2.775533199310302734e+00 -2.240350484848022461e+00 -2.134345054626464844e+00 -1.341729879379272461e+00 -8.630887866020202637e-01 -2.476642131805419922e-01 -1.116127818822860718e-01 1.120141800493001938e-02 -4.744186997413635254e-03 7.950458675622940063e-03
3.358176723122596741e-02 2.909671887755393982e-02 3.246329259127378464e-03 -8.282421529293060303e-02 -2.425545603036880493e-01 -3.067617714405059814e-01 -1.004345059394836426e+00 -1.406926155090332031e+00 -2.514311313629150391e+00 -4.279770851135253906e+00 -3.211151838302612305e+00 -2.759921073913574219e+00 -2.980730772018432617e+00 -3.246889591217041016e+00 -3.594144582748413086e+00 -3.278603076934814453e+00 -3.366097450256347656e+00 -1.926992893218994141e+00 -2.403295993804931641e+00 -2.492562532424926758e+00 -2.884920120239257812e+00 -4.225520133972167969e+00 -3.566889524459838867e+00 -2.148607730865478516e+00 -1.220735549926757812e+00 -2.093016207218170166e-01 -2.965871058404445648e-02 1.254583895206451416e-02
-2.939484082162380219e-02 -2.482795119285583496e-01 -2.687439322471618652e-01 -2.737027704715728760e-01 -2.255326509475708008e-01 -1.297532916069030762e+00 -2.902442693710327148e+00 -3.973286151885986328e+00 -2.386203527450561523e+00 -9.531216025352478027e-01 -4.193764328956604004e-01 8.707898855209350586e-02 5.628026723861694336e-01 1.086549639701843262e+00 8.772103786468505859e-01 4.247238636016845703e-01 7.509104013442993164e-01 3.301725387573242188e-01 6.385419964790344238e-01 5.637263879179954529e-02 3.129544854164123535e-01 -2.215814143419265747e-01 -3.407650232315063477e+00 -4.823627948760986328e+00 -2.883612394332885742e+00 -9.953525662422180176e-01 -3.416824042797088623e-01 -6.321951746940612793e-02
3.082326054573059082e-02 -2.932764589786529541e-01 -3.488768637180328369e-01 -3.927997648715972900e-01 -1.457948803901672363e+00 -3.585037469863891602e+00 -3.241089344024658203e+00 -1.285753250122070312e+00 -2.521916329860687256e-01 -7.956587076187133789e-01 -2.920712828636169434e-01 -1.288703978061676025e-01 4.706782996654510498e-01 6.295893192291259766e-01 1.350991725921630859e+00 1.498253941535949707e+00 1.031811833381652832e+00 2.326070666313171387e-01 2.276672720909118652e-01 1.076962798833847046e-01 -1.505813300609588623e-01 -2.307043038308620453e-02 -8.111666440963745117e-01 -1.782749652862548828e+00 -4.139919281005859375e+00 -2.019026279449462891e+00 -4.815443754196166992e-01 -1.241775900125503540e-01
-1.341665983200073242e-01 -5.806881785392761230e-01 -3.136695623397827148e-01 -8.022766113281250000e-01 -1.891952037811279297e+00 -6.175640225410461426e-01 -1.617983542382717133e-02 -5.902251005172729492e-01 8.351277559995651245e-03 -8.097049593925476074e-02 -3.240087032318115234e-01 -8.313459157943725586e-01 -2.928776443004608154e-01 4.936931431293487549e-01 4.605989158153533936e-01 5.110686421394348145e-01 1.616368889808654785e-01 -1.082629710435867310e-01 -1.930146217346191406e-01 -3.185425102710723877e-01 -4.382644295692443848e-01 4.786529839038848877e-01 3.976909220218658447e-01 -9.115313291549682617e-01 -4.204463005065917969e+00 -2.371505022048950195e+00 -4.809235036373138428e-01 -1.202354729175567627e-01
-2.815556898713111877e-02 -7.967400550842285156e-02 -3.558987975120544434e-01 -9.755796790122985840e-01 -1.576878070831298828e+00 -5.847736001014709473e-01 5.226907730102539062e-01 -3.358855843544006348e-01 -2.057295739650726318e-01 -3.291685283184051514e-01 -8.247187733650207520e-02 -3.905060589313507080e-01 -2.490530014038085938e-01 -1.793557107448577881e-01 4.693953394889831543e-01 4.749543666839599609e-01 -3.043290376663208008e-01 -3.129594922065734863e-01 -3.749264180660247803e-01 -3.332986831665039062e-01 1.645966470241546631e-01 -2.530409991741180420e-01 -2.104997485876083374e-01 -8.496294617652893066e-01 -2.371393442153930664e+00 -1.970357537269592285e+00 -5.632165074348449707e-01 -2.611044645309448242e-01
-4.377904161810874939e-02 -1.547701805830001831e-01 -1.540236353874206543e+00 -1.930660247802734375e+00 -9.518572092056274414e-01 -3.608943819999694824e-01 4.959042370319366455e-01 -3.855931162834167480e-01 2.833302617073059082e-01 -2.308825254440307617e-01 3.150042295455932617e-01 2.678543329238891602e-01 -5.263936519622802734e-01 -3.417836129665374756e-01 -8.579530566930770874e-02 -4.671368300914764404e-01 -3.876339197158813477e-01 -2.151492685079574585e-01 1.406022999435663223e-02 -5.814406275749206543e-02 -2.761296331882476807e-01 -6.827031970024108887e-01 1.270100474357604980e-01 -2.201868295669555664e-01 -2.525059461593627930e+00 -2.171116113662719727e+00 -6.762511730194091797e-01 -3.785032033920288086e-01
-4.784240201115608215e-02 -7.088584303855895996e-01 -1.273043394088745117e+00 -2.355665683746337891e+00 -1.026260137557983398e+00 3.356945216655731201e-01 2.611840367317199707e-01 4.941618740558624268e-01 8.619778156280517578e-01 4.373227804899215698e-02 7.222965359687805176e-02 3.373556137084960938e-01 -7.468613982200622559e-02 -3.112778067588806152e-01 -4.794717431068420410e-01 5.821179226040840149e-02 2.774944901466369629e-02 3.560468554496765137e-01 1.698702424764633179e-01 1.865562349557876587e-01 7.240986824035644531e-01 5.232567191123962402e-01 3.733040988445281982e-01 -1.520626544952392578e-01 -2.431095361709594727e+00 -1.996615529060363770e+00 -1.097187280654907227e+00 -6.259967684745788574e-01
-4.693826660513877869e-02 -1.055603027343750000e+00 -1.474385261535644531e+00 -8.424354195594787598e-01 9.963124990463256836e-02 5.135229825973510742e-01 5.617371201515197754e-01 3.460650146007537842e-01 1.111346259713172913e-01 4.018433988094329834e-01 4.622986614704132080e-01 1.035959124565124512e-01 4.561249166727066040e-02 6.268438696861267090e-01 7.156478762626647949e-01 5.415136218070983887e-01 4.274602606892585754e-02 4.841703176498413086e-01 3.274292647838592529e-01 7.526466846466064453e-01 5.128713250160217285e-01 5.490763187408447266e-01 1.252514839172363281e+00 5.956162214279174805e-01 -2.288866996765136719e+00 -2.173402070999145508e+00 -1.549603223800659180e+00 -3.541435003280639648e-01
-2.048370838165283203e-01 -1.096037030220031738e+00 -1.285989403724670410e+00 -5.355001091957092285e-01 -2.401933670043945312e-01 5.429514050483703613e-01 8.447305113077163696e-02 3.389651775360107422e-01 3.965653479099273682e-01 2.956664264202117920e-01 3.054358363151550293e-01 3.964251577854156494e-01 -7.640994619578123093e-03 5.122519135475158691e-01 4.252538979053497314e-01 5.986632704734802246e-01 1.026066318154335022e-01 4.373648464679718018e-01 7.368708252906799316e-01 3.562432229518890381e-01 -1.940600574016571045e-02 5.902064442634582520e-01 3.915821611881256104e-01 -1.551541209220886230e+00 -2.083167791366577148e+00 -1.274057626724243164e+00 -6.836448311805725098e-01 -3.891286253929138184e-02
-2.975763976573944092e-01 -4.052605330944061279e-01 -1.039939522743225098e+00 -5.891837477684020996e-01 -2.289052903652191162e-01 1.350105702877044678e-01 1.613469123840332031e-01 -1.600180715322494507e-01 -1.615717709064483643e-01 1.630249172449111938e-01 1.150205060839653015e-01 4.445671737194061279e-01 4.569645524024963379e-01 1.169378906488418579e-01 1.136275678873062134e-01 4.657022058963775635e-01 2.988753318786621094e-01 4.204487800598144531e-01 -3.040639460086822510e-01 -2.978647947311401367e-01 3.475205507129430771e-03 -5.982884392142295837e-02 -1.102864384651184082e+00 -2.593548774719238281e+00 -1.728226304054260254e+00 -7.212619185447692871e-01 -1.946404129266738892e-01 -1.453207060694694519e-02
-3.178847134113311768e-01 -3.387153893709182739e-02 -1.295213103294372559e+00 -7.992811799049377441e-01 1.328186094760894775e-01 3.529615998268127441e-01 -3.599655330181121826e-01 -1.609894782304763794e-01 1.737345308065414429e-01 -6.890784949064254761e-02 2.346463799476623535e-01 4.653516709804534912e-01 2.651460170745849609e-01 -1.756172627210617065e-03 7.038486748933792114e-02 2.657663524150848389e-01 5.780473947525024414e-01 8.559355884790420532e-02 -1.387977600097656250e-01 7.064646482467651367e-02 -4.528251662850379944e-02 -3.372563719749450684e-01 -1.281222581863403320e+00 -3.295363187789916992e+00 -2.066758871078491211e+00 -1.446689844131469727e+00 -1.146421208977699280e-01 -3.146387338638305664e-01
-1.625704020261764526e-02 -3.919506072998046875e-02 -1.000323176383972168e+00 -5.046020150184631348e-01 2.110624760389328003e-01 -1.369931101799011230e-01 -7.191070914268493652e-01 3.293438628315925598e-02 5.376549363136291504e-01 -3.725327849388122559e-01 6.564382910728454590e-01 9.307879805564880371e-01 1.424140185117721558e-01 -3.606117963790893555e-01 -9.808421134948730469e-02 -2.815129160881042480e-01 3.116741180419921875e-01 -1.851387172937393188e-01 1.919458061456680298e-01 -1.723250448703765869e-01 -2.652361094951629639e-01 -8.009060025215148926e-01 -1.079677104949951172e+00 -2.107201814651489258e+00 -2.095733404159545898e+00 -1.680725693702697754e+00 -2.156570255756378174e-01 -6.280276179313659668e-01
1.888554915785789490e-02 -4.755698144435882568e-02 -1.233334302902221680e+00 -8.257653117179870605e-01 -1.162136077880859375e+00 -4.124816656112670898e-01 9.210875630378723145e-02 4.018828570842742920e-01 -3.525678217411041260e-01 -2.474492788314819336e-01 5.003072023391723633e-01 2.864907979965209961e-01 3.171603083610534668e-01 2.190309017896652222e-01 -2.001292109489440918e-01 2.874078154563903809e-01 -1.278359442949295044e-01 -1.063881888985633850e-01 1.917750015854835510e-02 -1.320078372955322266e-01 -1.596112921833992004e-02 3.527943193912506104e-01 -1.178774476051330566e+00 -2.003538370132446289e+00 -2.593712091445922852e+00 -1.820168137550354004e+00 -5.408867001533508301e-01 -6.336796283721923828e-01
2.865845859050750732e-01 1.234237570315599442e-02 -1.442485332489013672e+00 -1.613713741302490234e+00 -2.857807159423828125e+00 -1.080274462699890137e+00 -6.629839539527893066e-01 -1.173212304711341858e-01 1.547161489725112915e-01 7.398120313882827759e-02 8.318152427673339844e-01 3.972844183444976807e-01 -3.262990415096282959e-01 -1.883071660995483398e-01 2.979232966899871826e-01 1.564465314149856567e-01 -2.001160085201263428e-01 1.789655303582549095e-03 -4.217404127120971680e-01 -1.839126795530319214e-01 7.565853744745254517e-02 3.656588494777679443e-01 -6.095607280731201172e-01 -1.993353486061096191e+00 -2.636295557022094727e+00 -1.909010648727416992e+00 -8.543367981910705566e-01 -3.595017492771148682e-01
-8.608955889940261841e-03 -9.030369520187377930e-01 -1.230707287788391113e+00 -1.326418876647949219e+00 -2.677115440368652344e+00 -1.437723875045776367e+00 -1.201522946357727051e+00 -1.039087057113647461e+00 -3.338391780853271484e-01 -2.968435548245906830e-02 1.249004602432250977e+00 4.264304935932159424e-01 2.852306142449378967e-02 -3.613085746765136719e-01 -3.484506905078887939e-01 -5.376560688018798828e-01 3.907577320933341980e-02 1.116232573986053467e-01 -1.425158530473709106e-01 -4.432502686977386475e-01 5.560082793235778809e-01 -4.672827124595642090e-01 -5.538995862007141113e-01 -1.635035872459411621e+00 -1.802028775215148926e+00 -1.857574343681335449e+00 -5.687240958213806152e-01 -2.057983167469501495e-02
1.243468374013900757e-02 -5.424816608428955078e-01 -4.351667761802673340e-01 -1.171126365661621094e+00 -1.540612816810607910e+00 -1.104958653450012207e+00 -1.803410172462463379e+00 -2.830918550491333008e+00 -4.085811614990234375e+00 -3.739860057830810547e+00 -3.099706888198852539e+00 -1.104871630668640137e+00 -9.483020305633544922e-01 -2.302931100130081177e-01 -4.523422718048095703e-01 -1.739290803670883179e-01 -2.819812893867492676e-01 -1.150839105248451233e-01 -3.198181688785552979e-01 -3.455733358860015869e-01 -5.761463642120361328e-01 -8.728469014167785645e-01 -5.630451440811157227e-01 -7.086115479469299316e-01 -6.173315048217773438e-01 -7.725706696510314941e-01 -5.919917821884155273e-01 -1.706302165985107422e-02
-8.666345849633216858e-03 1.460985653102397919e-02 2.218373417854309082e-01 -9.278351068496704102e-01 -5.225700736045837402e-01 -8.471701741218566895e-01 -2.088429212570190430e+00 -3.022428512573242188e+00 -1.074274301528930664e+00 -4.607125818729400635e-01 -1.243617773056030273e+00 -9.713410735130310059e-01 -5.058734416961669922e-01 1.586623489856719971e-02 1.864471845328807831e-02 -1.353164911270141602e-01 -6.431716680526733398e-01 -7.238437533378601074e-01 -3.930791616439819336e-01 -4.974794685840606689e-01 -3.000606596469879150e-01 -2.868391275405883789e-01 -6.250317096710205078e-01 3.448705673217773438e-01 8.428767323493957520e-01 -2.685701847076416016e-01 -8.446446657180786133e-01 -2.832071110606193542e-02
-1.465148665010929108e-02 -3.254282101988792419e-02 -1.304677128791809082e-01 -7.256897687911987305e-01 -1.345277667045593262e+00 -1.747274875640869141e+00 -3.025912761688232422e+00 -1.161510825157165527e+00 2.674405872821807861e-01 5.661982297897338867e-01 4.610554873943328857e-01 -4.468674585223197937e-02 -7.611022144556045532e-02 -4.791571795940399170e-01 -4.327157437801361084e-01 -9.134436845779418945e-01 -3.133411705493927002e-01 -5.463237762451171875e-01 -4.232787489891052246e-01 -5.053786039352416992e-01 -6.801576018333435059e-01 2.006781101226806641e-01 -4.208095967769622803e-01 -2.129368782043457031e-01 1.136267781257629395e+00 -3.019612133502960205e-01 -6.191902160644531250e-01 1.247980818152427673e-02
7.016662508249282837e-03 6.461229175329208374e-03 -9.671007841825485229e-02 -7.937518954277038574e-01 -1.959117174148559570e+00 -1.785539746284484863e+00 -7.778407931327819824e-01 -2.520041465759277344e-01 6.991088390350341797e-01 -2.339827418327331543e-01 -2.104820311069488525e-02 -3.117917478084564209e-01 -4.241273105144500732e-01 -8.375450372695922852e-01 -2.951415479183197021e-01 -5.662502050399780273e-01 -1.921775192022323608e-01 -3.376102447509765625e-01 -3.516013622283935547e-01 5.578237026929855347e-02 -2.395281195640563965e-01 5.305511951446533203e-01 2.991678118705749512e-01 2.497521787881851196e-01 1.030430436134338379e+00 -5.403443574905395508e-01 -3.877329528331756592e-01 -8.474793285131454468e-03
1.442005485296249390e-02 -4.896091297268867493e-03 -3.428620100021362305e-02 -6.663841605186462402e-01 -1.108974695205688477e+00 -2.815900743007659912e-01 -2.106305658817291260e-01 2.991118431091308594e-01 6.629793345928192139e-02 -2.703416720032691956e-02 -4.465310871601104736e-01 -5.148162841796875000e-01 -3.328880667686462402e-01 -5.785816311836242676e-01 -8.524242043495178223e-01 -4.858680367469787598e-01 -6.918267011642456055e-01 -4.962513148784637451e-01 -1.204058900475502014e-01 -1.362110525369644165e-01 -9.677643328905105591e-02 1.166409254074096680e+00 -3.804602101445198059e-02 1.087001085281372070e+00 5.431727170944213867e-01 -3.666495978832244873e-01 -3.072024583816528320e-01 1.834791153669357300e-02
-2.121289074420928955e-02 2.345477044582366943e-02 2.901218533515930176e-01 -6.095056533813476562e-01 -1.103923797607421875e+00 -4.498038589954376221e-01 -3.478876054286956787e-01 -1.064332604408264160e+00 -7.886009216308593750e-01 -9.355856180191040039e-01 -4.802324771881103516e-01 -5.642395615577697754e-01 -3.815026879310607910e-01 -1.916878223419189453e-01 -3.229444921016693115e-01 -1.489357352256774902e-01 1.862408220767974854e-01 3.986833691596984863e-01 1.060881018638610840e-01 2.174080610275268555e-01 7.117052078247070312e-01 7.373563200235366821e-02 7.884154468774795532e-02 -2.133139595389366150e-02 -1.859386712312698364e-01 -4.509771242737770081e-02 -3.123634457588195801e-01 -3.456492349505424500e-02
-9.615920484066009521e-03 -1.724436879158020020e-05 -1.802871562540531158e-02 2.839322984218597412e-01 5.407910346984863281e-01 7.266620993614196777e-01 7.584332823753356934e-01 1.083161473274230957e+00 7.034087777137756348e-01 1.397298216819763184e+00 8.012863397598266602e-01 5.434881448745727539e-01 1.411548495292663574e+00 5.983421802520751953e-01 1.924769282341003418e+00 7.107475399971008301e-01 1.151875376701354980e+00 1.103084802627563477e+00 1.749672651290893555e+00 1.745724797248840332e+00 8.079504370689392090e-01 4.825657308101654053e-01 -5.479795336723327637e-01 2.204735875129699707e-01 3.809690102934837341e-02 2.343972399830818176e-02 3.043182194232940674e-03 -1.516901701688766479e-02
6.174385547637939453e-03 3.036000952124595642e-02 -9.871028363704681396e-03 -2.257215231657028198e-02 7.355732377618551254e-04 -3.256533145904541016e-01 -4.404482841491699219e-01 -8.397740721702575684e-01 -3.552774488925933838e-01 -7.426652312278747559e-01 -3.669765293598175049e-01 -2.205089926719665527e-01 -7.884898781776428223e-01 -1.927510619163513184e+00 1.890191286802291870e-01 -2.568320333957672119e-01 -8.847463726997375488e-01 -6.984478831291198730e-01 -2.415188252925872803e-01 -1.477339118719100952e-01 -3.087303638458251953e-01 1.616872251033782959e-01 -1.149465329945087433e-02 3.435805067420005798e-02 1.728026941418647766e-02 -5.909167230129241943e-04 -1.722186431288719177e-02 -3.249977901577949524e-02
