3.320757672190666199e-02 -1.350470632314682007e-02 1.329423859715461731e-02 -1.372635364532470703e-03 8.351668715476989746e-03 -5.755769088864326477e-03 2.799356356263160706e-02 3.244043514132499695e-02 -3.198679536581039429e-03 -3.139724582433700562e-02 -2.877519465982913971e-02 6.230410188436508179e-03 1.686957664787769318e-02 -2.184824645519256592e-02 3.043330460786819458e-02 -7.158237043768167496e-03 3.002356365323066711e-02 1.130296662449836731e-02 -2.664855122566223145e-02 9.447447955608367920e-04 -3.439393267035484314e-02 -1.917547546327114105e-02 2.852025255560874939e-02 2.773616090416908264e-02 -2.800684794783592224e-02 2.624588832259178162e-02 -4.116035997867584229e-03 -3.979504108428955078e-04
1.427092030644416809e-02 1.551199331879615784e-02 1.862917467951774597e-02 -2.905366383492946625e-02 2.874935045838356018e-02 -9.917494654655456543e-02 -4.633524119853973389e-01 -5.345585942268371582e-01 -3.215684592723846436e-01 -3.905514180660247803e-01 -3.236325383186340332e-01 -4.356147348880767822e-01 -3.347294032573699951e-01 -3.520237803459167480e-01 -2.634624540805816650e-01 -6.242836117744445801e-01 -6.955264210700988770e-01 -6.908364892005920410e-01 -3.208461701869964600e-01 -8.777508735656738281e-01 -1.180340886116027832e+00 -6.156811714172363281e-01 -6.502704620361328125e-01 -6.564830541610717773e-01 2.498086914420127869e-02 2.543689310550689697e-02 2.957723662257194519e-02 -2.598682045936584473e-02
2.411741763353347778e-03 -2.190648019313812256e-02 -9.837495163083076477e-03 -3.329971730709075928e-01 -4.765764176845550537e-01 -5.577384680509567261e-02 -6.848933696746826172e-01 -9.061186313629150391e-01 -1.097271442413330078e+00 -1.194504857063293457e+00 -1.267721056938171387e+00 -1.653450131416320801e+00 -1.479872703552246094e+00 -1.890465021133422852e+00 -1.640087485313415527e+00 -1.375455975532531738e+00 -1.024079442024230957e+00 -1.216114640235900879e+00 -8.121814727783203125e-01 -6.959441900253295898e-01 -6.188784241676330566e-01 -7.118965387344360352e-01 -7.616667747497558594e-01 -9.454689025878906250e-01 -1.526197791099548340e-01 -3.243380039930343628e-02 1.436047255992889404e-02 -9.767929092049598694e-03
1.318688690662384033e-02 -3.369464725255966187e-02 2.059116587042808533e-02 -3.435181379318237305e-01 -3.299885988235473633e-01 -1.055152043700218201e-01 -1.261619806289672852e+00 -2.069407939910888672e+00 -2.189576387405395508e+00 -2.617456674575805664e+00 -2.144527912139892578e+00 -1.376277804374694824e+00 -1.164791345596313477e+00 -2.404170036315917969e+00 -2.842435598373413086e+00 -9.779053926467895508e-01 -8.050251603126525879e-01 -9.856309294700622559e-01 -9.608758687973022461e-01 -5.068945884704589844e-01 -3.904206454753875732e-01 -2.964715957641601562e-01 -2.750878930091857910e-01 -8.115525841712951660e-01 -3.499488234519958496e-01 -5.304655432701110840e-02 1.614053733646869659e-02 -1.506504975259304047e-02
7.324144244194030762e-04 -2.769873104989528656e-02 -5.199187900871038437e-03 -5.483601614832878113e-02 2.114047557115554810e-01 6.818998456001281738e-01 -6.678228378295898438e-01 -2.178284227848052979e-01 6.380473077297210693e-02 5.194794852286577225e-03 -6.165124177932739258e-01 -7.521790266036987305e-02 -5.831123143434524536e-02 7.024133950471878052e-02 -4.732351303100585938e-01 -5.319805741310119629e-01 3.123429836705327034e-03 -1.876922994852066040e-01 -3.581352531909942627e-01 2.793421037495136261e-02 -1.004000380635261536e-01 5.905999988317489624e-02 -9.825414419174194336e-02 4.221977889537811279e-01 -4.715900719165802002e-01 6.917984690517187119e-03 -3.420450985431671143e-01 -3.218555152416229248e-01
-2.338310703635215759e-02 3.210232034325599670e-02 -3.063041865825653076e-01 -1.880563348531723022e-01 -7.324139475822448730e-01 -3.863509595394134521e-01 -2.117086350917816162e-01 -2.224168032407760620e-01 -8.791081607341766357e-02 -9.569227695465087891e-02 -1.698448210954666138e-01 -7.856853306293487549e-02 1.741986349225044250e-02 -1.485890746116638184e-01 2.566494345664978027e-01 1.561027765274047852e-01 3.876775205135345459e-01 1.195729523897171021e-01 1.717737466096878052e-01 -1.147833541035652161e-01 -5.331302434206008911e-02 -2.342504560947418213e-01 -2.428115755319595337e-01 -4.990985393524169922e-01 -1.593782305717468262e-01 -1.858094334602355957e-01 -6.192702054977416992e-01 -3.848250508308410645e-01
-3.222903236746788025e-02 -3.016395308077335358e-02 -6.250200420618057251e-02 -5.242675542831420898e-01 -1.945409327745437622e-01 1.066566929221153259e-01 -3.331355750560760498e-02 2.958951592445373535e-01 -2.509264051914215088e-01 7.742799818515777588e-02 -6.011778861284255981e-02 -2.191254496574401855e-01 -1.591312736272811890e-01 -3.700256943702697754e-01 -6.270858049392700195e-01 -5.145315527915954590e-01 -4.464870095252990723e-01 -3.891081809997558594e-01 -3.389333188533782959e-01 -2.033636718988418579e-01 -1.022258698940277100e-01 -1.362659186124801636e-01 1.170385628938674927e-01 2.326943427324295044e-01 -1.203749030828475952e-01 3.903910219669342041e-01 -8.078159689903259277e-01 -5.982702374458312988e-01
-3.220169991254806519e-02 -3.091413378715515137e-01 -4.867137074470520020e-01 4.296894967555999756e-01 -2.023427933454513550e-01 1.517777293920516968e-01 -5.771016329526901245e-02 2.601434476673603058e-02 1.236660256981849670e-01 -1.576493382453918457e-01 -1.159750297665596008e-01 6.848281621932983398e-02 -2.579904198646545410e-01 4.361853003501892090e-02 -2.634668946266174316e-01 -3.903084695339202881e-01 -2.907845079898834229e-01 -4.138087853789329529e-02 -2.465185336768627167e-02 -1.875356398522853851e-02 5.359945446252822876e-02 6.957364082336425781e-02 2.010437399148941040e-01 6.686855852603912354e-02 -3.615032434463500977e-01 -3.657574057579040527e-01 -8.188472986221313477e-01 -4.213466644287109375e-01
-3.133341073989868164e-01 -9.512282013893127441e-01 -7.784224748611450195e-01 -1.007161960005760193e-01 2.276979386806488037e-01 1.652434468269348145e-01 -1.184943597763776779e-02 1.097215637564659119e-01 -3.509629964828491211e-01 9.016323834657669067e-02 -6.525641679763793945e-02 -9.686766564846038818e-02 -8.707707375288009644e-02 -1.005038470029830933e-01 -1.980286389589309692e-01 -2.896563708782196045e-01 -1.780680865049362183e-01 -1.617306470870971680e-02 1.245310530066490173e-02 -8.279243856668472290e-02 -8.657253533601760864e-02 -2.282052673399448395e-02 -1.448068320751190186e-01 -1.222320124506950378e-01 1.157125085592269897e-01 -7.869783639907836914e-01 -1.892867684364318848e+00 -1.569094508886337280e-01
-2.333901971578598022e-01 -1.256863355636596680e+00 -1.200968742370605469e+00 -5.640969872474670410e-01 -4.153395295143127441e-01 5.542179569602012634e-02 -1.003847420215606689e-01 -3.211079863831400871e-03 1.209208145737648010e-01 -1.391582787036895752e-01 -6.207399070262908936e-02 -1.300250738859176636e-01 -1.139446943998336792e-01 -1.096128602512180805e-03 -2.194535285234451294e-01 -2.964102625846862793e-01 3.593751043081283569e-02 -1.924056708812713623e-01 -6.662100553512573242e-02 1.688074320554733276e-02 9.571328759193420410e-02 -3.136190772056579590e-02 -2.116540260612964630e-02 2.639175951480865479e-01 -7.032258510589599609e-01 -4.515571594238281250e-01 -2.782678842544555664e+00 -5.890817046165466309e-01
-2.126711457967758179e-01 -1.077882528305053711e+00 -1.110790014266967773e+00 -7.514698505401611328e-01 2.633656561374664307e-01 -3.449139893054962158e-01 -1.366610378026962280e-01 8.557650446891784668e-02 1.526461215689778328e-03 6.134963035583496094e-02 -2.191967517137527466e-02 -1.314832717180252075e-01 2.763192355632781982e-02 -1.082192361354827881e-01 -4.062802791595458984e-01 5.993682891130447388e-02 -2.622675001621246338e-01 3.013043105602264404e-02 -1.306464988738298416e-02 -6.846997141838073730e-02 3.171122865751385689e-03 -4.794603958725929260e-02 1.511197388172149658e-01 -2.043006569147109985e-01 -6.299052620306611061e-04 -9.630057811737060547e-01 -1.500954031944274902e+00 -1.917383521795272827e-01
-2.198625206947326660e-01 -3.354641795158386230e-01 -1.504230260848999023e+00 -3.294304385781288147e-02 1.000329107046127319e-01 2.178218960762023926e-01 -1.098800823092460632e-01 -1.399578601121902466e-01 -9.352094680070877075e-02 1.603492051362991333e-01 2.462221309542655945e-02 3.752397373318672180e-02 1.002195030450820923e-01 -4.529045522212982178e-01 -5.736832618713378906e-01 8.719056844711303711e-02 2.341058105230331421e-01 -1.656396873295307159e-02 -3.450405970215797424e-02 -6.283477693796157837e-02 -2.846310138702392578e-01 -2.178077846765518188e-01 -2.379265129566192627e-01 -5.475229024887084961e-01 -1.206080913543701172e+00 -1.364388227462768555e+00 -7.157256007194519043e-01 -3.416496217250823975e-01
3.429130837321281433e-02 -4.038263857364654541e-01 -1.668446183204650879e+00 -1.629859358072280884e-01 -4.377330541610717773e-01 -2.973211742937564850e-02 4.576784372329711914e-02 1.390369385480880737e-01 1.352928131818771362e-01 4.950297996401786804e-03 3.924939632415771484e-01 1.491239964962005615e-01 6.968917846679687500e-01 -2.292595505714416504e-01 -3.119091987609863281e-01 1.860836744308471680e-01 1.709400415420532227e-01 -8.864086121320724487e-03 -1.006125733256340027e-01 2.239651046693325043e-02 1.301783770322799683e-01 1.794780343770980835e-01 3.113352507352828979e-02 -5.501717925071716309e-01 3.486966192722320557e-01 -8.214824795722961426e-01 -1.188873291015625000e+00 -6.089302301406860352e-01
-3.064759075641632080e-03 -2.621773183345794678e-01 -1.131955027580261230e+00 -5.533563494682312012e-01 -4.893964529037475586e-01 1.164005622267723083e-01 1.787636429071426392e-01 1.562290787696838379e-01 1.406699120998382568e-01 2.656124532222747803e-01 2.825641632080078125e-01 3.004506826400756836e-01 4.178824126720428467e-01 -5.345884561538696289e-01 -4.921738430857658386e-02 2.049758136272430420e-01 -1.303379051387310028e-02 6.032020598649978638e-02 2.695724181830883026e-02 -4.205355048179626465e-02 7.976127415895462036e-02 2.734289467334747314e-01 2.026785910129547119e-01 -4.677376747131347656e-01 -5.327910780906677246e-01 -8.545258641242980957e-01 -1.918768405914306641e+00 -3.539578020572662354e-01
2.085853368043899536e-03 1.091057509183883667e-01 -6.256092190742492676e-01 8.948169648647308350e-02 3.714324831962585449e-01 1.212859377264976501e-01 8.548554033041000366e-02 2.253946065902709961e-01 1.565300673246383667e-01 8.950853347778320312e-02 1.676481813192367554e-01 2.003213465213775635e-01 2.503857910633087158e-01 -2.797272503376007080e-01 -3.960349410772323608e-02 -2.901238948106765747e-02 1.365445554256439209e-01 3.037672340869903564e-01 1.693914830684661865e-01 2.138605117797851562e-01 4.764391481876373291e-02 -3.900301083922386169e-02 3.234958043321967125e-03 -1.666550934314727783e-01 3.561699688434600830e-01 -7.311872392892837524e-02 -1.398334264755249023e+00 -3.407286107540130615e-01
2.925315871834754944e-02 1.334468722343444824e-01 5.918746590614318848e-01 2.072543501853942871e-01 2.783449292182922363e-01 -2.426689416170120239e-01 7.262580096721649170e-02 6.243854761123657227e-02 2.232111841440200806e-01 1.970399171113967896e-01 6.804880499839782715e-02 1.808172017335891724e-01 1.701630651950836182e-01 -3.756212592124938965e-01 1.891579329967498779e-01 1.389404982328414917e-01 2.955454289913177490e-01 5.291028693318367004e-02 -6.279203295707702637e-02 1.411746144294738770e-01 -1.238880157470703125e-01 -1.982416957616806030e-01 3.135792911052703857e-01 1.336408555507659912e-01 -7.165807485580444336e-01 -6.101450920104980469e-01 -2.006315946578979492e+00 8.914791792631149292e-02
1.940764486789703369e-04 -3.398121520876884460e-02 4.063554853200912476e-02 -3.431743979454040527e-01 -3.754094541072845459e-01 -4.091838840395212173e-03 1.666898652911186218e-02 6.364968419075012207e-02 6.521704792976379395e-02 4.866536706686019897e-02 7.604900002479553223e-02 4.253247752785682678e-03 1.783070117235183716e-01 -2.019815444946289062e-01 1.156635284423828125e-01 2.287669330835342407e-01 1.581441760063171387e-01 1.735691130161285400e-01 8.061292022466659546e-02 -3.704009205102920532e-02 2.819031178951263428e-01 1.909357905387878418e-01 -1.303042769432067871e-01 -3.241827487945556641e-01 2.713932096958160400e-01 -6.560974717140197754e-01 -1.237438797950744629e+00 -9.992356598377227783e-02
-8.838279172778129578e-03 -1.554861664772033691e-04 -3.032897412776947021e-01 -5.311973094940185547e-01 4.438300728797912598e-01 -3.541057109832763672e-01 9.594117850065231323e-02 2.060319110751152039e-02 2.435558140277862549e-01 1.240314170718193054e-01 4.529301077127456665e-02 2.219367213547229767e-02 -2.032877802848815918e-01 1.538532823324203491e-01 1.696739643812179565e-01 1.456670314073562622e-01 8.464279770851135254e-02 1.125794127583503723e-01 2.560454010963439941e-01 -7.384791970252990723e-02 -6.612575054168701172e-02 1.603104472160339355e-01 -5.449476838111877441e-02 3.711741268634796143e-01 -1.221710562705993652e+00 -1.484508275985717773e+00 -8.341393470764160156e-01 -2.863511741161346436e-01
-5.866659879684448242e-01 2.889338508248329163e-02 -7.883100509643554688e-01 1.309306323528289795e-01 -3.660920858383178711e-01 -5.316594988107681274e-02 -2.098665535449981689e-01 2.891817688941955566e-01 8.642021566629409790e-02 7.519752532243728638e-02 -7.374060899019241333e-02 -2.626163065433502197e-01 4.135071635246276855e-01 1.526853442192077637e-01 1.529029477387666702e-02 4.374486580491065979e-02 9.318856894969940186e-02 -2.314138114452362061e-01 -2.449446916580200195e-01 1.508691310882568359e-01 6.388724595308303833e-02 6.986603885889053345e-02 -3.468740731477737427e-02 -2.301193028688430786e-01 -1.275777339935302734e+00 -1.707801699638366699e+00 4.081927835941314697e-01 1.127133220434188843e-01
-1.579062454402446747e-02 -3.039097487926483154e-01 -2.962010204792022705e-01 3.213775753974914551e-01 -4.318651854991912842e-01 1.287551224231719971e-01 2.311049997806549072e-01 -2.704382538795471191e-01 -1.028461754322052002e-01 -3.213765621185302734e-01 -1.657318510115146637e-02 -1.103599295020103455e-01 -4.392615556716918945e-01 3.975465893745422363e-02 2.089840322732925415e-01 -1.346331238746643066e-01 -2.654989063739776611e-01 1.019615232944488525e-01 -1.959233134984970093e-01 -1.927663981914520264e-01 -2.670552134513854980e-01 -1.025449112057685852e-01 -9.884574413299560547e-01 -1.262526631355285645e+00 -1.253744602203369141e+00 -8.866576552391052246e-01 3.054215908050537109e-01 -1.108725555241107941e-02
1.505737379193305969e-02 2.837151288986206055e-03 -2.758769690990447998e-02 -1.163203790783882141e-01 -5.346660017967224121e-01 -3.280965387821197510e-01 -1.908491253852844238e-01 -5.892792940139770508e-01 -6.812929511070251465e-01 -3.148497045040130615e-01 -5.415195822715759277e-01 3.995260968804359436e-02 -1.039621978998184204e-01 -2.165662646293640137e-01 -6.100519374012947083e-02 1.400976777076721191e-01 2.589145004749298096e-01 6.310054659843444824e-02 6.072112545371055603e-02 -1.581258773803710938e-01 -2.943992018699645996e-01 4.237907007336616516e-03 -3.550567626953125000e-01 -9.864657372236251831e-02 -4.318915307521820068e-01 -2.591666877269744873e-01 -3.397431075572967529e-01 -2.933172285556793213e-01
-2.537047490477561951e-02 -3.365879133343696594e-02 2.722011208534240723e-01 5.699099972844123840e-02 -2.187559604644775391e-01 -1.335324287414550781e+00 -3.300962924957275391e+00 -7.727954983711242676e-01 3.446855843067169189e-01 1.470244824886322021e-01 2.452819049358367920e-02 -1.098716259002685547e-01 -1.613951325416564941e-01 -1.397018730640411377e-01 3.746199607849121094e-02 -4.018756747245788574e-02 -1.891060769557952881e-01 -2.724877744913101196e-02 -1.097538787871599197e-02 -1.564639434218406677e-02 9.224806725978851318e-02 -3.063537478446960449e-01 2.677219510078430176e-01 1.570673584938049316e-01 2.199076116085052490e-01 4.435091018676757812e-01 -1.057611331343650818e-01 -3.529452532529830933e-02
1.026359573006629944e-02 1.504361629486083984e-03 -9.691018611192703247e-02 -1.777572929859161377e-01 -8.049628138542175293e-01 -7.991914749145507812e-01 -4.108748435974121094e-01 -7.861700654029846191e-02 1.193657070398330688e-01 -2.180666178464889526e-01 -3.427318483591079712e-02 -1.980917453765869141e-01 -8.875048905611038208e-02 -1.072933077812194824e-01 -3.825628161430358887e-01 -9.622668474912643433e-02 -3.008085861802101135e-02 3.558047115802764893e-02 -7.505780458450317383e-02 2.363243699073791504e-01 -7.324538379907608032e-02 5.170390009880065918e-01 3.413566350936889648e-01 -5.807060599327087402e-01 -8.444404602050781250e-02 2.356377094984054565e-01 2.187902927398681641e-01 -3.039639815688133240e-02
-8.435722440481185913e-03 -1.212444156408309937e-02 -5.934637784957885742e-02 -3.954528868198394775e-01 -9.087947010993957520e-01 -3.930952548980712891e-01 -1.881213486194610596e-01 1.759783923625946045e-01 -5.687484890222549438e-02 -1.586790382862091064e-01 -2.367054224014282227e-01 -5.568400491029024124e-03 -3.785760700702667236e-01 -1.364561617374420166e-01 -7.934889942407608032e-02 -6.375039368867874146e-02 -1.069535762071609497e-01 -1.400371044874191284e-01 5.070954933762550354e-02 -1.520760506391525269e-01 -3.120483364909887314e-03 -2.074387483298778534e-02 -4.399040043354034424e-01 8.246356621384620667e-03 -2.591946721076965332e-02 3.917323052883148193e-01 3.387885987758636475e-01 -7.961051538586616516e-03
-5.156628787517547607e-03 -9.866803884506225586e-03 1.435219030827283859e-02 -1.304574217647314072e-02 -5.226299166679382324e-01 -8.548996448516845703e-01 3.076019324362277985e-02 -1.983640193939208984e-01 1.034853830933570862e-01 2.934022247791290283e-01 -1.882723718881607056e-02 1.736968159675598145e-01 3.043255128432065248e-04 -5.811671540141105652e-02 2.234660275280475616e-02 -9.634070098400115967e-02 -9.062385186553001404e-03 -4.401648417115211487e-02 -1.161310225725173950e-01 8.598923683166503906e-02 -2.167171686887741089e-01 7.852157950401306152e-02 -9.207873046398162842e-02 -1.712186336517333984e-01 -7.523927688598632812e-01 1.905346363782882690e-01 -2.791852690279483795e-02 3.399128839373588562e-02
-3.320002555847167969e-02 8.556045591831207275e-03 8.209711522795259953e-04 -2.153882198035717010e-02 -4.424780309200286865e-01 -1.144590497016906738e+00 -9.827352166175842285e-01 -8.574503660202026367e-01 -5.128945112228393555e-01 -6.483058333396911621e-01 -2.283688783645629883e-01 -4.432527124881744385e-01 -4.036252498626708984e-01 -3.025632202625274658e-01 -3.133910298347473145e-01 -3.753697276115417480e-01 -3.556570708751678467e-01 -5.295280814170837402e-01 -4.357385337352752686e-01 -8.241714835166931152e-01 -4.156565666198730469e-01 -1.492037534713745117e+00 -4.555369615554809570e-01 -2.413917630910873413e-01 -3.769961893558502197e-01 2.486787736415863037e-02 -1.858536154031753540e-03 -8.813807740807533264e-03
-9.085260331630706787e-03 -3.203434869647026062e-02 3.467057272791862488e-02 -1.409935951232910156e-02 -2.019330561161041260e-01 -4.054346978664398193e-01 -7.462550997734069824e-01 -1.220252394676208496e+00 -1.849549651145935059e+00 -1.900778174400329590e+00 -1.475050449371337891e+00 -1.351396322250366211e+00 -1.564450979232788086e+00 -1.830333590507507324e+00 -2.196730136871337891e+00 -2.475915670394897461e+00 -2.485715150833129883e+00 -2.365659952163696289e+00 -1.932588577270507812e+00 -2.089237213134765625e+00 -1.622534513473510742e+00 -1.919618129730224609e+00 -1.372260451316833496e+00 -9.542602300643920898e-01 2.300003543496131897e-02 -2.759793773293495178e-02 -2.115998417139053345e-03 6.886713206768035889e-03
2.771643176674842834e-02 1.419530063867568970e-02 1.635525375604629517e-02 -2.957437932491302490e-02 -2.470551431179046631e-02 6.129614077508449554e-03 -2.950297892093658447e-01 -3.504600226879119873e-01 -6.628475785255432129e-01 -6.820738315582275391e-01 -7.278700470924377441e-01 -8.819757699966430664e-01 -6.050163507461547852e-01 -7.297990918159484863e-01 -1.273132681846618652e+00 -2.659906148910522461e-01 -1.597859710454940796e-01 -1.923520565032958984e-01 -1.999085992574691772e-01 -1.319187134504318237e-01 -2.896482944488525391e-01 -2.602343559265136719e-01 -2.096150368452072144e-01 2.257069945335388184e-02 2.672380581498146057e-02 -1.873990148305892944e-02 2.387482672929763794e-03 -2.838037908077239990e-02
