7.169160991907119751e-03 2.707174047827720642e-02 2.617867663502693176e-02 -1.449078321456909180e-03 -1.584575511515140533e-02 1.207212358713150024e-02 -1.509517431259155273e-02 1.842930912971496582e-02 2.947321161627769470e-02 2.316809818148612976e-02 1.470938697457313538e-02 -7.271766662597656250e-04 1.097421348094940186e-02 -3.530419617891311646e-02 2.716670557856559753e-02 5.853891372680664062e-03 -1.223681680858135223e-02 -1.913328282535076141e-02 1.196614652872085571e-02 8.858419954776763916e-03 2.982936426997184753e-02 1.330257952213287354e-02 -3.251469880342483521e-02 1.011753827333450317e-02 -2.661037072539329529e-02 -2.091809734702110291e-02 8.198194205760955811e-03 -4.554718732833862305e-03
2.699895575642585754e-02 -1.002126932144165039e-02 9.895600378513336182e-03 -6.705233827233314514e-03 -2.466982603073120117e-02 3.302189335227012634e-02 -1.872115954756736755e-02 -1.627511717379093170e-02 1.738368719816207886e-02 -1.248552463948726654e-02 -1.091230567544698715e-02 -4.414732381701469421e-02 -2.902760207653045654e-01 -4.193920195102691650e-01 -1.902922391891479492e-01 3.253826126456260681e-02 -3.156229481101036072e-02 -3.628808632493019104e-02 -5.469166487455368042e-02 -4.550483822822570801e-02 2.385889366269111633e-02 -3.434292972087860107e-02 -1.063632592558860779e-02 3.426649793982505798e-02 1.903720572590827942e-02 -1.617259718477725983e-02 -1.454543694853782654e-02 -1.570938341319561005e-02
-3.050034493207931519e-02 -8.732574060559272766e-03 1.863496005535125732e-02 -2.074264287948608398e-01 1.635824143886566162e-02 -1.183559186756610870e-02 1.626184210181236267e-02 -1.354280263185501099e-01 -1.572681665420532227e-01 -3.128623068332672119e-01 -8.530155420303344727e-01 -1.079993844032287598e+00 -1.675092816352844238e+00 -1.661458849906921387e+00 -1.972222089767456055e+00 -2.068575620651245117e+00 -2.023527860641479492e+00 -1.755114912986755371e+00 -1.174212813377380371e+00 -1.161541104316711426e+00 -1.046536087989807129e+00 -1.298657417297363281e+00 -1.256041646003723145e+00 -7.365592718124389648e-01 -2.739484012126922607e-01 1.018695253878831863e-02 -1.957992278039455414e-02 -7.601581513881683350e-03
8.583068847656250000e-04 -4.786066710948944092e-04 2.313005924224853516e-02 -1.751522570848464966e-01 -1.822995543479919434e-01 -3.597206771373748779e-01 -6.975730657577514648e-01 -5.644644498825073242e-01 -1.117216348648071289e+00 -2.253223657608032227e+00 -1.032923221588134766e+00 -1.400013685226440430e+00 7.287550717592239380e-02 -3.317300677299499512e-01 -1.081976771354675293e+00 -6.618109941482543945e-01 -9.299731850624084473e-01 -1.118909001350402832e+00 -8.370690345764160156e-01 -4.726029634475708008e-01 -7.139796614646911621e-01 -6.346374154090881348e-01 -2.312560528516769409e-01 -1.838797211647033691e+00 -5.767339468002319336e-01 -1.223232030868530273e+00 2.668236792087554932e-01 1.824523136019706726e-02
1.994557678699493408e-02 -1.733539812266826630e-02 -2.933231592178344727e-01 -4.273712337017059326e-01 -7.585098147392272949e-01 -2.278853207826614380e-01 7.380792498588562012e-02 -3.613870739936828613e-01 -1.243842601776123047e+00 -1.813820600509643555e-01 -2.527633607387542725e-01 -1.069227606058120728e-01 -5.092369019985198975e-02 -4.069504141807556152e-01 -2.053730934858322144e-01 7.971732318401336670e-02 1.277200132608413696e-02 -9.454344958066940308e-02 6.461284309625625610e-02 -1.411329768598079681e-02 -3.586881160736083984e-01 2.668868303298950195e-01 1.451912522315979004e-02 1.429713815450668335e-01 3.407090306282043457e-01 -4.131455123424530029e-01 -1.274508386850357056e-01 -3.356211781501770020e-01
-9.888688102364540100e-03 1.734318584203720093e-02 -5.831840634346008301e-01 -9.045694470405578613e-01 -8.442004323005676270e-01 -1.801124334335327148e+00 -8.970754146575927734e-01 -4.843671321868896484e-01 3.366106376051902771e-02 8.010447025299072266e-02 9.550544433295726776e-03 8.384915441274642944e-02 -1.564903110265731812e-01 -2.820001244544982910e-01 8.496850728988647461e-03 -1.610774844884872437e-01 -3.255539387464523315e-02 9.313272684812545776e-02 1.065830439329147339e-01 -2.155578229576349258e-03 3.423269689083099365e-01 -1.203137170523405075e-02 1.617612689733505249e-01 5.461168289184570312e-02 -3.829712048172950745e-02 1.266883015632629395e-01 3.987617492675781250e-01 -9.267841279506683350e-02
1.354087144136428833e-02 -3.718032315373420715e-02 9.746135771274566650e-02 -5.303590893745422363e-01 -1.059818029403686523e+00 -7.744764089584350586e-01 2.100839316844940186e-01 -9.269677102565765381e-02 -4.019820392131805420e-01 -1.129994615912437439e-01 -1.517421156167984009e-01 -4.853755235671997070e-02 -1.632331609725952148e-01 -4.847878590226173401e-02 7.723809033632278442e-02 -2.112379223108291626e-01 -9.791914373636245728e-02 -5.576897412538528442e-02 -6.944481283426284790e-02 1.950899660587310791e-01 2.197456955909729004e-01 -1.206178441643714905e-01 3.883430957794189453e-01 -6.567987799644470215e-02 4.188795983791351318e-01 2.397032082080841064e-02 4.614339768886566162e-01 4.195314347743988037e-01
-2.615906298160552979e-03 -4.137916862964630127e-02 7.797653973102569580e-02 -5.657387971878051758e-01 -2.705638408660888672e+00 -5.447543412446975708e-02 -1.743877530097961426e-01 -1.288053542375564575e-01 1.157187074422836304e-01 5.738994479179382324e-02 3.692362010478973389e-01 2.151557430624961853e-02 1.223559603095054626e-01 -5.112936720252037048e-02 -3.487633913755416870e-02 -2.242462933063507080e-01 1.746509782969951630e-02 7.564651966094970703e-02 8.472994714975357056e-02 -8.207841962575912476e-02 -4.113351181149482727e-02 2.360514998435974121e-01 1.744913458824157715e-01 3.962835967540740967e-01 -1.312852203845977783e-01 4.132946431636810303e-01 -9.213487803936004639e-02 1.238157510757446289e+00
-3.526785969734191895e-02 -4.808506928384304047e-03 -5.247334837913513184e-01 -1.210634946823120117e+00 -2.552669048309326172e+00 -2.825179994106292725e-01 -2.608243227005004883e-01 4.894425719976425171e-02 1.078155264258384705e-01 -1.286247968673706055e-01 -1.288527250289916992e-02 2.789607346057891846e-01 -2.140854448080062866e-01 -7.478826493024826050e-02 -8.797267079353332520e-02 -1.124711036682128906e-01 -2.447415888309478760e-01 -4.883523564785718918e-03 -7.463976740837097168e-02 1.818837225437164307e-01 1.832264810800552368e-01 2.258984148502349854e-01 3.751413524150848389e-02 5.712730288505554199e-01 2.565860748291015625e-01 1.730251014232635498e-01 3.272862732410430908e-01 8.093634843826293945e-01
-1.905679330229759216e-02 1.913582161068916321e-02 -5.346962809562683105e-01 -1.163908123970031738e+00 -1.780840873718261719e+00 1.534188240766525269e-01 -3.634657263755798340e-01 3.789232298731803894e-02 -5.765338242053985596e-02 1.810861527919769287e-01 2.143463864922523499e-02 3.421433866024017334e-01 4.751928523182868958e-02 -2.114112526178359985e-01 -1.735119074583053589e-01 -3.911714553833007812e-01 -4.274840950965881348e-01 -2.524379491806030273e-01 -2.012972384691238403e-01 5.879993736743927002e-02 -1.142280641943216324e-03 4.960232079029083252e-01 3.563981652259826660e-01 3.098783791065216064e-01 6.229268908500671387e-01 -2.137830555438995361e-01 4.189719557762145996e-01 9.203737974166870117e-01
-7.557941600680351257e-03 -4.341697990894317627e-01 -6.507037878036499023e-01 -1.689202666282653809e+00 -4.612348675727844238e-01 -4.374842941761016846e-01 -2.040081918239593506e-01 4.343523681163787842e-01 2.699908316135406494e-01 5.374598503112792969e-01 5.789968371391296387e-02 3.459389209747314453e-01 3.562323153018951416e-01 3.287806212902069092e-01 -1.682007014751434326e-01 -1.799910813570022583e-01 -2.836299240589141846e-01 -5.156564116477966309e-01 -7.588043212890625000e-01 -8.279091715812683105e-01 7.232978940010070801e-02 1.024126768112182617e+00 1.331759214401245117e+00 1.010076880455017090e+00 8.117823600769042969e-01 5.294066071510314941e-01 7.262123823165893555e-01 2.004041671752929688e-01
1.976792886853218079e-02 -4.711518287658691406e-01 -4.632526934146881104e-01 -9.056315422058105469e-01 -1.072661429643630981e-01 -6.440822035074234009e-02 2.815682291984558105e-01 -5.280294641852378845e-02 -6.606695055961608887e-02 9.165509790182113647e-02 1.850051134824752808e-01 1.405861824750900269e-01 2.690078876912593842e-02 2.163167446851730347e-01 -1.789083331823348999e-02 -1.614264845848083496e-01 -1.769752353429794312e-01 -1.508263349533081055e-01 -2.081740200519561768e-01 -9.861732721328735352e-01 -3.503322362899780273e+00 -2.701215267181396484e+00 -8.211613893508911133e-01 4.233749806880950928e-01 9.076574444770812988e-02 5.804598331451416016e-01 7.903676033020019531e-01 -1.443898230791091919e-01
-1.915889978408813477e-02 -4.266237020492553711e-01 -4.527505338191986084e-01 -2.534279525279998779e-01 -8.122103661298751831e-02 1.276120543479919434e-01 3.319226801395416260e-01 -3.890613093972206116e-02 2.594589293003082275e-01 -1.951135843992233276e-01 2.456751614809036255e-01 1.816096007823944092e-01 2.727864682674407959e-01 1.678330004215240479e-01 -3.288497030735015869e-01 4.971002787351608276e-02 -4.124309718608856201e-01 -3.518298268318176270e-01 -3.921124935150146484e-01 -5.539888888597488403e-02 2.501502335071563721e-01 -3.096653461456298828e+00 -7.431477069854736328e+00 -4.871252059936523438e+00 -3.503599882125854492e+00 -1.653117418289184570e+00 -2.103307098150253296e-01 -1.915757916867733002e-02
2.332416176795959473e-02 -3.032225966453552246e-01 -2.550932168960571289e-01 -2.077895849943161011e-01 1.281797587871551514e-01 -4.286776855587959290e-02 -1.909935176372528076e-01 6.244631856679916382e-02 -1.568192690610885620e-01 7.855755090713500977e-02 3.305610036477446556e-03 1.691642701625823975e-01 2.247420102357864380e-01 7.944563776254653931e-02 -3.869645595550537109e-01 -8.077199012041091919e-02 -3.826803565025329590e-01 -1.464865505695343018e-01 -4.082262516021728516e-02 8.700577169656753540e-02 8.053801208734512329e-02 5.064991712570190430e-01 5.830795764923095703e-01 -3.066905975341796875e+00 -3.408162593841552734e+00 -1.538503766059875488e+00 -6.408290266990661621e-01 -1.169610023498535156e-02
2.948339581489562988e-01 -3.956174943596124649e-03 -1.850566081702709198e-02 -5.713025927543640137e-01 -5.484948679804801941e-02 5.596763803623616695e-04 2.425638437271118164e-01 -1.371941119432449341e-01 1.836530119180679321e-01 -7.774646580219268799e-02 3.309712111949920654e-01 -8.595093339681625366e-02 2.144205272197723389e-01 -5.400383472442626953e-02 -2.285217791795730591e-01 8.813527971506118774e-02 -1.708000898361206055e-01 -2.423673719167709351e-01 -9.579851478338241577e-02 -3.766472339630126953e-01 1.983886957168579102e-01 -8.087316900491714478e-02 6.762421131134033203e-01 -3.972689509391784668e-01 -1.315605521202087402e+00 -1.440130710601806641e+00 -3.930533528327941895e-01 3.240233287215232849e-02
5.177922174334526062e-02 -1.809488981962203979e-03 -3.508397564291954041e-02 -8.862864971160888672e-02 -2.930278778076171875e-01 -5.085880160331726074e-01 1.128531321883201599e-01 -6.343755871057510376e-02 -8.424248546361923218e-02 2.836828231811523438e-01 -1.182952076196670532e-01 6.061075255274772644e-02 1.934403777122497559e-01 -2.882479131221771240e-01 -3.395130634307861328e-01 -2.742365896701812744e-01 -1.877716332674026489e-01 -3.118932843208312988e-01 1.384800225496292114e-01 -3.328394889831542969e-02 5.317568033933639526e-02 -1.116862297058105469e-01 1.004123613238334656e-01 -3.716609776020050049e-01 -2.158524543046951294e-01 -1.688998699188232422e+00 -7.089684009552001953e-01 -1.675872504711151123e-01
-3.096457123756408691e-01 1.207966357469558716e-02 -6.736008822917938232e-02 -1.438083946704864502e-01 -2.781495153903961182e-01 2.549949474632740021e-02 -2.846716046333312988e-01 -4.521639943122863770e-01 -1.049130111932754517e-01 -1.664477735757827759e-01 1.165116280317306519e-01 -6.689995527267456055e-02 6.674624234437942505e-02 -6.347589194774627686e-02 -2.872920632362365723e-01 -1.849604994058609009e-01 -2.702387869358062744e-01 1.188479829579591751e-02 -2.557546198368072510e-01 1.568635553121566772e-01 3.012571632862091064e-01 -1.361490190029144287e-01 2.833293974399566650e-01 -4.464325308799743652e-01 -1.145665422081947327e-01 -2.084249019622802734e+00 -1.042217016220092773e+00 -1.781760156154632568e-01
-2.476439438760280609e-02 7.753040641546249390e-03 -1.363056302070617676e-01 5.823420882225036621e-01 -1.896610260009765625e-01 -1.725748926401138306e-01 7.208211421966552734e-01 -1.300774067640304565e-01 -1.935491859912872314e-01 -3.811573684215545654e-01 -2.678874135017395020e-01 -1.550578176975250244e-01 -4.015833735466003418e-01 -4.949869513511657715e-01 -5.303850769996643066e-01 -4.332025721669197083e-02 -2.116297930479049683e-02 -7.387756370007991791e-03 2.813963294029235840e-01 -7.147419452667236328e-02 -5.283419787883758545e-02 2.445312142372131348e-01 -1.652759909629821777e-01 -3.862025141716003418e-01 4.377127587795257568e-01 -2.621072530746459961e+00 -3.529602587223052979e-01 -9.773720800876617432e-02
-3.252961114048957825e-02 -3.120017945766448975e-01 -3.136134743690490723e-01 -4.244085252285003662e-01 2.717862427234649658e-01 5.692794546484947205e-02 1.333893537521362305e-01 1.860219240188598633e-01 8.083486557006835938e-02 -4.183436632156372070e-01 -8.590807318687438965e-01 -7.134178280830383301e-01 -1.789513528347015381e-01 2.969199419021606445e-01 -2.656200900673866272e-02 3.258598037064075470e-03 -1.904503814876079559e-02 2.734052240848541260e-01 -1.500024199485778809e-01 8.327323943376541138e-02 2.821613103151321411e-02 -1.441877931356430054e-01 1.870044320821762085e-02 -5.550732091069221497e-02 -3.120844662189483643e-01 -2.178556203842163086e+00 -3.159827589988708496e-01 -2.304812669754028320e-01
-3.078706562519073486e-03 -3.489134609699249268e-01 -2.651974856853485107e-01 -1.929107189178466797e+00 5.854342579841613770e-01 -2.366294562816619873e-01 3.458299934864044189e-01 -1.837710887193679810e-01 1.357280611991882324e-01 9.826932102441787720e-02 1.714143007993698120e-01 4.747625812888145447e-02 1.241436749696731567e-01 -4.935618489980697632e-02 -4.699258133769035339e-02 1.327406018972396851e-01 -1.192744821310043335e-01 -1.771378219127655029e-01 1.047203876078128815e-02 -5.206047371029853821e-02 -8.488027006387710571e-02 2.820059284567832947e-02 1.726334244012832642e-01 1.850383281707763672e-01 2.604002356529235840e-01 -1.970021963119506836e+00 -6.591845154762268066e-01 -2.038896232843399048e-01
3.277048841118812561e-02 2.274476177990436554e-02 -3.072055876255035400e-01 -9.883627295494079590e-01 -2.950917184352874756e-01 4.285228252410888672e-02 -1.322233676910400391e-01 -6.091233342885971069e-02 2.214334532618522644e-02 9.622874855995178223e-02 -2.114433236420154572e-02 4.506055116653442383e-01 -8.033354580402374268e-02 6.970509886741638184e-02 -1.670305728912353516e-01 -8.130864053964614868e-02 1.224631443619728088e-01 1.501332074403762817e-01 6.308102048933506012e-03 2.326377481222152710e-01 -6.971182674169540405e-02 -1.441927254199981689e-01 5.941456556320190430e-01 1.727246195077896118e-01 1.345830261707305908e-01 -1.970731377601623535e+00 -2.754040658473968506e-01 -3.404645919799804688e-01
2.491179481148719788e-02 -1.773705706000328064e-02 -7.729124426841735840e-01 -3.672203719615936279e-01 4.019508063793182373e-01 -5.554805696010589600e-02 2.130614668130874634e-01 1.289682090282440186e-01 6.591011583805084229e-02 1.274077445268630981e-01 7.362969964742660522e-02 8.629307150840759277e-02 1.056803092360496521e-01 6.786254048347473145e-02 -2.309417910873889923e-02 -5.619305372238159180e-02 -1.571317464113235474e-01 3.256656602025032043e-02 3.675930574536323547e-02 -5.007274821400642395e-02 5.237547159194946289e-01 5.328524112701416016e-01 4.507600069046020508e-01 -7.733229547739028931e-02 -8.091387748718261719e-01 -1.303439438343048096e-01 2.049234956502914429e-01 9.477546438574790955e-03
-2.190262079238891602e-02 -1.808361965231597424e-03 -6.106263995170593262e-01 -3.181973099708557129e-01 1.173933371901512146e-01 -1.167562752962112427e-01 -3.548651337623596191e-01 1.484420895576477051e-02 -6.092755869030952454e-02 1.304828077554702759e-01 1.271490007638931274e-01 -2.646774798631668091e-02 1.778208911418914795e-01 -9.097183495759963989e-02 1.531772911548614502e-01 -8.487318456172943115e-02 -2.771760895848274231e-02 -2.252181619405746460e-01 1.768742799758911133e-01 1.167407259345054626e-02 4.467939957976341248e-02 7.052453700453042984e-03 3.300983607769012451e-01 1.142184808850288391e-01 -1.024463057518005371e+00 -5.062656402587890625e-01 2.778739631175994873e-01 1.929095014929771423e-02
2.859697118401527405e-02 2.230037748813629150e-02 6.647840142250061035e-02 -1.351052522659301758e+00 -3.631824553012847900e-01 3.463118076324462891e-01 1.511003673076629639e-01 -2.625040411949157715e-01 2.281812578439712524e-01 -1.505568921566009521e-01 4.404704645276069641e-02 5.174565315246582031e-02 6.163863092660903931e-02 -4.265423491597175598e-02 2.705384604632854462e-02 -9.271953999996185303e-02 4.680740833282470703e-02 -1.648372262716293335e-01 -1.904007792472839355e-01 -5.252497196197509766e-01 2.961983084678649902e-01 -5.228842496871948242e-01 -2.429061941802501678e-02 4.357389807701110840e-01 -1.089652061462402344e+00 -6.848347187042236328e-01 -1.335451751947402954e-01 -1.007248647511005402e-02
3.062959760427474976e-03 -1.888949424028396606e-03 -7.445034384727478027e-02 -3.751550316810607910e-01 -8.102294206619262695e-01 -5.334327816963195801e-01 -1.522694528102874756e-01 1.839113682508468628e-01 -2.170325815677642822e-01 3.283003568649291992e-01 -9.861657395958900452e-03 -1.235279068350791931e-01 -1.691423356533050537e-02 1.393149346113204956e-01 1.532966643571853638e-01 1.209299042820930481e-01 -2.817554175853729248e-01 7.714885473251342773e-02 3.437058031558990479e-01 -2.086803615093231201e-01 5.472508259117603302e-03 -2.270790934562683105e-01 3.691822886466979980e-01 -5.083568096160888672e-01 -3.290394842624664307e-01 -3.877812325954437256e-01 -3.202007710933685303e-01 1.823198050260543823e-03
1.059326902031898499e-02 1.604042202234268188e-02 -1.273469813168048859e-02 4.846834763884544373e-02 -2.869228720664978027e-01 -3.591562211513519287e-01 -4.896250069141387939e-01 4.545122385025024414e-01 -3.154548108577728271e-01 8.717983961105346680e-02 -1.573297828435897827e-01 3.638028725981712341e-02 5.044723674654960632e-02 1.333254426717758179e-01 -4.309021234512329102e-01 2.564524114131927490e-01 1.805477440357208252e-01 -1.579021476209163666e-02 -3.045393824577331543e-01 -2.985465824604034424e-01 -7.922299504280090332e-01 -1.014089584350585938e+00 4.443627893924713135e-01 5.119672417640686035e-01 3.477179706096649170e-01 -3.509978204965591431e-02 -1.553388684988021851e-02 -1.916512474417686462e-02
-3.346688672900199890e-02 -1.402581669390201569e-02 -5.678828805685043335e-03 6.252117455005645752e-03 2.134701423346996307e-02 -2.539241500198841095e-02 -1.719844043254852295e-01 -7.834591269493103027e-01 -6.585518717765808105e-01 -1.035282611846923828e+00 -2.998682260513305664e-01 -4.080809354782104492e-01 -8.617079854011535645e-01 3.258997574448585510e-02 -7.095082402229309082e-01 -7.161465883255004883e-01 -1.156653523445129395e+00 -7.992089390754699707e-01 -1.963710904121398926e+00 -4.763518869876861572e-01 -4.678545594215393066e-01 -1.099797248840332031e+00 -6.838449835777282715e-01 -1.154602840542793274e-01 -2.280031144618988037e-02 -1.805353909730911255e-03 3.076207265257835388e-02 7.560163736343383789e-03
1.059207320213317871e-02 3.021920844912528992e-02 -3.101967647671699524e-02 1.417934894561767578e-02 4.021886736154556274e-03 2.934022620320320129e-02 -1.387645211070775986e-02 -5.775893852114677429e-02 -1.641882024705410004e-02 -2.181293442845344543e-02 2.832398116588592529e-01 -2.449580430984497070e-01 -3.638652861118316650e-01 -7.868882417678833008e-01 -5.551185607910156250e-01 -3.936241865158081055e-01 -3.412536382675170898e-01 -1.326749622821807861e-01 -8.560821413993835449e-02 -1.056801248341798782e-02 -3.023924529552459717e-01 -2.854799628257751465e-01 -3.028851151466369629e-01 -3.369352221488952637e-02 -6.198428571224212646e-03 1.705501228570938110e-03 2.049016579985618591e-02 -1.012381166219711304e-03
