-4.243381321430206299e-03 3.125473484396934509e-02 2.692098543047904968e-02 -2.764350175857543945e-02 2.556666731834411621e-04 9.006753563880920410e-03 2.465998753905296326e-02 1.950295269489288330e-02 -6.523873656988143921e-03 -2.197646349668502808e-02 1.831101998686790466e-02 1.572494581341743469e-02 1.323497295379638672e-02 3.484144434332847595e-02 2.895129099488258362e-02 2.078550308942794800e-02 -3.225076198577880859e-02 -2.865302748978137970e-02 9.625080972909927368e-03 1.291489228606224060e-02 -3.046053275465965271e-02 2.662792056798934937e-02 -2.954472601413726807e-02 -2.744685858488082886e-02 1.584907248616218567e-02 -1.578154414892196655e-02 -1.895607821643352509e-02 -2.323210239410400391e-02
2.362027764320373535e-02 -2.570171095430850983e-02 1.797281205654144287e-02 2.748015895485877991e-02 -1.625010371208190918e-02 -1.461384631693363190e-02 1.304545998573303223e-02 3.134924545884132385e-02 2.662082016468048096e-02 -1.945502497255802155e-02 9.891726076602935791e-03 1.713452115654945374e-02 1.359245181083679199e-02 -9.095741435885429382e-03 -6.265775859355926514e-02 -6.670671701431274414e-02 -8.085731416940689087e-02 -6.811482831835746765e-03 -2.510673739016056061e-02 2.652698010206222534e-02 3.115940839052200317e-03 9.230993688106536865e-03 1.892890408635139465e-02 2.771713957190513611e-02 2.870384976267814636e-02 -1.133791916072368622e-02 -9.644163772463798523e-03 -7.988438010215759277e-04
3.503009304404258728e-02 1.191536337137222290e-02 -2.244880422949790955e-02 -2.521260082721710205e-02 7.541209459304809570e-03 -2.987182699143886566e-02 1.003914698958396912e-02 -1.238275505602359772e-02 -6.300481408834457397e-02 -8.484809845685958862e-02 -4.347555339336395264e-01 -6.899785995483398438e-01 -1.043127179145812988e+00 -7.381878495216369629e-01 -1.101518392562866211e+00 -7.797771692276000977e-01 -1.301903486251831055e+00 -8.611879944801330566e-01 -8.112521767616271973e-01 -5.424594879150390625e-01 -2.062733620405197144e-01 -4.002092406153678894e-02 -7.192863523960113525e-02 -8.204155601561069489e-03 -3.038513287901878357e-02 2.120160311460494995e-02 -1.933190971612930298e-03 -1.548176258802413940e-02
-3.498885035514831543e-02 3.522122278809547424e-02 -2.074442803859710693e-03 1.466456800699234009e-03 1.202977523207664490e-01 2.961185760796070099e-02 -1.686322391033172607e-01 -8.202448487281799316e-01 -1.555430889129638672e-01 -1.897339895367622375e-02 -2.843208312988281250e-01 1.444086134433746338e-01 2.362967282533645630e-01 -1.682694554328918457e-01 1.719073802232742310e-01 -1.459760814905166626e-01 -1.605245620012283325e-01 1.910602599382400513e-01 9.688910096883773804e-03 -3.691253066062927246e-01 1.959590241312980652e-02 -3.437659144401550293e-01 -1.245074152946472168e+00 -5.167001485824584961e-01 -1.120621785521507263e-01 4.878781735897064209e-03 -2.000026404857635498e-03 2.282597124576568604e-02
-2.341955527663230896e-02 -3.504767641425132751e-02 3.346178233623504639e-01 -9.997361153364181519e-02 7.144149392843246460e-02 5.796883702278137207e-01 -8.196372538805007935e-02 -1.560071557760238647e-01 2.690508961677551270e-01 1.137671470642089844e-01 2.092450261116027832e-01 2.384032355621457100e-03 5.924553796648979187e-02 1.633451133966445923e-01 5.659490823745727539e-02 5.399356409907341003e-02 8.341337740421295166e-02 -4.472816362977027893e-02 7.047919929027557373e-02 1.459927707910537720e-01 -1.778374463319778442e-01 -6.999877840280532837e-02 -1.225036233663558960e-01 -1.147301673889160156e+00 -4.580821990966796875e-01 -1.575264334678649902e-02 -2.144479565322399139e-02 1.557237654924392700e-02
6.370637565851211548e-03 2.005880698561668396e-02 3.293345570564270020e-01 -9.324952363967895508e-01 -3.888922333717346191e-01 5.276468992233276367e-01 5.228255689144134521e-02 -2.147726481780409813e-03 -3.151744604110717773e-02 -5.500699579715728760e-02 -3.621158376336097717e-02 5.376676842570304871e-02 7.635824382305145264e-02 -3.259765217080712318e-03 -1.637203618884086609e-02 1.162475906312465668e-02 4.226169362664222717e-02 -1.546290516853332520e-01 4.732946981675922871e-04 3.810778260231018066e-02 -8.395022153854370117e-02 -1.179269030690193176e-01 -1.400355994701385498e-01 -1.194743037223815918e+00 -1.708232402801513672e+00 -7.903964072465896606e-02 -9.044109843671321869e-03 1.386931166052818298e-02
6.152428686618804932e-03 3.609518054872751236e-03 5.655301213264465332e-01 2.632417082786560059e-01 -1.337825804948806763e-01 -5.121206492185592651e-02 9.494496881961822510e-02 -3.193749859929084778e-02 1.517819613218307495e-01 2.347012050449848175e-02 9.334611147642135620e-02 1.494436264038085938e-01 -6.873250007629394531e-02 2.520494759082794189e-01 -3.311338648200035095e-02 1.040680110454559326e-01 1.181061863899230957e-01 -9.998463839292526245e-02 2.212632596492767334e-01 -1.270395219326019287e-01 -1.145533546805381775e-01 2.156241834163665771e-01 7.684655487537384033e-02 -7.327840328216552734e-01 -1.766619086265563965e+00 -3.278607726097106934e-01 -4.439830780029296875e-02 2.574099972844123840e-02
-8.501820266246795654e-04 8.354261517524719238e-01 3.335642069578170776e-02 2.050911784172058105e-01 -2.561890482902526855e-01 1.794853061437606812e-01 -6.528054922819137573e-02 -7.635618001222610474e-02 -3.315420821309089661e-02 -1.999815739691257477e-02 -6.895697861909866333e-02 -2.948603779077529907e-02 3.818347677588462830e-02 -2.203705534338951111e-02 4.300245270133018494e-02 -2.166441176086664200e-03 8.728323504328727722e-03 6.850910186767578125e-02 -1.460133343935012817e-01 -6.762597709894180298e-02 1.894255131483078003e-01 -2.129207104444503784e-01 -1.230219155550003052e-01 -2.210039794445037842e-01 -2.408079624176025391e+00 -4.417662918567657471e-01 6.046635098755359650e-03 -1.726344227790832520e-02
1.022250950336456299e-02 2.068868279457092285e-01 -3.727699518203735352e-01 1.648437231779098511e-01 5.116860941052436829e-02 1.752144098281860352e-01 4.768805578351020813e-02 -6.242403294891119003e-03 7.644457370042800903e-02 -1.566534489393234253e-01 1.578767299652099609e-01 -1.120985299348831177e-01 1.252563893795013428e-01 3.453494235873222351e-02 1.209628582000732422e-01 3.516146913170814514e-02 -6.222430244088172913e-02 5.922632664442062378e-02 1.318514049053192139e-01 9.227787144482135773e-03 -3.387298434972763062e-02 3.806436806917190552e-02 1.300264745950698853e-01 -5.761064291000366211e-01 -2.584195375442504883e+00 -4.886275231838226318e-01 -1.855750568211078644e-02 -1.289083808660507202e-02
5.119979381561279297e-03 -1.371805071830749512e-01 -1.367717981338500977e+00 -9.270487725734710693e-02 4.672218263149261475e-01 -3.516626954078674316e-01 1.460779309272766113e-01 3.578035160899162292e-02 -4.521800950169563293e-02 1.707065701484680176e-01 3.279468044638633728e-02 -2.904299795627593994e-01 -1.875064074993133545e-01 -1.053803637623786926e-01 1.269076913595199585e-01 2.734535932540893555e-01 1.146665737032890320e-01 3.567206487059593201e-02 8.193482458591461182e-02 9.168603457510471344e-03 1.928361654281616211e-01 9.340924024581909180e-02 -7.434806227684020996e-02 -6.985627412796020508e-01 -3.065104246139526367e+00 -7.615902274847030640e-02 -5.746814887970685959e-03 2.717213705182075500e-02
-1.666436158120632172e-02 7.233475148677825928e-02 1.126094684004783630e-01 3.519977629184722900e-01 -3.081073760986328125e-01 3.982754051685333252e-01 1.177456229925155640e-01 -2.411098964512348175e-02 1.733528077602386475e-01 -5.415680408477783203e-01 -3.345463573932647705e-01 -2.105441540479660034e-01 -2.199379503726959229e-01 2.307983338832855225e-01 4.081485047936439514e-02 8.584137260913848877e-02 2.091536074876785278e-01 8.869821578264236450e-02 6.414324790239334106e-02 1.009805426001548767e-01 5.001397430896759033e-02 -2.645115926861763000e-02 5.899153947830200195e-01 9.539587423205375671e-03 -3.003814220428466797e+00 6.922935135662555695e-03 -2.337053231894969940e-02 3.452099487185478210e-02
-3.894530236721038818e-04 3.243412449955940247e-02 -3.859229087829589844e-01 5.438362360000610352e-01 -2.165684252977371216e-01 -6.476225703954696655e-02 -1.418838649988174438e-01 -2.526164948940277100e-01 -6.607456207275390625e-01 -1.135670617222785950e-01 -1.328731328248977661e-01 -8.569706976413726807e-02 7.361773401498794556e-02 7.537619024515151978e-02 9.359312057495117188e-02 1.160826086997985840e-01 -3.742338344454765320e-02 7.975032180547714233e-02 3.929215297102928162e-02 6.214848905801773071e-02 9.570379555225372314e-02 2.308748066425323486e-01 8.713833056390285492e-03 -7.149911522865295410e-01 -9.842244386672973633e-01 -1.693106628954410553e-02 -7.442949339747428894e-03 -1.393492333590984344e-02
2.664253115653991699e-04 1.869038119912147522e-02 -3.659152388572692871e-01 2.812321186065673828e-01 4.138646125793457031e-01 -9.379794448614120483e-02 -4.143734276294708252e-01 -2.128328979015350342e-01 8.185788244009017944e-02 -2.885005436837673187e-02 6.125382147729396820e-03 -1.310307532548904419e-01 9.371928125619888306e-02 -6.838992238044738770e-02 2.368848174810409546e-01 1.273117959499359131e-01 1.547104567289352417e-01 8.154170960187911987e-02 1.307970732450485229e-01 -9.205652400851249695e-03 6.492475420236587524e-02 -6.509087085723876953e-01 -7.462132573127746582e-01 -1.137140035629272461e+00 -1.528494209051132202e-01 1.243157908320426941e-01 -1.723249070346355438e-02 -2.023477107286453247e-02
-1.074465550482273102e-02 -1.098566278815269470e-01 -2.942056953907012939e-01 -6.314986348152160645e-01 -1.100597500801086426e+00 -2.846810817718505859e-01 7.487335056066513062e-02 1.581351459026336670e-02 -1.757912933826446533e-01 -3.116273507475852966e-02 1.104104891419410706e-02 -1.550281941890716553e-01 1.579541712999343872e-01 1.723763495683670044e-01 3.259309381246566772e-02 -6.803478300571441650e-02 3.181406259536743164e-01 -1.109087765216827393e-01 -6.348426640033721924e-02 -1.534553468227386475e-01 -3.383114039897918701e-01 -2.576891481876373291e-01 -5.880185961723327637e-01 -6.581462025642395020e-01 -3.064211308956146240e-01 -2.567171156406402588e-01 -9.690546989440917969e-02 -6.309054046869277954e-02
-2.412668913602828979e-01 3.670189380645751953e-01 4.438976049423217773e-01 -1.194229945540428162e-01 -3.902804851531982422e-01 2.947579920291900635e-01 -3.221054971218109131e-01 -6.490236520767211914e-02 1.622770279645919800e-01 -5.552123114466667175e-02 -8.514270931482315063e-02 -2.007688432931900024e-01 2.081854790449142456e-01 4.216675460338592529e-02 -1.995689049363136292e-02 1.244770511984825134e-01 6.821620743721723557e-03 -1.115142032504081726e-01 -1.045545842498540878e-02 -2.127002179622650146e-01 -2.880154848098754883e-01 -1.511990185827016830e-02 1.831305772066116333e-01 1.462149322032928467e-01 -1.416552901268005371e+00 -2.146678715944290161e-01 -9.470533579587936401e-02 -4.351802542805671692e-02
-2.522045671939849854e-01 2.170705944299697876e-01 -3.521700203418731689e-01 -9.687402844429016113e-02 4.920817539095878601e-02 -2.417801506817340851e-02 -8.788579702377319336e-02 -5.561035871505737305e-02 -1.826919466257095337e-01 7.238734979182481766e-03 -1.469722390174865723e-01 1.556811016052961349e-02 2.013005316257476807e-02 1.044380664825439453e-01 -5.387610197067260742e-02 1.944677233695983887e-01 -1.583648771047592163e-01 -1.538780182600021362e-01 -2.278755903244018555e-01 -4.127252101898193359e-02 3.012267053127288818e-01 1.634153723716735840e-01 1.450986117124557495e-01 2.881838679313659668e-01 -1.582471430301666260e-01 -8.244568109512329102e-01 5.135283470153808594e-01 -9.858951903879642487e-03
3.164523467421531677e-02 6.509782671928405762e-01 2.525494098663330078e-01 6.516811847686767578e-01 -5.006866455078125000e-01 -6.208939850330352783e-02 1.049099341034889221e-01 -6.941492855548858643e-02 -2.326833158731460571e-01 1.307651549577713013e-01 2.365267276763916016e-02 -1.157237142324447632e-01 2.778253853321075439e-01 3.551191985607147217e-01 7.389447651803493500e-03 -3.612775504589080811e-01 -7.539048790931701660e-02 -1.619359999895095825e-01 1.986135840415954590e-01 7.470332831144332886e-02 -1.395245194435119629e-01 6.034119054675102234e-02 -2.697923779487609863e-02 4.658876452594995499e-03 -5.073823407292366028e-02 -1.347079038619995117e+00 -1.054887026548385620e-01 2.174380235373973846e-02
-7.834732532501220703e-04 5.962496995925903320e-01 -5.184077620506286621e-01 4.057767689228057861e-01 -9.863450378179550171e-02 2.269258201122283936e-01 -1.405714601278305054e-01 -1.892286092042922974e-01 -1.718701422214508057e-01 -6.338511705398559570e-01 -6.544271707534790039e-01 -6.090452671051025391e-01 3.369531035423278809e-01 -1.328785531222820282e-02 -4.944970607757568359e-01 -2.087871283292770386e-01 -3.885050117969512939e-02 1.682257801294326782e-01 -3.952562808990478516e-02 1.891262531280517578e-01 1.335165798664093018e-01 -5.865957587957382202e-02 2.868562936782836914e-01 2.429212033748626709e-01 -2.151554971933364868e-01 -1.566133379936218262e+00 -3.713812828063964844e-01 -3.427456319332122803e-02
-3.546909987926483154e-01 1.404505670070648193e-01 -3.593019247055053711e-01 3.070285320281982422e-01 -2.506856620311737061e-01 -6.512182205915451050e-02 8.764645457267761230e-02 2.610590681433677673e-02 -6.499098148196935654e-03 -1.960435211658477783e-01 -4.613165557384490967e-01 -1.407205581665039062e+00 -2.790440559387207031e+00 -1.422921299934387207e+00 -2.585978507995605469e-01 1.420933455228805542e-01 3.087197840213775635e-01 4.837376624345779419e-02 3.875289112329483032e-02 3.611211106181144714e-02 -5.706791579723358154e-02 1.419885754585266113e-01 -4.459673911333084106e-02 6.836741417646408081e-02 -1.269738078117370605e+00 -1.263440370559692383e+00 -9.981997311115264893e-02 2.118811383843421936e-02
2.793121384456753731e-03 -2.817740142345428467e-01 1.197318062186241150e-01 9.784495830535888672e-02 -2.669562771916389465e-02 1.458569318056106567e-01 -1.399572193622589111e-01 -4.359781742095947266e-02 -2.571932971477508545e-02 -7.580349594354629517e-02 1.619550585746765137e-01 4.215071499347686768e-01 7.146837711334228516e-01 -1.707197129726409912e-01 -4.304409921169281006e-01 -2.744206786155700684e-01 -2.832201495766639709e-02 1.231208592653274536e-01 1.379652172327041626e-01 8.940051309764385223e-03 4.765372350811958313e-02 5.488414317369461060e-02 1.177856624126434326e-01 4.834997951984405518e-01 -1.877653241157531738e+00 -3.305580615997314453e-01 -7.342965900897979736e-02 -1.193006243556737900e-02
1.721183210611343384e-02 -2.099703997373580933e-01 -1.694172173738479614e-01 3.507832586765289307e-01 4.654150828719139099e-02 1.642047800123691559e-02 1.805239468812942505e-01 -1.160774845629930496e-02 -6.310039758682250977e-02 1.498643010854721069e-01 -6.172108650207519531e-02 6.076889112591743469e-02 1.212339848279953003e-01 -4.229665175080299377e-02 -1.313390582799911499e-01 -1.601106822490692139e-01 -1.667692661285400391e-01 -1.357939839363098145e-01 2.180520072579383850e-02 -5.419227760285139084e-03 -1.659930869936943054e-02 -1.481972401961684227e-03 -9.123212099075317383e-02 -3.094951212406158447e-01 -1.208937644958496094e+00 -2.286590337753295898e-01 1.405688375234603882e-01 3.212761133909225464e-03
-1.947592827491462231e-04 3.369540274143218994e-01 7.022330164909362793e-02 -1.195940077304840088e-01 -1.250896006822586060e-01 4.096203297376632690e-02 -1.545455027371644974e-02 -7.337178569287061691e-03 1.827028580009937286e-02 -1.150794774293899536e-01 -1.353124994784593582e-02 1.665965653955936432e-03 1.144347526133060455e-02 3.459101915359497070e-02 -3.370307385921478271e-02 -1.633071005344390869e-01 -4.798665642738342285e-02 -1.038618311285972595e-01 -6.275129038840532303e-03 6.928101181983947754e-02 4.753701388835906982e-02 7.062220014631748199e-03 -3.263101279735565186e-01 -5.801674723625183105e-01 -2.194950819015502930e+00 -1.427346915006637573e-01 1.384817510843276978e-01 2.721869572997093201e-02
1.893733628094196320e-02 2.674590423703193665e-02 2.289464324712753296e-01 1.943606436252593994e-01 1.084882393479347229e-02 -1.988152787089347839e-02 6.378395855426788330e-02 -3.569425269961357117e-02 3.240966424345970154e-02 4.499040544033050537e-02 5.405706912279129028e-02 1.266850829124450684e-01 -5.331256426870822906e-03 4.714853316545486450e-02 2.067475207149982452e-02 -3.442074358463287354e-02 -7.810767740011215210e-02 -3.896144032478332520e-02 -1.385099738836288452e-01 -1.951745129190385342e-03 -8.946784585714340210e-02 6.246465072035789490e-02 2.821862101554870605e-01 -9.158335924148559570e-01 -1.085528254508972168e+00 -1.438703387975692749e-01 2.883988618850708008e-01 3.237124159932136536e-02
1.337859407067298889e-02 2.969944849610328674e-02 3.731902241706848145e-01 -6.356584429740905762e-01 6.292852759361267090e-02 1.887951791286468506e-01 -3.394787758588790894e-02 1.606188863515853882e-01 -1.055481955409049988e-01 1.448942124843597412e-01 -1.547867432236671448e-02 2.971710450947284698e-02 -2.009557560086250305e-02 7.482104748487472534e-02 -1.519672274589538574e-01 2.630265429615974426e-02 -9.988454729318618774e-02 -1.946224719285964966e-01 6.133869662880897522e-02 8.078511059284210205e-02 -1.627910323441028595e-02 2.591629028320312500e-01 -1.081647038459777832e+00 -1.131093025207519531e+00 6.847720593214035034e-02 2.352781891822814941e-01 2.824575304985046387e-01 9.312536567449569702e-03
1.503433659672737122e-02 3.277168050408363342e-02 2.027110457420349121e-01 -1.884183585643768311e-01 5.570710897445678711e-01 -5.734230857342481613e-03 1.623602211475372314e-02 2.244768142700195312e-01 5.029222741723060608e-02 2.159047499299049377e-02 1.554175317287445068e-01 3.601574897766113281e-02 9.870546869933605194e-03 4.161810502409934998e-02 1.087920889258384705e-01 -1.468136161565780640e-01 7.846493273973464966e-02 1.156971696764230728e-02 -2.178579717874526978e-01 -4.105518758296966553e-01 -4.044952988624572754e-01 -1.201296806335449219e+00 -2.843319475650787354e-01 -5.244205594062805176e-01 -6.199600175023078918e-02 -1.504054409451782703e-03 -9.667605161666870117e-03 -9.285284206271171570e-03
8.117351680994033813e-03 -2.368395403027534485e-02 3.606182634830474854e-01 5.177478194236755371e-01 4.399018883705139160e-01 -5.821048021316528320e-01 -1.569832712411880493e-01 1.240392476320266724e-01 2.009830474853515625e-01 -3.613780438899993896e-02 -5.840354785323143005e-02 1.607596427202224731e-01 4.961753636598587036e-02 -3.877500072121620178e-02 9.867443144321441650e-02 -8.194947987794876099e-02 -6.702919304370880127e-02 -4.932309389114379883e-01 -1.723330840468406677e-02 -6.406243443489074707e-01 -2.770896553993225098e-01 -4.150098860263824463e-01 -1.917756050825119019e-01 -4.029098451137542725e-01 -1.347014959901571274e-02 1.313509419560432434e-02 -2.061869576573371887e-02 -2.935841865837574005e-02
2.812979742884635925e-02 -1.411701925098896027e-02 2.674442529678344727e-02 1.547752693295478821e-02 2.513380944728851318e-01 2.152921259403228760e-01 -4.707636833190917969e-01 -4.582087695598602295e-01 -7.313265800476074219e-01 -5.804113745689392090e-01 -7.526730298995971680e-01 -1.088904500007629395e+00 -1.309563994407653809e+00 -1.431045532226562500e+00 -9.854902029037475586e-01 -1.441397786140441895e+00 -1.352377176284790039e+00 -7.256080508232116699e-01 -5.062686204910278320e-01 -2.510879933834075928e-01 -1.718961149454116821e-01 -2.326667867600917816e-02 3.284718096256256104e-01 1.624588109552860260e-02 9.161610156297683716e-03 5.305051803588867188e-03 1.211151853203773499e-02 -1.031609624624252319e-02
1.291056349873542786e-02 3.478720411658287048e-02 1.340795308351516724e-02 -3.154215961694717407e-02 -1.522748917341232300e-02 -2.529032528400421143e-02 -3.038088046014308929e-02 -4.345331341028213501e-03 -1.474863849580287933e-02 -5.849831551313400269e-02 -2.292934060096740723e-01 -1.798576116561889648e-01 -2.444386184215545654e-01 -1.747279614210128784e-01 -1.107183098793029785e-01 -1.167519986629486084e-01 -5.268799886107444763e-02 -8.558621257543563843e-02 -2.255146950483322144e-02 4.583131056278944016e-03 6.118526682257652283e-03 3.249075636267662048e-02 1.318235695362091064e-02 -2.190097421407699585e-02 -1.907518133521080017e-02 1.756809651851654053e-02 -2.578546106815338135e-02 2.748737856745719910e-02
