2.255775779485702515e-02 -2.718046307563781738e-04 -1.293679699301719666e-02 8.521527051925659180e-03 1.538382470607757568e-02 -2.762534096837043762e-02 2.782979980111122131e-02 2.492665126919746399e-02 3.131271526217460632e-02 5.921129137277603149e-03 3.955330699682235718e-03 1.612460985779762268e-02 7.365217804908752441e-02 6.609738618135452271e-02 7.702916115522384644e-02 8.077292144298553467e-02 2.723659202456474304e-02 -1.841372810304164886e-02 3.257125988602638245e-02 -2.546679228544235229e-03 1.632585003972053528e-02 -3.361024707555770874e-02 2.584861963987350464e-02 -2.178031951189041138e-03 1.805655658245086670e-03 -2.369209378957748413e-02 -3.026149235665798187e-02 -6.447451189160346985e-03
2.320142090320587158e-02 9.392946958541870117e-03 8.194662630558013916e-03 -3.131121024489402771e-02 2.200346998870372772e-02 6.077083759009838104e-03 5.448747426271438599e-03 -2.169606238603591919e-01 -1.226174309849739075e-01 -1.247952729463577271e-01 -1.686284691095352173e-01 -8.529963344335556030e-02 -2.931382656097412109e-01 -6.267564892768859863e-01 -1.591912806034088135e-01 -2.388069629669189453e-01 -6.131553649902343750e-01 -1.086544632911682129e+00 -1.011786222457885742e+00 -9.009731411933898926e-01 -7.638012766838073730e-01 -1.308834850788116455e-01 3.115939162671566010e-02 3.487980226054787636e-03 -2.904019318521022797e-02 -1.672401279211044312e-02 -1.608508825302124023e-02 -1.313102245330810547e-02
-1.202068291604518890e-02 -9.838864207267761230e-04 -2.107457518577575684e-01 -2.484139800071716309e-02 -1.799112707376480103e-01 -6.278607249259948730e-01 -2.646124958992004395e-01 -5.418226718902587891e-01 -4.965553879737854004e-01 -2.110135555267333984e-01 -8.406516313552856445e-01 -7.765493392944335938e-01 -4.697649478912353516e-01 -1.050075516104698181e-01 2.131146639585494995e-01 6.502000689506530762e-01 9.185355305671691895e-01 8.280727267265319824e-01 7.810713052749633789e-01 5.087057948112487793e-01 2.546802759170532227e-01 -1.338823795318603516e+00 -7.567659616470336914e-01 -2.518323361873626709e-01 -3.789669275283813477e-01 1.514092646539211273e-02 -4.207525402307510376e-03 2.321313694119453430e-02
3.338157758116722107e-02 -2.196227014064788818e-02 -2.571247518062591553e-01 5.093780755996704102e-01 -6.184327602386474609e-01 -1.236977934837341309e+00 -7.202987670898437500e-01 6.206779927015304565e-02 4.056492447853088379e-02 2.186366170644760132e-01 -7.060530781745910645e-02 -1.539339423179626465e-01 1.183145523071289062e+00 5.283306241035461426e-01 -4.862882494926452637e-01 5.948928594589233398e-01 1.767426147125661373e-03 -1.443713009357452393e-01 4.736494421958923340e-01 -6.897788494825363159e-02 1.185583844780921936e-01 1.705300621688365936e-02 2.529795169830322266e-01 -1.762216165661811829e-02 5.639500617980957031e-01 -8.051806688308715820e-01 -2.312730066478252411e-02 2.060711756348609924e-02
-1.517985016107559204e-03 -7.753318548202514648e-02 -2.632417380809783936e-01 7.468172162771224976e-02 -1.864551156759262085e-01 5.508834719657897949e-01 -2.655811980366706848e-02 6.013252139091491699e-01 1.003962159156799316e+00 4.142874851822853088e-02 5.395170450210571289e-01 5.753132700920104980e-01 3.691213428974151611e-01 9.375426918268203735e-02 2.610774040222167969e-01 4.832265973091125488e-01 4.516699314117431641e-01 1.940527707338333130e-01 6.826708912849426270e-01 1.254546046257019043e-01 -7.993146777153015137e-02 2.309236228466033936e-01 -2.590882480144500732e-01 -3.204823732376098633e-01 8.775740861892700195e-01 4.747944772243499756e-01 3.166960179805755615e-01 -2.798350527882575989e-02
-2.833965048193931580e-02 -2.459429949522018433e-02 -2.632154524326324463e-01 1.583954840898513794e-01 3.122762739658355713e-01 3.128372132778167725e-02 -4.699855744838714600e-01 7.077026963233947754e-01 -4.969300329685211182e-01 6.556207686662673950e-02 -1.071109399199485779e-01 2.890270948410034180e-01 2.667975425720214844e-01 3.360571563243865967e-01 1.074170172214508057e-01 1.986196488142013550e-01 1.753987222909927368e-01 2.042347788810729980e-01 -1.036601290106773376e-01 1.445614099502563477e-01 3.767193555831909180e-01 2.698245644569396973e-01 6.753616929054260254e-01 -3.016926944255828857e-01 1.525304615497589111e-01 1.085358634591102600e-01 8.087290525436401367e-01 5.189383029937744141e-02
2.937295660376548767e-02 5.215709805488586426e-01 3.964572250843048096e-01 1.425957381725311279e-01 7.209842205047607422e-01 -2.520226538181304932e-01 3.777292743325233459e-02 -3.336863517761230469e-01 8.948215283453464508e-03 2.342167943716049194e-01 2.800993621349334717e-01 2.098968625068664551e-01 3.883658647537231445e-01 1.123005300760269165e-01 -2.189320139586925507e-02 3.009487986564636230e-01 3.537254408001899719e-02 2.586363255977630615e-01 1.991276443004608154e-01 2.174318432807922363e-01 9.071281552314758301e-02 -3.458033502101898193e-01 -1.693226844072341919e-01 5.303058773279190063e-02 7.158201932907104492e-01 1.233480930328369141e+00 9.867200255393981934e-01 9.128141999244689941e-01
-1.294686226174235344e-03 8.736974596977233887e-01 2.688009738922119141e-01 1.847366839647293091e-01 4.642049968242645264e-01 -9.248345345258712769e-02 -1.622068285942077637e-01 -3.227806687355041504e-01 8.206455707550048828e-01 1.785372942686080933e-01 2.526412606239318848e-01 6.319490075111389160e-02 2.445406317710876465e-01 3.510368615388870239e-02 1.080764904618263245e-01 4.628065228462219238e-02 1.488069891929626465e-01 -1.526208221912384033e-01 3.867519320920109749e-03 -1.477278769016265869e-01 7.217096537351608276e-02 1.746442615985870361e-01 2.322662472724914551e-01 4.805822297930717468e-02 -1.442387998104095459e-01 5.412280559539794922e-01 1.962851881980895996e-01 7.342213392257690430e-01
-1.048652678728103638e-01 9.415199160575866699e-01 -2.730075418949127197e-01 6.614629626274108887e-01 2.496510446071624756e-01 -1.838015019893646240e-01 1.747377067804336548e-01 -2.730563580989837646e-01 -3.558931648731231689e-01 -1.308618038892745972e-01 2.496022284030914307e-01 -6.520354188978672028e-03 2.123367190361022949e-01 3.238404095172882080e-01 1.099961251020431519e-01 -1.505632251501083374e-01 -1.206090673804283142e-01 -1.308091878890991211e-01 1.562628149986267090e-01 3.595816195011138916e-01 1.286220550537109375e-01 -3.259922266006469727e-01 2.739247381687164307e-01 2.022001147270202637e-01 8.440186977386474609e-01 1.206619262695312500e+00 7.869344353675842285e-01 7.642192840576171875e-01
2.748707830905914307e-01 8.741796612739562988e-01 -3.193538784980773926e-01 3.646724224090576172e-01 7.346290946006774902e-01 -4.829568564891815186e-01 5.107818841934204102e-01 1.119117662310600281e-01 3.200894892215728760e-01 7.436718046665191650e-02 1.199364662170410156e-01 1.015778034925460815e-01 -1.130467504262924194e-01 -3.148538991808891296e-02 2.307850271463394165e-01 -8.428479731082916260e-02 6.169755756855010986e-02 3.750934302806854248e-01 7.752505689859390259e-02 -7.501677423715591431e-02 -1.309257447719573975e-01 1.734124273061752319e-01 4.612057209014892578e-01 1.235652901232242584e-02 1.205278038978576660e+00 1.531875133514404297e+00 1.742169141769409180e+00 2.891013920307159424e-01
3.150286078453063965e-01 3.102227449417114258e-01 4.383965581655502319e-02 9.491192102432250977e-01 6.170518994331359863e-01 -2.522012591361999512e-01 4.705446660518646240e-01 2.494295090436935425e-01 2.783148288726806641e-01 -5.832740291953086853e-02 2.679951786994934082e-01 1.022154539823532104e-01 1.318974196910858154e-01 1.470203548669815063e-01 1.231637001037597656e-01 -1.921536177396774292e-01 -1.006670072674751282e-01 -3.491064310073852539e-01 4.145503789186477661e-02 -1.672696173191070557e-01 1.025810167193412781e-01 2.036817669868469238e-01 2.095189243555068970e-01 2.686677277088165283e-01 1.059542417526245117e+00 9.149124026298522949e-01 2.117364168167114258e+00 -1.408151537179946899e-01
7.314964383840560913e-02 -5.161976218223571777e-01 -1.302558630704879761e-01 6.098338365554809570e-01 1.207484126091003418e+00 7.422505319118499756e-02 2.937248349189758301e-01 1.409808695316314697e-01 -9.512999653816223145e-02 -1.199020594358444214e-01 -3.421192467212677002e-01 6.973273307085037231e-02 -5.811331421136856079e-02 2.062499672174453735e-01 3.294284343719482422e-01 -1.392419189214706421e-01 -2.926362752914428711e-01 1.233385801315307617e-01 -4.610357061028480530e-02 -2.083007991313934326e-01 -6.073195338249206543e-01 -5.434343814849853516e-01 -1.516587436199188232e-01 3.262288570404052734e-01 1.012464880943298340e+00 1.533787250518798828e+00 3.009672403335571289e+00 1.800083220005035400e-01
-1.893839240074157715e-01 -1.222611814737319946e-01 3.776099681854248047e-01 4.264482557773590088e-01 1.632248423993587494e-02 1.168755218386650085e-01 -2.308927029371261597e-01 -2.780114710330963135e-01 -2.231817990541458130e-01 -1.441760826855897903e-02 1.987343579530715942e-01 -4.831327591091394424e-03 -2.835409715771675110e-02 6.149625405669212341e-02 3.886252641677856445e-01 6.741874665021896362e-02 -9.187190234661102295e-02 -1.797918379306793213e-01 -7.744287699460983276e-02 -1.958915591239929199e-01 -3.690534234046936035e-01 -2.897995710372924805e-01 -6.812242269515991211e-01 -2.083398699760437012e-01 -7.162340283393859863e-01 2.961544990539550781e-01 1.971489787101745605e+00 -1.170590817928314209e-01
3.210875988006591797e-01 -3.157301545143127441e-01 2.670822441577911377e-01 6.027820110321044922e-01 -2.063688486814498901e-01 -3.026642203330993652e-01 -5.692833662033081055e-01 2.355276048183441162e-01 4.737038165330886841e-02 1.188874691724777222e-01 -1.591099500656127930e-01 -8.497480303049087524e-02 2.299668639898300171e-01 5.913729071617126465e-01 3.909479975700378418e-01 -1.147873252630233765e-01 -1.113287806510925293e-01 -1.096823066473007202e-01 -1.112865135073661804e-01 9.938657283782958984e-03 3.285131156444549561e-01 -7.320455312728881836e-01 -7.830272912979125977e-01 -1.022541642189025879e+00 -8.073182106018066406e-01 -8.784700185060501099e-02 1.245380282402038574e+00 -2.352456450462341309e-01
2.871806919574737549e-01 2.407521307468414307e-01 9.811946153640747070e-01 1.450050920248031616e-01 -4.377380013465881348e-01 -6.393389105796813965e-01 7.611180841922760010e-02 -3.967573344707489014e-01 -2.441254556179046631e-01 -1.744955480098724365e-01 1.083329990506172180e-01 -2.155631035566329956e-01 -7.884404808282852173e-02 3.882762193679809570e-01 3.859001994132995605e-01 -7.710893452167510986e-02 5.854257568717002869e-02 -5.016837641596794128e-02 -3.104550540447235107e-01 -5.944710373878479004e-01 -2.585556805133819580e-01 -6.878228485584259033e-02 -4.507085084915161133e-01 6.259752437472343445e-03 -1.469217240810394287e-01 -4.963950812816619873e-01 4.974050819873809814e-01 -5.180703401565551758e-01
4.181633517146110535e-02 -1.267402917146682739e-01 5.536442399024963379e-01 -7.821790874004364014e-02 -2.550865113735198975e-01 -5.054227709770202637e-01 -1.756698191165924072e-01 -3.793145716190338135e-01 -2.352330647408962250e-02 -3.245406597852706909e-02 -2.178274542093276978e-01 5.365160852670669556e-02 1.674644798040390015e-01 1.937147825956344604e-01 5.214174985885620117e-01 -2.251371443271636963e-01 1.497870832681655884e-01 -4.727473258972167969e-01 -9.462364017963409424e-02 -2.035255134105682373e-01 -2.174052149057388306e-01 -2.013223022222518921e-01 -6.294661760330200195e-01 -4.841741621494293213e-01 4.424067437648773193e-01 -6.896983981132507324e-01 6.875130534172058105e-01 -3.362020254135131836e-01
-3.083513975143432617e-01 1.323706209659576416e-01 6.501156687736511230e-01 1.113192200660705566e+00 5.153112411499023438e-01 3.707673251628875732e-01 1.915508322417736053e-02 -1.790950000286102295e-01 -3.137732148170471191e-01 -1.341293454170227051e-01 3.750883415341377258e-02 -9.422969073057174683e-03 1.023994460701942444e-01 4.193620979785919189e-01 1.505738198757171631e-01 -1.391274034976959229e-01 -1.975217610597610474e-01 -1.304702460765838623e-01 -6.862649321556091309e-02 -2.133313417434692383e-01 -3.970390558242797852e-01 -7.201080769300460815e-02 2.285952307283878326e-02 3.095535039901733398e-01 7.974689602851867676e-01 -4.704558476805686951e-02 2.085751444101333618e-01 -2.353353351354598999e-01
-2.133463323116302490e-02 3.116450905799865723e-01 7.943760603666305542e-02 1.458766579627990723e+00 4.038421213626861572e-01 2.241306006908416748e-01 3.439997732639312744e-01 -1.600489318370819092e-01 1.246936172246932983e-01 3.812000155448913574e-02 3.711023181676864624e-02 2.146610617637634277e-01 4.264142364263534546e-02 7.111901044845581055e-02 -3.112517483532428741e-02 -3.154167532920837402e-01 -1.671600341796875000e-01 -2.564634568989276886e-02 -2.350601404905319214e-01 8.277922868728637695e-02 -4.364931583404541016e-01 5.505644157528877258e-02 -5.494165420532226562e-01 1.679501235485076904e-01 7.389346510171890259e-02 -1.400065660476684570e+00 4.881770610809326172e-01 7.944645881652832031e-01
5.933567881584167480e-01 7.598996758460998535e-01 1.988134235143661499e-01 5.614452362060546875e-01 2.099306434392929077e-01 5.668455362319946289e-01 3.914408087730407715e-01 1.222059056162834167e-01 1.135995518416166306e-02 -2.231607586145401001e-01 -3.974007442593574524e-02 6.639400869607925415e-02 -1.295224130153656006e-01 -8.171860873699188232e-02 -1.786786615848541260e-01 7.270463742315769196e-03 -1.302382349967956543e-01 -1.905826628208160400e-01 -5.313948392868041992e-01 7.283275574445724487e-02 1.520610302686691284e-01 7.953934371471405029e-03 2.582329809665679932e-01 3.853993415832519531e-01 4.297550916671752930e-01 -1.976879537105560303e-01 -8.150939345359802246e-01 2.448562532663345337e-01
2.960109710693359375e-01 1.131841912865638733e-01 1.281857967376708984e+00 -1.707026064395904541e-01 2.605906873941421509e-02 4.070540666580200195e-01 3.478671312332153320e-01 -3.389128297567367554e-02 9.746094048023223877e-02 7.336989045143127441e-02 5.749686360359191895e-01 -4.664016067981719971e-01 -5.171923339366912842e-02 1.446141153573989868e-01 -2.981815934181213379e-01 1.675479114055633545e-01 7.855050265789031982e-02 1.502828896045684814e-01 2.495074421167373657e-01 -5.456208437681198120e-02 -1.701490879058837891e-01 6.174501031637191772e-02 7.063323855400085449e-01 6.359803676605224609e-01 7.091131210327148438e-01 4.537468552589416504e-01 -1.253952145576477051e+00 1.868142038583755493e-01
2.944797277450561523e-03 -3.011377155780792236e-01 5.976853370666503906e-01 6.659282743930816650e-02 -8.674454689025878906e-02 -1.814990676939487457e-02 4.012044370174407959e-01 2.387945055961608887e-01 3.626957535743713379e-01 8.439770340919494629e-02 -2.702734060585498810e-02 -2.605591416358947754e-01 -1.920781880617141724e-01 2.224421948194503784e-01 -2.714781463146209717e-01 -2.315793484449386597e-01 1.787619106471538544e-02 4.594207182526588440e-02 2.334935218095779419e-01 2.693493962287902832e-01 4.804491400718688965e-01 3.326165080070495605e-01 4.316242635250091553e-01 8.206641674041748047e-01 -4.103176295757293701e-03 -5.448787808418273926e-01 -5.788994431495666504e-01 4.304136633872985840e-01
2.100476026535034180e-01 7.521666288375854492e-01 5.526994466781616211e-01 6.865200400352478027e-02 6.115980148315429688e-01 -4.066580161452293396e-02 5.998631715774536133e-01 2.712114155292510986e-01 1.699964888393878937e-02 3.242387175559997559e-01 7.582277059555053711e-02 6.328048557043075562e-02 -8.512242883443832397e-02 2.446142286062240601e-01 2.896613180637359619e-01 2.364396005868911743e-01 1.791839860379695892e-02 3.854148387908935547e-01 2.686870992183685303e-01 1.262908428907394409e-01 2.220027893781661987e-01 2.775504291057586670e-01 3.192604184150695801e-01 3.037270903587341309e-01 -2.847140133380889893e-01 -5.089698433876037598e-01 -2.900995016098022461e-01 -3.064191043376922607e-01
2.220442891120910645e-01 4.725413620471954346e-01 6.639502048492431641e-01 3.381599485874176025e-01 8.767595291137695312e-01 2.460973262786865234e-01 2.171248048543930054e-01 1.857978105545043945e-01 -6.463934481143951416e-02 2.541345357894897461e-01 -2.607842981815338135e-01 3.051775693893432617e-01 -6.140783801674842834e-02 -8.663261681795120239e-02 1.338906586170196533e-01 1.350187361240386963e-01 -1.410648226737976074e-01 8.926402777433395386e-02 1.651080846786499023e-01 7.719466090202331543e-02 3.127115368843078613e-01 4.225781559944152832e-02 4.671904444694519043e-02 8.000930547714233398e-01 4.625970125198364258e-01 -1.081822961568832397e-01 -4.597120285034179688e-01 -3.001216650009155273e-01
-2.280553057789802551e-02 1.790181174874305725e-02 1.860474348068237305e+00 7.850238680839538574e-01 5.552155971527099609e-01 -2.990360856056213379e-01 1.739171743392944336e-01 -2.603878378868103027e-01 9.721235930919647217e-02 -4.970925301313400269e-02 1.721428185701370239e-01 1.026518195867538452e-01 -8.797425031661987305e-02 2.719941735267639160e-01 8.789131790399551392e-02 2.505683898925781250e-01 2.969618439674377441e-01 -2.708608657121658325e-02 1.324639655649662018e-02 2.350774109363555908e-01 3.172637224197387695e-01 -7.915467023849487305e-02 4.401184618473052979e-01 6.616387963294982910e-01 2.035840153694152832e-01 -9.040606766939163208e-02 1.800996959209442139e-01 6.163746118545532227e-03
-1.266047917306423187e-02 6.326887756586074829e-03 3.937602639198303223e-01 1.449139595031738281e+00 -4.972148239612579346e-01 -3.206916153430938721e-01 -1.459930092096328735e-01 1.049693897366523743e-01 4.688419997692108154e-01 7.232773303985595703e-02 1.746973991394042969e-01 4.963676929473876953e-01 1.200701668858528137e-01 5.402051210403442383e-01 2.234255969524383545e-01 2.264143675565719604e-01 3.301238119602203369e-01 7.466742396354675293e-02 3.490637540817260742e-01 1.908100694417953491e-01 5.753208398818969727e-01 4.734615609049797058e-02 4.476045370101928711e-01 1.931063644587993622e-02 6.841423362493515015e-02 -1.200831294059753418e+00 -4.655330479145050049e-01 2.021908387541770935e-02
-3.450912982225418091e-02 -1.689232885837554932e-04 -3.465163409709930420e-01 -7.362599968910217285e-01 -8.014826774597167969e-01 -3.643675148487091064e-01 4.188468754291534424e-01 3.335177004337310791e-01 1.282043196260929108e-02 4.035235643386840820e-01 8.142939209938049316e-01 4.475153684616088867e-01 8.367763757705688477e-01 4.949760437011718750e-01 6.429595351219177246e-01 8.311533331871032715e-01 1.186258316040039062e+00 9.018403291702270508e-01 8.599936366081237793e-01 1.198221206665039062e+00 2.307810485363006592e-01 1.324404180049896240e-01 2.876961827278137207e-01 5.068464875221252441e-01 6.690406799316406250e-01 -3.930264413356781006e-01 -2.120622098445892334e-01 -3.538232669234275818e-02
2.027690410614013672e-02 -7.898995652794837952e-03 3.150105476379394531e-05 1.780809648334980011e-02 -2.665624618530273438e-01 1.374658048152923584e-01 -2.936206161975860596e-01 -6.132747530937194824e-01 -3.748557716608047485e-02 1.047168225049972534e-01 4.855658113956451416e-01 7.350453138351440430e-01 7.406858801841735840e-01 9.239428639411926270e-01 6.644065380096435547e-01 6.562790274620056152e-01 6.231563091278076172e-01 6.184310317039489746e-01 1.258822083473205566e-01 8.030864596366882324e-02 2.885857596993446350e-02 3.484022244811058044e-02 4.826495945453643799e-01 1.232627272605895996e+00 2.550289034843444824e-01 -3.861771151423454285e-02 -1.850533112883567810e-02 1.711001619696617126e-02
1.076766103506088257e-02 3.803577274084091187e-03 -1.080869883298873901e-02 -3.301063925027847290e-02 1.989962160587310791e-01 3.222855627536773682e-01 6.479269266128540039e-01 8.150727152824401855e-01 8.297037482261657715e-01 -3.820676729083061218e-02 2.181712239980697632e-01 2.227388024330139160e-01 1.881306469440460205e-01 -1.358646526932716370e-02 1.118167117238044739e-01 -4.196937978267669678e-01 -4.430524110794067383e-01 -6.338649392127990723e-01 5.175825953483581543e-02 9.801602363586425781e-02 -3.292477428913116455e-01 -6.886492967605590820e-01 -3.632967770099639893e-01 -1.899365931749343872e-01 1.092698425054550171e-03 2.642483636736869812e-02 -6.604025140404701233e-03 3.086192533373832703e-02
