9.055938571691513062e-03 9.159408509731292725e-04 1.639763265848159790e-02 2.671350166201591492e-02 2.843825891613960266e-02 -4.773400723934173584e-03 -1.204056851565837860e-02 -1.564312912523746490e-02 -4.928670823574066162e-04 7.661242038011550903e-03 -3.483241796493530273e-02 -2.648589573800563812e-02 -1.496289111673831940e-02 -3.833357244729995728e-03 -3.191684186458587646e-02 -8.905159309506416321e-03 -3.022933937609195709e-02 -1.800835691392421722e-02 4.997700452804565430e-03 1.227642968297004700e-02 3.440065309405326843e-02 1.168862730264663696e-02 -2.928492985665798187e-02 -1.073698513209819794e-02 1.016594842076301575e-02 -1.245606690645217896e-03 1.497555524110794067e-02 2.900905534625053406e-02
-1.208852045238018036e-02 -3.326355665922164917e-02 2.542798966169357300e-02 8.409991860389709473e-04 -3.443007543683052063e-02 5.872420966625213623e-03 -2.664795145392417908e-02 -1.544586755335330963e-02 -2.079656347632408142e-02 -1.798112131655216217e-02 -1.508094184100627899e-02 -3.247373178601264954e-02 2.210999652743339539e-02 -6.691286340355873108e-03 -2.832716330885887146e-02 8.828331716358661652e-03 -3.969876095652580261e-02 8.715685456991195679e-03 -4.726061597466468811e-03 6.304092705249786377e-03 -3.221632540225982666e-02 -1.373861543834209442e-02 1.683676987886428833e-02 8.414134383201599121e-03 -3.410718962550163269e-02 -2.088880538940429688e-02 -4.815356805920600891e-03 1.274875178933143616e-02
-3.144509717822074890e-02 1.849441975355148315e-02 2.089769020676612854e-02 1.015375927090644836e-02 2.249241247773170471e-02 6.135553121566772461e-06 1.136617735028266907e-02 1.059110462665557861e-02 1.299757510423660278e-03 2.330732718110084534e-02 -2.224924601614475250e-02 -2.038857154548168182e-02 -3.671042621135711670e-02 -1.425880566239356995e-02 -5.337221175432205200e-02 -1.440008264034986496e-02 -2.285674959421157837e-02 -3.430568799376487732e-02 1.139851845800876617e-02 1.157851144671440125e-02 -1.197300618514418602e-03 -1.606633514165878296e-02 2.144860103726387024e-02 -6.395958364009857178e-03 9.534794837236404419e-03 3.035262599587440491e-02 2.212956547737121582e-02 -1.475337892770767212e-03
3.044237568974494934e-02 -2.837846241891384125e-02 1.504581654444336891e-03 -6.554934661835432053e-03 1.242133975028991699e-02 6.305674090981483459e-03 6.373571231961250305e-03 -1.001702342182397842e-02 2.676488645374774933e-02 5.300012230873107910e-02 6.197819486260414124e-02 3.497074171900749207e-02 3.366565704345703125e-02 3.337829187512397766e-02 -1.551260426640510559e-02 2.645096555352210999e-02 -1.512645650655031204e-02 5.547108501195907593e-02 -1.633708365261554718e-02 1.875057816505432129e-02 2.229546569287776947e-02 1.131359674036502838e-02 -1.479371078312397003e-02 -3.087272122502326965e-02 -1.239923201501369476e-02 1.211371272802352905e-03 8.234694600105285645e-03 3.194202110171318054e-02
4.761118441820144653e-03 -2.596466802060604095e-02 -2.822034992277622223e-03 1.800913736224174500e-02 3.445119410753250122e-02 3.267855569720268250e-02 2.164594829082489014e-02 3.988888114690780640e-02 3.159999847412109375e-02 3.251111879944801331e-02 6.954709067940711975e-03 5.177472159266471863e-02 -1.132647786289453506e-02 -9.275362826883792877e-03 -6.337755825370550156e-03 4.898405447602272034e-02 1.266594231128692627e-02 2.262597344815731049e-02 -2.227440103888511658e-02 6.102474406361579895e-03 -3.432371094822883606e-02 -4.789457470178604126e-02 -5.975695326924324036e-02 -1.163182780146598816e-02 -3.110196441411972046e-02 1.165818423032760620e-03 -1.960821822285652161e-02 2.606526389718055725e-02
-4.760619252920150757e-03 1.382537931203842163e-02 -2.830071374773979187e-02 4.864515364170074463e-02 4.312710091471672058e-02 4.263154044747352600e-02 4.800684750080108643e-02 1.920600794255733490e-02 6.592848896980285645e-02 5.928388983011245728e-02 3.593005985021591187e-02 3.549463301897048950e-02 6.474179029464721680e-02 4.645854234695434570e-02 8.599960803985595703e-02 4.696863517165184021e-02 9.242098033428192139e-02 6.941599398851394653e-02 3.087169677019119263e-02 -1.871931366622447968e-02 -3.619996085762977600e-02 -6.997498124837875366e-02 -5.726791173219680786e-02 -3.779723495244979858e-02 -5.541057325899600983e-03 1.353092305362224579e-02 -5.862013436853885651e-03 2.209000289440155029e-03
-9.124612435698509216e-03 -2.120037004351615906e-02 8.422030135989189148e-03 4.999538883566856384e-02 1.815304160118103027e-03 5.892919749021530151e-02 4.922789335250854492e-02 2.722425945103168488e-02 6.402295082807540894e-02 5.385723337531089783e-02 4.028706252574920654e-02 8.518186956644058228e-02 9.221237897872924805e-02 1.041531413793563843e-01 5.634439736604690552e-02 6.287622451782226562e-02 5.770488083362579346e-02 6.335973739624023438e-02 3.193786367774009705e-02 3.201499581336975098e-02 -4.747569561004638672e-02 -9.185585076920688152e-04 -3.800059854984283447e-02 -4.312404245138168335e-02 -2.926724776625633240e-02 4.522405797615647316e-04 2.338964492082595825e-03 1.663354784250259399e-02
-8.072905242443084717e-03 -9.582663886249065399e-03 6.073541007936000824e-03 1.955202408134937286e-02 3.219813480973243713e-02 3.520536422729492188e-02 1.010772734880447388e-01 6.094668805599212646e-02 5.555584281682968140e-02 8.660905808210372925e-02 8.486983925104141235e-02 5.275203660130500793e-02 6.634958088397979736e-02 5.268627777695655823e-02 8.654684573411941528e-02 5.806441232562065125e-02 3.741120174527168274e-02 6.578345596790313721e-02 4.433123767375946045e-02 3.515404462814331055e-02 -3.492611926048994064e-03 -2.616037847474217415e-03 -3.148918971419334412e-02 -2.752607129514217377e-02 -1.989380642771720886e-02 -1.872895844280719757e-02 -3.261354565620422363e-02 -2.073218673467636108e-02
-1.009976863861083984e-02 2.956444025039672852e-02 -2.261765487492084503e-02 2.520878612995147705e-02 8.771847188472747803e-02 8.052365481853485107e-02 4.777968674898147583e-02 5.125287175178527832e-02 6.031775474548339844e-02 3.103950805962085724e-02 8.770307898521423340e-02 3.634522482752799988e-02 1.952577498741447926e-03 -3.700892999768257141e-02 -2.754435315728187561e-02 -3.407879266887903214e-03 4.736991599202156067e-02 5.764993280172348022e-02 2.920016087591648102e-02 6.746246013790369034e-03 -2.517453860491514206e-03 -1.669996767304837704e-03 -1.405989937484264374e-02 -1.441632024943828583e-02 -3.216991573572158813e-02 2.103238925337791443e-02 1.849704980850219727e-02 -1.615327596664428711e-02
2.659788727760314941e-02 6.312552373856306076e-03 3.425913304090499878e-02 6.147853657603263855e-02 5.910892039537429810e-02 6.580808013677597046e-02 3.715819865465164185e-02 2.394847571849822998e-02 -6.687622517347335815e-04 3.918167203664779663e-02 -1.728323171846568584e-03 -4.014615342020988464e-02 -8.218023926019668579e-02 -2.592511847615242004e-02 -2.678160928189754486e-02 -2.181536983698606491e-03 2.242593653500080109e-02 3.086032718420028687e-02 8.799707144498825073e-02 7.803729921579360962e-02 7.500489801168441772e-02 8.372839540243148804e-03 4.992782697081565857e-02 -1.955531723797321320e-02 -5.229164962656795979e-04 1.488918066024780273e-02 6.265856791287660599e-03 -2.849269658327102661e-03
-2.826944924890995026e-02 3.579352423548698425e-02 -5.794166587293148041e-03 6.267756223678588867e-02 4.257819801568984985e-02 1.779589429497718811e-02 2.558294683694839478e-02 1.574386470019817352e-02 -1.580606587231159210e-02 3.438011556863784790e-02 1.477696653455495834e-02 -6.468687206506729126e-03 -3.417588025331497192e-02 -3.748516738414764404e-02 -2.896066382527351379e-02 -2.090571448206901550e-02 5.023985356092453003e-02 3.205979242920875549e-02 7.559988647699356079e-02 5.286465957760810852e-02 6.436245143413543701e-02 4.228053614497184753e-02 3.370800241827964783e-02 3.651861101388931274e-02 -3.731122240424156189e-03 1.185630355030298233e-02 2.037598192691802979e-02 -1.483795884996652603e-02
1.870578899979591370e-02 4.329677205532789230e-03 2.879390027374029160e-03 -1.674966700375080109e-02 2.569207921624183655e-02 5.396065115928649902e-02 3.554691001772880554e-02 3.439017012715339661e-02 3.256991133093833923e-02 1.622195355594158173e-02 -1.288924831897020340e-02 -2.218637429177761078e-02 -6.056509539484977722e-02 -3.258911892771720886e-02 -5.114044994115829468e-02 8.573417551815509796e-03 3.741370514035224915e-02 6.280529499053955078e-02 5.958545953035354614e-02 8.770206570625305176e-02 6.067763268947601318e-02 5.323455482721328735e-02 1.805226691067218781e-02 -2.677811682224273682e-02 1.183161791414022446e-02 -3.759888932108879089e-02 2.186611667275428772e-02 -2.981423400342464447e-02
-2.055682241916656494e-02 1.244409196078777313e-02 2.707162685692310333e-02 1.244356099050492048e-04 -1.096591074019670486e-02 5.617770552635192871e-02 2.305130101740360260e-02 9.089507162570953369e-03 7.271154318004846573e-03 4.777037352323532104e-02 4.714249819517135620e-02 3.454338014125823975e-02 5.254035070538520813e-02 1.617063023149967194e-02 1.949790492653846741e-02 -3.465855494141578674e-02 -3.379300003871321678e-03 2.719286829233169556e-02 7.780313491821289062e-02 8.110221475362777710e-02 8.168455958366394043e-02 3.692749142646789551e-02 1.877863705158233643e-02 -2.264051325619220734e-02 2.984173595905303955e-02 -1.662836968898773193e-02 -3.655076434370130301e-04 -6.816832814365625381e-03
-9.978866204619407654e-03 2.605867013335227966e-02 -6.122194230556488037e-03 9.124637581408023834e-03 3.737069433555006981e-03 3.356367349624633789e-02 1.126883551478385925e-02 1.056965999305248260e-02 8.707137778401374817e-03 9.125135838985443115e-03 6.022770330309867859e-02 8.862889558076858521e-02 7.002297043800354004e-02 3.284594789147377014e-02 -2.872889302670955658e-02 -1.706975046545267105e-03 2.154411002993583679e-02 7.579743117094039917e-02 1.098310053348541260e-01 1.176305413246154785e-01 8.594650030136108398e-02 6.474228948354721069e-02 -9.651390137150883675e-04 9.319839067757129669e-03 5.319855641573667526e-03 1.021483354270458221e-02 -3.362095355987548828e-02 1.403843611478805542e-02
-1.363365538418292999e-02 3.416098654270172119e-02 -2.112785540521144867e-02 2.466754429042339325e-02 -1.505953446030616760e-02 3.566925227642059326e-02 1.846475177444517612e-03 2.065167762339115143e-02 -9.453606791794300079e-03 1.841698959469795227e-02 1.004095748066902161e-01 9.844965487718582153e-02 8.206906169652938843e-02 -3.856671741232275963e-03 -6.292024772847071290e-05 -2.151594869792461395e-02 -1.503865886479616165e-02 5.370473116636276245e-02 1.213970780372619629e-01 1.003646254539489746e-01 1.275824755430221558e-01 2.738030813634395599e-02 7.205499801784753799e-03 3.477602824568748474e-02 3.967966511845588684e-02 -2.734562382102012634e-02 1.247866824269294739e-02 1.847955211997032166e-02
3.338209912180900574e-02 1.727887243032455444e-02 2.754639089107513428e-02 4.564300179481506348e-02 2.506523951888084412e-02 1.084711030125617981e-02 2.420687815174460411e-03 3.910651803016662598e-02 2.719473838806152344e-02 7.734165340662002563e-02 8.713658154010772705e-02 6.283991783857345581e-02 4.478832334280014038e-02 -5.820161849260330200e-02 -8.366103470325469971e-02 -5.503551661968231201e-02 3.706668317317962646e-02 1.082463189959526062e-01 1.590169072151184082e-01 1.732264310121536255e-01 1.378472447395324707e-01 6.910443305969238281e-02 2.503836341202259064e-02 6.421469897031784058e-02 -6.729467306286096573e-03 2.095002448186278343e-03 -2.701779827475547791e-02 -1.480810157954692841e-02
1.512034237384796143e-02 -1.791386678814888000e-02 -1.071369647979736328e-02 7.090601325035095215e-02 7.423718273639678955e-02 8.976523764431476593e-03 4.456765577197074890e-02 1.510351430624723434e-02 2.877587825059890747e-02 -5.437449552118778229e-03 -2.404360286891460419e-02 -2.783304825425148010e-02 -4.302949085831642151e-02 -2.472213283181190491e-02 -7.885318994522094727e-02 -3.046864271163940430e-02 4.103646799921989441e-02 1.245658472180366516e-01 1.341415941715240479e-01 1.598200350999832153e-01 9.389384090900421143e-02 6.540143489837646484e-02 2.421350777149200439e-02 4.549358040094375610e-02 3.202617913484573364e-02 2.409501187503337860e-02 3.283226117491722107e-02 3.557241335511207581e-02
-1.167666912078857422e-02 3.036410920321941376e-02 4.711116105318069458e-02 3.268830850720405579e-02 2.927201241254806519e-02 7.573244720697402954e-02 6.659824401140213013e-02 2.607670053839683533e-02 -4.511892329901456833e-03 -2.976772747933864594e-02 -3.882297500967979431e-02 -4.486389458179473877e-02 -6.402236223220825195e-02 -9.747271984815597534e-02 -9.316242486238479614e-02 -3.095646761357784271e-02 3.190296888351440430e-02 1.390800625085830688e-01 9.743075817823410034e-02 1.186905130743980408e-01 9.134816378355026245e-02 4.089977219700813293e-02 2.671120315790176392e-02 -1.725411787629127502e-02 3.350428119301795959e-02 6.238900590687990189e-03 -2.722609415650367737e-02 -6.331038661301136017e-03
-2.358669042587280273e-02 3.665829822421073914e-02 -4.127218388020992279e-03 3.676470369100570679e-02 6.937177479267120361e-02 7.810915261507034302e-02 5.244909599423408508e-02 6.985648721456527710e-02 6.216165143996477127e-03 -1.965425536036491394e-02 -3.578474000096321106e-02 -7.104831933975219727e-02 -7.606344670057296753e-02 -5.650668218731880188e-02 -4.438396170735359192e-02 2.624704129993915558e-02 5.169839784502983093e-02 1.277495175600051880e-01 1.100843101739883423e-01 4.893421009182929993e-02 2.401621639728546143e-02 5.198771134018898010e-02 -7.754338905215263367e-03 -1.851867325603961945e-02 1.778148859739303589e-02 -3.032720834016799927e-02 3.397358814254403114e-03 2.429815195500850677e-02
2.079046890139579773e-02 -6.552441976964473724e-03 1.902794465422630310e-02 8.150670677423477173e-02 5.191830918192863464e-02 7.565076649188995361e-02 8.580422401428222656e-02 5.229419097304344177e-02 2.950495854020118713e-02 -1.960332132875919342e-02 -2.062798105180263519e-02 -3.859124332666397095e-02 -4.024673998355865479e-02 -7.252250611782073975e-02 -2.145520597696304321e-02 4.714380204677581787e-02 1.301717199385166168e-02 7.974075525999069214e-02 6.869499385356903076e-02 3.084488771855831146e-02 3.783981502056121826e-02 -5.129278637468814850e-03 -8.884295821189880371e-03 1.907030120491981506e-02 -2.652764087542891502e-03 -6.124976789578795433e-04 -3.152440115809440613e-02 -6.637641345150768757e-04
-3.113665059208869934e-02 2.072777971625328064e-02 5.886304378509521484e-02 7.749263942241668701e-02 8.772264420986175537e-02 7.828287035226821899e-02 6.722016632556915283e-02 3.288036957383155823e-02 1.526006497442722321e-03 2.136937342584133148e-02 -4.251375794410705566e-02 -3.786934539675712585e-02 -3.806328028440475464e-02 2.517062984406948090e-02 2.729405276477336884e-02 1.595561578869819641e-02 7.641953416168689728e-03 5.085609853267669678e-03 -1.473040226846933365e-02 -2.148657664656639099e-02 1.864142529666423798e-02 1.899268850684165955e-02 1.355796121060848236e-02 -3.045355901122093201e-02 -1.692490652203559875e-02 -3.878457099199295044e-02 -3.322604298591613770e-02 3.056219592690467834e-02
-2.773629687726497650e-02 -7.286081556230783463e-03 3.325340896844863892e-02 6.904406845569610596e-02 8.290667086839675903e-02 4.719911515712738037e-02 4.647076129913330078e-02 -6.352096097543835640e-04 -1.777728460729122162e-02 -6.979121826589107513e-03 -3.588332561776041985e-03 8.207038976252079010e-03 1.849509542807936668e-03 5.765468999743461609e-02 4.860024154186248779e-02 3.340789675712585449e-02 3.757154569029808044e-02 -3.724300488829612732e-02 -3.163874521851539612e-02 -3.833607584238052368e-02 9.871257934719324112e-04 5.274474155157804489e-03 -2.099961787462234497e-02 -4.050578176975250244e-02 -2.844224683940410614e-02 1.743296906352043152e-02 1.614272221922874451e-02 -3.524184226989746094e-03
1.217972021549940109e-02 -1.166928932070732117e-02 4.924467764794826508e-03 1.164223626255989075e-02 2.035268768668174744e-02 3.697833791375160217e-02 3.505213558673858643e-02 1.997761800885200500e-02 5.966122075915336609e-02 2.814869582653045654e-02 6.267084926366806030e-02 8.131300657987594604e-02 4.630753025412559509e-02 9.554243087768554688e-02 2.744027785956859589e-02 2.928062714636325836e-02 3.232312155887484550e-03 -3.706118836998939514e-02 -1.227546669542789459e-02 1.314008422195911407e-02 8.433762006461620331e-03 -5.700406152755022049e-03 4.470237763598561287e-04 1.361475326120853424e-02 -4.928965587168931961e-03 -1.188322808593511581e-02 -6.288028089329600334e-04 1.810507103800773621e-02
-2.965916693210601807e-02 3.358804807066917419e-02 3.855606168508529663e-02 4.242243617773056030e-02 1.220997236669063568e-02 -5.103240720927715302e-03 -3.474402707070112228e-03 2.879866585135459900e-02 3.440031781792640686e-02 8.153671771287918091e-02 9.334418177604675293e-02 8.483107388019561768e-02 1.141709834337234497e-01 7.575867325067520142e-02 6.878147274255752563e-02 6.926995702087879181e-03 2.654303051531314850e-02 -6.683552172034978867e-03 -3.972897306084632874e-02 2.689387090504169464e-02 -2.559105865657329559e-02 8.568574674427509308e-03 2.015258558094501495e-02 -1.382672693580389023e-02 2.186538279056549072e-02 -3.428987786173820496e-02 1.104492042213678360e-02 3.504030033946037292e-02
-3.194957971572875977e-03 3.083694353699684143e-02 -4.535727784968912601e-04 3.596859797835350037e-02 1.657502725720405579e-02 5.301662907004356384e-02 7.048904150724411011e-02 2.680480480194091797e-02 8.700267970561981201e-02 5.581906437873840332e-02 8.444938808679580688e-02 1.275987029075622559e-01 9.840691089630126953e-02 9.636525809764862061e-02 5.240779370069503784e-02 3.170879185199737549e-02 1.963453553617000580e-02 2.692723087966442108e-02 4.123047739267349243e-02 4.857540503144264221e-02 -9.652483277022838593e-03 -4.428004845976829529e-03 -2.184192836284637451e-02 1.706000044941902161e-02 2.043447270989418030e-02 -3.581296280026435852e-02 -3.586569428443908691e-02 3.527325019240379333e-02
-3.076732717454433441e-02 -1.354992389678955078e-02 -8.552584913559257984e-04 -5.229394417256116867e-03 4.254164919257164001e-02 -9.150855243206024170e-03 6.163028627634048462e-02 1.358204893767833710e-02 3.718007728457450867e-02 2.385930158197879791e-02 9.181303530931472778e-02 4.227392002940177917e-02 1.008199006319046021e-01 8.166458457708358765e-02 8.543499559164047241e-02 6.204132735729217529e-02 3.268390521407127380e-02 6.112853810191154480e-02 2.326696738600730896e-02 1.486453786492347717e-02 4.993260651826858521e-02 6.736945826560258865e-03 -4.731982015073299408e-03 3.011342510581016541e-02 1.115333661437034607e-02 -1.728262752294540405e-02 -2.313834056258201599e-02 1.417153328657150269e-02
2.021764591336250305e-02 1.612485200166702271e-02 2.314643561840057373e-02 8.883532136678695679e-03 -1.786690764129161835e-02 6.225066725164651871e-03 1.402418012730777264e-03 -2.497751452028751373e-02 3.394705057144165039e-02 4.110564943403005600e-03 3.351785475388169289e-03 3.495078161358833313e-02 4.463393241167068481e-02 -2.070798724889755249e-02 1.266736886464059353e-03 2.699856460094451904e-02 5.240626260638237000e-02 6.583068054169416428e-03 -6.575253792107105255e-03 3.140077739953994751e-02 3.561991080641746521e-02 -8.531180210411548615e-03 -1.559102814644575119e-02 2.126155421137809753e-02 5.802612751722335815e-03 7.480680942535400391e-03 -2.651854231953620911e-02 1.669805124402046204e-02
-3.104133903980255127e-02 1.374351978302001953e-02 -1.380685716867446899e-03 -2.754210680723190308e-02 6.593234837055206299e-03 1.880588009953498840e-02 3.340613469481468201e-02 -1.708706095814704895e-02 -2.494881488382816315e-02 9.570792317390441895e-03 -3.128993511199951172e-02 1.790435612201690674e-02 -4.474941641092300415e-03 -1.666272617876529694e-02 1.493839174509048462e-02 1.260672509670257568e-02 -2.393362484872341156e-02 -2.678340300917625427e-02 3.324196860194206238e-02 -2.742637135088443756e-02 8.302271366119384766e-03 -7.077936083078384399e-03 -1.653234474360942841e-02 -1.543385721743106842e-02 -2.506583929061889648e-03 -1.931673847138881683e-02 2.093766257166862488e-02 -3.557293862104415894e-02
