1.449193805456161499e-03 4.301194101572036743e-03 -2.134547196328639984e-02 3.058549389243125916e-02 2.229430153965950012e-02 1.770321279764175415e-03 -3.109416551887989044e-02 1.745507493615150452e-02 5.246698856353759766e-04 2.368648350238800049e-02 3.317907825112342834e-02 -2.500069141387939453e-02 -3.319567441940307617e-02 -1.928295940160751343e-03 2.462553977966308594e-02 2.400994300842285156e-02 -2.229303121566772461e-02 1.567523553967475891e-02 1.747547462582588196e-02 2.138506248593330383e-02 1.865598186850547791e-02 2.708144485950469971e-03 3.510139510035514832e-02 3.524048253893852234e-02 -1.741459593176841736e-02 -7.031019777059555054e-03 7.015347480773925781e-03 3.381047397851943970e-03
-4.229135811328887939e-04 1.250918954610824585e-03 1.155786588788032532e-02 6.423071026802062988e-04 -2.221276238560676575e-02 2.362698316574096680e-02 -3.533959388732910156e-02 -3.055112436413764954e-02 3.453044965863227844e-02 -1.246714591979980469e-02 2.614315226674079895e-02 -2.706015110015869141e-02 2.304523065686225891e-02 1.970492675900459290e-02 1.883489749161526561e-04 2.872840315103530884e-02 -2.242710813879966736e-02 -3.277307003736495972e-02 -2.433731406927108765e-02 1.074694097042083740e-03 -2.449980936944484711e-02 -1.995724998414516449e-02 1.800138503313064575e-03 -2.687684260308742523e-02 -9.598135948181152344e-04 6.526999175548553467e-03 2.914976328611373901e-03 1.001790538430213928e-02
-1.879252307116985321e-02 -1.716917008161544800e-02 -8.394224569201469421e-03 -2.214766107499599457e-02 2.470669522881507874e-02 -2.420068718492984772e-02 6.921477615833282471e-03 -1.221336238086223602e-02 3.145538643002510071e-02 -3.313007950782775879e-02 -2.751554176211357117e-02 2.404919825494289398e-02 2.100143209099769592e-02 1.945894327946007252e-03 -2.529992163181304932e-02 -4.765429534018039703e-03 2.065967535600066185e-03 6.760067772120237350e-03 -3.576120361685752869e-02 1.603215187788009644e-02 -1.197297126054763794e-02 1.902274787425994873e-03 -2.146506309509277344e-02 2.032794430851936340e-02 -3.267563879489898682e-02 -3.538386896252632141e-02 1.174592599272727966e-02 1.237577572464942932e-02
1.765931397676467896e-02 -2.454172819852828979e-02 9.717106819152832031e-03 4.344694316387176514e-04 -2.951659634709358215e-02 -2.243417687714099884e-02 -2.784188138321042061e-03 4.664434120059013367e-02 -2.901084022596478462e-03 3.689569421112537384e-03 1.000868808478116989e-02 3.723425045609474182e-02 -7.240607403218746185e-03 5.518610589206218719e-03 5.257934099063277245e-04 -1.126248482614755630e-02 -1.103858370333909988e-02 2.325713448226451874e-02 -6.268660072237253189e-03 -8.850362151861190796e-03 4.246700182557106018e-02 -2.927650325000286102e-02 1.578626781702041626e-02 2.700468152761459351e-02 -9.645000100135803223e-04 -1.597490906715393066e-02 -2.300207689404487610e-02 -3.565376251935958862e-02
1.123639568686485291e-02 7.542171981185674667e-03 -6.699826335534453392e-04 1.867969334125518799e-02 1.122014364227652550e-03 4.628480225801467896e-02 -4.987618885934352875e-03 2.310788817703723907e-02 -2.284130547195672989e-03 7.707359269261360168e-03 3.427780419588088989e-02 3.982245177030563354e-02 4.760681837797164917e-02 1.407662034034729004e-02 3.265278413891792297e-02 4.792368784546852112e-02 1.944123208522796631e-02 -1.353035215288400650e-02 5.137023981660604477e-04 -2.547589316964149475e-02 -2.983747236430644989e-02 -6.220036372542381287e-02 -6.036751344799995422e-02 -1.762457937002182007e-02 -3.992234542965888977e-02 -2.277314662933349609e-03 -1.558424904942512512e-02 -7.710384204983711243e-03
2.143122255802154541e-03 5.097366869449615479e-03 3.091553039848804474e-02 1.053398195654153824e-02 9.866985492408275604e-04 -4.478198941797018051e-03 5.489926785230636597e-02 2.206492982804775238e-02 6.720054149627685547e-02 2.243779972195625305e-02 4.317320510745048523e-02 6.656599789857864380e-02 5.108911916613578796e-02 4.810199886560440063e-02 1.644115522503852844e-02 8.570570498704910278e-02 6.147297471761703491e-02 5.397839844226837158e-02 3.055596537888050079e-02 -2.505352161824703217e-02 -1.985024102032184601e-02 -3.460839763283729553e-02 -2.556305006146430969e-02 -5.043228343129158020e-02 -4.720231518149375916e-03 1.987785473465919495e-02 -1.126857846975326538e-02 3.771889954805374146e-03
-8.138231933116912842e-03 9.572257287800312042e-03 4.138948023319244385e-02 2.397829480469226837e-02 5.474512651562690735e-02 6.941201537847518921e-02 1.306405570358037949e-02 2.159831672906875610e-02 8.700234442949295044e-02 8.498176187276840210e-02 5.988463759422302246e-02 1.033876687288284302e-01 5.675850436091423035e-02 9.762984514236450195e-02 4.387409612536430359e-02 1.039287224411964417e-01 5.569620802998542786e-02 5.648870393633842468e-02 5.075761675834655762e-02 1.004008390009403229e-02 -9.453797712922096252e-03 -6.247496232390403748e-02 -2.041300525888800621e-03 -2.655665576457977295e-02 -5.760098621249198914e-02 -5.325995385646820068e-03 2.848807349801063538e-02 -1.108067482709884644e-02
2.324843779206275940e-02 1.186792645603418350e-02 2.239705249667167664e-02 4.034089669585227966e-02 5.361130461096763611e-02 1.521976850926876068e-02 5.577331036329269409e-02 7.814925909042358398e-02 1.005459725856781006e-01 6.825210154056549072e-02 8.085922896862030029e-02 3.728559613227844238e-02 5.455344915390014648e-02 6.379295885562896729e-02 9.055475145578384399e-02 4.147308319807052612e-02 6.551089137792587280e-02 6.648954749107360840e-02 3.972038626670837402e-02 2.945837378501892090e-02 3.553397953510284424e-02 -3.223650902509689331e-02 2.649675880093127489e-04 -2.564453333616256714e-02 -5.408490076661109924e-03 1.864502951502799988e-02 4.713322967290878296e-03 -6.322549656033515930e-03
2.720308676362037659e-02 1.330356299877166748e-02 7.317712064832448959e-03 -3.514305222779512405e-03 3.302359953522682190e-02 5.588740855455398560e-02 7.412566989660263062e-02 7.696370780467987061e-02 5.152067169547080994e-02 4.556016623973846436e-02 1.722321659326553345e-02 2.897483669221401215e-02 1.174982544034719467e-02 -4.522776603698730469e-02 -1.607690937817096710e-02 -1.217188034206628799e-02 4.256856441497802734e-02 6.992004811763763428e-02 4.215526208281517029e-02 4.027625173330307007e-02 -5.578801035881042480e-03 1.726190373301506042e-02 4.500130657106637955e-03 -1.030280347913503647e-02 -3.745200345292687416e-03 3.102291002869606018e-02 2.600507810711860657e-02 -3.181770443916320801e-04
9.241152554750442505e-03 -1.660264283418655396e-02 3.580937534570693970e-02 4.141536355018615723e-02 7.422440499067306519e-02 1.176253613084554672e-02 5.336490459740161896e-03 2.125917188823223114e-02 2.740227058529853821e-02 -2.080981153994798660e-03 3.445799695327877998e-03 -4.383696615695953369e-02 -7.526110857725143433e-02 -5.505516007542610168e-02 -5.201841145753860474e-02 1.767840050160884857e-02 1.381558645516633987e-02 1.912664249539375305e-02 6.792581826448440552e-02 1.412015594542026520e-02 5.214083194732666016e-02 2.731806598603725433e-02 1.952877826988697052e-02 3.300492465496063232e-02 -2.875339053571224213e-02 7.658014073967933655e-03 3.329973667860031128e-03 -2.210477553308010101e-02
-2.198904007673263550e-02 2.918928302824497223e-02 4.298791289329528809e-03 3.979610279202461243e-02 1.248811464756727219e-02 7.557652145624160767e-02 4.565852135419845581e-02 1.706510782241821289e-02 -1.872878521680831909e-02 1.974752638489007950e-03 1.890986692160367966e-03 -1.123097538948059082e-02 -9.257463365793228149e-02 -8.554075658321380615e-02 -9.173493832349777222e-02 -4.210892319679260254e-02 -5.158467683941125870e-03 1.131959352642297745e-02 6.020295619964599609e-02 7.759149372577667236e-02 7.584682106971740723e-02 3.230643644928932190e-02 3.929513320326805115e-02 3.464031033217906952e-03 -2.357941679656505585e-02 1.827132143080234528e-02 7.354914210736751556e-03 -1.515232026576995850e-03
-7.372498512268066406e-03 -1.808402710594236851e-03 -2.371609397232532501e-02 6.992605980485677719e-03 1.676714606583118439e-02 2.720978297293186188e-02 4.259376972913742065e-02 4.624956846237182617e-02 4.221720993518829346e-02 3.168934956192970276e-02 -3.720129653811454773e-02 5.324997473508119583e-04 -1.707154512405395508e-02 -7.652501226402819157e-04 -2.281948924064636230e-03 1.871748128905892372e-03 1.164910569787025452e-02 5.704673007130622864e-02 8.498413860797882080e-02 7.105421274900436401e-02 7.064417004585266113e-02 5.027104914188385010e-02 3.353734035044908524e-03 -1.375226071104407310e-03 -3.014436736702919006e-02 -1.724457554519176483e-02 -3.592981770634651184e-02 1.340590696781873703e-02
-2.135137282311916351e-02 1.444974262267351151e-02 -1.199742313474416733e-02 -1.517594512552022934e-02 4.011361673474311829e-02 -4.910333547741174698e-03 2.363418973982334137e-02 -1.524037308990955353e-02 1.330310665071010590e-02 4.763832315802574158e-03 6.693397299386560917e-04 3.547523543238639832e-02 1.307435682974755764e-03 -2.484092302620410919e-02 7.555613294243812561e-03 -1.613537594676017761e-02 4.067138582468032837e-02 2.378849685192108154e-02 3.107637539505958557e-02 9.342875331640243530e-02 3.050907328724861145e-02 4.660870507359504700e-02 1.487102359533309937e-02 2.621687948703765869e-02 2.962758205831050873e-02 2.125027030706405640e-02 3.463419154286384583e-02 -3.354957699775695801e-02
6.262421607971191406e-03 1.636406779289245605e-02 -1.310295704752206802e-02 4.411460831761360168e-03 -2.077871933579444885e-02 -1.603285036981105804e-02 3.176878904923796654e-03 7.865001447498798370e-03 3.811405505985021591e-03 3.109973389655351639e-03 8.931628614664077759e-02 1.041814610362052917e-01 4.356327280402183533e-02 1.163242198526859283e-02 -2.500935085117816925e-02 -2.738733030855655670e-02 2.969145961105823517e-02 4.041783139109611511e-02 5.192095041275024414e-02 9.109875559806823730e-02 2.080872841179370880e-02 6.461301445960998535e-02 -1.486798934638500214e-02 1.799368858337402344e-02 3.799671772867441177e-03 -9.935367852449417114e-03 -1.339112967252731323e-02 -9.417288005352020264e-03
3.473598882555961609e-02 6.176158785820007324e-03 5.420207977294921875e-03 -4.111556336283683777e-03 -1.898084580898284912e-02 -1.350794080644845963e-02 3.268520906567573547e-02 5.577851459383964539e-02 6.611169315874576569e-03 2.492525801062583923e-02 8.691578358411788940e-02 1.397903859615325928e-01 5.138589441776275635e-02 2.100776648148894310e-03 -3.460721671581268311e-02 -5.996178463101387024e-02 -1.124558504670858383e-02 7.498869299888610840e-02 9.501845389604568481e-02 1.228828057646751404e-01 6.307288259267807007e-02 6.328690797090530396e-02 1.374496426433324814e-02 4.864205047488212585e-02 3.966280445456504822e-02 -2.123267017304897308e-02 -3.881704062223434448e-02 -2.605932205915451050e-02
-2.911316603422164917e-02 -1.585729653015732765e-03 4.586481302976608276e-02 3.061761893332004547e-02 2.274505048990249634e-02 4.010216146707534790e-02 2.528976462781429291e-02 2.317963540554046631e-02 1.795523054897785187e-02 7.219038903713226318e-02 6.199685856699943542e-02 9.455391764640808105e-02 5.265227518975734711e-03 -2.370226196944713593e-03 -3.247693926095962524e-02 -5.540784075856208801e-02 8.220718242228031158e-03 7.334449887275695801e-02 1.392670571804046631e-01 1.145286411046981812e-01 1.183396279811859131e-01 9.230096638202667236e-02 3.102176077663898468e-02 4.493357241153717041e-02 -2.356200478971004486e-03 1.445740740746259689e-02 5.369869992136955261e-03 2.126278728246688843e-02
1.639441400766372681e-02 3.605812415480613708e-02 3.843071684241294861e-02 2.534182742238044739e-02 4.449530318379402161e-02 6.751749664545059204e-02 1.865381747484207153e-02 1.810985244810581207e-02 5.632907524704933167e-02 5.324979498982429504e-02 1.560980360954999924e-02 -4.694062750786542892e-03 -2.303014136850833893e-02 -2.398026734590530396e-02 -4.381451755762100220e-02 -2.684984728693962097e-02 6.529334932565689087e-02 1.189783290028572083e-01 1.453446149826049805e-01 1.403132528066635132e-01 1.057797670364379883e-01 6.869392842054367065e-02 7.854279130697250366e-02 3.676516935229301453e-02 -2.436229260638356209e-03 2.910875901579856873e-02 -3.097851201891899109e-02 -2.187754958868026733e-03
2.810800448060035706e-02 2.148880809545516968e-02 3.128663450479507446e-02 4.523053392767906189e-02 2.187367342412471771e-02 8.018665015697479248e-02 1.825505495071411133e-02 2.999603934586048126e-02 3.876744071021676064e-03 -1.744226180016994476e-02 -3.300489112734794617e-02 -8.193074166774749756e-02 -7.509211450815200806e-02 -9.981469810009002686e-02 -5.367677658796310425e-02 3.403131850063800812e-03 4.761144146323204041e-02 1.399202644824981689e-01 9.015081822872161865e-02 7.275046408176422119e-02 4.021583124995231628e-02 6.425365805625915527e-02 7.785858120769262314e-03 3.654242306947708130e-02 -3.922013938426971436e-02 2.732271142303943634e-02 -3.398453816771507263e-02 -1.824223808944225311e-02
2.695450559258460999e-02 -4.822886548936367035e-04 4.874369502067565918e-02 6.353981792926788330e-02 7.173763960599899292e-02 1.028351187705993652e-01 5.855509266257286072e-02 4.520367830991744995e-02 1.840060018002986908e-02 -4.373383149504661560e-02 -4.835396260023117065e-02 -1.011164039373397827e-01 -5.736192688345909119e-02 -4.522804543375968933e-02 -6.403485685586929321e-02 -1.845117285847663879e-02 3.695174306631088257e-02 1.256144344806671143e-01 1.199955865740776062e-01 5.717882513999938965e-02 4.662974551320075989e-02 7.452111691236495972e-03 1.952312700450420380e-02 3.410304337739944458e-02 2.791372686624526978e-02 3.716207807883620262e-03 -5.859734956175088882e-03 -3.952449187636375427e-02
-2.604436501860618591e-02 2.971178665757179260e-02 4.248507320880889893e-02 7.915510982275009155e-02 6.053347513079643250e-02 1.090741306543350220e-01 8.647028356790542603e-02 5.970467254519462585e-02 3.485336899757385254e-02 -5.851985421031713486e-03 -4.941323027014732361e-02 -4.326030239462852478e-02 -6.579256802797317505e-02 -6.577326357364654541e-02 -5.534826591610908508e-02 3.042482584714889526e-02 2.010433934628963470e-02 4.536908492445945740e-02 2.303379774093627930e-02 5.668861791491508484e-02 -1.796021126210689545e-02 -3.807121654972434044e-03 4.310005903244018555e-02 -3.370856121182441711e-02 1.568489335477352142e-02 -4.380815848708152771e-02 -3.824220597743988037e-02 5.602244753390550613e-03
-2.210903167724609375e-02 1.357604283839464188e-02 2.221332304179668427e-02 8.748146146535873413e-02 9.064329415559768677e-02 6.308530271053314209e-02 6.496474891901016235e-02 5.804045498371124268e-02 -1.927727280417457223e-04 -3.667741641402244568e-02 -2.659608423709869385e-02 -3.037577681243419647e-02 -3.761506825685501099e-02 -1.360514387488365173e-02 1.089942827820777893e-02 -6.486825644969940186e-03 1.399234868586063385e-02 5.193758755922317505e-02 4.424137249588966370e-02 -2.213024534285068512e-02 -1.566427759826183319e-02 9.196553146466612816e-04 -2.883812412619590759e-02 -3.629476577043533325e-02 -2.305538579821586609e-02 -7.522115483880043030e-03 -2.650472521781921387e-02 -2.385095693171024323e-02
2.070883288979530334e-02 1.020308025181293488e-02 3.839799761772155762e-02 5.453747138381004333e-02 4.290296509861946106e-02 5.941632390022277832e-02 6.619776040315628052e-02 1.598079316318035126e-02 3.804149478673934937e-02 3.745997324585914612e-02 3.895740211009979248e-02 2.756533399224281311e-02 1.111893332563340664e-03 6.505632400512695312e-02 3.255766257643699646e-02 4.520144313573837280e-02 3.459275141358375549e-02 2.621465362608432770e-02 -1.324645802378654480e-02 7.849143818020820618e-03 -7.966310717165470123e-03 8.105991408228874207e-03 1.674370095133781433e-02 -3.571183979511260986e-02 4.716539289802312851e-03 -3.186264308169484138e-03 1.617319509387016296e-02 -1.678439602255821228e-02
-5.945159122347831726e-03 -2.591992914676666260e-02 3.490800037980079651e-02 2.405274659395217896e-02 3.042405296582728624e-04 -2.335206791758537292e-02 -4.089558031409978867e-03 2.368132583796977997e-02 3.131983801722526550e-02 6.431630253791809082e-02 6.801829487085342407e-02 8.930820226669311523e-02 7.789539545774459839e-02 9.281966090202331543e-02 5.692299455404281616e-02 6.451306492090225220e-02 3.142437711358070374e-02 1.117737311869859695e-02 -3.075475431978702545e-02 -4.924865812063217163e-02 -3.142621740698814392e-02 -3.033429384231567383e-02 -4.867788869887590408e-03 5.304552614688873291e-03 -1.570077985525131226e-02 -4.446056112647056580e-02 -1.257154066115617752e-02 1.349604502320289612e-02
-1.129585132002830505e-02 3.230978921055793762e-02 1.809327118098735809e-02 2.730785496532917023e-02 2.255505183711647987e-03 6.182542536407709122e-03 4.271985217928886414e-02 3.083387948572635651e-02 3.610671684145927429e-02 6.478241831064224243e-02 5.045569315552711487e-02 7.378493249416351318e-02 9.182657301425933838e-02 7.653018832206726074e-02 5.815194919705390930e-02 5.326819419860839844e-02 2.798468060791492462e-02 -3.800113499164581299e-02 -2.194293029606342316e-02 2.225801814347505569e-03 2.515793591737747192e-02 1.878994517028331757e-02 2.204437926411628723e-02 2.070517465472221375e-02 -2.641945146024227142e-02 3.198402747511863708e-02 -8.457145653665065765e-03 -1.702849008142948151e-02
9.215988218784332275e-03 4.443652927875518799e-03 -1.670864969491958618e-02 4.041920602321624756e-02 8.833792060613632202e-03 1.626982539892196655e-02 1.442085299640893936e-02 2.965037710964679718e-02 6.942410022020339966e-02 7.803656905889511108e-02 4.946224763989448547e-02 1.038459539413452148e-01 1.049774214625358582e-01 7.306648045778274536e-02 6.120977550745010376e-02 8.784472197294235229e-02 5.675846338272094727e-02 6.324546784162521362e-02 5.673786997795104980e-02 1.952510140836238861e-02 3.839140012860298157e-02 -8.676755242049694061e-03 3.481892123818397522e-02 -2.758910134434700012e-02 -2.578321844339370728e-03 -2.673418819904327393e-02 1.702079921960830688e-02 3.305171057581901550e-02
-2.224249206483364105e-02 1.311985403299331665e-02 -3.877474926412105560e-03 -1.690400578081607819e-02 3.880054131150245667e-02 4.194128140807151794e-02 5.212974920868873596e-02 7.081991434097290039e-02 3.297265246510505676e-02 4.647830128669738770e-02 8.151669055223464966e-02 4.066572338342666626e-02 5.403680726885795593e-02 5.937634408473968506e-02 9.062909334897994995e-02 6.832901388406753540e-02 4.465073719620704651e-02 1.483673881739377975e-02 5.239314958453178406e-02 2.627499029040336609e-02 2.606797963380813599e-02 3.752843663096427917e-02 -1.501787453889846802e-02 3.314469382166862488e-02 -1.081633567810058594e-02 2.775076404213905334e-02 2.510320767760276794e-02 8.346848189830780029e-03
-2.249394357204437256e-02 -2.427794411778450012e-02 1.904642954468727112e-02 -2.078513242304325104e-02 2.122219279408454895e-02 8.527877740561962128e-03 -2.198685705661773682e-02 -2.180721238255500793e-02 3.687156736850738525e-02 1.873875781893730164e-02 6.248005665838718414e-03 -1.876669749617576599e-02 3.822903847321867943e-03 6.638249615207314491e-04 1.950538344681262970e-02 3.316305205225944519e-02 -8.473709225654602051e-03 2.759219519793987274e-02 -7.754636928439140320e-03 4.267685487866401672e-02 -1.561322435736656189e-02 -1.009324658662080765e-02 -2.689543738961219788e-02 2.590735629200935364e-02 -1.347451657056808472e-02 9.077761322259902954e-03 -2.936082333326339722e-02 -2.902814000844955444e-02
1.313340291380882263e-02 3.909058868885040283e-04 9.016163647174835205e-03 2.024196088314056396e-03 -2.156755886971950531e-02 -1.117209531366825104e-02 -1.187638379633426666e-02 2.777785435318946838e-02 -1.325055584311485291e-02 2.614349126815795898e-02 2.806279435753822327e-02 3.366662934422492981e-02 -1.599246822297573090e-02 1.987986266613006592e-03 2.785553410649299622e-02 2.318128570914268494e-02 2.210454642772674561e-02 2.468567341566085815e-03 -1.152914389967918396e-02 6.335869431495666504e-03 1.924479007720947266e-02 -3.416054323315620422e-02 7.825680077075958252e-03 1.289983093738555908e-02 2.458166331052780151e-03 -8.109850808978080750e-03 -2.872729860246181488e-02 3.159323707222938538e-02
