2.566371858119964600e-02 -2.814942784607410431e-02 -3.236639499664306641e-02 1.270647719502449036e-02 2.173670008778572083e-02 3.072313964366912842e-03 1.684892922639846802e-02 1.942887902259826660e-02 3.325280919671058655e-02 1.222179085016250610e-02 -4.653185606002807617e-03 -2.408380806446075439e-02 5.715023726224899292e-03 1.978303119540214539e-02 -3.379847854375839233e-02 -1.272239908576011658e-02 1.585222780704498291e-02 1.641520112752914429e-02 1.351529732346534729e-02 -3.327171131968498230e-02 2.090741693973541260e-02 3.120395168662071228e-02 3.141883388161659241e-02 2.556524053215980530e-02 -9.504454210400581360e-03 -1.543238386511802673e-02 -9.540004655718803406e-03 -2.912272512912750244e-02
3.083915635943412781e-02 -3.655772656202316284e-03 9.686872363090515137e-04 6.571140140295028687e-03 -1.231139153242111206e-02 4.814106971025466919e-03 -1.487033255398273468e-02 -3.372862935066223145e-02 -3.053594380617141724e-03 3.426002338528633118e-02 2.660788595676422119e-03 -2.132506109774112701e-02 4.842761904001235962e-03 3.556537255644798279e-02 -2.185382694005966187e-02 -2.783525176346302032e-02 2.863906882703304291e-02 2.107239887118339539e-02 -1.132404431700706482e-02 2.956841513514518738e-02 9.270906448364257812e-04 -9.061269462108612061e-03 -1.006521470844745636e-02 -2.023509703576564789e-02 -2.654574811458587646e-02 -1.744081825017929077e-02 -3.069312311708927155e-02 1.853898167610168457e-02
2.120175957679748535e-02 3.891937434673309326e-03 -1.650267466902732849e-02 -2.135545574128627777e-02 -1.546733081340789795e-03 3.409794345498085022e-02 2.980167046189308167e-02 1.447824016213417053e-02 -2.143149822950363159e-02 -2.175705134868621826e-02 -2.399484440684318542e-02 3.428185731172561646e-02 1.707121543586254120e-02 -4.645936936140060425e-02 -1.087065320461988449e-02 -1.066327281296253204e-02 8.879176340997219086e-03 -1.630419120192527771e-02 -2.305046468973159790e-02 1.192109100520610809e-02 -7.561154663562774658e-03 -1.949223875999450684e-02 -1.899600028991699219e-03 -5.135552957653999329e-03 2.971286699175834656e-02 -8.633928373456001282e-03 4.361946135759353638e-03 -2.892862260341644287e-02
-1.585683785378932953e-02 -1.332497224211692810e-02 2.434428036212921143e-02 -1.044715475291013718e-02 2.419799380004405975e-02 3.731520846486091614e-02 -3.484375309199094772e-03 2.091450849547982216e-03 5.093252658843994141e-02 5.433357506990432739e-02 3.390273079276084900e-02 6.720986962318420410e-02 5.734331905841827393e-03 1.970732770860195160e-02 -2.522673085331916809e-02 3.606227412819862366e-02 -1.775463856756687164e-02 3.183079138398170471e-02 4.588681459426879883e-02 3.843933343887329102e-02 -1.399034541100263596e-02 7.258278783410787582e-03 2.983598038554191589e-02 -2.935411036014556885e-02 -1.322980970144271851e-03 -3.005459532141685486e-02 -1.042680256068706512e-02 2.238573506474494934e-02
1.124793291091918945e-02 2.822010219097137451e-02 2.543171495199203491e-02 1.021094899624586105e-02 1.477268524467945099e-02 1.111594494432210922e-02 4.578143730759620667e-02 4.513037577271461487e-02 1.685408316552639008e-02 2.850665338337421417e-02 4.145969823002815247e-02 5.075607076287269592e-02 -5.186477676033973694e-03 3.941430151462554932e-02 3.773182258009910583e-02 4.559382423758506775e-02 3.666206821799278259e-02 4.264408349990844727e-02 5.868902429938316345e-03 -2.941223792731761932e-02 -1.196898426860570908e-02 -1.526026614010334015e-02 -6.968127936124801636e-02 -5.115933716297149658e-03 -3.961961343884468079e-02 1.506423577666282654e-02 -3.262007236480712891e-02 -3.569940850138664246e-02
-1.925829052925109863e-02 -9.193986654281616211e-03 7.675803266465663910e-03 1.688696071505546570e-02 3.275781869888305664e-02 4.334149882197380066e-02 1.295453589409589767e-02 3.077385574579238892e-02 3.961989283561706543e-02 8.885934948921203613e-03 7.784347236156463623e-02 7.511319220066070557e-02 4.009745642542839050e-02 2.873556688427925110e-02 6.859445571899414062e-02 4.309871420264244080e-02 8.131357282400131226e-02 2.806530147790908813e-02 4.153399541974067688e-02 2.442785352468490601e-02 -2.234831918030977249e-03 -3.432467207312583923e-02 -7.932798564434051514e-02 -3.462124243378639221e-02 -5.633583292365074158e-02 3.002396784722805023e-02 2.825043164193630219e-03 3.534086048603057861e-03
1.209500804543495178e-02 -1.116317138075828552e-02 3.867487190291285515e-03 2.638173848390579224e-02 6.318793445825576782e-02 5.101695656776428223e-02 6.410910189151763916e-02 5.458476021885871887e-02 9.076689928770065308e-02 6.611578166484832764e-02 7.464227825403213501e-02 4.106756299734115601e-02 5.462175235152244568e-02 1.028120592236518860e-01 7.142350077629089355e-02 8.145644515752792358e-02 5.548560991883277893e-02 9.351191669702529907e-02 3.341346979141235352e-02 1.901644840836524963e-02 -4.460658505558967590e-02 1.076149847358465195e-02 -9.455222636461257935e-03 -3.096410818397998810e-02 -5.405350029468536377e-02 -2.748534269630908966e-02 -1.310955733060836792e-03 -4.591630771756172180e-03
-4.114434123039245605e-04 1.017535105347633362e-02 2.191433496773242950e-02 4.945725947618484497e-02 2.814305201172828674e-02 6.837458163499832153e-02 8.497379720211029053e-02 7.867228239774703979e-02 1.009932979941368103e-01 4.158763587474822998e-02 5.507277697324752808e-02 6.146611273288726807e-02 7.041151821613311768e-02 7.506807148456573486e-02 5.000381916761398315e-02 6.200694292783737183e-02 7.844541221857070923e-02 5.369148030877113342e-02 2.978076599538326263e-02 6.046589091420173645e-02 1.324273552745580673e-02 3.731190785765647888e-02 -4.575163125991821289e-02 -5.564311891794204712e-02 -1.762545853853225708e-02 3.167789801955223083e-02 -1.144784316420555115e-02 1.558367162942886353e-02
-8.116671815514564514e-03 -2.034346573054790497e-02 2.784647280350327492e-03 5.107190459966659546e-03 7.437907904386520386e-02 6.006263568997383118e-02 7.258419692516326904e-02 7.679545134305953979e-02 2.251959778368473053e-02 8.081158250570297241e-02 2.539784088730812073e-02 4.200766328722238541e-03 -7.730789482593536377e-03 -1.592913642525672913e-02 -1.261267694644629955e-03 1.949150674045085907e-02 2.269359864294528961e-02 8.663313835859298706e-02 4.696537554264068604e-02 1.462998427450656891e-02 2.554479613900184631e-02 1.159242261201143265e-02 1.416336838155984879e-02 -4.209884256124496460e-02 2.118160016834735870e-02 5.869872868061065674e-03 -2.828690968453884125e-02 1.761952415108680725e-02
1.486511528491973877e-02 -1.632290333509445190e-02 6.120833568274974823e-03 3.076113760471343994e-02 3.471951931715011597e-02 6.735832989215850830e-02 5.010863766074180603e-02 7.437654584646224976e-02 6.548894941806793213e-02 4.667240381240844727e-02 3.706425428390502930e-02 8.110135677270591259e-04 -6.516119837760925293e-02 -8.269569277763366699e-02 -7.511872798204421997e-02 1.097083278000354767e-02 4.183257743716239929e-02 4.220343008637428284e-02 2.710947580635547638e-02 6.393627822399139404e-02 7.896754145622253418e-02 6.555901467800140381e-02 1.192571409046649933e-02 -6.351017393171787262e-03 2.730808407068252563e-02 1.573608629405498505e-02 5.249527166597545147e-04 -3.267657756805419922e-02
1.029230654239654541e-03 3.085799887776374817e-02 4.059150815010070801e-03 1.066833175718784332e-02 4.153250902891159058e-02 2.120622433722019196e-02 5.208865925669670105e-02 3.666226938366889954e-02 5.990116856992244720e-03 3.105793893337249756e-02 1.655547507107257843e-02 -4.529237374663352966e-02 -3.038632869720458984e-02 -5.337783694267272949e-02 -3.820694237947463989e-02 -3.035995736718177795e-02 3.257637098431587219e-02 3.096864372491836548e-02 3.745049983263015747e-02 6.055212020874023438e-02 8.405567705631256104e-02 2.719360403716564178e-02 4.178261011838912964e-02 2.790390141308307648e-02 1.560017932206392288e-02 -1.827404275536537170e-02 1.475083269178867340e-02 1.723097451031208038e-02
1.804757490754127502e-02 -2.219282463192939758e-02 1.705068745650351048e-03 1.777734607458114624e-02 -8.874601684510707855e-03 3.476829454302787781e-02 3.555437549948692322e-02 3.694513067603111267e-02 2.868713065981864929e-02 3.972459584474563599e-02 -1.361345127224922180e-02 -2.073747105896472931e-03 2.652807161211967468e-03 -1.728083565831184387e-02 -2.802390418946743011e-02 1.123270764946937561e-02 4.856151994317770004e-03 5.666113272309303284e-02 8.368899673223495483e-02 3.832945972681045532e-02 2.651483938097953796e-02 6.534348428249359131e-02 4.050788283348083496e-02 8.656866848468780518e-03 3.420750051736831665e-02 -8.655210025608539581e-03 -2.943843975663185120e-02 2.824609167873859406e-02
-9.852664545178413391e-03 -2.981507219374179840e-02 -2.070900984108448029e-02 1.014002878218889236e-02 1.145070604979991913e-02 4.703353717923164368e-02 3.198798745870590210e-02 5.364939942955970764e-02 2.865069732069969177e-02 2.933290041983127594e-02 5.561961978673934937e-02 7.081424817442893982e-03 -9.980722097679972649e-04 -1.433961186558008194e-02 -2.360079996287822723e-02 -4.603351466357707977e-03 -6.026624236255884171e-03 4.433075711131095886e-02 3.815214708447456360e-02 9.206038713455200195e-02 4.020753875374794006e-02 -8.936301805078983307e-03 -1.172201242297887802e-02 2.051466517150402069e-02 2.172179333865642548e-02 -3.656322136521339417e-02 2.152060903608798981e-02 -3.838485851883888245e-02
-9.425457566976547241e-03 -1.936960965394973755e-03 -6.402123719453811646e-03 -1.591990803717635572e-05 2.786966226994991302e-02 5.219862610101699829e-02 7.582582533359527588e-03 -3.001041011884808540e-03 4.487284459173679352e-03 5.490491539239883423e-02 9.625319391489028931e-02 8.392997086048126221e-02 7.577177137136459351e-02 5.703279003500938416e-02 -4.471661895513534546e-02 -5.728806927800178528e-02 -1.466694171540439129e-03 7.932771742343902588e-02 5.912050604820251465e-02 5.303207412362098694e-02 3.112374991178512573e-02 2.593982405960559845e-02 -1.200295635499060154e-03 3.554146736860275269e-02 3.479479253292083740e-02 -3.359024599194526672e-02 -2.098791860044002533e-02 3.300234675407409668e-04
-2.693030238151550293e-02 2.995971590280532837e-02 7.682729046791791916e-03 -2.222743816673755646e-02 -1.400566566735506058e-02 1.434673089534044266e-02 -7.907907478511333466e-03 1.130362972617149353e-02 2.258778363466262817e-02 1.646658591926097870e-02 1.085790991783142090e-01 1.118200495839118958e-01 6.532380729913711548e-02 -1.537728589028120041e-02 -9.674388566054403782e-04 -6.611430644989013672e-02 -3.620465518906712532e-03 4.308494552969932556e-02 8.841644227504730225e-02 1.466997414827346802e-01 8.889256417751312256e-02 4.583862796425819397e-02 3.581915050745010376e-02 5.295324325561523438e-02 3.682772070169448853e-02 -1.347716432064771652e-02 -3.326869755983352661e-02 -2.578835934400558472e-03
1.947410404682159424e-02 -5.658910609781742096e-03 2.001181617379188538e-02 -7.342768367379903793e-03 2.880004979670047760e-02 3.844292135909199715e-03 1.894174329936504364e-02 4.962746053934097290e-02 -1.024950016289949417e-02 2.349648997187614441e-02 8.161829411983489990e-02 9.129070490598678589e-02 5.224014818668365479e-02 -1.307583786547183990e-02 -7.245612144470214844e-02 -4.106334969401359558e-02 6.532846391201019287e-02 1.348861157894134521e-01 1.365251839160919189e-01 1.629400402307510376e-01 1.123538017272949219e-01 4.456086084246635437e-02 7.949080318212509155e-02 2.375520579516887665e-02 -7.073924876749515533e-03 6.464861216954886913e-04 3.290113806724548340e-02 -3.011054359376430511e-02
-3.305708244442939758e-02 2.444023080170154572e-02 1.342999655753374100e-02 3.967307135462760925e-02 4.308196157217025757e-02 2.619135193526744843e-02 5.453352630138397217e-02 6.436744332313537598e-02 5.505910888314247131e-02 5.553628131747245789e-02 3.849666565656661987e-02 -5.751255899667739868e-03 -3.074031881988048553e-02 -8.879102766513824463e-02 -6.313253194093704224e-02 -3.829824551939964294e-02 2.760291844606399536e-02 1.214428171515464783e-01 1.597763001918792725e-01 1.059196144342422485e-01 1.023505330085754395e-01 9.108594805002212524e-02 7.034893333911895752e-02 5.054024513810873032e-03 -2.135003544390201569e-02 -7.656792178750038147e-03 -1.438270229846239090e-02 1.539610326290130615e-03
-1.408204063773155212e-02 2.844260632991790771e-02 3.859856352210044861e-02 7.408983260393142700e-02 2.258493565022945404e-02 4.851660132408142090e-02 5.286862701177597046e-02 3.775787726044654846e-02 3.427551686763763428e-02 -5.511010065674781799e-02 -3.350198641419410706e-02 -1.045657992362976074e-01 -7.121431082487106323e-02 -1.052039265632629395e-01 -6.815520673990249634e-02 -3.715981543064117432e-02 3.775479644536972046e-02 1.373981088399887085e-01 1.458632647991180420e-01 1.164948716759681702e-01 6.817004829645156860e-02 3.431522101163864136e-02 3.080113232135772705e-02 3.176065906882286072e-02 2.916084136813879013e-03 -2.203379757702350616e-02 4.248155746608972549e-03 -1.868685521185398102e-02
-4.494322463870048523e-03 2.836839295923709869e-03 5.748441815376281738e-02 4.567639902234077454e-02 9.636704623699188232e-02 9.255943447351455688e-02 8.820509910583496094e-02 1.575798913836479187e-02 -3.897723928093910217e-02 -3.669626265764236450e-02 -5.355105176568031311e-02 -5.790056288242340088e-02 -1.063511148095130920e-01 -5.765862762928009033e-02 -6.341768801212310791e-02 2.441118843853473663e-02 2.950443699955940247e-02 1.256890147924423218e-01 5.569053441286087036e-02 7.081899046897888184e-02 1.339628454297780991e-02 4.314780607819557190e-02 1.749015599489212036e-02 -3.990005934610962868e-04 -4.065834451466798782e-03 6.313441786915063858e-03 2.038350515067577362e-02 2.499775402247905731e-02
-1.117929071187973022e-02 -1.283088419586420059e-02 4.940658062696456909e-02 4.360602051019668579e-02 1.105295568704605103e-01 5.354954674839973450e-02 6.926725059747695923e-02 1.648276858031749725e-02 3.439270704984664917e-02 -4.771951586008071899e-02 -4.776443168520927429e-02 -7.606182992458343506e-02 -6.841400265693664551e-02 -5.581897124648094177e-02 -1.131977047771215439e-02 -2.532642101868987083e-03 6.614965200424194336e-02 4.981022700667381287e-02 3.618400543928146362e-02 5.693935975432395935e-02 2.335706911981105804e-02 3.668660297989845276e-02 3.778645768761634827e-02 6.591346580535173416e-03 8.576092310249805450e-03 -4.127144813537597656e-02 -2.740756981074810028e-02 1.717507094144821167e-02
-4.543066024780273438e-04 -1.180632039904594421e-02 1.567562669515609741e-02 3.664422780275344849e-02 7.998305559158325195e-02 1.057731956243515015e-01 4.928846657276153564e-02 6.725504249334335327e-02 -4.824887495487928391e-03 -5.284571088850498199e-04 4.202805459499359131e-03 -4.647225514054298401e-02 -4.694106802344322205e-02 5.876007489860057831e-03 2.748150937259197235e-02 4.220034182071685791e-02 3.943835198879241943e-02 1.815945841372013092e-03 4.158409312367439270e-02 -2.326767519116401672e-02 2.819385193288326263e-02 2.770997956395149231e-02 2.237582392990589142e-02 -3.064022026956081390e-02 -2.586171962320804596e-03 -5.961039569228887558e-03 -1.152884401381015778e-02 1.022284850478172302e-02
-1.395956985652446747e-02 1.218398567289113998e-02 4.272168874740600586e-02 4.599275439977645874e-02 2.694508433341979980e-02 1.261605136096477509e-02 6.339059770107269287e-02 1.902974024415016174e-02 4.188438877463340759e-02 7.503082975745201111e-03 3.046594560146331787e-02 5.183136463165283203e-02 2.082827873528003693e-02 1.100371684879064560e-02 1.635251007974147797e-02 2.391815884038805962e-03 2.773774415254592896e-02 -1.308008003979921341e-02 3.931686806026846170e-04 1.963228546082973480e-02 -3.043446689844131470e-02 -5.036607384681701660e-03 -1.534210704267024994e-02 -3.261705487966537476e-02 3.265943378210067749e-04 -3.662263602018356323e-02 1.542821060866117477e-02 -2.737139537930488586e-02
-2.712271735072135925e-02 3.329510986804962158e-02 1.848149113357067108e-02 6.312190741300582886e-02 1.197805628180503845e-02 -1.357853505760431290e-02 3.018032573163509369e-02 4.408710077404975891e-02 6.615628302097320557e-02 4.522913321852684021e-02 5.800226703286170959e-02 9.892591089010238647e-02 7.929863035678863525e-02 8.951222896575927734e-02 7.416815310716629028e-02 1.682928577065467834e-02 4.064637422561645508e-02 1.201943028718233109e-02 -3.629955649375915527e-02 -3.900409210473299026e-03 -3.224325552582740784e-02 -1.476082671433687210e-02 2.045460231602191925e-02 -8.073804900050163269e-03 3.239773446694016457e-03 -1.754941418766975403e-02 -4.542169161140918732e-03 -3.387952968478202820e-02
-5.688978359103202820e-03 -1.694813370704650879e-02 2.568494156002998352e-02 4.804510995745658875e-02 3.124345652759075165e-02 2.966428548097610474e-02 -5.595491267740726471e-03 2.236439473927021027e-02 2.496508695185184479e-02 6.385817378759384155e-02 5.730101466178894043e-02 1.054026708006858826e-01 1.159730032086372375e-01 8.409108966588973999e-02 7.216903567314147949e-02 6.135525181889533997e-02 1.330974418669939041e-02 -2.053134702146053314e-02 2.025926299393177032e-02 -3.472483903169631958e-02 4.320417996495962143e-03 2.374545671045780182e-02 -1.282661966979503632e-02 -1.097833923995494843e-02 -3.673745086416602135e-03 3.230233117938041687e-02 -1.496456936001777649e-02 3.515442833304405212e-02
-1.349199563264846802e-03 -3.555340692400932312e-02 2.711095288395881653e-02 4.125715792179107666e-02 3.247609827667474747e-03 2.562795393168926239e-02 5.353798344731330872e-02 3.812018409371376038e-02 6.868922710418701172e-02 9.498847275972366333e-02 1.083980575203895569e-01 1.264951676130294800e-01 7.755817472934722900e-02 1.104444116353988647e-01 8.439732342958450317e-02 8.218013495206832886e-02 3.922453522682189941e-02 6.587004661560058594e-02 3.785290196537971497e-02 -2.534659812226891518e-03 4.383964464068412781e-02 4.048618301749229431e-02 1.929045654833316803e-02 -3.394964337348937988e-02 -3.333073854446411133e-02 2.244221232831478119e-02 2.175393141806125641e-02 -1.046408526599407196e-02
2.218013629317283630e-02 -2.269200049340724945e-02 2.409204281866550446e-02 -2.010418334975838661e-03 -1.052213367074728012e-02 -3.583944868296384811e-03 4.962766915559768677e-02 7.094535231590270996e-02 3.129184246063232422e-02 4.547991976141929626e-02 9.648159146308898926e-02 7.011792808771133423e-02 5.488635599613189697e-02 4.027080163359642029e-02 3.595399111509323120e-02 8.946023136377334595e-02 5.031358078122138977e-02 4.320305585861206055e-02 6.440264731645584106e-02 1.561832893639802933e-02 2.307024039328098297e-02 2.325422130525112152e-02 3.270374611020088196e-02 -3.137978166341781616e-02 3.071704134345054626e-02 3.168428316712379456e-02 8.312985301017761230e-05 2.287240698933601379e-02
1.837038993835449219e-02 -2.119468152523040771e-02 -4.944685846567153931e-03 1.261613145470619202e-02 -2.931582741439342499e-02 3.559697046875953674e-02 -1.650578156113624573e-02 -2.426884323358535767e-02 -2.157622203230857849e-02 1.562104001641273499e-02 -2.136053703725337982e-02 1.481250207871198654e-02 4.230804741382598877e-03 7.147338707000017166e-03 2.942787110805511475e-02 -6.666403263807296753e-03 -1.119541097432374954e-02 -7.674217689782381058e-03 -6.695140153169631958e-03 4.468517843633890152e-03 3.979120776057243347e-02 -4.387590568512678146e-03 3.487868234515190125e-02 -1.164725981652736664e-02 -2.572440356016159058e-02 2.208413928747177124e-02 -1.816459000110626221e-03 3.352134302258491516e-02
-3.291050344705581665e-02 -7.434688508510589600e-03 -2.895200811326503754e-02 2.801460400223731995e-02 -6.498657166957855225e-03 1.061386615037918091e-02 6.947834044694900513e-03 -1.942073181271553040e-02 -3.011867590248584747e-02 1.557555049657821655e-02 -2.196731790900230408e-02 2.925573661923408508e-02 6.139159202575683594e-03 -1.606996171176433563e-02 1.907642930746078491e-03 -1.421868056058883667e-02 -1.322514377534389496e-02 -2.908737398684024811e-02 2.482421323657035828e-02 -2.023494802415370941e-02 3.966800868511199951e-04 -2.168163657188415527e-02 1.157366484403610229e-02 -2.275995910167694092e-03 -1.930326223373413086e-03 -1.421264372766017914e-02 -1.648497208952903748e-02 1.144070178270339966e-03
