2.368843927979469299e-02 9.539391845464706421e-03 -1.525236107409000397e-02 -3.419157117605209351e-02 -3.345571830868721008e-02 -2.571132406592369080e-02 3.425785526633262634e-02 2.698079124093055725e-02 -1.333892904222011566e-02 -5.798578262329101562e-03 -2.188692428171634674e-02 2.677047625184059143e-02 3.016638383269309998e-02 -3.331527113914489746e-05 -1.577468588948249817e-02 -2.578391879796981812e-02 3.471590951085090637e-02 2.051629126071929932e-02 -3.912452608346939087e-03 2.769898995757102966e-02 1.744125038385391235e-02 -3.517775610089302063e-02 5.315244197845458984e-03 1.263411715626716614e-02 -1.919722184538841248e-02 1.075896248221397400e-02 3.400812670588493347e-02 -7.668428122997283936e-03
-3.510662540793418884e-02 -2.605128847062587738e-02 2.031116932630538940e-02 -2.956312522292137146e-02 1.915723457932472229e-02 -2.451812848448753357e-02 -4.922309890389442444e-03 2.965317294001579285e-02 1.397779211401939392e-02 1.787889748811721802e-03 -1.372401602566242218e-02 2.810867503285408020e-02 3.407393768429756165e-02 2.514221519231796265e-02 3.076809085905551910e-02 -9.999413974583148956e-03 3.844747692346572876e-02 -9.081440046429634094e-03 2.202108874917030334e-02 -3.051086887717247009e-02 -9.267807006835937500e-03 7.398076355457305908e-03 1.915367320179939270e-02 -1.500519365072250366e-02 -1.502979360520839691e-02 2.491278946399688721e-02 -1.163415424525737762e-02 2.486483752727508545e-02
3.069175407290458679e-02 -1.372535713016986847e-02 1.123981922864913940e-02 1.022967696189880371e-02 -1.566833257675170898e-02 -2.972151711583137512e-02 -2.780243009328842163e-02 -4.177015274763107300e-03 -8.858839049935340881e-03 4.821956157684326172e-03 -2.784725837409496307e-02 1.423069648444652557e-02 1.032050698995590210e-02 2.374731190502643585e-02 1.196955703198909760e-02 -9.926908649504184723e-03 5.236161500215530396e-02 -4.996331408619880676e-03 -1.881778426468372345e-02 8.153966628015041351e-03 2.847845107316970825e-02 1.331890001893043518e-02 1.832161471247673035e-02 2.580753341317176819e-02 -7.643077522516250610e-03 -2.827375754714012146e-02 -9.725447744131088257e-03 -2.084652148187160492e-02
3.142223879694938660e-02 -2.463067509233951569e-02 -1.571275666356086731e-02 7.552951574325561523e-03 2.841712534427642822e-02 -4.464932531118392944e-02 -4.764063283801078796e-02 9.381343610584735870e-03 -3.448985144495964050e-02 -8.725007064640522003e-03 -1.719412207603454590e-02 -6.928164511919021606e-02 -1.296913251280784607e-02 2.755605615675449371e-02 1.330975349992513657e-02 1.113649643957614899e-02 2.925644069910049438e-02 7.479550782591104507e-03 9.774463251233100891e-03 2.379623800516128540e-02 1.014159526675939560e-02 7.832957431674003601e-03 -2.767802774906158447e-02 -1.777667365968227386e-02 1.481659710407257080e-04 -2.774922549724578857e-02 -3.424068912863731384e-02 2.829844877123832703e-02
-4.828019067645072937e-03 2.766478573903441429e-03 1.837385818362236023e-02 2.929616346955299377e-02 2.200603857636451721e-02 -1.714308932423591614e-02 -3.248374909162521362e-02 -5.138749256730079651e-02 -3.011651337146759033e-02 -3.686707466840744019e-02 -1.874020509421825409e-02 -3.581443056464195251e-02 1.192618627101182938e-02 6.527761369943618774e-02 3.928081318736076355e-02 5.486387386918067932e-02 1.937595568597316742e-02 4.949758574366569519e-02 6.159156560897827148e-02 7.598371058702468872e-02 4.233746975660324097e-02 1.003227308392524719e-01 7.019541412591934204e-02 6.778373569250106812e-02 4.841516539454460144e-02 1.286588609218597412e-02 1.767449080944061279e-02 -1.809614524245262146e-02
7.265526801347732544e-03 3.432270511984825134e-02 3.329852828755974770e-03 1.268388610333204269e-02 -5.407854914665222168e-02 -2.210968546569347382e-02 -5.604488030076026917e-02 -1.381122786551713943e-02 -7.629430387169122696e-03 -2.847116999328136444e-02 -2.895715460181236267e-02 -9.581277146935462952e-03 4.664559848606586456e-03 -1.283167395740747452e-03 3.539982438087463379e-02 7.242579758167266846e-02 7.171169668436050415e-02 7.220863550901412964e-02 5.256262421607971191e-02 1.013719141483306885e-01 8.427927643060684204e-02 5.093904957175254822e-02 4.796092584729194641e-02 3.672168031334877014e-02 3.786993399262428284e-02 2.636353019624948502e-03 -1.600597985088825226e-02 -2.283504232764244080e-02
-2.193083241581916809e-02 2.821721322834491730e-02 2.383937127888202667e-02 5.868215113878250122e-03 -6.379211694002151489e-02 -1.651390641927719116e-02 -2.013674564659595490e-02 -4.845491796731948853e-02 -5.694482848048210144e-02 -7.566210627555847168e-02 -8.662679046392440796e-02 -7.057666033506393433e-02 -1.684455573558807373e-02 -2.844383753836154938e-02 -3.612011671066284180e-03 1.625426928512752056e-03 1.149872038513422012e-02 6.156961619853973389e-02 6.551326066255569458e-02 2.998546510934829712e-02 8.158969134092330933e-02 5.490600317716598511e-02 7.571005076169967651e-02 4.283622279763221741e-02 4.018801078200340271e-02 3.219050820916891098e-03 1.587739214301109314e-02 1.489201188087463379e-02
4.498392343521118164e-03 -2.340262569487094879e-02 -2.045598113909363747e-03 -2.947480231523513794e-02 -7.718866318464279175e-02 -7.073140144348144531e-02 -5.225220695137977600e-02 -7.887352257966995239e-02 -7.836010307073593140e-02 -4.714279249310493469e-02 -8.741310983896255493e-02 -3.201118111610412598e-02 1.932675391435623169e-02 -4.291235934942960739e-03 7.905875891447067261e-02 8.368333429098129272e-02 4.883466660976409912e-02 2.087954059243202209e-02 4.240886121988296509e-02 4.682082310318946838e-02 6.418680772185325623e-03 -5.322086624801158905e-03 1.462911069393157959e-02 6.867677439004182816e-03 3.643483668565750122e-02 1.444927137345075607e-02 -9.728309698402881622e-03 3.172110766172409058e-03
7.516629993915557861e-03 2.269293367862701416e-02 -4.544604197144508362e-02 -3.271088004112243652e-02 -6.390544027090072632e-02 -4.799251630902290344e-02 -5.950454622507095337e-02 -9.192883223295211792e-02 -6.658463180065155029e-02 -5.194891989231109619e-02 -5.707696825265884399e-02 -4.349148645997047424e-02 5.876386910676956177e-02 9.543399512767791748e-02 1.462866514921188354e-01 8.970522135496139526e-02 6.884771585464477539e-02 7.316704839468002319e-02 1.057079806923866272e-02 -7.906867191195487976e-03 -2.772071585059165955e-02 -1.365687791258096695e-02 2.617771178483963013e-02 1.365308091044425964e-02 4.257217794656753540e-02 1.900373771786689758e-02 -3.260263428092002869e-02 1.512334495782852173e-02
1.012906432151794434e-02 -2.683175541460514069e-02 -2.007413282990455627e-02 -5.752347782254219055e-02 -6.117438152432441711e-02 -1.989256590604782104e-02 -6.754984706640243530e-02 -4.928024113178253174e-02 -1.937974058091640472e-02 -7.449101656675338745e-03 -4.774079844355583191e-02 4.260414093732833862e-02 7.219900935888290405e-02 1.616884768009185791e-01 1.716542840003967285e-01 1.596078127622604370e-01 1.113833636045455933e-01 4.393700510263442993e-02 4.238566011190414429e-02 -4.392440244555473328e-02 -2.266155742108821869e-02 -9.475692175328731537e-03 -4.845730587840080261e-02 -1.103230100125074387e-02 1.671748608350753784e-02 -3.392707929015159607e-02 -1.184967067092657089e-02 1.808236166834831238e-02
2.377771213650703430e-02 -6.794266519136726856e-04 -1.908071339130401611e-02 -1.046157162636518478e-02 -1.199012994766235352e-02 -3.266650438308715820e-02 -2.473973482847213745e-02 -4.858231544494628906e-02 -2.569176815450191498e-02 -3.650312498211860657e-02 2.848480455577373505e-02 9.796416386961936951e-03 1.188153773546218872e-01 1.909689307212829590e-01 1.764974147081375122e-01 2.035686671733856201e-01 6.229146197438240051e-02 5.768240988254547119e-02 -5.442488938570022583e-02 -6.059269420802593231e-03 -5.633830651640892029e-02 -5.956903845071792603e-02 -1.978852413594722748e-02 1.989703439176082611e-02 3.677951544523239136e-02 3.114725463092327118e-02 -2.657686546444892883e-02 3.164964541792869568e-02
7.994238287210464478e-03 -2.537857927381992340e-02 4.501404706388711929e-03 -3.077577240765094757e-02 -4.289636854082345963e-03 -1.693607866764068604e-02 -1.949822716414928436e-02 -4.214956983923912048e-02 1.558028347790241241e-02 7.830124348402023315e-03 2.562473528087139130e-02 -1.444529369473457336e-02 4.499816522002220154e-02 1.257717907428741455e-01 1.710353195667266846e-01 1.520262658596038818e-01 8.087208122014999390e-02 -5.361779592931270599e-03 -1.355275046080350876e-02 -5.754629150032997131e-02 -3.342500329017639160e-02 -7.221531122922897339e-02 1.637786254286766052e-02 2.243570610880851746e-02 1.803976297378540039e-02 3.557254001498222351e-02 4.021873325109481812e-02 1.760897412896156311e-02
-3.510316088795661926e-02 -2.168484264984726906e-03 -9.689847938716411591e-03 7.685700897127389908e-03 1.328932214528322220e-02 -3.719229623675346375e-02 -3.239156305789947510e-02 -4.665289889089763165e-04 7.195730693638324738e-03 -2.990172244608402252e-02 -4.141349345445632935e-03 -1.497600600123405457e-02 2.523422427475452423e-02 1.041673570871353149e-01 1.853720396757125854e-01 1.576614528894424438e-01 1.119183450937271118e-01 9.677309542894363403e-03 -9.091281145811080933e-02 -9.061863273382186890e-02 -3.806623071432113647e-02 -4.160740971565246582e-02 -4.166128113865852356e-02 1.171677466481924057e-02 -2.910214290022850037e-02 2.788267098367214203e-02 8.747626096010208130e-03 3.044273704290390015e-02
-7.496968843042850494e-03 3.671444952487945557e-03 6.436263211071491241e-03 1.492429710924625397e-02 3.262593969702720642e-02 -4.007825255393981934e-02 -1.905289292335510254e-02 -1.967803016304969788e-02 2.983741462230682373e-02 -2.094717137515544891e-02 -5.830062925815582275e-02 -1.204062402248382568e-01 -6.157712638378143311e-02 1.389324963092803955e-01 1.728961616754531860e-01 1.597057729959487915e-01 7.867994904518127441e-02 -4.643810167908668518e-02 -1.185400709509849548e-01 -8.082101494073867798e-02 -9.115238487720489502e-02 -5.366254132241010666e-03 -3.339996561408042908e-02 -3.500018268823623657e-02 -1.717723160982131958e-02 2.674953453242778778e-02 -2.450424432754516602e-02 -1.876300573348999023e-02
-9.481554850935935974e-03 1.323577295988798141e-02 2.853884547948837280e-02 -2.571289613842964172e-02 -3.716120496392250061e-02 6.420225836336612701e-03 -5.591871216893196106e-02 -4.161369428038597107e-02 -2.795616351068019867e-02 -6.681285798549652100e-02 -8.066433668136596680e-02 -1.103392764925956726e-01 2.019214257597923279e-02 1.532738506793975830e-01 2.287920713424682617e-01 1.504839360713958740e-01 6.787019968032836914e-02 -7.240073382854461670e-02 -9.702517837285995483e-02 -1.059734523296356201e-01 -1.001213416457176208e-01 -5.435863137245178223e-02 -7.954476028680801392e-02 -3.455422073602676392e-02 4.438096657395362854e-03 2.475611306726932526e-02 3.757235780358314514e-02 -7.895797491073608398e-03
1.220621541142463684e-02 -2.488674595952033997e-02 -3.964228183031082153e-02 -1.652298495173454285e-02 -2.228595502674579620e-02 -1.331727299839258194e-02 -6.564881652593612671e-02 -5.043448880314826965e-02 -5.489125847816467285e-03 -4.839097335934638977e-02 -9.495836496353149414e-02 -7.360795885324478149e-02 8.310276269912719727e-02 1.587348729372024536e-01 2.471655756235122681e-01 1.661060899496078491e-01 3.716284036636352539e-02 -1.149407997727394104e-01 -1.535574793815612793e-01 -1.357072591781616211e-01 -1.405165195465087891e-01 -6.281735002994537354e-02 -5.526531487703323364e-02 -2.359465695917606354e-02 -3.704857081174850464e-02 -3.065725974738597870e-02 2.009107498452067375e-03 2.746805921196937561e-02
3.050165995955467224e-02 -9.650867432355880737e-03 1.263551227748394012e-02 -2.523697353899478912e-02 -2.602107450366020203e-02 -5.330532416701316833e-02 -1.071389019489288330e-02 -8.843462914228439331e-03 -3.518363460898399353e-02 -3.136141598224639893e-02 9.507202543318271637e-03 6.041666120290756226e-02 1.034930869936943054e-01 2.060478180646896362e-01 2.591006159782409668e-01 1.201247274875640869e-01 -4.739139601588249207e-02 -1.601650714874267578e-01 -1.682540327310562134e-01 -1.469043046236038208e-01 -1.022106483578681946e-01 -6.615054607391357422e-02 -3.437731787562370300e-02 -6.136129423975944519e-02 -7.141030859202146530e-03 -3.032760135829448700e-02 3.655310347676277161e-02 3.100269660353660583e-02
-1.828773692250251770e-02 -7.167754229158163071e-03 -8.523472584784030914e-03 -1.715891063213348389e-02 -5.314385518431663513e-02 -5.094686523079872131e-02 -7.473902404308319092e-02 -2.516399510204792023e-02 8.099858649075031281e-03 1.582587324082851410e-02 7.541183382272720337e-02 1.569101512432098389e-01 1.686198711395263672e-01 2.497090101242065430e-01 2.450875937938690186e-01 9.991651773452758789e-02 -7.061552256345748901e-03 -1.008237376809120178e-01 -1.265175789594650269e-01 -9.542465955018997192e-02 -5.427217856049537659e-02 -7.164078205823898315e-02 -2.600708976387977600e-02 -1.817687042057514191e-02 1.879517361521720886e-02 4.066115990281105042e-02 3.979085013270378113e-02 3.831171989440917969e-02
1.652166247367858887e-02 -1.611912623047828674e-02 -5.314995348453521729e-02 -7.488538324832916260e-02 -4.925949871540069580e-02 -5.781849846243858337e-02 -8.503384888172149658e-02 -3.525341674685478210e-02 1.769791170954704285e-02 8.703015744686126709e-02 1.371731907129287720e-01 1.912236362695693970e-01 2.283651381731033325e-01 2.085621803998947144e-01 1.446854770183563232e-01 6.468290090560913086e-02 2.034972654655575752e-03 -8.387520909309387207e-02 -1.047964319586753845e-01 -1.033091992139816284e-01 -5.000326782464981079e-02 8.099119178950786591e-03 1.214073132723569870e-02 4.017014987766742706e-03 4.805187694728374481e-03 -1.007439568638801575e-02 3.436108306050300598e-02 3.821253776550292969e-02
-1.775005273520946503e-02 1.333792321383953094e-02 -5.928694829344749451e-02 -5.960490554571151733e-02 -1.122241243720054626e-01 -1.109739020466804504e-01 -5.983979254961013794e-02 -8.656525053083896637e-03 3.732996806502342224e-02 9.939458966255187988e-02 1.233753710985183716e-01 1.330922991037368774e-01 1.480910181999206543e-01 1.739337295293807983e-01 1.703662127256393433e-01 4.578602686524391174e-02 -2.841456234455108643e-02 -6.875868141651153564e-02 -8.678885549306869507e-02 -6.024535372853279114e-02 7.240364793688058853e-03 -3.051450289785861969e-02 -2.655801177024841309e-02 -3.010499291121959686e-03 -1.704230159521102905e-02 2.533580176532268524e-02 -1.485619787126779556e-02 -2.160706371068954468e-02
-7.363000884652137756e-03 9.269868023693561554e-03 -3.299473598599433899e-02 -4.208694770932197571e-02 -9.335651248693466187e-02 -7.754623889923095703e-02 -8.419732749462127686e-02 -1.009341981261968613e-02 -4.722848534584045410e-03 5.949667468667030334e-02 1.288711875677108765e-01 1.131398156285285950e-01 1.453647613525390625e-01 1.080762818455696106e-01 1.105886995792388916e-01 2.972960844635963440e-02 1.074109971523284912e-02 1.614893227815628052e-02 1.075241947546601295e-03 1.947055011987686157e-02 9.338410571217536926e-03 1.154523622244596481e-02 -1.715455576777458191e-02 4.042515903711318970e-02 4.585008323192596436e-02 -8.092802017927169800e-03 2.259013475850224495e-03 3.249677270650863647e-02
-7.435313891619443893e-03 -3.915370628237724304e-02 -1.144021283835172653e-02 -4.498238861560821533e-02 -6.613630801439285278e-02 -3.538021072745323181e-02 -4.177781939506530762e-02 1.881452277302742004e-02 2.126006409525871277e-02 2.743506245315074921e-02 1.013323366641998291e-01 5.630429834127426147e-02 1.175784841179847717e-01 9.437987208366394043e-02 8.030247688293457031e-02 2.802394889295101166e-02 3.384440019726753235e-02 -6.630909163504838943e-03 -2.310429699718952179e-04 -1.171806943602859974e-03 1.252135355025529861e-02 -5.799417383968830109e-03 -3.080044686794281006e-02 1.469470001757144928e-02 4.501504451036453247e-02 -1.826568879187107086e-02 2.745056524872779846e-02 -2.157160639762878418e-02
3.630140051245689392e-02 -1.313869375735521317e-02 -1.722933538258075714e-02 -6.260945647954940796e-02 -4.678027704358100891e-02 2.012355998158454895e-02 -3.694293648004531860e-02 -1.461007632315158844e-02 4.796868935227394104e-02 -1.023756992071866989e-02 6.020949780941009521e-02 4.599161446094512939e-02 2.579109184443950653e-02 6.199495494365692139e-02 7.579560577869415283e-02 3.556986898183822632e-02 7.282234728336334229e-02 5.790426209568977356e-02 3.721385821700096130e-02 -1.458051614463329315e-02 4.559607803821563721e-02 -1.115426793694496155e-02 -3.249762952327728271e-02 2.135238237679004669e-02 2.705516526475548744e-03 -5.095336120575666428e-03 2.312673442065715790e-02 3.434187546372413635e-02
-5.502626299858093262e-04 -1.736300066113471985e-02 -1.232790574431419373e-02 -5.527353496290743351e-04 -5.057760700583457947e-02 -2.143764682114124298e-02 2.585336565971374512e-02 8.945942856371402740e-03 -1.665079907979816198e-04 -2.262777462601661682e-02 -1.568028330802917480e-02 -6.031711585819721222e-03 2.866438962519168854e-02 -8.895399980247020721e-03 6.518435478210449219e-02 5.223684385418891907e-02 7.769159972667694092e-02 4.790290445089340210e-02 2.641325816512107849e-02 -9.753564372658729553e-03 -2.334027551114559174e-03 -5.426739342510700226e-03 3.041176311671733856e-02 -2.341987378895282745e-02 -3.180538490414619446e-02 2.035929635167121887e-02 2.595569379627704620e-02 2.627426385879516602e-02
-2.000811696052551270e-02 1.867042109370231628e-02 -5.374396278057247400e-05 1.182622369378805161e-02 -4.676379635930061340e-02 -1.054438576102256775e-02 -1.384346513077616692e-03 9.715680498629808426e-04 -5.572909954935312271e-03 1.769640715792775154e-03 -3.443334624171257019e-02 -3.858243301510810852e-02 -1.911956444382667542e-02 -5.377291887998580933e-02 -4.753005923703312874e-04 1.495866756886243820e-02 5.556562915444374084e-03 -3.840235993266105652e-02 1.074317470192909241e-02 -1.061017066240310669e-02 -2.771341800689697266e-02 -1.105444389395415783e-03 -1.922282273881137371e-03 5.697563290596008301e-03 -1.893711648881435394e-02 -2.449998259544372559e-02 4.749577492475509644e-03 -1.706712320446968079e-02
1.514492183923721313e-02 2.253022789955139160e-02 -1.419536862522363663e-02 1.215918827801942825e-02 -1.400687731802463531e-02 -2.508294209837913513e-02 -1.611915067769587040e-03 -7.591659575700759888e-02 -1.514128595590591431e-02 -2.976652979850769043e-02 -8.789321035146713257e-02 -4.025156795978546143e-02 -8.207023143768310547e-02 -6.338471919298171997e-02 -7.994112372398376465e-02 -7.756516337394714355e-02 -6.463245302438735962e-02 -4.949614778161048889e-02 -4.005882143974304199e-02 -5.452680215239524841e-02 -5.010504275560379028e-02 1.963515765964984894e-02 -2.481085620820522308e-02 2.266597747802734375e-02 -4.078224301338195801e-04 -3.527722880244255066e-02 2.078261598944664001e-02 6.595626473426818848e-04
3.550383076071739197e-02 1.754597201943397522e-02 4.598580300807952881e-03 2.503627166152000427e-02 2.242467738687992096e-02 -2.945231460034847260e-02 1.467670686542987823e-02 -1.464886963367462158e-02 -4.322573542594909668e-02 -3.230530070140957832e-03 -1.370331458747386932e-02 -1.068377122282981873e-02 -4.391528666019439697e-02 -4.209567606449127197e-02 -6.724854465574026108e-03 2.050065062940120697e-02 -4.205723106861114502e-02 -2.621147409081459045e-02 -4.867554083466529846e-02 -4.845503717660903931e-02 -1.245397608727216721e-02 -1.451731380075216293e-02 -3.003803081810474396e-02 2.721386775374412537e-02 -1.666206121444702148e-02 -2.918299287557601929e-02 -1.798844337463378906e-02 -4.956023767590522766e-03
1.190542057156562805e-02 7.219556719064712524e-03 3.682933747768402100e-03 -8.613778278231620789e-03 2.146683633327484131e-03 -9.112464264035224915e-03 2.792980894446372986e-02 3.390878066420555115e-02 2.623924240469932556e-02 1.331363618373870850e-02 -2.143790572881698608e-02 1.258291304111480713e-03 -2.617549523711204529e-02 -2.981375157833099365e-02 -2.804753370583057404e-02 2.643843367695808411e-02 -3.359587490558624268e-02 -6.675809621810913086e-03 3.482684865593910217e-02 1.698287948966026306e-02 2.147465944290161133e-03 2.017166092991828918e-02 -3.363125026226043701e-02 7.728323340415954590e-03 1.145801320672035217e-02 2.691167965531349182e-02 1.689738407731056213e-02 -8.428148925304412842e-03
