1.207692921161651611e-02 -2.119557559490203857e-02 5.312737077474594116e-03 -3.377597779035568237e-03 -2.854459360241889954e-02 2.367449179291725159e-02 -2.088889107108116150e-02 -2.880920842289924622e-02 -2.602143958210945129e-02 -2.586100436747074127e-02 -3.137153387069702148e-02 3.054926171898841858e-02 -5.372175946831703186e-03 -3.314565867185592651e-03 5.956765264272689819e-03 -1.217138022184371948e-02 3.301209583878517151e-02 -3.283771872520446777e-02 2.480421215295791626e-03 -4.723392426967620850e-03 3.368771448731422424e-02 1.467414945363998413e-02 9.613737463951110840e-03 3.395334258675575256e-02 3.352284803986549377e-02 2.283867448568344116e-03 -1.027002185583114624e-02 -2.140307985246181488e-02
-1.706251129508018494e-02 2.439618110656738281e-02 5.709227174520492554e-03 -1.129890047013759613e-02 6.984546780586242676e-04 3.396065905690193176e-02 1.241298764944076538e-02 -2.258597686886787415e-02 1.108132302761077881e-02 -1.250548474490642548e-02 8.402463048696517944e-03 2.979168668389320374e-02 -1.084777712821960449e-02 3.216346725821495056e-02 1.883124746382236481e-02 -1.030326075851917267e-02 9.928794577717781067e-03 -2.253437973558902740e-02 3.374483063817024231e-02 1.657655835151672363e-02 3.462662175297737122e-02 1.863292977213859558e-02 1.771703734993934631e-02 -1.539512723684310913e-02 2.994017675518989563e-02 1.417440921068191528e-02 -1.361029036343097687e-02 2.001208439469337463e-02
2.721614018082618713e-02 1.400436460971832275e-02 6.131038069725036621e-03 -6.513416767120361328e-03 -3.158523887395858765e-02 -1.470327004790306091e-02 -2.087690681219100952e-02 5.782939493656158447e-03 -9.048653766512870789e-03 -6.192756816744804382e-03 2.461409941315650940e-02 1.169497612863779068e-02 1.938025280833244324e-02 -9.643818251788616180e-03 -4.636329039931297302e-02 1.222294755280017853e-02 1.868342794477939606e-02 1.182384695857763290e-02 -1.495583355426788330e-02 1.458431826904416084e-03 -8.069244213402271271e-03 -3.685902804136276245e-03 -2.333495579659938812e-02 3.331423923373222351e-02 -3.008251637220382690e-02 3.559613600373268127e-02 1.387538760900497437e-02 -1.793473213911056519e-02
-1.723234727978706360e-02 1.141135394573211670e-02 3.047982975840568542e-02 5.619633942842483521e-03 -1.480062305927276611e-02 1.779543608427047729e-02 3.097135387361049652e-02 3.315830975770950317e-02 2.468476258218288422e-02 3.852699324488639832e-02 2.655659243464469910e-02 6.169848889112472534e-02 2.311041578650474548e-02 1.437788922339677811e-02 5.194123834371566772e-03 -1.383649650961160660e-02 -2.377027831971645355e-02 2.734927274286746979e-02 4.775377456098794937e-03 4.007110744714736938e-02 2.819668501615524292e-02 -2.486957237124443054e-02 -1.163452770560979843e-02 -2.689872682094573975e-02 -1.691767200827598572e-02 -7.373664528131484985e-03 2.581991255283355713e-03 -2.525852061808109283e-02
1.155015453696250916e-02 -2.603616751730442047e-02 3.829183755442500114e-03 -1.962231285870075226e-02 1.534673850983381271e-02 -1.283850579056888819e-04 -4.169226158410310745e-03 -1.954313833266496658e-03 2.921583689749240875e-02 5.064252391457557678e-02 -6.560533773154020309e-03 2.744564786553382874e-02 3.892617067322134972e-03 4.922884702682495117e-02 5.691080819815397263e-03 3.750830888748168945e-02 4.612518846988677979e-02 1.946880668401718140e-02 3.742749337106943130e-03 1.341623160988092422e-02 -3.831925243139266968e-02 -4.556497558951377869e-02 -6.666626036167144775e-02 -3.452413156628608704e-02 -4.963389784097671509e-02 1.605544239282608032e-02 2.619379013776779175e-02 -1.167712174355983734e-02
2.297729253768920898e-02 1.203930005431175232e-02 -1.022797427140176296e-03 2.940976247191429138e-02 2.330578304827213287e-02 2.397264167666435242e-02 2.679837343748658895e-04 5.104928836226463318e-02 5.068143829703330994e-02 5.972373113036155701e-02 4.426597431302070618e-02 5.400888249278068542e-02 7.333779335021972656e-02 3.619686141610145569e-02 6.011401489377021790e-02 8.054844290018081665e-02 3.997589647769927979e-02 2.665025740861892700e-02 3.972840309143066406e-02 -2.240779250860214233e-02 -2.909526042640209198e-02 -5.482344701886177063e-02 -8.101721853017807007e-02 -6.398280709981918335e-02 -6.459019333124160767e-02 -1.114518288522958755e-02 8.319573476910591125e-03 -1.542677357792854309e-02
6.980691105127334595e-03 -8.139793761074542999e-03 -2.341800555586814880e-02 1.369908172637224197e-02 1.361357606947422028e-02 4.110567644238471985e-02 3.429935500025749207e-02 8.163086324930191040e-02 4.042072966694831848e-02 9.825257211923599243e-02 5.963600054383277893e-02 1.012870669364929199e-01 9.941588342189788818e-02 9.382144361734390259e-02 1.096848770976066589e-01 1.019736975431442261e-01 7.724132388830184937e-02 1.079691499471664429e-01 3.925900161266326904e-02 2.709896536543965340e-03 -1.227936428040266037e-02 -3.498244658112525940e-02 -1.284550759010016918e-03 -6.577774137258529663e-02 -4.139784350991249084e-02 4.944886080920696259e-03 -2.483325824141502380e-02 -1.580646261572837830e-02
-3.500457108020782471e-02 -1.996395923197269440e-02 4.328589513897895813e-02 4.402993246912956238e-02 7.329520583152770996e-02 5.753630772233009338e-02 7.225948572158813477e-02 3.626185283064842224e-02 7.637210935354232788e-02 5.452958494424819946e-02 7.799796760082244873e-02 6.055000051856040955e-02 2.292647957801818848e-02 7.105709612369537354e-02 8.638441562652587891e-02 8.245949447154998779e-02 7.776536047458648682e-02 8.416195213794708252e-02 5.346998199820518494e-02 9.038423188030719757e-03 3.197645768523216248e-02 -1.326984167098999023e-02 8.251165039837360382e-03 -5.083099752664566040e-02 6.166653241962194443e-03 1.821134053170681000e-02 -2.312752604484558105e-02 -3.452979028224945068e-03
8.995212614536285400e-03 -3.909592051059007645e-03 3.009885177016258240e-02 5.117918923497200012e-02 3.161365538835525513e-02 5.468619614839553833e-02 3.377848118543624878e-02 5.753097310662269592e-02 5.329236015677452087e-02 5.583210662007331848e-02 6.309378147125244141e-02 1.486357086832867935e-05 1.904090307652950287e-02 -3.947238251566886902e-02 -1.867436803877353668e-02 3.793640807271003723e-02 3.655752912163734436e-02 7.585950195789337158e-02 6.730790436267852783e-02 4.106206074357032776e-02 2.084890007972717285e-02 5.393149331212043762e-02 1.659868750721216202e-03 -2.419023774564266205e-02 -2.357531152665615082e-02 2.728476747870445251e-02 -5.888674408197402954e-03 1.020399108529090881e-02
3.763284534215927124e-03 -2.295864187180995941e-02 3.161330893635749817e-02 3.470616042613983154e-02 7.396496832370758057e-02 7.860770821571350098e-02 5.743990838527679443e-02 2.308602631092071533e-02 3.116772510111331940e-02 2.616564184427261353e-02 4.839466884732246399e-02 1.205406035296618938e-03 -2.100910805165767670e-02 -8.541236072778701782e-02 -3.695916756987571716e-02 -5.694309249520301819e-02 9.807060472667217255e-03 5.852075293660163879e-02 4.004672542214393616e-02 4.709333553910255432e-02 8.068782091140747070e-02 6.091655045747756958e-02 5.158643051981925964e-02 4.374698176980018616e-02 1.655572280287742615e-02 2.492610551416873932e-02 -3.151231259107589722e-02 2.986216172575950623e-02
-3.120532818138599396e-02 -2.753784134984016418e-02 2.271726028993725777e-03 2.742174547165632248e-03 4.012516885995864868e-02 2.350067719817161560e-02 5.024946480989456177e-02 -7.558372803032398224e-03 2.198638953268527985e-02 -1.830540224909782410e-02 1.841181516647338867e-02 -4.891249537467956543e-02 -6.404486298561096191e-02 -9.863848239183425903e-02 -3.370825573801994324e-02 -1.509356405586004257e-02 1.611239276826381683e-02 4.647128283977508545e-02 5.170698463916778564e-02 5.970148369669914246e-02 9.046141058206558228e-02 3.257421776652336121e-02 4.445685818791389465e-02 -1.467119809240102768e-02 2.321670018136501312e-02 -2.963002584874629974e-02 7.667658384889364243e-03 -1.853885129094123840e-02
6.661027669906616211e-03 1.108229532837867737e-02 1.247537322342395782e-02 4.020233824849128723e-02 -8.503423072397708893e-03 8.807307109236717224e-03 3.769410029053688049e-02 -1.461135596036911011e-02 -8.359006606042385101e-03 1.334611140191555023e-02 1.748240925371646881e-02 -2.786835283041000366e-02 -1.918379776179790497e-02 -5.172846466302871704e-02 -3.318974375724792480e-02 -9.476667270064353943e-03 5.438769701868295670e-03 3.981222212314605713e-02 9.522362798452377319e-02 8.556307852268218994e-02 7.327293604612350464e-02 3.481956943869590759e-02 -1.884987764060497284e-02 -6.102482788264751434e-03 -1.162482332438230515e-02 -1.519163232296705246e-02 -1.779306679964065552e-02 -2.705250494182109833e-02
1.384782791137695312e-02 2.679720893502235413e-02 -5.919800605624914169e-03 3.738551959395408630e-02 -1.860265247523784637e-02 -7.705707568675279617e-03 1.321559399366378784e-02 1.542807649821043015e-02 -6.589922588318586349e-03 -1.317329425364732742e-02 1.754741300828754902e-03 2.004580385982990265e-02 1.299925427883863449e-02 2.877834998071193695e-02 1.037562359124422073e-02 -3.006861917674541473e-02 1.840474084019660950e-02 9.585567563772201538e-02 6.375453621149063110e-02 6.298560649156570435e-02 6.955322623252868652e-02 5.052716284990310669e-02 -8.474362082779407501e-03 -2.304858295246958733e-03 -1.904967240989208221e-02 9.570721304044127464e-04 -3.702377527952194214e-02 -1.692589744925498962e-02
-3.288413584232330322e-02 -1.476513594388961792e-02 3.967789467424154282e-03 -5.986703094094991684e-03 2.114572562277317047e-03 1.964517170563340187e-03 2.461136691272258759e-02 -8.024101145565509796e-03 4.014927148818969727e-02 5.556589737534523010e-02 6.423773616552352905e-02 5.545962229371070862e-02 8.541569113731384277e-02 2.847430063411593437e-03 -2.980531658977270126e-03 -3.741002827882766724e-02 1.766362227499485016e-02 6.525082886219024658e-02 8.951769769191741943e-02 1.155462563037872314e-01 8.130266517400741577e-02 -3.039362141862511635e-03 -2.394058275967836380e-03 1.918703503906726837e-02 1.242360658943653107e-02 1.891454868018627167e-02 5.780427716672420502e-03 -5.581788718700408936e-04
-1.759267412126064301e-02 2.457045763731002808e-02 -9.282600134611129761e-03 4.582627676427364349e-03 4.287923802621662617e-04 4.705896973609924316e-02 -7.448425982147455215e-03 3.619967028498649597e-02 7.591155357658863068e-03 6.165917590260505676e-02 6.123998016119003296e-02 8.841924369335174561e-02 9.421610087156295776e-02 1.299770781770348549e-03 -1.677051559090614319e-02 -2.618541195988655090e-02 5.414258921518921852e-04 1.048603877425193787e-01 1.361792981624603271e-01 1.059191524982452393e-01 5.056970193982124329e-02 8.025199174880981445e-02 5.884330347180366516e-02 -1.317487284541130066e-02 1.775792054831981659e-02 3.032473474740982056e-02 1.511274557560682297e-02 3.115798160433769226e-02
-1.891865953803062439e-02 -6.578732863999903202e-04 -2.556707337498664856e-02 3.477306663990020752e-02 1.472714543342590332e-02 4.339738935232162476e-02 1.481421012431383133e-02 -9.398506022989749908e-03 1.247679069638252258e-02 3.661087900400161743e-02 8.476649969816207886e-02 5.874408036470413208e-02 4.715193435549736023e-02 -6.039651110768318176e-02 -5.038348585367202759e-02 -5.326814204454421997e-02 7.209485769271850586e-02 1.105269417166709900e-01 1.025239899754524231e-01 1.465751230716705322e-01 1.421751081943511963e-01 5.340490862727165222e-02 5.686052516102790833e-02 2.181139029562473297e-02 6.790341343730688095e-03 5.714328144676983356e-04 2.673568204045295715e-02 -2.663947083055973053e-02
3.205605968832969666e-02 -4.796422086656093597e-03 1.782740838825702667e-02 4.308047145605087280e-02 1.907573197968304157e-03 6.672938168048858643e-02 4.652059823274612427e-02 3.448548167943954468e-02 4.607443511486053467e-02 1.074012089520692825e-02 3.167106211185455322e-02 -6.546065676957368851e-03 -4.569690302014350891e-02 -3.179611638188362122e-02 -6.378085166215896606e-02 -7.013088464736938477e-02 1.763878203928470612e-02 1.146792098879814148e-01 1.248833164572715759e-01 9.876855462789535522e-02 8.444409817457199097e-02 4.517247527837753296e-02 8.541789650917053223e-02 6.200530752539634705e-02 2.409161999821662903e-02 5.127900745719671249e-03 -5.445587448775768280e-03 3.402386233210563660e-02
-2.731377817690372467e-02 -6.761733442544937134e-03 -1.435181777924299240e-02 4.182408004999160767e-02 4.322260990738868713e-02 7.366894930601119995e-02 5.574316531419754028e-02 3.835966065526008606e-02 -3.007489023730158806e-03 8.361139334738254547e-03 -3.609015420079231262e-02 -5.375286191701889038e-02 -7.309989631175994873e-02 -1.116416901350021362e-01 -1.070785969495773315e-01 -4.211015254259109497e-02 3.233856707811355591e-02 1.500473022460937500e-01 1.169507354497909546e-01 1.040873080492019653e-01 1.070647090673446655e-01 7.579701393842697144e-02 3.264018893241882324e-02 3.456284478306770325e-02 2.166038192808628082e-02 -3.978585451841354370e-02 1.357822865247726440e-02 3.194170445203781128e-02
8.441130630671977997e-03 3.269004449248313904e-02 -9.972697123885154724e-03 4.543901234865188599e-02 4.396165907382965088e-02 9.491159021854400635e-02 7.688298821449279785e-02 1.296439301222562790e-02 -2.903299592435359955e-02 -5.325464159250259399e-02 -6.455479562282562256e-02 -8.395973592996597290e-02 -1.030513942241668701e-01 -8.484029769897460938e-02 -8.000202476978302002e-02 -7.024263031780719757e-03 3.995934501290321350e-02 1.248811408877372742e-01 8.960727602243423462e-02 6.710062921047210693e-02 5.679943412542343140e-02 3.741884231567382812e-02 2.161410264670848846e-02 3.321204334497451782e-02 6.053040269762277603e-03 -3.780464828014373779e-02 2.468138001859188080e-02 -2.828713692724704742e-02
1.015797723084688187e-02 4.318514373153448105e-03 1.308677997440099716e-02 5.766177177429199219e-02 1.074210256338119507e-01 1.186020895838737488e-01 4.738660529255867004e-02 7.911316305398941040e-02 4.350855574011802673e-02 -3.471000492572784424e-02 -8.598728477954864502e-02 -3.707458078861236572e-02 -9.290669858455657959e-02 -7.726750522851943970e-02 -3.714014746947214007e-05 1.862574741244316101e-02 6.174451485276222229e-02 8.780554682016372681e-02 6.652433425188064575e-02 6.291819363832473755e-02 3.309522988274693489e-03 -1.244177762418985367e-02 -3.275196067988872528e-04 -1.887971011456102133e-04 -1.500174403190612793e-03 -2.741593308746814728e-02 -3.123961761593818665e-02 1.107531506568193436e-02
-2.014867961406707764e-03 1.706183142960071564e-02 1.738354191184043884e-02 4.975578188896179199e-02 1.083897277712821960e-01 8.209443837404251099e-02 7.169771939516067505e-02 1.504615601152181625e-02 -1.329843420535326004e-02 -1.614904031157493591e-02 -6.060341373085975647e-02 -3.614344820380210876e-02 -1.806029304862022400e-02 -3.609993681311607361e-02 2.166909631341695786e-03 4.275849461555480957e-02 3.838605061173439026e-02 1.622067950665950775e-02 5.000017210841178894e-02 3.958152234554290771e-02 -1.671363040804862976e-02 1.197074819356203079e-02 7.551929447799921036e-03 1.857641153037548065e-02 5.249781534075737000e-03 -3.948228433728218079e-02 -1.615849696099758148e-02 -2.763420343399047852e-02
1.020658761262893677e-02 -1.139598432928323746e-02 4.486096277832984924e-02 1.750688254833221436e-02 2.657603472471237183e-02 1.350501086562871933e-02 4.838049039244651794e-02 5.593531951308250427e-02 3.887546807527542114e-02 7.110764272511005402e-03 4.652342572808265686e-02 -2.579084131866693497e-03 5.788959935307502747e-02 5.378386750817298889e-02 1.094044186174869537e-02 1.021536346524953842e-02 3.908297419548034668e-02 3.387401252985000610e-02 -8.026133291423320770e-04 -3.663751855492591858e-02 -2.105592004954814911e-02 2.310607209801673889e-02 -3.111590258777141571e-02 -3.456756472587585449e-02 1.891821995377540588e-02 -3.566623851656913757e-02 4.475383553653955460e-03 -1.846503466367721558e-03
-2.078013494610786438e-02 -2.028132788836956024e-03 5.197664722800254822e-02 7.993957959115505219e-03 6.498397886753082275e-02 4.457940161228179932e-02 -3.920621704310178757e-03 6.030246242880821228e-02 4.264867678284645081e-02 6.831537932157516479e-02 9.188520163297653198e-02 9.017942845821380615e-02 8.089298754930496216e-02 7.210440188646316528e-02 8.547274768352508545e-02 4.104961827397346497e-02 4.783610999584197998e-02 -1.320857182145118713e-02 1.213349122554063797e-02 7.114711683243513107e-03 -3.358556330204010010e-02 1.464677043259143829e-02 -1.362066809087991714e-02 -3.433218225836753845e-02 1.512874476611614227e-02 7.616826333105564117e-03 1.550038158893585205e-02 -1.967895962297916412e-02
-4.318632185459136963e-03 -2.777664363384246826e-02 -5.371217150241136551e-03 -4.037726670503616333e-03 2.247755788266658783e-02 -9.288970031775534153e-04 2.678240649402141571e-03 3.726402297616004944e-02 4.536487162113189697e-02 4.768718406558036804e-02 7.226083427667617798e-02 9.761575609445571899e-02 8.086182922124862671e-02 1.170186698436737061e-01 6.269619613885879517e-02 3.284035716205835342e-03 3.360294178128242493e-02 -1.512380875647068024e-02 -6.424874998629093170e-03 -1.927942386828362942e-03 5.445597693324089050e-03 -7.504361681640148163e-03 2.621696144342422485e-02 -3.429483994841575623e-02 1.828358322381973267e-02 -2.627677842974662781e-02 8.569617755711078644e-03 2.344657480716705322e-02
-4.012983292341232300e-03 2.125129476189613342e-02 3.251291066408157349e-02 3.115159459412097931e-02 3.929167985916137695e-02 5.194256827235221863e-02 1.437342073768377304e-02 5.299489945173263550e-02 5.140207707881927490e-02 8.966428041458129883e-02 6.829055398702621460e-02 1.006246656179428101e-01 8.733792603015899658e-02 1.112336814403533936e-01 8.949484676122665405e-02 5.017678812146186829e-02 8.117686957120895386e-02 2.575230784714221954e-02 1.625926047563552856e-02 -1.365759409964084625e-02 -8.920275606215000153e-03 -1.585880480706691742e-02 2.273319661617279053e-02 3.804945386946201324e-03 -2.688076719641685486e-02 -2.415873669087886810e-02 -2.589140087366104126e-02 -2.896992862224578857e-02
1.810027658939361572e-02 3.527181968092918396e-02 -8.031111792661249638e-04 2.444788254797458649e-02 3.264651820063591003e-02 1.987021043896675110e-02 2.094377996399998665e-03 3.251233696937561035e-02 1.811945810914039612e-02 8.334878087043762207e-02 3.460246324539184570e-02 9.197510778903961182e-02 9.826780110597610474e-02 3.852065280079841614e-02 7.088996469974517822e-02 7.781334221363067627e-02 7.704610377550125122e-02 7.282637804746627808e-02 6.943967193365097046e-02 -6.837126798927783966e-03 4.185725003480911255e-02 4.214938730001449585e-02 1.764743216335773468e-02 3.268584236502647400e-02 1.725715398788452148e-02 -9.598731994628906250e-03 -2.084703184664249420e-02 -2.303501963615417480e-02
-2.101563662290573120e-02 -2.535833790898323059e-02 4.123192280530929565e-03 -2.842172607779502869e-02 -2.723766118288040161e-02 1.490132883191108704e-02 3.612069785594940186e-02 -1.510173454880714417e-02 1.816972717642784119e-02 9.362844866700470448e-04 6.198355695232748985e-04 3.613979369401931763e-02 1.195499021559953690e-02 1.212586369365453720e-02 -6.776027381420135498e-03 -1.377947255969047546e-02 4.233761504292488098e-02 -1.127067767083644867e-02 4.907304421067237854e-02 1.575483381748199463e-02 -7.773151621222496033e-03 -1.214742101728916168e-02 1.080088596791028976e-02 -1.000866293907165527e-02 -3.538855165243148804e-02 -2.646484598517417908e-02 3.282207623124122620e-02 1.183432713150978088e-02
1.079142466187477112e-02 -2.512400597333908081e-02 -1.757014542818069458e-03 -1.932008378207683563e-02 2.254924550652503967e-02 3.448298946022987366e-02 -1.266859471797943115e-04 2.342223748564720154e-02 1.268479228019714355e-02 1.190543174743652344e-03 -1.284688338637351990e-02 1.271725445985794067e-02 -3.424758836627006531e-02 -3.471000865101814270e-02 3.394148871302604675e-02 2.247081696987152100e-02 2.599954605102539062e-02 -9.398235008120536804e-03 3.332545980811119080e-02 3.408747538924217224e-02 -3.342721611261367798e-02 3.184066340327262878e-02 2.143644168972969055e-02 2.664152160286903381e-02 -8.908547461032867432e-04 -9.063230827450752258e-03 2.966169267892837524e-03 3.281531110405921936e-02
