-5.935003515332937241e-03 -9.047468751668930054e-02 2.841661497950553894e-02 8.026174455881118774e-02 1.383120268583297729e-01 -1.124817654490470886e-01 -9.552122652530670166e-02
-1.265342067927122116e-02 3.702418878674507141e-02 -4.967354238033294678e-02 1.724989861249923706e-01 1.394929178059101105e-02 -2.670400142669677734e-01 -9.793075919151306152e-02
-7.064596866257488728e-04 1.387363225221633911e-01 1.467440128326416016e-01 6.989682465791702271e-02 -2.271166294813156128e-01 -4.201291203498840332e-01 -2.611168473958969116e-02
-5.630113184452056885e-02 1.407211124897003174e-01 1.469391733407974243e-01 3.351284191012382507e-02 -4.246274828910827637e-01 -4.354750812053680420e-01 6.154706329107284546e-02
1.541081219911575317e-01 2.549239397048950195e-01 -6.695827469229698181e-03 -9.732814878225326538e-02 -5.690166354179382324e-01 -3.139659464359283447e-01 3.257383108139038086e-01
-3.912632167339324951e-02 1.379933804273605347e-01 6.425376236438751221e-02 -4.039319753646850586e-01 -3.850895762443542480e-01 -1.119456961750984192e-01 2.678731977939605713e-01
5.958086997270584106e-02 4.623929411172866821e-02 -1.504584029316902161e-02 -3.681638240814208984e-01 -3.258921802043914795e-01 -1.681353896856307983e-02 3.297111988067626953e-01
