5.498191714286804199e-02 7.030861824750900269e-02 1.278318166732788086e-01 9.988551586866378784e-02 1.465244889259338379e-01 8.546318858861923218e-03 1.547986716032028198e-01
5.148904770612716675e-02 9.205102920532226562e-02 1.140800490975379944e-01 3.204825818538665771e-01 1.863849908113479614e-01 1.904558241367340088e-01 8.044578880071640015e-02
2.202616035938262939e-01 2.602175176143646240e-01 9.787107259035110474e-02 1.231700032949447632e-01 1.464944481849670410e-01 1.484798043966293335e-01 3.984502330422401428e-02
-9.218921512365341187e-02 1.148169562220573425e-01 -3.324281796813011169e-02 1.268085837364196777e-01 -4.702017083764076233e-02 1.121437847614288330e-01 7.156719267368316650e-02
-1.313709467649459839e-01 -3.359323441982269287e-01 -4.184702038764953613e-01 -3.233443796634674072e-01 -1.759975105524063110e-01 -9.043592959642410278e-02 3.979323804378509521e-02
-2.327713221311569214e-01 -2.462084740400314331e-01 -3.280266225337982178e-01 -3.702335953712463379e-01 -9.197403490543365479e-02 -1.999790817499160767e-01 -3.589898720383644104e-02
9.785448014736175537e-02 1.623879373073577881e-01 1.800866872072219849e-01 7.265678048133850098e-02 -6.143669039011001587e-02 3.429761901497840881e-02 -1.059915572404861450e-01
