1.721002012491226196e-01 5.866121873259544373e-02 -1.127304323017597198e-02 -8.704870194196701050e-02 2.916296944022178650e-02 -9.169720858335494995e-02 7.971861213445663452e-02
2.661380171775817871e-01 4.745166003704071045e-02 -1.713578552007675171e-01 -3.951843455433845520e-02 -2.609166204929351807e-01 8.464180678129196167e-02 1.631709188222885132e-01
2.072839140892028809e-01 7.231777906417846680e-02 -3.042434751987457275e-01 -3.562367260456085205e-01 -2.068592160940170288e-01 1.496584266424179077e-01 2.511492669582366943e-01
5.001056566834449768e-02 -2.821528911590576172e-01 -2.623444497585296631e-01 -2.542634308338165283e-01 1.022696271538734436e-01 2.435671240091323853e-01 2.523568868637084961e-01
-1.538773477077484131e-01 -2.042982727289199829e-01 -1.960014253854751587e-01 -1.203326135873794556e-01 9.250929951667785645e-02 2.796760797500610352e-01 1.682421565055847168e-01
-1.547628939151763916e-01 -1.102017760276794434e-01 -2.092360705137252808e-01 4.357465729117393494e-02 1.193971484899520874e-01 1.018444746732711792e-01 1.069091483950614929e-01
2.792199701070785522e-02 -7.315378636121749878e-02 -1.540443599224090576e-01 -3.281939402222633362e-02 8.721262216567993164e-02 9.497819095849990845e-02 1.595145761966705322e-01
