-1.197454407811164856e-01 2.198584936559200287e-02 -2.073589116334915161e-01 -3.350808983668684959e-03 -7.733783870935440063e-02 1.976106315851211548e-02 -9.556298702955245972e-02
1.007435172796249390e-01 -1.497557014226913452e-01 -2.992497012019157410e-02 -1.362632811069488525e-01 -1.572614759206771851e-01 -2.504170835018157959e-01 4.109055548906326294e-02
2.052960172295570374e-02 6.407706066966056824e-03 -8.442346751689910889e-02 -1.559790819883346558e-01 -1.065470874309539795e-01 6.858951598405838013e-02 8.632615208625793457e-03
-1.013100519776344299e-01 -5.078019201755523682e-02 -8.027667552232742310e-02 -8.934597484767436981e-03 5.108968913555145264e-02 1.650927066802978516e-01 1.615210175514221191e-01
3.105399198830127716e-02 -1.068310663104057312e-01 6.420522183179855347e-02 -6.787893921136856079e-02 1.482143253087997437e-01 1.158585101366043091e-01 -9.359326958656311035e-02
1.709662377834320068e-02 -9.231733530759811401e-02 6.574266403913497925e-02 1.524454802274703979e-01 2.636083960533142090e-02 -2.470088377594947815e-02 -1.758882403373718262e-01
-1.446603052318096161e-02 -6.190155074000358582e-02 7.945773750543594360e-02 7.204700261354446411e-02 1.157268285751342773e-01 -1.757280081510543823e-01 -1.067491341382265091e-02
