-2.572662569582462311e-02 -1.192889586091041565e-01 -4.028901830315589905e-02 -1.444894671440124512e-01 2.212200686335563660e-02 1.424767524003982544e-01 3.170132264494895935e-02
3.881494700908660889e-02 -1.510574482381343842e-02 -5.041019991040229797e-02 1.037930622696876526e-01 -3.273594379425048828e-02 3.546533361077308655e-02 2.456868588924407959e-01
2.540072500705718994e-01 1.966731101274490356e-01 -7.466081529855728149e-02 6.882757693529129028e-02 -6.837508082389831543e-02 -1.599787324666976929e-01 -6.190120056271553040e-02
8.245718665421009064e-03 2.207644283771514893e-01 5.947677418589591980e-03 1.213520988821983337e-01 -6.408131867647171021e-02 -8.673342317342758179e-02 -9.953763335943222046e-02
-5.033066030591726303e-03 5.776882171630859375e-02 1.859252750873565674e-01 2.797465771436691284e-02 -1.000422388315200806e-01 -2.221868634223937988e-01 4.080856963992118835e-02
-1.381491124629974365e-02 2.079159170389175415e-01 6.453495472669601440e-02 -3.867191448807716370e-02 2.702383883297443390e-02 7.731368299573659897e-03 -2.119286060333251953e-01
9.270572662353515625e-02 1.816051155328750610e-01 1.195105165243148804e-01 1.741679012775421143e-01 6.127186864614486694e-02 -2.393731288611888885e-02 -1.591554842889308929e-02
