1.531433761119842529e-01 8.289724588394165039e-03 1.588527113199234009e-02 1.374829113483428955e-01 2.105721086263656616e-01 1.826342642307281494e-01 8.428855985403060913e-02
7.741652894765138626e-03 6.619780510663986206e-02 -5.366922542452812195e-02 1.819968819618225098e-01 3.509608563035726547e-03 -8.629181981086730957e-02 -4.672072455286979675e-02
4.609202966094017029e-02 -9.896962344646453857e-02 1.211941838264465332e-01 6.813472509384155273e-02 8.390656113624572754e-02 4.838344454765319824e-02 9.315840899944305420e-02
7.378540933132171631e-02 1.284841299057006836e-01 1.992974877357482910e-01 1.532517820596694946e-01 3.789117336273193359e-01 1.112095788121223450e-01 2.964882254600524902e-01
6.583366543054580688e-02 1.588365733623504639e-01 2.328013479709625244e-01 1.043885946273803711e-01 1.401506662368774414e-01 2.109981775283813477e-01 -1.098075136542320251e-01
1.867277175188064575e-01 -9.582262486219406128e-02 -2.897902131080627441e-01 -4.383818507194519043e-01 -5.357785224914550781e-01 -1.288314610719680786e-01 7.673299312591552734e-02
-9.417338669300079346e-02 -2.740023136138916016e-01 -5.746702551841735840e-01 -8.333957195281982422e-01 -8.352956771850585938e-01 -1.517013758420944214e-01 4.949307814240455627e-02
