4.019081592559814453e-03 2.397635579109191895e-01 -8.045712858438491821e-02 -1.150000616908073425e-01 -1.499962657690048218e-01 -1.852957457304000854e-01 -3.436264693737030029e-01
-2.337308228015899658e-01 -9.683476388454437256e-02 -8.515069261193275452e-03 -5.885420739650726318e-02 1.512041091918945312e-01 -9.538815915584564209e-02 -3.107123672962188721e-01
7.635450363159179688e-02 2.582374960184097290e-02 -3.967878222465515137e-02 4.646245762705802917e-02 6.525561213493347168e-02 3.472716808319091797e-01 -1.430094838142395020e-01
9.800127148628234863e-02 6.509549915790557861e-02 -5.028394237160682678e-02 -6.756506860256195068e-02 3.080711662769317627e-01 4.128366410732269287e-01 -2.145976573228836060e-01
1.895718723535537720e-01 1.542146056890487671e-01 -1.376697719097137451e-01 -1.042663156986236572e-01 -9.551669470965862274e-03 2.229050993919372559e-01 -3.074470162391662598e-01
-8.633111417293548584e-02 1.339876931160688400e-02 9.735424816608428955e-02 -1.771880537271499634e-01 3.097941875457763672e-01 3.901537954807281494e-01 -2.872177958488464355e-01
-1.199383884668350220e-01 6.129295751452445984e-02 -6.536334753036499023e-02 -1.251302510499954224e-01 1.740297228097915649e-01 2.760973274707794189e-01 -1.631918996572494507e-01
