9.031838178634643555e-02 2.491276860237121582e-01 2.222286015748977661e-01 1.190368905663490295e-01 9.296578168869018555e-02 1.001911833882331848e-01 2.006524950265884399e-01
6.101286038756370544e-02 2.906453981995582581e-02 1.513642966747283936e-01 -7.954147458076477051e-02 3.614952787756919861e-02 -7.134144008159637451e-02 7.332479953765869141e-02
-2.273052632808685303e-01 6.691002845764160156e-02 -7.378834486007690430e-02 -8.854314684867858887e-02 -3.163233995437622070e-01 -2.021839618682861328e-01 -1.279205679893493652e-01
-8.890104293823242188e-02 1.864576712250709534e-02 5.195583403110504150e-02 -1.724348217248916626e-01 -1.266171783208847046e-01 -2.174886465072631836e-01 -2.469562590122222900e-01
-1.166208982467651367e-01 1.355959326028823853e-01 1.228431463241577148e-01 -1.508011370897293091e-01 3.261187300086021423e-02 -1.220069639384746552e-02 1.651691831648349762e-02
-2.381745427846908569e-01 1.617419868707656860e-01 4.615697637200355530e-02 8.230709284543991089e-02 -2.512886747717857361e-02 4.561247304081916809e-02 6.232776120305061340e-02
-1.913872808218002319e-01 2.688361518085002899e-02 2.207061499357223511e-01 2.150532752275466919e-01 -4.256094992160797119e-02 4.822483658790588379e-02 4.312084987759590149e-02
