3.213694989681243896e-01 2.015817165374755859e-01 -5.848844721913337708e-02 3.301183879375457764e-02 1.308657526969909668e-01 1.330873817205429077e-01 4.409863650798797607e-01
-9.131192415952682495e-02 -4.426962882280349731e-02 -6.038911268115043640e-02 -6.035286188125610352e-02 -6.292449682950973511e-02 -2.133141644299030304e-02 -8.023726195096969604e-02
1.061222776770591736e-01 -7.411913480609655380e-03 -4.922082647681236267e-02 5.881035700440406799e-02 -1.925296732224524021e-03 -1.318996101617813110e-01 -6.262185424566268921e-02
1.946438252925872803e-01 4.152489081025123596e-02 -5.455897748470306396e-02 -1.209880262613296509e-01 2.562981471419334412e-02 -1.615293622016906738e-01 -1.781055778264999390e-01
1.255443841218948364e-01 1.313950419425964355e-01 4.267801344394683838e-02 5.003106594085693359e-02 -1.831892728805541992e-01 -1.336839646100997925e-01 -2.356951385736465454e-01
3.803691640496253967e-02 -1.591182500123977661e-01 1.272383332252502441e-01 2.238630503416061401e-01 5.638119764626026154e-03 -9.494882822036743164e-02 -2.407952398061752319e-01
-1.978949308395385742e-01 -3.013807907700538635e-02 -1.757798939943313599e-01 9.824970364570617676e-02 1.955645531415939331e-01 2.758524119853973389e-01 1.611023098230361938e-01
