2.220058441162109375e-02 -2.619056776165962219e-02 1.359005272388458252e-02 -7.218942046165466309e-04 1.375373452901840210e-03 -8.460097014904022217e-04 -6.457090377807617188e-03 5.163840949535369873e-03 3.045249357819557190e-02 1.979699358344078064e-02 -1.582112163305282593e-03 7.259301841259002686e-03 5.818132311105728149e-03 2.355356886982917786e-02 -1.160339079797267914e-02 2.612449228763580322e-03 2.456155046820640564e-02 -2.752598002552986145e-02 4.391167312860488892e-03 -6.712377071380615234e-03 -2.822317928075790405e-02 -8.406592532992362976e-03 -2.675811387598514557e-02 -1.275235973298549652e-02 1.775581389665603638e-02 3.501638397574424744e-02 3.629498183727264404e-03 -6.454693153500556946e-03
-2.224512770771980286e-02 -2.591819502413272858e-02 1.283673197031021118e-02 2.546331286430358887e-02 1.650001108646392822e-02 -2.194013446569442749e-02 -7.833693176507949829e-03 2.961860969662666321e-02 -1.448337547481060028e-02 3.360351547598838806e-02 3.347385302186012268e-02 -2.692242339253425598e-02 -2.076259255409240723e-02 3.455344960093498230e-02 2.831952646374702454e-02 3.276581689715385437e-02 -3.337181732058525085e-02 -2.291053533554077148e-05 -2.871400304138660431e-02 1.675012335181236267e-02 1.732604578137397766e-02 -1.760296523571014404e-03 5.409128963947296143e-03 -2.726353704929351807e-03 3.176912292838096619e-02 -1.019285060465335846e-02 -4.342116415500640869e-03 2.440225332975387573e-02
9.412221610546112061e-03 -1.904595643281936646e-03 3.335102275013923645e-02 1.848762854933738708e-02 -3.090359643101692200e-02 -1.556223258376121521e-02 -2.609410509467124939e-02 -2.553383447229862213e-02 -9.633861482143402100e-04 -3.443230316042900085e-02 1.732864417135715485e-02 4.133252054452896118e-02 1.562637276947498322e-02 -7.791106589138507843e-03 2.575279399752616882e-02 -1.715186168439686298e-03 7.320544682443141937e-03 -8.812543936073780060e-03 2.524188533425331116e-02 4.449625313282012939e-02 -1.401619520038366318e-02 2.909089997410774231e-02 -3.125876188278198242e-03 -3.275398164987564087e-02 2.845204249024391174e-02 -2.878409251570701599e-02 -2.398921921849250793e-02 1.552145928144454956e-02
-3.325977921485900879e-02 2.482471242547035217e-02 3.522725030779838562e-02 -4.748485982418060303e-03 2.866896986961364746e-02 2.548442780971527100e-02 5.047951266169548035e-02 5.022313073277473450e-02 1.123104020953178406e-01 1.304072290658950806e-01 1.662159711122512817e-01 2.020982205867767334e-01 2.346725016832351685e-01 2.130185216665267944e-01 2.166980952024459839e-01 2.302643656730651855e-01 2.503797411918640137e-01 1.889898926019668579e-01 1.512787938117980957e-01 1.401735991239547729e-01 1.638091355562210083e-01 9.220004081726074219e-02 5.849812179803848267e-02 -8.543045260012149811e-03 -2.424454689025878906e-02 -2.240076661109924316e-02 3.527897223830223083e-02 6.160996854305267334e-03
-2.782821655273437500e-02 1.602215133607387543e-02 2.325719222426414490e-02 4.384090751409530640e-02 9.947751462459564209e-02 1.410591006278991699e-01 1.824221462011337280e-01 1.969454586505889893e-01 1.698232293128967285e-01 1.558287143707275391e-01 1.279113441705703735e-01 1.306649297475814819e-01 1.335853785276412964e-01 1.028254926204681396e-01 4.751090705394744873e-02 6.497813761234283447e-02 7.438544183969497681e-02 6.766156852245330811e-02 6.462382525205612183e-02 1.724975928664207458e-02 -3.671826049685478210e-02 -2.965666912496089935e-02 -1.247886940836906433e-02 8.105149492621421814e-03 2.789054531604051590e-03 -1.979349367320537567e-02 2.987495623528957367e-02 -2.460913732647895813e-02
-2.290692925453186035e-02 -1.662135683000087738e-02 4.677364975214004517e-02 1.103395298123359680e-01 1.790907829999923706e-01 2.490222901105880737e-01 2.060633003711700439e-01 1.926695257425308228e-01 1.236970126628875732e-01 1.349861919879913330e-01 9.426230192184448242e-02 3.940399736166000366e-02 5.631037056446075439e-03 1.900997757911682129e-02 4.167528823018074036e-03 -3.712157905101776123e-02 2.554454607889056206e-03 -5.745413899421691895e-02 -4.809832945466041565e-02 -1.456292718648910522e-02 -4.043679311871528625e-02 -6.927014887332916260e-02 -8.074589073657989502e-02 -5.054001137614250183e-02 -3.294923901557922363e-02 8.229844272136688232e-03 -1.028911303728818893e-02 -3.284838050603866577e-02
-1.275050640106201172e-02 3.452141582965850830e-02 4.710536450147628784e-02 1.902847737073898315e-01 2.070281356573104858e-01 2.151233851909637451e-01 1.988663822412490845e-01 1.414336264133453369e-01 1.428284049034118652e-01 6.031521782279014587e-02 1.060029417276382446e-01 4.502049088478088379e-02 4.836924001574516296e-02 2.184468507766723633e-02 3.320434316992759705e-02 5.764326825737953186e-02 1.871093548834323883e-02 1.736820489168167114e-02 3.640444576740264893e-02 -2.613508515059947968e-02 3.109797835350036621e-03 -2.018995769321918488e-02 -5.518110841512680054e-02 -8.649756014347076416e-02 -6.974348425865173340e-02 1.188699528574943542e-02 2.844860404729843140e-02 2.291423082351684570e-02
3.412180766463279724e-02 1.777413673698902130e-02 3.966703265905380249e-02 1.769388914108276367e-01 2.452659904956817627e-01 2.093672156333923340e-01 1.633571833372116089e-01 1.381813883781433105e-01 4.316741228103637695e-02 5.236089602112770081e-02 4.662430286407470703e-02 6.110413745045661926e-02 6.001660227775573730e-02 8.902479708194732666e-02 9.127184748649597168e-02 7.673668116331100464e-02 5.006302893161773682e-02 7.232552766799926758e-02 1.552140060812234879e-02 1.274092588573694229e-02 3.463868424296379089e-02 -1.826439984142780304e-04 -3.846463188529014587e-02 -5.062389746308326721e-02 -9.303463250398635864e-02 -1.541304681450128555e-02 -1.232772413641214371e-02 8.622333407402038574e-04
-1.019979082047939301e-02 -5.341568961739540100e-03 5.278828367590904236e-02 1.351362764835357666e-01 2.115861624479293823e-01 1.462425440549850464e-01 6.237033382058143616e-02 -5.452970508486032486e-03 4.309179261326789856e-02 -4.590583965182304382e-02 -2.583165280520915985e-02 -3.063127212226390839e-02 -3.572821617126464844e-02 1.133883744478225708e-02 1.309207677841186523e-01 1.483629345893859863e-01 1.088280454277992249e-01 6.807171553373336792e-02 1.918168179690837860e-02 -2.683105878531932831e-02 -3.406139556318521500e-03 -6.291323155164718628e-02 -3.214963153004646301e-02 -7.469695806503295898e-02 -9.332449734210968018e-02 -3.251709789037704468e-02 2.756488136947154999e-02 -2.930006012320518494e-02
8.859395980834960938e-03 4.859058558940887451e-02 3.866962343454360962e-02 9.218958765268325806e-02 1.504975706338882446e-01 1.171233281493186951e-01 5.948459729552268982e-03 -7.315480709075927734e-02 -5.774405598640441895e-02 -9.762150049209594727e-02 -1.209212839603424072e-01 -1.521314382553100586e-01 -1.217198744416236877e-01 -9.513907134532928467e-02 6.959529221057891846e-02 1.723247468471527100e-01 9.889804571866989136e-02 6.609340012073516846e-02 -3.334740549325942993e-02 -3.831274434924125671e-02 -3.336445242166519165e-02 -7.633813470602035522e-02 -4.442555457353591919e-02 -6.632300466299057007e-02 -1.285743415355682373e-01 3.059389768168330193e-03 7.178999483585357666e-03 4.937030375003814697e-03
2.547468990087509155e-03 1.709461212158203125e-03 6.561349332332611084e-02 9.542041271924972534e-02 8.456566184759140015e-02 1.269437489099800587e-03 -7.888213545083999634e-02 -1.316163688898086548e-01 -1.969146877527236938e-01 -2.321224063634872437e-01 -2.467190176248550415e-01 -2.110255062580108643e-01 -1.834244728088378906e-01 -1.022121533751487732e-01 -3.237961558625102043e-03 4.395909234881401062e-02 4.856130480766296387e-02 7.494773715734481812e-02 2.718204632401466370e-02 3.434295533224940300e-03 -5.394521355628967285e-02 -9.789148718118667603e-02 -1.315911412239074707e-01 -1.246344074606895447e-01 -8.462601155042648315e-02 -1.344759855419397354e-02 -1.585585251450538635e-02 -1.656349748373031616e-02
2.026568725705146790e-02 2.604617737233638763e-02 4.331693425774574280e-02 1.017292514443397522e-01 -2.019437029957771301e-02 -1.131960302591323853e-01 -1.394221633672714233e-01 -1.880254894495010376e-01 -2.612679302692413330e-01 -2.738830447196960449e-01 -2.082895040512084961e-01 -1.567383110523223877e-01 -1.134174391627311707e-01 -7.573043555021286011e-02 -6.800865754485130310e-03 4.879156500101089478e-02 4.895870387554168701e-02 7.324544340372085571e-02 3.903802111744880676e-02 -2.872641570866107941e-02 -4.947259277105331421e-02 -1.102370396256446838e-01 -1.513453274965286255e-01 -1.376058757305145264e-01 -7.647605240345001221e-02 1.296003162860870361e-02 -6.241985131055116653e-03 -3.506775945425033569e-03
-3.543402627110481262e-02 6.449344567954540253e-03 4.627298191189765930e-02 7.278425246477127075e-02 6.755925249308347702e-03 -7.363320142030715942e-02 -1.323289573192596436e-01 -1.937586963176727295e-01 -2.358639687299728394e-01 -1.587623357772827148e-01 -6.133595108985900879e-02 3.223205567337572575e-05 -3.243942931294441223e-02 -2.923238836228847504e-02 3.184697777032852173e-02 1.329460297711193562e-03 2.763004973530769348e-02 7.346270233392715454e-02 6.724621355533599854e-02 -2.815720159560441971e-03 -1.112155318260192871e-01 -1.660280078649520874e-01 -1.624904572963714600e-01 -1.170026585459709167e-01 -7.832919806241989136e-02 3.300619428046047688e-04 1.306816376745700836e-02 -2.955082990229129791e-02
1.751002669334411621e-02 5.209796130657196045e-03 1.541746035218238831e-02 1.406954415142536163e-02 -2.727826870977878571e-02 -3.237053751945495605e-02 -9.421478956937789917e-02 -1.598091870546340942e-01 -7.731430232524871826e-02 -1.971556805074214935e-02 2.294423757120966911e-03 8.170529617927968502e-04 7.241365965455770493e-03 -2.842794544994831085e-02 8.053711615502834320e-03 -5.195535719394683838e-02 -5.443462356925010681e-02 3.215656429529190063e-02 1.154453959316015244e-02 3.534348309040069580e-02 -2.426868490874767303e-02 -2.240613289177417755e-02 -7.860229164361953735e-02 -4.447487369179725647e-02 -6.548605859279632568e-02 -2.866707928478717804e-02 -1.708223298192024231e-02 3.194705769419670105e-02
-2.692514285445213318e-02 4.070464894175529480e-02 6.237662583589553833e-02 -3.444389585638418794e-05 5.653125792741775513e-02 8.249722421169281006e-03 -1.316875871270895004e-02 -3.570371493697166443e-02 -3.231174871325492859e-02 2.768587134778499603e-02 -6.594241131097078323e-03 -1.824405603110790253e-02 -1.603328995406627655e-02 -3.286576271057128906e-02 -4.711992293596267700e-02 -5.085422843694686890e-02 -3.308325633406639099e-02 -4.673343617469072342e-03 8.859899640083312988e-02 7.354027032852172852e-02 1.039555445313453674e-01 8.475509285926818848e-02 1.859129965305328369e-02 -1.491983886808156967e-02 -4.045630618929862976e-02 1.034511439502239227e-02 9.383872151374816895e-03 -3.382228687405586243e-02
8.448619395494461060e-03 5.318245384842157364e-04 8.023752272129058838e-02 1.769139766693115234e-01 1.580411493778228760e-01 1.501855850219726562e-01 3.557045385241508484e-02 -6.498675048351287842e-02 -6.005099043250083923e-02 -6.235516071319580078e-02 -5.373474583029747009e-02 -7.215659599751234055e-03 -4.261897504329681396e-02 -1.098575964570045471e-01 -5.294357985258102417e-02 -5.085952207446098328e-02 -8.052365481853485107e-02 2.847306616604328156e-02 1.096315160393714905e-01 1.271284222602844238e-01 1.018765270709991455e-01 8.813248574733734131e-02 2.502604387700557709e-02 4.501952975988388062e-02 1.427583862096071243e-02 -2.012636326253414154e-02 3.739055991172790527e-02 4.137080162763595581e-03
-3.003226593136787415e-02 3.852120414376258850e-02 1.227030009031295776e-01 1.688739508390426636e-01 1.891653984785079956e-01 1.715993732213973999e-01 2.184232231229543686e-03 -1.271692961454391479e-01 -2.026240974664688110e-01 -1.954503655433654785e-01 -1.840517818927764893e-01 -1.172407269477844238e-01 -8.697515726089477539e-02 -1.264640986919403076e-01 -8.601329475641250610e-02 -2.307216078042984009e-02 -2.694210223853588104e-02 2.895839139819145203e-02 1.241385638713836670e-01 1.449217796325683594e-01 7.984625548124313354e-02 6.824371218681335449e-02 1.076502650976181030e-01 3.057007305324077606e-02 3.276976943016052246e-02 -3.739346936345100403e-02 -3.183747408911585808e-03 -2.768208831548690796e-02
-9.405473247170448303e-03 4.851164296269416809e-02 1.095073521137237549e-01 2.353178858757019043e-01 2.331300526857376099e-01 1.626127064228057861e-01 -5.774351209402084351e-02 -1.918625086545944214e-01 -2.948796153068542480e-01 -3.090269565582275391e-01 -2.966953217983245850e-01 -2.923849523067474365e-01 -2.440526485443115234e-01 -1.992903053760528564e-01 -6.892378628253936768e-02 -9.262637235224246979e-03 4.314916580915451050e-02 9.572081267833709717e-02 1.415462791919708252e-01 1.039762794971466064e-01 9.097339957952499390e-02 6.188492476940155029e-02 4.032560437917709351e-02 7.579237222671508789e-02 2.326050214469432831e-02 -3.187619522213935852e-02 -6.894700229167938232e-03 -9.658055379986763000e-03
-1.812993362545967102e-02 9.675077162683010101e-03 1.572128385305404663e-01 3.168957233428955078e-01 2.900138199329376221e-01 1.169887483119964600e-01 -1.417393237352371216e-02 -1.476550102233886719e-01 -2.181587964296340942e-01 -3.001660108566284180e-01 -3.470230996608734131e-01 -3.475297689437866211e-01 -3.099738359451293945e-01 -2.558510601520538330e-01 -5.278610065579414368e-02 1.097142472863197327e-01 1.390016525983810425e-01 9.316806495189666748e-02 1.173858940601348877e-01 9.442125260829925537e-02 9.277302026748657227e-02 1.025211811065673828e-01 5.198352783918380737e-02 8.033176511526107788e-02 -2.498124912381172180e-02 4.532127641141414642e-03 -1.445368863642215729e-02 7.491383701562881470e-03
-2.644047699868679047e-02 3.725014254450798035e-02 2.066900730133056641e-01 2.680040895938873291e-01 2.524400949478149414e-01 1.137916743755340576e-01 4.122205451130867004e-02 -8.103714138269424438e-02 -8.130449801683425903e-02 -1.522509157657623291e-01 -1.877761632204055786e-01 -1.830839663743972778e-01 -1.627199202775955200e-01 -1.152807325124740601e-01 5.576839670538902283e-03 1.063882559537887573e-01 1.144032850861549377e-01 1.612139791250228882e-01 1.177541762590408325e-01 8.704971522092819214e-02 6.467859447002410889e-02 5.011021345853805542e-02 1.225187815725803375e-02 1.446102932095527649e-02 -1.137523911893367767e-02 -5.959591828286647797e-03 -1.763578504323959351e-03 3.247894346714019775e-04
1.205610483884811401e-02 9.063558280467987061e-02 1.306896954774856567e-01 3.046682775020599365e-01 2.674862444400787354e-01 1.509992927312850952e-01 7.778685539960861206e-02 4.470498859882354736e-02 2.268441952764987946e-02 1.773214526474475861e-02 -1.558728050440549850e-02 1.134243607521057129e-02 -4.596994072198867798e-02 -6.389864254742860794e-03 8.895188570022583008e-02 1.346177458763122559e-01 1.292133182287216187e-01 1.438122093677520752e-01 6.496728956699371338e-02 8.574762195348739624e-02 2.263941988348960876e-02 2.009451016783714294e-02 3.399211540818214417e-02 3.034590929746627808e-02 1.378177944570779800e-02 1.540582906454801559e-02 -1.651614159345626831e-02 -2.990688383579254150e-02
1.317027583718299866e-02 3.624101728200912476e-02 1.949189156293869019e-01 2.912719845771789551e-01 2.273385822772979736e-01 1.365238279104232788e-01 7.582922279834747314e-02 6.476014852523803711e-02 7.204700261354446411e-02 9.951530396938323975e-02 5.523609742522239685e-02 3.637485951185226440e-02 3.562125563621520996e-02 3.057480230927467346e-02 3.095369227230548859e-02 5.549416691064834595e-02 4.085538908839225769e-02 4.735951125621795654e-02 7.025290280580520630e-02 -9.315127972513437271e-04 9.362428099848330021e-04 -1.919469796121120453e-02 -3.509027138352394104e-02 2.565678581595420837e-02 -1.802698150277137756e-02 1.594108156859874725e-02 5.081935971975326538e-02 -3.445232659578323364e-02
-2.603095397353172302e-02 6.125383451581001282e-02 1.667545288801193237e-01 2.374819815158843994e-01 1.612858325242996216e-01 1.509439051151275635e-01 6.869416683912277222e-02 4.384915903210639954e-02 8.219482004642486572e-02 4.120783507823944092e-02 9.785757958889007568e-02 6.336668878793716431e-02 -7.313989568501710892e-03 -2.880282327532768250e-02 -5.822031293064355850e-03 -5.885621067136526108e-03 2.185309492051601410e-02 -2.816914953291416168e-02 5.673467181622982025e-03 9.089676663279533386e-03 -8.240154385566711426e-02 -8.416100591421127319e-02 -4.356075078248977661e-02 -8.929901756346225739e-03 1.610782183706760406e-02 7.489953190088272095e-03 4.292494431138038635e-02 -2.385721169412136078e-02
-2.582906559109687805e-02 2.393019571900367737e-02 1.435079574584960938e-01 1.360674649477005005e-01 2.187190353870391846e-01 1.772619336843490601e-01 1.856204122304916382e-01 1.254346370697021484e-01 1.160107031464576721e-01 9.400629997253417969e-02 9.080669283866882324e-02 7.275039702653884888e-02 1.027461513876914978e-02 1.172080356627702713e-02 -1.137479394674301147e-02 -7.622254546731710434e-03 -2.983428165316581726e-02 -2.885971404612064362e-02 -2.754652523435652256e-04 -4.965517297387123108e-02 -9.709317237138748169e-02 -8.439812064170837402e-02 -4.682527109980583191e-02 -1.818361505866050720e-02 1.248570811003446579e-02 -2.629171125590801239e-03 4.459784552454948425e-02 1.157576590776443481e-02
4.708360880613327026e-03 1.704844832420349121e-02 4.712818190455436707e-02 1.152616962790489197e-01 2.262267023324966431e-01 2.218610495328903198e-01 2.592673599720001221e-01 2.431447058916091919e-01 1.471153050661087036e-01 1.650806665420532227e-01 1.101491451263427734e-01 1.007406190037727356e-01 8.454206585884094238e-02 9.912842512130737305e-02 5.821650847792625427e-02 2.472171001136302948e-02 3.262821410316973925e-04 -2.269821427762508392e-02 -3.520057350397109985e-02 -1.015209183096885681e-01 -7.052477449178695679e-02 -3.819519653916358948e-02 -2.740613557398319244e-02 2.604336291551589966e-02 -2.182494848966598511e-02 -1.773428544402122498e-02 3.567251190543174744e-02 -3.119807690382003784e-03
7.154673337936401367e-03 2.733992412686347961e-02 1.098607853055000305e-02 5.147917196154594421e-02 8.803210407495498657e-02 1.113813519477844238e-01 2.046867460012435913e-01 2.375508844852447510e-01 2.773316204547882080e-01 2.652586996555328369e-01 2.566694915294647217e-01 2.355016618967056274e-01 2.626491785049438477e-01 2.219738662242889404e-01 1.475451141595840454e-01 1.171007826924324036e-01 8.268257975578308105e-02 4.492634534835815430e-02 3.692993894219398499e-02 1.005347631871700287e-02 5.624023452401161194e-02 -1.950182835571467876e-03 3.898358345031738281e-02 -3.474391996860504150e-02 3.468933328986167908e-02 -3.316858038306236267e-02 -2.904043160378932953e-02 1.741534844040870667e-02
3.461454063653945923e-03 2.699051424860954285e-02 -1.577021554112434387e-02 -5.921283736824989319e-03 -5.849470617249608040e-04 -9.509074152447283268e-04 1.964210905134677887e-02 1.774236001074314117e-02 2.970416098833084106e-02 3.506443277001380920e-02 7.396025955677032471e-02 3.369831666350364685e-02 7.476833462715148926e-02 8.920322358608245850e-02 7.182651758193969727e-02 4.278763756155967712e-02 8.008684217929840088e-02 5.093796178698539734e-02 4.936663433909416199e-02 6.880372017621994019e-02 2.693077549338340759e-02 5.086798593401908875e-02 -1.165237464010715485e-02 -2.530404925346374512e-02 -2.111016958951950073e-02 -3.262825310230255127e-03 1.757871359586715698e-02 -4.114698618650436401e-03
2.376459538936614990e-03 -2.773426473140716553e-02 -3.024593926966190338e-02 2.968255802989006042e-02 9.029142558574676514e-03 2.671718597412109375e-02 -1.548885554075241089e-02 2.246059849858283997e-02 -2.790296636521816254e-02 -1.789950206875801086e-02 -1.665223389863967896e-03 1.321069896221160889e-02 -1.487118005752563477e-02 1.945787668228149414e-02 -8.285501971840858459e-03 -7.821874693036079407e-03 7.869448512792587280e-03 -1.615845784544944763e-02 -1.348119974136352539e-02 -1.451489888131618500e-02 -1.812487840652465820e-02 2.475762367248535156e-02 3.140512853860855103e-03 -2.890260517597198486e-02 3.139122948050498962e-02 2.421787753701210022e-02 2.740043029189109802e-02 2.132074534893035889e-02
