-1.819927804172039032e-02 2.432866021990776062e-02 -9.158002212643623352e-03 2.863644436001777649e-02 5.627747625112533569e-03 2.841166034340858459e-02 3.012381494045257568e-03 -2.603212557733058929e-02 -1.503514871001243591e-02 -9.784592315554618835e-03 -3.132596611976623535e-05 -1.055726967751979828e-02 -2.529490925371646881e-02 -5.499713867902755737e-02 -1.144064888358116150e-01 -5.362904071807861328e-02 -2.343435026705265045e-02 -1.753123477101325989e-02 3.248391672968864441e-02 1.565873250365257263e-02 2.625182271003723145e-02 1.805501803755760193e-02 2.351545169949531555e-02 2.583622187376022339e-02 -3.065625764429569244e-02 -5.511267110705375671e-03 6.437689065933227539e-03 2.706739678978919983e-02
-2.931919321417808533e-02 -6.364163011312484741e-03 2.395115792751312256e-03 -2.436577901244163513e-02 3.116858005523681641e-02 5.341099202632904053e-02 -1.767208985984325409e-02 1.279799789190292358e-01 3.880270123481750488e-01 4.171987473964691162e-01 3.955644369125366211e-01 4.646497070789337158e-01 5.851082801818847656e-01 4.198779165744781494e-01 -2.854441292583942413e-02 -4.086379110813140869e-01 -5.367838144302368164e-01 3.802788853645324707e-01 1.178715348243713379e+00 1.103844165802001953e+00 1.143897652626037598e+00 8.306670188903808594e-01 3.636155724525451660e-01 2.427474856376647949e-01 -5.933599546551704407e-03 -3.507728129625320435e-02 -1.393259130418300629e-02 1.787794753909111023e-02
2.145617455244064331e-02 1.653735712170600891e-02 1.311107724905014038e-01 3.812081217765808105e-01 5.795070528984069824e-01 1.205248713493347168e+00 4.138009548187255859e-01 8.553012013435363770e-01 1.065795898437500000e+00 1.071303844451904297e+00 1.017042398452758789e+00 5.630415678024291992e-01 4.457795321941375732e-01 -3.783078491687774658e-01 -9.143573641777038574e-01 -4.382868409156799316e-01 -3.109861910343170166e-01 3.899097740650177002e-01 -5.991197377443313599e-02 5.466853380203247070e-01 1.222640573978424072e-01 1.349533677101135254e+00 1.006281852722167969e+00 1.214345335960388184e+00 7.036209702491760254e-01 -1.217481121420860291e-01 2.690272405743598938e-02 9.688969701528549194e-03
1.292915642261505127e-02 -9.342491626739501953e-03 -3.381561115384101868e-02 6.701318025588989258e-01 5.679644346237182617e-01 1.246654391288757324e-01 5.903511047363281250e-01 1.139462709426879883e+00 2.182403579354286194e-02 1.044636592268943787e-01 -4.418013095855712891e-01 -1.565856933593750000e-01 -1.714554131031036377e-01 -3.587754666805267334e-01 -5.993155837059020996e-01 1.135001704096794128e-01 -1.547236889600753784e-01 -3.411891758441925049e-01 -4.371222257614135742e-01 1.313642561435699463e-01 -2.054857462644577026e-01 1.450477093458175659e-01 -2.228444367647171021e-01 1.030923604965209961e+00 2.510237097740173340e-01 2.915050387382507324e-01 3.910346627235412598e-01 -3.960642963647842407e-03
9.111728519201278687e-03 -9.505032747983932495e-02 -1.355430483818054199e-01 -2.009794116020202637e-01 2.609784603118896484e-01 9.025632739067077637e-01 4.174307286739349365e-01 -5.017804503440856934e-01 -5.519832968711853027e-01 -5.581361427903175354e-02 3.658989369869232178e-01 -4.739066362380981445e-01 -9.992420673370361328e-02 1.610842198133468628e-01 1.312897205352783203e-01 -8.651208281517028809e-01 -2.125158533453941345e-02 -4.471414983272552490e-01 -2.050019055604934692e-01 1.590223610401153564e-01 2.186264544725418091e-01 2.820844948291778564e-01 -5.692470669746398926e-01 3.629904389381408691e-01 7.335595786571502686e-02 2.385757267475128174e-01 1.583830863237380981e-01 -5.304198339581489563e-02
-1.872163265943527222e-02 -9.699715301394462585e-03 2.827822268009185791e-01 7.754429429769515991e-02 2.677857503294944763e-02 1.439778804779052734e-01 -1.501565724611282349e-01 2.939834892749786377e-01 -5.338095501065254211e-02 -3.379728198051452637e-01 1.094218418002128601e-01 -6.340885758399963379e-01 -8.217646926641464233e-02 -4.786930680274963379e-01 -1.685180142521858215e-02 -2.740236222743988037e-01 9.122706204652786255e-02 -4.832727089524269104e-02 -1.954515129327774048e-01 -4.142956435680389404e-02 3.326707705855369568e-02 -9.617162495851516724e-02 1.475461572408676147e-01 1.040412425994873047e+00 3.562401235103607178e-01 2.004113942384719849e-01 3.805637955665588379e-01 2.247168868780136108e-01
-1.669646240770816803e-02 2.102011442184448242e-02 5.215902328491210938e-01 1.198134869337081909e-01 4.732635617256164551e-01 5.347820697352290154e-04 -7.166597247123718262e-01 -4.111769199371337891e-01 4.490822926163673401e-02 4.108166694641113281e-02 -2.826068997383117676e-01 -7.257274538278579712e-02 -5.269474983215332031e-01 -2.444603741168975830e-01 -4.870877861976623535e-01 -2.191089093685150146e-01 -3.151766359806060791e-01 -3.818776309490203857e-01 -5.343246459960937500e-01 -3.188780844211578369e-01 -1.741202324628829956e-01 -1.352663487195968628e-01 -9.652451612055301666e-03 3.881378769874572754e-01 5.897673964500427246e-01 5.763443112373352051e-01 7.950027585029602051e-01 5.316575765609741211e-01
2.849094010889530182e-02 -1.482863575220108032e-01 -4.165884107351303101e-02 4.992343485355377197e-02 6.186855435371398926e-01 2.381455749273300171e-01 1.346023529767990112e-01 5.113621801137924194e-02 -2.067918926477432251e-01 -1.180131584405899048e-01 -1.787168085575103760e-01 -4.641428962349891663e-02 -1.852027773857116699e-01 -2.552284300327301025e-01 -4.322865903377532959e-01 -4.107002615928649902e-01 -5.383793115615844727e-01 -2.150947153568267822e-01 -3.473700881004333496e-01 -9.740529209375381470e-02 -4.610117971897125244e-01 -2.316086292266845703e-01 -3.960561454296112061e-01 -2.631411552429199219e-01 3.592671155929565430e-01 7.361012101173400879e-01 1.133777022361755371e+00 4.542540609836578369e-01
2.274111360311508179e-01 6.782820224761962891e-01 2.977466881275177002e-01 2.003938518464565277e-02 3.224930465221405029e-01 -9.142559021711349487e-02 3.396671637892723083e-02 4.467502832412719727e-01 -2.202384918928146362e-01 -3.747244598343968391e-03 1.225583702325820923e-01 -2.082649916410446167e-01 -2.518874108791351318e-01 -3.802340626716613770e-01 -4.629620313644409180e-01 -2.622786164283752441e-01 -6.169723272323608398e-01 -1.407133191823959351e-01 -7.925631105899810791e-02 -1.991744339466094971e-01 -7.915232330560684204e-02 -1.398583948612213135e-01 -2.755475044250488281e-01 -1.359530091285705566e-01 5.834954380989074707e-01 9.345432519912719727e-01 4.387053847312927246e-01 1.987473517656326294e-01
2.464175969362258911e-01 -1.096692010760307312e-01 6.730851531028747559e-01 3.974019885063171387e-01 -4.068715125322341919e-02 2.684184312820434570e-01 7.226911187171936035e-02 3.200978636741638184e-01 1.966643631458282471e-01 -1.979989409446716309e-01 -2.551419734954833984e-01 2.280268073081970215e-01 1.654730886220932007e-01 2.123107016086578369e-02 8.205346763134002686e-02 -4.720077514648437500e-01 2.043455392122268677e-01 -6.227995082736015320e-02 -1.035237535834312439e-01 3.942316770553588867e-02 1.663813740015029907e-01 6.632141470909118652e-01 -2.059520222246646881e-02 -5.987288951873779297e-01 5.676002055406570435e-02 1.233972907066345215e+00 7.995393276214599609e-01 1.339753121137619019e-01
2.330213934183120728e-01 -1.625502854585647583e-01 4.632443189620971680e-01 -1.102698445320129395e-01 1.973807066679000854e-01 3.966847360134124756e-01 2.732984349131584167e-02 2.136657685041427612e-01 1.598119288682937622e-01 3.836354911327362061e-01 9.196623414754867554e-02 6.662845611572265625e-02 4.216718971729278564e-01 4.400928616523742676e-01 6.582268327474594116e-02 3.783106505870819092e-01 -2.194268256425857544e-01 2.555637955665588379e-01 -1.469943374395370483e-01 8.728066831827163696e-02 -7.857865653932094574e-03 1.661368310451507568e-01 -4.606850445270538330e-01 -5.831842869520187378e-02 5.491471886634826660e-01 1.178340315818786621e+00 -1.393873617053031921e-02 -3.608036339282989502e-01
2.779220938682556152e-01 9.141799807548522949e-01 3.301782906055450439e-01 5.418773293495178223e-01 -1.335666626691818237e-01 3.632434308528900146e-01 4.699156582355499268e-01 -2.870395407080650330e-02 3.444884717464447021e-01 2.581026256084442139e-01 5.541179776191711426e-01 8.156523108482360840e-02 8.359784632921218872e-02 -1.831220835447311401e-01 4.058550894260406494e-01 1.232289820909500122e-01 2.621398866176605225e-01 -2.015977650880813599e-01 1.226694658398628235e-01 1.944462805986404419e-01 -8.813402056694030762e-02 -8.921627700328826904e-02 1.337610632181167603e-01 2.645126581192016602e-01 -1.763053983449935913e-01 7.902735471725463867e-01 -7.723768353462219238e-01 -5.111690163612365723e-01
9.406828135251998901e-02 6.594472527503967285e-01 2.539720833301544189e-01 4.418224990367889404e-01 4.750991612672805786e-02 3.858340084552764893e-01 -1.657300442457199097e-01 3.339664340019226074e-01 4.022081941366195679e-02 -1.239129006862640381e-01 7.468087226152420044e-02 4.584838822484016418e-02 1.256737858057022095e-01 3.696665465831756592e-01 -3.010338917374610901e-02 2.913210690021514893e-01 1.441237032413482666e-01 -2.416183426976203918e-02 1.144330725073814392e-01 1.573558002710342407e-01 5.322083830833435059e-02 -5.585215240716934204e-02 3.499477803707122803e-01 3.104819655418395996e-01 -7.261379063129425049e-02 7.143464684486389160e-01 4.121019840240478516e-01 3.479496538639068604e-01
8.916818350553512573e-02 2.219713926315307617e-01 1.134028136730194092e-01 -2.906253039836883545e-01 -5.271798372268676758e-01 8.761219680309295654e-02 1.138007268309593201e-01 -1.515082418918609619e-01 -1.586430124007165432e-03 -2.399286627769470215e-01 -9.160123020410537720e-02 -1.780895516276359558e-02 1.878828704357147217e-01 -5.529101938009262085e-02 -7.419085502624511719e-02 6.671455502510070801e-02 1.404548883438110352e-01 1.211410611867904663e-01 1.142901182174682617e-01 2.153156548738479614e-01 2.876555323600769043e-01 5.255630984902381897e-02 1.968388110399246216e-01 5.807623267173767090e-01 4.183991253376007080e-01 2.476300448179244995e-01 8.441171646118164062e-01 3.624541461467742920e-01
1.838822364807128906e-01 -3.756287992000579834e-01 3.258041739463806152e-01 -1.103468984365463257e-02 -9.037248790264129639e-02 5.656239390373229980e-02 -4.668062329292297363e-01 -4.519107937812805176e-01 2.110354602336883545e-02 2.874703109264373779e-01 -2.381848916411399841e-02 -1.009677052497863770e-01 8.698127418756484985e-02 1.881530508399009705e-02 1.054713726043701172e-01 1.648177504539489746e-01 1.611714810132980347e-01 1.709058880805969238e-01 1.509653031826019287e-01 6.258624047040939331e-02 -9.370043873786926270e-02 5.697029829025268555e-02 2.872818410396575928e-01 2.398523390293121338e-01 2.758723199367523193e-01 4.349640607833862305e-01 9.685653448104858398e-01 4.730938076972961426e-01
-2.677558362483978271e-02 -2.673119306564331055e-01 8.082424402236938477e-01 5.507452413439750671e-02 -6.351304054260253906e-01 -1.464392989873886108e-01 1.282302141189575195e-01 -5.215334892272949219e-02 -4.518503695726394653e-02 5.917293578386306763e-02 -1.020182743668556213e-01 6.961023807525634766e-02 3.292526602745056152e-01 2.294834405183792114e-01 4.099438190460205078e-01 2.361689805984497070e-01 9.542173147201538086e-02 3.132185041904449463e-01 1.414656359702348709e-02 2.784406840801239014e-01 1.607479155063629150e-01 1.883467435836791992e-01 2.906806766986846924e-01 -2.296693623065948486e-02 -8.562779426574707031e-02 1.695106178522109985e-01 6.852622032165527344e-01 5.653731152415275574e-02
-2.293946593999862671e-01 -3.758435249328613281e-01 6.963869333267211914e-01 -8.302940987050533295e-03 -3.595836162567138672e-01 -2.621884644031524658e-01 2.996281087398529053e-01 2.369254529476165771e-01 4.666185081005096436e-01 -1.098337471485137939e-01 -7.378876954317092896e-02 -2.625527381896972656e-01 -2.032011747360229492e-01 1.829261928796768188e-01 5.119012594223022461e-01 4.826126396656036377e-01 7.675068825483322144e-02 9.046633541584014893e-02 5.579136312007904053e-02 2.033273577690124512e-01 5.730273202061653137e-02 6.001639962196350098e-01 1.022274605929851532e-02 1.545373648405075073e-01 7.910847663879394531e-01 7.708792686462402344e-01 1.158776760101318359e+00 1.213653981685638428e-01
1.388897374272346497e-02 -3.616442084312438965e-01 5.595901012420654297e-01 -1.206126213073730469e-01 2.609729766845703125e-01 1.839309334754943848e-01 5.313454866409301758e-01 -4.035955760627985001e-03 -1.273651123046875000e-01 3.007726967334747314e-01 -5.656504258513450623e-02 3.156446814537048340e-01 8.767002262175083160e-03 3.254907131195068359e-01 7.569832354784011841e-02 4.026966914534568787e-02 2.612821459770202637e-01 1.980388611555099487e-01 3.158804178237915039e-01 3.166978061199188232e-01 2.153851538896560669e-01 6.959634423255920410e-01 -7.022067159414291382e-02 2.301613837480545044e-01 4.444749951362609863e-01 1.165741562843322754e+00 5.031344890594482422e-01 2.853411994874477386e-02
-2.363133132457733154e-01 1.974182426929473877e-01 3.841984272003173828e-01 3.672545254230499268e-01 1.830029040575027466e-01 7.883837819099426270e-01 -3.665075823664665222e-02 2.062954455614089966e-01 1.035260930657386780e-01 1.889936029911041260e-01 -3.549837768077850342e-01 9.948592633008956909e-02 1.780214756727218628e-01 3.338896334171295166e-01 2.527022659778594971e-01 3.093513250350952148e-01 2.020401656627655029e-01 1.273033171892166138e-01 1.171776801347732544e-01 1.035916283726692200e-01 -3.848595023155212402e-01 2.488358765840530396e-01 -5.422649383544921875e-01 -2.845133095979690552e-02 1.119616627693176270e-01 1.134997844696044922e+00 1.327338963747024536e-01 1.544145308434963226e-02
8.517537266016006470e-02 2.172266542911529541e-01 -5.642321109771728516e-01 1.718793064355850220e-01 -3.078659176826477051e-01 7.686659693717956543e-01 5.258669704198837280e-02 3.609063923358917236e-01 9.931823611259460449e-02 9.091630578041076660e-02 5.806110054254531860e-02 3.234334588050842285e-01 -2.315831631422042847e-01 3.476503789424896240e-01 4.525564014911651611e-01 4.326099157333374023e-01 1.460181176662445068e-01 4.408133029937744141e-01 2.567219138145446777e-01 -8.779504150152206421e-02 2.938229963183403015e-02 -9.645491093397140503e-02 -4.791959002614021301e-02 -1.224691271781921387e-01 -3.363243639469146729e-01 -7.797437906265258789e-02 6.567800045013427734e-01 1.091188788414001465e-01
3.224545344710350037e-02 -1.800159066915512085e-01 -4.018041789531707764e-01 1.232522949576377869e-01 1.722425222396850586e-01 1.667943298816680908e-01 8.218561857938766479e-02 1.869869977235794067e-01 1.375097502022981644e-02 1.628939956426620483e-01 3.720545768737792969e-02 -4.460798203945159912e-02 -2.085313014686107635e-02 2.815724164247512817e-02 8.451011776924133301e-02 9.822493791580200195e-02 2.667845189571380615e-01 1.362285614013671875e-01 4.948492348194122314e-01 -2.369398772716522217e-01 -1.772264251485466957e-03 1.009916421025991440e-02 -9.268706291913986206e-02 -5.115433335304260254e-01 -1.603476405143737793e-01 -1.461989879608154297e-01 8.172697424888610840e-01 3.336258977651596069e-02
3.059639334678649902e-01 -1.001157686114311218e-01 -7.015158534049987793e-01 -5.103743672370910645e-01 -3.180814087390899658e-01 -1.464540720917284489e-03 -8.060014247894287109e-02 -3.192872181534767151e-02 2.219205051660537720e-01 -9.422460943460464478e-02 -1.134638413786888123e-01 3.306483626365661621e-01 -7.125037908554077148e-02 -1.769322752952575684e-01 5.820470303297042847e-02 5.543521419167518616e-02 -5.304356664419174194e-02 3.414907753467559814e-01 -1.759321838617324829e-01 -6.743401288986206055e-02 1.083905100822448730e-01 -9.012830257415771484e-02 7.881157845258712769e-02 -4.632823467254638672e-01 -2.658425867557525635e-01 -1.237549409270286560e-01 6.648366451263427734e-01 -8.517995476722717285e-03
3.356613814830780029e-01 2.763786613941192627e-01 -3.020579181611537933e-02 -4.675256088376045227e-03 -6.798645853996276855e-01 -1.093846678733825684e+00 -5.979839563369750977e-01 -1.528334915637969971e-01 -4.846377670764923096e-01 4.456518590450286865e-02 1.848676204681396484e-01 -1.054181456565856934e-01 -1.960397362709045410e-01 9.672506153583526611e-02 -1.678476631641387939e-01 -5.445757880806922913e-02 -1.186221539974212646e-01 -1.616468131542205811e-01 -1.250420957803726196e-01 5.911659002304077148e-01 -2.945001423358917236e-01 2.808891832828521729e-01 2.335022985935211182e-01 -6.035916805267333984e-01 -2.715463638305664062e-01 2.160239219665527344e-01 5.743532180786132812e-01 2.020259201526641846e-02
-3.361540660262107849e-02 -7.827682420611381531e-03 -4.565851688385009766e-01 -2.673577070236206055e-01 -8.741565793752670288e-02 1.263172179460525513e-01 -3.208082541823387146e-02 -6.480739116668701172e-01 -1.788778752088546753e-01 1.905425041913986206e-01 -4.005949795246124268e-01 1.650251001119613647e-01 1.056566387414932251e-01 -3.877161443233489990e-01 -1.318489164113998413e-01 -1.772575974464416504e-01 -4.149062559008598328e-02 -2.553138136863708496e-01 -2.044254690408706665e-01 1.453098803758621216e-01 1.687756925821304321e-01 -4.444655030965805054e-02 -3.250937461853027344e-01 -5.252556800842285156e-01 -4.342883229255676270e-01 2.256880849599838257e-01 3.861951828002929688e-01 2.333845570683479309e-02
1.019458845257759094e-02 -3.084827028214931488e-02 -4.818933457136154175e-02 -1.259048879146575928e-01 -7.280339002609252930e-01 -4.876933395862579346e-01 -4.237567782402038574e-01 -6.438059806823730469e-01 -7.966068983078002930e-01 -2.669906020164489746e-01 -7.594584822654724121e-01 -3.485634624958038330e-01 -4.367565214633941650e-01 -2.598609030246734619e-01 -4.387944191694259644e-02 -2.961131632328033447e-01 -3.618415817618370056e-02 -3.381133312359452248e-03 -3.589558005332946777e-01 -9.881006181240081787e-02 3.480913117527961731e-02 -3.204949796199798584e-01 -2.452891916036605835e-01 9.745268523693084717e-02 -3.763956725597381592e-01 6.115994453430175781e-01 2.474390268325805664e-01 3.231186792254447937e-02
-2.731130458414554596e-02 1.035263761878013611e-02 -2.567325159907341003e-02 -9.788425266742706299e-02 -3.824992775917053223e-01 9.268626570701599121e-02 -1.551849246025085449e-01 -6.335407495498657227e-01 -1.116525530815124512e+00 -8.220615386962890625e-01 -6.914013624191284180e-01 -3.460831940174102783e-01 -6.682689785957336426e-01 -3.673571646213531494e-01 -4.968686997890472412e-01 -6.204763650894165039e-01 -5.656948685646057129e-01 -4.390593469142913818e-01 -5.067311525344848633e-01 -8.046749234199523926e-01 -7.446758151054382324e-01 -5.517389774322509766e-01 -5.553144216537475586e-01 -2.693700194358825684e-01 -6.248406767845153809e-01 -1.216308698058128357e-01 2.031433284282684326e-01 -1.435027085244655609e-02
-2.601657062768936157e-03 1.605089753866195679e-02 2.069648355245590210e-03 -2.121554873883724213e-02 -6.155379414558410645e-01 -2.207770943641662598e-01 -4.822289049625396729e-01 -4.048676490783691406e-01 -6.536924839019775391e-01 -8.216972351074218750e-01 -8.826942443847656250e-01 -4.223117828369140625e-01 -7.684577703475952148e-01 -3.364781439304351807e-01 -9.865928292274475098e-01 -8.785309195518493652e-01 -8.929410576820373535e-01 -1.272344827651977539e+00 -9.349895715713500977e-01 -1.013678789138793945e+00 -8.929318189620971680e-01 -6.081646084785461426e-01 -6.926601529121398926e-01 -7.716586589813232422e-01 -1.993946172297000885e-02 2.595097571611404419e-02 -8.115671575069427490e-03 -3.077949956059455872e-02
1.795990765094757080e-02 -3.028660640120506287e-02 -3.565858677029609680e-02 2.093958482146263123e-02 2.788197398185729980e-01 6.333478689193725586e-01 7.414712309837341309e-01 1.090590834617614746e+00 2.680865526199340820e-01 5.885666608810424805e-01 5.573830381035804749e-02 -3.808575272560119629e-01 -1.252897828817367554e-01 -4.357484579086303711e-01 -1.463727474212646484e+00 -6.913467049598693848e-01 3.844669833779335022e-02 4.177875518798828125e-01 7.684288173913955688e-02 -6.170913577079772949e-02 1.445749402046203613e-01 7.684623599052429199e-01 7.708562612533569336e-01 5.223376750946044922e-01 -3.546299412846565247e-02 -2.574965357780456543e-02 -3.103683888912200928e-02 -2.435534447431564331e-02
