-2.389669418334960938e-02 -6.188342347741127014e-03 9.782787412405014038e-03 -1.299771666526794434e-02 2.639921754598617554e-02 -6.371626630425453186e-03 2.773690968751907349e-03 1.924458891153335571e-03 2.306427434086799622e-02 6.353292614221572876e-03 -2.272494882345199585e-02 -1.929439976811408997e-02 1.009605452418327332e-01 1.067819669842720032e-01 4.407284781336784363e-02 -3.070691600441932678e-03 -1.465856283903121948e-02 1.573733985424041748e-02 7.379103451967239380e-03 -3.230373561382293701e-02 2.035389468073844910e-02 -2.636256441473960876e-02 -2.317304350435733795e-02 1.176261901855468750e-02 1.905173435807228088e-02 1.055179536342620850e-02 2.766406908631324768e-02 -1.692260615527629852e-02
1.395494118332862854e-02 2.287154272198677063e-02 3.920964896678924561e-03 1.241716742515563965e-02 2.160536684095859528e-02 8.381181210279464722e-02 2.752938270568847656e-01 4.598147273063659668e-01 7.492522001266479492e-01 8.487443923950195312e-01 1.347761392593383789e+00 1.615018844604492188e+00 1.463863611221313477e+00 1.185329198837280273e+00 9.803430438041687012e-01 6.108601093292236328e-01 9.245562553405761719e-01 8.336942195892333984e-01 1.755759477615356445e+00 1.432886481285095215e+00 9.535273909568786621e-01 5.814982652664184570e-01 -1.941706053912639618e-02 -2.725674510002136230e-01 -4.841681569814682007e-03 -1.258746348321437836e-02 8.885830640792846680e-03 -3.778327256441116333e-03
3.511145338416099548e-02 3.100537881255149841e-02 2.561113238334655762e-01 -7.530498318374156952e-03 3.658747375011444092e-01 -3.434469923377037048e-02 2.413285970687866211e-01 -1.506249159574508667e-01 -4.882295057177543640e-02 5.581530332565307617e-01 8.210150599479675293e-01 2.207063138484954834e-01 1.731236129999160767e-01 3.543915748596191406e-01 7.625003457069396973e-01 1.658319681882858276e-01 -1.225377321243286133e-01 -1.040878415107727051e+00 3.970647454261779785e-01 1.008177757263183594e+00 1.085715174674987793e+00 1.024535059928894043e+00 1.196552753448486328e+00 6.311043500900268555e-01 6.356267333030700684e-01 3.812085390090942383e-01 -3.456533700227737427e-02 1.777106150984764099e-02
2.699543908238410950e-02 -3.104231320321559906e-02 3.184596598148345947e-01 5.430967211723327637e-01 5.209444761276245117e-01 1.017500981688499451e-01 5.233693718910217285e-01 -2.162765264511108398e-01 1.010885536670684814e-01 3.949725627899169922e-02 1.434933543205261230e-01 -2.090217173099517822e-02 2.705648541450500488e-01 -1.188669055700302124e-01 -1.576558202505111694e-01 -9.766474366188049316e-02 3.066236153244972229e-02 -2.941187843680381775e-02 2.272313535213470459e-01 -8.459471464157104492e-01 4.985072910785675049e-01 -3.619224950671195984e-02 3.892464041709899902e-01 1.562305241823196411e-01 -8.259713649749755859e-02 -5.329857468605041504e-01 -1.547555178403854370e-01 -2.858522720634937286e-02
-3.634933382272720337e-03 6.710994243621826172e-02 3.946001529693603516e-01 5.855367779731750488e-01 4.510859847068786621e-01 4.629865288734436035e-01 2.206746637821197510e-01 -2.079136967658996582e-01 5.952823758125305176e-01 2.355579286813735962e-02 5.529424548149108887e-01 5.040397644042968750e-01 -7.980138063430786133e-02 1.507218927145004272e-02 1.011055260896682739e-01 -5.121545121073722839e-02 2.117288559675216675e-01 8.002105355262756348e-02 -1.239702850580215454e-01 2.442988380789756775e-02 2.570869922637939453e-01 1.127759441733360291e-01 1.209316998720169067e-01 1.017437800765037537e-01 3.859066367149353027e-01 1.414903402328491211e-01 8.565628528594970703e-01 1.852125376462936401e-01
-2.412443235516548157e-02 -1.899380795657634735e-02 1.011471390724182129e+00 4.819407165050506592e-01 8.119451403617858887e-01 4.056167602539062500e-01 2.731515169143676758e-01 2.675206959247589111e-01 -2.509408295154571533e-01 -2.096329033374786377e-01 -1.635815948247909546e-01 -1.796494424343109131e-01 2.675879299640655518e-01 7.431915402412414551e-02 7.753973454236984253e-02 1.722830235958099365e-01 2.521480247378349304e-02 1.227076798677444458e-01 -4.068298637866973877e-02 4.353006184101104736e-02 8.184442669153213501e-02 -2.039147019386291504e-01 1.364221237599849701e-02 -1.785180568695068359e-01 4.383398592472076416e-01 4.513343870639801025e-01 3.199735283851623535e-01 3.928248286247253418e-01
1.813555136322975159e-02 2.057830691337585449e-01 4.890828207135200500e-02 2.004315331578254700e-02 2.997769415378570557e-01 -2.756889760494232178e-01 -2.316171377897262573e-01 3.755807578563690186e-01 1.923040114343166351e-02 2.358421385288238525e-01 2.066682875156402588e-01 2.598732896149158478e-02 4.958396893925964832e-04 -2.744472771883010864e-02 -1.971536688506603241e-02 4.399061948060989380e-02 -8.545369654893875122e-02 6.640239059925079346e-02 -7.142375409603118896e-02 -5.568996816873550415e-02 1.313956528902053833e-01 -1.661119759082794189e-01 -1.482854783535003662e-01 -3.386946320533752441e-01 -8.256214112043380737e-02 3.712920546531677246e-01 6.789330840110778809e-01 1.087315846234560013e-02
-1.623688824474811554e-02 7.665152549743652344e-01 4.120941087603569031e-02 3.299494460225105286e-02 2.538052760064601898e-02 3.709052398335188627e-04 -1.616844087839126587e-01 -1.871468722820281982e-01 -1.507744789123535156e-01 7.466797530651092529e-02 8.420746028423309326e-02 -1.338543146848678589e-01 -1.106035243719816208e-02 -9.189303219318389893e-02 2.087693214416503906e-01 -3.147955611348152161e-02 7.857126742601394653e-02 1.987185701727867126e-02 -6.165528297424316406e-02 -7.629578933119773865e-03 -5.251935496926307678e-02 -4.366391152143478394e-02 -2.394146472215652466e-01 1.899626106023788452e-01 -9.083585813641548157e-03 3.037522733211517334e-01 3.171377778053283691e-01 2.151529937982559204e-01
-7.860080897808074951e-02 -1.558836698532104492e-01 -5.223406553268432617e-01 1.053871810436248779e-01 3.973218500614166260e-01 3.757593929767608643e-01 1.258717775344848633e-01 2.741308510303497314e-01 3.485756367444992065e-02 -4.108057543635368347e-02 -1.463304739445447922e-02 1.823165453970432281e-02 2.717918902635574341e-02 2.120611965656280518e-01 -7.804763317108154297e-02 -4.229029640555381775e-03 -8.893644809722900391e-02 -1.292582750320434570e-01 -7.102178037166595459e-02 1.158913671970367432e-01 -1.013885959982872009e-01 8.205297589302062988e-02 1.423312276601791382e-01 -1.970081925392150879e-01 3.658823668956756592e-01 4.334950149059295654e-01 3.343135714530944824e-01 2.863933145999908447e-01
-4.475676454603672028e-03 6.648101210594177246e-01 -4.822205007076263428e-01 -5.118030123412609100e-03 4.015021920204162598e-01 -2.431516796350479126e-01 2.513784766197204590e-01 2.891356647014617920e-01 7.341112941503524780e-02 -7.322548329830169678e-02 -2.099476382136344910e-02 8.051434159278869629e-02 3.645802661776542664e-02 1.292289197444915771e-01 1.646771878004074097e-01 2.458400838077068329e-02 -9.810340404510498047e-02 1.657945513725280762e-01 -6.330490857362747192e-02 -7.794976234436035156e-02 -2.090266346931457520e-02 -1.703727990388870239e-02 2.050547301769256592e-01 3.451055660843849182e-02 4.584503173828125000e-01 7.172217369079589844e-01 1.666734933853149414e+00 4.274038672447204590e-01
-9.780333377420902252e-03 4.269347190856933594e-01 -4.580569565296173096e-01 -1.810847967863082886e-01 3.412081599235534668e-01 -1.886416375637054443e-01 3.894292116165161133e-01 -8.288922905921936035e-02 2.896223962306976318e-01 1.638409309089183807e-02 3.270952701568603516e-01 -2.155923694372177124e-01 -1.153993234038352966e-02 1.259980648756027222e-01 2.867595851421356201e-01 -1.060961633920669556e-01 1.520495954900979996e-02 -1.996406167745590210e-01 -6.686864793300628662e-02 2.519520930945873260e-02 -1.008566096425056458e-02 -2.380856275558471680e-01 -3.237924873828887939e-01 1.331864893436431885e-01 5.484648942947387695e-01 7.267992943525314331e-02 1.160192847251892090e+00 6.278682947158813477e-01
-8.337293565273284912e-02 -7.809573411941528320e-01 -7.165878415107727051e-01 3.269276618957519531e-01 4.433212578296661377e-01 3.012789785861968994e-01 7.977084070444107056e-02 1.854075491428375244e-01 1.136051714420318604e-01 3.634544834494590759e-02 9.171480685472488403e-02 1.418849527835845947e-01 2.998403608798980713e-01 2.378799468278884888e-01 5.793878436088562012e-01 2.096468508243560791e-01 1.087863221764564514e-01 5.606260523200035095e-02 5.988812819123268127e-02 -4.910181090235710144e-02 9.613051265478134155e-02 3.975684568285942078e-02 -5.378464981913566589e-02 -7.747019827365875244e-02 3.262631297111511230e-01 -4.438852518796920776e-02 1.208970189094543457e+00 9.227350354194641113e-01
-9.205085039138793945e-02 -9.231768846511840820e-01 -4.169601202011108398e-01 1.966529190540313721e-01 1.183277517557144165e-01 2.344182133674621582e-01 -3.137885332107543945e-01 4.107554852962493896e-01 -1.338053047657012939e-01 2.441743016242980957e-02 9.350395947694778442e-02 -9.003625810146331787e-02 -3.632983192801475525e-02 3.385282456874847412e-01 3.734455108642578125e-01 3.262595832347869873e-01 -7.192965131253004074e-03 1.452965438365936279e-01 -3.477401658892631531e-02 -1.947392076253890991e-01 -6.308152526617050171e-02 -1.978207230567932129e-01 -5.889697000384330750e-02 2.733794227242469788e-02 -6.402816176414489746e-01 -3.921507000923156738e-01 -3.665671646595001221e-01 8.909957408905029297e-01
3.065105378627777100e-01 -6.364930868148803711e-01 -3.004581034183502197e-01 4.084095358848571777e-01 -1.252163648605346680e-01 2.098507732152938843e-01 -7.418304681777954102e-02 -4.530026763677597046e-02 -2.086304128170013428e-02 1.551121920347213745e-01 -1.235735118389129639e-01 -1.747083291411399841e-02 2.335881590843200684e-01 5.686348676681518555e-01 2.898246943950653076e-01 2.137315720319747925e-01 1.843152046203613281e-01 1.263316273689270020e-01 1.904195994138717651e-01 2.799503207206726074e-01 2.403726130723953247e-01 1.808548695407807827e-03 -5.707533657550811768e-02 2.022660151124000549e-02 -3.123352229595184326e-01 2.519051730632781982e-02 -1.712247729301452637e-01 2.500059902667999268e-01
-5.810197442770004272e-03 2.854476571083068848e-01 -6.355774402618408203e-01 1.619838029146194458e-01 -2.897683978080749512e-01 -2.437175959348678589e-01 -1.323357224464416504e-01 -2.972036302089691162e-01 6.701193749904632568e-02 9.512247145175933838e-02 -2.913390398025512695e-01 4.696317762136459351e-02 1.975156068801879883e-01 1.493075042963027954e-01 4.863293468952178955e-01 1.114495247602462769e-01 9.367489069700241089e-02 1.666441112756729126e-01 -8.890289813280105591e-02 -1.790727078914642334e-01 -9.178268909454345703e-02 -7.707401644438505173e-03 -1.566250622272491455e-01 -2.518951296806335449e-01 -5.124026536941528320e-01 5.197041630744934082e-01 -2.498185932636260986e-01 5.797439068555831909e-02
8.636555820703506470e-02 3.081792593002319336e-01 -1.966997385025024414e-01 3.831389546394348145e-01 -1.816334873437881470e-01 -7.382743954658508301e-01 1.264006793498992920e-01 -3.325574696063995361e-01 -1.187769994139671326e-01 -3.644776344299316406e-02 -2.058684974908828735e-01 2.510010004043579102e-01 2.291236966848373413e-01 3.347110450267791748e-01 4.667285084724426270e-01 7.083369046449661255e-02 1.128175333142280579e-01 -6.952812522649765015e-02 2.213714644312858582e-02 -1.032138168811798096e-01 2.779982984066009521e-01 8.588789403438568115e-02 -1.719350516796112061e-01 1.053642854094505310e-01 3.643360733985900879e-01 8.884621411561965942e-02 -6.615927219390869141e-01 -5.193817615509033203e-01
1.461786925792694092e-01 7.772891521453857422e-01 9.383551776409149170e-02 3.294169008731842041e-01 -5.610198900103569031e-02 5.970878899097442627e-02 -2.014033123850822449e-02 1.463412027806043625e-02 -2.245081365108489990e-01 -1.800426542758941650e-01 -1.398551315069198608e-01 -4.819135740399360657e-02 8.796018362045288086e-02 3.412277698516845703e-01 1.402378380298614502e-01 -8.543043583631515503e-02 -7.887655869126319885e-03 -2.781930863857269287e-01 1.662639975547790527e-01 -1.237273141741752625e-01 -1.026265397667884827e-01 -2.171954959630966187e-01 1.109234318137168884e-01 2.574926614761352539e-02 1.956459134817123413e-02 -7.457683682441711426e-01 -6.501474380493164062e-01 -6.497955918312072754e-01
2.072269842028617859e-02 9.804515242576599121e-01 5.723180174827575684e-01 1.792223155498504639e-01 -1.398164629936218262e-01 -4.482918977737426758e-02 -2.498552501201629639e-01 5.497268214821815491e-02 -1.118125244975090027e-01 -2.508994042873382568e-01 -3.174639046192169189e-01 -6.501535177230834961e-01 -2.197258919477462769e-01 1.318618282675743103e-02 -1.251287851482629776e-02 -1.337900310754776001e-01 -5.900320410728454590e-02 8.827236294746398926e-02 -4.659852012991905212e-02 1.126958057284355164e-01 -7.277847081422805786e-02 2.467991411685943604e-01 -1.514679640531539917e-01 1.455680429935455322e-01 1.335362195968627930e-01 -2.884183526039123535e-01 -2.866340577602386475e-01 -7.304345965385437012e-01
6.960656642913818359e-01 8.740839958190917969e-01 1.030955433845520020e+00 1.390721201896667480e-01 -8.564324676990509033e-02 1.887844949960708618e-01 1.423566788434982300e-01 -1.428991854190826416e-01 -8.029748499393463135e-02 -5.580384749919176102e-03 5.843259394168853760e-02 5.586881935596466064e-02 -9.398245066404342651e-02 -1.497959047555923462e-01 -9.559285640716552734e-02 2.189876884222030640e-02 -5.834423005580902100e-02 -3.281771764159202576e-02 -3.403156995773315430e-01 5.363388918340206146e-04 1.684177666902542114e-02 -1.079692095518112183e-01 -1.761181652545928955e-01 -1.170605793595314026e-01 -2.779425382614135742e-01 2.048134654760360718e-01 -2.208063900470733643e-01 1.065890565514564514e-01
1.955647319555282593e-01 -1.076130867004394531e-01 4.387846887111663818e-01 1.658151000738143921e-01 3.013732098042964935e-02 2.329804562032222748e-02 1.788117457181215286e-03 -5.153897404670715332e-02 -1.754859834909439087e-01 -2.339686751365661621e-01 -4.080561175942420959e-02 -3.975603580474853516e-01 -2.133846133947372437e-01 -1.490813791751861572e-01 -2.803936786949634552e-02 -7.816351950168609619e-02 -4.413912072777748108e-03 2.506932802498340607e-02 1.229932606220245361e-01 -3.932137414813041687e-02 3.498445451259613037e-02 -8.143492043018341064e-02 2.385398000478744507e-01 -9.827893972396850586e-02 -4.935550093650817871e-01 -5.808147192001342773e-01 -1.149938583374023438e+00 5.926550030708312988e-01
-1.322629675269126892e-02 9.287979453802108765e-02 -5.815497413277626038e-02 4.457472357898950577e-03 3.239424526691436768e-02 -3.005341589450836182e-01 2.429507076740264893e-01 -9.719377011060714722e-02 -1.093749925494194031e-01 -3.672268614172935486e-02 -5.265717953443527222e-02 -7.980488240718841553e-02 -2.845008075237274170e-01 -4.573135823011398315e-02 9.381408244371414185e-02 -1.077068969607353210e-01 1.185038536787033081e-01 5.112904682755470276e-02 3.238893449306488037e-01 -1.649646610021591187e-01 2.722003459930419922e-01 -2.490872703492641449e-02 4.675491154193878174e-01 1.421466916799545288e-01 -3.751006126403808594e-01 -3.510931432247161865e-01 -3.301117718219757080e-01 1.347507089376449585e-01
3.128729462623596191e-01 1.145906090736389160e+00 2.946796417236328125e-01 2.264058031141757965e-02 4.653739929199218750e-01 -2.907067239284515381e-01 1.103957444429397583e-01 2.167558223009109497e-01 -1.400390919297933578e-02 1.283639669418334961e-01 5.053529888391494751e-02 -9.221356362104415894e-02 -3.718720003962516785e-02 1.957358233630657196e-02 -1.934736035764217377e-02 -1.967738941311836243e-02 3.371001407504081726e-02 -4.723276570439338684e-02 -1.261834520846605301e-02 7.412744313478469849e-02 1.571524888277053833e-01 -2.493013590574264526e-01 -1.968038678169250488e-01 -2.982518970966339111e-01 -6.686857938766479492e-01 -6.130644083023071289e-01 -1.273866593837738037e-01 -2.508373931050300598e-02
3.023455440998077393e-01 4.530951082706451416e-01 5.100607872009277344e-02 -2.041919678449630737e-01 1.428333818912506104e-01 1.501390188932418823e-01 1.330123990774154663e-01 1.037857588380575180e-02 5.776584893465042114e-02 -1.417259424924850464e-01 -1.464452296495437622e-01 1.310804635286331177e-01 -5.191242322325706482e-02 -1.202412620186805725e-01 3.258657827973365784e-02 1.270526647567749023e-01 1.148441731929779053e-01 1.909593194723129272e-01 -1.399959772825241089e-01 1.649882495403289795e-01 -6.095805019140243530e-02 -6.342644989490509033e-02 9.217982739210128784e-02 -2.551693022251129150e-01 -2.935436964035034180e-01 -9.772297739982604980e-02 2.638399004936218262e-01 -3.522492200136184692e-02
1.872583106160163879e-02 -3.315313532948493958e-02 1.291025042533874512e+00 4.602086544036865234e-01 1.653257459402084351e-01 1.685172021389007568e-01 -1.369315236806869507e-01 -1.387711893767118454e-02 -9.990327060222625732e-02 -2.130211889743804932e-01 1.024483069777488708e-01 -5.114474520087242126e-02 -1.713684052228927612e-01 3.121503889560699463e-01 -1.021699160337448120e-01 -1.541528403759002686e-01 -4.194869846105575562e-02 8.684570342302322388e-02 1.502070277929306030e-01 1.277658995240926743e-02 3.128547072410583496e-01 -2.064479142427444458e-01 -4.851473271846771240e-01 -1.346767991781234741e-01 -1.011131331324577332e-01 -3.074621260166168213e-01 1.267113804817199707e+00 2.403004840016365051e-02
3.044330701231956482e-02 -1.740787737071514130e-02 4.392333924770355225e-01 5.878871679306030273e-01 4.437007009983062744e-02 6.074596047401428223e-01 3.379233479499816895e-01 2.678523957729339600e-01 -1.662046834826469421e-02 4.131674021482467651e-02 2.307836711406707764e-01 2.047916203737258911e-01 -1.781692951917648315e-01 1.362201664596796036e-02 1.733620278537273407e-02 -1.602033674716949463e-01 2.701120972633361816e-01 -2.321673780679702759e-01 -1.834870725870132446e-01 -2.605177462100982666e-01 2.374653220176696777e-01 -1.338437497615814209e-01 -3.789671361446380615e-01 -2.310237735509872437e-01 -5.651325732469558716e-02 -6.546762585639953613e-01 -2.922867983579635620e-02 2.969200536608695984e-02
-2.374668419361114502e-02 9.440708905458450317e-03 9.661080688238143921e-02 -4.451651275157928467e-01 -4.774016141891479492e-01 3.519548475742340088e-01 2.840336561203002930e-01 3.671738803386688232e-01 8.090268820524215698e-02 2.355943918228149414e-01 2.770951762795448303e-02 7.139994297176599503e-03 -2.545094862580299377e-02 -3.076948970556259155e-02 -5.477112159132957458e-02 -4.243090450763702393e-01 -4.567322731018066406e-01 2.014977037906646729e-01 -2.848668694496154785e-01 -2.600708007812500000e-01 -3.363436758518218994e-01 -3.554437160491943359e-01 1.661812700331211090e-02 -1.829719692468643188e-01 -2.399671375751495361e-01 -1.821311712265014648e-01 -1.647468060255050659e-01 2.021508291363716125e-02
1.554656401276588440e-02 -6.052549928426742554e-03 -1.048812270164489746e-02 3.098706603050231934e-01 6.060933470726013184e-01 3.156358003616333008e-01 1.206576451659202576e-01 1.751689761877059937e-01 -3.093111217021942139e-01 3.011788800358772278e-02 -6.967449933290481567e-02 -2.369140088558197021e-01 9.831044077873229980e-02 -1.064688339829444885e-01 3.548986613750457764e-01 2.109790891408920288e-01 1.458070799708366394e-02 -1.147645190358161926e-01 -5.078274607658386230e-01 -1.847552657127380371e-01 -5.069413036108016968e-02 3.562006168067455292e-04 -1.378752887248992920e-01 8.183831721544265747e-02 2.737063467502593994e-01 9.991881251335144043e-02 -2.474850974977016449e-02 -4.226636141538619995e-03
6.605871021747589111e-03 2.620281651616096497e-02 -3.213384374976158142e-02 -1.312122680246829987e-02 -1.614696383476257324e-01 -8.857513964176177979e-02 -4.542280435562133789e-01 -8.639066219329833984e-01 -4.071559906005859375e-01 -7.492027282714843750e-01 3.811181783676147461e-01 5.192628502845764160e-01 -5.199432373046875000e-01 -3.140415847301483154e-01 3.374910354614257812e-01 -2.791143357753753662e-01 -4.813952445983886719e-01 -6.193209886550903320e-01 -3.510957360267639160e-01 -2.305213660001754761e-01 -1.175191774964332581e-01 -2.176447659730911255e-01 -9.856270253658294678e-02 -2.068447917699813843e-01 3.211220726370811462e-02 1.747012138366699219e-02 3.454558923840522766e-02 2.375878021121025085e-02
