-8.746968582272529602e-03 -1.663494668900966644e-02 1.265949755907058716e-02 2.462069690227508545e-02 5.926441401243209839e-03 1.804879680275917053e-02 1.448341831564903259e-02 -2.442940324544906616e-02 1.489791274070739746e-02 3.507878258824348450e-02 1.329544559121131897e-02 2.173396944999694824e-02 -4.504329711198806763e-02 -2.503580041229724884e-02 -2.127637714147567749e-02 5.159592838026583195e-04 -2.316204644739627838e-02 -7.285961881279945374e-03 1.915508508682250977e-02 1.285384595394134521e-02 -6.790684536099433899e-03 2.645326778292655945e-02 -7.279727607965469360e-03 2.905880287289619446e-02 -1.763661950826644897e-02 1.338114589452743530e-02 -1.378841511905193329e-02 -3.030386194586753845e-02
2.125690877437591553e-02 -3.001805767416954041e-02 -3.451168537139892578e-02 2.159338444471359253e-03 1.279056817293167114e-02 5.640755221247673035e-02 1.168829277157783508e-01 2.679790556430816650e-01 1.747250109910964966e-01 3.212386369705200195e-01 2.776069641113281250e-01 5.148300528526306152e-01 5.223639011383056641e-01 1.360664963722229004e-01 -9.230712056159973145e-01 -4.938792884349822998e-01 -4.983671903610229492e-01 -1.959923654794692993e-01 -3.261347413063049316e-01 1.708388328552246094e-01 4.874140620231628418e-01 3.660934269428253174e-01 3.512105047702789307e-01 3.910563290119171143e-01 2.144713327288627625e-02 -2.097404003143310547e-02 1.870017126202583313e-02 2.280422672629356384e-02
-6.123015657067298889e-03 -3.171703219413757324e-02 3.968231752514839172e-02 3.413950800895690918e-01 1.567475199699401855e-01 -3.245075047016143799e-01 -2.099962234497070312e-01 5.330993980169296265e-02 2.760594487190246582e-01 5.020557641983032227e-01 6.873377561569213867e-01 3.226404786109924316e-01 4.238225221633911133e-01 -2.519920654594898224e-02 -6.353511214256286621e-01 -2.276376187801361084e-01 7.924679666757583618e-02 3.845077753067016602e-01 5.772991776466369629e-01 6.776449680328369141e-01 1.951424628496170044e-01 1.062967032194137573e-01 8.643548190593719482e-02 5.285059809684753418e-01 2.481118142604827881e-01 3.291243016719818115e-01 -2.202686667442321777e-02 -8.094621822237968445e-03
3.123804926872253418e-04 2.225657552480697632e-02 -1.966413110494613647e-01 3.498370945453643799e-01 1.272909343242645264e-01 -8.820522576570510864e-02 3.266392052173614502e-01 5.338413119316101074e-01 8.375473022460937500e-01 2.577141225337982178e-01 4.163513183593750000e-01 3.501980006694793701e-01 3.109030127525329590e-01 3.660554587841033936e-01 1.820394247770309448e-01 4.703039675951004028e-02 -1.652991026639938354e-02 3.061034977436065674e-01 1.366029530763626099e-01 3.609661757946014404e-01 6.788371801376342773e-01 5.092084407806396484e-01 4.129052162170410156e-01 3.844960033893585205e-01 2.548867464065551758e-01 5.121259093284606934e-01 2.077539414167404175e-01 -2.493108250200748444e-02
-2.782035805284976959e-02 -2.303668856620788574e-02 -4.267330765724182129e-01 -1.927284449338912964e-01 -4.016693532466888428e-01 -5.599613189697265625e-01 1.948146373033523560e-01 1.933401525020599365e-01 -4.070722162723541260e-01 1.591334044933319092e-01 -1.301215440034866333e-01 -1.762749552726745605e-01 2.853940613567829132e-02 -1.008594483137130737e-01 -8.180058002471923828e-02 2.396664470434188843e-01 4.838944599032402039e-02 1.738590896129608154e-01 2.678039297461509705e-02 6.747060455381870270e-03 -4.938268288969993591e-02 2.106741070747375488e-01 3.110255897045135498e-01 4.577195644378662109e-01 3.042408525943756104e-01 3.663251399993896484e-01 -1.006264761090278625e-01 -2.917927922680974007e-03
-5.603505298495292664e-03 2.133920788764953613e-02 -1.898852586746215820e-01 -1.691305041313171387e-01 -2.380566857755184174e-02 -4.623648226261138916e-01 -4.083756357431411743e-02 4.319497942924499512e-02 -2.929024696350097656e-01 -1.785648167133331299e-01 2.949123680591583252e-01 -2.719663381576538086e-01 -1.468604356050491333e-01 -7.256332901306450367e-04 8.086836338043212891e-02 -4.337011277675628662e-02 5.254045128822326660e-02 1.198999285697937012e-01 2.387186586856842041e-01 2.514230459928512573e-02 1.079168468713760376e-01 -9.220172464847564697e-02 -1.648925393819808960e-01 6.483697146177291870e-02 -3.979180455207824707e-01 3.707414865493774414e-02 -2.553837001323699951e-01 -3.987030684947967529e-01
2.261492982506752014e-02 -3.829680383205413818e-02 1.436854060739278793e-02 -2.812568843364715576e-02 -1.865591555833816528e-01 3.210682794451713562e-02 5.337832868099212646e-02 1.108097210526466370e-01 1.616012752056121826e-01 2.632968127727508545e-02 4.822749271988868713e-02 9.054339677095413208e-02 -6.459490209817886353e-02 6.639867555350065231e-03 -1.796130239963531494e-01 -2.583962976932525635e-01 -1.873535215854644775e-01 -1.297855824232101440e-01 -8.544979244470596313e-02 -8.154859393835067749e-02 1.269205957651138306e-01 -2.322503179311752319e-02 3.667709231376647949e-02 -2.296596765518188477e-01 3.226656913757324219e-01 -3.343999087810516357e-01 -2.749771177768707275e-01 2.093385457992553711e-01
1.718769408762454987e-02 2.499850541353225708e-01 -2.286918312311172485e-01 -1.247118785977363586e-02 1.018492728471755981e-01 1.580373793840408325e-01 1.316555738449096680e-01 5.646034330129623413e-02 1.481784433126449585e-01 1.095743849873542786e-01 -1.432705372571945190e-01 2.071968168020248413e-01 -1.056270152330398560e-01 -9.041588008403778076e-02 7.026163488626480103e-02 -8.966986089944839478e-02 -9.481994062662124634e-02 -9.430245310068130493e-02 1.965426206588745117e-01 -6.494431290775537491e-03 -7.753424346446990967e-02 7.065808773040771484e-02 1.819732785224914551e-01 -1.249462813138961792e-01 4.549164175987243652e-01 2.910206317901611328e-01 -5.021126270294189453e-01 9.911021590232849121e-02
1.519016176462173462e-01 4.531598985195159912e-01 6.213818117976188660e-02 -1.996789127588272095e-01 -1.395132690668106079e-01 -2.654525339603424072e-01 -1.306830793619155884e-01 -2.637991448864340782e-03 -6.792637705802917480e-02 -2.837800793349742889e-02 1.791608631610870361e-01 -2.587945573031902313e-02 4.653686285018920898e-02 -7.504177838563919067e-02 1.693676039576530457e-02 -2.877237200736999512e-01 4.053826630115509033e-02 -5.804603174328804016e-02 -4.473749548196792603e-02 -2.846884131431579590e-01 2.552902400493621826e-01 -3.312524557113647461e-01 -1.454326659440994263e-01 2.317792922258377075e-01 6.634605675935745239e-02 -3.077207803726196289e-01 -7.574854493141174316e-01 -8.140198141336441040e-02
-2.161881327629089355e-02 2.843586802482604980e-01 4.391497075557708740e-01 -2.429849654436111450e-01 -1.445210278034210205e-01 3.489315807819366455e-01 -2.024805098772048950e-01 -1.678369790315628052e-01 8.709102123975753784e-02 8.907260745763778687e-02 -8.289755135774612427e-02 8.907585591077804565e-02 8.517402410507202148e-02 -8.092655241489410400e-02 -2.546344995498657227e-01 -3.438433408737182617e-01 -1.457884013652801514e-01 -2.080324590206146240e-01 -1.418853402137756348e-01 -1.259486824274063110e-01 -1.140588819980621338e-01 2.245035022497177124e-01 -2.111801356077194214e-01 4.811643064022064209e-02 1.469562947750091553e-01 -1.203390881419181824e-01 -2.219536900520324707e-01 -4.111831635236740112e-02
4.278854001313447952e-03 2.252433747053146362e-01 5.821592211723327637e-01 -2.430680766701698303e-02 1.666097790002822876e-01 5.931780934333801270e-01 1.575362682342529297e-01 3.162603378295898438e-01 3.156171739101409912e-01 1.357763856649398804e-01 2.240850776433944702e-01 2.338517904281616211e-01 2.451385706663131714e-01 1.294866353273391724e-01 2.101642191410064697e-01 -1.248518079519271851e-01 -5.079111456871032715e-02 1.730716079473495483e-01 7.738443464040756226e-02 -1.409416552633047104e-02 3.557053580880165100e-02 2.138697504997253418e-01 6.094835232943296432e-03 4.745163768529891968e-02 9.381405115127563477e-01 2.136814743280410767e-01 -1.135303527116775513e-01 -2.923130691051483154e-01
3.323281556367874146e-02 1.647105216979980469e-01 -1.287755817174911499e-01 -2.122525572776794434e-01 3.821011483669281006e-01 6.555421743541955948e-03 8.416250348091125488e-02 3.327685222029685974e-02 -2.815350703895092010e-02 7.385969161987304688e-02 1.122685819864273071e-01 1.173900216817855835e-01 2.067687362432479858e-02 2.034216970205307007e-01 4.081846773624420166e-02 -2.794048786163330078e-01 -2.360582724213600159e-02 -1.070151105523109436e-01 2.181548029184341431e-01 2.998016178607940674e-01 1.254198551177978516e-01 3.709971308708190918e-01 9.761806577444076538e-02 3.845398724079132080e-01 5.183849930763244629e-01 4.223340153694152832e-01 -6.025065779685974121e-01 -2.157774269580841064e-01
-7.466374430805444717e-03 3.014986217021942139e-01 1.497182697057723999e-01 -1.756008416414260864e-01 -2.061121612787246704e-01 1.921720951795578003e-01 4.688524175435304642e-03 2.677178010344505310e-02 2.241869717836380005e-01 4.513728991150856018e-02 1.355776935815811157e-01 2.017467916011810303e-01 1.728580743074417114e-01 -8.892974257469177246e-02 -2.921072542667388916e-01 -3.132030367851257324e-01 -1.657346189022064209e-01 2.551818080246448517e-02 -7.436940073966979980e-02 -2.847975194454193115e-01 2.905394434928894043e-01 3.161916136741638184e-01 1.204867213964462280e-01 -1.827920228242874146e-01 1.399305313825607300e-01 -2.599620819091796875e-01 -1.318814158439636230e-01 2.411881536245346069e-01
2.655779570341110229e-02 1.057239249348640442e-01 9.918841719627380371e-02 -2.101442813873291016e-01 -3.057444691658020020e-01 1.199081540107727051e-01 -2.555442601442337036e-02 4.928002506494522095e-02 -1.676836907863616943e-01 3.798947110772132874e-02 2.157624810934066772e-01 1.754165887832641602e-01 -3.553973138332366943e-02 -2.885347902774810791e-01 -3.141790926456451416e-01 -4.101037979125976562e-01 -3.559084534645080566e-01 -1.660701036453247070e-01 -1.499906629323959351e-01 -1.119645535945892334e-01 -4.083335995674133301e-01 9.330293536186218262e-02 4.065422415733337402e-01 9.501772522926330566e-01 7.221948504447937012e-01 -7.012681961059570312e-01 -3.143644928932189941e-01 3.747258782386779785e-01
2.160692214965820312e-01 -2.687411308288574219e-01 4.400551021099090576e-01 -2.242093682289123535e-01 -4.238707125186920166e-01 3.321963548660278320e-01 -3.159479796886444092e-02 6.164949014782905579e-02 1.237660553306341171e-02 -2.765630558133125305e-02 4.017833992838859558e-02 3.067005984485149384e-02 -6.529513746500015259e-02 -2.450945377349853516e-01 -1.878808438777923584e-01 -1.758634597063064575e-01 -2.582919895648956299e-01 -1.854739040136337280e-01 -5.713656172156333923e-02 -2.804251313209533691e-01 1.643214225769042969e-01 3.159601986408233643e-01 2.159777730703353882e-01 5.445239543914794922e-01 6.067954301834106445e-01 -6.312711238861083984e-01 -1.638675034046173096e-01 4.022821784019470215e-01
1.527371071279048920e-02 -1.267515718936920166e-01 4.721011221408843994e-01 -6.050953269004821777e-02 -3.437912464141845703e-01 4.844528064131736755e-02 -5.790020525455474854e-02 1.957084089517593384e-01 -6.071374565362930298e-02 1.032878905534744263e-01 1.374027281999588013e-01 -2.578639984130859375e-01 1.770444400608539581e-02 -1.251830756664276123e-01 -1.401453465223312378e-01 -3.251746892929077148e-01 -1.784904897212982178e-01 -1.241532713174819946e-01 -8.248813450336456299e-02 -8.386313170194625854e-02 4.559235870838165283e-01 1.926534324884414673e-01 1.170495408587157726e-03 1.478642821311950684e-01 6.446151137351989746e-01 -1.086717844009399414e-01 2.767028212547302246e-01 -8.607595413923263550e-02
-1.616547405719757080e-01 -1.916930451989173889e-02 2.147919684648513794e-01 -1.338273733854293823e-01 -2.167564183473587036e-01 -5.339006185531616211e-01 -2.543068118393421173e-02 -2.012285403907299042e-02 -1.447361260652542114e-01 3.440624102950096130e-02 2.194255888462066650e-01 -8.032215386629104614e-02 -2.666382193565368652e-01 2.655969187617301941e-02 -8.172309398651123047e-02 1.858871243894100189e-02 -1.748932749032974243e-01 -4.182847216725349426e-02 2.916641719639301300e-02 2.544082999229431152e-01 2.534778714179992676e-01 1.878110617399215698e-01 1.394664049148559570e-01 1.425845921039581299e-01 3.234431743621826172e-01 6.634648442268371582e-01 3.451966047286987305e-01 -8.676277846097946167e-02
1.332770287990570068e-02 -1.842299103736877441e-01 -1.920111030340194702e-01 -4.241174459457397461e-01 3.012774288654327393e-01 3.257202357053756714e-02 6.790045648813247681e-02 -2.022589594125747681e-01 -3.028472363948822021e-01 -1.190820150077342987e-02 -1.409185491502285004e-02 -1.890798471868038177e-02 -2.761382609605789185e-02 -2.377488613128662109e-01 -1.692306250333786011e-01 -1.121276021003723145e-01 6.959605216979980469e-02 8.557616174221038818e-02 2.353836297988891602e-01 7.381520420312881470e-02 2.576320171356201172e-01 1.904352158308029175e-01 2.214597016572952271e-01 7.937314361333847046e-02 2.252711802721023560e-01 7.327485680580139160e-01 4.270685911178588867e-01 -5.160212144255638123e-02
-2.485983967781066895e-01 -2.479937821626663208e-01 -4.530114829540252686e-01 -8.402388542890548706e-02 7.492344379425048828e-01 -5.993137881159782410e-02 -8.042607456445693970e-02 2.052801996469497681e-01 2.063993960618972778e-01 7.788334041833877563e-02 1.384615600109100342e-01 -2.471949309110641479e-01 2.202435024082660675e-02 1.138011515140533447e-01 2.284301221370697021e-01 9.913574904203414917e-02 3.288112878799438477e-01 2.796871066093444824e-01 1.702676564455032349e-01 1.145929619669914246e-01 -1.761627756059169769e-02 2.155327349901199341e-01 3.009401261806488037e-01 4.116241335868835449e-01 8.281617164611816406e-01 4.010426998138427734e-01 2.380925714969635010e-01 -3.446726799011230469e-01
-6.790058314800262451e-02 2.417944222688674927e-01 -2.183206081390380859e-01 3.245321288704872131e-02 4.823911190032958984e-01 -8.485968410968780518e-02 2.224801182746887207e-01 1.516730338335037231e-01 2.509002983570098877e-01 3.481137454509735107e-01 3.221343159675598145e-01 5.219825506210327148e-01 2.193984389305114746e-01 1.225238740444183350e-01 3.419149518013000488e-01 4.467389881610870361e-01 1.672630608081817627e-01 4.369119107723236084e-01 2.192153930664062500e-01 5.590723082423210144e-02 1.599162966012954712e-01 2.583348453044891357e-01 1.909339427947998047e-01 -2.468876540660858154e-01 7.109722495079040527e-01 1.627915352582931519e-01 3.014986515045166016e-01 -4.241380095481872559e-01
2.355236932635307312e-02 1.941166371107101440e-01 6.391523033380508423e-02 8.519526124000549316e-01 6.678529381752014160e-01 5.471908450126647949e-01 3.419561088085174561e-01 3.889492154121398926e-01 1.299612969160079956e-01 5.242619514465332031e-01 3.228623569011688232e-01 5.719944238662719727e-01 4.246288537979125977e-01 3.913241624832153320e-01 2.340140193700790405e-01 1.778807640075683594e-01 7.502654939889907837e-02 5.136718507856130600e-03 1.772417426109313965e-01 -1.964027732610702515e-01 6.286704540252685547e-02 -7.283878978341817856e-03 2.094183815643191338e-03 3.415768444538116455e-01 -4.254042804241180420e-01 2.108262181282043457e-01 4.822892844676971436e-01 -6.215106323361396790e-02
-9.120120853185653687e-02 -1.259322650730609894e-02 2.232958525419235229e-01 7.720547914505004883e-01 4.732717871665954590e-01 9.890758246183395386e-02 4.194616526365280151e-02 4.001864418387413025e-02 2.870680987834930420e-01 5.371915176510810852e-02 7.413744181394577026e-02 3.128515779972076416e-01 2.611885666847229004e-01 3.384012579917907715e-01 4.668993353843688965e-01 3.085498511791229248e-01 1.777433454990386963e-01 3.343772292137145996e-01 1.482327729463577271e-01 9.826243668794631958e-02 1.280978322029113770e-01 1.014032289385795593e-01 1.074030771851539612e-01 8.630262017250061035e-01 2.248808741569519043e-01 -1.463311463594436646e-01 2.024140208959579468e-01 3.630933538079261780e-02
-3.182566165924072266e-02 -3.016238659620285034e-02 8.099559694528579712e-02 5.366342067718505859e-01 4.222599044442176819e-02 -2.484853267669677734e-01 3.288991004228591919e-02 5.840101838111877441e-02 6.854756921529769897e-02 1.982014328241348267e-01 2.137432992458343506e-02 2.378844618797302246e-01 2.258614748716354370e-01 3.545624315738677979e-01 8.759509027004241943e-02 1.078478321433067322e-01 2.269678711891174316e-01 1.383894085884094238e-01 2.232363820075988770e-01 2.688316404819488525e-01 2.136495858430862427e-01 2.011369019746780396e-01 2.899494394659996033e-02 1.950179934501647949e-01 -3.064305782318115234e-01 -1.188546270132064819e-01 -1.166583672165870667e-01 7.172591239213943481e-02
2.968035265803337097e-02 1.477169618010520935e-02 1.727121174335479736e-01 4.625049531459808350e-01 1.315308958292007446e-01 2.578304409980773926e-01 2.808076739311218262e-01 1.888126581907272339e-01 3.529511988162994385e-01 2.860075831413269043e-01 2.222334742546081543e-01 4.167045652866363525e-01 1.458114832639694214e-01 1.511829644441604614e-01 1.960709840059280396e-01 3.685722649097442627e-01 2.702191770076751709e-01 5.264290422201156616e-02 -5.360334366559982300e-02 1.477853804826736450e-01 1.763340830802917480e-01 1.553661227226257324e-01 1.654188185930252075e-01 -3.677627146244049072e-01 -3.181954920291900635e-01 3.205691277980804443e-01 -2.426874637603759766e-01 -1.674850657582283020e-02
-1.404459960758686066e-02 2.119667828083038330e-02 9.856389462947845459e-02 4.099093973636627197e-01 -4.295952320098876953e-01 -3.168264627456665039e-01 -2.337381243705749512e-01 -2.223055660724639893e-01 1.013728454709053040e-01 3.216089010238647461e-01 -1.165156811475753784e-01 -1.329000201076269150e-02 2.857249975204467773e-01 1.928000152111053467e-01 3.765136897563934326e-01 2.878831624984741211e-01 5.096208304166793823e-02 1.099511384963989258e-01 4.533919394016265869e-01 -1.031452696770429611e-02 -3.251076638698577881e-01 -9.598603844642639160e-01 -2.380564659833908081e-01 -3.911148607730865479e-01 1.774617880582809448e-01 5.363036990165710449e-01 -3.697767108678817749e-02 2.807557955384254456e-02
-2.663365937769412994e-02 2.514146268367767334e-02 -4.909050092101097107e-02 1.667653620243072510e-01 -3.757874071598052979e-01 -7.844133377075195312e-01 -3.367645144462585449e-01 -6.652200222015380859e-01 -6.439603567123413086e-01 -7.113640308380126953e-01 -5.063990354537963867e-01 -2.528416514396667480e-01 -3.291414082050323486e-01 -2.729550898075103760e-01 -4.428349435329437256e-01 -2.432696223258972168e-01 -1.124617159366607666e-01 -2.701696157455444336e-01 -3.120122253894805908e-01 -6.541975140571594238e-01 -1.134158849716186523e+00 -1.138173222541809082e+00 -7.928054928779602051e-01 -8.585627675056457520e-01 -3.726820945739746094e-01 4.393928870558738708e-02 2.003844082355499268e-01 -1.615972630679607391e-02
-1.638229936361312866e-03 -1.434862613677978516e-03 6.113763898611068726e-03 -3.579005226492881775e-02 -1.782458573579788208e-01 1.775705814361572266e-01 -4.753794372081756592e-01 -8.614112734794616699e-01 -4.950835406780242920e-01 -6.805404424667358398e-01 -1.810327917337417603e-01 -2.790955603122711182e-01 -5.942358374595642090e-01 -4.457266330718994141e-01 -8.444599509239196777e-01 -5.320740938186645508e-01 7.067937403917312622e-03 -8.550350069999694824e-01 -3.671756684780120850e-01 1.435786689398810267e-04 -2.178629785776138306e-01 -3.326793760061264038e-02 4.547381699085235596e-01 -4.426116123795509338e-02 -1.577699780464172363e-01 3.093085624277591705e-02 2.680489793419837952e-02 2.549898624420166016e-02
3.283977881073951721e-02 -1.327048055827617645e-02 -3.092311322689056396e-02 7.614769041538238525e-03 -6.800026632845401764e-03 3.465088829398155212e-02 1.217972934246063232e-01 3.312570154666900635e-01 1.547583788633346558e-01 3.250609636306762695e-01 1.988908648490905762e-01 -1.512944698333740234e-01 2.237833440303802490e-01 1.933871023356914520e-02 -4.300068020820617676e-01 6.645648926496505737e-02 2.957116365432739258e-01 2.306105345487594604e-01 -4.767657071352005005e-02 -1.185488700866699219e-01 -1.932546310126781464e-02 1.109134405851364136e-02 1.043681651353836060e-01 6.920527666807174683e-02 3.299421444535255432e-02 -3.074931353330612183e-02 -2.794191800057888031e-02 -3.433213755488395691e-02
