1.897545903921127319e-02 -3.176266700029373169e-02 2.014579251408576965e-02 -2.892949432134628296e-02 -2.634950727224349976e-02 -8.384101092815399170e-04 -1.764727942645549774e-02 -3.398676216602325439e-02 9.871426969766616821e-03 6.737936288118362427e-03 3.475982323288917542e-02 2.513351663947105408e-02 -9.729189798235893250e-03 -4.480196535587310791e-02 3.390368819236755371e-02 3.565265983343124390e-02 -3.555008023977279663e-02 -3.524840623140335083e-02 1.389358937740325928e-02 -1.111805438995361328e-02 -9.123768657445907593e-03 -2.540298178791999817e-02 1.894614100456237793e-02 3.509006276726722717e-02 -3.470087051391601562e-02 -1.549503207206726074e-02 1.227881759405136108e-02 3.371463343501091003e-02
-3.387558087706565857e-02 -7.650259882211685181e-03 -2.740526199340820312e-02 8.394002914428710938e-03 -4.710260778665542603e-03 1.035053562372922897e-02 -7.196780294179916382e-02 -1.285776197910308838e-01 -2.282956689596176147e-01 -4.062507450580596924e-01 -3.219360113143920898e-01 -1.556990891695022583e-01 -3.962530493736267090e-01 -3.603093922138214111e-01 -7.995163798332214355e-01 -2.677119672298431396e-01 -2.634536325931549072e-01 -2.611971087753772736e-02 -5.621562004089355469e-01 -4.786039590835571289e-01 -2.934009730815887451e-01 -2.516313791275024414e-01 9.202812612056732178e-02 1.213025748729705811e-01 -4.629634320735931396e-03 -1.765314489603042603e-03 -1.181742548942565918e-02 1.600839197635650635e-02
-2.713587507605552673e-02 1.491741836071014404e-02 3.185564652085304260e-02 5.498301703482866287e-03 -2.145663499832153320e-01 -3.887999653816223145e-01 -3.365742862224578857e-01 -4.469373524188995361e-01 -2.192850410938262939e-01 1.162344664335250854e-01 1.450441032648086548e-01 5.636346340179443359e-02 5.863695144653320312e-01 3.696956932544708252e-01 1.594690382480621338e-01 2.653377950191497803e-01 1.974458098411560059e-01 1.286007165908813477e-01 1.500849127769470215e-01 1.336603164672851562e-01 -2.698365598917007446e-02 -1.280348896980285645e-01 -1.670124232769012451e-01 9.044257551431655884e-02 2.174399048089981079e-01 1.465698480606079102e-01 2.538571879267692566e-02 1.363623887300491333e-02
9.643990546464920044e-03 -1.690009236335754395e-02 1.055185347795486450e-01 -7.298968732357025146e-02 -3.808486461639404297e-01 -1.382824182510375977e-01 4.445477426052093506e-01 8.093005418777465820e-01 5.842506885528564453e-01 5.826621651649475098e-01 6.055150628089904785e-01 6.422316431999206543e-01 5.032597184181213379e-01 4.466332197189331055e-01 5.867348313331604004e-01 5.396574139595031738e-01 4.806305170059204102e-01 6.657541394233703613e-01 8.903968334197998047e-02 2.335710376501083374e-01 3.326579630374908447e-01 6.975883990526199341e-02 -3.301281854510307312e-02 -3.729661405086517334e-01 -2.559781074523925781e-01 4.684715569019317627e-01 -9.169968962669372559e-02 2.396591380238533020e-02
-2.987197600305080414e-02 2.298300527036190033e-02 1.671325713396072388e-01 1.072154864668846130e-01 4.675037860870361328e-01 7.424483299255371094e-01 6.277443766593933105e-01 3.500174880027770996e-01 6.576260328292846680e-01 8.603003621101379395e-01 6.773357391357421875e-01 3.153502568602561951e-02 2.178813070058822632e-01 1.524228155612945557e-01 1.904620677232742310e-01 -2.728343196213245392e-02 4.072521626949310303e-02 1.383973192423582077e-02 1.502116024494171143e-01 -4.392651095986366272e-02 -1.121790111064910889e-01 -4.709279239177703857e-01 6.795541197061538696e-02 -9.328186511993408203e-01 -6.378359794616699219e-01 -7.663211226463317871e-01 -6.261191517114639282e-02 1.720954030752182007e-01
-1.560226082801818848e-04 6.592351943254470825e-03 4.445967078208923340e-01 8.335013985633850098e-01 7.209032177925109863e-01 3.357581496238708496e-01 3.158064782619476318e-01 5.982429534196853638e-02 8.272261917591094971e-02 -2.253057621419429779e-02 9.750926494598388672e-02 -9.172634780406951904e-02 1.256713122129440308e-01 -1.866914480924606323e-01 -1.342087835073471069e-01 1.538552623242139816e-02 4.375806450843811035e-02 -1.648950427770614624e-01 -8.060367405414581299e-02 -6.382862478494644165e-02 -1.316184271126985550e-02 2.698282301425933838e-01 8.023178577423095703e-02 -3.935341238975524902e-01 -2.247261852025985718e-01 -2.068500071763992310e-01 -6.103685870766639709e-02 1.051940247416496277e-01
1.418509334325790405e-02 7.079899311065673828e-02 7.584575563669204712e-02 5.587822794914245605e-01 6.277745962142944336e-01 -6.222454458475112915e-02 2.713649570941925049e-01 -2.284954637289047241e-01 -1.641937345266342163e-01 -1.149252280592918396e-01 -1.062482669949531555e-01 -1.221733987331390381e-01 -1.586856991052627563e-01 1.563678830862045288e-01 -1.948128342628479004e-01 -2.686684764921665192e-02 9.365191310644149780e-02 -1.405467838048934937e-01 5.532671511173248291e-02 -2.259267717599868774e-01 -1.221980620175600052e-02 -5.000635981559753418e-02 -1.147473528981208801e-01 6.939134746789932251e-02 -4.848798513412475586e-01 -4.156395196914672852e-01 -1.063965260982513428e-01 -1.302356719970703125e-01
6.905438378453254700e-03 1.059002950787544250e-01 -4.873934090137481689e-01 2.605860680341720581e-02 8.333296775817871094e-01 3.791574239730834961e-01 2.163875848054885864e-01 -1.731584519147872925e-01 -2.226714789867401123e-01 -6.754426658153533936e-02 -1.759317964315414429e-01 -3.713616868481040001e-03 -2.021569758653640747e-01 9.049431979656219482e-02 2.243342250585556030e-01 1.238564252853393555e-01 3.867937996983528137e-02 -6.914904713630676270e-02 -4.369057714939117432e-03 2.370695918798446655e-01 1.455838233232498169e-01 5.847918242216110229e-02 3.455235362052917480e-01 4.243941977620124817e-02 -4.403944313526153564e-01 -5.803548097610473633e-01 1.431901901960372925e-01 -2.292197495698928833e-01
2.571678757667541504e-01 -2.518439590930938721e-01 -6.369721293449401855e-01 -3.834429681301116943e-01 5.623869895935058594e-01 2.488537877798080444e-01 5.225215107202529907e-02 -2.185151167213916779e-02 -1.375566273927688599e-01 -2.707112133502960205e-01 -3.769476339221000671e-02 -2.594600021839141846e-01 -1.436057984828948975e-01 -1.809092015027999878e-01 5.708483234047889709e-02 2.696293592453002930e-01 1.594816334545612335e-02 1.041453927755355835e-01 1.007632166147232056e-01 1.949738115072250366e-01 -2.130324020981788635e-03 -6.332946568727493286e-02 2.286331541836261749e-02 -1.764484196901321411e-01 -7.171383500099182129e-01 -5.746309161186218262e-01 -1.179288923740386963e-01 -8.385273814201354980e-02
-1.607581414282321930e-02 -3.444476127624511719e-01 -5.252427458763122559e-01 -1.243576630949974060e-01 2.092379331588745117e-01 -8.678133785724639893e-02 -4.030335247516632080e-01 5.027919635176658630e-02 -1.233032867312431335e-01 -3.684647679328918457e-01 -1.354010105133056641e-01 -2.304999679327011108e-01 -2.078431844711303711e-01 -7.846298813819885254e-02 8.217856287956237793e-03 2.281958460807800293e-01 2.673965096473693848e-01 -1.340024322271347046e-01 -1.311751753091812134e-01 1.395436748862266541e-02 4.655788838863372803e-02 -8.240317553281784058e-02 -3.855969905853271484e-01 -5.120874643325805664e-01 -1.294701814651489258e+00 -8.465456366539001465e-01 -9.427040815353393555e-01 6.436988711357116699e-02
8.115669479593634605e-04 -1.462087929248809814e-01 -2.934206128120422363e-01 -1.945954114198684692e-01 -6.316275596618652344e-01 -4.777407646179199219e-01 -4.467112720012664795e-01 -5.149886012077331543e-01 -4.505265057086944580e-01 -3.246780931949615479e-01 -1.747722625732421875e-01 -2.412498444318771362e-01 -2.449044734239578247e-01 -2.592380046844482422e-01 -1.298328191041946411e-01 7.231396436691284180e-02 -8.109936863183975220e-02 -9.841071069240570068e-02 -3.786875009536743164e-01 -1.812353581190109253e-01 -2.521009445190429688e-01 -1.183972582221031189e-01 -5.108231306076049805e-01 -4.335357248783111572e-01 -9.831206202507019043e-01 -9.370393157005310059e-01 -1.408366084098815918e+00 -4.542335122823715210e-02
8.711076341569423676e-03 -1.263742446899414062e-01 -3.121645152568817139e-01 -8.215943723917007446e-02 -1.009268283843994141e+00 -5.738712549209594727e-01 -8.250539302825927734e-01 -7.368950247764587402e-01 -2.231131494045257568e-01 -2.364523857831954956e-01 -4.425835609436035156e-01 -1.895776987075805664e-01 -1.745666712522506714e-01 -5.606381893157958984e-01 -2.826473414897918701e-01 3.407100215554237366e-02 9.229433536529541016e-02 -2.723865807056427002e-01 -2.208755910396575928e-01 -1.166336089372634888e-01 -2.958732843399047852e-01 -3.661070466041564941e-01 -6.656784415245056152e-01 -3.114275932312011719e-01 -2.315334230661392212e-01 -8.007704615592956543e-01 -1.703197121620178223e+00 -1.909864544868469238e-01
-5.082602053880691528e-02 -4.765202105045318604e-01 -3.859930634498596191e-01 4.023221880197525024e-02 -9.607961773872375488e-01 -6.227428913116455078e-01 -6.290817260742187500e-01 -4.784664809703826904e-01 3.859401121735572815e-02 -6.468646228313446045e-02 -1.867895424365997314e-01 5.615463852882385254e-02 -1.560583058744668961e-02 1.373243629932403564e-01 -2.057732641696929932e-01 1.308959275484085083e-01 2.527230679988861084e-01 -1.824583262205123901e-01 4.243396967649459839e-02 -5.354308057576417923e-03 -2.441787272691726685e-01 -1.736934632062911987e-01 -2.113024592399597168e-01 4.753958061337471008e-02 7.356936931610107422e-01 -7.817967236042022705e-02 -7.491668462753295898e-01 -1.314913183450698853e-01
4.239587858319282532e-02 -4.048401713371276855e-01 -6.402399539947509766e-01 -8.005093783140182495e-02 -1.592926830053329468e-01 -2.117577195167541504e-01 2.842371463775634766e-01 4.630060493946075439e-02 -4.863768443465232849e-02 9.363665431737899780e-02 4.029468297958374023e-01 1.785699874162673950e-01 4.161939322948455811e-01 3.773191869258880615e-01 2.528568543493747711e-02 2.560107223689556122e-02 7.263211160898208618e-02 8.804371207952499390e-02 1.588765978813171387e-01 1.212072670459747314e-01 1.100452616810798645e-02 1.872478127479553223e-01 1.274689845740795135e-02 1.636153757572174072e-01 4.034142494201660156e-01 -1.571740359067916870e-01 -4.156992733478546143e-01 1.773757338523864746e-01
1.274462938308715820e-01 -2.778851389884948730e-01 -3.003754615783691406e-01 1.917178183794021606e-01 7.667465806007385254e-01 3.346230387687683105e-01 5.682009458541870117e-01 4.312731623649597168e-01 3.135890960693359375e-01 3.543474674224853516e-01 1.044140756130218506e-01 2.691887915134429932e-01 4.030191302299499512e-01 8.870997279882431030e-02 1.462917625904083252e-01 -4.710042476654052734e-02 2.626994848251342773e-01 -1.559510976076126099e-01 2.615996599197387695e-01 1.251335591077804565e-01 3.330058604478836060e-02 5.253365263342857361e-02 1.384325027465820312e-01 2.348601631820201874e-02 1.877593398094177246e-01 -9.361665695905685425e-02 5.436373353004455566e-01 2.289989441633224487e-01
7.534436136484146118e-02 -4.398498684167861938e-02 4.657628238201141357e-01 6.487708687782287598e-01 9.609836339950561523e-01 4.767934679985046387e-01 4.867331981658935547e-01 4.710283577442169189e-01 1.166303679347038269e-01 3.502224683761596680e-01 1.951114535331726074e-01 1.548908799886703491e-01 1.970667392015457153e-01 1.903590261936187744e-01 1.270391643047332764e-01 1.171137392520904541e-01 4.161622822284698486e-01 1.654256582260131836e-01 -6.630935519933700562e-02 2.078605890274047852e-01 -1.572671085596084595e-01 -8.227871358394622803e-02 -1.297986358404159546e-01 1.932862251996994019e-01 3.982215523719787598e-01 3.501054644584655762e-01 1.508318305015563965e+00 4.619333744049072266e-01
1.974289491772651672e-02 1.169802248477935791e-01 5.203400254249572754e-01 9.929815530776977539e-01 2.370856106281280518e-01 2.676005959510803223e-01 4.012750983238220215e-01 1.631426662206649780e-01 7.004426419734954834e-02 1.800963878631591797e-01 -3.488751128315925598e-03 1.077964082360267639e-01 2.031149715185165405e-01 1.998964697122573853e-01 8.372780680656433105e-02 3.609398007392883301e-02 1.286172866821289062e-01 2.967821955680847168e-01 2.914647758007049561e-01 3.016998469829559326e-01 3.027323782444000244e-01 1.148129105567932129e-01 7.351680099964141846e-02 -8.108919858932495117e-02 2.436832040548324585e-01 8.495216369628906250e-01 1.282271623611450195e+00 4.238381385803222656e-01
-2.467488497495651245e-02 -3.090818785130977631e-02 6.151990219950675964e-02 4.639280736446380615e-01 1.886090785264968872e-01 1.821039617061614990e-01 4.993440508842468262e-01 3.138862252235412598e-01 2.452856451272964478e-01 2.183393985033035278e-01 1.832159906625747681e-01 2.568235099315643311e-01 8.866853266954421997e-02 1.795628964900970459e-01 6.515069305896759033e-02 1.409076750278472900e-01 9.934750944375991821e-02 8.185058832168579102e-02 1.893130987882614136e-01 2.626782953739166260e-01 1.454592496156692505e-01 2.291965484619140625e-01 3.474366366863250732e-01 5.869687721133232117e-02 -4.518499374389648438e-01 4.134179353713989258e-01 1.181785345077514648e+00 7.352946996688842773e-01
-4.591386616230010986e-01 -6.551776081323623657e-02 -1.071847975254058838e-01 6.822813749313354492e-01 2.502020895481109619e-01 2.233355343341827393e-01 3.108666241168975830e-01 4.649069011211395264e-01 2.672894597053527832e-01 1.865064799785614014e-01 1.980714499950408936e-01 8.103275299072265625e-02 3.141286075115203857e-01 7.631976157426834106e-02 2.042607069015502930e-01 8.845242671668529510e-03 4.053747951984405518e-01 -6.785257905721664429e-02 3.264734447002410889e-01 2.762220203876495361e-01 1.582375317811965942e-01 2.002381086349487305e-01 6.197311878204345703e-01 6.372938752174377441e-01 4.635628461837768555e-01 1.740406900644302368e-01 8.797945380210876465e-01 2.535935342311859131e-01
-5.412710364907979965e-03 -4.169797599315643311e-01 -4.642432034015655518e-01 6.340999007225036621e-01 -7.375101000070571899e-02 -7.002716511487960815e-02 -1.217422559857368469e-01 8.172586560249328613e-02 -6.338291615247726440e-02 8.880480378866195679e-02 3.549525747075676918e-03 3.189831376075744629e-01 6.531660258769989014e-02 1.114493459463119507e-01 1.347884982824325562e-01 1.261747330427169800e-01 4.055341482162475586e-01 3.490186035633087158e-01 4.096386730670928955e-01 9.713759273290634155e-02 2.324278354644775391e-01 3.458985984325408936e-01 4.217405319213867188e-01 -1.120189055800437927e-01 3.208282589912414551e-01 4.068332612514495850e-01 6.972786188125610352e-01 1.723358929157257080e-01
-2.395421825349330902e-02 -3.095877170562744141e-01 -1.352766752243041992e-01 6.562213301658630371e-01 3.645345866680145264e-01 1.383122652769088745e-01 1.466825455427169800e-01 2.219500541687011719e-01 -1.466914713382720947e-01 9.169320017099380493e-02 -1.287040393799543381e-02 1.180582791566848755e-01 9.784003347158432007e-02 -1.020444929599761963e-01 4.052869230508804321e-02 -3.925887867808341980e-03 -4.214961081743240356e-03 -1.768343150615692139e-01 2.777628302574157715e-01 2.306699007749557495e-02 2.617071568965911865e-01 1.993218958377838135e-01 -3.236660733819007874e-02 8.403254300355911255e-02 3.079060018062591553e-01 7.587386965751647949e-01 3.967720568180084229e-01 -3.380014374852180481e-02
1.236153468489646912e-01 1.577217727899551392e-01 1.837253421545028687e-01 3.117356002330780029e-01 -1.753190457820892334e-01 9.052860550582408905e-03 -1.709649860858917236e-01 -4.000018816441297531e-03 -1.406297460198402405e-02 -1.455055456608533859e-02 -4.709114879369735718e-02 -1.156501770019531250e-01 1.456228494644165039e-01 -4.532165080308914185e-02 -6.394404917955398560e-02 -1.265070214867591858e-02 -1.631593890488147736e-02 3.114967048168182373e-02 -3.664479032158851624e-02 5.308250337839126587e-02 -2.271435111761093140e-01 -4.230883717536926270e-01 -4.483327269554138184e-01 1.473219841718673706e-01 3.083722591400146484e-01 1.931519955396652222e-01 4.398301541805267334e-01 8.263534866273403168e-03
7.773426175117492676e-02 5.410811677575111389e-02 5.394188761711120605e-01 4.706614464521408081e-02 -3.667451441287994385e-01 -1.272364407777786255e-01 -9.948307275772094727e-02 -1.799836754798889160e-01 1.244291812181472778e-01 8.098634332418441772e-02 3.018760494887828827e-02 1.232099626213312149e-02 -2.867398411035537720e-02 -1.568652242422103882e-01 -3.114808201789855957e-01 -3.124415874481201172e-02 -1.082282364368438721e-01 -3.340866789221763611e-02 -1.807290911674499512e-01 -6.810856610536575317e-02 3.660309314727783203e-01 -5.204549059271812439e-02 -1.604551076889038086e-01 8.375651389360427856e-02 -9.739767760038375854e-02 -1.553233414888381958e-01 -2.344510704278945923e-02 9.822906926274299622e-03
2.757218852639198303e-02 -5.086064338684082031e-04 4.637346863746643066e-01 1.346155554056167603e-01 -1.990531384944915771e-01 -2.318848073482513428e-01 -5.242171511054039001e-02 1.899340003728866577e-01 8.318537846207618713e-03 -1.808933727443218231e-02 1.924015209078788757e-02 -1.368433982133865356e-01 -1.541959494352340698e-01 1.697500608861446381e-02 1.195940151810646057e-01 3.673781082034111023e-02 -2.658216059207916260e-01 -2.821918129920959473e-01 4.801049362868070602e-03 2.081278413534164429e-01 6.551262736320495605e-02 3.157817721366882324e-01 3.028340041637420654e-01 -2.471128106117248535e-01 1.331046074628829956e-01 4.254841804504394531e-01 4.903239905834197998e-01 -3.478456661105155945e-02
-2.539031580090522766e-02 -1.847080886363983154e-03 1.555433422327041626e-01 1.728968471288681030e-01 -2.708974778652191162e-01 -5.048326849937438965e-01 -2.719122171401977539e-01 -2.665132284164428711e-01 -2.206335961818695068e-01 7.773330062627792358e-02 4.379500448703765869e-02 -1.777012944221496582e-01 6.403804570436477661e-02 -1.785733997821807861e-01 -1.478544324636459351e-01 -7.064203172922134399e-02 1.430305689573287964e-01 2.147664874792098999e-01 6.926625221967697144e-02 -2.864778637886047363e-01 2.405041009187698364e-01 1.395767033100128174e-01 5.227934122085571289e-01 3.744584023952484131e-01 2.259534150362014771e-01 3.642209470272064209e-01 2.902251482009887695e-01 -6.966322660446166992e-03
8.177816867828369141e-03 -2.213681675493717194e-02 1.804772764444351196e-01 -2.520738840103149414e-01 -8.536442369222640991e-02 -3.353034555912017822e-01 -4.320562481880187988e-01 -8.892850875854492188e-01 -1.159348726272583008e+00 -1.032927036285400391e+00 -6.136741042137145996e-01 -6.840108633041381836e-01 -1.024048209190368652e+00 -6.469129323959350586e-01 -4.477415084838867188e-01 -1.571177095174789429e-01 -5.080699324607849121e-01 -3.596319556236267090e-01 -2.489209473133087158e-01 -5.840043351054191589e-02 1.617307513952255249e-01 -3.523358404636383057e-01 -3.012172877788543701e-01 -4.932579395244829357e-05 -4.958805814385414124e-02 9.483433514833450317e-02 2.201000005006790161e-01 -3.308345377445220947e-02
-1.867142319679260254e-02 -3.549576923251152039e-02 -2.643780410289764404e-02 7.808794826269149780e-02 5.376765727996826172e-01 5.666331052780151367e-01 3.628975152969360352e-01 3.056937158107757568e-01 -1.888354718685150146e-01 9.013810008764266968e-02 4.306852817535400391e-02 3.906968533992767334e-01 3.296733498573303223e-01 1.236453726887702942e-01 2.716478519141674042e-02 2.363493591547012329e-01 1.502437144517898560e-01 1.297836303710937500e-01 -6.025968790054321289e-01 -3.885531425476074219e-01 -4.415836036205291748e-01 -2.399675846099853516e-01 -4.988822042942047119e-01 -3.540778756141662598e-01 -1.568885892629623413e-01 -4.702491220086812973e-03 -1.721840724349021912e-02 -7.861401885747909546e-03
-3.551008552312850952e-02 -2.573945745825767517e-02 2.445386722683906555e-02 -4.452742636203765869e-03 -3.057920560240745544e-02 -2.169886976480484009e-02 7.598276436328887939e-02 5.176673829555511475e-02 3.733148574829101562e-01 2.780475020408630371e-01 1.900535076856613159e-01 1.799616962671279907e-01 3.752648085355758667e-02 -2.079376429319381714e-01 6.305716186761856079e-02 1.866202503442764282e-01 -7.146028429269790649e-02 -5.528432130813598633e-01 -4.931557178497314453e-01 -5.165382847189903259e-02 1.788251101970672607e-01 6.260719150304794312e-02 2.554506296291947365e-03 -1.480718851089477539e-01 -5.266014486551284790e-03 -4.972649738192558289e-03 -1.657838560640811920e-02 3.494719043374061584e-02
