-2.958150207996368408e-02 2.194099128246307373e-03 -1.939671859145164490e-02 2.968452870845794678e-03 -2.234194613993167877e-02 -3.337882459163665771e-02 -7.769236341118812561e-03 -2.875182218849658966e-02 1.082123816013336182e-02 -3.292322903871536255e-02 -6.844215095043182373e-04 -2.483597025275230408e-02 -2.873884048312902451e-03 -3.424723073840141296e-02 -9.042806923389434814e-04 -1.830232702195644379e-02 -1.682556606829166412e-02 1.537614315748214722e-02 1.630571112036705017e-02 2.612162753939628601e-02 4.002865403890609741e-03 6.980888545513153076e-03 2.173603698611259460e-02 2.926271781325340271e-02 -2.194910496473312378e-02 -2.965430915355682373e-02 2.535155415534973145e-02 -1.488723233342170715e-02
1.951599493622779846e-02 -2.512928098440170288e-02 -2.566502429544925690e-02 2.067228034138679504e-02 -1.419440261088311672e-03 1.801721937954425812e-02 -5.821997299790382385e-02 -1.067635491490364075e-01 -1.267954707145690918e-01 -1.145765185356140137e-01 -6.357286870479583740e-02 -8.361027389764785767e-02 -2.563449367880821228e-02 -1.340173184871673584e-02 3.139341622591018677e-02 -3.211203217506408691e-02 9.833340533077716827e-03 -5.396305397152900696e-02 -3.501380607485771179e-02 9.660250507295131683e-03 3.441333770751953125e-02 -1.991322031244635582e-03 1.029137335717678070e-02 2.075214870274066925e-02 -3.442455828189849854e-02 1.455262303352355957e-02 3.377233073115348816e-02 2.101171016693115234e-02
-3.211997076869010925e-02 -1.301546581089496613e-02 1.616371981799602509e-02 -1.408133469521999359e-02 -1.916287653148174286e-02 -3.280253335833549500e-02 -1.419156342744827271e-01 -2.485980093479156494e-01 -4.179216921329498291e-01 -7.529375553131103516e-01 -5.644044280052185059e-01 -4.255035519599914551e-01 -3.755852282047271729e-01 -7.540670037269592285e-01 -3.750914931297302246e-01 -2.046177834272384644e-01 -3.236887156963348389e-01 -1.051454246044158936e-01 3.182249665260314941e-01 1.093177124857902527e-01 3.060901463031768799e-01 -1.678045094013214111e-01 -1.070527508854866028e-01 -8.618675917387008667e-02 -6.292068958282470703e-02 -9.602587670087814331e-03 1.918108761310577393e-02 -1.822341419756412506e-02
-1.877612434327602386e-02 2.692503854632377625e-02 -2.200322039425373077e-02 1.730749569833278656e-02 4.251962155103683472e-02 1.420708149671554565e-01 4.068138003349304199e-01 -2.416187524795532227e-01 -3.794067353010177612e-02 6.832572072744369507e-02 -5.983431935310363770e-01 -3.165712058544158936e-01 -3.293985426425933838e-01 -6.466650962829589844e-01 -5.152252912521362305e-01 -4.435791373252868652e-01 -3.252330124378204346e-01 -2.867151796817779541e-01 -7.487930357456207275e-02 -7.487851977348327637e-01 -4.715091586112976074e-01 -2.303667552769184113e-02 1.073838770389556885e-02 -3.482754528522491455e-01 -5.597237613983452320e-04 -6.135270595550537109e-01 -3.275508061051368713e-02 2.564413473010063171e-02
-8.922554552555084229e-04 -1.191580551676452160e-03 1.398190110921859741e-01 8.609581738710403442e-02 4.186807870864868164e-01 9.279432892799377441e-02 -2.390241920948028564e-01 -3.311649560928344727e-01 5.900359246879816055e-03 -9.320433437824249268e-02 -2.204445004463195801e-01 1.189236268401145935e-01 8.399138599634170532e-02 2.220328450202941895e-01 -5.608086939901113510e-03 3.605367839336395264e-01 1.968137323856353760e-01 -1.623205989599227905e-01 2.592533528804779053e-01 2.596240639686584473e-01 -1.906353831291198730e-01 -2.439181506633758545e-02 1.588925570249557495e-01 -3.900958597660064697e-01 -6.656531989574432373e-02 1.002331614494323730e+00 7.839025259017944336e-01 1.353987455368041992e-01
-1.058959215879440308e-02 -2.176445722579956055e-02 1.167659461498260498e-02 8.658751100301742554e-02 3.646618127822875977e-01 5.578638985753059387e-02 8.535112440586090088e-02 1.053791493177413940e-01 7.038867473602294922e-02 1.471053510904312134e-01 2.038621604442596436e-01 3.137299418449401855e-01 2.689618170261383057e-01 6.827637553215026855e-03 1.958024352788925171e-01 3.196901828050613403e-02 1.225847750902175903e-01 3.173598349094390869e-01 1.936839818954467773e-01 1.639264225959777832e-01 3.881160020828247070e-01 1.821032762527465820e-01 4.347460567951202393e-01 9.153143316507339478e-02 -1.601454913616180420e-01 6.472363471984863281e-01 4.075328707695007324e-01 -7.004207372665405273e-02
3.364404663443565369e-02 1.110813319683074951e-01 8.867014199495315552e-02 -3.342247903347015381e-01 2.673788070678710938e-01 8.123452216386795044e-02 -8.545051515102386475e-02 -2.180741876363754272e-01 2.884567342698574066e-02 5.316651612520217896e-02 1.125824078917503357e-02 1.210235059261322021e-02 6.050118710845708847e-03 1.241225078701972961e-01 7.420638948678970337e-02 5.134478956460952759e-02 6.621924787759780884e-02 8.887341618537902832e-02 7.653532177209854126e-02 2.122867852449417114e-01 1.611550897359848022e-01 -1.037229895591735840e-01 2.120520919561386108e-01 1.645994186401367188e-01 6.025233864784240723e-01 3.546449244022369385e-01 2.104911506175994873e-01 3.226128816604614258e-01
2.298872359097003937e-02 2.302075028419494629e-01 3.455518782138824463e-01 -8.283443003892898560e-02 -1.208398342132568359e-01 1.863915771245956421e-01 -1.213068440556526184e-01 6.529552489519119263e-02 1.713611371815204620e-02 -4.990790039300918579e-02 -1.694092154502868652e-01 -2.440068125724792480e-02 1.721688807010650635e-01 -2.067795097827911377e-01 -5.741641297936439514e-02 8.367770910263061523e-02 -1.366464793682098389e-01 5.274177342653274536e-02 4.823660105466842651e-02 -1.174605041742324829e-01 1.579139977693557739e-01 8.941347710788249969e-03 -1.529569178819656372e-01 1.095307152718305588e-02 2.254706174135208130e-01 8.723750710487365723e-01 4.201088547706604004e-01 3.550780415534973145e-01
-1.550689619034528732e-02 -1.487532109022140503e-01 -5.264440923929214478e-02 -3.552376329898834229e-01 -4.628799557685852051e-01 7.876548171043395996e-02 -1.196900010108947754e-01 -1.322330236434936523e-01 -2.222143486142158508e-02 1.534086316823959351e-01 6.139476224780082703e-02 -8.636862784624099731e-02 -1.796568930149078369e-02 -3.292477503418922424e-02 -5.923126265406608582e-02 -1.888827830553054810e-01 -3.562631085515022278e-02 -1.688818782567977905e-01 -6.033280119299888611e-02 -5.618008971214294434e-02 -1.456170827150344849e-01 -5.983001366257667542e-02 1.633083671331405640e-01 -2.566463947296142578e-01 3.746891021728515625e-02 3.496325314044952393e-01 4.980283975601196289e-01 1.702228933572769165e-01
-2.911807596683502197e-02 -3.196658492088317871e-01 -4.363525211811065674e-01 1.254802495241165161e-01 2.900578379631042480e-01 -1.555721759796142578e-01 2.103295922279357910e-01 -1.874588988721370697e-02 9.238307178020477295e-02 3.680726885795593262e-02 1.153190433979034424e-01 -3.649086132645606995e-02 -2.638645470142364502e-02 1.605308949947357178e-01 -3.413270711898803711e-01 -3.317884206771850586e-01 -9.657595306634902954e-02 -1.851585060358047485e-01 -1.085238978266716003e-01 -1.166632920503616333e-01 1.075498573482036591e-02 -6.883290410041809082e-02 9.297113120555877686e-02 9.246016293764114380e-02 -1.289538852870464325e-02 5.811947584152221680e-01 8.966832756996154785e-01 5.460076332092285156e-01
-4.001037776470184326e-02 -1.423836052417755127e-01 -3.592982292175292969e-01 1.710196882486343384e-01 3.842678666114807129e-01 -1.311325468122959137e-02 3.282410204410552979e-01 9.361266344785690308e-02 1.728343963623046875e-01 -7.968299835920333862e-02 3.708498179912567139e-02 -1.013971194624900818e-01 -4.273017123341560364e-02 -4.658276736736297607e-01 -5.699694752693176270e-01 -3.595922291278839111e-01 -4.095554351806640625e-01 -6.575238704681396484e-02 -1.361075136810541153e-02 -2.849480509757995605e-01 -1.179016940295696259e-02 -1.862488836050033569e-01 1.319649070501327515e-01 1.425509601831436157e-01 1.956393122673034668e-01 7.572367787361145020e-01 6.216339468955993652e-01 2.243341654539108276e-01
-4.059672728180885315e-02 -1.548335105180740356e-01 -8.123657107353210449e-01 -4.039055481553077698e-02 2.191308587789535522e-01 -7.650661282241344452e-03 -2.594898045063018799e-01 -2.706949114799499512e-01 -6.683768332004547119e-02 -1.807711273431777954e-01 1.185316145420074463e-01 -2.209347337484359741e-01 -8.482903242111206055e-03 3.985171765089035034e-02 -1.015398800373077393e-01 -6.660236418247222900e-02 5.406669527292251587e-02 2.273435145616531372e-02 -3.102234937250614166e-02 -3.073214739561080933e-02 -1.226541325449943542e-01 -1.935731768608093262e-01 -1.058697793632745743e-02 -4.336117953062057495e-02 3.366838097572326660e-01 1.765717864036560059e-01 5.135023593902587891e-01 -1.261885017156600952e-01
1.721283793449401855e-02 -1.994107067584991455e-01 -8.774199485778808594e-01 -2.058721631765365601e-01 -1.388211846351623535e-01 -1.861564964056015015e-01 -2.229512929916381836e-01 -8.458622731268405914e-03 -1.802939921617507935e-01 -1.575383245944976807e-01 1.686556786298751831e-01 1.747837811708450317e-01 3.123291432857513428e-01 4.237669408321380615e-01 3.570012450218200684e-01 -2.586555108428001404e-02 -1.353768706321716309e-01 8.915987610816955566e-02 7.892408967018127441e-02 5.167058482766151428e-02 2.551791965961456299e-01 1.540123522281646729e-01 -3.279665708541870117e-01 -3.495188951492309570e-01 -1.511872410774230957e-01 -3.478952348232269287e-01 -1.703842543065547943e-02 2.351842448115348816e-02
6.909043062478303909e-03 -2.091421484947204590e-01 -6.298354864120483398e-01 -2.847379148006439209e-01 -2.598282098770141602e-01 1.537523567676544189e-01 5.835128203034400940e-02 2.225164175033569336e-01 8.128942921757698059e-03 2.419429123401641846e-01 1.501756459474563599e-01 4.970090985298156738e-01 3.177552819252014160e-01 3.570548892021179199e-01 1.464588642120361328e-01 1.212275475263595581e-01 -4.806521907448768616e-02 4.735693708062171936e-02 6.593599915504455566e-02 1.059675887227058411e-01 4.023126885294914246e-02 1.031773984432220459e-01 -2.799832820892333984e-01 -7.034963369369506836e-01 -9.493922591209411621e-01 -8.210576772689819336e-01 -4.759803712368011475e-01 -1.630428433418273926e-01
2.027578949928283691e-01 5.123292654752731323e-02 -4.763297140598297119e-01 -5.128940939903259277e-01 -2.169419229030609131e-01 5.114375948905944824e-01 5.189638137817382812e-01 8.951902389526367188e-02 2.074725180864334106e-01 1.362496614456176758e-01 2.408722229301929474e-02 8.720283955335617065e-02 2.216405272483825684e-01 2.761259078979492188e-01 3.256009519100189209e-01 3.015342056751251221e-01 1.893672049045562744e-01 1.720394194126129150e-01 -6.905993819236755371e-02 -2.839040756225585938e-01 -3.216712176799774170e-01 -3.196831643581390381e-01 -3.980829715728759766e-01 -2.045338600873947144e-01 -1.330451667308807373e-01 -3.733301460742950439e-01 -4.205856621265411377e-01 -2.030238509178161621e-01
1.716232001781463623e-01 1.827957481145858765e-02 -9.316370636224746704e-02 -6.156764030456542969e-01 -4.998161196708679199e-01 -1.009007692337036133e-01 -3.958909958600997925e-02 1.505378186702728271e-01 1.640203148126602173e-01 1.240551918745040894e-01 1.998218894004821777e-02 2.693964242935180664e-01 3.859239220619201660e-01 2.002238631248474121e-01 1.230162754654884338e-01 -9.370574355125427246e-02 4.045278951525688171e-02 -9.366237372159957886e-02 -2.040988057851791382e-01 -1.857800409197807312e-02 -2.125932425260543823e-01 -1.028666421771049500e-01 6.038694083690643311e-02 1.651656627655029297e-01 4.385243654251098633e-01 -3.487692773342132568e-01 -2.574232220649719238e-01 -1.044597998261451721e-01
-4.764547571539878845e-02 3.703398257493972778e-02 -1.262133121490478516e-01 -4.512317776679992676e-01 -8.051066994667053223e-01 -6.442001461982727051e-01 -6.133995056152343750e-01 -1.508352607488632202e-01 -2.056822478771209717e-01 2.068428993225097656e-01 1.292651891708374023e-01 1.327738314867019653e-01 4.495911002159118652e-01 2.542496025562286377e-01 1.571306213736534119e-02 1.609194576740264893e-01 2.157074511051177979e-01 -3.373679518699645996e-02 1.133794635534286499e-01 -1.734741926193237305e-01 2.148398943245410919e-02 3.066197969019412994e-02 -1.673413366079330444e-01 1.773284375667572021e-01 3.806842863559722900e-01 -5.256446599960327148e-01 -6.269384622573852539e-01 -6.156469136476516724e-02
1.469226926565170288e-02 2.383825480937957764e-01 9.941042959690093994e-02 2.909922786056995392e-02 -4.318111538887023926e-01 -6.794070005416870117e-01 -6.474031209945678711e-01 -5.858535766601562500e-01 -6.870456337928771973e-01 -2.059991806745529175e-01 -3.823642730712890625e-01 -2.291701920330524445e-02 1.525932103395462036e-01 1.901885122060775757e-01 9.993349760770797729e-02 1.005807593464851379e-01 -1.797598786652088165e-03 -1.729742437601089478e-01 1.978784799575805664e-01 5.707396194338798523e-02 5.304271355271339417e-03 4.542802572250366211e-01 -5.635519977658987045e-03 5.512797236442565918e-01 3.111772835254669189e-01 -6.184352636337280273e-01 -4.372870624065399170e-01 -5.797332152724266052e-02
2.805663943290710449e-01 2.231866419315338135e-01 -3.386639058589935303e-03 4.840126931667327881e-01 7.750938832759857178e-02 1.324377954006195068e-01 -3.574639260768890381e-01 -3.216126859188079834e-01 -6.305591464042663574e-01 -1.176627516746520996e+00 -7.221180796623229980e-01 -1.086147904396057129e+00 -1.000831365585327148e+00 -3.135632276535034180e-01 -6.329288333654403687e-02 -1.259372383356094360e-01 1.053216010332107544e-01 1.220895126461982727e-01 2.066875994205474854e-01 3.614259064197540283e-01 2.865587770938873291e-01 2.056018114089965820e-01 1.307212375104427338e-02 8.071575313806533813e-02 -2.617638409137725830e-01 -8.078665733337402344e-01 -3.977485895156860352e-01 -2.397548258304595947e-01
-1.231309957802295685e-02 -3.412303030490875244e-01 -6.613472849130630493e-02 8.949081301689147949e-01 5.431122146546840668e-03 -6.306109577417373657e-02 -4.748869687318801880e-02 -2.719438374042510986e-01 -1.465935856103897095e-01 -3.145620524883270264e-01 -3.569307625293731689e-01 -5.294462442398071289e-01 -5.927653312683105469e-01 -6.070334315299987793e-01 -2.308211028575897217e-01 -3.248768672347068787e-02 6.474351882934570312e-02 2.306531518697738647e-01 3.942359238862991333e-03 1.183735281229019165e-01 7.545956224203109741e-02 9.837748855352401733e-02 9.905964881181716919e-02 4.400485754013061523e-01 -4.243617057800292969e-01 -5.458020567893981934e-01 -2.251931428909301758e-01 -1.740453690290451050e-01
2.976560220122337341e-02 -2.075233124196529388e-02 -4.563182294368743896e-01 9.404140710830688477e-01 2.058327794075012207e-01 4.343808293342590332e-01 2.107080370187759399e-01 6.577538326382637024e-03 2.008879333734512329e-01 3.395161926746368408e-01 9.466386586427688599e-02 1.015407145023345947e-01 1.396912783384323120e-01 -6.714441347867250443e-03 -1.894389539957046509e-01 9.050291776657104492e-02 -2.668925002217292786e-02 1.679494678974151611e-01 1.905826479196548462e-01 -2.729001920670270920e-03 1.789103597402572632e-01 -9.596998989582061768e-02 1.060315072536468506e-01 5.808444619178771973e-01 -1.025139093399047852e-01 -5.765365958213806152e-01 -1.439760327339172363e-01 1.258274354040622711e-02
-1.598874479532241821e-02 8.706666529178619385e-03 -3.732800111174583435e-02 4.889369010925292969e-01 3.510401546955108643e-01 3.752283155918121338e-01 8.784813433885574341e-02 1.882740557193756104e-01 3.128020763397216797e-01 -9.895090758800506592e-02 1.887417435646057129e-01 -3.653471916913986206e-02 1.211486980319023132e-01 8.692930638790130615e-02 2.020936645567417145e-02 1.476149410009384155e-01 6.698404252529144287e-02 -1.115827038884162903e-01 9.338223189115524292e-02 9.081570059061050415e-02 2.382988780736923218e-01 3.642814755439758301e-01 2.472962141036987305e-01 3.615360260009765625e-01 -3.426899015903472900e-01 -9.379777908325195312e-01 -1.856477707624435425e-01 1.433739345520734787e-02
-4.100127890706062317e-02 1.293669920414686203e-02 -5.978930741548538208e-02 4.488640427589416504e-01 8.367305248975753784e-02 -2.274206131696701050e-01 -1.411606222391128540e-01 -2.937839329242706299e-01 1.354604307562112808e-02 -1.761975139379501343e-01 7.548252493143081665e-02 3.180193901062011719e-01 1.393363177776336670e-01 6.282395869493484497e-02 1.608926430344581604e-02 -9.104066528379917145e-03 -1.193576958030462265e-02 -5.276970937848091125e-02 -1.206240616738796234e-03 1.263615787029266357e-01 9.514122456312179565e-02 1.759091764688491821e-01 5.564736947417259216e-02 3.573206067085266113e-01 -4.201335310935974121e-01 -6.428191065788269043e-01 1.087256744503974915e-01 -3.127402067184448242e-02
4.249058663845062256e-03 -1.957520097494125366e-02 5.085934400558471680e-01 6.803202629089355469e-01 5.359694361686706543e-01 3.337526619434356689e-01 9.342340379953384399e-02 2.939495444297790527e-01 3.077718019485473633e-01 1.586247086524963379e-01 9.156099706888198853e-02 1.316999644041061401e-01 5.194313451647758484e-02 1.400753259658813477e-01 1.634381264448165894e-01 7.793086022138595581e-02 9.321583062410354614e-02 -2.803430892527103424e-02 -1.578638851642608643e-01 -1.134359017014503479e-01 7.199455797672271729e-02 -1.363168954849243164e-01 -2.205333709716796875e-01 1.007061079144477844e-01 -4.639527499675750732e-01 -6.307709217071533203e-01 2.297302335500717163e-01 2.276811748743057251e-03
-2.516275271773338318e-02 -1.810397952795028687e-02 -1.773617812432348728e-03 9.875522851943969727e-01 6.293847560882568359e-01 4.191272854804992676e-01 6.661338806152343750e-01 4.460831582546234131e-01 1.467209905385971069e-01 4.485723078250885010e-01 2.858807742595672607e-01 2.582162618637084961e-01 5.220739841461181641e-01 4.101248085498809814e-01 1.705941855907440186e-01 2.595297992229461670e-01 3.341188132762908936e-01 4.488646984100341797e-01 3.756362795829772949e-01 -3.599382564425468445e-02 1.617564111948013306e-01 -2.370426654815673828e-01 4.355615675449371338e-01 3.713313043117523193e-01 2.803895175457000732e-01 -3.001523315906524658e-01 -2.984530925750732422e-01 -1.910858601331710815e-02
-2.619845233857631683e-02 6.841965019702911377e-03 5.371415615081787109e-02 2.020135521888732910e-03 4.896992146968841553e-01 6.350085139274597168e-01 7.945982813835144043e-01 9.737806916236877441e-01 7.813323736190795898e-01 6.525765061378479004e-01 6.281271576881408691e-01 3.239761590957641602e-01 2.156415134668350220e-01 5.031014084815979004e-01 4.044627547264099121e-01 4.288678467273712158e-01 4.019064605236053467e-01 4.885537922382354736e-01 5.661391019821166992e-01 8.961912393569946289e-01 4.903583526611328125e-01 1.138994023203849792e-01 8.213804960250854492e-01 4.560258388519287109e-01 3.252760171890258789e-01 2.736011892557144165e-02 -4.768809303641319275e-02 3.248353675007820129e-02
1.007491350173950195e-02 1.823003590106964111e-02 -1.526512205600738525e-04 1.399623304605484009e-01 1.008750915527343750e+00 7.138094305992126465e-01 3.341451287269592285e-01 2.276499867439270020e-01 -1.781442165374755859e-01 7.039457559585571289e-01 1.849496215581893921e-01 2.486881315708160400e-01 3.573971986770629883e-01 3.561834692955017090e-01 3.383036255836486816e-01 2.987576127052307129e-01 1.524997800588607788e-01 5.257626771926879883e-01 1.839816942811012268e-02 3.499542549252510071e-02 -1.765829771757125854e-01 4.011980295181274414e-01 2.156431525945663452e-01 6.179052591323852539e-01 2.601781859993934631e-02 -2.835400775074958801e-02 3.167116269469261169e-02 -1.151435263454914093e-02
4.192590713500976562e-04 2.399701625108718872e-03 -1.604445651173591614e-02 3.371215984225273132e-02 -2.826105058193206787e-02 -1.655094884335994720e-02 -9.597076475620269775e-02 -2.471542805433273315e-01 1.661213487386703491e-01 -1.774466633796691895e-01 3.314374983310699463e-01 2.451963871717453003e-01 -1.051816642284393311e-01 1.227138713002204895e-01 8.916698098182678223e-01 2.653997242450714111e-01 -2.227706015110015869e-01 -2.544709146022796631e-01 -3.843457624316215515e-02 -4.920050874352455139e-02 -2.569191753864288330e-01 -2.688069641590118408e-01 -2.533012330532073975e-01 2.800633199512958527e-02 -1.100916601717472076e-02 -3.395638987421989441e-02 -9.241141378879547119e-04 8.882064372301101685e-03
