-7.103545591235160828e-03 3.482927009463310242e-02 5.786772817373275757e-03 9.743943810462951660e-03 -2.368729561567306519e-02 -2.469552122056484222e-02 2.330574393272399902e-02 8.647594600915908813e-03 5.298715084791183472e-03 4.432577639818191528e-03 2.862340584397315979e-02 -2.514086663722991943e-04 4.467227309942245483e-02 4.114839434623718262e-02 4.347998276352882385e-02 -1.591885089874267578e-02 1.062181219458580017e-02 2.141799777746200562e-03 1.918438076972961426e-02 -1.549269072711467743e-02 -1.288828253746032715e-02 -3.274462372064590454e-02 -8.586185052990913391e-03 -9.210433810949325562e-03 -4.513189196586608887e-04 2.300851419568061829e-02 1.869350671768188477e-03 -2.532469481229782104e-02
-5.196103826165199280e-03 2.025279030203819275e-02 6.054457277059555054e-03 -1.237727701663970947e-04 3.761939331889152527e-02 4.550951719284057617e-02 1.880445182323455811e-01 2.936877310276031494e-01 2.042035907506942749e-01 3.369421660900115967e-01 4.181934595108032227e-01 6.008403301239013672e-01 7.981738448143005371e-01 6.379733085632324219e-01 3.509396016597747803e-01 6.223750114440917969e-01 6.391648650169372559e-01 4.498555064201354980e-01 5.134271979331970215e-01 4.701461493968963623e-01 6.752258539199829102e-01 5.803169012069702148e-01 4.080370962619781494e-01 3.474109470844268799e-01 -2.408965677022933960e-02 -2.191767096519470215e-02 2.569419518113136292e-02 5.683142691850662231e-03
-1.256403885781764984e-02 1.659928634762763977e-02 2.049485221505165100e-02 1.458195596933364868e-01 3.156160414218902588e-01 -9.578769654035568237e-02 -8.268019556999206543e-02 -1.758747845888137817e-01 -3.592909574508666992e-01 -2.600830793380737305e-01 -1.164095178246498108e-01 6.852721422910690308e-02 2.277641091495752335e-03 2.683174097910523415e-03 3.771964907646179199e-01 3.148840367794036865e-01 1.427784115076065063e-01 -7.446301728487014771e-02 -1.678058505058288574e-01 -1.214936599135398865e-01 1.333420574665069580e-01 2.674502432346343994e-01 2.854554951190948486e-01 5.307046771049499512e-01 3.534937798976898193e-01 4.562765657901763916e-01 3.122486546635627747e-02 -2.141570299863815308e-02
-9.588863700628280640e-03 -2.655868604779243469e-02 3.019893169403076172e-01 5.656031370162963867e-01 -3.458258509635925293e-02 -1.177322044968605042e-01 1.020275235176086426e+00 7.799478769302368164e-01 2.571505606174468994e-01 4.937373101711273193e-01 1.024618148803710938e-01 2.149141728878021240e-01 4.146087467670440674e-01 4.662589430809020996e-01 6.904142349958419800e-02 1.711197942495346069e-01 -2.833553962409496307e-02 -1.822418272495269775e-01 1.009254083037376404e-01 -8.879133313894271851e-02 2.261949479579925537e-01 2.473731637001037598e-01 3.995008766651153564e-02 2.569571137428283691e-01 2.454443275928497314e-01 1.135772690176963806e-01 -2.571265995502471924e-01 3.214931860566139221e-02
1.135667413473129272e-02 3.965638577938079834e-03 4.650508761405944824e-01 8.012384772300720215e-01 3.770205080509185791e-01 5.064702630043029785e-01 5.544180274009704590e-01 3.848924040794372559e-01 3.916566669940948486e-01 4.065558910369873047e-01 3.148803412914276123e-01 1.433075815439224243e-01 8.570954203605651855e-02 2.505860328674316406e-01 2.028008997440338135e-01 7.633211463689804077e-02 2.087222039699554443e-01 -3.175984323024749756e-02 2.530543506145477295e-01 -4.123014211654663086e-02 2.855507098138332367e-02 9.304071962833404541e-02 1.753488332033157349e-01 8.721894025802612305e-02 -4.762863516807556152e-01 6.023175269365310669e-02 4.661222994327545166e-01 2.696495056152343750e-01
3.194175288081169128e-02 2.851862832903862000e-02 2.712131440639495850e-01 2.093356549739837646e-01 6.838892400264739990e-02 2.459829747676849365e-01 4.444233179092407227e-01 4.446935951709747314e-01 2.112671285867691040e-01 9.651946276426315308e-02 1.208469867706298828e-01 -3.762585343793034554e-03 1.503747999668121338e-01 2.833927571773529053e-01 1.891538947820663452e-01 3.462850153446197510e-01 1.261079311370849609e-01 -1.930154561996459961e-01 8.639161288738250732e-02 9.766723960638046265e-02 -4.042176902294158936e-01 4.252449423074722290e-02 1.284180730581283569e-01 -4.509803280234336853e-02 5.220802500844001770e-02 4.301214590668678284e-02 1.861886531114578247e-01 3.164193332195281982e-01
1.989079639315605164e-02 9.964752197265625000e-02 4.075912833213806152e-01 7.049596905708312988e-01 2.220407724380493164e-01 -1.929537765681743622e-02 2.164614051580429077e-01 7.236076891422271729e-02 3.075433969497680664e-01 3.449553847312927246e-01 3.093980550765991211e-01 2.963542938232421875e-01 1.161241233348846436e-01 2.092827111482620239e-01 1.544369608163833618e-01 2.486243396997451782e-01 2.132323831319808960e-01 -2.794166095554828644e-02 1.953505128622055054e-01 -3.198735415935516357e-01 -1.852511242032051086e-02 -8.711038529872894287e-02 -6.046597361564636230e-01 -3.439331650733947754e-01 -1.139284446835517883e-01 9.197779744863510132e-02 4.174603223800659180e-01 -1.368232071399688721e-01
-3.561710193753242493e-02 4.819734394550323486e-01 5.174584388732910156e-01 1.000303506851196289e+00 6.442289948463439941e-01 3.716420382261276245e-02 3.344718217849731445e-01 1.286919601261615753e-02 6.492568552494049072e-02 6.207384914159774780e-02 1.934918165206909180e-01 3.324066055938601494e-03 3.787070810794830322e-01 2.388359159231185913e-01 1.823141723871231079e-01 1.003185138106346130e-01 2.768297791481018066e-01 -2.184906043112277985e-02 -6.147304922342300415e-02 6.832920759916305542e-02 1.889212876558303833e-01 -4.445273894816637039e-03 -3.739104866981506348e-01 -1.237439289689064026e-01 -4.691003262996673584e-01 8.049684017896652222e-02 2.310474961996078491e-01 -1.143537685275077820e-01
-5.487668141722679138e-02 4.366995096206665039e-01 5.293549895286560059e-01 4.857269525527954102e-01 7.861127853393554688e-01 1.567259430885314941e-01 3.981123566627502441e-01 2.689932882785797119e-01 2.122668176889419556e-01 -1.049850285053253174e-01 4.085683822631835938e-01 2.521344125270843506e-01 2.436420172452926636e-01 2.518618702888488770e-01 2.134424299001693726e-01 -1.045708954334259033e-01 -1.884618075564503670e-03 -5.083942040801048279e-02 3.294011950492858887e-02 -1.201316267251968384e-01 -1.296089291572570801e-01 -1.581061482429504395e-01 1.997965425252914429e-01 -5.644717216491699219e-01 -6.784008145332336426e-01 2.885398566722869873e-01 5.085399150848388672e-01 -2.187907546758651733e-01
5.596673488616943359e-02 3.945706486701965332e-01 7.457623481750488281e-01 2.555157244205474854e-01 1.115374445915222168e+00 3.851186037063598633e-01 3.648149371147155762e-01 2.919837236404418945e-01 1.805547624826431274e-01 1.690048277378082275e-01 1.375511928927153349e-04 -4.208553582429885864e-02 5.220283567905426025e-02 3.023039996623992920e-01 6.162482500076293945e-01 4.565493166446685791e-01 5.703702196478843689e-02 -3.336746618151664734e-02 -2.473247610032558441e-02 -1.721805036067962646e-01 -2.344672009348869324e-02 -2.719282209873199463e-01 6.161727756261825562e-02 -4.459170103073120117e-01 -3.820525109767913818e-01 9.246330708265304565e-03 1.742559224367141724e-01 2.300690859556198120e-01
6.230593472719192505e-02 3.189135491847991943e-01 6.889145374298095703e-01 4.594522118568420410e-01 2.880003452301025391e-01 -1.074656322598457336e-01 3.265047073364257812e-01 -4.313603416085243225e-02 3.278994560241699219e-02 -3.027663528919219971e-01 -2.728404700756072998e-01 -1.483352333307266235e-01 -3.119910955429077148e-01 3.000250458717346191e-01 5.080804228782653809e-01 2.965361177921295166e-01 5.147861838340759277e-01 2.328954190015792847e-01 2.093347012996673584e-01 1.458139568567276001e-01 3.217151165008544922e-01 2.851834297180175781e-01 1.824473887681961060e-01 -4.993687942624092102e-02 -7.600477337837219238e-01 -5.266172289848327637e-01 -4.156641364097595215e-01 5.469799041748046875e-01
6.736334413290023804e-02 3.064939379692077637e-02 4.484189748764038086e-01 5.376328825950622559e-01 -1.100590638816356659e-02 -7.892282307147979736e-02 -7.258381694555282593e-02 1.982998661696910858e-02 -1.582880318164825439e-01 -2.132017165422439575e-01 -1.769892424345016479e-01 1.035013347864151001e-01 -1.272467970848083496e-01 1.705867499113082886e-01 2.077262103557586670e-01 3.263260722160339355e-01 1.708817332983016968e-01 4.500304758548736572e-01 3.485955893993377686e-01 2.941724359989166260e-01 4.798847436904907227e-01 2.512086331844329834e-01 3.196314573287963867e-01 6.372102349996566772e-02 -4.079191386699676514e-01 -3.967142999172210693e-01 -3.895820975303649902e-01 5.892826914787292480e-01
2.910031005740165710e-02 -7.523188740015029907e-02 7.570683360099792480e-01 4.870022088289260864e-02 3.156677782535552979e-01 2.519401907920837402e-01 -2.425228655338287354e-01 -1.120094656944274902e-01 -2.126853913068771362e-01 -1.596831679344177246e-01 -1.790345162153244019e-01 -3.751740455627441406e-01 -5.166032910346984863e-01 -2.599415183067321777e-01 4.928572475910186768e-01 9.944707900285720825e-02 2.786906361579895020e-01 3.436380326747894287e-01 4.433725178241729736e-01 -9.996252506971359253e-02 1.409560441970825195e-03 1.787070035934448242e-01 5.701223760843276978e-02 1.594310551881790161e-01 2.218623012304306030e-01 2.331532686948776245e-01 -2.508723139762878418e-01 3.718021810054779053e-01
-2.786531113088130951e-02 2.917381934821605682e-02 5.722076296806335449e-01 1.641281992197036743e-01 1.450859159231185913e-01 -2.209079265594482422e-01 -4.293163418769836426e-01 -2.652362883090972900e-01 -2.885112464427947998e-01 -2.777559459209442139e-01 -4.565369188785552979e-01 -6.360897421836853027e-01 -6.360173821449279785e-01 3.236960247159004211e-02 2.596719563007354736e-01 9.483403712511062622e-02 3.192019164562225342e-01 1.872261911630630493e-01 1.234146878123283386e-01 -1.140964627265930176e-01 -2.604208290576934814e-01 -3.153817355632781982e-01 -4.886341691017150879e-01 -1.924233734607696533e-01 1.816947162151336670e-01 6.502212584018707275e-02 -2.338429689407348633e-01 1.448644250631332397e-01
-1.542802900075912476e-01 1.531497389078140259e-01 1.263601332902908325e-01 -8.145751059055328369e-02 -2.553136944770812988e-01 -1.108211517333984375e+00 -7.408726811408996582e-01 -6.479570269584655762e-01 -2.858509719371795654e-01 -3.125697970390319824e-01 -5.911787152290344238e-01 -2.494463473558425903e-01 -2.845846414566040039e-01 1.791629493236541748e-01 1.937861889600753784e-01 1.776462644338607788e-01 8.480792492628097534e-02 -8.308090269565582275e-02 6.480865925550460815e-02 1.706678234040737152e-02 1.317494958639144897e-01 2.555792927742004395e-01 -2.042520493268966675e-01 -2.015866339206695557e-01 -1.071060970425605774e-01 -4.302251636981964111e-01 3.851239383220672607e-01 -4.333724826574325562e-02
-1.173464232124388218e-03 -4.436263069510459900e-02 2.299189753830432892e-02 -1.957994252443313599e-01 -7.688580751419067383e-01 -8.692600131034851074e-01 -3.244323134422302246e-01 -3.138102889060974121e-01 -3.042578697204589844e-01 -1.996423155069351196e-01 -3.917058110237121582e-01 -3.513002957333810627e-05 -9.879379719495773315e-02 2.242400497198104858e-01 3.623850047588348389e-01 1.732908338308334351e-01 -8.188740164041519165e-02 -3.807250782847404480e-02 3.906360268592834473e-02 2.956293150782585144e-02 1.576878428459167480e-01 3.235867321491241455e-01 2.251200824975967407e-01 6.271951645612716675e-02 3.833753243088722229e-02 -3.494863510131835938e-01 7.824654579162597656e-01 4.122517406940460205e-01
1.933927088975906372e-01 7.693058252334594727e-02 3.065895736217498779e-01 -1.348726451396942139e-01 -1.712245643138885498e-01 -1.985588222742080688e-01 -2.813023626804351807e-01 1.924796774983406067e-02 -3.327674269676208496e-01 2.899338025599718094e-03 -1.445064842700958252e-01 -9.113311767578125000e-02 5.411691963672637939e-04 2.156777679920196533e-01 1.139927804470062256e-01 -1.382212042808532715e-01 7.609246671199798584e-02 -2.439425736665725708e-01 1.611348092555999756e-01 8.523597568273544312e-02 1.596760004758834839e-01 3.846462070941925049e-02 1.128913164138793945e-01 -1.066548824310302734e-01 6.200237944722175598e-02 -5.958431363105773926e-01 4.948067665100097656e-01 -1.024736911058425903e-01
1.987962424755096436e-02 3.464566469192504883e-01 5.953816771507263184e-01 1.364078223705291748e-01 -9.210081188939511776e-04 -5.417408049106597900e-02 -1.728531569242477417e-01 6.563278846442699432e-03 -2.060728222131729126e-01 -2.828452587127685547e-01 -1.487034112215042114e-01 -2.678284943103790283e-01 1.748723387718200684e-01 1.811470538377761841e-01 1.539545804262161255e-01 1.136186625808477402e-02 -1.821746230125427246e-01 -1.614756584167480469e-01 -1.664827764034271240e-01 1.953276693820953369e-01 -2.205817848443984985e-01 -3.401959836483001709e-01 1.796509474515914917e-01 -3.006252348423004150e-01 -1.816850155591964722e-01 -2.075456976890563965e-01 2.572923898696899414e-01 8.715472370386123657e-02
5.763118863105773926e-01 3.119903206825256348e-01 7.660119533538818359e-01 1.532255555503070354e-03 3.215485066175460815e-02 2.155396491289138794e-01 -5.188016593456268311e-02 -1.437053829431533813e-01 -3.900931775569915771e-02 -4.548238590359687805e-02 -2.713338732719421387e-01 -1.826177984476089478e-01 -1.305097937583923340e-01 6.622944027185440063e-03 1.959833949804306030e-01 1.606869250535964966e-01 1.994042098522186279e-02 1.220862269401550293e-01 1.460125893354415894e-01 -1.533710062503814697e-01 5.391204357147216797e-02 -4.518179222941398621e-03 3.652759268879890442e-02 -1.649069488048553467e-01 -3.892602324485778809e-01 2.437796629965305328e-02 2.529654093086719513e-02 2.240641862154006958e-01
4.650203883647918701e-02 2.578817903995513916e-01 6.560938358306884766e-01 2.647423148155212402e-01 3.409476280212402344e-01 -6.668779253959655762e-02 7.555502653121948242e-02 1.434748023748397827e-01 -9.575380384922027588e-02 2.391421981155872345e-02 2.984100580215454102e-01 -1.927396208047866821e-01 1.077994108200073242e-01 3.231134712696075439e-01 1.949770562350749969e-02 -9.005519747734069824e-02 9.980706870555877686e-02 9.529096633195877075e-02 -1.769137680530548096e-01 1.095667481422424316e-01 2.156495489180088043e-02 -2.414968982338905334e-02 1.755781355313956738e-03 -1.494405716657638550e-01 -2.916315197944641113e-01 2.197156995534896851e-01 -6.373375654220581055e-02 3.129241168498992920e-01
3.288434073328971863e-02 -3.458004072308540344e-02 7.349330931901931763e-02 3.957962989807128906e-01 1.945321410894393921e-01 -1.112208142876625061e-01 2.723107337951660156e-01 2.636632323265075684e-01 2.594023048877716064e-01 1.427948027849197388e-01 1.897987425327301025e-01 -3.135879710316658020e-02 7.987015694379806519e-02 5.898036062717437744e-02 3.011530637741088867e-01 1.860530674457550049e-01 7.620187848806381226e-02 -8.790297806262969971e-02 1.749717630445957184e-02 -3.427017852663993835e-02 4.524647071957588196e-02 -4.914979636669158936e-02 -6.373101472854614258e-02 -3.874625638127326965e-02 7.924431562423706055e-02 2.775886058807373047e-01 -2.662358880043029785e-01 7.392720133066177368e-02
2.404753305017948151e-02 -2.217062003910541534e-02 1.155891790986061096e-01 7.364647090435028076e-02 -1.069152429699897766e-01 1.698808223009109497e-01 2.242908030748367310e-01 4.482366517186164856e-02 5.733339115977287292e-02 5.210360884666442871e-02 1.783675849437713623e-01 -5.236089229583740234e-02 -4.659288749098777771e-02 -8.389561437070369720e-03 1.834321171045303345e-01 4.192336648702621460e-02 2.164006233215332031e-01 -3.767559537664055824e-03 2.302165776491165161e-01 1.554458439350128174e-01 -1.911907643079757690e-01 -1.618689596652984619e-01 -2.564939260482788086e-01 -2.261641472578048706e-01 -2.463504821062088013e-01 -1.922805905342102051e-01 -8.843608945608139038e-02 -4.428278282284736633e-02
3.478678315877914429e-02 3.385376557707786560e-02 3.841493129730224609e-01 -2.114260196685791016e-01 3.767555654048919678e-01 2.543820738792419434e-01 2.204132974147796631e-01 1.886848956346511841e-01 1.852908730506896973e-01 6.623174995183944702e-02 8.899737149477005005e-02 -1.752611994743347168e-01 2.896146848797798157e-02 -2.963910102844238281e-01 2.983824536204338074e-02 6.775815784931182861e-02 1.186669170856475830e-01 1.034073606133460999e-01 5.873786285519599915e-02 2.007661312818527222e-01 2.123017460107803345e-01 -2.456880509853363037e-01 -2.543091587722301483e-02 -2.016245573759078979e-01 -7.432779669761657715e-02 -3.219199478626251221e-01 -8.285625278949737549e-02 -1.629509031772613525e-02
1.584464684128761292e-02 1.837225258350372314e-02 6.707060337066650391e-02 -2.348464913666248322e-02 5.847154259681701660e-01 3.116374015808105469e-01 3.758804500102996826e-02 2.172955125570297241e-01 -3.029757440090179443e-01 -1.665997356176376343e-01 3.979021310806274414e-02 -7.752002030611038208e-02 -3.593192202970385551e-03 8.769874274730682373e-02 -2.382544726133346558e-01 1.588430814445018768e-02 -1.161468103528022766e-01 3.844442078843712807e-03 4.182334244251251221e-01 1.802907735109329224e-01 -5.469201207160949707e-01 -1.461249142885208130e-01 -3.313988149166107178e-01 -3.460542857646942139e-02 2.450466752052307129e-01 -8.454070985317230225e-02 4.746727645397186279e-01 1.240523532032966614e-02
9.186685085296630859e-03 3.253804519772529602e-02 -2.114767432212829590e-01 3.664128780364990234e-01 7.339363694190979004e-01 7.453470826148986816e-01 5.020530223846435547e-01 3.622037172317504883e-01 9.612449444830417633e-03 -1.600641310214996338e-01 7.255993317812681198e-03 -8.697931468486785889e-02 -7.267167419195175171e-02 -2.334953099489212036e-01 9.467801451683044434e-02 6.444210559129714966e-02 -3.500238656997680664e-01 -1.845395714044570923e-01 -4.920759797096252441e-01 -2.925861775875091553e-01 -3.224158883094787598e-01 -2.849788367748260498e-01 -3.995669484138488770e-01 -7.374450564384460449e-02 2.660094797611236572e-01 2.012632042169570923e-01 3.627039492130279541e-01 1.205518841743469238e-02
3.076159581542015076e-02 2.970895543694496155e-02 -6.178342923521995544e-02 1.696557924151420593e-02 2.789694666862487793e-01 4.877222776412963867e-01 4.006699323654174805e-01 3.885840773582458496e-01 5.690684318542480469e-01 5.117269754409790039e-01 3.416225016117095947e-01 2.744760215282440186e-01 3.846672475337982178e-01 1.005919184535741806e-02 2.297192215919494629e-01 6.615158915519714355e-02 -1.352983415126800537e-01 -2.383719235658645630e-01 -1.276372820138931274e-01 -5.247631669044494629e-01 -3.847982361912727356e-02 -2.680541872978210449e-01 -7.106151580810546875e-01 -8.458839654922485352e-01 -2.795415930449962616e-02 -2.906397357583045959e-02 1.385390609502792358e-01 1.197876408696174622e-02
1.938458532094955444e-03 4.470091313123703003e-03 -1.098545640707015991e-02 -2.387575507164001465e-01 -7.761036753654479980e-01 -4.033105373382568359e-01 -2.723656594753265381e-01 -8.352135121822357178e-02 8.724524825811386108e-02 -3.326436579227447510e-01 -7.520277798175811768e-02 -3.892357647418975830e-01 -4.285778105258941650e-01 -6.287044286727905273e-01 8.098173141479492188e-02 1.829369552433490753e-02 -1.323617994785308838e-01 1.005037948489189148e-01 1.254639625549316406e-01 -4.167878031730651855e-01 -6.797236204147338867e-02 -4.787074774503707886e-02 9.309642761945724487e-02 1.400958895683288574e-01 -3.166399151086807251e-02 2.244138717651367188e-02 -8.136881515383720398e-03 -2.645625919103622437e-02
-1.781371794641017914e-02 -2.909475192427635193e-02 -1.835035905241966248e-02 1.532537490129470825e-02 8.176133781671524048e-02 7.986131310462951660e-02 2.714430093765258789e-01 2.891345620155334473e-01 -1.286389231681823730e-01 -2.565931994467973709e-03 1.933361589908599854e-01 4.395489394664764404e-01 3.825567662715911865e-02 -1.598953902721405029e-01 -1.122010573744773865e-01 -1.855879276990890503e-01 1.156987920403480530e-01 4.905940592288970947e-01 4.001191556453704834e-01 -7.786206156015396118e-02 -3.509281873703002930e-01 -5.346209406852722168e-01 -3.910983800888061523e-01 2.986525371670722961e-02 1.618051156401634216e-02 -1.628132909536361694e-02 7.020227611064910889e-03 -1.545727252960205078e-03
