8.405037224292755127e-04 -2.710647881031036377e-03 -9.220438078045845032e-03 -1.541264727711677551e-02 2.242915704846382141e-02 -1.655962318181991577e-03 -3.392330929636955261e-02 2.161278575658798218e-02 6.361372768878936768e-03 2.813176438212394714e-02 -9.250862523913383484e-03 -9.909192100167274475e-03 -5.947712808847427368e-03 1.740732043981552124e-02 -2.370510995388031006e-02 -1.253614388406276703e-02 -1.663078740239143372e-02 -1.798639632761478424e-02 1.346063241362571716e-02 -2.669524401426315308e-02 1.682215556502342224e-02 -2.302263118326663971e-02 -6.236778572201728821e-03 1.836536824703216553e-02 -1.481738686561584473e-02 -3.151841089129447937e-02 -1.793476939201354980e-02 1.025110483169555664e-03
3.732208162546157837e-03 4.041820764541625977e-03 -2.253979444503784180e-03 1.351673901081085205e-02 5.308575928211212158e-04 -2.503313496708869934e-02 -1.491176337003707886e-02 1.468878611922264099e-02 -3.543759882450103760e-02 3.777854144573211670e-03 -2.476923912763595581e-02 2.659939229488372803e-02 2.502205222845077515e-02 9.306922554969787598e-03 -4.781524464488029480e-02 -3.316168487071990967e-02 -5.366991832852363586e-02 -3.244548663496971130e-02 -1.654824614524841309e-02 1.942547783255577087e-02 7.432051002979278564e-03 -2.215654589235782623e-02 -5.169818177819252014e-03 -6.304221227765083313e-03 -2.679291926324367523e-02 -3.359951823949813843e-02 3.016394004225730896e-02 -1.524352282285690308e-02
-3.682974725961685181e-03 1.735869422554969788e-02 -1.952282525599002838e-02 2.693950757384300232e-02 -3.036782331764698029e-02 -1.107057556509971619e-02 -3.330416232347488403e-02 -2.761761844158172607e-02 3.446296975016593933e-02 3.242891654372215271e-02 1.363725662231445312e-01 1.219692751765251160e-01 -3.911442309617996216e-02 -2.771169543266296387e-01 -3.078980445861816406e-01 -1.823684126138687134e-01 -3.521615862846374512e-01 -1.708831824362277985e-02 -1.486884709447622299e-02 -2.754027023911476135e-02 -6.166008859872817993e-02 -2.629000507295131683e-02 1.179542765021324158e-02 -1.813714578747749329e-02 6.085332483053207397e-03 1.341893523931503296e-02 -3.328082710504531860e-02 -1.919243484735488892e-03
-1.257225126028060913e-02 2.214055135846138000e-02 -1.581269204616546631e-01 -1.709196865558624268e-01 1.968612372875213623e-01 1.131948754191398621e-01 -2.397434972226619720e-02 7.031010836362838745e-02 1.279620528221130371e-01 1.831737719476222992e-02 1.717170514166355133e-02 1.943152844905853271e-01 9.342803806066513062e-02 -8.051752299070358276e-02 1.219800710678100586e-01 5.546637624502182007e-02 -1.879406534135341644e-02 1.190696358680725098e-01 9.955623745918273926e-02 3.610074520111083984e-02 1.856493949890136719e-01 3.230769559741020203e-02 2.277434021234512329e-01 -1.564022749662399292e-01 -3.105067089200019836e-02 2.555435523390769958e-02 -1.966815814375877380e-02 -5.026932805776596069e-03
1.936702057719230652e-02 -1.172141060233116150e-01 2.692272886633872986e-02 1.572971493005752563e-01 6.411036103963851929e-02 1.384273916482925415e-01 -1.495688105933368206e-03 1.337378919124603271e-01 4.063954576849937439e-02 2.744809165596961975e-02 4.559494182467460632e-02 4.000999405980110168e-02 3.055242449045181274e-02 2.510227635502815247e-02 1.567081548273563385e-02 3.545303270220756531e-02 1.254454907029867172e-02 1.170272566378116608e-02 2.346409484744071960e-03 1.764497347176074982e-02 -5.473790224641561508e-03 4.678067925851792097e-04 5.880543589591979980e-02 -1.975818574428558350e-01 -4.248158261179924011e-02 2.985735610127449036e-02 -2.369191497564315796e-03 3.337448462843894958e-02
3.110545501112937927e-02 1.670479774475097656e-03 -3.200970590114593506e-02 -9.862951189279556274e-02 1.190208271145820618e-01 -9.953369200229644775e-02 -2.588263526558876038e-02 4.095693677663803101e-02 -1.431863103061914444e-02 3.243214637041091919e-02 -2.570527838543057442e-03 6.246815249323844910e-02 2.779012359678745270e-02 2.150462567806243896e-02 2.935291013272944838e-05 7.093057036399841309e-03 -2.938374876976013184e-03 1.079215202480554581e-02 1.065693609416484833e-02 1.250283676199615002e-03 5.076484289020299911e-03 -6.325542926788330078e-02 -1.260226368904113770e-01 -6.528185307979583740e-02 -1.286804974079132080e-01 -4.199694842100143433e-02 3.588625788688659668e-02 -8.923262357711791992e-03
5.644448101520538330e-04 -9.860408492386341095e-03 2.257432490587234497e-01 1.510458737611770630e-01 -8.201992139220237732e-03 3.561609610915184021e-02 3.329116851091384888e-02 1.937587186694145203e-02 -5.956452339887619019e-03 4.095876216888427734e-02 2.532445080578327179e-02 4.316681995987892151e-02 3.279621154069900513e-02 4.625648632645606995e-02 2.022611908614635468e-02 1.053162850439548492e-02 4.287584125995635986e-02 -2.908639237284660339e-02 1.141249015927314758e-02 -9.717117995023727417e-03 -4.619169980287551880e-02 4.103166982531547546e-02 1.587935835123062134e-01 3.163341432809829712e-02 -9.084394574165344238e-02 6.246792152523994446e-02 -3.035863861441612244e-02 -2.402921393513679504e-02
-2.047669142484664917e-03 2.965085506439208984e-01 3.474117815494537354e-01 4.378114268183708191e-02 -3.732740134000778198e-02 2.468486875295639038e-02 -1.390287652611732483e-02 8.949883282184600830e-03 4.534900188446044922e-02 3.854390606284141541e-02 -3.543028607964515686e-02 4.029157012701034546e-02 -7.766856346279382706e-03 1.864701695740222931e-02 2.708273008465766907e-02 3.732179105281829834e-02 -1.049616094678640366e-02 2.352436631917953491e-02 -1.159291248768568039e-02 -1.262933760881423950e-02 -1.709546893835067749e-03 -8.934312313795089722e-02 -3.800319880247116089e-02 -1.892653293907642365e-02 -1.447753310203552246e-01 5.136672034859657288e-02 5.168139934539794922e-02 -8.599944412708282471e-04
3.406005725264549255e-02 4.937444254755973816e-02 7.388621568679809570e-03 2.827479317784309387e-02 9.526767767965793610e-03 -3.326729685068130493e-02 -4.443585872650146484e-02 -2.587714791297912598e-02 -2.065971866250038147e-02 -7.025154307484626770e-03 1.945176720619201660e-02 1.989808864891529083e-02 -3.998691961169242859e-02 -1.252378895878791809e-02 4.120349511504173279e-02 -1.854946650564670563e-02 -1.376398932188749313e-02 -1.077478658407926559e-02 1.658520475029945374e-02 -7.190957665443420410e-03 2.793471515178680420e-02 5.344978347420692444e-02 1.287247519940137863e-02 3.971422091126441956e-02 -1.575892865657806396e-01 5.955487489700317383e-03 7.282003760337829590e-03 2.825928106904029846e-02
9.120449423789978027e-03 1.379622332751750946e-02 -4.295437335968017578e-01 1.915746182203292847e-01 1.547059416770935059e-01 6.246079131960868835e-02 -4.537445306777954102e-02 7.843758910894393921e-02 -4.141737520694732666e-02 -2.112844260409474373e-03 1.255683153867721558e-01 -3.594718500971794128e-02 -5.161848291754722595e-02 -5.520879849791526794e-02 -1.317364163696765900e-02 7.155437767505645752e-02 7.066011428833007812e-02 5.679921433329582214e-02 -2.450687251985073090e-02 5.251396447420120239e-02 5.463489517569541931e-02 5.603254586458206177e-02 7.698906213045120239e-02 2.119198888540267944e-01 -5.389372110366821289e-01 2.152592688798904419e-02 -1.184846833348274231e-01 1.386766880750656128e-02
2.865725383162498474e-02 7.201457023620605469e-02 -2.023805081844329834e-01 -4.979845136404037476e-03 -4.013995081186294556e-02 1.069294810295104980e-01 -6.262406706809997559e-03 3.684747964143753052e-02 -2.940323390066623688e-02 4.563053138554096222e-03 5.938409268856048584e-02 -2.435704506933689117e-02 -8.257372677326202393e-02 -7.738254964351654053e-02 -9.997385740280151367e-02 -8.726875483989715576e-02 1.858137734234333038e-02 2.060923539102077484e-02 5.913608148694038391e-02 -3.955824300646781921e-02 5.430252104997634888e-02 -3.656709194183349609e-02 7.426175475120544434e-02 1.126645803451538086e-01 6.825795024633407593e-02 -1.215545162558555603e-01 -1.179047152400016785e-01 -3.283393383026123047e-02
-2.216421440243721008e-02 7.532414793968200684e-02 1.176591515541076660e-01 2.262348681688308716e-01 -1.098547726869583130e-01 -7.727303355932235718e-02 1.075919121503829956e-01 -1.668520085513591766e-02 2.816603705286979675e-02 5.638810247182846069e-02 -1.328755356371402740e-02 8.539502322673797607e-02 -3.074468672275543213e-02 -2.236003801226615906e-02 -1.038159951567649841e-01 -7.929462939500808716e-02 -7.093197107315063477e-02 -5.753894336521625519e-03 -1.044041756540536880e-02 -1.460296381264925003e-02 -2.849198132753372192e-02 1.359684113413095474e-02 -1.362548768520355225e-01 -5.435152724385261536e-02 2.411099523305892944e-01 -8.743591606616973877e-02 -5.738401785492897034e-02 -5.507118627429008484e-02
-2.283957600593566895e-02 -7.887029647827148438e-02 -1.899894028902053833e-01 -8.487073332071304321e-02 5.158865079283714294e-02 -5.537966266274452209e-02 -3.398907929658889771e-02 -3.579137846827507019e-02 1.507225260138511658e-02 -3.655714169144630432e-02 7.454527076333761215e-03 3.422538749873638153e-03 5.118446424603462219e-02 -3.671787679195404053e-03 -7.819093763828277588e-02 -5.929852277040481567e-02 -8.926788344979286194e-03 5.210293829441070557e-02 -5.427668243646621704e-02 6.510153412818908691e-02 1.425436232239007950e-02 -1.471635550260543823e-01 7.443396747112274170e-02 -1.905853860080242157e-02 4.139251708984375000e-01 1.377053558826446533e-01 -1.198071315884590149e-01 2.571160718798637390e-02
1.558122877031564713e-02 -6.644204258918762207e-04 -1.892175972461700439e-01 1.505289524793624878e-01 4.377155750989913940e-02 1.925094276666641235e-01 2.349426969885826111e-02 1.677805371582508087e-02 -3.043401427567005157e-02 1.683505065739154816e-02 3.659813373815268278e-04 1.286855340003967285e-02 2.737005241215229034e-02 8.816824108362197876e-02 -1.629802137613296509e-01 -9.376239776611328125e-02 7.470127311535179615e-04 5.935135995969176292e-04 -4.030247218906879425e-03 -1.623607240617275238e-02 -5.491604283452033997e-02 -5.898315459489822388e-02 -5.129002779722213745e-02 -1.106092780828475952e-01 4.266533255577087402e-02 -7.255638390779495239e-02 -6.425309926271438599e-02 -7.167944684624671936e-03
1.774863898754119873e-02 5.941677466034889221e-02 -2.811987698078155518e-01 -1.949128061532974243e-01 -1.557557433843612671e-01 2.515123225748538971e-02 -5.603116005659103394e-02 4.013976082205772400e-03 2.550715208053588867e-02 -6.149755418300628662e-02 -4.401181265711784363e-02 4.616553336381912231e-02 3.486003354191780090e-02 8.863551169633865356e-02 -3.113895952701568604e-01 3.431346267461776733e-02 -1.620630733668804169e-02 -1.228926703333854675e-02 4.929788038134574890e-02 -3.936875611543655396e-02 5.253221374005079269e-03 7.616973947733640671e-03 1.513830013573169708e-02 -9.648289997130632401e-04 -1.370167583227157593e-01 -2.505575120449066162e-01 -1.245738267898559570e-01 -9.633295238018035889e-03
2.112499251961708069e-02 -5.437783896923065186e-02 -3.314173221588134766e-02 3.853696584701538086e-02 -6.739718466997146606e-02 5.225858092308044434e-02 6.021701917052268982e-02 8.811471052467823029e-03 -1.152981072664260864e-01 8.649822324514389038e-03 1.216084137558937073e-02 6.402263045310974121e-02 3.580044955015182495e-02 -5.401726230047643185e-04 -2.825470566749572754e-01 9.108074754476547241e-02 -5.824770778417587280e-02 1.128640696406364441e-01 -1.316693425178527832e-02 1.624723151326179504e-02 2.803769148886203766e-02 3.610447794198989868e-02 -3.508214652538299561e-02 1.842650324106216431e-01 1.180227398872375488e-01 -4.055378437042236328e-01 -3.751639723777770996e-01 -9.387813508510589600e-03
1.394926011562347412e-02 1.910657137632369995e-01 1.830139309167861938e-01 1.010749414563179016e-01 -1.188528331113047898e-04 8.110245317220687866e-02 -3.027326613664627075e-02 -2.706678397953510284e-02 -5.820202175527811050e-03 1.145827695727348328e-01 -5.843860562890768051e-03 1.584325544536113739e-02 7.950197160243988037e-02 -1.064905151724815369e-01 -1.393246799707412720e-01 1.729258894920349121e-02 -8.225660771131515503e-03 7.444299757480621338e-02 4.340899363160133362e-02 7.682503759860992432e-02 -1.517617958597838879e-03 4.370509088039398193e-02 -3.520630998536944389e-03 7.370056957006454468e-02 2.796216607093811035e-01 -2.037736773490905762e-02 -1.971968412399291992e-01 1.252392306923866272e-02
3.379660472273826599e-02 7.269545644521713257e-02 6.969702243804931641e-02 1.269776374101638794e-01 9.943151846528053284e-03 -4.107865318655967712e-02 -1.978594344109296799e-03 7.700772024691104889e-03 5.122815072536468506e-02 4.040747508406639099e-02 -5.943936854600906372e-02 -6.377185136079788208e-02 -1.228460446000099182e-01 -8.193226158618927002e-02 -8.741947263479232788e-02 -1.365933381021022797e-02 1.566841751337051392e-01 1.354069858789443970e-01 -2.385140955448150635e-02 5.541479587554931641e-02 7.349738478660583496e-02 4.790022969245910645e-02 1.079388037323951721e-01 9.641905874013900757e-02 -6.136786192655563354e-02 -1.074388921260833740e-01 1.015223115682601929e-01 1.181079670786857605e-01
-2.634026855230331421e-02 1.265924572944641113e-01 -2.283469960093498230e-02 -4.394803941249847412e-02 -6.983138620853424072e-03 3.870125487446784973e-02 6.119041889905929565e-02 1.984529942274093628e-02 -3.512701950967311859e-03 -2.779588848352432251e-02 -5.230804905295372009e-03 -8.291610330343246460e-02 -1.482530981302261353e-01 2.185204811394214630e-02 -7.600586861371994019e-02 6.867989897727966309e-02 1.402144730091094971e-01 7.445833832025527954e-02 2.523010782897472382e-02 5.663762986660003662e-02 -1.082779560238122940e-02 2.991374023258686066e-02 1.147104147821664810e-02 9.553550928831100464e-02 -1.424166262149810791e-01 -3.568706512451171875e-01 7.843534648418426514e-02 -4.507849738001823425e-02
-3.022791631519794464e-02 -1.398318260908126831e-01 8.734779059886932373e-02 3.310703858733177185e-02 -8.817620575428009033e-03 -4.001838533440604806e-05 9.932385757565498352e-03 -4.906824603676795959e-02 7.208920270204544067e-02 -2.666953392326831818e-02 3.894619271159172058e-02 -4.631657525897026062e-02 1.267253793776035309e-02 -6.610412895679473877e-02 -6.327407807111740112e-02 -7.027371972799301147e-02 -1.530771702527999878e-02 8.461992442607879639e-02 4.525481909513473511e-02 5.139745399355888367e-02 2.934441901743412018e-02 3.188755363225936890e-02 5.223996564745903015e-02 2.574123814702033997e-02 -2.473818212747573853e-01 -3.415631949901580811e-01 -3.724626824259757996e-02 -5.715936794877052307e-02
-7.986256852746009827e-03 -1.027137115597724915e-01 -2.678268216550350189e-02 1.171148717403411865e-01 2.389407530426979065e-02 2.834283374249935150e-02 -6.660802755504846573e-03 -1.597695401869714260e-03 -2.890554489567875862e-03 8.290666155517101288e-03 -1.301591168157756329e-03 -1.033009588718414307e-02 6.433752365410327911e-03 4.292763024568557739e-02 1.128234621137380600e-02 -4.300064593553543091e-02 -7.963083684444427490e-02 -5.731728672981262207e-02 -3.915753588080406189e-02 -4.750943928956985474e-02 -6.258283741772174835e-03 -7.714226841926574707e-03 2.085552737116813660e-02 8.313529938459396362e-02 -1.637215167284011841e-01 -1.055188700556755066e-01 1.079770922660827637e-01 -4.483627621084451675e-03
-5.156357213854789734e-02 1.362926214933395386e-01 4.081059247255325317e-02 6.748837232589721680e-02 -8.873553946614265442e-03 2.794953994452953339e-03 2.631647884845733643e-02 -2.843612991273403168e-02 7.609591353684663773e-03 -4.221008718013763428e-02 -9.507443755865097046e-03 2.823893539607524872e-02 5.096291657537221909e-03 -9.281514212489128113e-03 4.213915206491947174e-03 1.961982063949108124e-02 1.777981035411357880e-02 -2.796359173953533173e-02 -1.359079964458942413e-02 1.260122563689947128e-02 -3.555297618731856346e-03 -9.757332503795623779e-02 -1.107839681208133698e-02 8.075301349163055420e-02 -3.179462850093841553e-01 -2.221344411373138428e-01 -7.767111063003540039e-02 -1.289549097418785095e-02
-1.914248801767826080e-02 -5.358241870999336243e-02 1.454683244228363037e-01 -7.887724041938781738e-02 -3.363338857889175415e-02 -9.318570792675018311e-02 -1.305198762565851212e-03 -5.753476545214653015e-02 2.812043298035860062e-03 1.308854576200246811e-02 3.294960781931877136e-02 4.423128440976142883e-02 6.650461256504058838e-02 2.873426117002964020e-02 9.186504757963120937e-04 7.379509042948484421e-03 1.609514839947223663e-02 1.154247019439935684e-02 -4.284028336405754089e-02 -1.582701876759529114e-02 -2.575966529548168182e-02 -1.613509356975555420e-01 2.139733731746673584e-01 -1.481205075979232788e-01 -2.123763412237167358e-01 -2.247094064950942993e-01 4.994960129261016846e-02 3.434762731194496155e-02
2.578492090106010437e-02 -1.252670399844646454e-02 -7.367081195116043091e-02 1.078859567642211914e-01 3.727597743272781372e-02 5.668340250849723816e-02 9.707947261631488800e-03 5.051539093255996704e-02 3.622574359178543091e-02 1.422664243727922440e-02 5.734095815569162369e-03 4.465964436531066895e-02 8.710200898349285126e-03 4.110407456755638123e-02 1.911962777376174927e-02 4.769150912761688232e-02 -4.275033250451087952e-02 -2.589462790638208389e-03 3.091103211045265198e-02 -1.721942797303199768e-02 -8.601930923759937286e-03 -1.257540434598922729e-01 7.964741438627243042e-02 -5.989443138241767883e-02 -5.913432314991950989e-02 -4.333488270640373230e-02 3.738070279359817505e-02 -1.991715282201766968e-02
2.612994611263275146e-02 -1.840679720044136047e-02 -8.803195506334304810e-02 1.100323423743247986e-01 2.103778719902038574e-02 -8.280858397483825684e-02 -1.717716827988624573e-02 5.209137126803398132e-02 -2.442112192511558533e-02 3.308565169572830200e-02 8.323548361659049988e-03 4.018588364124298096e-02 4.084463231265544891e-03 2.949810028076171875e-02 6.712187826633453369e-02 -2.184285782277584076e-02 1.056320667266845703e-01 -2.700833603739738464e-02 -3.138833120465278625e-02 -7.664683740586042404e-03 2.529181838035583496e-01 -1.379461586475372314e-01 -1.778507381677627563e-01 -7.060722261667251587e-02 3.362925723195075989e-02 -8.698528259992599487e-02 -8.973856270313262939e-02 -1.687723398208618164e-02
-1.660951972007751465e-02 -1.571259833872318268e-02 4.800685867667198181e-02 -7.157398015260696411e-02 -1.107058674097061157e-01 -4.329812526702880859e-02 2.242564857006072998e-01 -7.184705697000026703e-03 5.953667685389518738e-03 -1.950431987643241882e-02 7.416410744190216064e-02 1.237983033061027527e-01 6.710757315158843994e-02 1.306860297918319702e-01 6.801404990255832672e-03 9.436165541410446167e-02 2.106712907552719116e-01 9.206523001194000244e-02 2.361140698194503784e-01 2.870940864086151123e-01 3.033886849880218506e-01 2.198439389467239380e-01 7.147364318370819092e-02 1.253095641732215881e-02 3.247505798935890198e-02 1.529889181256294250e-02 -1.165050826966762543e-02 -1.111264340579509735e-02
7.174365222454071045e-03 2.928243950009346008e-02 -1.162424683570861816e-02 2.238854765892028809e-02 1.599395126104354858e-01 5.346186459064483643e-03 2.004221267998218536e-02 6.003795936703681946e-02 8.931586146354675293e-02 -3.744905441999435425e-02 1.334720551967620850e-01 1.179160401225090027e-01 -2.008216455578804016e-02 1.976265162229537964e-01 8.372934907674789429e-02 9.225805848836898804e-02 2.298016101121902466e-01 1.312275379896163940e-01 7.832150906324386597e-02 -7.260131835937500000e-02 3.389344364404678345e-02 1.012942865490913391e-01 1.816699951887130737e-01 -1.829255931079387665e-02 -2.247829176485538483e-02 -2.969908900558948517e-02 -3.339605405926704407e-02 1.268889755010604858e-02
-2.153158187866210938e-02 -3.569959476590156555e-02 1.247918233275413513e-02 3.351883217692375183e-02 -2.547762356698513031e-02 -7.933123037219047546e-03 -2.662075124680995941e-02 -2.872232161462306976e-02 2.091097831726074219e-02 2.716287598013877869e-02 -3.169857338070869446e-02 2.465982362627983093e-02 -1.792109012603759766e-02 1.928676664829254150e-02 3.442038223147392273e-02 -2.280727028846740723e-02 9.363386780023574829e-03 -2.608010172843933105e-02 8.351121097803115845e-03 -8.772177621722221375e-03 1.677480340003967285e-02 -1.882326230406761169e-02 -1.702692732214927673e-02 1.631375402212142944e-02 8.496001362800598145e-03 -3.880746662616729736e-04 2.672611176967620850e-02 2.742947265505790710e-02
