-4.786061123013496399e-03 -3.173220902681350708e-02 2.088016644120216370e-02 -1.586505025625228882e-02 -2.641250193119049072e-02 2.637436985969543457e-02 -1.615351997315883636e-02 2.158265560865402222e-03 -2.146178483963012695e-02 -2.162222005426883698e-02 -9.466409683227539062e-03 1.294663548469543457e-02 -2.139358222484588623e-02 3.956432454288005829e-03 -1.824672706425189972e-02 -3.832303360104560852e-02 -4.924714565277099609e-03 -3.400658071041107178e-02 -7.513463497161865234e-04 1.056388020515441895e-02 -1.156320795416831970e-02 -3.350137546658515930e-02 -1.101746782660484314e-02 1.497110351920127869e-02 -1.110296137630939484e-02 -1.448096148669719696e-02 -2.779435366392135620e-03 2.179472148418426514e-02
3.070298954844474792e-02 6.895795464515686035e-03 -2.671527117490768433e-02 2.922526374459266663e-02 -3.233974426984786987e-02 -1.633927077054977417e-01 -8.456380367279052734e-01 -9.690186977386474609e-01 -9.353682994842529297e-01 -1.116590261459350586e+00 -1.041132569313049316e+00 -1.154363036155700684e+00 -8.829888701438903809e-01 -8.583894371986389160e-01 -6.725440025329589844e-01 -8.505844473838806152e-01 -9.564272761344909668e-01 -9.548918008804321289e-01 -6.572940945625305176e-01 -9.126971960067749023e-01 -1.021066427230834961e+00 -6.556859016418457031e-01 -6.052669882774353027e-01 -5.506713390350341797e-01 1.000768691301345825e-02 -1.429221965372562408e-02 -1.242879964411258698e-02 2.838760614395141602e-03
-1.720938831567764282e-03 -1.049464195966720581e-02 1.114168111234903336e-02 -3.115876317024230957e-01 -5.819901227951049805e-01 -1.721647530794143677e-01 -1.287703156471252441e+00 -1.938224315643310547e+00 -2.427484512329101562e+00 -3.168686389923095703e+00 -3.312171697616577148e+00 -4.574712276458740234e+00 -3.246313095092773438e+00 -3.441743373870849609e+00 -3.381647825241088867e+00 -3.311098575592041016e+00 -2.289317607879638672e+00 -2.386583089828491211e+00 -2.241462945938110352e+00 -1.735332250595092773e+00 -1.649526357650756836e+00 -2.084979057312011719e+00 -1.892913222312927246e+00 -1.355886101722717285e+00 -5.359937548637390137e-01 -1.885566860437393188e-01 2.434076368808746338e-02 -1.413714140653610229e-02
-8.359942585229873657e-03 -2.504143677651882172e-02 2.985751628875732422e-02 -3.812331557273864746e-01 -4.357587397098541260e-01 -3.792914152145385742e-01 -1.705528974533081055e+00 -2.892934322357177734e+00 -2.285630702972412109e+00 -2.499980926513671875e+00 -1.694280743598937988e+00 -1.515410780906677246e+00 -2.815301656723022461e+00 -3.600526809692382812e+00 -3.163458585739135742e+00 -1.808300971984863281e+00 -8.175479769706726074e-01 -1.245328307151794434e+00 -1.124640226364135742e+00 -5.848312377929687500e-01 1.521905958652496338e-01 3.722802996635437012e-01 5.499846935272216797e-01 -6.655197143554687500e-01 -4.877682030200958252e-02 -9.967238642275333405e-03 -3.429797664284706116e-02 1.309030130505561829e-02
-1.454737037420272827e-03 -2.058260515332221985e-02 -2.698794603347778320e-01 -3.585767745971679688e-01 2.246698588132858276e-01 1.345836371183395386e-01 -5.716853737831115723e-01 -5.870016217231750488e-01 -4.061346650123596191e-01 -5.003531575202941895e-01 -6.616606116294860840e-01 -1.766687035560607910e-01 1.617193371057510376e-01 2.195365428924560547e-01 -5.789199471473693848e-01 -4.210885465145111084e-01 1.312119811773300171e-01 -4.664293229579925537e-01 -1.993514448404312134e-01 4.988486170768737793e-01 8.016610741615295410e-01 4.687735736370086670e-01 4.930262863636016846e-01 4.393345117568969727e-01 -5.574455857276916504e-01 -4.805212318897247314e-01 -7.267758250236511230e-01 -3.238658308982849121e-01
-2.726190537214279175e-02 3.962852060794830322e-04 -5.444234609603881836e-01 1.377951502799987793e-01 5.225155353546142578e-01 5.005259513854980469e-01 3.813398778438568115e-01 -2.575480639934539795e-01 1.457461416721343994e-01 3.643822669982910156e-01 -3.277920484542846680e-01 -8.572258800268173218e-02 9.953647851943969727e-02 -7.104668021202087402e-01 1.586329191923141479e-01 -2.185820341110229492e-01 3.990211486816406250e-01 2.705965340137481689e-01 3.574879169464111328e-01 3.656455874443054199e-01 1.140807569026947021e-01 1.505838185548782349e-01 4.278567135334014893e-01 8.296695351600646973e-01 -3.804253637790679932e-01 5.346886813640594482e-03 -9.709132313728332520e-01 -6.433744430541992188e-01
1.855458691716194153e-02 2.562981098890304565e-02 -1.834713965654373169e-01 -3.209018111228942871e-01 1.703985184431076050e-01 6.640745792537927628e-03 2.513158880174160004e-02 4.288015067577362061e-01 -3.305382132530212402e-01 1.848144084215164185e-01 -6.781374216079711914e-01 -3.995413780212402344e-01 -6.267875432968139648e-01 -1.092684030532836914e+00 -8.820328116416931152e-01 -9.890417456626892090e-01 -1.226206183433532715e+00 -5.924125313758850098e-01 -9.038685560226440430e-01 -4.407701492309570312e-01 -4.673606157302856445e-01 -3.360106050968170166e-01 4.238822758197784424e-01 1.343418359756469727e+00 5.119893550872802734e-01 4.798790216445922852e-01 -5.354000926017761230e-01 -1.199963450431823730e+00
1.717776432633399963e-02 -3.413052856922149658e-01 -7.402032017707824707e-01 7.591138482093811035e-01 6.873423457145690918e-01 4.453416168689727783e-01 -4.911668971180915833e-02 1.471950858831405640e-01 2.429456710815429688e-01 1.427413662895560265e-03 -8.562581241130828857e-02 8.826906234025955200e-02 -7.855469584465026855e-01 -3.918507099151611328e-01 -7.455469369888305664e-01 -8.978414535522460938e-01 -7.666141390800476074e-01 -3.805811330676078796e-02 -2.552461326122283936e-01 -9.545695036649703979e-02 1.790056675672531128e-01 6.468450184911489487e-03 6.715562939643859863e-01 7.323611527681350708e-02 1.169803738594055176e-01 -3.669571578502655029e-01 8.899447321891784668e-01 -1.153095483779907227e+00
2.224396541714668274e-02 -6.624826192855834961e-01 -7.172589302062988281e-01 2.970453202724456787e-01 5.044143795967102051e-01 7.559563517570495605e-01 6.094054579734802246e-01 4.806246161460876465e-01 -5.560460090637207031e-01 1.785467863082885742e-01 -2.896707057952880859e-01 -2.160293757915496826e-01 -3.130846321582794189e-01 -3.675180077552795410e-01 -8.655158877372741699e-01 -5.565525889396667480e-01 -6.525149345397949219e-01 -1.096181347966194153e-01 -6.957135349512100220e-02 -1.945009976625442505e-01 -6.966529041528701782e-02 -7.993074506521224976e-02 -1.775264292955398560e-01 4.152938127517700195e-01 -1.433034776709973812e-03 8.876522183418273926e-01 -3.880203366279602051e-01 -6.075969338417053223e-01
-1.786943823099136353e-01 -9.005529284477233887e-01 -1.042558312416076660e+00 -5.704116821289062500e-01 -4.815611839294433594e-01 -1.036851666867733002e-02 -3.410923480987548828e-01 3.442184627056121826e-01 -1.134793683886528015e-01 3.854462504386901855e-01 -3.984018266201019287e-01 -1.432554125785827637e-01 -2.874008119106292725e-01 -1.933606863021850586e-01 -1.294254064559936523e+00 -6.745100617408752441e-01 2.471946775913238525e-01 -3.200199007987976074e-01 -5.838244408369064331e-02 -3.624041378498077393e-02 2.086151391267776489e-01 -3.195560351014137268e-02 1.473268270492553711e-01 1.703568845987319946e-01 -4.747651219367980957e-01 6.246747970581054688e-01 -2.689450263977050781e+00 -9.141933321952819824e-01
-2.125373929738998413e-01 -7.502122521400451660e-01 -9.496156573295593262e-01 -1.289263814687728882e-01 3.714265823364257812e-01 -1.015569806098937988e+00 -9.718714952468872070e-01 -8.580356836318969727e-02 3.343046084046363831e-02 1.496258825063705444e-01 3.060480020940303802e-02 -1.257215440273284912e-01 1.473630964756011963e-01 -3.465693593025207520e-01 -1.528515338897705078e+00 2.223027125000953674e-02 -1.389968246221542358e-01 5.436430498957633972e-02 1.995736211538314819e-01 -3.950149193406105042e-02 -1.974930763244628906e-01 -2.154213041067123413e-01 4.819482266902923584e-01 -8.685928583145141602e-01 -3.593487441539764404e-01 -7.576011419296264648e-01 -1.699018239974975586e+00 -3.384906053543090820e-01
-2.111440747976303101e-01 -2.307876944541931152e-01 -1.319577693939208984e+00 1.857237815856933594e-01 -1.866955310106277466e-01 4.807630479335784912e-01 1.310713738203048706e-01 -4.710692167282104492e-01 2.489158511161804199e-01 2.759537398815155029e-01 5.539593100547790527e-01 1.816831827163696289e-01 7.519248723983764648e-01 -1.425600051879882812e+00 -1.810068607330322266e+00 3.776512145996093750e-01 2.128044217824935913e-01 6.257760524749755859e-02 -2.958685457706451416e-01 -3.562646731734275818e-02 -6.451366543769836426e-01 -8.192374706268310547e-01 -5.064845085144042969e-01 -1.284704446792602539e+00 -1.476093888282775879e+00 -1.482497096061706543e+00 -5.079077482223510742e-01 -3.560451567173004150e-01
-4.974715411663055420e-03 -1.206620708107948303e-01 -1.406311392784118652e+00 -7.066754698753356934e-01 -1.288118839263916016e+00 -9.830159693956375122e-02 2.727771997451782227e-01 4.545216560363769531e-01 9.943268448114395142e-02 2.952703088521957397e-02 6.236459612846374512e-01 8.710644245147705078e-01 1.858462095260620117e+00 -5.456098318099975586e-01 -1.026400446891784668e+00 4.151967167854309082e-01 2.245082408189773560e-01 -2.576237320899963379e-01 -3.059992194175720215e-01 -6.647533178329467773e-02 -5.016238987445831299e-02 8.019091561436653137e-03 2.516659907996654510e-02 -1.118620634078979492e+00 7.244524359703063965e-01 -6.789609789848327637e-01 -1.145552635192871094e+00 -6.029443144798278809e-01
1.744627952575683594e-02 5.214668810367584229e-02 -7.877786159515380859e-01 -7.389262914657592773e-01 -1.482126951217651367e+00 -2.872840762138366699e-01 2.666382193565368652e-01 2.472830861806869507e-01 4.793354868888854980e-01 7.859792709350585938e-01 6.950712800025939941e-01 7.847861647605895996e-01 8.712161779403686523e-01 -1.366518139839172363e+00 -5.729031190276145935e-02 4.431674480438232422e-01 6.969473510980606079e-02 1.738827973604202271e-01 1.394419372081756592e-01 -1.024167910218238831e-01 5.595016852021217346e-02 5.673741102218627930e-01 -3.470969200134277344e-01 -6.176700592041015625e-01 -8.496996760368347168e-01 -8.864761590957641602e-01 -1.807869911193847656e+00 -3.385947048664093018e-01
-2.264438942074775696e-02 1.868384629487991333e-01 -2.484411001205444336e-01 6.711437702178955078e-01 9.840536713600158691e-01 5.845215320587158203e-01 2.073189169168472290e-01 4.925210177898406982e-01 1.849299967288970947e-01 3.225577175617218018e-01 3.647069931030273438e-01 7.323541045188903809e-01 3.165748715400695801e-01 -4.301424622535705566e-01 -1.598688028752803802e-02 -4.904796555638313293e-02 5.878286361694335938e-01 9.396085143089294434e-01 2.858571410179138184e-01 5.673901438713073730e-01 3.325287103652954102e-01 3.483400344848632812e-01 4.351330101490020752e-01 -3.777251839637756348e-01 -2.090115547180175781e-01 -1.128326177597045898e+00 -1.514338970184326172e+00 -3.499487936496734619e-01
-7.093577180057764053e-03 3.309302628040313721e-01 8.507640361785888672e-01 7.736352086067199707e-01 5.549780130386352539e-01 1.023593619465827942e-01 3.146655261516571045e-01 2.196302562952041626e-01 5.809145569801330566e-01 3.969423472881317139e-01 3.374870717525482178e-01 2.944750189781188965e-01 -8.660850673913955688e-02 -2.508613467216491699e-01 4.097039699554443359e-01 2.498441785573959351e-01 7.079455852508544922e-01 5.271053314208984375e-01 -1.221958026289939880e-01 5.385754704475402832e-01 -5.408427864313125610e-02 -3.731785714626312256e-01 8.183217048645019531e-01 3.433527350425720215e-01 -1.617904782295227051e+00 -1.303075194358825684e+00 -1.835688471794128418e+00 2.851486504077911377e-01
2.594806812703609467e-02 -3.393536806106567383e-02 3.052011728286743164e-01 -7.349690049886703491e-02 -8.799690604209899902e-01 -3.128755390644073486e-01 4.368104413151741028e-02 4.155185222625732422e-01 5.255993008613586426e-01 2.568717300891876221e-01 2.571630477905273438e-01 -3.458848297595977783e-01 -2.014864608645439148e-02 1.270446479320526123e-01 3.995073735713958740e-01 5.726466178894042969e-01 3.582181036472320557e-01 2.087668888270854950e-02 3.860504031181335449e-01 1.925432831048965454e-01 4.789212644100189209e-01 7.405009865760803223e-01 2.954486012458801270e-01 -2.302965819835662842e-01 -6.567022800445556641e-01 -2.152114629745483398e+00 -1.452361702919006348e+00 -7.616191357374191284e-02
-7.229192182421684265e-03 2.866476308554410934e-03 -6.027537584304809570e-01 -8.824107050895690918e-01 -2.679401040077209473e-01 -5.252587795257568359e-01 -7.244783919304609299e-03 2.060266733169555664e-01 2.595188617706298828e-01 1.639754325151443481e-01 -1.053327098488807678e-01 -3.718774318695068359e-01 -5.018987059593200684e-01 3.841433525085449219e-01 6.701916456222534180e-01 4.862939119338989258e-01 4.236167073249816895e-01 4.296988248825073242e-01 6.389284729957580566e-01 -1.510006636381149292e-01 -4.410540219396352768e-03 4.421848356723785400e-01 -6.676452159881591797e-01 2.892935276031494141e-01 -1.042568206787109375e+00 -1.115439414978027344e+00 -3.306387662887573242e-01 -6.566459685564041138e-02
-3.257699310779571533e-01 1.918059960007667542e-02 -8.782818317413330078e-01 -2.030912339687347412e-01 -7.714673876762390137e-01 3.746938407421112061e-01 -2.308333059772849083e-03 4.173691570758819580e-01 -7.530908286571502686e-02 1.868448108434677124e-01 -4.758731126785278320e-01 -6.779105663299560547e-01 5.427224040031433105e-01 7.482827901840209961e-01 2.161430865526199341e-01 -1.708922386169433594e-01 1.885375678539276123e-01 -4.298899769783020020e-01 -5.721784234046936035e-01 -1.173125952482223511e-01 -5.169190838932991028e-02 6.732789278030395508e-01 -6.841324567794799805e-01 -7.392106056213378906e-01 -1.699731230735778809e+00 -1.506310939788818359e+00 8.163766264915466309e-01 3.078112602233886719e-01
-9.913202375173568726e-03 -3.219510316848754883e-01 -6.227025985717773438e-01 2.027647495269775391e-01 -6.303160190582275391e-01 3.333196043968200684e-02 -9.310178458690643311e-02 -3.748045265674591064e-01 -7.460454702377319336e-01 -8.101863861083984375e-01 -4.915260970592498779e-01 -2.342684864997863770e-01 -7.647180557250976562e-01 1.157955229282379150e-01 2.997919619083404541e-01 -1.256629377603530884e-01 -1.853508055210113525e-01 -2.398968338966369629e-01 -3.911460340023040771e-01 -1.607786864042282104e-01 -5.403507351875305176e-01 -1.153795719146728516e-01 -1.632840871810913086e+00 -2.000044822692871094e+00 -1.138933777809143066e+00 -1.399162769317626953e+00 2.949220240116119385e-01 -2.359443157911300659e-02
3.866113722324371338e-03 -1.461277250200510025e-02 -3.329178988933563232e-01 -2.672553062438964844e-01 -7.788788527250289917e-02 -8.148247599601745605e-01 -1.060399055480957031e+00 -1.640438675880432129e+00 -1.043580651283264160e+00 -6.649457812309265137e-01 -5.851607322692871094e-01 3.784473836421966553e-01 -1.942263990640640259e-01 -5.433221459388732910e-01 -4.907866567373275757e-02 2.952050268650054932e-01 2.405618280172348022e-01 2.564308047294616699e-01 4.531074166297912598e-01 -6.901552081108093262e-01 -7.452065944671630859e-01 -3.102827668190002441e-01 -9.009345173835754395e-01 -7.589479088783264160e-01 2.385818362236022949e-01 -2.930497527122497559e-01 -2.427341192960739136e-01 -2.660865485668182373e-01
1.262964680790901184e-02 2.310676500201225281e-02 2.074926532804965973e-02 -2.505818605422973633e-01 -1.651596724987030029e-01 -1.795521736145019531e+00 -3.713828086853027344e+00 -1.002480387687683105e+00 5.854710340499877930e-01 1.750946789979934692e-01 -1.403609514236450195e-01 -3.854697942733764648e-01 1.408751457929611206e-01 -1.615673005580902100e-01 -3.736559301614761353e-02 7.809319347143173218e-02 -2.188110053539276123e-01 1.494417488574981689e-01 -1.911404170095920563e-02 -1.667324155569076538e-01 3.252443075180053711e-01 -6.336500644683837891e-01 -2.978746592998504639e-02 3.869623541831970215e-01 4.600394666194915771e-01 1.198237687349319458e-01 -2.180810458958148956e-02 1.507765799760818481e-02
2.369920909404754639e-02 -1.508880965411663055e-02 -5.426750332117080688e-02 -4.567357897758483887e-01 -8.848536610603332520e-01 -1.217464685440063477e+00 -1.180553555488586426e+00 -7.797672152519226074e-01 -3.764457106590270996e-01 -2.110091038048267365e-02 -4.114167094230651855e-01 -4.234171807765960693e-01 -3.893909752368927002e-01 -9.213871508836746216e-02 -6.143050789833068848e-01 -1.092824637889862061e-01 -4.485742449760437012e-01 -2.324042469263076782e-01 -6.327398121356964111e-02 2.661058306694030762e-01 2.592789828777313232e-01 2.143006026744842529e-01 1.750298440456390381e-01 -2.662571072578430176e-01 -2.469865530729293823e-01 2.934656143188476562e-01 3.280929028987884521e-01 2.628401294350624084e-02
9.590018540620803833e-03 1.625478267669677734e-03 -1.013883352279663086e-01 -5.098868012428283691e-01 -8.284732699394226074e-01 -3.881370723247528076e-01 2.378452569246292114e-01 -6.008355319499969482e-02 2.407629787921905518e-01 1.734832674264907837e-01 -4.470855593681335449e-01 2.888479456305503845e-02 -1.890873908996582031e-01 -2.224660664796829224e-01 -2.935096807777881622e-02 -4.733719676733016968e-02 9.652698040008544922e-02 2.938999421894550323e-02 1.841877102851867676e-01 -1.951380372047424316e-01 -8.521008491516113281e-02 -1.392074767500162125e-02 -8.753065019845962524e-02 1.587992012500762939e-01 -1.053124666213989258e-02 8.410890102386474609e-01 3.189604878425598145e-01 1.231262832880020142e-02
-1.203120686113834381e-02 2.218197286128997803e-02 -1.632119342684745789e-02 -2.858146280050277710e-02 -6.520047187805175781e-01 6.882000714540481567e-03 8.094377517700195312e-01 -3.526039421558380127e-01 -2.347674220800399780e-01 2.243388891220092773e-01 6.323790550231933594e-02 3.277410864830017090e-01 -5.656511709094047546e-02 -2.163266092538833618e-01 3.805701807141304016e-02 -1.154095605015754700e-01 1.054639369249343872e-01 -1.608012765645980835e-01 -1.900129616260528564e-01 1.680347770452499390e-01 1.992296874523162842e-01 -2.212540656328201294e-01 1.233682334423065186e-01 8.765907585620880127e-02 -6.266641616821289062e-01 4.640742838382720947e-01 2.050886675715446472e-02 2.974922582507133484e-02
-2.335093915462493896e-02 -1.733022555708885193e-02 3.507858887314796448e-02 -5.367491394281387329e-03 -5.769094228744506836e-01 -1.320715427398681641e+00 -1.469501614570617676e+00 -1.804290413856506348e+00 -1.151169419288635254e+00 -1.108295798301696777e+00 -1.006690382957458496e+00 -9.150882363319396973e-01 -1.056951403617858887e+00 -6.233787536621093750e-01 -1.049269914627075195e+00 -4.862379729747772217e-01 -1.289244651794433594e+00 -8.693868517875671387e-01 -9.375059604644775391e-01 -1.537961959838867188e+00 -1.050566554069519043e+00 -1.603379726409912109e+00 -6.809940338134765625e-01 -1.853820979595184326e-01 -4.387705326080322266e-01 2.548435144126415253e-02 1.667224057018756866e-02 3.156671300530433655e-02
-3.098028525710105896e-02 -1.366919837892055511e-02 -3.341250121593475342e-02 2.065896242856979370e-02 -2.270731329917907715e-01 -8.740113973617553711e-01 -1.576728701591491699e+00 -1.707173228263854980e+00 -1.839743018150329590e+00 -1.932844042778015137e+00 -2.184083938598632812e+00 -2.673796653747558594e+00 -2.314057350158691406e+00 -2.160836696624755859e+00 -3.116923093795776367e+00 -2.665621757507324219e+00 -1.797645330429077148e+00 -2.424384832382202148e+00 -2.202044010162353516e+00 -2.156895160675048828e+00 -1.696666479110717773e+00 -1.777765274047851562e+00 -1.267388224601745605e+00 -4.627490043640136719e-01 2.376394122838973999e-01 3.061174973845481873e-02 -1.694403402507305145e-02 -1.000240445137023926e-05
-2.458876371383666992e-02 1.153156533837318420e-02 8.796218782663345337e-03 2.409734949469566345e-02 3.415669873356819153e-02 -2.765700221061706543e-02 -3.547827005386352539e-01 -3.733667731285095215e-01 -7.029798626899719238e-01 -7.298868894577026367e-01 -6.986796855926513672e-01 -8.625342845916748047e-01 -5.859938263893127441e-01 -7.354833483695983887e-01 -1.398011922836303711e+00 -5.361369848251342773e-01 -2.569361627101898193e-01 -3.510506153106689453e-01 -4.557741284370422363e-01 -2.883135974407196045e-01 -3.832059800624847412e-01 -3.193757236003875732e-01 -3.151203095912933350e-01 -2.617622353136539459e-02 -3.055058419704437256e-02 -3.172200545668601990e-02 -2.264466136693954468e-02 -1.539653167128562927e-02
