-2.972162701189517975e-02 2.940094098448753357e-02 -6.523910909891128540e-03 -2.128504216670989990e-02 -2.332913503050804138e-02 -1.290888898074626923e-02 2.568595111370086670e-03 -2.148911915719509125e-02 2.061378583312034607e-02 -3.364201635122299194e-02 -4.893938079476356506e-03 -3.667067736387252808e-03 2.041094005107879639e-02 3.267952427268028259e-02 -1.725301705300807953e-02 -1.524257287383079529e-02 3.449604287743568420e-02 -2.528266981244087219e-02 1.952219009399414062e-02 2.852046862244606018e-02 1.327689737081527710e-02 1.631641015410423279e-02 -2.338308840990066528e-03 1.517239212989807129e-02 3.183162584900856018e-02 7.114298641681671143e-03 1.655941084027290344e-02 2.602454647421836853e-02
2.121886610984802246e-02 -1.005372405052185059e-02 -8.558614179491996765e-03 2.104762569069862366e-02 1.164104789495468140e-03 -8.249858394265174866e-03 -2.875006385147571564e-02 6.071254611015319824e-03 4.924882203340530396e-03 -6.203098222613334656e-03 4.274379462003707886e-03 3.530068323016166687e-02 -2.767426334321498871e-02 2.579768374562263489e-02 -2.675243467092514038e-02 -3.269035369157791138e-02 -2.161663025617599487e-03 -3.456306457519531250e-02 -2.533032372593879700e-02 -1.166132092475891113e-02 1.425071060657501221e-02 2.016294375061988831e-02 2.357788756489753723e-02 -1.144278794527053833e-03 -1.609752513468265533e-02 1.794951781630516052e-02 -3.113452158868312836e-02 9.590223431587219238e-03
-2.426238358020782471e-02 1.854541152715682983e-02 4.260160028934478760e-03 8.862696588039398193e-03 9.044703096151351929e-03 3.088843077421188354e-03 -2.608001232147216797e-04 3.162878379225730896e-02 1.722236350178718567e-02 1.771656423807144165e-02 -2.699455805122852325e-02 -2.249995805323123932e-02 -4.742971621453762054e-03 -1.517884619534015656e-02 -2.172276750206947327e-02 -5.362526979297399521e-03 -4.118162393569946289e-02 4.802230745553970337e-03 -2.154326438903808594e-02 3.945759311318397522e-02 1.518461853265762329e-03 2.544261142611503601e-02 -8.450537919998168945e-03 -2.410423010587692261e-02 -4.214633256196975708e-03 2.200178429484367371e-02 -1.545413583517074585e-02 2.302213385701179504e-02
-2.497107349336147308e-02 8.733198046684265137e-05 3.270572796463966370e-02 2.379067242145538330e-03 -7.671386003494262695e-03 -4.618630930781364441e-02 -5.192566290497779846e-02 -5.477936938405036926e-02 -2.663035877048969269e-02 -5.249542370438575745e-02 -5.392375588417053223e-02 -8.391091972589492798e-02 -9.358359873294830322e-02 -1.005504801869392395e-01 -1.457169800996780396e-01 -1.871526390314102173e-01 -1.328611224889755249e-01 -1.393343508243560791e-01 -8.697409927845001221e-02 -6.007131934165954590e-02 -6.434317678213119507e-02 -2.398531325161457062e-02 4.066895693540573120e-02 6.749899685382843018e-02 3.377446206286549568e-03 6.610927172005176544e-03 -2.475640736520290375e-02 1.221335306763648987e-02
5.134470760822296143e-03 -2.697966992855072021e-02 -1.402090862393379211e-02 -1.083516888320446014e-02 -8.194214664399623871e-03 -5.764647573232650757e-02 -8.097048103809356689e-02 -9.861879050731658936e-02 -9.257731586694717407e-02 -6.755970418453216553e-02 -1.142105013132095337e-01 -8.576726168394088745e-02 -9.782464802265167236e-02 -6.187553331255912781e-02 -4.413026943802833557e-02 -3.971744328737258911e-02 -2.604519575834274292e-02 -1.496999338269233704e-02 -8.412378840148448944e-03 -4.896728694438934326e-02 6.681541446596384048e-03 6.535916589200496674e-03 1.719837263226509094e-02 5.133970081806182861e-02 1.016463488340377808e-01 1.087435260415077209e-01 5.462981015443801880e-02 4.310453683137893677e-02
-1.858812570571899414e-02 3.203320875763893127e-02 2.132019773125648499e-02 -3.868996724486351013e-02 -4.783256724476814270e-02 -1.108281984925270081e-01 -1.519789248704910278e-01 -1.481100022792816162e-01 -1.026854217052459717e-01 -1.114910766482353210e-01 -5.521642789244651794e-02 -4.229605942964553833e-02 1.023984979838132858e-02 2.533431351184844971e-02 1.703846082091331482e-02 2.752044610679149628e-02 3.197574988007545471e-02 6.582205742597579956e-02 6.158997863531112671e-02 2.250468730926513672e-02 5.647258460521697998e-02 3.731733188033103943e-02 6.626328080892562866e-02 1.294926404953002930e-01 1.634741425514221191e-01 2.198204398155212402e-01 1.094565838575363159e-01 4.098755121231079102e-02
2.367162704467773438e-02 3.370977565646171570e-02 1.593429408967494965e-02 -6.571950018405914307e-02 -8.877808600664138794e-02 -1.800842732191085815e-01 -1.893064528703689575e-01 -1.286793947219848633e-01 -9.685820341110229492e-02 -8.627998083829879761e-02 -8.098132908344268799e-02 -1.536629162728786469e-02 5.106654018163681030e-03 -5.996039602905511856e-03 -4.314172267913818359e-02 4.037589300423860550e-03 -2.298391237854957581e-02 2.128980122506618500e-03 -2.055214717984199524e-02 5.163229256868362427e-02 -1.013041846454143524e-02 2.507595717906951904e-02 4.092472419142723083e-02 1.392646282911300659e-01 1.869172751903533936e-01 2.612109184265136719e-01 1.683568656444549561e-01 2.930309623479843140e-02
2.754932269454002380e-02 -3.405008465051651001e-02 -3.504147753119468689e-02 -7.648287713527679443e-02 -1.428230404853820801e-01 -1.128709241747856140e-01 -1.651961654424667358e-01 -7.235005497932434082e-02 -4.628811031579971313e-02 -6.730378419160842896e-02 -2.902224892750382423e-03 -5.915062874555587769e-02 -6.750737130641937256e-02 -4.521097615361213684e-02 -5.054931715130805969e-02 -1.024995222687721252e-01 -8.347249776124954224e-02 -6.861590594053268433e-02 -3.145818039774894714e-02 -1.070001255720853806e-02 -7.406238582916557789e-04 3.416380286216735840e-02 8.748610317707061768e-02 1.460557579994201660e-01 2.386844605207443237e-01 2.457495629787445068e-01 1.044976338744163513e-01 3.607410937547683716e-02
2.520532533526420593e-02 -1.973527669906616211e-02 -1.300162915140390396e-02 -5.068658292293548584e-02 -9.706255793571472168e-02 -1.055625453591346741e-01 -1.618939824402332306e-02 -2.190141705796122551e-03 -3.211724571883678436e-03 7.769458740949630737e-02 -1.558055984787642956e-03 3.398712724447250366e-03 -1.199609600007534027e-02 -5.288241058588027954e-02 -8.748374879360198975e-02 -1.424738317728042603e-01 -1.025352478027343750e-01 -7.066577672958374023e-02 -1.721589826047420502e-02 -1.212881878018379211e-02 -2.398221753537654877e-02 7.436447776854038239e-03 3.046891093254089355e-02 1.498602032661437988e-01 3.416304886341094971e-01 2.650643587112426758e-01 9.171188622713088989e-02 5.032183602452278137e-02
-2.840831875801086426e-04 1.730932295322418213e-02 -2.439944818615913391e-02 -4.813430458307266235e-02 -7.450032234191894531e-02 -7.993089407682418823e-02 -1.888972707092761993e-02 4.664939828217029572e-03 4.065881296992301941e-02 9.037861973047256470e-02 1.084504649043083191e-01 1.406776756048202515e-01 8.840341120958328247e-02 1.211781520396471024e-02 -1.082399711012840271e-01 -2.097164243459701538e-01 -1.462343782186508179e-01 -6.117554754018783569e-02 -3.404380381107330322e-02 4.317153617739677429e-02 3.468704596161842346e-02 1.665038801729679108e-02 4.787583649158477783e-02 1.873983591794967651e-01 3.921450972557067871e-01 2.719128131866455078e-01 1.214126199483871460e-01 2.804208174347877502e-02
3.240320831537246704e-03 -2.885022014379501343e-02 -2.253058366477489471e-02 -2.079043351113796234e-02 -3.228329494595527649e-02 -6.512477248907089233e-02 6.446758657693862915e-02 1.325629204511642456e-01 1.529149562120437622e-01 1.759040206670761108e-01 1.947942972183227539e-01 2.259521037340164185e-01 1.894466429948806763e-01 8.131911605596542358e-02 -2.059059217572212219e-02 -1.206404790282249451e-01 -1.029467284679412842e-01 -5.737013742327690125e-02 -3.552821278572082520e-02 9.904095903038978577e-03 1.481232419610023499e-02 4.944949597120285034e-02 1.382210254669189453e-01 2.421229928731918335e-01 3.317446112632751465e-01 1.902480423450469971e-01 8.585939556360244751e-02 5.593773350119590759e-02
-2.210822701454162598e-02 1.486841216683387756e-02 -4.401479288935661316e-02 -7.139975577592849731e-02 -6.637051701545715332e-02 7.760014850646257401e-04 6.667307019233703613e-02 1.597962826490402222e-01 1.734753549098968506e-01 2.653858661651611328e-01 1.966167241334915161e-01 1.887586861848831177e-01 1.729929447174072266e-01 1.008317768573760986e-01 3.190266713500022888e-02 -4.158393293619155884e-02 -6.497918069362640381e-02 -8.656210452318191528e-02 -6.628246605396270752e-02 -3.713747113943099976e-02 4.349955916404724121e-02 1.341459453105926514e-01 1.904889643192291260e-01 2.569529116153717041e-01 2.532360255718231201e-01 1.424341052770614624e-01 3.978208824992179871e-02 4.287002980709075928e-02
-1.568285189568996429e-02 2.825957909226417542e-02 -5.137492343783378601e-02 -2.000974491238594055e-02 8.548143319785594940e-03 5.192170292139053345e-02 1.428203880786895752e-01 1.823790073394775391e-01 1.546679139137268066e-01 1.677501946687698364e-01 9.524236619472503662e-02 7.539834827184677124e-02 1.233727186918258667e-01 6.366147100925445557e-02 6.104431580752134323e-03 -8.081003092229366302e-03 -6.363347172737121582e-02 -6.741894036531448364e-02 -4.642620682716369629e-02 -4.629221186041831970e-02 5.399905517697334290e-02 1.516728848218917847e-01 1.317370235919952393e-01 1.987071484327316284e-01 2.340214103460311890e-01 1.142147183418273926e-01 6.075744703412055969e-02 4.856462776660919189e-02
1.367908716201782227e-02 8.391369134187698364e-03 3.549505397677421570e-02 -6.103188917040824890e-02 -2.907483465969562531e-02 2.655993029475212097e-02 9.303867071866989136e-02 1.223213002085685730e-01 7.331493496894836426e-02 1.037784591317176819e-01 4.747625067830085754e-02 5.424101278185844421e-02 1.219738125801086426e-01 1.203546822071075439e-01 3.035103902220726013e-02 8.452074974775314331e-02 5.353657994419336319e-03 -3.404692560434341431e-02 -8.994393050670623779e-02 -7.819340378046035767e-02 1.653726585209369659e-02 7.573159039020538330e-02 8.063229173421859741e-02 7.932341843843460083e-02 9.065309166908264160e-02 7.128013670444488525e-02 8.339355885982513428e-02 -5.187243688851594925e-03
-4.266627132892608643e-03 9.215697646141052246e-04 -5.888231098651885986e-03 1.040283008478581905e-03 -3.786888718605041504e-02 1.489754486829042435e-02 -7.627268321812152863e-03 7.192723453044891357e-02 2.719333209097385406e-02 -1.812339946627616882e-02 1.725551858544349670e-02 6.928838044404983521e-02 8.722250163555145264e-02 1.182833462953567505e-01 1.270813196897506714e-01 1.147530376911163330e-01 7.719291746616363525e-02 -4.710336029529571533e-02 -9.710799157619476318e-02 -8.509015291929244995e-02 -1.045104265213012695e-01 -4.939308762550354004e-02 3.501614555716514587e-02 1.044677104800939560e-02 5.612703785300254822e-02 1.064241379499435425e-01 5.607291311025619507e-02 1.751667261123657227e-02
-1.685175858438014984e-02 1.243076566606760025e-02 3.885481855832040310e-04 -2.243889123201370239e-02 -9.035623073577880859e-02 -1.223329529166221619e-01 -5.534145236015319824e-02 1.544477324932813644e-02 4.045233502984046936e-02 1.789316721260547638e-02 -8.780162781476974487e-03 4.267686232924461365e-02 1.176279634237289429e-01 1.446681618690490723e-01 1.377374380826950073e-01 1.200914084911346436e-01 4.820976033806800842e-02 -5.681497976183891296e-02 -1.250869184732437134e-01 -1.598262786865234375e-01 -1.029048562049865723e-01 -1.120821237564086914e-01 -8.071236312389373779e-02 3.632613457739353180e-03 5.027660727500915527e-02 4.576728492975234985e-02 -3.808582201600074768e-02 -9.950948879122734070e-03
-2.701444365084171295e-02 1.824809983372688293e-02 4.501552321016788483e-03 -8.658015727996826172e-02 -1.048813387751579285e-01 -1.265177428722381592e-01 -6.250474601984024048e-02 2.553150616586208344e-02 1.025218293070793152e-01 4.454423487186431885e-02 1.219952926039695740e-01 7.787032425403594971e-02 1.681179255247116089e-01 1.189534887671470642e-01 1.053150817751884460e-01 6.272129714488983154e-02 2.467231638729572296e-02 -7.807220518589019775e-02 -1.499579846858978271e-01 -1.623995155096054077e-01 -1.077368110418319702e-01 -5.304235219955444336e-02 -1.023675054311752319e-01 -6.670400500297546387e-02 9.780211374163627625e-03 7.825122773647308350e-02 2.706673368811607361e-02 1.917466893792152405e-02
3.060484305024147034e-02 -7.690660189837217331e-03 -6.234253756701946259e-03 -8.141530305147171021e-02 -1.806496828794479370e-01 -1.688845902681350708e-01 -6.982270628213882446e-02 4.211812838912010193e-02 1.489396393299102783e-01 2.678011655807495117e-01 2.549808919429779053e-01 2.537225186824798584e-01 2.557148039340972900e-01 1.519231647253036499e-01 8.438610285520553589e-02 -1.845054514706134796e-02 -3.607032820582389832e-02 -1.198442205786705017e-01 -1.616816818714141846e-01 -1.309695094823837280e-01 -8.829597383737564087e-02 -8.394575119018554688e-02 -2.581229992210865021e-02 -3.296432271599769592e-02 6.637887656688690186e-02 1.031213849782943726e-01 4.514530673623085022e-02 2.203907445073127747e-02
2.174263074994087219e-02 4.117902368307113647e-03 -3.449243679642677307e-02 -1.365372538566589355e-01 -2.140004932880401611e-01 -1.865497231483459473e-01 -6.175721064209938049e-02 8.342723548412322998e-02 1.432355791330337524e-01 2.859558463096618652e-01 2.883281111717224121e-01 2.941262125968933105e-01 3.046562075614929199e-01 1.932794153690338135e-01 2.401962131261825562e-02 -9.889673441648483276e-02 -1.070186197757720947e-01 -1.313800066709518433e-01 -1.614030003547668457e-01 -8.433798700571060181e-02 -6.666742265224456787e-02 -8.571419119834899902e-02 -2.585380524396896362e-02 -3.572326898574829102e-02 1.086049079895019531e-01 8.003653585910797119e-02 -1.898334547877311707e-02 1.598596572875976562e-03
2.480480819940567017e-03 1.270029693841934204e-02 -2.675815718248486519e-03 -1.712962538003921509e-01 -2.777071893215179443e-01 -1.735861748456954956e-01 -5.995889380574226379e-02 2.744320780038833618e-02 1.156994998455047607e-01 1.882710456848144531e-01 2.313275486230850220e-01 2.255174517631530762e-01 2.367957532405853271e-01 6.961581110954284668e-02 -5.221933871507644653e-02 -1.251986771821975708e-01 -1.232905983924865723e-01 -1.559082269668579102e-01 -9.741529077291488647e-02 -6.476834416389465332e-02 -5.499880015850067139e-02 -8.701578527688980103e-02 -2.085948549211025238e-02 4.853340797126293182e-03 9.690552949905395508e-02 7.758227735757827759e-02 -1.856472715735435486e-02 2.588310092687606812e-02
-5.212184041738510132e-03 -3.660947084426879883e-03 -4.147719591856002808e-02 -1.369344890117645264e-01 -2.023569643497467041e-01 -1.401343792676925659e-01 -5.077152326703071594e-02 -4.525854717940092087e-03 3.576920134946703911e-03 -4.412585694808512926e-04 2.980106696486473083e-02 3.414744883775711060e-02 5.244008451700210571e-02 -1.052247826009988785e-03 -8.107189834117889404e-02 -1.254946887493133545e-01 -1.516116410493850708e-01 -8.852511644363403320e-02 -8.790694922208786011e-02 -4.579787701368331909e-02 -6.217957660555839539e-02 -1.572046615183353424e-02 -3.183160722255706787e-02 -4.343618825078010559e-02 8.152657002210617065e-02 5.795361101627349854e-02 2.185496129095554352e-02 2.662830054759979248e-02
-1.479068957269191742e-02 -3.007763810455799103e-02 -2.219954691827297211e-02 -1.216809004545211792e-01 -2.284508496522903442e-01 -1.621761471033096313e-01 -9.212835133075714111e-02 -7.176730781793594360e-02 -8.497878164052963257e-02 -1.738744042813777924e-02 9.287100983783602715e-04 -3.328183665871620178e-02 -5.168563220649957657e-03 -1.031725783832371235e-03 -2.624070271849632263e-02 -3.085116669535636902e-02 -7.770059257745742798e-02 -4.718885943293571472e-02 -7.163068652153015137e-02 -1.343182194977998734e-02 1.915758289396762848e-02 3.044692799448966980e-02 2.805062569677829742e-02 7.437468040734529495e-03 9.558358788490295410e-02 4.543907195329666138e-02 -4.385721683502197266e-02 -2.204537950456142426e-02
-1.050680875778198242e-03 -3.245940431952476501e-02 -3.731546178460121155e-02 -7.364062126725912094e-03 -7.868912070989608765e-02 -9.370642155408859253e-02 -7.081018388271331787e-02 -7.881043851375579834e-02 -2.375957369804382324e-02 -5.535533651709556580e-02 -3.128077834844589233e-02 -1.316179428249597549e-02 2.309058792889118195e-02 4.982064664363861084e-02 4.978222027420997620e-02 2.053032815456390381e-02 -2.611739002168178558e-02 2.460940554738044739e-02 -1.587759144604206085e-02 -5.011183023452758789e-02 1.606541685760021210e-02 5.051864683628082275e-02 5.923221260309219360e-02 5.478892475366592407e-02 6.489601731300354004e-02 8.187908679246902466e-02 -1.701676473021507263e-02 9.230818599462509155e-03
1.374264433979988098e-02 -1.750524714589118958e-02 -2.790772169828414917e-02 -9.208672493696212769e-02 -1.498007625341415405e-01 -1.424353867769241333e-01 -1.507394462823867798e-01 -1.755109578371047974e-01 -9.407370537519454956e-02 -4.857074096798896790e-02 -2.665222249925136566e-02 7.081008050590753555e-03 9.797231853008270264e-02 8.711086958646774292e-02 9.496679902076721191e-02 7.445097714662551880e-02 7.143688201904296875e-02 3.971727192401885986e-02 1.611760258674621582e-02 5.318925902247428894e-02 7.059854269027709961e-02 5.401005223393440247e-02 2.318975515663623810e-02 3.634610772132873535e-02 6.661798804998397827e-02 1.353712007403373718e-02 3.493597730994224548e-02 -3.191965818405151367e-02
-1.708818040788173676e-02 7.854208350181579590e-03 -1.943779923021793365e-02 -9.142152965068817139e-02 -1.544835120439529419e-01 -1.705418527126312256e-01 -1.667288541793823242e-01 -1.551519483327865601e-01 -9.508728235960006714e-02 -8.707170188426971436e-02 -1.047581210732460022e-01 -4.286327958106994629e-02 -6.480101495981216431e-02 -6.949187070131301880e-02 1.628350280225276947e-02 -8.074296638369560242e-03 3.213474527001380920e-03 4.060352593660354614e-02 2.243890427052974701e-02 7.238374650478363037e-02 6.592578440904617310e-02 3.454952035099267960e-03 2.915489859879016876e-02 2.577222697436809540e-02 5.395716801285743713e-02 -9.303182363510131836e-03 2.799528464674949646e-02 1.322863250970840454e-02
-3.444425761699676514e-03 -1.241236925125122070e-02 -1.150854676961898804e-02 -2.727217413485050201e-02 -4.319633543491363525e-02 -9.273635596036911011e-02 -1.357409656047821045e-01 -1.315596401691436768e-01 -1.599698960781097412e-01 -2.092918902635574341e-01 -1.572644412517547607e-01 -2.117273211479187012e-01 -1.838285028934478760e-01 -1.605888456106185913e-01 -9.000987559556961060e-02 -5.768459662795066833e-02 -3.786258399486541748e-02 -2.848250605165958405e-02 -7.298079784959554672e-03 -1.709301024675369263e-02 1.185961067676544189e-02 2.096109278500080109e-02 6.535469088703393936e-03 7.333545945584774017e-03 -2.097261510789394379e-02 -9.826967492699623108e-03 2.058557793498039246e-02 -3.649879246950149536e-03
3.231812641024589539e-02 -1.640593260526657104e-02 1.221653446555137634e-02 3.104211017489433289e-02 -2.780897356569766998e-02 -4.135139286518096924e-02 -3.149496763944625854e-02 -8.408504538238048553e-03 1.852001622319221497e-02 -1.393502671271562576e-02 -6.870543956756591797e-02 -3.973638266324996948e-02 -9.545230306684970856e-03 -4.308683052659034729e-02 -5.638281255960464478e-02 -3.883935511112213135e-02 -9.255627542734146118e-02 -9.148457646369934082e-02 -2.211632393300533295e-02 -2.464469708502292633e-02 -5.012249201536178589e-02 5.934603395871818066e-04 -4.801576025784015656e-03 -1.469054166227579117e-02 -3.538447618484497070e-02 -2.893788553774356842e-02 2.584451436996459961e-02 2.902455627918243408e-03
3.115977719426155090e-02 1.825896278023719788e-02 -1.798849552869796753e-02 -1.087555289268493652e-02 2.664594724774360657e-02 3.119576349854469299e-02 -2.673436701297760010e-02 -3.096765466034412384e-02 -2.187414839863777161e-02 3.459846600890159607e-02 2.856845781207084656e-02 1.931288838386535645e-02 -9.390572085976600647e-03 2.887931093573570251e-02 -2.946757897734642029e-02 -4.534270614385604858e-03 1.946785300970077515e-02 -2.056106552481651306e-02 6.207402795553207397e-03 -3.201518580317497253e-02 4.971113055944442749e-03 -8.241496980190277100e-04 -3.163167089223861694e-02 -3.140967339277267456e-03 1.363398134708404541e-02 -2.925714477896690369e-02 -3.127766400575637817e-02 -1.926795206964015961e-02
