-3.567593693733215332e-01 3.243516981601715088e-01 -2.435141086578369141e+00 -9.682538509368896484e-01 -1.223618865013122559e+00 -1.070785447955131531e-01 -5.518753528594970703e-01 -1.702416896820068359e+00 -7.226790785789489746e-01 -1.263153076171875000e+00 -1.624453544616699219e+00 -2.271261692047119141e+00 -2.253536462783813477e+00 1.265142917633056641e+00 2.587332010269165039e+00 4.788934439420700073e-02 -2.533271908760070801e-01 -1.167269703000783920e-02 -4.904556572437286377e-01 -2.093790292739868164e+00 -2.113344669342041016e+00 7.002831995487213135e-02 2.816146910190582275e-01 -1.300979256629943848e-01 3.575281798839569092e-01 5.170198678970336914e-01 -1.018439650535583496e+00 -2.415344864130020142e-01
-1.705636620521545410e+00 4.103597700595855713e-01 -4.348554313182830811e-01 -7.183102369308471680e-01 3.895746469497680664e-01 9.364063143730163574e-01 1.351232409477233887e+00 -2.192506492137908936e-01 -3.704608678817749023e-01 -4.381131529808044434e-01 -1.759432554244995117e-01 1.864147931337356567e-01 -8.363840579986572266e-01 -5.612280964851379395e-01 1.883388310670852661e-01 -1.488125603646039963e-02 1.735707558691501617e-02 9.864774346351623535e-02 3.341069519519805908e-01 -2.542380690574645996e-01 -1.221256256103515625e+00 7.343103289604187012e-01 1.827740788459777832e+00 1.039904832839965820e+00 4.060932993888854980e-01 1.545145153999328613e+00 4.349137246608734131e-01 -2.113263607025146484e+00
-5.005208253860473633e-01 -1.027071550488471985e-01 2.611110508441925049e-01 -8.163756728172302246e-01 -5.364346504211425781e-01 9.673464298248291016e-01 4.417130351066589355e-01 2.757872641086578369e-01 -9.721927642822265625e-01 -5.729989409446716309e-01 -2.835372984409332275e-01 -3.490483388304710388e-02 -2.887895107269287109e-01 -2.558554708957672119e-01 -1.023220896720886230e+00 -1.755108535289764404e-01 2.903854846954345703e-01 1.308685392141342163e-01 -2.336440682411193848e-01 1.360873579978942871e-01 -6.040164828300476074e-01 -1.266456127166748047e+00 -3.098307549953460693e-01 -8.172836899757385254e-02 -2.757008671760559082e-01 1.489971876144409180e+00 -2.736965715885162354e-01 -5.490654706954956055e-01
6.857748627662658691e-01 2.923152744770050049e-01 -1.695805788040161133e-01 -2.785476744174957275e-01 3.382935822010040283e-01 2.902114093303680420e-01 6.947198510169982910e-01 -7.555931061506271362e-02 -5.649856925010681152e-01 -4.009411633014678955e-01 -3.198579847812652588e-01 1.107368320226669312e-01 5.180275440216064453e-01 -1.671521216630935669e-01 -8.405998945236206055e-01 -4.490507841110229492e-01 1.184593960642814636e-01 -1.741827838122844696e-02 -1.951514780521392822e-01 -1.744135022163391113e-01 -1.070121154189109802e-01 -2.599960267543792725e-01 -9.336478263139724731e-02 -2.798067629337310791e-01 -2.758040428161621094e-01 1.800096869468688965e+00 -2.065428718924522400e-02 4.753752727992832661e-04
7.581046223640441895e-01 2.518208622932434082e-01 -1.755574345588684082e-01 3.899437189102172852e-01 -2.244313657283782959e-01 4.865514934062957764e-01 8.805924654006958008e-02 -4.252507090568542480e-01 -4.030036926269531250e-01 8.395324647426605225e-02 -2.262780368328094482e-01 -1.259578741155564785e-03 -7.047917693853378296e-02 5.120488405227661133e-01 -9.884122014045715332e-01 -3.433300256729125977e-01 1.084696780890226364e-02 -4.516238272190093994e-01 1.035600230097770691e-01 -2.655815519392490387e-02 -1.522511690855026245e-01 -1.610733568668365479e-01 -7.335562258958816528e-02 3.595505058765411377e-01 -2.988466918468475342e-01 8.828110098838806152e-01 5.957381725311279297e-01 -5.823197364807128906e-01
-6.628359109163284302e-02 5.701543763279914856e-02 -1.520091146230697632e-01 2.759758830070495605e-01 -4.058243334293365479e-01 4.557807147502899170e-01 2.189447134733200073e-01 -6.527938693761825562e-02 1.407010555267333984e-01 -2.838634550571441650e-01 -3.710473701357841492e-02 -1.426711380481719971e-01 4.146909117698669434e-01 2.526091933250427246e-01 -8.507854938507080078e-01 7.329736649990081787e-02 -3.554281592369079590e-01 -8.888657204806804657e-03 -5.165948867797851562e-01 -1.845784187316894531e-01 -1.527082026004791260e-01 -8.606253564357757568e-02 -1.474627852439880371e-01 3.484319746494293213e-01 -2.331470325589179993e-02 2.174846976995468140e-01 -1.439508982002735138e-02 6.769370436668395996e-01
-1.158315181732177734e+00 -2.023688554763793945e-01 -7.956035137176513672e-01 1.495969742536544800e-01 5.975949391722679138e-02 1.497227349318563938e-03 -2.619872987270355225e-01 -2.712760567665100098e-01 2.380961328744888306e-01 1.140701994299888611e-01 -8.422006666660308838e-02 -7.023520767688751221e-02 3.708146214485168457e-01 1.263919919729232788e-01 -5.877053141593933105e-01 -1.021304354071617126e-01 1.197896599769592285e-01 -3.859355747699737549e-01 -3.054623305797576904e-01 -4.561254382133483887e-01 1.315893381834030151e-01 -7.113654911518096924e-02 2.028399556875228882e-01 1.131528392434120178e-01 5.412895604968070984e-02 3.145083785057067871e-02 7.155343890190124512e-01 3.447984158992767334e-01
-4.256498515605926514e-01 -1.340450346469879150e-01 7.905089855194091797e-02 -1.952987015247344971e-01 -2.136181741952896118e-01 1.157632842659950256e-01 -2.037996053695678711e-01 3.280437886714935303e-01 5.134795308113098145e-01 3.480654060840606689e-01 3.264659941196441650e-01 3.466913998126983643e-01 4.487518966197967529e-01 9.910596534609794617e-03 -3.996751010417938232e-01 -4.903575778007507324e-01 -2.438538074493408203e-01 -2.003755122423171997e-01 -8.320088684558868408e-02 -3.758101463317871094e-01 7.654093950986862183e-02 -5.246019363403320312e-01 -2.212124019861221313e-01 5.976312234997749329e-02 -7.538587599992752075e-02 4.240150749683380127e-01 -2.424270957708358765e-01 -3.480236744508147240e-03
1.524397879838943481e-01 -4.147345721721649170e-01 -1.020374894142150879e-01 1.969748437404632568e-01 -1.235321909189224243e-01 1.069375574588775635e-01 1.566825434565544128e-02 -4.027972221374511719e-01 1.711756885051727295e-01 5.147094130516052246e-01 2.157638669013977051e-01 3.564457893371582031e-01 5.465913414955139160e-01 -5.851262062788009644e-02 -3.718543648719787598e-01 -3.807841241359710693e-01 -1.162373498082160950e-01 -1.599612683057785034e-01 -1.794196218252182007e-01 1.071530655026435852e-01 -4.112939536571502686e-01 -3.913291990756988525e-01 1.710242480039596558e-01 3.490828722715377808e-02 1.969227194786071777e-01 -4.111346974968910217e-02 1.510365903377532959e-01 4.846893250942230225e-01
4.934402704238891602e-01 -4.423898179084062576e-03 -2.549594342708587646e-01 -4.205916542559862137e-03 5.104053998365998268e-04 5.828561186790466309e-01 1.925796456634998322e-02 -1.299939155578613281e-01 5.516720414161682129e-01 1.498351395130157471e-01 5.495206713676452637e-01 5.317340493202209473e-01 1.246320083737373352e-02 -3.198446929454803467e-01 -1.643191277980804443e-01 -5.341375470161437988e-01 -2.407421469688415527e-01 -4.939114153385162354e-01 -3.316840827465057373e-01 1.614452302455902100e-01 -7.355932146310806274e-02 -9.645900130271911621e-02 -3.963784277439117432e-01 8.286763727664947510e-02 2.272378355264663696e-01 2.176405042409896851e-01 2.873162627220153809e-01 4.977641627192497253e-02
5.612017512321472168e-01 2.694766223430633545e-01 9.195204079151153564e-02 2.312142997980117798e-01 2.757853567600250244e-01 8.456990867853164673e-02 5.920774936676025391e-01 4.021567106246948242e-01 9.599935263395309448e-02 5.022338032722473145e-01 6.307708621025085449e-01 2.055767923593521118e-01 1.428031027317047119e-01 -2.539873123168945312e-01 -2.528961598873138428e-01 -6.199318766593933105e-01 1.077834703028202057e-02 -1.212813109159469604e-01 -1.121565923094749451e-01 -1.768496930599212646e-01 -4.089949131011962891e-01 -1.748782098293304443e-01 -2.232398390769958496e-01 -1.615005880594253540e-01 2.719532847404479980e-01 -9.273368120193481445e-02 2.818623781204223633e-01 6.687389314174652100e-02
6.368819475173950195e-01 3.593101203441619873e-01 2.128948122262954712e-01 -1.646370738744735718e-01 3.175549805164337158e-01 5.996165871620178223e-01 5.645176768302917480e-01 2.735436856746673584e-01 2.400230914354324341e-01 3.437338173389434814e-01 4.405312985181808472e-02 1.881170719861984253e-01 2.230318784713745117e-01 -6.048300266265869141e-01 -1.608500839211046696e-03 -2.137671858072280884e-01 -6.169426441192626953e-01 -4.484114795923233032e-02 -6.872794032096862793e-02 2.635345757007598877e-01 -6.557953357696533203e-02 -2.403951883316040039e-01 -3.456549346446990967e-01 -9.388750046491622925e-02 -1.853468716144561768e-01 -2.568897008895874023e-01 2.383998334407806396e-01 4.012199938297271729e-01
4.716707170009613037e-01 3.469231426715850830e-01 3.488094210624694824e-01 4.662383794784545898e-01 1.841354519128799438e-01 8.837828040122985840e-02 1.712908297777175903e-01 -1.092238798737525940e-01 1.074167788028717041e-01 -1.480787098407745361e-01 -1.864004693925380707e-02 -1.076468080282211304e-01 2.628840506076812744e-01 -2.577899694442749023e-01 -8.909716457128524780e-02 -1.786251664161682129e-01 -1.035504788160324097e-02 2.061014473438262939e-01 4.585358798503875732e-01 -3.235148265957832336e-02 -1.093844845890998840e-01 1.308063864707946777e-01 -1.010279133915901184e-01 -1.971323937177658081e-01 -7.970321178436279297e-02 -2.192330211400985718e-01 -4.520521312952041626e-02 2.812476456165313721e-01
1.276092767715454102e+00 5.634393692016601562e-01 3.220995962619781494e-01 -6.627292931079864502e-02 5.035299062728881836e-01 2.371376156806945801e-01 -1.751806703396141529e-03 2.216571420431137085e-01 -6.848716735839843750e-02 3.495807573199272156e-02 -1.909554935991764069e-02 3.151708468794822693e-02 2.756944112479686737e-02 9.905093908309936523e-02 -1.597223579883575439e-01 3.545080870389938354e-02 -3.126237168908119202e-02 -5.987602472305297852e-02 1.659619063138961792e-01 7.804096490144729614e-02 -4.994238913059234619e-02 -2.713815867900848389e-01 -1.532997097820043564e-02 -9.920188784599304199e-02 -6.081291288137435913e-02 2.511761784553527832e-01 1.932535022497177124e-01 1.019305661320686340e-01
5.890954285860061646e-02 2.230260819196701050e-01 7.179315388202667236e-02 1.735040843486785889e-01 1.039407476782798767e-01 -4.528034925460815430e-01 3.066368997097015381e-01 2.347797155380249023e-01 2.151623517274856567e-01 8.474952727556228638e-02 3.760784864425659180e-01 2.444252222776412964e-01 1.514544188976287842e-01 -2.403236478567123413e-01 -4.339131712913513184e-02 -4.322478920221328735e-02 -2.553846500813961029e-02 -2.629649639129638672e-01 -1.508713513612747192e-01 6.394822895526885986e-02 8.489362895488739014e-02 -2.354120910167694092e-01 2.134712785482406616e-01 6.082274392247200012e-02 -3.135800659656524658e-01 1.019878610968589783e-01 -3.394450247287750244e-01 4.269228279590606689e-01
-2.460720688104629517e-01 -2.160672284662723541e-02 1.494751572608947754e-01 9.525419026613235474e-02 -1.977048814296722412e-01 1.085566729307174683e-01 -1.666659489274024963e-02 4.380869865417480469e-02 1.341198198497295380e-02 2.595551684498786926e-02 -5.383864417672157288e-02 1.184143349528312683e-01 1.239223107695579529e-01 -7.396911084651947021e-02 5.388406664133071899e-02 1.179559007287025452e-01 -8.849744498729705811e-02 -1.241087242960929871e-01 -1.429066210985183716e-01 -9.372550249099731445e-02 4.313844814896583557e-02 -2.617475986480712891e-01 -1.083058863878250122e-01 5.755519494414329529e-02 -3.210894763469696045e-02 1.675811260938644409e-01 2.710244059562683105e-01 -6.985360383987426758e-01
2.021268010139465332e-01 2.565973624587059021e-02 -1.268938332796096802e-01 8.963418751955032349e-02 -4.617150127887725830e-02 6.611435115337371826e-02 -9.383734315633773804e-02 1.703478097915649414e-01 3.322106599807739258e-02 -3.511125594377517700e-02 8.066944777965545654e-02 -1.342993080615997314e-01 -2.202685326337814331e-01 1.949841827154159546e-01 3.779639373533427715e-04 6.018166616559028625e-02 -2.617275416851043701e-01 1.487678438425064087e-01 -1.950048208236694336e-01 1.020234078168869019e-01 -1.872615069150924683e-01 -1.316823214292526245e-01 3.870565071702003479e-02 7.135379314422607422e-02 7.175603508949279785e-02 -1.279458850622177124e-01 -3.433735072612762451e-01 3.815127909183502197e-01
-1.041860505938529968e-01 -7.014185190200805664e-02 4.426908791065216064e-01 -2.593483924865722656e-01 1.058464050292968750e-01 -4.052270948886871338e-01 8.236458525061607361e-03 3.843509033322334290e-02 -8.344333618879318237e-02 7.559978216886520386e-02 -1.306577026844024658e-01 9.698715992271900177e-03 8.308272063732147217e-02 1.540613323450088501e-01 2.238385379314422607e-01 -2.797530889511108398e-01 -5.452303588390350342e-02 -3.917831778526306152e-01 3.206877969205379486e-03 -3.318996354937553406e-02 -1.969313472509384155e-01 2.393456846475601196e-01 -2.095441520214080811e-01 -1.578485965728759766e-01 6.204707026481628418e-01 -1.684584282338619232e-02 6.684239208698272705e-02 -2.838242352008819580e-01
-1.265403255820274353e-02 1.140470504760742188e-01 -1.777612864971160889e-01 -9.575273841619491577e-02 -1.269927173852920532e-01 -1.827226392924785614e-02 -1.421895027160644531e-01 2.064279019832611084e-01 -2.134504020214080811e-01 6.639806926250457764e-02 2.164921313524246216e-01 -9.676313400268554688e-02 3.193430900573730469e-01 3.027530908584594727e-01 -2.235718667507171631e-01 -1.614547222852706909e-01 2.856595441699028015e-02 -2.098513692617416382e-01 -1.790722608566284180e-01 1.215719953179359436e-01 3.087719976902008057e-01 1.216228678822517395e-01 2.168038934469223022e-01 1.797390729188919067e-01 5.359217524528503418e-02 3.818069398403167725e-02 -2.348224222660064697e-01 -3.476239442825317383e-01
-4.077137410640716553e-01 -6.154228374361991882e-02 -1.284811198711395264e-01 3.646675497293472290e-02 -4.777247011661529541e-01 1.773197948932647705e-01 9.268168359994888306e-02 6.352517008781433105e-02 -1.109169889241456985e-02 -1.481498405337333679e-02 1.544382423162460327e-01 3.662846982479095459e-02 3.407354354858398438e-01 2.464963644742965698e-01 9.115037322044372559e-02 -6.305883824825286865e-02 -3.978679701685905457e-02 1.541301161050796509e-01 1.920941323041915894e-01 1.506581902503967285e-01 1.468244493007659912e-01 5.834671854972839355e-02 2.434254437685012817e-01 1.643619686365127563e-01 -5.088668465614318848e-01 2.989297807216644287e-01 6.536136567592620850e-02 8.868873864412307739e-02
5.147807002067565918e-01 -6.411884725093841553e-02 1.094145551323890686e-01 1.698523461818695068e-01 -7.433848083019256592e-02 1.653990447521209717e-01 2.333586513996124268e-01 -4.968912899494171143e-02 -1.876739263534545898e-01 1.166103109717369080e-01 -1.460966281592845917e-02 1.896476745605468750e-01 -5.893380567431449890e-02 5.030750110745429993e-02 5.156783014535903931e-02 3.040852770209312439e-02 7.923374325037002563e-02 3.291942775249481201e-01 2.698045670986175537e-01 3.700704276561737061e-01 1.561368405818939209e-01 7.196523249149322510e-02 -2.529519610106945038e-02 2.408276498317718506e-01 -5.429387465119361877e-02 -5.123347640037536621e-01 1.698423624038696289e-01 3.896500170230865479e-01
-4.132671952247619629e-01 1.211851984262466431e-01 2.238332331180572510e-01 -1.901225149631500244e-01 2.149379849433898926e-01 1.511977463960647583e-01 6.532866507768630981e-02 -8.339323103427886963e-03 -2.007592022418975830e-01 1.995869725942611694e-01 2.043692162260413170e-03 7.532449811697006226e-02 -2.610722482204437256e-01 2.076062709093093872e-01 1.712805628776550293e-01 1.541328877210617065e-01 5.061657726764678955e-02 -2.279719263315200806e-01 5.099880322813987732e-02 2.650954127311706543e-01 1.385919004678726196e-01 2.907850146293640137e-01 3.514314591884613037e-01 8.817777037620544434e-02 -1.894433610141277313e-02 -4.924369156360626221e-01 2.121447920799255371e-01 5.012666061520576477e-02
4.188856780529022217e-01 -2.602003216743469238e-01 4.250314235687255859e-01 5.513169243931770325e-02 1.215606704354286194e-01 3.562064766883850098e-01 -3.372521325945854187e-02 -1.269928738474845886e-02 -2.152827084064483643e-01 -1.658560037612915039e-01 2.702559158205986023e-02 4.411989077925682068e-02 -1.782385557889938354e-01 1.194372475147247314e-01 1.488142460584640503e-01 1.433482766151428223e-01 1.228153482079505920e-01 -8.339145034551620483e-02 3.621906042098999023e-02 1.462343931198120117e-01 -1.163737848401069641e-02 7.263764739036560059e-02 1.497436463832855225e-01 -3.187435865402221680e-01 1.069982945919036865e-01 -2.402672357857227325e-02 -4.833946824073791504e-01 6.350268125534057617e-01
6.034686788916587830e-02 2.106011807918548584e-01 -3.569919764995574951e-01 3.491521775722503662e-01 3.357968032360076904e-01 4.175859391689300537e-01 1.857638508081436157e-01 -3.023461103439331055e-01 -2.292800694704055786e-01 -4.737192764878273010e-02 7.532174885272979736e-02 -2.405459880828857422e-01 -1.243437975645065308e-01 -2.540046274662017822e-01 1.502694468945264816e-02 2.042897939682006836e-01 3.295245170593261719e-01 3.908849358558654785e-01 1.021763235330581665e-01 1.666119396686553955e-01 1.665236428380012512e-03 -2.407186180353164673e-01 -7.367333024740219116e-02 4.023192450404167175e-02 1.821630597114562988e-01 1.991166174411773682e-01 -8.913958072662353516e-02 3.728002011775970459e-01
-1.125871658325195312e+00 3.483628854155540466e-02 -2.560074627399444580e-01 4.070543646812438965e-01 3.099189698696136475e-01 -4.763125628232955933e-02 -2.363002747297286987e-01 6.554555892944335938e-02 -9.777697734534740448e-03 -5.234594941139221191e-01 -1.318155229091644287e-01 -1.961102038621902466e-01 -4.846395850181579590e-01 -4.897367358207702637e-01 1.954143494367599487e-01 -8.246316015720367432e-02 2.703958153724670410e-01 7.672528028488159180e-01 8.194091916084289551e-02 1.926619261503219604e-01 1.615535616874694824e-01 -1.692397892475128174e-02 3.368914872407913208e-02 -1.394647806882858276e-01 8.581142127513885498e-02 1.165364012122154236e-01 -3.244448900222778320e-01 -4.027997851371765137e-01
7.077783942222595215e-01 -2.400150708854198456e-02 4.045764505863189697e-01 3.002140820026397705e-01 3.582357987761497498e-02 4.852152988314628601e-02 -8.664806187152862549e-02 6.029633283615112305e-01 1.826080232858657837e-01 -3.011166751384735107e-01 -3.392202407121658325e-02 -1.084923446178436279e-01 -1.367454081773757935e-01 1.937115639448165894e-01 6.044768169522285461e-02 -5.271592736244201660e-01 -8.933760225772857666e-03 3.088906109333038330e-01 2.458439469337463379e-01 4.560478031635284424e-02 2.990938723087310791e-01 3.713278174400329590e-01 -7.751046121120452881e-02 -2.716469764709472656e-01 -1.277217864990234375e-01 1.106194183230400085e-01 1.448218673467636108e-01 -6.562339663505554199e-01
-8.473262786865234375e-01 6.832395493984222412e-02 -3.678979575634002686e-01 1.196766495704650879e-01 -3.218182325363159180e-01 -3.341037631034851074e-01 -6.383631378412246704e-02 4.273049533367156982e-02 2.367108911275863647e-01 7.059437036514282227e-02 -1.430071443319320679e-01 -1.641193330287933350e-01 6.908784806728363037e-02 -8.209655433893203735e-02 4.908562898635864258e-01 5.405033826828002930e-01 1.496161073446273804e-01 -3.550144731998443604e-01 -9.112450480461120605e-02 -2.382473647594451904e-02 -1.700752675533294678e-01 -4.486576616764068604e-01 -3.125514388084411621e-01 -5.404096469283103943e-02 1.436837613582611084e-01 4.313039407134056091e-02 -1.923275142908096313e-01 -1.658703535795211792e-01
-1.723135828971862793e+00 3.968222141265869141e-01 3.291545212268829346e-01 -5.653548985719680786e-02 -2.422358281910419464e-02 3.761250153183937073e-02 -2.716953456401824951e-01 4.154756367206573486e-01 5.958623886108398438e-01 6.223903298377990723e-01 4.585935473442077637e-01 4.510884881019592285e-01 1.389125436544418335e-01 -1.557574868202209473e-01 3.088566362857818604e-01 -8.266497254371643066e-01 -4.654798507690429688e-01 -5.063578486442565918e-01 4.317307472229003906e-01 6.216186285018920898e-01 3.589067161083221436e-01 7.846646010875701904e-02 -3.640625476837158203e-01 -1.925231814384460449e-01 -1.111731529235839844e+00 -5.597634911537170410e-01 -6.134561300277709961e-01 -1.301531642675399780e-01
