1.586960256099700928e-02 -2.915873005986213684e-02 -2.403625473380088806e-02 -2.744998037815093994e-02 -1.410206779837608337e-02 2.276511304080486298e-02 1.878767833113670349e-02 1.553144678473472595e-02 -1.118618622422218323e-02 2.196787856519222260e-02 2.696947380900382996e-02 3.014325536787509918e-02 1.057899463921785355e-02 4.048160277307033539e-03 1.599227823317050934e-02 -1.816606707870960236e-02 -3.409385913982987404e-03 2.752944827079772949e-03 -4.818428773432970047e-03 -1.497453078627586365e-02 -1.294968836009502411e-02 6.402578204870223999e-03 -3.231294453144073486e-03 -8.301632478833198547e-03 -2.490954846143722534e-02 -3.038455918431282043e-02 -2.257581055164337158e-02 1.960982754826545715e-02
2.522090077400207520e-02 1.890205591917037964e-02 1.040187105536460876e-02 3.385768458247184753e-02 -1.269336789846420288e-03 2.267848514020442963e-02 -1.983579248189926147e-02 2.820719406008720398e-02 2.793118171393871307e-02 -1.542516518384218216e-02 3.252718225121498108e-02 2.076173946261405945e-02 1.020714454352855682e-02 1.993371918797492981e-02 -4.080884903669357300e-02 1.875182986259460449e-02 1.809844374656677246e-02 -2.615286409854888916e-02 2.193681336939334869e-02 -1.562320347875356674e-02 2.771398797631263733e-02 -1.197022758424282074e-02 2.394424378871917725e-02 -3.224639222025871277e-02 -5.592774250544607639e-04 1.083135232329368591e-02 7.901474833488464355e-03 1.484706625342369080e-02
3.074353002011775970e-02 1.712698489427566528e-02 -3.226663917303085327e-02 -5.460457876324653625e-03 -5.415717139840126038e-03 2.458896301686763763e-02 -1.621337980031967163e-02 2.355101518332958221e-02 1.088039297610521317e-02 7.927456870675086975e-03 1.295112632215023041e-02 1.011554617434740067e-03 -1.104496978223323822e-02 1.486928481608629227e-02 -2.636800892651081085e-02 1.448083017021417618e-02 2.513473480939865112e-02 -2.422174997627735138e-02 -2.785097248852252960e-02 -3.518734872341156006e-02 -3.404355421662330627e-02 -2.656244300305843353e-02 -3.458262234926223755e-02 7.083047647029161453e-03 2.482345886528491974e-02 -1.757101900875568390e-02 -2.415562048554420471e-02 3.889151616021990776e-03
-1.256375201046466827e-02 -3.195095807313919067e-02 -2.347015589475631714e-02 2.949837595224380493e-03 2.512707933783531189e-02 2.649288997054100037e-02 -3.668535500764846802e-03 1.271074917167425156e-02 -3.776319092139601707e-03 -9.317288175225257874e-03 -3.457432240247726440e-02 -2.410873770713806152e-03 1.563948579132556915e-02 -6.706925109028816223e-03 -1.823564060032367706e-03 -3.843726217746734619e-02 9.474271908402442932e-03 1.696133986115455627e-02 -4.439156502485275269e-03 -1.820737868547439575e-02 7.889939472079277039e-03 -6.212027277797460556e-03 2.539952658116817474e-02 2.595434337854385376e-02 5.228667985647916794e-03 -2.358019351959228516e-02 1.934705115854740143e-02 6.806462770327925682e-04
-3.282438963651657104e-03 1.471079885959625244e-04 -3.510328382253646851e-02 2.725380286574363708e-02 2.196449786424636841e-03 2.411946654319763184e-02 2.942170947790145874e-02 -2.180639840662479401e-02 -2.377273514866828918e-02 -4.092214629054069519e-02 -1.633831299841403961e-02 2.223179489374160767e-02 -1.510061789304018021e-02 -3.151096776127815247e-02 1.445277035236358643e-02 -2.511041797697544098e-02 -4.475788399577140808e-02 -1.809940673410892487e-02 -1.211903709918260574e-02 -3.865385428071022034e-02 -3.433931991457939148e-02 6.016163621097803116e-03 -3.445624932646751404e-02 -7.852258859202265739e-04 -2.915312722325325012e-02 1.005284395068883896e-02 -2.080949582159519196e-02 -1.230409741401672363e-02
1.293543353676795959e-02 -1.134594529867172241e-02 -5.717847496271133423e-03 2.519646659493446350e-02 3.551444038748741150e-02 -2.959498018026351929e-02 -1.629942841827869415e-02 -7.743374444544315338e-03 2.386248856782913208e-02 -3.960490971803665161e-02 1.132986508309841156e-02 -1.916294544935226440e-02 1.174213364720344543e-02 2.648280560970306396e-02 -3.212733566761016846e-02 -6.354431156069040298e-03 -3.193699568510055542e-02 -2.980705350637435913e-02 -3.120234422385692596e-02 -2.351105213165283203e-02 1.571722887456417084e-02 -1.782405772246420383e-03 2.590410970151424408e-02 -2.132230252027511597e-02 5.429231096059083939e-03 -6.663849577307701111e-03 5.981691647320985794e-03 2.069005370140075684e-02
-3.101476654410362244e-02 3.565068170428276062e-02 3.295235335826873779e-02 1.582445390522480011e-02 1.170376129448413849e-02 -1.934497430920600891e-02 2.100166492164134979e-02 1.101438142359256744e-02 9.383772499859333038e-03 1.337586715817451477e-02 2.993910945951938629e-02 -1.715129055082798004e-02 4.643341526389122009e-03 2.621510252356529236e-02 -2.634226717054843903e-02 5.673869047313928604e-03 -1.371354144066572189e-02 -2.466702274978160858e-02 -1.752082817256450653e-02 -3.772075055167078972e-03 2.488347887992858887e-02 -1.973982714116573334e-02 -3.278210014104843140e-02 2.387288957834243774e-03 1.215681806206703186e-02 5.236492026597261429e-03 1.603821292519569397e-03 2.164791151881217957e-02
1.083107292652130127e-02 -8.285271003842353821e-03 -6.703542545437812805e-03 -2.937054261565208435e-02 -1.488970965147018433e-02 -1.775890402495861053e-02 3.635045606642961502e-03 -7.281044236151501536e-05 -3.354443237185478210e-02 -2.975456230342388153e-02 -3.417817875742912292e-02 2.266816608607769012e-02 -3.841809928417205811e-02 -1.910289563238620758e-02 -4.161350801587104797e-02 6.883428897708654404e-03 -2.117015235126018524e-02 -1.343852747231721878e-02 1.222258992493152618e-02 -3.729787096381187439e-02 -2.981349267065525055e-02 1.963648386299610138e-02 -3.467907011508941650e-02 -3.186983615159988403e-02 -3.343132883310317993e-02 2.444868162274360657e-02 -2.339492179453372955e-02 1.261725649237632751e-02
-5.977299064397811890e-03 -3.403686359524726868e-02 -2.249247767031192780e-02 -1.880192942917346954e-02 -4.522260744124650955e-03 -1.744316332042217255e-02 2.936693467199802399e-02 -1.400991529226303101e-02 -3.990020975470542908e-02 -2.438903041183948517e-02 2.156517840921878815e-02 -1.343757286667823792e-02 2.593005076050758362e-02 -3.078576363623142242e-02 3.911405801773071289e-03 -1.462908741086721420e-02 1.769842952489852905e-02 -5.076155532151460648e-03 -6.910667289048433304e-03 2.907110145315527916e-03 1.503267139196395874e-02 -2.690561674535274506e-02 9.658925235271453857e-03 -3.928397223353385925e-02 -3.195623308420181274e-02 4.318121063988655806e-04 1.010709628462791443e-02 -2.686817385256290436e-02
8.829682134091854095e-03 1.963909715414047241e-02 6.973930867388844490e-04 1.951889507472515106e-02 -1.094669941812753677e-02 2.193144150078296661e-02 -2.147671766579151154e-02 -3.927614539861679077e-02 2.110212296247482300e-02 1.524551771581172943e-02 -2.865842357277870178e-02 -2.674178220331668854e-02 -1.054776133969426155e-03 7.038768380880355835e-03 -7.464303169399499893e-03 -3.660173341631889343e-02 -7.523327134549617767e-03 -3.203243389725685120e-02 8.054864592850208282e-03 6.901788990944623947e-03 -2.453702688217163086e-02 -2.087463624775409698e-02 -2.763842791318893433e-02 -1.644567772746086121e-02 2.960531413555145264e-02 1.239326968789100647e-02 1.238138694316148758e-02 2.302780933678150177e-02
-1.904287561774253845e-02 1.584854442626237869e-03 3.125354275107383728e-02 2.928553707897663116e-02 -2.072214707732200623e-02 -3.363687172532081604e-02 -1.299220602959394455e-02 -1.738004945218563080e-02 2.290942519903182983e-02 3.924185410141944885e-03 -8.737095631659030914e-03 -1.356202084571123123e-02 2.382124960422515869e-02 -1.463796477764844894e-02 -1.287798676639795303e-02 -2.478002570569515228e-02 -1.074865274131298065e-02 -3.789445012807846069e-02 -2.213573083281517029e-02 1.936112158000469208e-02 2.520807785913348198e-03 -2.202135138213634491e-02 -1.420403085649013519e-02 2.275115810334682465e-02 4.436971154063940048e-03 5.992001853883266449e-03 -2.505211718380451202e-02 8.557465858757495880e-03
2.325638942420482635e-02 -3.222455456852912903e-02 7.431573467329144478e-04 2.316112630069255829e-02 -1.110689947381615639e-03 -1.565457880496978760e-02 -1.116260606795549393e-02 -2.120436914265155792e-02 1.658795773983001709e-02 -2.690058900043368340e-03 -1.928229001350700855e-03 -3.691980242729187012e-02 2.431980520486831665e-02 -1.128628477454185486e-02 2.828487195074558258e-02 1.508946157991886139e-02 5.388754885643720627e-03 -1.635123230516910553e-02 5.120941437780857086e-03 1.114644762128591537e-02 1.331911794841289520e-02 -4.068288579583168030e-02 -3.526720404624938965e-02 6.109977606683969498e-03 -8.864348754286766052e-03 1.730911806225776672e-02 2.293635904788970947e-02 -3.237297385931015015e-02
-3.063628263771533966e-02 6.678732112050056458e-03 5.025514867156744003e-03 1.224384363740682602e-02 -8.519620634615421295e-03 -6.605739239603281021e-03 4.530466627329587936e-03 2.072462067008018494e-02 -3.094196319580078125e-02 -2.442821487784385681e-02 -7.671979721635580063e-03 -1.552940905094146729e-02 -1.173262298107147217e-02 -1.897920668125152588e-02 -3.540618345141410828e-02 -3.923570364713668823e-02 -2.609700709581375122e-02 -1.309886109083890915e-02 -3.188898088410496712e-03 8.013483136892318726e-03 1.746406778693199158e-02 -5.841929931193590164e-03 2.681198343634605408e-02 2.701466716825962067e-02 2.817335911095142365e-02 -2.638963796198368073e-02 -1.832521893084049225e-02 1.759418286383152008e-02
1.581420656293630600e-03 1.469710096716880798e-02 2.757889218628406525e-02 2.106272242963314056e-02 -3.400580212473869324e-02 -2.472551725804805756e-02 -3.007411956787109375e-02 -2.896683057770133018e-03 -1.651762239634990692e-02 -2.437342889606952667e-02 -2.375771850347518921e-02 -3.573159500956535339e-02 1.105443481355905533e-02 -2.873114310204982758e-02 -3.138790279626846313e-02 2.513547241687774658e-02 -2.771371603012084961e-02 2.200283575803041458e-03 -3.319391608238220215e-02 -1.945213414728641510e-02 1.689073629677295685e-02 -1.919555664062500000e-02 7.606196682900190353e-03 -2.049777098000049591e-02 -9.765201248228549957e-03 -1.477590878494083881e-03 -1.251572463661432266e-02 -4.371578805148601532e-03
-3.641590848565101624e-02 -1.512126065790653229e-02 9.299306198954582214e-03 6.247307639569044113e-03 2.007240615785121918e-02 2.370763942599296570e-02 2.401513792574405670e-02 -1.335175987333059311e-02 -2.915816009044647217e-02 -2.074810303747653961e-02 -3.593133389949798584e-02 -2.502595819532871246e-02 1.259460859000682831e-02 3.795386524870991707e-03 2.714825049042701721e-02 -2.517815306782722473e-02 -8.881283923983573914e-03 -2.366672828793525696e-02 -2.120167762041091919e-02 2.327368408441543579e-02 -1.546718180179595947e-02 4.663859494030475616e-03 7.937882328405976295e-04 6.770751904696226120e-03 -1.212025154381990433e-02 1.424153451807796955e-03 6.876802071928977966e-04 -2.479933016002178192e-02
-7.412761333398520947e-04 -3.050440922379493713e-02 6.442070007324218750e-03 2.040672488510608673e-02 3.123405762016773224e-02 5.337946582585573196e-03 -1.342421397566795349e-02 8.657106198370456696e-03 -1.937706582248210907e-02 -2.729641273617744446e-02 2.518074028193950653e-02 -1.104889903217554092e-03 -3.364355489611625671e-02 -1.783224567770957947e-02 -2.730880305171012878e-02 1.406122371554374695e-02 -4.408730193972587585e-03 -1.882854476571083069e-02 -3.390642628073692322e-02 1.257259957492351532e-02 7.283885963261127472e-03 1.164687518030405045e-02 2.666168287396430969e-02 -4.183812811970710754e-02 2.283579297363758087e-02 8.537757094018161297e-04 1.693329587578773499e-02 -1.387636549770832062e-02
-2.606783621013164520e-02 1.122377114370465279e-03 -2.429004944860935211e-02 1.365068834275007248e-02 -1.349854562431573868e-02 -2.801119163632392883e-02 2.305181138217449188e-02 -2.049425616860389709e-02 1.265724189579486847e-02 -2.114116959273815155e-02 -4.113503918051719666e-02 -5.345498677343130112e-03 1.542063336819410324e-02 -3.769914805889129639e-02 -1.187775563448667526e-02 -5.370873841457068920e-04 -2.618782408535480499e-02 -1.248644385486841202e-02 -4.394427686929702759e-02 -7.034323178231716156e-03 -2.445813827216625214e-02 -3.168113157153129578e-02 2.090203016996383667e-02 -1.362845767289400101e-02 -2.682871557772159576e-02 6.838867906481027603e-03 -2.643110603094100952e-02 -5.096005741506814957e-03
-1.200413331389427185e-02 1.024351362138986588e-02 2.899137698113918304e-02 1.066277083009481430e-02 -1.318710856139659882e-02 -3.775086626410484314e-02 1.796067319810390472e-02 -3.524527698755264282e-02 -3.618526086211204529e-02 1.070472318679094315e-02 5.453929770737886429e-03 -2.997362799942493439e-02 -3.370390459895133972e-02 -2.260924130678176880e-02 -1.719366945326328278e-02 3.872482338920235634e-03 -4.539911076426506042e-02 1.823330111801624298e-02 1.572644896805286407e-02 1.510371267795562744e-02 2.115784958004951477e-02 -2.672404609620571136e-02 -3.265275806188583374e-02 -2.937551774084568024e-02 2.510108798742294312e-02 -3.844382613897323608e-02 3.056504763662815094e-03 -9.687687270343303680e-03
2.857466787099838257e-02 -1.586816273629665375e-02 -1.049529481679201126e-02 -1.029547676444053650e-02 -2.666916884481906891e-02 -1.533425971865653992e-02 -2.353194728493690491e-02 -2.264846302568912506e-02 -1.512132771313190460e-02 -6.278236862272024155e-03 -3.283929824829101562e-02 -6.440623663365840912e-03 8.364011533558368683e-03 -6.609490606933832169e-03 -4.376669312478043139e-05 9.505351074039936066e-03 9.811716154217720032e-03 1.190916262567043304e-02 -2.956979908049106598e-02 5.600475240498781204e-03 -7.880517281591892242e-03 -1.555169187486171722e-02 -3.643526881933212280e-02 -3.203296661376953125e-02 1.614073850214481354e-02 -1.451157964766025543e-02 -1.044121757149696350e-02 5.577807780355215073e-03
-3.160297125577926636e-02 2.434727735817432404e-03 1.844767667353153229e-02 -2.912422269582748413e-02 -2.858272939920425415e-02 2.376915654167532921e-03 2.666886895895004272e-02 2.115899138152599335e-02 -8.037814870476722717e-03 -3.054165467619895935e-02 -2.960223518311977386e-02 -3.146101534366607666e-02 2.381176454946398735e-03 -1.131593366153538227e-03 1.495353039354085922e-02 -2.801402658224105835e-02 -1.071934588253498077e-02 -5.753612145781517029e-03 3.976444248110055923e-03 -3.089081868529319763e-02 -1.524397265166044235e-02 -2.852194197475910187e-02 1.099129114300012589e-02 -1.095249596983194351e-02 1.691572368144989014e-02 1.081009488552808762e-02 2.445282600820064545e-02 2.866057865321636200e-02
-2.041798271238803864e-02 6.543570198118686676e-04 -6.461054086685180664e-03 -3.322665393352508545e-02 1.556284353137016296e-02 3.283278085291385651e-03 2.393256872892379761e-02 -2.369750477373600006e-02 -3.402264788746833801e-02 -3.478890657424926758e-02 -5.052444990724325180e-03 -2.912234142422676086e-02 -2.115439437329769135e-02 1.197106298059225082e-02 2.099658921360969543e-02 -4.078040644526481628e-02 -9.595540352165699005e-03 -3.382271528244018555e-02 9.639391675591468811e-03 2.696489542722702026e-02 1.034197211265563965e-02 -4.246084392070770264e-02 2.631894312798976898e-02 -1.319077238440513611e-02 2.573076076805591583e-02 -2.106539718806743622e-02 -3.608658909797668457e-02 -3.192964196205139160e-02
-1.618068479001522064e-02 2.245955541729927063e-02 3.009194694459438324e-02 4.539179150015115738e-03 -3.560772538185119629e-02 2.900753542780876160e-02 2.414561063051223755e-02 -2.342909760773181915e-02 -1.838902197778224945e-02 -2.225904352962970734e-02 -3.268878161907196045e-02 9.208547882735729218e-03 -3.823740780353546143e-02 1.114909723401069641e-02 4.143180791288614273e-03 -1.171838119626045227e-02 -2.203704044222831726e-02 -1.972626196220517159e-03 1.810015738010406494e-02 -6.165921688079833984e-03 -2.649313211441040039e-02 -4.779512993991374969e-03 1.761224865913391113e-02 1.257594791240990162e-03 -4.233553260564804077e-02 8.383309468626976013e-03 3.391474252566695213e-03 -7.128105498850345612e-03
-3.671189025044441223e-02 1.096162572503089905e-02 -3.891874477267265320e-02 2.002684958279132843e-02 9.043651632964611053e-03 2.578794397413730621e-02 2.127613872289657593e-02 -1.294301077723503113e-02 -1.115162856876850128e-02 -2.999207749962806702e-02 -2.721685741562396288e-04 -1.509908214211463928e-02 2.391306497156620026e-02 -2.167426235973834991e-02 -6.907854694873094559e-03 -1.158830150961875916e-02 2.213501185178756714e-02 -3.220036625862121582e-02 -3.483212366700172424e-02 -9.225317277014255524e-03 3.808566136285662651e-03 2.573663368821144104e-02 -3.916000481694936752e-03 1.665889471769332886e-02 1.494717411696910858e-02 -1.327836420387029648e-02 4.650445654988288879e-03 -1.090449653565883636e-02
1.494756992906332016e-02 -1.267365925014019012e-02 -3.817139938473701477e-02 -4.417174495756626129e-04 -3.974594548344612122e-02 -3.016638197004795074e-02 2.133041620254516602e-03 -2.901573479175567627e-02 -2.997611835598945618e-02 1.175500452518463135e-02 1.716160215437412262e-02 3.919505048543214798e-03 -4.388683289289474487e-02 -7.318263407796621323e-03 1.320832059718668461e-03 -3.044877015054225922e-02 -9.234939352609217167e-04 5.896784365177154541e-03 -2.347989194095134735e-02 -3.682452067732810974e-02 2.803915925323963165e-02 1.684139715507626534e-03 2.781429328024387360e-02 1.465451624244451523e-02 8.142891339957714081e-03 -3.205904504284262657e-03 -3.802769258618354797e-02 -1.779654063284397125e-02
-3.684436902403831482e-02 4.342035856097936630e-03 2.348966337740421295e-02 2.584909088909626007e-02 5.339037626981735229e-03 -1.710635051131248474e-02 -4.323157668113708496e-02 -2.897325530648231506e-02 5.769507959485054016e-03 1.172755379229784012e-02 -1.322008389979600906e-02 2.096381038427352905e-02 2.578070759773254395e-02 -3.430908080190420151e-03 -2.387674711644649506e-02 -1.365295797586441040e-02 -2.572813816368579865e-02 9.697110392153263092e-03 2.851218916475772858e-02 5.078216083347797394e-03 -3.859804710373282433e-03 -1.336940564215183258e-02 -2.208493882790207863e-03 1.438849698752164841e-02 2.259365096688270569e-02 -3.474611043930053711e-02 2.765505574643611908e-02 1.632356084883213043e-02
-9.670065715909004211e-03 2.403634786605834961e-02 1.676209084689617157e-02 1.941587589681148529e-02 1.759686321020126343e-02 5.839393706992268562e-04 -2.722250856459140778e-02 2.233650349080562592e-02 7.743453024886548519e-04 1.896847970783710480e-02 -2.833152934908866882e-02 1.055494416505098343e-02 5.676176398992538452e-03 1.943213120102882385e-02 1.546597760170698166e-02 -1.589067280292510986e-02 -2.385769039392471313e-02 -1.837653480470180511e-02 -7.946118712425231934e-03 1.959100924432277679e-02 -3.552975505590438843e-02 -2.848670259118080139e-02 -2.947665378451347351e-02 -7.010005880147218704e-03 -3.423072025179862976e-02 2.210088819265365601e-02 -1.691057160496711731e-02 -2.870820462703704834e-02
1.593477278947830200e-02 -3.106586821377277374e-02 -3.081533685326576233e-02 -6.983639672398567200e-03 -2.097269287332892418e-03 -3.770669922232627869e-02 -1.357567775994539261e-02 8.712586131878197193e-04 -3.878052532672882080e-02 2.364693209528923035e-02 -6.995055009610950947e-04 7.304458413273096085e-03 1.540829613804817200e-02 -3.303490811958909035e-03 -3.441557753831148148e-03 -1.429267576895654202e-03 -4.498037975281476974e-03 -3.287266567349433899e-02 1.147675048559904099e-02 -3.813514113426208496e-02 6.769396364688873291e-03 2.262981794774532318e-02 5.633183289319276810e-03 1.776186749339103699e-02 7.519645150750875473e-03 2.660188078880310059e-02 1.652573607861995697e-02 6.823398172855377197e-03
-1.629464142024517059e-02 3.262263163924217224e-02 -1.828058436512947083e-02 4.000481218099594116e-03 -3.709502518177032471e-03 1.899433135986328125e-02 -2.806840464472770691e-02 -2.888102270662784576e-02 9.777437895536422729e-03 -1.781779155135154724e-02 -1.871929317712783813e-02 8.366392925381660461e-03 6.146360188722610474e-03 7.007700391113758087e-03 1.941513828933238983e-02 4.184308927506208420e-03 2.338194753974676132e-04 1.135844178497791290e-02 -2.826644480228424072e-02 -2.141090482473373413e-02 2.669472480192780495e-03 -1.098969206213951111e-02 -3.001624532043933868e-02 -1.887289620935916901e-02 -1.156143844127655029e-03 3.095872327685356140e-02 2.604490891098976135e-02 1.638976484537124634e-02
