-2.710858918726444244e-02 3.125428259372711182e-01 1.369377225637435913e-01 5.563652515411376953e-01 6.150847673416137695e-01 5.733708143234252930e-01 3.541681170463562012e-01 5.213598608970642090e-01 -1.069497108459472656e+00 -5.528307557106018066e-01 -3.045372486114501953e+00 -3.579887390136718750e+00 -2.643558502197265625e+00 -3.320782184600830078e+00 -3.412000417709350586e+00 -2.489537954330444336e+00 -1.735562562942504883e+00 -7.607277631759643555e-01 2.137026190757751465e-01 1.149999856948852539e+00 -3.762482702732086182e-01 -1.067952752113342285e+00 -8.112981915473937988e-02 4.554095491766929626e-02 1.376625299453735352e+00 4.286958575248718262e-01 7.455165386199951172e-01 1.139927864074707031e+00
-9.645330905914306641e-02 2.344389110803604126e-01 1.472133249044418335e-01 4.448803663253784180e-01 1.519770920276641846e-01 6.712691187858581543e-01 -7.215573191642761230e-01 8.286873996257781982e-02 -5.544924736022949219e-01 -1.566882371902465820e+00 -1.352035641670227051e+00 -8.260193467140197754e-02 4.180152416229248047e-01 -7.015060186386108398e-01 -3.612920343875885010e-01 -5.336790680885314941e-01 -2.780266702175140381e-01 -5.026726126670837402e-01 2.670856714248657227e-01 5.583058595657348633e-01 3.795922398567199707e-01 8.721483498811721802e-02 2.425278425216674805e-01 -6.926752626895904541e-02 -3.163594603538513184e-01 6.362521052360534668e-01 -1.361934304237365723e+00 3.763484656810760498e-01
-9.857017546892166138e-02 1.893970370292663574e-01 1.764978021383285522e-01 4.070238173007965088e-01 5.382416844367980957e-01 1.137830853462219238e+00 2.726651132106781006e-01 -1.361950337886810303e-01 -6.208543777465820312e-01 3.607368171215057373e-01 -6.612887978553771973e-02 3.151063323020935059e-01 3.991122171282768250e-02 -1.096327826380729675e-01 1.274680942296981812e-01 -8.100255131721496582e-01 -1.678822636604309082e-01 9.795045107603073120e-02 2.726073563098907471e-01 7.511705905199050903e-02 1.734766513109207153e-01 -1.218020319938659668e-01 -1.073670163750648499e-01 4.190604686737060547e-01 -3.443859815597534180e-01 4.904124513268470764e-02 -5.113222822546958923e-02 -1.511089801788330078e-01
-5.631062984466552734e-01 1.275655478239059448e-01 1.191133931279182434e-01 2.644511759281158447e-01 5.001788735389709473e-01 3.009904921054840088e-01 -1.413734674453735352e+00 -9.339418411254882812e-01 -7.806477546691894531e-01 1.052248835563659668e+00 7.031185030937194824e-01 -7.179666757583618164e-01 3.015983402729034424e-01 -1.575991138815879822e-02 -5.318500995635986328e-01 1.604754477739334106e-01 -1.397865116596221924e-01 7.259305566549301147e-02 -2.673021554946899414e-01 8.191336691379547119e-02 4.363223612308502197e-01 6.201511621475219727e-02 1.957950443029403687e-01 7.129530608654022217e-02 -1.365913748741149902e-01 -2.006901800632476807e-01 -3.875657320022583008e-01 3.251002728939056396e-01
-7.603582739830017090e-01 1.323821544647216797e-01 1.131633371114730835e-01 2.474856227636337280e-01 3.397828042507171631e-01 4.830045253038406372e-02 -1.984832048416137695e+00 -6.257875561714172363e-01 2.499293684959411621e-01 5.041145160794258118e-02 9.072059392929077148e-02 -5.290780663490295410e-01 1.170156430453062057e-02 -3.512870073318481445e-01 3.687868267297744751e-02 -1.924844831228256226e-01 -2.076053321361541748e-01 -1.256516724824905396e-01 3.325507640838623047e-01 -2.600463330745697021e-01 3.693948313593864441e-02 3.540408611297607422e-01 2.539598345756530762e-01 7.659646868705749512e-02 -7.759807258844375610e-02 -3.234365954995155334e-02 4.548233151435852051e-01 -1.773815631866455078e+00
-5.611618757247924805e-01 -2.339645475149154663e-01 -1.382943868637084961e+00 -1.959474682807922363e-01 4.715840518474578857e-01 -8.355697393417358398e-01 -8.007285594940185547e-01 -2.071526050567626953e+00 6.024498343467712402e-01 2.855584323406219482e-01 1.765178591012954712e-01 -7.831642031669616699e-02 -1.479878723621368408e-01 -1.485476344823837280e-01 1.393219828605651855e-01 -2.073780894279479980e-01 -1.728843152523040771e-01 5.314502120018005371e-02 -4.783653616905212402e-01 -1.006504595279693604e-01 3.643298149108886719e-01 -5.709443613886833191e-02 3.490092456340789795e-01 -9.373766928911209106e-02 -5.489047616720199585e-02 9.929018467664718628e-02 4.617906510829925537e-01 -1.938786506652832031e+00
7.113375514745712280e-02 -5.085842683911323547e-02 -1.698784083127975464e-01 -2.315455675125122070e-02 -5.757464766502380371e-01 -2.718771457672119141e+00 -2.273385524749755859e+00 -1.735531091690063477e+00 -1.305150985717773438e+00 -4.774505198001861572e-01 -3.924937546253204346e-02 -3.254364728927612305e-01 2.590198218822479248e-01 -1.343583595007658005e-02 1.541435136459767818e-03 3.109336495399475098e-01 -1.494682580232620239e-01 -4.866819679737091064e-01 -4.510894417762756348e-02 -2.187743484973907471e-01 2.579098641872406006e-01 5.122690200805664062e-01 1.836024373769760132e-01 -6.282129883766174316e-02 3.925573527812957764e-01 -1.370788961648941040e-01 -1.439484208822250366e-01 -9.135391116142272949e-01
5.532086491584777832e-01 -1.085752725601196289e+00 -8.011515140533447266e-01 3.972807526588439941e-01 7.401282191276550293e-01 -1.779773592948913574e+00 -3.118734836578369141e+00 -1.604089140892028809e+00 -1.278570532798767090e+00 -1.070273041725158691e+00 -1.163803413510322571e-01 -1.426511853933334351e-01 -3.032883256673812866e-02 -1.306520551443099976e-01 4.909313619136810303e-01 -2.272551134228706360e-02 -9.029855579137802124e-02 -1.578670889139175415e-01 -5.151097774505615234e-01 -8.654595911502838135e-02 -1.976613104343414307e-01 1.943360865116119385e-01 1.929289102554321289e-01 8.452885597944259644e-02 2.099888473749160767e-01 -3.205051124095916748e-01 8.960608392953872681e-02 -1.574486345052719116e-01
-2.676210999488830566e-01 -1.660034894943237305e+00 -2.163281202316284180e+00 -2.436442375183105469e+00 -1.518970727920532227e+00 -4.110100746154785156e+00 -4.099592208862304688e+00 -4.433148860931396484e+00 -2.844934225082397461e+00 -9.749512076377868652e-01 1.128859594464302063e-01 -2.608878612518310547e-01 -3.857034444808959961e-02 2.470960915088653564e-01 1.517467498779296875e-01 3.843369781970977783e-01 -8.819360285997390747e-02 -3.940805196762084961e-01 -1.969818398356437683e-02 2.179224491119384766e-01 -7.427136600017547607e-02 -1.597089767456054688e-01 7.635484635829925537e-02 -8.350163698196411133e-03 1.199685856699943542e-01 2.060151100158691406e-02 7.008858025074005127e-02 2.600043118000030518e-01
-2.359159231185913086e+00 -3.156533479690551758e+00 -1.270483493804931641e+00 -2.871736288070678711e+00 -2.525396108627319336e+00 -1.363220572471618652e+00 -1.314469456672668457e+00 -5.285911560058593750e-01 -1.264890670776367188e+00 6.673507094383239746e-01 2.037570774555206299e-01 3.368616402149200439e-01 3.802237510681152344e-01 1.554046422243118286e-01 1.765243411064147949e-01 1.392812281847000122e-01 -2.195463180541992188e-01 -4.707020223140716553e-01 -3.374930918216705322e-01 4.037507474422454834e-01 3.633885830640792847e-02 1.144062653183937073e-01 -7.516265660524368286e-02 -1.359932720661163330e-01 2.750773727893829346e-02 -7.675215601921081543e-02 6.392832845449447632e-02 2.707942426204681396e-01
-9.612925648689270020e-01 -2.162367343902587891e+00 -1.215643405914306641e+00 -2.109929561614990234e+00 -4.114458262920379639e-01 -1.185764372348785400e-01 -4.005080759525299072e-01 4.133555293083190918e-01 -5.489652156829833984e-01 -2.059271484613418579e-01 2.707010805606842041e-01 -5.847353488206863403e-02 1.407014578580856323e-01 1.410941630601882935e-01 -1.063442677259445190e-01 -1.571417003870010376e-01 -7.317780703306198120e-02 -1.790085583925247192e-01 1.398844420909881592e-01 -2.961112419143319130e-03 2.022646516561508179e-01 2.859736680984497070e-01 -4.396473243832588196e-02 -1.758059561252593994e-01 3.933801874518394470e-02 -3.034473061561584473e-01 -4.790381342172622681e-02 4.244083762168884277e-01
5.584605932235717773e-01 -2.161906242370605469e+00 -6.103356480598449707e-01 -9.579282999038696289e-01 -6.815217733383178711e-01 -7.844634652137756348e-01 3.778190910816192627e-01 5.794476270675659180e-01 -1.786096990108489990e-01 -1.324097663164138794e-01 1.446426808834075928e-01 -2.645013332366943359e-01 -8.734896034002304077e-02 -9.927266091108322144e-02 6.603222340345382690e-02 -2.433063685894012451e-01 1.276957541704177856e-01 2.742797601968050003e-03 -1.405303925275802612e-01 4.225588962435722351e-02 -8.560051023960113525e-02 1.015423089265823364e-01 1.492413431406021118e-01 -3.464095294475555420e-02 -1.263528782874345779e-02 -1.359712928533554077e-01 -2.083213031291961670e-01 6.870160102844238281e-01
2.588034868240356445e+00 9.145160913467407227e-01 -7.277082204818725586e-01 -1.419992685317993164e+00 -2.247527539730072021e-01 2.573984861373901367e-01 -1.045207455754280090e-01 6.787659525871276855e-01 -4.035145044326782227e-01 -2.806160971522331238e-02 -1.312343180179595947e-01 1.027728393673896790e-01 -1.588763594627380371e-01 3.542942926287651062e-02 -3.266199827194213867e-01 -7.863801717758178711e-02 -1.335423160344362259e-02 -1.518037766218185425e-01 -5.309681221842765808e-02 -2.970758676528930664e-01 -1.995137929916381836e-01 -3.123326040804386139e-02 -1.049287691712379456e-01 8.205672353506088257e-02 -2.757618427276611328e-01 -4.823076538741588593e-03 -2.074693739414215088e-01 2.708545327186584473e-01
2.298344850540161133e+00 1.045220997184514999e-02 -5.193988680839538574e-01 -1.322305083274841309e+00 -2.497666329145431519e-01 9.042800664901733398e-01 2.766597867012023926e-01 -4.955785721540451050e-02 -2.400546334683895111e-02 -4.926889762282371521e-02 9.873627126216888428e-02 -3.493395745754241943e-01 -4.942115396261215210e-02 -1.437948197126388550e-01 -7.418707013130187988e-02 -3.606632649898529053e-01 7.498282194137573242e-02 -1.306555420160293579e-01 -2.477661706507205963e-02 -1.973647624254226685e-01 -1.832873225212097168e-01 -1.306142210960388184e-01 -2.441718727350234985e-01 -7.340059429407119751e-02 -7.065675407648086548e-02 -1.918217688798904419e-01 -3.602934777736663818e-01 -1.639374494552612305e-01
1.646453857421875000e+00 1.450301408767700195e-01 -5.275132656097412109e-01 -8.207958340644836426e-01 2.064334787428379059e-02 6.582639813423156738e-01 4.701195657253265381e-01 9.817190468311309814e-02 -4.785273224115371704e-02 1.654038205742835999e-03 1.194076426327228546e-02 -2.226624190807342529e-01 5.102033540606498718e-02 -1.894012242555618286e-01 -1.725096255540847778e-01 -6.462606042623519897e-02 -1.804251074790954590e-01 -9.697695076465606689e-02 1.012504026293754578e-01 -3.006618916988372803e-01 2.177604436874389648e-01 -3.206393122673034668e-01 7.600164413452148438e-02 8.984744548797607422e-02 -3.132001161575317383e-01 -4.196346700191497803e-01 -4.102522134780883789e-01 -6.935757398605346680e-01
3.864120459184050560e-03 3.233475685119628906e-01 -8.801790475845336914e-01 -3.074833750724792480e-01 -2.023085653781890869e-01 5.266517400741577148e-01 3.228415846824645996e-01 8.284573256969451904e-02 3.130896985530853271e-01 2.625490538775920868e-02 9.267926216125488281e-02 -1.721110194921493530e-01 -6.637954711914062500e-02 -1.852219924330711365e-02 -3.733820980414748192e-03 -2.868364751338958740e-01 1.289339363574981689e-01 1.541604381054639816e-02 -8.004879951477050781e-02 1.595937758684158325e-01 1.676458492875099182e-02 1.511436104774475098e-01 1.644906550645828247e-01 2.513631805777549744e-02 -3.855788707733154297e-01 -4.024711251258850098e-01 -2.242534756660461426e-01 1.824466884136199951e-01
-9.514280557632446289e-01 8.152109384536743164e-01 -7.746260166168212891e-01 -3.444828689098358154e-01 1.611610651016235352e-01 4.980902969837188721e-01 3.720024228096008301e-01 4.965049624443054199e-01 -1.169020403176546097e-02 7.904307544231414795e-02 -9.181869029998779297e-02 -2.006700336933135986e-01 1.015347987413406372e-01 -2.920931279659271240e-01 4.828914627432823181e-02 -1.415397077798843384e-01 -3.995085135102272034e-03 -8.918377757072448730e-02 5.200766026973724365e-02 -1.603710353374481201e-01 7.036913931369781494e-02 -2.117895931005477905e-01 2.814861238002777100e-01 1.380674391984939575e-01 -1.986725777387619019e-01 -1.767802983522415161e-01 1.366410702466964722e-01 -2.109548449516296387e-01
-3.033482134342193604e-01 6.605787873268127441e-01 -1.265186786651611328e+00 -1.281155347824096680e-01 -1.737362146377563477e-01 5.534143447875976562e-01 3.442756533622741699e-01 1.463724374771118164e-01 -1.980365626513957977e-02 2.365778088569641113e-01 -1.232609227299690247e-01 -1.748771816492080688e-01 9.286765009164810181e-02 -2.051258683204650879e-01 2.710867226123809814e-01 -8.936792612075805664e-02 -1.455061286687850952e-01 -1.118904501199722290e-01 -1.716706156730651855e-01 2.195760458707809448e-01 -1.172466017305850983e-02 1.157668158411979675e-01 -1.105530411005020142e-01 2.440031468868255615e-01 2.585006952285766602e-01 8.671135455369949341e-02 1.300605237483978271e-01 1.769921630620956421e-01
-8.329806476831436157e-02 3.172873556613922119e-01 -9.394291043281555176e-01 -2.838041484355926514e-01 -5.022121220827102661e-02 2.904832363128662109e-01 2.331078052520751953e-01 2.429601550102233887e-01 -1.662688795477151871e-03 6.774977594614028931e-02 -2.199509292840957642e-01 -1.108598932623863220e-01 1.110441759228706360e-01 -1.990547776222229004e-01 2.367361336946487427e-01 -2.874779328703880310e-02 -9.513534605503082275e-02 3.921339213848114014e-01 -2.350141704082489014e-01 3.269174695014953613e-01 -1.798214763402938843e-01 -2.823986709117889404e-01 3.251883983612060547e-01 -2.103982120752334595e-01 2.605076432228088379e-01 4.773389101028442383e-01 -1.980632692575454712e-01 -1.314221601933240891e-02
3.507392406463623047e-01 1.605437695980072021e-01 -5.908754467964172363e-01 -2.826339304447174072e-01 -2.200301885604858398e-01 9.675614833831787109e-01 7.860358804464340210e-02 2.629191577434539795e-01 -6.471779942512512207e-02 1.002633199095726013e-01 1.923620998859405518e-01 -1.597283035516738892e-01 2.413491532206535339e-02 -3.043594360351562500e-01 2.781793773174285889e-01 -3.917185217142105103e-02 -4.449740946292877197e-01 -2.775948941707611084e-01 1.694239675998687744e-01 1.951051801443099976e-01 2.661815844476222992e-02 -1.356403529644012451e-01 -2.873204052448272705e-01 7.382311671972274780e-02 4.270856827497482300e-02 4.760524034500122070e-01 -7.423626631498336792e-02 -9.337284564971923828e-01
-1.761017441749572754e-01 -5.138648673892021179e-02 -4.672309756278991699e-01 -2.967809699475765228e-02 -2.651599347591400146e-01 2.271554321050643921e-01 2.237897515296936035e-01 5.961465835571289062e-01 4.101788252592086792e-02 8.905711024999618530e-02 8.909969590604305267e-03 -1.465662866830825806e-01 1.251416802406311035e-01 -2.053871378302574158e-02 3.545587658882141113e-01 -8.786067366600036621e-02 1.010966226458549500e-01 -7.446072697639465332e-01 -2.928856313228607178e-01 -3.897124826908111572e-01 2.564469538629055023e-02 3.893133401870727539e-01 -9.577918797731399536e-02 -1.079056337475776672e-01 -4.773920401930809021e-02 2.702234983444213867e-01 -2.526863217353820801e-01 -8.169972151517868042e-02
3.808353841304779053e-02 3.353408575057983398e-01 -6.167755126953125000e-01 -4.216791391372680664e-01 -7.173495739698410034e-02 4.126958549022674561e-01 2.824985980987548828e-01 2.464877665042877197e-01 4.126065373420715332e-01 -7.126878201961517334e-02 -3.943625837564468384e-02 -8.581496775150299072e-02 -1.825894787907600403e-02 -1.788453385233879089e-02 3.892745375633239746e-01 1.593887805938720703e-01 2.011539340019226074e-01 -2.891822755336761475e-01 -7.145189493894577026e-02 -4.713381528854370117e-01 -4.555451273918151855e-01 1.911704093217849731e-01 3.106835670769214630e-02 1.092284396290779114e-01 -3.667429834604263306e-02 -2.301352620124816895e-01 -2.774868346750736237e-02 -9.691966325044631958e-02
1.591486483812332153e-02 -9.862346202135086060e-02 -6.641067862510681152e-01 -2.445905208587646484e-01 2.351030707359313965e-01 3.540713787078857422e-01 3.817260861396789551e-01 3.328509628772735596e-01 -4.069321155548095703e-01 1.132784262299537659e-01 1.345784366130828857e-01 -2.692905664443969727e-01 -1.072474718093872070e-01 -1.307942867279052734e-01 1.672455668449401855e-02 -8.521832525730133057e-02 1.581873595714569092e-01 -6.626091003417968750e-01 -1.983389854431152344e-01 1.923396252095699310e-02 5.602932348847389221e-02 1.352564245462417603e-01 -9.169074147939682007e-02 1.699018329381942749e-01 -2.960226237773895264e-01 1.764903366565704346e-01 -9.301853179931640625e-02 -5.982038974761962891e-01
2.373743429780006409e-02 1.274388730525970459e-01 -2.068149298429489136e-01 -8.888065814971923828e-02 8.133881539106369019e-02 -1.544320434331893921e-01 1.076092645525932312e-01 2.225960493087768555e-01 -6.607905775308609009e-02 -1.245784610509872437e-01 3.567989468574523926e-01 -4.545261338353157043e-02 -3.026047348976135254e-01 4.806068260222673416e-03 6.450916826725006104e-02 2.936078906059265137e-01 8.975496888160705566e-02 -3.587651848793029785e-01 2.638832032680511475e-01 3.077258467674255371e-01 -7.719626277685165405e-02 -2.208233475685119629e-01 -1.160913482308387756e-01 9.073814004659652710e-02 2.431194484233856201e-02 1.878348141908645630e-01 4.602406919002532959e-01 -3.460771441459655762e-01
-7.817599773406982422e-01 6.008758544921875000e-01 -1.147184967994689941e-01 -1.772050261497497559e-01 1.519629508256912231e-01 -1.783176064491271973e-01 -3.202891647815704346e-01 3.647315204143524170e-01 2.317400425672531128e-01 1.440267562866210938e-01 1.417738795280456543e-01 -5.406560003757476807e-02 -5.366564989089965820e-01 1.826480627059936523e-01 -1.379955261945724487e-01 -1.969037652015686035e-01 1.809463948011398315e-01 4.002592340111732483e-02 2.155639827251434326e-01 -1.349062621593475342e-01 -2.842277288436889648e-01 1.412182897329330444e-01 -2.273675054311752319e-01 -5.309933796525001526e-03 3.594059348106384277e-01 -1.139118298888206482e-01 5.882202833890914917e-02 -2.704970836639404297e-01
-3.377351462841033936e-01 2.204620093107223511e-01 -2.050837278366088867e-01 -1.407936811447143555e-01 4.046165347099304199e-01 -1.846991777420043945e-01 -1.025771796703338623e-01 -3.932372853159904480e-02 2.849859893321990967e-01 2.635082304477691650e-01 6.058425828814506531e-02 -7.021033763885498047e-02 -2.177298218011856079e-01 2.748669981956481934e-01 1.421609222888946533e-01 -1.321408897638320923e-01 -1.350458860397338867e+00 -3.882538378238677979e-01 3.428044319152832031e-01 -4.379935264587402344e-01 -7.301864027976989746e-02 -5.159090831875801086e-02 -2.226939350366592407e-01 -4.704818502068519592e-02 1.834388226270675659e-01 -1.100910753011703491e-01 1.872525811195373535e-01 6.954637169837951660e-01
-1.112089037895202637e+00 1.917740553617477417e-01 6.662760972976684570e-01 5.948795676231384277e-01 4.534251689910888672e-01 6.962452083826065063e-02 -1.475828438997268677e-01 -5.796709284186363220e-02 4.442697763442993164e-02 6.719404458999633789e-02 -7.442641258239746094e-02 -4.744163528084754944e-02 7.606125436723232269e-03 5.626572966575622559e-01 4.625399038195610046e-02 8.615422993898391724e-02 -9.540274739265441895e-01 -8.875595331192016602e-01 -4.012986123561859131e-01 -8.763760328292846680e-01 -3.584188520908355713e-01 -2.610177695751190186e-01 -2.419980913400650024e-01 -3.382889553904533386e-02 1.324674189090728760e-01 1.616218090057373047e-01 6.381800770759582520e-02 -5.597378015518188477e-01
-4.460845887660980225e-01 1.190678954124450684e+00 7.861346602439880371e-01 9.838911294937133789e-01 8.876162171363830566e-01 -3.787660002708435059e-01 -7.903200387954711914e-01 -5.191060900688171387e-01 2.844426929950714111e-01 2.338780015707015991e-01 6.579632312059402466e-02 1.384000629186630249e-01 8.350822329521179199e-02 3.593838214874267578e-01 -8.720542192459106445e-01 -9.391400814056396484e-01 -1.330168604850769043e+00 -2.985579669475555420e-01 -6.519313454627990723e-01 -5.108797550201416016e-01 -3.723346590995788574e-01 2.416523545980453491e-01 2.825469970703125000e-01 2.778714895248413086e-01 -4.262119531631469727e-01 -2.444427758455276489e-01 -1.030039191246032715e+00 8.402842879295349121e-01
