-1.404868811368942261e-02 -1.036247611045837402e-02 7.757954299449920654e-03 -2.503655850887298584e-04 -1.574584096670150757e-02 3.655407577753067017e-03 2.856126055121421814e-02 -3.293161094188690186e-02 2.484335750341415405e-02 -1.785878650844097137e-02 1.711823046207427979e-02 1.884471252560615540e-02 2.473947778344154358e-02 -9.502990171313285828e-03 -1.774453744292259216e-02 -1.148818247020244598e-02 -2.061897143721580505e-02 -8.490469306707382202e-03 -1.318161375820636749e-02 3.022018447518348694e-02 2.667254209518432617e-02 1.073190197348594666e-02 -3.222637996077537537e-02 9.125895798206329346e-03 -2.401010133326053619e-02 -3.353212401270866394e-02 2.292075008153915405e-02 1.930149644613265991e-02
1.288519799709320068e-02 1.382958516478538513e-02 1.831446215510368347e-02 1.336025074124336243e-02 3.335034474730491638e-02 -1.449480280280113220e-02 -1.994673162698745728e-03 9.181611239910125732e-03 2.124983072280883789e-02 2.479964867234230042e-02 -7.094230502843856812e-03 -2.849170751869678497e-02 1.771599054336547852e-02 -2.629763819277286530e-02 3.191109895706176758e-01 3.477712571620941162e-01 2.799092531204223633e-01 -1.452927477657794952e-02 -3.467796742916107178e-02 -9.862283244729042053e-03 -2.075330913066864014e-02 -2.390041574835777283e-02 1.558376848697662354e-02 2.618705481290817261e-02 1.289866864681243896e-03 2.826993539929389954e-02 -1.534906029701232910e-02 -3.459095582365989685e-02
-1.677761413156986237e-02 2.054836973547935486e-02 1.568097248673439026e-02 8.806403726339340210e-03 3.514987602829933167e-02 1.829686388373374939e-02 -3.383200988173484802e-02 -7.234513759613037109e-03 -1.149120926856994629e-02 -2.702515572309494019e-03 -9.529475867748260498e-02 -8.480466902256011963e-02 3.527776896953582764e-01 6.031056642532348633e-01 9.387602210044860840e-01 6.299515366554260254e-01 5.938062071800231934e-01 3.453387916088104248e-01 9.153931587934494019e-02 2.441132664680480957e-01 1.742094904184341431e-01 2.037077397108078003e-02 1.510868221521377563e-02 2.985342964529991150e-02 1.914416626095771790e-02 1.346518099308013916e-02 1.620345935225486755e-02 -1.720540225505828857e-03
-1.580912619829177856e-03 -2.017291635274887085e-02 6.889847666025161743e-02 7.969775050878524780e-02 2.331069856882095337e-02 -4.185653328895568848e-01 -4.708476364612579346e-01 -3.364560902118682861e-01 -5.995463728904724121e-01 -1.174379698932170868e-02 7.693514227867126465e-02 -6.005185842514038086e-01 -1.691428720951080322e-01 3.604391813278198242e-01 2.096731364727020264e-01 3.851661086082458496e-02 4.145539700984954834e-01 -8.657763898372650146e-02 -1.062102913856506348e-01 -4.937913641333580017e-02 1.872212812304496765e-02 1.302406340837478638e-01 4.993848502635955811e-02 1.382814347743988037e-01 2.763865515589714050e-02 -3.374853730201721191e-02 -8.416891098022460938e-03 2.005990594625473022e-03
2.433809265494346619e-02 -3.065994940698146820e-02 1.089250668883323669e-01 -2.021932788193225861e-02 9.500348567962646484e-02 -1.282414197921752930e-01 -2.733136117458343506e-01 -1.001165658235549927e-01 2.392397671937942505e-01 2.051925063133239746e-01 -8.994213491678237915e-02 -2.636013329029083252e-01 -3.366807475686073303e-02 9.272080659866333008e-02 -7.183239609003067017e-02 -9.706733375787734985e-02 1.201036125421524048e-01 -8.310481905937194824e-02 3.898900374770164490e-02 -7.207081466913223267e-02 4.392536282539367676e-01 -1.851112842559814453e-01 -1.724412143230438232e-01 3.389260470867156982e-01 3.915198445320129395e-01 3.034601733088493347e-02 2.086393535137176514e-02 -2.625009976327419281e-02
-1.511128060519695282e-02 1.943626999855041504e-02 1.551955044269561768e-01 -1.611709296703338623e-01 2.626285851001739502e-01 2.136784046888351440e-01 -5.253815278410911560e-02 -1.214901953935623169e-01 2.143981680274009705e-02 1.282623857259750366e-01 -1.470262259244918823e-01 -1.457356661558151245e-01 -2.388780266046524048e-01 -1.420161724090576172e-01 8.114686608314514160e-02 1.167716830968856812e-02 9.354179352521896362e-02 -3.899126127362251282e-02 1.548070739954710007e-02 7.965212315320968628e-02 4.976792335510253906e-01 -2.208483517169952393e-01 -8.616089820861816406e-02 2.642067074775695801e-01 1.837110519409179688e-01 7.530395686626434326e-02 4.861067980527877808e-02 -3.476725891232490540e-02
-1.881683804094791412e-02 -1.431527920067310333e-02 -6.569967605173587799e-03 -2.735030651092529297e-01 -1.011504232883453369e-01 -5.091518759727478027e-01 -1.141530200839042664e-01 8.519032597541809082e-02 -6.792253255844116211e-02 -3.629427254199981689e-01 -1.214947253465652466e-01 -1.058742254972457886e-01 -2.271680720150470734e-02 -1.881604045629501343e-01 1.424426883459091187e-01 2.841459214687347412e-01 1.637823432683944702e-01 6.371439248323440552e-02 1.647910475730895996e-01 1.190584152936935425e-01 5.247623920440673828e-01 4.870741441845893860e-02 6.492300331592559814e-02 1.086719930171966553e-01 1.878258883953094482e-01 1.089455038309097290e-01 -6.357192993164062500e-03 1.031123101711273193e-04
-1.329100690782070160e-02 2.121257595717906952e-02 1.464626193046569824e-02 -2.324248850345611572e-01 -7.779303193092346191e-01 -4.719505906105041504e-01 -1.834886223077774048e-01 7.006007432937622070e-02 -2.153922319412231445e-01 -1.471934020519256592e-01 8.212169259786605835e-02 1.188110327348113060e-03 -1.915464997291564941e-01 -2.626606225967407227e-01 -7.024325896054506302e-03 1.489170491695404053e-01 1.435599476099014282e-02 -8.679913356900215149e-03 1.611098498106002808e-01 3.399161994457244873e-02 2.782029211521148682e-01 2.091668359935283661e-02 1.509329527616500854e-01 -1.336018592119216919e-01 2.301061600446701050e-01 1.072420701384544373e-01 7.418198138475418091e-02 -2.086018025875091553e-02
2.130186185240745544e-02 -3.587381169199943542e-02 4.192855209112167358e-02 -1.939515769481658936e-01 -7.600834965705871582e-01 -3.966106474399566650e-01 -2.840887606143951416e-01 2.306590601801872253e-02 3.276780843734741211e-01 -1.653794646263122559e-01 -1.157580912113189697e-01 1.868773717433214188e-03 -8.152708411216735840e-02 -9.354615467600524426e-04 7.969166338443756104e-02 -6.929749250411987305e-02 -2.049650698900222778e-01 5.405253544449806213e-02 -1.033002585172653198e-01 -1.915361881256103516e-01 -1.830227226018905640e-01 8.467181771993637085e-02 5.055996775627136230e-01 4.842511552851647139e-04 6.476305425167083740e-02 2.090853452682495117e-02 -1.313078962266445160e-02 2.581243589520454407e-02
-3.171370550990104675e-02 5.552827566862106323e-02 3.152896091341972351e-02 -3.275040388107299805e-01 -1.006739139556884766e+00 -6.600692868232727051e-01 -4.678711295127868652e-01 -9.811748564243316650e-02 9.922198206186294556e-02 2.712455391883850098e-02 1.876919120550155640e-01 2.431116998195648193e-01 7.553174346685409546e-02 -5.312786251306533813e-02 7.042293995618820190e-02 -3.127105068415403366e-03 -1.097846776247024536e-01 -2.088809758424758911e-01 -3.319081962108612061e-01 -3.016168177127838135e-01 -5.928738713264465332e-01 -6.096078082919120789e-02 3.054473921656608582e-02 6.164867803454399109e-02 9.139266610145568848e-02 9.395885467529296875e-02 1.155681312084197998e-01 -1.626470312476158142e-02
1.314208284020423889e-02 8.991381525993347168e-02 3.123350441455841064e-03 -2.051753252744674683e-01 -3.057993948459625244e-01 -7.285135388374328613e-01 -1.883044540882110596e-01 -1.010706722736358643e-01 1.523005366325378418e-01 6.390533596277236938e-02 9.882380068302154541e-02 2.849994972348213196e-02 5.556882359087467194e-03 -4.452026262879371643e-02 -5.353531241416931152e-02 1.681291013956069946e-01 -2.971922233700752258e-02 -2.078090161085128784e-01 -5.465669631958007812e-01 -2.624101340770721436e-01 -5.321568846702575684e-01 -4.893440306186676025e-01 7.583212107419967651e-02 2.362140566110610962e-01 -6.074498873203992844e-03 2.023389339447021484e-01 2.546222805976867676e-01 1.013115048408508301e-01
2.744103595614433289e-02 7.050924003124237061e-02 1.067194417119026184e-01 -9.672679752111434937e-02 1.162896677851676941e-01 6.858100742101669312e-02 5.432105064392089844e-02 2.547401189804077148e-01 -1.129161845892667770e-02 1.059329733252525330e-01 1.892274767160415649e-01 7.758276164531707764e-02 -5.147639289498329163e-02 -1.912156790494918823e-01 -9.272519499063491821e-02 9.376352280378341675e-02 2.352530062198638916e-01 -1.697615347802639008e-02 -3.911136686801910400e-01 -4.047089219093322754e-01 -4.912541210651397705e-01 -8.177671581506729126e-02 2.945640981197357178e-01 2.733786404132843018e-01 1.149479150772094727e-01 2.010839879512786865e-01 1.964603215456008911e-01 1.713900715112686157e-01
-1.818666793406009674e-02 -5.764551460742950439e-04 4.210979491472244263e-02 -9.886073321104049683e-02 2.399036884307861328e-01 1.002225279808044434e-01 -8.727411739528179169e-03 8.022888749837875366e-02 2.186564952135086060e-01 1.980932950973510742e-01 2.843092381954193115e-01 3.677716478705406189e-02 -1.722492277622222900e-01 4.198700934648513794e-02 1.337825227528810501e-02 2.042567580938339233e-01 1.972687095403671265e-01 1.222276762127876282e-01 7.979262620210647583e-02 -6.796677112579345703e-01 -4.154024720191955566e-01 1.383871585130691528e-01 1.642221957445144653e-01 1.413306593894958496e-01 1.776713728904724121e-01 2.389917224645614624e-01 5.710770562291145325e-02 1.243371069431304932e-01
1.169042512774467468e-01 -3.172037005424499512e-02 7.636938244104385376e-02 -2.534410171210765839e-02 2.251158803701400757e-01 6.432542949914932251e-02 1.896341331303119659e-02 -5.809248983860015869e-02 3.998509049415588379e-01 -5.552101065404713154e-04 1.347542405128479004e-01 6.257885601371526718e-03 9.755674004554748535e-02 -2.692323327064514160e-01 1.445525437593460083e-01 8.627490699291229248e-02 1.380945593118667603e-01 1.359243094921112061e-01 2.273229509592056274e-01 -2.045474648475646973e-01 -2.357266247272491455e-01 -1.940718293190002441e-01 -1.259498205035924911e-02 -1.253040432929992676e-01 1.358063425868749619e-02 2.434597015380859375e-01 8.487995713949203491e-02 -1.145167835056781769e-02
-1.567157730460166931e-02 -1.239038072526454926e-02 1.294606178998947144e-01 8.824285119771957397e-02 2.550148069858551025e-01 1.480271816253662109e-01 8.689810335636138916e-02 -4.099602997303009033e-01 1.769351661205291748e-01 1.868961453437805176e-01 1.599292904138565063e-01 1.980023682117462158e-01 -3.753057913854718208e-03 -1.727005243301391602e-01 7.969745993614196777e-02 7.158781588077545166e-02 1.826303601264953613e-01 4.279959201812744141e-02 -3.392357230186462402e-01 -9.389709234237670898e-01 -4.490534961223602295e-01 -3.990403115749359131e-01 -3.340473175048828125e-01 -3.390255868434906006e-01 -1.197562143206596375e-01 1.109037846326828003e-01 8.940045535564422607e-02 -3.195454552769660950e-02
-1.620941981673240662e-02 2.268861979246139526e-02 1.900112926959991455e-01 1.757644563913345337e-01 1.460421085357666016e-01 -3.985776007175445557e-02 -2.876827120780944824e-02 3.671429455280303955e-01 3.167739510536193848e-01 4.112397134304046631e-01 2.180909812450408936e-01 -8.568473160266876221e-02 -1.425380557775497437e-01 -1.876907944679260254e-01 -1.034910082817077637e-01 2.803753316402435303e-01 2.786574512720108032e-02 -1.042037904262542725e-01 -5.996517539024353027e-01 -7.822083234786987305e-01 -1.415967583656311035e+00 -4.320292174816131592e-01 -3.518562316894531250e-01 -5.539051890373229980e-01 -2.598050832748413086e-01 1.399205327033996582e-01 5.018067732453346252e-02 -4.093181341886520386e-03
2.698421105742454529e-02 1.346970945596694946e-01 1.641449481248855591e-01 -2.276218309998512268e-02 -8.351117372512817383e-02 1.988626271486282349e-01 1.823445707559585571e-01 1.477144211530685425e-01 1.621152609586715698e-01 2.256692200899124146e-01 7.228091359138488770e-02 -2.432074993848800659e-01 -5.094757080078125000e-01 -1.594598293304443359e-01 1.616068780422210693e-01 2.026174664497375488e-01 3.403572598472237587e-03 -4.576255381107330322e-01 -6.109269261360168457e-01 -8.979018330574035645e-01 -6.984000802040100098e-01 -7.142996191978454590e-01 -1.886150985956192017e-01 -4.259892702102661133e-01 1.394116282463073730e-01 9.734047204256057739e-02 8.840133249759674072e-02 -2.957830764353275299e-02
2.562555298209190369e-02 1.634335517883300781e-01 8.746797218918800354e-03 -7.724636793136596680e-02 -1.489854604005813599e-01 4.897581636905670166e-01 2.450917512178421021e-01 2.257846146821975708e-01 2.717034518718719482e-01 8.964692056179046631e-02 -1.814711689949035645e-01 -5.698286294937133789e-01 -2.655572593212127686e-01 1.208982057869434357e-02 7.157421708106994629e-01 2.398449778556823730e-01 -1.859356313943862915e-01 -4.807364642620086670e-01 -1.549435853958129883e-01 -1.669653952121734619e-01 7.766819745302200317e-02 -4.154565036296844482e-01 3.551111519336700439e-01 1.779587864875793457e-01 2.253334969282150269e-02 1.164606958627700806e-01 1.782041192054748535e-01 8.109284192323684692e-02
6.006725504994392395e-02 1.165387406945228577e-01 2.699685841798782349e-02 -1.698582619428634644e-01 -3.862742185592651367e-01 -1.167293563485145569e-01 -5.798362940549850464e-02 8.615013211965560913e-02 4.114334583282470703e-01 6.760208308696746826e-02 -5.133375525474548340e-01 -5.178915858268737793e-01 -2.038538828492164612e-02 7.379434257745742798e-02 5.160506367683410645e-01 1.474971175193786621e-01 -3.799676895141601562e-01 -6.639474630355834961e-02 4.760474339127540588e-02 1.444521099328994751e-01 2.058847844600677490e-01 1.972483992576599121e-01 1.967540979385375977e-01 3.385580778121948242e-01 3.103866875171661377e-01 1.572794467210769653e-01 1.342573910951614380e-01 3.618958592414855957e-01
8.657128363847732544e-02 7.520174235105514526e-02 2.297959104180335999e-02 -4.157426953315734863e-02 -4.432173669338226318e-01 -5.426297187805175781e-01 -8.486300110816955566e-01 -1.278413683176040649e-01 -5.865874886512756348e-01 -4.491893351078033447e-01 -3.834251165390014648e-01 -1.199259907007217407e-01 5.626068636775016785e-02 3.130938112735748291e-01 3.785419762134552002e-01 2.012049853801727295e-01 3.173833191394805908e-01 -1.834131032228469849e-01 -7.847654074430465698e-02 1.355611681938171387e-01 3.379681110382080078e-01 2.994147539138793945e-01 -1.162163391709327698e-01 3.321053683757781982e-01 3.886114954948425293e-01 3.601727783679962158e-01 7.218687981367111206e-02 3.615780472755432129e-01
3.122752532362937927e-02 2.798986248672008514e-02 -3.560174629092216492e-02 -1.293853819370269775e-01 3.434147313237190247e-02 -5.564067363739013672e-01 -9.063415229320526123e-02 -3.787502050399780273e-01 -2.591015398502349854e-01 -3.050319850444793701e-01 -3.517903387546539307e-01 -2.458735406398773193e-01 2.277204990386962891e-01 2.825300097465515137e-01 2.801171541213989258e-01 4.936432540416717529e-01 3.358542323112487793e-01 4.038566350936889648e-01 6.412745714187622070e-01 -2.363531151786446571e-03 2.085936963558197021e-01 6.575473397970199585e-02 -5.428685247898101807e-02 5.475410073995590210e-02 4.965331554412841797e-01 5.307864546775817871e-01 9.879470616579055786e-02 8.936873078346252441e-02
9.870392829179763794e-02 8.953649550676345825e-02 -4.864953458309173584e-02 -2.472309954464435577e-02 4.397530555725097656e-01 2.894833311438560486e-02 1.521503627300262451e-01 -1.314013004302978516e-01 -8.070576936006546021e-02 -3.061768710613250732e-01 -2.626023888587951660e-01 -1.986985653638839722e-01 1.046099513769149780e-01 3.891143202781677246e-01 3.296549022197723389e-01 1.405198723077774048e-01 2.330703884363174438e-01 1.966651082038879395e-01 4.775282442569732666e-01 2.015936002135276794e-02 3.879336416721343994e-01 4.972628653049468994e-01 -1.467859745025634766e-01 -1.196654289960861206e-01 3.519856333732604980e-01 4.359002709388732910e-01 2.272437512874603271e-01 1.804649829864501953e-03
6.971628218889236450e-02 5.703174322843551636e-02 -1.379120629280805588e-02 1.313155442476272583e-01 5.026957392692565918e-01 9.340135008096694946e-02 1.297862231731414795e-01 -1.246669590473175049e-01 -1.618487574160099030e-02 8.433835208415985107e-02 -2.662806510925292969e-01 -5.278429985046386719e-01 7.724376767873764038e-02 3.577912151813507080e-01 1.995570585131645203e-02 -1.397920493036508560e-02 9.914068132638931274e-02 5.526412129402160645e-01 4.007785022258758545e-01 5.368275195360183716e-02 5.798534750938415527e-01 4.222109317779541016e-01 -2.296246588230133057e-01 1.895457804203033447e-01 3.402757644653320312e-01 3.380385339260101318e-01 8.528233319520950317e-02 6.724692881107330322e-03
-1.532357558608055115e-02 -2.710423432290554047e-02 -2.852444164454936981e-02 -1.244913637638092041e-01 -2.534089684486389160e-01 -6.802473068237304688e-01 -2.530263960361480713e-01 -4.681573715060949326e-03 -2.402934283018112183e-01 -6.334915012121200562e-02 -4.191415011882781982e-01 -3.263939619064331055e-01 2.813729643821716309e-01 -8.678121492266654968e-03 -3.163202106952667236e-01 1.272363960742950439e-01 2.169722765684127808e-01 1.094835773110389709e-01 -1.386251449584960938e-01 1.203076317906379700e-01 2.844313383102416992e-01 9.144078195095062256e-02 1.527727991342544556e-01 3.149138689041137695e-01 -1.296416819095611572e-01 -7.802949845790863037e-02 2.469979822635650635e-01 -2.666243910789489746e-02
1.844025030732154846e-02 1.672330126166343689e-02 -2.864398434758186340e-02 -1.648302376270294189e-01 -2.501885294914245605e-01 -4.350224137306213379e-01 -6.908241510391235352e-01 -4.265019595623016357e-01 -6.496609449386596680e-01 -5.649510025978088379e-01 -5.524416565895080566e-01 -4.454861283302307129e-01 -2.894618213176727295e-01 -2.290781587362289429e-01 -4.475586414337158203e-01 7.007154077291488647e-02 -2.089136987924575806e-01 -3.085241913795471191e-01 2.966251075267791748e-01 1.507712155580520630e-01 1.263765841722488403e-01 4.643124043941497803e-01 2.739112079143524170e-01 2.125246971845626831e-01 1.504985988140106201e-02 9.738736599683761597e-02 1.037304922938346863e-01 2.876212820410728455e-02
-1.816343143582344055e-02 -1.121636480093002319e-03 8.795209228992462158e-03 -1.895220018923282623e-02 -1.528280079364776611e-01 -1.495830118656158447e-01 -1.415330022573471069e-01 -7.543922215700149536e-02 -1.405780017375946045e-01 -4.808277189731597900e-01 -6.130090355873107910e-01 -4.607221484184265137e-01 -1.698594093322753906e-01 -1.237801685929298401e-01 -1.568134874105453491e-01 -7.688454538583755493e-02 -7.502351403236389160e-01 -9.150128960609436035e-01 -8.287675380706787109e-01 -7.940638661384582520e-01 -6.662266850471496582e-01 -5.993339046835899353e-02 -7.348377257585525513e-02 -2.966914512217044830e-02 2.786355093121528625e-02 -2.072875201702117920e-02 -2.180226147174835205e-03 7.505036890506744385e-03
-1.075077056884765625e-02 1.114470139145851135e-02 1.223906874656677246e-02 2.379196137189865112e-02 2.025122381746768951e-02 -2.016606740653514862e-02 -2.430042251944541931e-02 4.617017111741006374e-04 -1.685544615611433983e-03 1.155760977417230606e-02 -2.331636846065521240e-01 -2.238613516092300415e-01 -2.605095207691192627e-01 -7.033699750900268555e-02 4.821999743580818176e-02 -2.343086060136556625e-03 -1.274666637182235718e-01 -4.242902994155883789e-01 -1.311841160058975220e-01 -9.627538174390792847e-02 -1.132645756006240845e-01 -5.225378274917602539e-02 -4.943269863724708557e-02 2.627663314342498779e-03 3.306031227111816406e-03 2.498611062765121460e-02 -3.252939507365226746e-02 2.958856150507926941e-02
-1.822284795343875885e-02 -2.665994130074977875e-02 1.164525747299194336e-02 -5.229333415627479553e-03 3.525298461318016052e-02 -4.447139799594879150e-03 3.303596004843711853e-02 -1.799011789262294769e-02 6.829150021076202393e-03 2.378815039992332458e-02 -2.032409980893135071e-02 2.635908499360084534e-02 1.771583035588264465e-02 -1.567918993532657623e-02 2.991471067070960999e-02 3.069685027003288269e-02 2.178955078125000000e-02 -3.311796113848686218e-02 2.380593121051788330e-02 2.959752455353736877e-02 2.686117216944694519e-02 -1.802327111363410950e-02 -2.141890861093997955e-02 2.348613366484642029e-02 1.766756176948547363e-02 -6.431460380554199219e-03 2.234500274062156677e-02 -3.264426812529563904e-02
