-2.242164313793182373e-02 -3.528461977839469910e-02 8.039094507694244385e-03 -6.403366103768348694e-03 2.147056534886360168e-02 -1.655478030443191528e-03 -1.351433247327804565e-02 1.590039208531379700e-02 2.647506818175315857e-02 -3.168554604053497314e-02 -2.032052725553512573e-03 3.474399074912071228e-02 -1.445847004652023315e-02 2.941871061921119690e-02 3.629196435213088989e-03 -3.133765980601310730e-02 4.094537347555160522e-03 7.349338382482528687e-03 1.955755054950714111e-03 1.424365118145942688e-02 -5.913674831390380859e-03 3.062237054109573364e-03 1.330762356519699097e-02 9.137388318777084351e-03 -2.230426296591758728e-02 -2.996229007840156555e-02 1.938396692276000977e-02 -1.948016881942749023e-02
-2.767641842365264893e-02 2.335254848003387451e-02 2.414168044924736023e-02 -2.848250605165958405e-02 -2.999509871006011963e-02 -1.883313991129398346e-02 1.035307720303535461e-02 -1.815845444798469543e-02 1.701057702302932739e-02 -1.832789741456508636e-02 -2.021399140357971191e-02 2.995789051055908203e-03 -2.798211760818958282e-02 -2.326225861907005310e-02 -8.563674986362457275e-03 -4.788088053464889526e-02 -3.988594934344291687e-02 1.324221864342689514e-02 2.670715749263763428e-02 -1.402540691196918488e-02 2.015756815671920776e-02 1.149919256567955017e-02 2.937185391783714294e-02 -1.701058261096477509e-02 -8.872369304299354553e-03 -1.253886707127094269e-02 -1.991244778037071228e-02 -1.121261343359947205e-02
-3.072614036500453949e-02 -3.031814284622669220e-02 8.926328271627426147e-03 3.293071314692497253e-02 -2.027387358248233795e-02 3.100600466132164001e-02 -1.280602812767028809e-02 1.531039178371429443e-02 3.077019006013870239e-03 2.085073292255401611e-02 1.682878136634826660e-01 1.921170949935913086e-01 2.215242572128772736e-02 -2.393250912427902222e-01 -3.291957080364227295e-01 -1.110032275319099426e-01 -4.354593455791473389e-01 -3.247900903224945068e-01 -3.627332746982574463e-01 -9.837415814399719238e-02 -1.124992296099662781e-01 6.864998489618301392e-03 -3.541491553187370300e-02 2.255203574895858765e-02 -3.153263777494430542e-02 8.010976016521453857e-03 -2.245619893074035645e-02 3.367058560252189636e-02
1.653070002794265747e-02 -2.681488730013370514e-02 -1.002805586904287338e-02 -5.700463801622390747e-02 1.499340832233428955e-01 4.560810327529907227e-01 5.694029331207275391e-01 8.740516901016235352e-01 3.789680004119873047e-01 5.484646186232566833e-02 3.287850916385650635e-01 9.040641188621520996e-01 6.537703871726989746e-01 1.509790420532226562e-01 -1.911787688732147217e-02 -5.062073469161987305e-01 -6.856197118759155273e-01 -9.388358891010284424e-02 -1.651535183191299438e-01 -1.467362605035305023e-02 -1.392245292663574219e-02 -8.706670254468917847e-02 1.088373735547065735e-01 -2.466125786304473877e-02 1.095988228917121887e-02 -3.383129835128784180e-02 9.168628603219985962e-03 -3.995571285486221313e-03
1.394719257950782776e-02 2.696445025503635406e-02 7.809729129076004028e-02 4.558842480182647705e-01 9.763687103986740112e-02 1.451810747385025024e-01 3.819840252399444580e-01 8.380990028381347656e-01 1.339289844036102295e-01 3.028402477502822876e-02 3.673383593559265137e-01 5.733304619789123535e-01 5.421225428581237793e-01 5.111684203147888184e-01 4.286054968833923340e-01 6.011750921607017517e-02 -2.970750033855438232e-01 8.070466108620166779e-03 7.374666631221771240e-02 1.373395919799804688e-01 -1.129569187760353088e-01 5.573110580444335938e-01 5.297551751136779785e-01 2.615653350949287415e-02 -2.600888013839721680e-01 2.465192228555679321e-03 2.848899737000465393e-02 -3.244217857718467712e-02
-2.775036916136741638e-02 -2.036086283624172211e-02 1.008327230811119080e-01 7.807735800743103027e-01 7.769510149955749512e-02 -2.077627927064895630e-01 -6.970931589603424072e-02 3.979170620441436768e-01 1.737465411424636841e-01 1.114350035786628723e-01 5.377372503280639648e-01 8.563115596771240234e-01 6.618502736091613770e-01 1.233060881495475769e-01 -2.651644684374332428e-02 3.197644650936126709e-01 1.739813387393951416e-01 1.796996891498565674e-01 3.849583566188812256e-01 4.963831976056098938e-02 -1.992285698652267456e-01 2.951991558074951172e-01 -6.077639758586883545e-02 -3.648652881383895874e-02 1.603692471981048584e-01 -1.518854126334190369e-02 -5.313974618911743164e-02 3.557189181447029114e-02
-9.643308818340301514e-03 1.829707920551300049e-01 3.626565635204315186e-01 8.129134774208068848e-01 4.952420890331268311e-01 2.000762820243835449e-01 3.991013020277023315e-02 7.813641428947448730e-02 1.519907563924789429e-01 1.841453760862350464e-01 -9.940369427204132080e-02 3.105754256248474121e-01 2.952207028865814209e-01 2.944656610488891602e-01 1.112963706254959106e-01 3.014989793300628662e-01 1.916456073522567749e-01 1.144822835922241211e-01 1.984194964170455933e-01 1.015482991933822632e-01 -2.707945406436920166e-01 8.866865187883377075e-02 1.249045431613922119e-01 2.290841788053512573e-01 1.272356808185577393e-01 -4.343547299504280090e-02 2.141063287854194641e-02 2.195735648274421692e-02
1.395564898848533630e-02 3.033796250820159912e-01 3.996480703353881836e-01 8.483197689056396484e-01 5.304008126258850098e-01 1.287542879581451416e-01 -1.897067576646804810e-02 -3.009355254471302032e-02 2.496054321527481079e-01 3.962409868836402893e-02 3.039567470550537109e-01 3.108300864696502686e-01 1.073202267289161682e-01 3.259845674037933350e-01 1.597114354372024536e-01 3.309755921363830566e-01 2.502877116203308105e-01 3.773404061794281006e-01 3.491957187652587891e-01 -2.544630132615566254e-02 -1.946514099836349487e-01 -4.883619770407676697e-02 -1.710236305370926857e-03 1.771136820316314697e-01 -1.550154238939285278e-01 -5.741279199719429016e-02 -3.434969112277030945e-02 1.745350658893585205e-03
-3.083512745797634125e-02 2.792611122131347656e-01 3.744534850120544434e-01 8.544476032257080078e-01 5.165973901748657227e-01 1.936037689447402954e-01 5.339563637971878052e-02 2.534382976591587067e-02 -1.728193163871765137e-01 2.541118860244750977e-01 1.141239404678344727e-01 -3.758725523948669434e-01 -3.193959295749664307e-01 -2.387607544660568237e-01 -7.052402198314666748e-02 2.024130374193191528e-01 3.083481192588806152e-01 2.757365405559539795e-01 2.330902814865112305e-01 -7.316356152296066284e-02 2.602628767490386963e-01 1.679884195327758789e-01 -2.896983027458190918e-01 -1.859609335660934448e-01 -2.261618152260780334e-02 -1.600468158721923828e-02 -3.505118936300277710e-02 -3.520723804831504822e-02
4.056978970766067505e-03 1.014593839645385742e-01 2.497231364250183105e-01 9.527691006660461426e-01 5.546155571937561035e-01 4.226029813289642334e-01 2.032786607742309570e-01 1.641620844602584839e-01 3.919980674982070923e-02 2.088229805231094360e-01 -3.139588832855224609e-01 -3.955160081386566162e-01 -6.310825943946838379e-01 -4.566113054752349854e-01 -2.464001327753067017e-01 -2.142014652490615845e-01 -1.453381180763244629e-01 3.108271658420562744e-01 4.096985608339309692e-02 -1.967256702482700348e-02 1.884748041629791260e-01 3.626370131969451904e-01 3.931838870048522949e-01 4.808178246021270752e-01 -7.170496135950088501e-02 -1.181089784950017929e-02 -9.851931035518646240e-02 1.486571133136749268e-02
-2.392563223838806152e-02 9.283671528100967407e-02 2.108643352985382080e-01 8.612747788429260254e-01 2.725126743316650391e-01 4.323855638504028320e-01 4.373180568218231201e-01 2.881219387054443359e-01 -4.027024656534194946e-02 9.240250289440155029e-02 -2.807607352733612061e-01 -5.018522739410400391e-01 -5.232651829719543457e-01 -3.854205012321472168e-01 -3.076427280902862549e-01 -3.335771262645721436e-01 8.081943541765213013e-02 1.064431294798851013e-01 2.503472939133644104e-02 -6.991080939769744873e-02 2.399844229221343994e-01 6.445729136466979980e-01 4.394383132457733154e-01 2.746088206768035889e-01 2.031793445348739624e-01 -7.517496496438980103e-02 -1.199369207024574280e-01 -6.758338958024978638e-02
5.386102944612503052e-03 6.995531171560287476e-02 1.028336957097053528e-01 7.522779703140258789e-01 -8.501537144184112549e-02 -5.188473034650087357e-03 3.303053975105285645e-01 3.418275117874145508e-01 5.730081200599670410e-01 8.784409165382385254e-01 2.794753909111022949e-01 -2.234140634536743164e-01 -2.077097743749618530e-01 -6.024449318647384644e-02 -1.544295996427536011e-01 -1.316529512405395508e-01 -1.202150210738182068e-01 -6.397461146116256714e-02 1.545110046863555908e-01 8.438520878553390503e-02 2.829706370830535889e-01 6.239591240882873535e-01 1.228643953800201416e-01 5.831756070256233215e-02 4.694557189941406250e-02 -6.240697577595710754e-02 -1.188760176301002502e-01 -9.471865743398666382e-02
-2.829301916062831879e-02 1.168415918946266174e-01 -3.495710901916027069e-03 3.114294409751892090e-01 -1.636053472757339478e-01 4.211992025375366211e-02 8.468455821275711060e-02 2.818017005920410156e-01 5.564086437225341797e-01 8.674516081809997559e-01 6.309279799461364746e-01 2.127583771944046021e-01 3.275752663612365723e-01 1.443045735359191895e-01 2.660793662071228027e-01 -1.697132363915443420e-02 -3.559837937355041504e-01 -3.336581289768218994e-01 9.882190078496932983e-02 7.629691064357757568e-02 1.969942450523376465e-02 -9.269762039184570312e-02 -1.234802901744842529e-01 -2.056131809949874878e-01 1.644677072763442993e-01 7.895298302173614502e-03 -5.305811017751693726e-02 -1.208430677652359009e-01
-1.518120709806680679e-02 1.923097670078277588e-02 -3.810700401663780212e-02 4.094327390193939209e-01 -2.400725185871124268e-01 4.325488209724426270e-02 6.051016598939895630e-02 2.757716476917266846e-01 3.720034956932067871e-01 5.198082327842712402e-01 6.818982362747192383e-01 2.348675280809402466e-01 4.138685166835784912e-01 5.145365595817565918e-01 4.836392104625701904e-01 1.523486673831939697e-01 -4.085819423198699951e-01 -5.513571500778198242e-01 -2.651551067829132080e-01 2.630776166915893555e-01 3.983253613114356995e-02 -2.985466644167900085e-02 -9.471641480922698975e-02 4.315280914306640625e-01 1.472756862640380859e-01 -1.566076874732971191e-01 -6.241175532341003418e-02 -1.492330990731716156e-02
-3.064480982720851898e-02 1.034720912575721741e-01 6.969451159238815308e-02 5.074508488178253174e-03 -1.940755695104598999e-01 2.223536930978298187e-02 1.026938036084175110e-01 4.904652535915374756e-01 8.350785821676254272e-02 1.686347872018814087e-01 3.182104229927062988e-01 2.056310325860977173e-01 4.007067084312438965e-01 5.643202066421508789e-01 4.620174765586853027e-01 -2.937590479850769043e-01 -6.604897975921630859e-01 -4.578027427196502686e-01 1.023442372679710388e-01 2.768331468105316162e-01 9.672503918409347534e-02 5.914629697799682617e-01 2.227053195238113403e-01 5.384398102760314941e-01 2.338365465402603149e-01 -1.184910014271736145e-01 -8.270255476236343384e-02 3.898739814758300781e-04
6.851047277450561523e-03 6.626120209693908691e-02 1.188071593642234802e-01 -2.714796066284179688e-01 5.208044648170471191e-01 5.724205374717712402e-01 4.781642556190490723e-01 2.594632841646671295e-02 7.207185775041580200e-02 2.650802731513977051e-01 7.061166316270828247e-02 3.397909700870513916e-01 2.515243589878082275e-01 2.141583710908889771e-01 -2.962518669664859772e-02 -5.908966064453125000e-01 -3.714908659458160400e-01 -1.628520786762237549e-01 2.759986221790313721e-01 6.275299191474914551e-01 6.606670618057250977e-01 1.130116581916809082e+00 7.273464798927307129e-01 9.585644006729125977e-01 5.531701445579528809e-01 -1.376159638166427612e-01 6.313062459230422974e-02 -2.243292890489101410e-02
2.679924294352531433e-02 -7.636934053152799606e-03 2.462067753076553345e-01 5.754350423812866211e-01 4.295194149017333984e-01 2.589056789875030518e-01 1.196154877543449402e-01 -1.855367124080657959e-01 3.352059423923492432e-01 2.262938767671585083e-01 -1.212387606501579285e-01 1.889308914542198181e-02 -2.989913150668144226e-02 -1.552835553884506226e-01 -2.626436948776245117e-01 -5.459347367286682129e-01 -8.221494406461715698e-02 1.708230227231979370e-01 3.899599015712738037e-01 7.226648926734924316e-01 3.718433678150177002e-01 6.653216481208801270e-01 1.266180723905563354e-01 1.732599437236785889e-01 -2.985792458057403564e-01 -7.599330693483352661e-02 -2.635036781430244446e-02 7.959235459566116333e-03
5.185239017009735107e-03 6.161409243941307068e-02 3.534445762634277344e-01 8.092001080513000488e-01 5.849704742431640625e-01 -3.123614750802516937e-02 3.159618973731994629e-01 2.232227176427841187e-01 1.388508081436157227e-01 -2.746785432100296021e-02 -3.489495515823364258e-01 -2.299004197120666504e-01 -4.327302277088165283e-01 -4.092315435409545898e-01 -6.476507186889648438e-01 -3.183436989784240723e-01 1.085529401898384094e-01 4.326725304126739502e-01 1.251966655254364014e-01 2.532544434070587158e-01 2.109394818544387817e-01 4.198125600814819336e-01 -1.355007886886596680e-01 -1.905364096164703369e-01 -4.762303829193115234e-01 -8.907403051853179932e-02 -6.602729856967926025e-02 -3.324898332357406616e-02
-8.605307899415493011e-03 6.744990497827529907e-02 5.173147916793823242e-01 8.917101025581359863e-01 1.275888800621032715e+00 1.001272201538085938e+00 6.676619052886962891e-01 2.584994733333587646e-01 -2.618286311626434326e-01 -4.845215380191802979e-01 -2.811597287654876709e-01 -3.363203704357147217e-01 -5.570836067199707031e-01 -4.245328605175018311e-01 -5.342220067977905273e-01 -1.137114837765693665e-01 2.634811997413635254e-01 4.767739474773406982e-01 1.732169687747955322e-01 2.876556217670440674e-01 6.060161814093589783e-02 1.371635794639587402e-01 1.897570490837097168e-01 9.218565374612808228e-02 -1.399027407169342041e-01 -4.050563871860504150e-01 -9.613289684057235718e-02 -3.517982736229896545e-02
-4.913617670536041260e-02 8.411277085542678833e-02 6.800460815429687500e-01 9.964006543159484863e-01 9.795699715614318848e-01 5.784840583801269531e-01 1.112120673060417175e-01 2.360461503267288208e-01 3.776319697499275208e-02 -2.630710303783416748e-01 -2.824154794216156006e-01 -3.726166486740112305e-01 -4.174038171768188477e-01 -2.391229420900344849e-01 -2.774021625518798828e-01 5.899203941226005554e-02 1.994775980710983276e-01 4.284185171127319336e-01 2.801899239420890808e-02 8.103147894144058228e-02 -2.923700511455535889e-01 -1.614311039447784424e-01 -9.633506648242473602e-03 -2.804359197616577148e-01 -2.394092082977294922e-01 -3.761219084262847900e-01 -1.098623648285865784e-01 -3.389387950301170349e-02
1.269635558128356934e-02 2.148143649101257324e-01 6.933568120002746582e-01 1.263502955436706543e+00 1.113658547401428223e+00 5.579136013984680176e-01 -1.816595792770385742e-01 -2.419082969427108765e-01 -2.457498759031295776e-01 -2.636110186576843262e-01 -4.038337990641593933e-02 -1.209592372179031372e-01 -8.388976752758026123e-02 -1.073124259710311890e-01 2.888493053615093231e-02 1.300653517246246338e-01 2.061429023742675781e-01 -2.317655133083462715e-03 -4.356640577316284180e-01 2.279417961835861206e-01 -7.539577782154083252e-02 -2.382273599505424500e-02 -9.334621578454971313e-02 -2.472004741430282593e-01 -2.601023316383361816e-01 -4.149878025054931641e-01 -5.713463760912418365e-03 -5.368188023567199707e-02
-2.292916178703308105e-02 2.925158143043518066e-01 5.977129936218261719e-01 8.877046108245849609e-01 8.003307580947875977e-01 2.181320451200008392e-02 -3.253321051597595215e-01 -4.261162877082824707e-01 -3.930726945400238037e-01 -5.769183486700057983e-02 1.459880471229553223e-01 5.730284005403518677e-02 3.024497926235198975e-01 9.430850297212600708e-02 1.702167391777038574e-01 1.325340867042541504e-01 9.421907365322113037e-02 -1.902394741773605347e-01 -5.430099964141845703e-01 1.566651910543441772e-01 -4.569954425096511841e-02 -3.466119468212127686e-01 -6.985509395599365234e-02 -2.800342440605163574e-01 -3.336491584777832031e-01 -3.626272082328796387e-01 -8.125998079776763916e-02 1.247939094901084900e-02
-3.584749251604080200e-02 7.634907495230436325e-03 5.213062167167663574e-01 5.876893997192382812e-01 1.594371348619461060e-01 -1.573188006877899170e-01 -1.210161373019218445e-01 1.249660551548004150e-01 1.289377361536026001e-01 -6.772359460592269897e-02 2.554925084114074707e-01 5.478389859199523926e-01 5.444127321243286133e-01 3.146336376667022705e-01 1.925109922885894775e-01 3.961406350135803223e-01 2.530024945735931396e-02 -4.806400835514068604e-01 -4.298802614212036133e-01 1.319400817155838013e-01 -6.251908838748931885e-02 2.430897206068038940e-02 3.677583038806915283e-01 1.106627844274044037e-02 -3.750624358654022217e-01 -3.175960779190063477e-01 3.789643570780754089e-02 2.257767319679260254e-02
1.264152675867080688e-02 2.322358265519142151e-02 5.619543790817260742e-01 2.080857157707214355e-01 3.187510967254638672e-01 6.545330286026000977e-01 3.232261836528778076e-01 4.881427288055419922e-01 6.670430302619934082e-01 1.614073961973190308e-01 4.103603959083557129e-01 4.284429252147674561e-01 2.944405674934387207e-01 1.936929821968078613e-01 1.861888170242309570e-01 1.358444392681121826e-01 -7.243110239505767822e-02 -5.882672499865293503e-03 7.911973446607589722e-02 2.650177478790283203e-01 1.989998072385787964e-01 2.917529344558715820e-01 -9.704853594303131104e-02 -1.595923453569412231e-01 1.916422992944717407e-01 1.818659603595733643e-01 3.575536981225013733e-02 1.864361763000488281e-02
-2.471284009516239166e-02 -3.152471035718917847e-02 3.575706481933593750e-01 2.192975580692291260e-01 1.335292905569076538e-01 1.871877163648605347e-01 3.959084749221801758e-01 5.519941449165344238e-01 6.439322233200073242e-01 2.659741044044494629e-01 2.496033608913421631e-01 2.888686060905456543e-01 4.819159507751464844e-01 3.069776296615600586e-01 3.893053233623504639e-01 1.267342418432235718e-01 4.016487002372741699e-01 2.565907239913940430e-01 -1.617719531059265137e-01 1.050071716308593750e-01 5.100961402058601379e-02 -3.136701583862304688e-01 -1.830772012472152710e-01 -6.460106372833251953e-02 3.199873492121696472e-02 -5.678186193108558655e-02 -3.275176137685775757e-02 -2.726045809686183929e-02
2.377666160464286804e-02 -7.903181016445159912e-03 1.073174029588699341e-01 1.440612822771072388e-01 5.305894017219543457e-01 3.407099843025207520e-01 4.573420882225036621e-01 3.036864697933197021e-01 3.118998110294342041e-01 4.382714033126831055e-01 3.588421642780303955e-01 2.274300605058670044e-01 -1.207168847322463989e-01 -9.479296207427978516e-02 -4.999827593564987183e-02 6.247036457061767578e-01 1.093046188354492188e+00 1.076218724250793457e+00 8.245771527290344238e-01 7.252481579780578613e-01 6.636498570442199707e-01 3.687162995338439941e-01 2.044061273336410522e-01 -1.939130760729312897e-02 3.794223070144653320e-03 3.338311985135078430e-02 3.245589509606361389e-02 -1.306603290140628815e-02
2.090733498334884644e-02 -2.462016791105270386e-02 2.332907542586326599e-02 -2.551416121423244476e-02 3.994892910122871399e-02 1.015387549996376038e-01 1.330790966749191284e-01 1.328148692846298218e-01 1.812331378459930420e-01 1.999279260635375977e-01 2.322828322649002075e-01 3.081805408000946045e-01 6.949048638343811035e-01 5.947620272636413574e-01 2.509773373603820801e-01 7.537587732076644897e-02 2.409602552652359009e-01 5.546867251396179199e-01 3.810823261737823486e-01 3.351402878761291504e-01 3.058513402938842773e-01 1.786634027957916260e-01 1.122390478849411011e-01 1.278752833604812622e-02 1.106411218643188477e-03 1.996501535177230835e-02 1.013023033738136292e-02 1.039045676589012146e-02
-2.492597326636314392e-02 -8.052110671997070312e-03 2.500621974468231201e-02 -2.036098204553127289e-02 4.142045974731445312e-03 -1.235979795455932617e-02 3.578923642635345459e-04 3.438243642449378967e-02 2.778190746903419495e-02 -1.697067730128765106e-02 -2.170971035957336426e-02 1.587792485952377319e-02 1.781944930553436279e-02 2.733067050576210022e-02 3.174584358930587769e-03 3.304377570748329163e-02 -1.623539067804813385e-02 1.060129702091217041e-02 3.368180617690086365e-02 2.243253961205482483e-02 2.637766301631927490e-03 -2.591822482645511627e-02 -4.696203395724296570e-03 -2.955126948654651642e-02 -1.518103107810020447e-02 -3.510513901710510254e-02 3.069183602929115295e-02 3.244664520025253296e-03
