-7.227890193462371826e-03 1.699963957071304321e-02 2.358332276344299316e-04 -2.806668356060981750e-02 3.016387298703193665e-02 1.228168979287147522e-02 1.849292218685150146e-02 7.224589586257934570e-03 -2.619226649403572083e-02 -2.715519070625305176e-02 1.585345342755317688e-02 -5.777845159173011780e-03 -1.429457776248455048e-02 -2.125568129122257233e-02 -2.535635791718959808e-02 1.875783875584602356e-02 2.614093944430351257e-02 1.791842281818389893e-02 -2.717802487313747406e-02 -4.651393741369247437e-03 2.791916951537132263e-02 -4.311144351959228516e-03 1.233808696269989014e-03 2.417909726500511169e-02 -1.014423929154872894e-02 2.653282508254051208e-02 1.355021446943283081e-02 -2.636820636689662933e-02
1.710146293044090271e-02 1.194217801094055176e-02 -9.737705811858177185e-03 -8.299598470330238342e-03 -9.264783933758735657e-03 1.548301428556442261e-03 -2.099090069532394409e-02 2.218689769506454468e-03 -9.877903386950492859e-03 1.201087608933448792e-02 -1.366280205547809601e-02 -1.618667319416999817e-02 4.971060901880264282e-03 -6.118588149547576904e-03 -2.450273372232913971e-02 -3.096099570393562317e-02 -1.473848707973957062e-02 2.147370949387550354e-02 1.162774860858917236e-04 6.930291652679443359e-03 -2.437492087483406067e-02 1.995725557208061218e-02 -6.171427667140960693e-03 2.871981635689735413e-02 -2.241954207420349121e-04 2.666047215461730957e-02 -8.619781583547592163e-03 -2.503608539700508118e-02
2.811089530587196350e-02 1.130238175392150879e-02 1.378116011619567871e-02 6.643850356340408325e-03 9.344182908535003662e-03 -1.499660313129425049e-03 1.470180973410606384e-02 2.208019420504570007e-02 1.360660418868064880e-02 1.178839430212974548e-02 3.198812305927276611e-01 3.663269579410552979e-01 3.928972780704498291e-01 3.468081057071685791e-01 2.472296655178070068e-01 4.904072880744934082e-01 1.870674192905426025e-01 2.029580324888229370e-01 1.583220213651657104e-01 -1.086803674697875977e-01 -1.319929659366607666e-01 7.083151489496231079e-03 1.621139794588088989e-02 1.996890082955360413e-02 2.927685156464576721e-02 6.688106805086135864e-03 -2.050580829381942749e-02 -6.766393780708312988e-04
2.216594666242599487e-02 -1.256711781024932861e-03 5.547765642404556274e-03 1.383192092180252075e-02 -6.149941310286521912e-02 1.362331360578536987e-01 -1.284511014819145203e-02 4.172936081886291504e-01 2.421938441693782806e-02 -1.875216066837310791e-01 9.911884367465972900e-02 1.973050534725189209e-01 1.112140789628028870e-01 -2.077459543943405151e-01 1.004781052470207214e-01 2.752123475074768066e-01 1.504658609628677368e-01 7.989698089659214020e-03 -9.364301711320877075e-02 2.651796638965606689e-01 8.616999983787536621e-01 2.555264234542846680e-01 -4.040823876857757568e-01 -2.673847675323486328e-01 -3.090870678424835205e-01 -2.681443281471729279e-02 -6.010876968502998352e-03 -3.487767279148101807e-02
-4.774127155542373657e-03 -2.933312058448791504e-01 2.770627140998840332e-01 3.679338097572326660e-01 -1.164857745170593262e-01 2.039100676774978638e-01 -1.623925417661666870e-01 9.382602572441101074e-02 1.116237938404083252e-01 -6.235981360077857971e-02 1.150570884346961975e-01 9.121720492839813232e-02 5.052352789789438248e-03 2.994182333350181580e-02 -6.383456755429506302e-03 -1.843321882188320160e-02 1.086168065667152405e-01 -1.429242640733718872e-01 1.347101777791976929e-01 5.027977004647254944e-02 -6.245762109756469727e-02 -8.075655251741409302e-02 2.033835947513580322e-01 5.668356642127037048e-02 -6.566237211227416992e-01 -2.824722826480865479e-01 -1.587871648371219635e-02 -4.398915916681289673e-03
1.781064644455909729e-02 1.938595995306968689e-02 5.344893932342529297e-01 2.920456603169441223e-02 -8.914992213249206543e-02 3.757564350962638855e-02 4.076908156275749207e-02 -2.679218724370002747e-02 -6.532552838325500488e-02 4.198793694376945496e-02 -2.582821622490882874e-02 6.782867759466171265e-02 -4.790182039141654968e-02 7.062395662069320679e-02 -6.341614574193954468e-02 1.076436237781308591e-04 6.650822609663009644e-02 -1.644267141819000244e-01 1.470132265239953995e-02 -1.187675297260284424e-01 4.363271221518516541e-02 -1.303007304668426514e-01 -5.638572573661804199e-02 1.445692479610443115e-01 -7.703386545181274414e-01 -3.218143582344055176e-01 -1.360211987048387527e-02 -1.625096239149570465e-02
1.290028542280197144e-02 -3.897580206394195557e-01 2.872332632541656494e-01 1.603765487670898438e-01 -1.202863529324531555e-01 2.229965291917324066e-02 8.735925704240798950e-02 5.364365130662918091e-02 2.137225121259689331e-02 6.015737354755401611e-02 6.248872354626655579e-02 6.589373201131820679e-02 -1.605907380580902100e-01 3.851989284157752991e-02 4.021283611655235291e-02 -4.486553743481636047e-02 3.222890198230743408e-02 -1.184681728482246399e-01 1.434331983327865601e-01 -8.248822391033172607e-02 2.959716133773326874e-02 5.017269030213356018e-02 8.151879161596298218e-02 3.153544291853904724e-02 -4.979368448257446289e-01 -3.516228199005126953e-01 -3.901663795113563538e-02 3.171448782086372375e-02
7.948212325572967529e-03 -1.367335673421621323e-02 2.579780817031860352e-01 9.836760163307189941e-02 -6.159295141696929932e-02 5.374134704470634460e-02 3.523045778274536133e-02 -1.574056409299373627e-02 -3.660069033503532410e-02 1.355255208909511566e-02 -4.452420026063919067e-02 8.604387193918228149e-02 7.937537878751754761e-02 -3.629393503069877625e-02 1.126100644469261169e-01 9.715389460325241089e-03 3.106250660493969917e-03 7.018020004034042358e-02 -4.492233693599700928e-02 5.539415776729583740e-02 4.742156714200973511e-02 -3.695486858487129211e-02 8.942454122006893158e-03 -8.782429993152618408e-02 -7.054390907287597656e-01 -1.811971515417098999e-01 -4.398628324270248413e-02 3.175004199147224426e-02
-1.625179499387741089e-02 1.506343036890029907e-01 2.829792499542236328e-01 -8.385737985372543335e-02 -5.743261799216270447e-02 3.844530880451202393e-02 -7.647426426410675049e-02 2.889432758092880249e-02 -5.561552196741104126e-02 -8.226591348648071289e-02 -9.389203786849975586e-02 4.931290820240974426e-02 -7.747896015644073486e-02 -5.651289597153663635e-02 1.481344699859619141e-01 1.119716092944145203e-03 -2.127411402761936188e-02 3.177129477262496948e-02 4.100232198834419250e-02 -8.406974375247955322e-02 1.728496141731739044e-02 -9.336801618337631226e-02 -1.756498590111732483e-02 -1.157001554965972900e-01 -1.346073985099792480e+00 -7.996107339859008789e-01 -1.244286224246025085e-01 -2.434512227773666382e-02
-2.251259051263332367e-02 1.865460276603698730e-01 5.731330439448356628e-02 6.461015343666076660e-02 2.602162659168243408e-01 7.758796215057373047e-03 -6.713500618934631348e-02 1.101612672209739685e-01 -4.761307314038276672e-02 1.168737486004829407e-01 -1.673738285899162292e-02 -1.234716102480888367e-01 -8.628514595329761505e-03 4.313741996884346008e-02 7.897454500198364258e-02 2.098416686058044434e-01 4.119116812944412231e-02 2.265033079311251640e-03 -7.720698416233062744e-02 -1.417802087962627411e-02 4.673446342349052429e-02 1.290407590568065643e-02 1.577822864055633545e-01 2.058325260877609253e-01 -2.210175275802612305e+00 -1.487782597541809082e-02 -8.094172924757003784e-02 -2.157974056899547577e-02
-3.054097481071949005e-02 1.799398213624954224e-01 2.340356409549713135e-01 9.065880626440048218e-02 -1.513458043336868286e-01 1.893109381198883057e-01 8.757153898477554321e-02 -1.745318472385406494e-01 3.476364910602569580e-02 -2.394695281982421875e-01 -2.612973153591156006e-01 -1.456691622734069824e-01 -1.800243109464645386e-01 -7.982543855905532837e-02 -3.254589065909385681e-02 -3.299131244421005249e-02 4.893244430422782898e-02 9.087248891592025757e-02 9.399075061082839966e-03 -1.715320795774459839e-01 1.626188866794109344e-02 -1.987974494695663452e-01 4.511540755629539490e-02 -1.237975209951400757e-01 -1.515186667442321777e+00 1.467597633600234985e-01 -7.299730926752090454e-02 -1.441321987658739090e-02
1.365643367171287537e-02 1.972479820251464844e-01 2.426329404115676880e-01 1.859914660453796387e-01 2.123827859759330750e-02 -5.794641375541687012e-02 -1.196584254503250122e-01 -2.584047913551330566e-01 -3.192030787467956543e-01 -2.572771310806274414e-01 -9.551783651113510132e-02 -8.128360658884048462e-02 -6.563553959131240845e-02 -1.207862645387649536e-01 -7.567510753870010376e-02 -3.196688136085867882e-03 -2.949242293834686279e-02 -9.224212728440761566e-03 1.151626855134963989e-01 6.610547279706224799e-05 5.298434942960739136e-02 -6.405110657215118408e-02 -2.127847969532012939e-01 -2.184426337480545044e-01 -9.929993152618408203e-01 -9.471812844276428223e-02 -6.694132834672927856e-02 1.249758899211883545e-02
-1.084617711603641510e-02 1.914152354001998901e-01 -7.101790606975555420e-02 -1.359090954065322876e-01 -1.814324110746383667e-01 -8.746542781591415405e-02 -1.464144885540008545e-01 -4.418705031275749207e-02 -3.022387810051441193e-02 -1.920050382614135742e-02 1.019861400127410889e-01 -6.986545026302337646e-02 1.015456020832061768e-02 -1.395302116870880127e-01 7.894378900527954102e-02 -4.728122428059577942e-02 5.067379027605056763e-02 -2.840373665094375610e-02 6.234879791736602783e-02 -4.520876705646514893e-02 5.345233529806137085e-02 -2.915891706943511963e-01 2.349695861339569092e-01 -3.977716863155364990e-01 -6.409265398979187012e-01 3.945178389549255371e-01 7.203053683042526245e-03 -2.297693118453025818e-02
3.247341886162757874e-02 -3.164068982005119324e-02 -1.022542826831340790e-02 -1.158952806144952774e-02 1.572182215750217438e-02 -1.010271608829498291e-01 1.427825819700956345e-02 -2.090896666049957275e-01 5.173475295305252075e-02 -8.329047262668609619e-02 -4.651877284049987793e-02 2.127097174525260925e-02 -8.195645362138748169e-02 -6.256759911775588989e-02 6.185130774974822998e-02 -2.121167033910751343e-01 -3.719151765108108521e-02 4.541142284870147705e-02 -9.133913367986679077e-02 -5.350297689437866211e-02 -4.385799169540405273e-02 -2.727083116769790649e-02 -2.896437346935272217e-01 -2.914595603942871094e-02 -4.224360585212707520e-01 8.648210763931274414e-02 -5.549485329538583755e-03 -3.563452512025833130e-02
-2.136494219303131104e-02 5.934357047080993652e-01 1.895112991333007812e-01 -3.323771357536315918e-01 5.053176879882812500e-01 -2.636408805847167969e-01 -6.632065400481224060e-03 -1.457250714302062988e-01 3.524588793516159058e-02 2.887189760804176331e-02 3.308294340968132019e-02 -1.344554722309112549e-01 9.156261570751667023e-03 -1.409823447465896606e-01 -3.022259846329689026e-02 -1.755126751959323883e-02 -8.552708476781845093e-02 4.965421929955482483e-02 8.978825807571411133e-02 -1.340603735297918320e-02 -1.135904341936111450e-02 2.777925692498683929e-02 -8.160103857517242432e-02 5.175703763961791992e-02 -1.330061107873916626e-01 -2.128799855709075928e-01 1.592929475009441376e-02 1.675530895590782166e-02
-2.466887235641479492e-05 2.712429761886596680e-01 -1.129277274012565613e-01 1.639268398284912109e-01 -9.368061274290084839e-02 1.918618828058242798e-01 1.391803324222564697e-01 7.078284025192260742e-02 -8.592178672552108765e-02 -7.143843173980712891e-02 -3.489305078983306885e-02 9.359498322010040283e-02 -4.971871525049209595e-02 -1.517883241176605225e-01 -1.015210449695587158e-01 5.118814762681722641e-03 -3.755350410938262939e-02 8.788041770458221436e-02 -6.986058451730059460e-07 1.746423915028572083e-02 1.555713415145874023e-01 1.146778464317321777e-01 7.047309773042798042e-04 4.633993804454803467e-01 2.708437144756317139e-01 -5.427311062812805176e-01 7.988003641366958618e-02 -3.066221810877323151e-02
-9.456127882003784180e-03 6.066977381706237793e-01 1.492136623710393906e-02 5.338501930236816406e-02 -1.324730664491653442e-01 2.966178953647613525e-01 -1.197265908122062683e-01 -4.309136793017387390e-02 -1.975117921829223633e-01 1.205851361155509949e-01 -1.686959527432918549e-02 -4.078551009297370911e-02 -2.459353301674127579e-03 7.949049025774002075e-02 -7.112724334001541138e-02 -1.020282283425331116e-01 2.119277976453304291e-02 3.827753663063049316e-02 1.074374765157699585e-01 1.246304214000701904e-01 2.759630978107452393e-02 4.574282839894294739e-02 1.538562178611755371e-01 1.501712650060653687e-01 5.351156592369079590e-01 -7.073374390602111816e-01 -3.348323106765747070e-01 -2.937074378132820129e-02
3.474477306008338928e-02 1.492061167955398560e-01 8.358738571405410767e-02 1.439334359019994736e-02 -1.167186126112937927e-01 1.889635771512985229e-01 -1.043117791414260864e-01 9.854732453823089600e-02 -1.504851579666137695e-01 -4.845012426376342773e-01 -2.418430447578430176e-01 -1.828830242156982422e-01 -2.853037416934967041e-01 -1.634789109230041504e-01 -1.941604018211364746e-01 4.490018635988235474e-02 7.069098949432373047e-02 1.095649152994155884e-01 8.411677926778793335e-02 8.485163748264312744e-02 1.812281645834445953e-02 -6.654428690671920776e-02 9.371769428253173828e-02 2.409242466092109680e-02 -4.040318429470062256e-01 -1.296109795570373535e+00 -2.238752245903015137e-01 -3.148328885436058044e-02
-1.868563145399093628e-02 1.172691360116004944e-01 2.947587147355079651e-02 4.719131439924240112e-02 5.147191137075424194e-02 5.068888515233993530e-02 1.421043369919061661e-02 3.889010101556777954e-02 9.923499077558517456e-02 -2.820843756198883057e-01 -3.144405782222747803e-01 -3.945374190807342529e-01 -3.736406862735748291e-01 -2.614848911762237549e-01 1.610733270645141602e-01 2.091682404279708862e-01 1.047034338116645813e-01 1.105590462684631348e-01 6.499239802360534668e-02 7.664090394973754883e-02 -4.509741440415382385e-02 1.127329021692276001e-01 -5.706720054149627686e-02 -4.315121471881866455e-02 -6.152717471122741699e-01 -1.161670207977294922e+00 -2.521371543407440186e-01 -2.190843224525451660e-05
2.061502635478973389e-02 -1.895219087600708008e-01 -4.477753490209579468e-02 -1.085956767201423645e-02 4.018749314127489924e-05 5.530715361237525940e-02 1.815601624548435211e-02 -8.868840336799621582e-02 -1.764308847486972809e-02 -2.577767148613929749e-02 -5.041445419192314148e-02 5.249495804309844971e-02 -1.269328594207763672e-01 -6.552655994892120361e-02 2.040122598409652710e-01 4.411404952406883240e-02 2.968564629554748535e-02 7.802120596170425415e-02 3.080209158360958099e-02 4.029444232583045959e-02 7.107816636562347412e-02 1.511155068874359131e-01 -7.334666699171066284e-02 -5.200970917940139771e-02 -2.592436373233795166e-01 -5.098083615303039551e-01 7.209330797195434570e-03 -2.293327450752258301e-02
-1.731929741799831390e-02 -1.684474050998687744e-01 -1.747607588768005371e-01 1.356774866580963135e-01 1.059029176831245422e-01 -3.218669444322586060e-02 4.672092944383621216e-02 -3.057881956920027733e-03 3.384457901120185852e-02 8.111010491847991943e-02 -3.645777329802513123e-02 1.863003522157669067e-02 -6.524565815925598145e-02 -1.129200235009193420e-01 4.895651713013648987e-02 1.953386142849922180e-02 4.019564390182495117e-02 8.301549404859542847e-02 7.703264802694320679e-02 2.474989928305149078e-02 1.001154631376266479e-01 1.530526727437973022e-01 1.090701967477798462e-01 2.798108756542205811e-01 1.467876285314559937e-01 -2.087245583534240723e-01 2.987667322158813477e-01 -2.126457542181015015e-02
-1.566044427454471588e-02 7.504214346408843994e-02 4.980155080556869507e-02 -2.355400845408439636e-02 3.702554479241371155e-02 -5.348552763462066650e-02 1.696890443563461304e-01 -4.874546080827713013e-02 5.037692189216613770e-02 -3.928048536181449890e-02 -1.082056667655706406e-02 -1.078090444207191467e-02 5.070580914616584778e-02 -1.733561605215072632e-02 -2.511931024491786957e-02 3.630812093615531921e-02 1.513919681310653687e-01 -4.771111905574798584e-02 6.780052930116653442e-02 1.046509072184562683e-01 -1.665053665637969971e-01 -1.718738302588462830e-02 -4.035183787345886230e-02 3.753291368484497070e-01 7.170762121677398682e-02 -5.211811065673828125e-01 3.212119638919830322e-01 1.811464503407478333e-02
-8.442772552371025085e-03 -4.575267434120178223e-01 2.949118912220001221e-01 -8.676730841398239136e-02 -2.259417809545993805e-02 -2.982563525438308716e-02 -2.050686813890933990e-02 -7.153247296810150146e-02 6.595076620578765869e-02 7.681185845285654068e-03 1.005971687845885754e-03 2.633281424641609192e-02 -5.540190264582633972e-02 3.901650011539459229e-02 -9.261702001094818115e-02 9.985605720430612564e-04 3.500387072563171387e-02 6.768641620874404907e-02 8.814198896288871765e-03 5.276041850447654724e-02 2.259814441204071045e-01 -1.323981732130050659e-01 3.757321834564208984e-02 3.512357771396636963e-01 -3.244793713092803955e-01 -2.715943381190299988e-02 3.101110756397247314e-01 -3.323027491569519043e-02
3.515163436532020569e-02 2.479688450694084167e-02 -2.602750957012176514e-01 -1.376817077398300171e-01 6.151295825839042664e-02 7.720657438039779663e-02 8.644354529678821564e-03 1.903958022594451904e-01 -4.555136710405349731e-02 -1.631836965680122375e-02 7.651780545711517334e-02 6.130010262131690979e-02 -7.047574967145919800e-02 -2.259253524243831635e-02 -4.611517116427421570e-02 -4.604403302073478699e-02 -7.464701682329177856e-02 7.347248494625091553e-02 5.579994525760412216e-03 -8.831489831209182739e-02 -9.219810366630554199e-02 -6.804582476615905762e-02 -1.850149184465408325e-01 -3.521137535572052002e-01 -2.041223496198654175e-01 1.870611459016799927e-01 3.115481734275817871e-01 -2.388366311788558960e-02
-3.175255656242370605e-02 1.559381559491157532e-02 -4.008798003196716309e-01 1.565232127904891968e-01 1.531805694103240967e-01 1.288995612412691116e-02 1.107086613774299622e-01 9.343457221984863281e-02 8.463648147881031036e-03 5.728523433208465576e-02 1.015918627381324768e-01 -3.603566437959671021e-02 -4.473788663744926453e-02 1.027219593524932861e-01 6.911776959896087646e-02 -1.139410138130187988e-01 -7.337535917758941650e-02 1.193992719054222107e-01 1.709865755401551723e-04 -2.822636961936950684e-01 -2.017168253660202026e-01 2.782721817493438721e-01 -4.000109136104583740e-01 -4.256328046321868896e-01 -2.110836654901504517e-01 1.744259148836135864e-03 -1.647219061851501465e-02 3.360908851027488708e-02
-1.758616045117378235e-02 -1.257058233022689819e-02 1.030995398759841919e-01 2.385195940732955933e-01 -1.905450522899627686e-01 -2.893036901950836182e-01 -1.061572656035423279e-01 -5.014546681195497513e-03 2.436547726392745972e-01 1.845245361328125000e-01 2.958946302533149719e-02 7.429673522710800171e-02 2.994762957096099854e-01 8.236572891473770142e-02 9.363158047199249268e-02 -1.870633214712142944e-01 1.171452179551124573e-01 -1.273967791348695755e-02 1.653881072998046875e-01 2.760200798511505127e-01 1.883631795644760132e-01 3.170436993241310120e-02 -1.895535290241241455e-01 1.268128305673599243e-02 -7.984302937984466553e-03 -1.757213100790977478e-02 2.758428826928138733e-02 -3.384421765804290771e-02
1.542987301945686340e-02 -1.848722808063030243e-02 -1.758582890033721924e-03 3.516699001193046570e-02 -2.252268195152282715e-01 -2.217798382043838501e-01 -1.919129341840744019e-01 7.204379886388778687e-02 6.898601353168487549e-02 -1.133087649941444397e-01 4.030213356018066406e-01 1.281043887138366699e-01 -1.827920228242874146e-01 -1.025773584842681885e-02 2.390867471694946289e-01 3.024604022502899170e-01 7.196480035781860352e-01 5.403304696083068848e-01 2.155229449272155762e-01 2.192591130733489990e-02 4.615623354911804199e-01 -3.584930673241615295e-02 -1.157459616661071777e-02 -2.931059002876281738e-01 -8.649835363030433655e-03 -2.281980961561203003e-02 1.972856745123863220e-02 -1.733070611953735352e-02
2.564161643385887146e-02 1.052165776491165161e-02 1.601446419954299927e-02 -4.587501287460327148e-03 1.285206153988838196e-02 -1.367761380970478058e-02 1.371541246771812439e-02 -7.287899032235145569e-03 2.968438342213630676e-02 -1.584121212363243103e-02 2.299495413899421692e-02 -2.870410308241844177e-02 1.551284268498420715e-02 3.496771678328514099e-02 -3.169392794370651245e-02 -2.751770243048667908e-02 8.439887315034866333e-03 2.779510989785194397e-02 -7.692890241742134094e-03 3.252897784113883972e-02 -9.333848953247070312e-03 -1.422937959432601929e-03 2.166431024670600891e-02 3.563940152525901794e-02 -1.887067034840583801e-02 2.199377119541168213e-02 -3.492219746112823486e-02 3.319236263632774353e-02
