7.133830338716506958e-03 -2.751124836504459381e-02 -2.568215131759643555e-02 -2.641391009092330933e-03 -3.429292514920234680e-02 -1.056024059653282166e-02 -1.646947115659713745e-02 -2.575962245464324951e-02 -1.948379725217819214e-02 1.201351732015609741e-02 -1.651122048497200012e-02 2.224962785840034485e-02 6.767491996288299561e-02 4.798286780714988708e-02 -3.364806249737739563e-02 6.238898262381553650e-03 -1.604039222002029419e-03 -9.813288226723670959e-03 -1.441157422959804535e-02 1.282460987567901611e-02 1.174736022949218750e-02 -5.873296409845352173e-03 -1.017969474196434021e-02 -1.149555668234825134e-02 3.879878669977188110e-03 2.106419205665588379e-02 1.238316297531127930e-02 8.853282779455184937e-03
2.739033475518226624e-02 -1.250198110938072205e-02 -2.459400147199630737e-02 -2.294044196605682373e-02 -1.348707242868840694e-03 1.018975898623466492e-01 2.563977837562561035e-01 3.381993770599365234e-01 3.579746186733245850e-01 4.290117323398590088e-01 5.317803025245666504e-01 7.044105529785156250e-01 9.001851677894592285e-01 1.091950178146362305e+00 8.934195637702941895e-01 6.234498620033264160e-01 6.747660040855407715e-01 7.658646106719970703e-01 7.983945012092590332e-01 3.683826625347137451e-01 2.677794992923736572e-01 7.638599723577499390e-02 1.089605093002319336e-01 4.860891401767730713e-02 -3.431309014558792114e-03 3.196623548865318298e-02 -2.845048159360885620e-02 -3.778271377086639404e-03
-2.200847119092941284e-02 9.376548230648040771e-03 8.506571874022483826e-03 -8.018168807029724121e-02 1.521362662315368652e-01 1.061970293521881104e-01 4.164128899574279785e-01 5.422008633613586426e-01 2.763873338699340820e-01 -2.216951847076416016e-01 -1.291504204273223877e-01 2.507426738739013672e-01 4.554732441902160645e-01 5.581005811691284180e-01 5.758323073387145996e-01 5.849865078926086426e-02 -1.221175119280815125e-01 5.072833225131034851e-02 9.340595602989196777e-01 7.424202561378479004e-01 4.413199126720428467e-01 3.141773119568824768e-02 1.106582432985305786e-01 -2.626199461519718170e-02 -1.129292026162147522e-01 -1.150288153439760208e-02 -7.327757775783538818e-03 1.545299589633941650e-02
-2.162046730518341064e-04 4.449564963579177856e-03 3.893817192874848843e-04 -7.829389721155166626e-02 4.573227763175964355e-01 3.750052452087402344e-01 -9.186472743749618530e-02 -1.211240217089653015e-01 2.879662811756134033e-01 2.725279927253723145e-01 -1.647915691137313843e-01 8.205932378768920898e-02 1.870802938938140869e-01 -1.521688103675842285e-01 2.841112911701202393e-01 2.994914650917053223e-01 2.327857539057731628e-02 7.341786473989486694e-02 3.399529680609703064e-02 -2.591545879840850830e-01 4.408194422721862793e-01 2.665447629988193512e-02 2.316626608371734619e-01 -3.243818134069442749e-02 7.813603430986404419e-02 -5.663954019546508789e-01 1.223312970250844955e-02 -1.295730099081993103e-02
-2.957177348434925079e-02 8.692148141562938690e-03 -3.398029208183288574e-01 2.709154188632965088e-01 1.085024714469909668e+00 3.492857515811920166e-01 9.368538260459899902e-01 4.224367439746856689e-01 -6.479137390851974487e-02 1.502792537212371826e-01 2.483073472976684570e-01 1.370644569396972656e-01 1.657261848449707031e-01 2.777951061725616455e-01 -1.246719732880592346e-01 4.907455444335937500e-01 -1.177486851811408997e-01 -9.008223563432693481e-02 3.407827019691467285e-01 3.654661774635314941e-02 -4.017068073153495789e-02 4.674994945526123047e-01 3.287307620048522949e-01 6.889177113771438599e-02 2.624830305576324463e-01 1.768446087837219238e+00 1.408139467239379883e+00 -8.541017025709152222e-02
8.246511220932006836e-03 -1.839902251958847046e-03 -1.506034284830093384e-01 6.128485202789306641e-01 1.160431385040283203e+00 5.715680122375488281e-01 -1.783750355243682861e-01 1.655112951993942261e-01 2.411570698022842407e-01 -2.587159574031829834e-01 1.082416176795959473e-01 1.970528811216354370e-01 1.534197479486465454e-01 6.650014966726303101e-02 -1.027187407016754150e-01 1.415875107049942017e-01 -1.499366760253906250e-02 2.930600047111511230e-01 -2.296199351549148560e-01 1.346582025289535522e-01 -1.069440245628356934e-01 -5.204703807830810547e-01 1.347534060478210449e-01 4.610215425491333008e-01 6.533415317535400391e-01 7.288032770156860352e-01 7.508348822593688965e-01 -2.126801572740077972e-02
-8.644955232739448547e-03 4.783441722393035889e-01 9.736068248748779297e-01 7.709865570068359375e-01 5.462036728858947754e-01 3.149698674678802490e-01 1.509215086698532104e-01 1.322231888771057129e-01 2.139351665973663330e-01 -9.388774633407592773e-02 2.110276371240615845e-02 1.991107761859893799e-01 -1.193853393197059631e-01 3.810160756111145020e-01 2.487359642982482910e-01 -1.458785384893417358e-01 1.439309716224670410e-01 1.504032313823699951e-01 -2.944671548902988434e-02 -9.545525908470153809e-02 2.010356932878494263e-01 1.087484136223793030e-01 6.954094171524047852e-01 2.713435888290405273e-01 6.282667517662048340e-01 2.983808889985084534e-02 1.052224487066268921e-01 1.484148025512695312e+00
-2.739558555185794830e-02 6.220430731773376465e-01 9.686603546142578125e-01 6.463802456855773926e-01 -1.288087368011474609e-01 3.477152585983276367e-01 -4.794380068778991699e-01 1.349727213382720947e-01 2.729314938187599182e-02 -2.969335317611694336e-01 -1.852439716458320618e-02 1.123918294906616211e-01 -5.247776582837104797e-02 1.068461686372756958e-02 2.781155407428741455e-01 -4.179382696747779846e-02 9.109751135110855103e-02 -5.216770339757204056e-03 5.080503970384597778e-02 1.284609287977218628e-01 1.852147430181503296e-01 1.273437440395355225e-01 1.613900810480117798e-02 -1.929526329040527344e-01 3.706388473510742188e-01 8.758964538574218750e-01 8.025332093238830566e-01 1.506223917007446289e+00
-5.393744260072708130e-02 2.170332223176956177e-01 -3.172422051429748535e-01 -2.631494775414466858e-02 -5.614276975393295288e-02 1.007791012525558472e-01 1.313558313995599747e-02 4.037003964185714722e-02 1.869165748357772827e-01 2.064097225666046143e-01 8.648824691772460938e-02 4.211666435003280640e-02 -1.512006521224975586e-01 2.822242379188537598e-01 4.006429761648178101e-02 1.977718323469161987e-01 3.116821348667144775e-01 1.879813224077224731e-01 2.561816573143005371e-01 2.177054062485694885e-02 3.349326923489570618e-02 -4.521046578884124756e-02 6.821185350418090820e-02 -1.453331559896469116e-01 1.328536421060562134e-01 4.563226103782653809e-01 6.298504471778869629e-01 6.858760118484497070e-01
1.343423966318368912e-02 -9.985906630754470825e-02 -8.825287818908691406e-01 7.210189104080200195e-01 5.660613775253295898e-01 -5.776354074478149414e-01 4.595404267311096191e-01 3.584323567338287830e-04 9.811668097972869873e-02 -1.872809138149023056e-03 2.002328447997570038e-02 1.275931671261787415e-02 7.479139417409896851e-02 -6.023452803492546082e-02 1.726063527166843414e-02 -3.909358382225036621e-02 -1.744858026504516602e-01 -1.777131259441375732e-01 -1.590552330017089844e-01 -2.410504072904586792e-01 -3.130149245262145996e-01 -2.308370620012283325e-01 3.139606863260269165e-02 1.249156296253204346e-01 -1.393124759197235107e-01 4.896340668201446533e-01 7.835451960563659668e-01 3.664588630199432373e-01
1.370301283895969391e-02 -2.367730289697647095e-01 -1.707506030797958374e-01 5.010607838630676270e-01 8.860584348440170288e-02 -5.451269149780273438e-01 -7.329542934894561768e-02 -4.021236896514892578e-01 5.177157521247863770e-01 -1.561108678579330444e-01 3.082574158906936646e-02 1.818409860134124756e-01 8.164480328559875488e-02 -5.370835587382316589e-02 -2.322797924280166626e-01 -2.326429188251495361e-01 -2.610878050327301025e-01 -9.508883580565452576e-03 -6.743033230304718018e-02 -1.717745959758758545e-01 -8.324681222438812256e-02 -3.028333783149719238e-01 -1.981050372123718262e-01 -1.561632901430130005e-01 1.635835878551006317e-02 -2.593834698200225830e-01 1.140334606170654297e+00 1.369669139385223389e-01
-2.407427504658699036e-02 -2.439194172620773315e-01 -3.970479965209960938e-01 -2.391926348209381104e-01 5.422940850257873535e-02 -5.210690200328826904e-02 -1.048147901892662048e-01 -3.791665285825729370e-02 -1.973121985793113708e-02 -4.965085070580244064e-03 3.690393641591072083e-02 -1.517228484153747559e-01 -1.655651954934000969e-03 2.885018289089202881e-01 1.761702895164489746e-01 2.660804092884063721e-01 2.826842963695526123e-01 5.725447088479995728e-02 1.098721176385879517e-01 -1.607007533311843872e-01 1.284669786691665649e-01 -1.119817495346069336e-01 -3.434008359909057617e-01 -3.654145449399948120e-02 7.285466999746859074e-04 8.577911853790283203e-01 9.733605384826660156e-01 3.325341939926147461e-01
-9.754291921854019165e-02 6.277876347303390503e-02 -2.937725782394409180e-01 -1.357239931821823120e-01 -8.166083693504333496e-02 -2.121015787124633789e-01 -1.719838082790374756e-01 5.279784202575683594e-01 6.810706853866577148e-02 1.113496161997318268e-02 1.403978168964385986e-01 1.774222254753112793e-01 1.318162381649017334e-01 4.948698580265045166e-01 2.178243994712829590e-01 1.060914695262908936e-01 -5.091021209955215454e-02 -4.836259409785270691e-02 3.544318675994873047e-01 -4.030001163482666016e-01 2.183509916067123413e-01 -7.905055582523345947e-02 8.964064717292785645e-02 5.695670470595359802e-02 -7.753822803497314453e-01 -7.200970500707626343e-02 1.436435878276824951e-01 2.753077149391174316e-01
-5.022210255265235901e-02 -2.201790213584899902e-01 -3.410845696926116943e-01 -4.116421639919281006e-01 -3.559184027835726738e-03 5.026186108589172363e-01 1.780468523502349854e-01 7.813168317079544067e-02 -2.378632575273513794e-01 3.491274267435073853e-02 5.727104097604751587e-02 3.044050633907318115e-01 5.435886979103088379e-01 3.088732063770294189e-01 2.725278139114379883e-01 1.182049438357353210e-01 1.399642080068588257e-01 -2.177469618618488312e-02 -7.891722768545150757e-02 2.763183116912841797e-01 -1.595189236104488373e-02 1.389759331941604614e-01 5.723083764314651489e-02 -9.067168086767196655e-02 -6.272069811820983887e-01 -1.219499349594116211e+00 -6.230732202529907227e-01 -1.153370738029479980e-01
2.908838987350463867e-01 2.089494913816452026e-01 3.359148204326629639e-01 -1.117073774337768555e+00 5.917043089866638184e-01 -1.429387629032135010e-01 1.681694090366363525e-01 8.300732821226119995e-02 3.030563890933990479e-01 1.723348796367645264e-01 1.822575330734252930e-01 7.766401767730712891e-02 3.585242033004760742e-01 2.411326020956039429e-01 3.382396399974822998e-01 2.376058101654052734e-01 -1.165273115038871765e-01 -5.779403075575828552e-02 -2.291801944375038147e-02 -3.533036410808563232e-01 -2.077927142381668091e-01 -3.227291107177734375e-01 -1.058846637606620789e-01 4.479790851473808289e-02 -2.599302530288696289e-01 -1.622543454170227051e+00 -7.117524743080139160e-01 -1.277032494544982910e-01
2.704997062683105469e-01 2.279518395662307739e-01 5.859034657478332520e-01 -4.500491917133331299e-01 -7.421361804008483887e-01 -5.659887194633483887e-01 2.504442036151885986e-01 -4.818021133542060852e-02 7.895824313163757324e-02 2.451007999479770660e-02 1.654811948537826538e-01 1.481369584798812866e-01 4.499277174472808838e-01 1.475134640932083130e-01 -1.600064933300018311e-01 -4.088700935244560242e-02 1.821812838315963745e-01 9.458336979150772095e-02 -6.567098200321197510e-02 -1.538304239511489868e-01 -2.534138225018978119e-02 3.507491946220397949e-01 -1.914946287870407104e-01 8.347755670547485352e-01 2.445290386676788330e-01 -1.443161129951477051e+00 -1.097472161054611206e-01 -1.240958124399185181e-01
-5.165196955204010010e-03 4.679282009601593018e-01 3.979258835315704346e-01 3.523502945899963379e-01 -1.139005064964294434e+00 -4.884766936302185059e-01 -1.001779675483703613e+00 -7.452226430177688599e-02 -4.816183745861053467e-01 3.398996293544769287e-01 4.208940863609313965e-01 5.707173943519592285e-01 5.185534358024597168e-01 1.607831418514251709e-01 2.505274415016174316e-01 1.439594626426696777e-01 -2.187383770942687988e-01 -1.901739239692687988e-01 -5.598199740052223206e-02 -7.623163610696792603e-02 -2.693872451782226562e-01 -3.042763471603393555e-01 1.462518721818923950e-01 4.571735560894012451e-01 5.929834842681884766e-01 -1.931205391883850098e+00 -1.055325508117675781e+00 -1.203995123505592346e-01
-2.661748230457305908e-02 6.411023736000061035e-01 6.363011002540588379e-01 4.646973907947540283e-01 -7.604354023933410645e-01 -1.163305163383483887e+00 -1.155936360359191895e+00 -1.106372833251953125e+00 -8.417815566062927246e-01 -1.095481991767883301e+00 -8.267578482627868652e-01 -8.700633794069290161e-02 3.220006451010704041e-02 -5.659001693129539490e-02 -5.322468280792236328e-01 -1.198739185929298401e-01 -3.731998503208160400e-01 -1.553618162870407104e-01 -3.011752068996429443e-01 -2.872870862483978271e-01 1.142452210187911987e-01 -1.748012453317642212e-01 -7.978855818510055542e-02 1.644507348537445068e-01 1.623698025941848755e-01 -1.358129501342773438e+00 -4.001857042312622070e-01 -1.603201329708099365e-01
3.296315670013427734e-01 7.610885500907897949e-01 6.938977837562561035e-01 6.066676378250122070e-01 5.202966332435607910e-01 -4.923496544361114502e-01 -8.284144401550292969e-01 -8.596090078353881836e-01 -1.577912569046020508e+00 -2.283553600311279297e+00 -2.478248357772827148e+00 -2.562265634536743164e+00 -1.920130491256713867e+00 -8.480191230773925781e-01 -3.101270198822021484e-01 -2.137958854436874390e-01 1.699652671813964844e-01 -9.954570233821868896e-02 1.018879786133766174e-01 2.245176434516906738e-01 1.169688105583190918e-01 2.849290072917938232e-01 1.213473305106163025e-01 -1.080072000622749329e-01 -3.900017440319061279e-01 -1.137225270271301270e+00 -3.919236958026885986e-01 -1.334796845912933350e-01
1.695287041366100311e-02 1.135385558009147644e-01 1.504087924957275391e+00 9.329192638397216797e-01 5.508660078048706055e-01 -3.608909621834754944e-02 -1.058280467987060547e-02 -1.576795130968093872e-01 -5.140003561973571777e-01 -1.378372013568878174e-01 -4.163666367530822754e-01 -3.895840644836425781e-01 -4.036231338977813721e-01 -2.285216748714447021e-01 -4.685128033161163330e-01 -1.818651854991912842e-01 -3.369583189487457275e-01 -1.629094183444976807e-01 1.059049516916275024e-01 -3.191510140895843506e-01 1.500983536243438721e-02 5.610459670424461365e-02 -1.985028088092803955e-01 4.021410048007965088e-01 -1.203896775841712952e-01 -6.483120918273925781e-01 -6.014069914817810059e-01 -6.534526497125625610e-02
9.649321436882019043e-03 7.267066240310668945e-01 1.390698909759521484e+00 1.238062858581542969e+00 5.550474524497985840e-01 2.269987314939498901e-01 5.393027663230895996e-01 -1.089131925255060196e-02 3.551693260669708252e-01 5.529974102973937988e-01 5.125391483306884766e-01 2.622175514698028564e-01 -3.605692386627197266e-01 -1.605565696954727173e-01 6.298708915710449219e-02 4.400842264294624329e-02 -8.928340673446655273e-02 1.500568836927413940e-01 -9.317826479673385620e-02 -1.048479229211807251e-01 -7.033140957355499268e-02 -2.044485807418823242e-01 5.750261545181274414e-01 7.256988435983657837e-02 -1.569927781820297241e-01 -6.953755617141723633e-01 1.413273215293884277e-01 1.474550962448120117e-01
-7.527426816523075104e-03 9.639149308204650879e-01 1.512025713920593262e+00 9.277289509773254395e-01 3.777842521667480469e-01 -9.100522100925445557e-02 -5.059692263603210449e-02 1.976391375064849854e-01 1.579222381114959717e-01 -3.506639599800109863e-02 2.368780598044395447e-02 1.095327138900756836e-01 2.976536452770233154e-01 1.306625828146934509e-02 1.692996919155120850e-02 -2.354056760668754578e-02 -2.093719989061355591e-01 -3.258108198642730713e-01 -4.099234193563461304e-02 -1.511950939893722534e-01 -4.409102723002433777e-03 -2.092268317937850952e-01 3.713767230510711670e-01 4.300924539566040039e-01 -1.214791536331176758e+00 -9.404566287994384766e-01 2.655752599239349365e-01 7.029724866151809692e-02
-6.834009289741516113e-02 2.017132937908172607e-01 1.256743431091308594e+00 6.839711666107177734e-01 2.105075865983963013e-01 -2.513218820095062256e-01 -5.225240066647529602e-02 -1.146142929792404175e-01 1.943187862634658813e-01 1.405359953641891479e-01 2.234438061714172363e-01 2.909830510616302490e-01 1.320321559906005859e-01 4.810963943600654602e-02 -1.382135897874832153e-01 6.678726524114608765e-02 -1.227440014481544495e-01 -3.194788396358489990e-01 -2.191693037748336792e-01 -2.396399974822998047e-01 1.819829195737838745e-01 -5.189823359251022339e-02 -5.188702046871185303e-02 4.446454942226409912e-01 -1.038838505744934082e+00 -5.370304584503173828e-01 1.330866385251283646e-02 3.984389081597328186e-02
-1.766756176948547363e-04 -6.810221821069717407e-03 2.381863594055175781e+00 1.846922993659973145e+00 1.186482429504394531e+00 5.571255683898925781e-01 1.441176165826618671e-03 -1.071342304348945618e-01 2.280446141958236694e-01 1.611737348139286041e-02 3.748360276222229004e-01 7.429009675979614258e-02 -1.346127986907958984e-01 6.867459416389465332e-02 2.666062414646148682e-01 7.656411826610565186e-02 1.339461356401443481e-01 -1.294823139905929565e-01 1.142202392220497131e-01 9.369295090436935425e-02 8.920444548130035400e-02 -6.795993447303771973e-01 -2.506909668445587158e-01 -4.355299472808837891e-01 -1.134616255760192871e+00 -8.793252706527709961e-01 2.163001000881195068e-01 1.781881600618362427e-02
1.307758316397666931e-02 -9.491899982094764709e-03 1.809548735618591309e-01 1.491645693778991699e+00 1.768519759178161621e+00 1.397993564605712891e+00 5.702853798866271973e-01 6.403803229331970215e-01 -3.982501477003097534e-02 1.001532673835754395e-01 5.972896218299865723e-01 5.774190649390220642e-03 1.978632062673568726e-01 1.612012535333633423e-01 2.590220794081687927e-02 -3.177930042147636414e-02 -4.482017457485198975e-02 1.967705190181732178e-01 -1.893645226955413818e-01 -6.944642663002014160e-01 -1.282629929482936859e-02 -1.008928865194320679e-01 1.925696581602096558e-01 2.362456321716308594e-01 3.999153673648834229e-01 -5.483706593513488770e-01 -1.513323187828063965e-01 1.846894621849060059e-02
6.876047700643539429e-03 2.023706957697868347e-02 7.052603363990783691e-02 -5.867713689804077148e-01 8.879448771476745605e-01 1.206323146820068359e+00 2.876254022121429443e-01 5.389432311058044434e-01 7.678615450859069824e-01 1.715575158596038818e-01 2.996176779270172119e-01 1.589533984661102295e-01 -1.157488301396369934e-01 3.584017455577850342e-01 -2.060762643814086914e-01 5.240995064377784729e-02 -6.877277046442031860e-02 -6.258679181337356567e-02 2.478391081094741821e-01 8.816939592361450195e-02 2.263806164264678955e-01 -3.251745179295539856e-02 7.239835262298583984e-01 1.093511223793029785e+00 4.743425548076629639e-01 2.364332787692546844e-02 -3.069171309471130371e-02 2.706531807780265808e-02
-1.883999817073345184e-02 1.481140404939651489e-02 6.572987884283065796e-03 3.394652307033538818e-01 1.051336526870727539e+00 6.870112419128417969e-01 5.159773230552673340e-01 4.049204885959625244e-01 -1.487875431776046753e-01 4.541491866111755371e-01 2.048427015542984009e-01 2.871924042701721191e-01 -3.256603842601180077e-03 1.858847886323928833e-01 2.744733393192291260e-01 3.376393020153045654e-01 4.942193627357482910e-01 9.134475588798522949e-01 6.421784758567810059e-01 9.178883433341979980e-01 1.043666601181030273e+00 1.023460745811462402e+00 6.392823457717895508e-01 1.178676962852478027e+00 5.101967975497245789e-02 -1.467296015471220016e-02 -7.642367854714393616e-03 3.142410144209861755e-02
-3.360002487897872925e-02 -8.345242589712142944e-03 3.438146784901618958e-02 -7.075037807226181030e-03 -1.520255696959793568e-03 -2.443748116493225098e-01 -3.369395136833190918e-01 -6.096665859222412109e-01 2.641665935516357422e-02 -3.917180895805358887e-01 9.051117897033691406e-01 9.366894364356994629e-01 -7.676600664854049683e-02 2.172616720199584961e-01 1.349840998649597168e+00 7.081565260887145996e-01 1.204518154263496399e-01 1.503764186054468155e-02 -6.835014559328556061e-03 -2.607333064079284668e-01 -5.012461543083190918e-01 -1.155731901526451111e-01 -2.858983576297760010e-01 4.588849842548370361e-02 2.280238270759582520e-02 2.968360856175422668e-02 1.371782273054122925e-03 -3.563527762889862061e-02
