1.706937700510025024e-02 1.623588800430297852e-02 -2.374403178691864014e-02 -5.176715552806854248e-03 1.498725265264511108e-03 2.297851815819740295e-02 -8.277833461761474609e-03 1.146433129906654358e-02 8.140310645103454590e-03 -1.127456314861774445e-02 8.459158241748809814e-03 -2.929561585187911987e-02 2.644273824989795685e-02 -4.454652778804302216e-03 1.815446652472019196e-02 2.723159268498420715e-02 2.003487944602966309e-02 1.851197332143783569e-02 -1.375519856810569763e-02 4.836160689592361450e-03 -1.298620551824569702e-02 2.996717765927314758e-02 -3.205140307545661926e-02 2.749355509877204895e-02 -2.440971694886684418e-02 -1.703188382089138031e-02 -1.708395779132843018e-03 2.127026394009590149e-02
-2.883675880730152130e-02 -9.877184405922889709e-03 1.289774850010871887e-02 -2.700887061655521393e-02 -1.117269694805145264e-02 -2.192514250054955482e-03 1.129339411854743958e-01 7.272092252969741821e-02 2.179472148418426514e-01 1.351473331451416016e-01 6.748069822788238525e-02 1.490342020988464355e-01 1.966372132301330566e-01 3.077476918697357178e-01 6.569595932960510254e-01 4.851218685507774353e-02 -3.896984085440635681e-02 -2.657290101051330566e-01 1.056901067495346069e-01 -2.324059903621673584e-01 -4.922776222229003906e-01 -3.444319367408752441e-01 -3.622801303863525391e-01 -3.379225730895996094e-01 3.437751159071922302e-02 -3.091347403824329376e-02 -1.469966024160385132e-03 -9.911831468343734741e-03
1.551140099763870239e-03 -3.527079522609710693e-02 -1.557888090610504150e-02 1.102848574519157410e-01 2.267768830060958862e-01 2.072334885597229004e-01 8.538921177387237549e-02 1.057886332273483276e-01 -3.933677971363067627e-01 -4.874225258827209473e-01 -3.688231408596038818e-01 -2.954349219799041748e-01 -3.391228616237640381e-01 -1.000898778438568115e-01 -2.317861020565032959e-01 -7.334517240524291992e-01 -5.309964418411254883e-01 -5.139898657798767090e-01 -8.727514147758483887e-01 -3.928728103637695312e-01 -2.784373760223388672e-01 -8.431049995124340057e-03 1.418612450361251831e-01 -1.988761872053146362e-01 -3.126771450042724609e-01 -2.804966270923614502e-01 -3.503837063908576965e-02 -3.290981054306030273e-03
3.187385573983192444e-02 -2.317212522029876709e-03 -1.602673530578613281e-01 -2.648772597312927246e-01 1.021929755806922913e-01 7.570681571960449219e-01 3.053193092346191406e-01 -5.187627673149108887e-01 -4.849003255367279053e-01 -2.429827600717544556e-01 -3.772111982107162476e-02 4.694035649299621582e-02 -1.837089955806732178e-01 -4.115698933601379395e-01 -2.828269004821777344e-01 -1.482727229595184326e-01 4.569447785615921021e-02 3.727568686008453369e-02 1.462826430797576904e-01 2.852326035499572754e-01 6.140862107276916504e-01 -3.826720267534255981e-02 -3.592782318592071533e-01 -1.552708167582750320e-02 8.993346244096755981e-03 4.383449852466583252e-01 -1.636400967836380005e-01 3.459015116095542908e-02
-5.810078233480453491e-03 3.570634871721267700e-03 -4.341177642345428467e-02 -1.599937230348587036e-01 7.550434470176696777e-01 7.729764580726623535e-01 2.489242404699325562e-01 -7.599312346428632736e-03 6.329998373985290527e-01 9.065876901149749756e-02 1.548592001199722290e-02 2.870621979236602783e-01 1.523102372884750366e-01 1.161087527871131897e-01 1.341912597417831421e-01 -1.914918124675750732e-01 2.019547224044799805e-01 1.635788381099700928e-01 -7.151761651039123535e-02 -1.622735289856791496e-03 5.723077338188886642e-03 1.763347536325454712e-02 1.479556858539581299e-01 3.642308525741100311e-03 -1.662800163030624390e-01 -2.598372288048267365e-02 -7.647656798362731934e-01 -4.179713726043701172e-01
-2.644337154924869537e-02 1.750667393207550049e-02 -2.786904573440551758e-01 3.617225587368011475e-01 6.439462900161743164e-01 6.140614748001098633e-01 3.574320673942565918e-01 1.421139091253280640e-01 1.444487459957599640e-02 -1.093130111694335938e-01 -1.973388493061065674e-01 -4.510177671909332275e-02 -1.234859302639961243e-01 -3.147243857383728027e-01 1.390553563833236694e-01 5.549813155084848404e-03 4.682424291968345642e-02 -1.556947454810142517e-02 -4.802983999252319336e-02 2.383996248245239258e-01 -4.300207272171974182e-02 -3.363299667835235596e-01 3.254894912242889404e-02 -2.070815861225128174e-01 -3.626381158828735352e-01 -5.076102614402770996e-01 -7.508723735809326172e-01 -4.078760743141174316e-01
2.916287258267402649e-02 1.266940869390964508e-02 -1.819033622741699219e-01 1.942139267921447754e-01 6.218537092208862305e-01 8.954831361770629883e-01 -1.077439486980438232e-01 2.446887493133544922e-01 2.346993684768676758e-01 -8.891302347183227539e-02 1.380320452153682709e-02 -1.452485769987106323e-01 -1.175426989793777466e-01 -7.304648309946060181e-02 -2.747381627559661865e-01 -4.185688495635986328e-01 -2.486850023269653320e-01 -1.552027463912963867e-01 -2.015590071678161621e-01 2.897775918245315552e-02 -7.241773605346679688e-02 2.130934000015258789e-01 7.739212363958358765e-02 -8.763914927840232849e-03 -2.726671993732452393e-01 -6.376281976699829102e-01 -7.214679718017578125e-01 -8.433178812265396118e-02
4.827675409615039825e-03 -2.726972699165344238e-01 3.617703318595886230e-01 5.202969312667846680e-01 8.395677804946899414e-01 6.159769296646118164e-01 2.198579013347625732e-01 3.004157543182373047e-01 -4.361849650740623474e-02 9.025027602910995483e-02 -1.902493089437484741e-01 -7.759251445531845093e-02 1.095902174711227417e-01 -3.875775262713432312e-02 -2.355777025222778320e-01 -1.656512729823589325e-02 -1.442935168743133545e-01 -1.353235077112913132e-02 -3.338908553123474121e-01 -1.698022335767745972e-02 -3.101369738578796387e-01 -3.482204303145408630e-02 -1.731074154376983643e-01 2.439611703157424927e-01 5.963996984064579010e-03 -1.233986616134643555e-01 -3.362379670143127441e-01 -1.047326475381851196e-01
1.071517914533615112e-01 -1.954569369554519653e-01 5.449585914611816406e-01 7.613665461540222168e-01 3.398933410644531250e-01 1.763106584548950195e-01 3.878452479839324951e-01 -1.078038476407527924e-02 -1.950231045484542847e-01 1.360630244016647339e-01 -1.070344895124435425e-01 -2.935936152935028076e-01 -8.917460590600967407e-02 -1.116814166307449341e-01 -2.726566791534423828e-01 -1.369906365871429443e-01 -7.021648436784744263e-02 -5.400561913847923279e-02 2.200965583324432373e-01 -2.908647060394287109e-02 1.633428186178207397e-01 1.792552918195724487e-01 -4.861201345920562744e-02 1.270900517702102661e-01 6.987978219985961914e-01 1.212401166558265686e-01 -4.530464112758636475e-01 -3.298586308956146240e-01
1.867587864398956299e-02 2.472738176584243774e-01 4.179460406303405762e-01 6.552385091781616211e-01 6.588657498359680176e-01 1.057366132736206055e-01 2.402400523424148560e-01 9.314400702714920044e-02 1.892166882753372192e-01 -2.905069589614868164e-01 -1.437761485576629639e-01 -2.647691071033477783e-01 -3.022109568119049072e-01 1.401955783367156982e-01 4.228658229112625122e-02 1.320361644029617310e-01 4.369480311870574951e-01 3.993946909904479980e-01 3.102655708789825439e-01 3.856754601001739502e-01 4.447674751281738281e-01 6.240618824958801270e-01 1.731873750686645508e-01 1.653391420841217041e-01 6.704350113868713379e-01 1.388343423604965210e-01 -5.980210304260253906e-01 -5.689705610275268555e-01
2.275697328150272369e-02 2.582970857620239258e-01 1.412518620491027832e-01 5.292280912399291992e-01 6.781915426254272461e-01 -2.077696472406387329e-01 -3.044740855693817139e-01 -3.934265673160552979e-02 -2.307771593332290649e-01 -3.235127329826354980e-01 -1.200615987181663513e-01 -2.373195886611938477e-01 -6.986426562070846558e-02 1.078659817576408386e-01 3.946804106235504150e-01 4.442173242568969727e-01 3.918077945709228516e-01 6.526461243629455566e-01 5.005075931549072266e-01 6.593335866928100586e-01 6.060701608657836914e-01 5.993456244468688965e-01 5.268310904502868652e-01 5.589184761047363281e-01 4.952644407749176025e-01 3.108961582183837891e-01 -5.691679716110229492e-01 -6.924214363098144531e-01
-1.880776695907115936e-02 2.044999748468399048e-01 1.855106204748153687e-01 8.684270977973937988e-01 3.537807166576385498e-01 -5.116932988166809082e-01 -9.008360654115676880e-02 3.044855594635009766e-02 -8.737581223249435425e-02 8.118987828493118286e-02 3.335682153701782227e-01 3.697088956832885742e-01 2.594118416309356689e-01 3.759728968143463135e-01 4.855614006519317627e-01 2.777597010135650635e-01 2.447341568768024445e-02 2.568467259407043457e-01 3.660495877265930176e-01 2.735075354576110840e-01 4.027003645896911621e-01 3.016810119152069092e-01 3.678286075592041016e-01 3.981067538261413574e-01 6.416258215904235840e-02 2.443875819444656372e-01 -3.572781383991241455e-01 -6.350138783454895020e-01
1.868072710931301117e-02 4.583112895488739014e-01 2.001330554485321045e-01 7.318809032440185547e-01 2.189156860113143921e-01 -2.498365491628646851e-01 1.162284687161445618e-01 5.285583734512329102e-01 1.969835311174392700e-01 3.569480776786804199e-01 5.178167819976806641e-01 4.376423954963684082e-01 7.396791577339172363e-01 4.366744160652160645e-01 4.316057264804840088e-01 1.723548173904418945e-01 2.258902788162231445e-01 -7.009112089872360229e-02 -1.619389047846198082e-03 1.423719823360443115e-01 -8.637737482786178589e-02 1.746557503938674927e-01 1.190349608659744263e-01 -9.926017373800277710e-02 -4.442381486296653748e-02 -3.375878632068634033e-01 -4.261141121387481689e-01 -4.941909015178680420e-01
1.725654862821102142e-02 2.432604283094406128e-01 -6.633652746677398682e-02 1.396427899599075317e-01 2.799664139747619629e-01 4.356317520141601562e-01 4.205985069274902344e-01 3.067769706249237061e-01 4.025037586688995361e-01 4.428446590900421143e-01 2.546121180057525635e-01 2.958676517009735107e-01 3.037316799163818359e-01 -1.140757799148559570e-01 5.651811510324478149e-02 1.974095702171325684e-01 7.020907104015350342e-02 1.220511738210916519e-02 1.484128367155790329e-02 3.070132620632648468e-02 -1.823009252548217773e-01 1.401747763156890869e-02 -1.211369708180427551e-01 -1.989150345325469971e-01 -5.629320740699768066e-01 -7.425610423088073730e-01 -9.494444727897644043e-01 -3.770319521427154541e-01
-1.868493705987930298e-01 2.685751318931579590e-01 5.081920027732849121e-01 -1.488804817199707031e-01 -1.716578006744384766e-01 5.693713426589965820e-01 2.920805811882019043e-01 3.420712053775787354e-01 3.648790121078491211e-01 1.846039593219757080e-01 -1.360152754932641983e-02 1.953624933958053589e-02 1.365753710269927979e-01 1.030846834182739258e-01 -2.726458199322223663e-02 8.228771388530731201e-02 8.777920156717300415e-02 2.024476826190948486e-01 -1.974421590566635132e-01 1.730761229991912842e-01 -1.050725504755973816e-01 1.523081660270690918e-01 3.453520685434341431e-02 -1.890773884952068329e-02 -2.390191555023193359e-01 -3.358701169490814209e-01 -1.107382059097290039e+00 -3.819606900215148926e-01
-6.625416874885559082e-02 7.008741050958633423e-02 6.190131306648254395e-01 -2.034048177301883698e-02 1.487539429217576981e-02 -1.565110683441162109e-01 -1.536466777324676514e-01 1.818397939205169678e-01 -3.642290830612182617e-02 1.264211982488632202e-01 2.692875452339649200e-02 1.045738253742456436e-02 2.194969505071640015e-01 -2.411948982626199722e-03 2.095929086208343506e-01 1.496313214302062988e-01 -4.625485092401504517e-02 3.548086434602737427e-02 -1.451506316661834717e-01 1.569107323884963989e-01 3.814539313316345215e-02 1.505248099565505981e-01 3.958925008773803711e-01 2.645656764507293701e-01 -4.942520260810852051e-01 -6.143663525581359863e-01 -1.295262575149536133e+00 -2.443364262580871582e-01
1.248477771878242493e-01 7.827856391668319702e-02 3.848148882389068604e-01 -1.314755976200103760e-01 2.889227494597434998e-02 7.570707798004150391e-02 1.086838822811841965e-02 2.767286822199821472e-02 -1.508882343769073486e-01 -4.263748601078987122e-02 -3.825518190860748291e-01 -2.026473879814147949e-01 5.718927830457687378e-02 -1.478609745390713215e-03 7.489264011383056641e-02 9.282749146223068237e-02 7.134002447128295898e-02 -6.270634382963180542e-02 2.321284115314483643e-01 6.491053849458694458e-02 1.985407769680023193e-01 -1.837266385555267334e-01 -1.999003291130065918e-01 2.794114649295806885e-01 -1.793844550848007202e-01 -1.153419375419616699e+00 -1.096793413162231445e+00 2.418564260005950928e-02
-2.484492026269435883e-02 1.594183146953582764e-01 3.141030669212341309e-02 -1.528146117925643921e-01 -2.447423338890075684e-01 -2.193279005587100983e-02 -1.026042625308036804e-01 -8.431287109851837158e-02 -3.263413310050964355e-01 -1.252787560224533081e-01 -2.153475433588027954e-01 -1.490887254476547241e-01 -2.815597355365753174e-01 -1.670825779438018799e-01 -5.521759763360023499e-02 -3.235575929284095764e-02 1.486442685127258301e-01 5.226070433855056763e-02 -3.236036598682403564e-01 6.567285954952239990e-02 1.843628883361816406e-01 4.311376437544822693e-02 2.587966322898864746e-01 4.604066535830497742e-02 -5.226604342460632324e-01 -9.273806810379028320e-01 -1.088101625442504883e+00 -2.989982627332210541e-02
1.025106385350227356e-01 2.422443479299545288e-01 1.719372570514678955e-01 -1.766530871391296387e-01 -5.196962356567382812e-01 -4.175125062465667725e-01 6.623975932598114014e-02 -2.130858749151229858e-01 2.633007466793060303e-01 -6.818082183599472046e-02 -1.772450357675552368e-01 -1.354184746742248535e-01 -6.123501062393188477e-02 -1.078722905367612839e-02 5.056513473391532898e-02 5.399234127253293991e-03 1.168104782700538635e-01 -1.430318355560302734e-01 4.067101050168275833e-03 -7.445279508829116821e-02 -6.034637242555618286e-02 2.863915562629699707e-01 1.195705458521842957e-01 -3.896724060177803040e-02 -9.790875315666198730e-01 -5.350412130355834961e-01 -5.849285721778869629e-01 1.448494102805852890e-02
1.072588339447975159e-01 5.854595899581909180e-01 6.034877896308898926e-01 1.926355510950088501e-01 -2.749581038951873779e-01 1.303136944770812988e-01 -5.332777649164199829e-02 -2.862882055342197418e-02 -6.459802389144897461e-02 -1.366421580314636230e-01 2.823087759315967560e-02 -1.419683098793029785e-01 -3.034992218017578125e-01 -3.335384428501129150e-01 -1.815569102764129639e-01 -1.266282349824905396e-01 -1.760441437363624573e-02 3.274480998516082764e-02 2.142223417758941650e-01 1.707163453102111816e-01 -1.300030499696731567e-01 -8.437443524599075317e-02 -1.488660089671611786e-02 -3.466730564832687378e-02 -9.287304282188415527e-01 -4.478175640106201172e-01 -2.776033580303192139e-01 -9.222193807363510132e-02
-3.369031101465225220e-02 2.416087388992309570e-01 3.299134671688079834e-01 2.549813129007816315e-02 -2.583208084106445312e-01 1.686208397150039673e-01 -2.786924503743648529e-02 -1.299490686506032944e-02 2.155844867229461670e-02 1.543646156787872314e-01 6.363382935523986816e-02 -3.503891080617904663e-02 -2.909615263342857361e-02 -1.423377245664596558e-01 -3.287926781922578812e-03 -5.219827219843864441e-02 -1.579098030924797058e-02 8.400903642177581787e-02 1.318323910236358643e-01 -1.722073405981063843e-01 -3.994229808449745178e-02 7.290779799222946167e-02 -1.319839358329772949e-01 -7.526756525039672852e-01 -6.819742918014526367e-01 -9.705030322074890137e-01 -3.302943110466003418e-01 1.117316931486129761e-01
-2.889183349907398224e-03 -3.472941741347312927e-02 4.060532152652740479e-01 1.297389864921569824e-01 -1.539671421051025391e-01 -2.594953477382659912e-01 -1.812415570020675659e-01 -3.898109197616577148e-01 -6.242419034242630005e-02 -2.933685779571533203e-01 -3.662219345569610596e-01 1.247820034623146057e-01 -1.206318438053131104e-01 -1.861330419778823853e-01 -5.978001654148101807e-02 -1.081883013248443604e-01 -1.950201094150543213e-01 -8.814588189125061035e-02 -1.758864969015121460e-01 -1.896058022975921631e-01 -1.300826519727706909e-01 4.062145575881004333e-02 -3.978793323040008545e-01 -6.591673493385314941e-01 -4.132030308246612549e-01 -4.563239514827728271e-01 -4.204566478729248047e-01 -3.706999123096466064e-03
2.609767252579331398e-03 3.328820317983627319e-02 2.250262200832366943e-01 -2.814646959304809570e-01 -2.833787798881530762e-01 -3.609828054904937744e-01 4.853319525718688965e-01 -1.186026632785797119e-01 -8.147256076335906982e-02 9.299078583717346191e-02 -9.738443046808242798e-02 5.991708021610975266e-03 -1.678882539272308350e-01 9.711555391550064087e-02 -1.161795407533645630e-01 2.231510728597640991e-01 3.354098275303840637e-02 1.029866486787796021e-01 -1.704825907945632935e-01 1.454030275344848633e-01 -3.308707475662231445e-01 -1.525870710611343384e-01 -2.961533665657043457e-01 -6.268105506896972656e-01 -1.340958327054977417e-01 2.893586754798889160e-01 -1.569690555334091187e-01 2.390169724822044373e-02
1.512488350272178650e-02 3.361679241061210632e-02 2.729221284389495850e-01 2.153151333332061768e-01 -2.587291300296783447e-01 -4.613023698329925537e-01 -1.668019443750381470e-01 4.042077958583831787e-01 6.344126164913177490e-02 5.895508453249931335e-03 2.502861805260181427e-02 -1.945070736110210419e-02 -1.049216762185096741e-01 6.026245653629302979e-03 -9.286782890558242798e-02 -7.253209501504898071e-02 -9.671243280172348022e-02 3.238149583339691162e-01 3.110246062278747559e-01 7.966171950101852417e-02 -7.471312582492828369e-02 -4.421969056129455566e-01 -8.037672638893127441e-01 -4.965725243091583252e-01 -2.277612090110778809e-01 3.121316134929656982e-01 -3.241371214389801025e-01 2.397169917821884155e-02
-3.466143459081649780e-02 2.963636443018913269e-02 -8.223921060562133789e-02 -2.186649739742279053e-01 -1.952221989631652832e-01 -5.047886371612548828e-01 -4.795080721378326416e-01 6.312683224678039551e-02 -2.979573011398315430e-01 -2.117825113236904144e-02 1.109889745712280273e-01 4.361019656062126160e-02 4.773195832967758179e-02 1.096742823719978333e-01 3.170714154839515686e-02 -3.925083577632904053e-02 1.784262210130691528e-01 -2.987604141235351562e-01 -1.366904228925704956e-01 -5.442348718643188477e-01 -4.817014634609222412e-01 -6.741624474525451660e-01 -6.422653198242187500e-01 -6.217451095581054688e-01 -1.096494436264038086e+00 1.043962538242340088e-01 -3.705859184265136719e-02 -2.564664930105209351e-03
-5.812820047140121460e-03 1.847539097070693970e-03 -1.065867170691490173e-01 -3.570746779441833496e-01 -7.853510230779647827e-02 -1.274261325597763062e-01 -6.135354638099670410e-01 -7.405604124069213867e-01 -7.875550389289855957e-01 -5.662867426872253418e-01 -5.230991244316101074e-01 -5.577909946441650391e-01 -5.914154648780822754e-01 -4.953373670578002930e-01 -3.999479413032531738e-01 -6.539719700813293457e-01 -8.432018756866455078e-01 -8.303194642066955566e-01 -8.013910651206970215e-01 -8.992841839790344238e-01 -5.716836452484130859e-01 -8.249036073684692383e-01 -3.662436008453369141e-01 -3.084789514541625977e-01 -2.115280926227569580e-01 1.086716577410697937e-01 -2.853898145258426666e-02 -6.936026737093925476e-03
2.098974213004112244e-02 -3.397011384367942810e-02 1.097977533936500549e-02 1.184608861804008484e-01 2.875984832644462585e-02 -1.624985784292221069e-01 -3.105941712856292725e-01 -7.243736386299133301e-01 -8.738834261894226074e-01 -1.057830333709716797e+00 -1.146694779396057129e+00 -1.176455736160278320e+00 -9.628369808197021484e-01 -9.969924688339233398e-01 -1.541892051696777344e+00 -8.754535317420959473e-01 -4.136911332607269287e-01 -8.089117407798767090e-01 -3.014555871486663818e-01 -5.412687659263610840e-01 -6.662033796310424805e-01 -4.742898046970367432e-01 -3.694575130939483643e-01 -7.690850496292114258e-01 -9.370473027229309082e-02 -3.514810651540756226e-02 -2.387363649904727936e-02 5.428459495306015015e-03
-3.188195452094078064e-02 3.445840999484062195e-02 1.499015837907791138e-03 -2.424829080700874329e-02 -4.084947705268859863e-02 -6.488565355539321899e-02 -2.143970876932144165e-01 -1.061005070805549622e-01 -5.114820003509521484e-01 -5.251301527023315430e-01 -1.194539308547973633e+00 -1.358065128326416016e+00 -8.651055097579956055e-01 -9.886311292648315430e-01 -1.522024273872375488e+00 -9.209753870964050293e-01 -6.539974212646484375e-01 -4.388331174850463867e-01 -6.566316485404968262e-01 -3.184655904769897461e-01 -2.237432152032852173e-01 4.709594249725341797e-01 4.479203820228576660e-01 1.803433001041412354e-01 -7.860451936721801758e-03 -1.395039260387420654e-03 1.589059084653854370e-02 1.542481407523155212e-02
