2.302017062902450562e-03 -2.379433810710906982e-02 -2.531759813427925110e-02 -1.011107116937637329e-03 -1.436738111078739166e-02 2.449151501059532166e-02 4.354324191808700562e-03 -7.760897278785705566e-04 -3.066862560808658600e-02 -3.347603231668472290e-02 1.503714174032211304e-02 3.466354683041572571e-02 1.366892457008361816e-02 1.235927641391754150e-02 -1.950629800558090210e-02 1.778169348835945129e-02 -2.409509755671024323e-02 2.333313226699829102e-02 2.620202302932739258e-02 2.368794381618499756e-02 3.410928323864936829e-02 -3.503688052296638489e-02 -1.249186508357524872e-02 1.953259482979774475e-02 -3.464721143245697021e-02 -1.240081526339054108e-02 9.274855256080627441e-04 -2.278139814734458923e-02
2.359186485409736633e-02 -2.565976232290267944e-03 -1.364739425480365753e-02 2.666868269443511963e-03 -2.967266179621219635e-02 1.838361099362373352e-02 2.838609740138053894e-02 1.027816906571388245e-02 -1.407236419618129730e-02 1.949116587638854980e-02 -1.930968835949897766e-02 -1.780358888208866119e-02 1.927927508950233459e-02 9.891334921121597290e-03 5.607660859823226929e-03 -3.515803813934326172e-02 -3.363364934921264648e-02 -3.144597634673118591e-02 -2.793115004897117615e-02 1.756367087364196777e-02 7.855780422687530518e-03 -1.922420971095561981e-02 -3.324665874242782593e-02 -3.548392280936241150e-02 3.167380020022392273e-02 2.023049071431159973e-02 2.013864740729331970e-02 -1.450675353407859802e-02
2.280466258525848389e-03 8.839048445224761963e-03 -1.641417481005191803e-02 -1.274734362959861755e-02 -1.524124853312969208e-02 2.079796418547630310e-02 1.702996343374252319e-02 -2.680573798716068268e-02 -2.901420556008815765e-02 -1.452252827584743500e-02 1.367886513471603394e-01 1.577713936567306519e-01 1.568156629800796509e-01 4.481369256973266602e-02 7.783646136522293091e-02 5.558652058243751526e-02 3.944550454616546631e-02 1.940100267529487610e-02 3.148478642106056213e-02 2.808714844286441803e-02 2.346164779737591743e-03 2.457375451922416687e-02 -2.141164615750312805e-02 1.687723770737648010e-02 2.036079391837120056e-02 1.897218823432922363e-02 2.644525468349456787e-02 -3.108697757124900818e-02
3.498822823166847229e-02 1.439981162548065186e-02 1.908142119646072388e-03 5.143862217664718628e-03 1.068515405058860779e-01 1.704961955547332764e-01 2.406820803880691528e-01 4.570859372615814209e-01 -6.195840612053871155e-02 -2.417433261871337891e-02 -8.685101754963397980e-03 2.403551787137985229e-01 -1.660881489515304565e-01 -1.310465633869171143e-01 1.985969096422195435e-01 3.353691995143890381e-01 2.351706176996231079e-01 3.206868469715118408e-01 2.283575683832168579e-01 5.929698348045349121e-01 3.726666271686553955e-01 1.800620555877685547e-01 7.426352053880691528e-02 -9.102749824523925781e-02 -8.264912664890289307e-02 -1.106982957571744919e-02 -1.849949359893798828e-03 -7.822416722774505615e-03
-1.180278882384300232e-02 6.866517663002014160e-02 1.898303329944610596e-01 3.672911524772644043e-01 4.504192471504211426e-01 9.913316965103149414e-01 8.778715133666992188e-01 3.387165963649749756e-01 2.727158665657043457e-01 6.146816909313201904e-02 1.084690541028976440e-01 2.307365983724594116e-01 5.176489800214767456e-02 1.964048109948635101e-02 -1.366397738456726074e-01 9.395163506269454956e-02 8.887857198715209961e-03 -2.605693042278289795e-01 -1.612619608640670776e-01 8.434934541583061218e-03 -1.268310844898223877e-01 1.861576288938522339e-01 3.085668981075286865e-01 3.336131274700164795e-01 -2.248741984367370605e-01 -6.388437747955322266e-02 1.294855307787656784e-02 -1.724800094962120056e-02
-4.388153553009033203e-03 1.307263225317001343e-02 2.714355885982513428e-01 6.902097463607788086e-01 6.655877828598022461e-01 5.163464546203613281e-01 2.382460534572601318e-01 2.816838920116424561e-01 1.591153889894485474e-01 -1.640813052654266357e-01 -8.044746518135070801e-02 -1.790909841656684875e-02 1.429274231195449829e-01 1.494241803884506226e-01 3.393163904547691345e-02 1.282386779785156250e-01 1.761188656091690063e-01 -2.896868623793125153e-02 -1.366598606109619141e-01 -1.869744509458541870e-01 -8.649943768978118896e-02 -1.432287096977233887e-01 -8.861067146062850952e-02 2.354044169187545776e-01 -7.908953726291656494e-02 -3.707859218120574951e-01 -7.481821626424789429e-02 -3.582201898097991943e-02
2.661995589733123779e-02 6.598272919654846191e-02 3.501617610454559326e-01 9.168015122413635254e-01 3.559718728065490723e-01 -2.461997978389263153e-02 2.458107322454452515e-01 -1.737821996212005615e-01 -2.173936516046524048e-01 -3.082759119570255280e-02 -5.594352260231971741e-02 5.827060714364051819e-02 -5.722656846046447754e-02 1.504473984241485596e-01 3.073521889746189117e-02 -6.452872604131698608e-02 -5.466651543974876404e-02 -1.215933486819267273e-01 1.804773360490798950e-01 -1.571832597255706787e-01 -4.234836995601654053e-02 -1.538099795579910278e-01 -1.019715517759323120e-01 4.245028495788574219e-01 -3.687222599983215332e-01 -2.162641435861587524e-01 -5.719207227230072021e-02 1.993745565414428711e-03
-1.279971934854984283e-02 3.689862787723541260e-01 4.279949367046356201e-01 5.046133399009704590e-01 2.138430774211883545e-01 -5.058254674077033997e-02 -2.799676172435283661e-02 -6.024701520800590515e-02 -9.231213480234146118e-02 -1.490310430526733398e-01 1.008154973387718201e-01 2.541198730468750000e-01 6.894164532423019409e-02 1.885617822408676147e-01 1.872869282960891724e-01 -8.763737231492996216e-02 -1.919884420931339264e-02 -1.103386562317609787e-02 -1.836366392672061920e-02 1.991322487592697144e-01 -7.883108407258987427e-02 2.895250730216503143e-02 9.756849147379398346e-03 2.583839297294616699e-01 -1.161276698112487793e+00 -1.817799955606460571e-01 -8.164674788713455200e-02 -1.039402373135089874e-02
-5.855791270732879639e-03 1.557424515485763550e-01 3.572070002555847168e-01 3.999372422695159912e-01 4.160646796226501465e-01 8.490052074193954468e-02 -2.339726090431213379e-01 -6.094748899340629578e-02 1.059103012084960938e-01 1.484844237565994263e-01 9.070803225040435791e-02 3.235658630728721619e-02 -8.938449621200561523e-02 8.487178385257720947e-02 2.349516302347183228e-01 8.222205564379692078e-03 4.836431145668029785e-02 3.863745182752609253e-02 2.902630949392914772e-03 9.004116803407669067e-02 -1.344399750232696533e-01 -2.600091099739074707e-01 9.761767089366912842e-02 5.262825265526771545e-02 -1.059168934822082520e+00 -2.928875088691711426e-01 -5.685374885797500610e-02 -3.233890235424041748e-02
2.842791005969047546e-02 8.550813049077987671e-02 2.788892984390258789e-01 4.071523547172546387e-01 6.205334663391113281e-01 4.118989109992980957e-01 1.281596422195434570e-01 2.098488509654998779e-01 7.571268081665039062e-02 1.033316627144813538e-01 -9.509252011775970459e-02 -1.147987619042396545e-01 5.202266946434974670e-02 1.571669243276119232e-02 1.194440424442291260e-01 9.588120132684707642e-02 -5.484923347830772400e-02 -5.779495462775230408e-02 -7.606038451194763184e-02 -1.511285752058029175e-01 -1.841338574886322021e-01 -1.846456676721572876e-01 5.286895483732223511e-02 2.960028052330017090e-01 -7.957299947738647461e-01 -1.674636453390121460e-02 -3.506626188755035400e-02 -2.220063656568527222e-02
-9.103327989578247070e-03 1.092587932944297791e-01 4.775014221668243408e-01 5.819671750068664551e-01 1.711043715476989746e-01 1.330586671829223633e-01 7.060519605875015259e-02 -1.779298186302185059e-01 7.783108204603195190e-02 -4.077780544757843018e-01 -4.031664133071899414e-01 -9.725050628185272217e-02 -1.412781048566102982e-02 1.886036247014999390e-01 2.731835246086120605e-01 -1.246037334203720093e-01 -1.790802627801895142e-01 -3.453836217522621155e-02 -6.602017581462860107e-02 -1.352052539587020874e-01 -1.410041004419326782e-01 2.544848620891571045e-01 -4.887241870164871216e-02 -3.601667582988739014e-01 -3.112541437149047852e-01 2.162178903818130493e-01 -6.907496601343154907e-02 -2.358758449554443359e-02
2.842858061194419861e-02 6.230700016021728516e-02 4.503124356269836426e-01 3.163052797317504883e-01 1.535262539982795715e-02 -2.148236185312271118e-01 -3.380846977233886719e-02 7.516088336706161499e-02 -3.182512521743774414e-01 -2.354049980640411377e-01 1.732916235923767090e-01 1.708929836750030518e-01 4.183538258075714111e-02 1.431892067193984985e-01 9.776247665286064148e-03 -6.612187623977661133e-02 -1.694740355014801025e-02 -5.674237385392189026e-02 1.834362745285034180e-01 1.098368093371391296e-01 2.590232193470001221e-01 4.019864648580551147e-02 -3.089346587657928467e-01 -6.843063831329345703e-01 -2.232983857393264771e-01 1.706725955009460449e-01 -3.321719169616699219e-02 -2.496865019202232361e-02
1.018116250634193420e-02 7.707350701093673706e-02 1.888796538114547729e-01 1.591280549764633179e-01 5.645106360316276550e-02 -8.475492894649505615e-02 6.875366717576980591e-02 -2.772473394870758057e-01 -3.559666574001312256e-01 -7.741363253444433212e-03 3.205195367336273193e-01 1.467621177434921265e-01 1.244088187813758850e-01 -6.316456198692321777e-02 -2.587397210299968719e-02 -3.171980679035186768e-01 -3.208434879779815674e-01 -1.510858982801437378e-01 -8.356583863496780396e-02 1.040913909673690796e-01 1.751725934445858002e-02 -1.841271519660949707e-01 -1.392359286546707153e-01 -3.392355740070343018e-01 -1.397251188755035400e-01 3.044804632663726807e-01 -4.827196151018142700e-02 -9.577171877026557922e-03
3.565781936049461365e-02 -1.247579418122768402e-02 2.990313246846199036e-02 1.191346570849418640e-01 1.531951129436492920e-01 -1.001412793993949890e-01 8.552142977714538574e-02 -1.940632015466690063e-01 -1.581425815820693970e-01 -7.039737701416015625e-02 1.012360453605651855e-01 1.316000968217849731e-01 1.594973541796207428e-02 -7.739733904600143433e-02 3.419854119420051575e-02 -1.577038466930389404e-01 -1.747270673513412476e-01 -8.055502921342849731e-02 2.062236331403255463e-02 2.118037315085530281e-03 -3.511230945587158203e-01 -1.603287905454635620e-01 -9.097902476787567139e-02 3.380074501037597656e-01 -2.455196157097816467e-02 8.509390056133270264e-02 -5.481300503015518188e-02 2.196740359067916870e-02
-2.858823724091053009e-02 1.118026599287986755e-01 6.192530319094657898e-02 -1.811435073614120483e-01 2.493467479944229126e-01 1.354855746030807495e-01 2.369102537631988525e-01 -7.158311456441879272e-02 -1.325456053018569946e-01 5.359873175621032715e-02 5.019081011414527893e-02 1.131946370005607605e-01 3.780481591820716858e-02 1.545876450836658478e-02 1.298956871032714844e-01 1.621527969837188721e-01 -1.532829273492097855e-02 1.569177024066448212e-03 1.735525131225585938e-01 -1.517372876405715942e-01 -1.111720204353332520e-01 -2.388342767953872681e-01 -7.726820558309555054e-02 4.720707237720489502e-01 1.160799246281385422e-02 -2.702097874134778976e-03 -1.407715678215026855e-02 2.295921742916107178e-02
3.885887563228607178e-03 7.726234197616577148e-02 3.173061013221740723e-01 5.510164499282836914e-01 3.911251425743103027e-01 3.414636552333831787e-01 7.652655243873596191e-02 -4.445652663707733154e-01 -2.938576936721801758e-01 -1.168334186077117920e-01 4.258679747581481934e-01 3.493282794952392578e-01 -1.205979362130165100e-01 1.563381962478160858e-02 -3.098691813647747040e-02 -4.132702946662902832e-02 1.000697314739227295e-01 3.018775582313537598e-02 3.975982218980789185e-02 -1.527396887540817261e-01 3.339454904198646545e-02 -4.844842106103897095e-02 3.473919332027435303e-01 4.315853416919708252e-01 1.298888623714447021e-01 -8.756214380264282227e-02 3.231522440910339355e-01 2.456548437476158142e-02
-1.335365884006023407e-02 9.652842581272125244e-02 3.937529921531677246e-01 6.764034628868103027e-01 8.912840485572814941e-02 -3.289609253406524658e-01 -5.952401161193847656e-01 -7.074028253555297852e-01 -8.482260107994079590e-01 -3.814775049686431885e-01 -7.572665065526962280e-02 8.436390757560729980e-02 1.524731218814849854e-01 8.369356393814086914e-02 -2.972372472286224365e-01 -2.358217537403106689e-01 -3.362786397337913513e-02 3.270274028182029724e-02 2.062653303146362305e-01 1.619496010243892670e-02 -2.712957188487052917e-02 -8.953169733285903931e-02 3.050221800804138184e-01 2.629344761371612549e-01 3.919005692005157471e-01 -2.586012184619903564e-01 8.725671470165252686e-02 2.345851063728332520e-02
1.724056899547576904e-03 1.019706800580024719e-01 4.115210175514221191e-01 1.131597876548767090e+00 -1.010879650712013245e-01 -5.197569727897644043e-01 -8.421207666397094727e-01 -7.781196832656860352e-01 -7.080773115158081055e-01 -1.095897078514099121e+00 -1.097395539283752441e+00 -8.889098763465881348e-01 -6.320047378540039062e-01 -3.724052011966705322e-01 -3.794471919536590576e-01 -2.877806723117828369e-01 -1.180415153503417969e-01 9.662874042987823486e-02 1.716066151857376099e-01 -1.250424515455961227e-02 6.423825770616531372e-02 -9.160584211349487305e-02 -7.147679571062326431e-03 1.226376146078109741e-01 3.535177111625671387e-01 -5.706594586372375488e-01 -4.540232941508293152e-02 2.202117443084716797e-02
-1.455532200634479523e-02 1.077554747462272644e-01 6.542194485664367676e-01 5.980071425437927246e-01 5.368415638804435730e-02 -4.207064509391784668e-01 -5.109373927116394043e-01 -5.723716616630554199e-01 -4.243035316467285156e-01 -8.383938074111938477e-01 -9.412705302238464355e-01 -9.318441748619079590e-01 -1.114861965179443359e+00 -1.042780041694641113e+00 -4.077600836753845215e-01 -1.238107830286026001e-01 1.436657905578613281e-01 2.914760708808898926e-01 -8.117293938994407654e-03 5.065692588686943054e-02 1.219957917928695679e-01 6.133101508021354675e-02 1.422538310289382935e-01 2.019009888172149658e-01 -1.564160734415054321e-01 -5.870317220687866211e-01 -3.903110325336456299e-02 3.689602017402648926e-04
2.037908136844635010e-02 1.377794742584228516e-01 7.874274849891662598e-01 3.882961273193359375e-01 2.851802483201026917e-02 -2.055457383394241333e-01 -4.410049617290496826e-01 -5.195930600166320801e-01 -2.123105525970458984e-01 -1.889875680208206177e-01 -5.330985188484191895e-01 -3.584956526756286621e-01 -3.831978738307952881e-01 -4.886036813259124756e-01 -2.556881308555603027e-01 -8.532720804214477539e-02 2.025731652975082397e-01 8.443989604711532593e-02 -4.365167394280433655e-02 -3.792195022106170654e-02 9.858559817075729370e-02 6.217592582106590271e-02 -1.031085848808288574e-01 1.280678212642669678e-01 -2.936991453170776367e-01 -3.909438550472259521e-01 -8.737633004784584045e-03 2.474831044673919678e-02
-1.452670432627201080e-02 2.181277722120285034e-01 6.794857978820800781e-01 5.067166686058044434e-01 6.612047553062438965e-02 7.885849475860595703e-02 -5.854671075940132141e-02 -1.122187525033950806e-01 2.187107130885124207e-02 2.112512737512588501e-01 2.272169888019561768e-01 4.242800176143646240e-03 5.006109550595283508e-02 7.724712044000625610e-02 1.213354766368865967e-01 -5.162554979324340820e-02 4.361243546009063721e-02 -1.040800735354423523e-01 -6.663827598094940186e-02 6.158598884940147400e-02 1.327043324708938599e-01 -5.239297077059745789e-02 -7.311841845512390137e-02 3.916904330253601074e-01 -7.127281278371810913e-02 -2.202596515417098999e-01 1.106191128492355347e-01 1.640433445572853088e-02
1.740993931889533997e-02 2.984687387943267822e-01 6.243157982826232910e-01 7.592706680297851562e-01 3.794567883014678955e-01 2.535794675350189209e-01 2.396402060985565186e-01 3.919723331928253174e-01 2.744024097919464111e-01 1.578647494316101074e-01 4.238017201423645020e-01 2.280396670103073120e-01 3.582283258438110352e-01 2.183843404054641724e-01 1.230757981538772583e-01 1.899854242801666260e-01 1.388138830661773682e-01 -2.212348133325576782e-01 7.511711120605468750e-02 3.123018443584442139e-01 6.888569146394729614e-02 -1.159146875143051147e-01 -1.172601059079170227e-01 7.026231884956359863e-01 -1.442641466856002808e-01 -2.838065922260284424e-01 1.259942799806594849e-01 8.454501628875732422e-03
5.644779652357101440e-03 3.434175252914428711e-02 7.064225673675537109e-01 6.950050592422485352e-01 5.727171301841735840e-01 4.590497612953186035e-01 2.993936836719512939e-01 3.459840714931488037e-01 4.241838157176971436e-01 3.565049543976783752e-02 2.349414229393005371e-01 3.344458937644958496e-01 5.369099974632263184e-02 1.887423098087310791e-01 1.554935574531555176e-01 2.206360399723052979e-01 6.522794067859649658e-02 5.268948897719383240e-02 1.049242317676544189e-01 2.829670608043670654e-01 2.448102682828903198e-01 -1.770294606685638428e-01 1.594113856554031372e-01 4.925739169120788574e-01 1.163533143699169159e-02 -5.735661461949348450e-02 1.639161407947540283e-01 -2.066669426858425140e-02
1.528782397508621216e-02 3.001362085342407227e-03 5.357834696769714355e-01 5.178872942924499512e-01 5.234655737876892090e-01 5.617556571960449219e-01 3.165996968746185303e-01 3.182584643363952637e-01 4.943826496601104736e-01 1.359975039958953857e-01 3.882223963737487793e-01 4.188306033611297607e-01 1.614053845405578613e-01 2.906317114830017090e-01 4.521060287952423096e-01 3.241449892520904541e-01 9.233531355857849121e-02 1.706875115633010864e-01 1.613793522119522095e-01 7.551368325948715210e-02 -7.472383975982666016e-02 -1.270739436149597168e-01 -2.219003438949584961e-01 -4.002748802304267883e-02 2.173005789518356323e-01 2.666043639183044434e-01 1.578409820795059204e-01 2.528357505798339844e-02
-3.472172096371650696e-02 -1.385053992271423340e-02 4.486609399318695068e-01 4.822335541248321533e-01 9.344218969345092773e-01 1.019790917634963989e-01 2.188362926244735718e-01 4.458309412002563477e-01 8.481433987617492676e-02 2.075952440500259399e-01 7.183187454938888550e-02 4.963214509189128876e-03 8.841997385025024414e-02 3.508599102497100830e-01 3.282851278781890869e-01 1.224595829844474792e-01 -2.085662335157394409e-01 9.155122935771942139e-02 3.277572989463806152e-01 -2.125179469585418701e-01 -3.124856650829315186e-01 -2.203955799341201782e-01 4.133522510528564453e-02 1.200694963335990906e-01 7.539086509495973587e-03 1.422465592622756958e-02 -3.691751509904861450e-03 -3.160249069333076477e-02
-1.727614551782608032e-03 1.288530975580215454e-02 4.656923189759254456e-02 9.977943450212478638e-02 3.677695393562316895e-01 1.896665804088115692e-02 1.477982699871063232e-01 4.295201897621154785e-01 6.812016367912292480e-01 9.194943308830261230e-02 1.305288374423980713e-01 -1.291151493787765503e-01 2.160554230213165283e-01 4.747614860534667969e-01 2.122119069099426270e-01 -1.359607130289077759e-01 -2.193938940763473511e-01 -3.519049286842346191e-01 -6.752520799636840820e-02 7.816398888826370239e-02 3.255540132522583008e-01 1.971151679754257202e-01 2.137558460235595703e-01 2.335525862872600555e-02 -3.058876842260360718e-02 1.968092843890190125e-02 1.098352298140525818e-02 -8.833795785903930664e-03
-1.482643373310565948e-02 2.697191014885902405e-02 -3.419758751988410950e-02 3.808345645666122437e-03 7.129085063934326172e-02 3.700301796197891235e-02 3.592064604163169861e-02 1.400033384561538696e-01 1.191757991909980774e-01 1.277975142002105713e-01 3.310854732990264893e-01 4.310412108898162842e-01 5.298712849617004395e-01 4.586505591869354248e-01 4.145721793174743652e-01 3.925459682941436768e-01 5.066778063774108887e-01 4.929017424583435059e-01 5.098031163215637207e-01 6.050039529800415039e-01 5.158362984657287598e-01 3.443886339664459229e-01 1.490434855222702026e-01 -4.608820006251335144e-02 1.214275509119033813e-02 4.219885915517807007e-03 -2.222368679940700531e-02 1.639180630445480347e-02
3.023217245936393738e-02 1.789799332618713379e-02 2.000437676906585693e-02 -3.252323716878890991e-03 2.207252755761146545e-02 6.639175117015838623e-03 -9.343719109892845154e-03 3.112351521849632263e-02 -1.177126169204711914e-02 3.204076364636421204e-02 -4.124082624912261963e-03 -2.395926788449287415e-02 -1.675002649426460266e-02 -3.562042117118835449e-02 1.117741689085960388e-02 1.921646296977996826e-03 -3.010778874158859253e-02 2.466166391968727112e-02 8.739966899156570435e-03 1.818688958883285522e-02 2.793264761567115784e-02 -5.034796893596649170e-03 -1.040374487638473511e-02 3.154646605253219604e-03 3.453492000699043274e-02 -1.914862729609012604e-02 2.594170346856117249e-02 1.257584989070892334e-02
