2.487292513251304626e-02 -2.288082800805568695e-02 -2.390415035188198090e-02 -2.712916210293769836e-02 8.509740233421325684e-03 3.507549688220024109e-02 2.834776416420936584e-02 -1.470019668340682983e-02 2.981225773692131042e-02 -3.379030525684356689e-02 2.566057816147804260e-02 -3.727547824382781982e-03 4.683658480644226074e-04 1.457390189170837402e-02 -1.285946927964687347e-02 3.557417541742324829e-03 -3.299712017178535461e-02 -1.877938583493232727e-02 -3.021639212965965271e-02 -3.353154659271240234e-02 -1.716708764433860779e-02 -2.370638586580753326e-02 -2.862340398132801056e-02 2.201389521360397339e-02 -3.197028860449790955e-02 1.188080757856369019e-03 2.222771942615509033e-02 1.279577612876892090e-02
1.962376758456230164e-02 -3.479068726301193237e-02 3.462724760174751282e-02 2.002402395009994507e-02 2.188239619135856628e-02 2.510583773255348206e-02 3.451443836092948914e-02 9.231537580490112305e-03 2.341918647289276123e-02 -2.487940154969692230e-02 2.587499096989631653e-02 -4.922134801745414734e-03 -2.898987382650375366e-03 -2.896934375166893005e-02 -1.082260720431804657e-02 -3.518425300717353821e-02 1.084810122847557068e-02 3.451133891940116882e-02 -1.346639357507228851e-02 -9.396515786647796631e-03 -2.034284174442291260e-03 3.559235110878944397e-02 -2.481686696410179138e-02 -1.071288436651229858e-02 1.057934761047363281e-02 -3.932174295186996460e-03 -2.127224765717983246e-02 -2.983411028981208801e-02
-2.890747971832752228e-02 -8.043609559535980225e-04 2.278327941894531250e-02 2.166486904025077820e-02 1.240727677941322327e-02 1.314895972609519958e-02 -1.992401108145713806e-02 -1.204509846866130829e-02 2.686041221022605896e-02 2.844517305493354797e-02 -3.317133188247680664e-01 -3.327445387840270996e-01 -3.299871981143951416e-01 1.231394242495298386e-02 1.173006184399127960e-02 -2.877307124435901642e-02 -1.071368809789419174e-02 2.037463784217834473e-01 2.304181307554244995e-01 2.383655458688735962e-01 -1.361057348549365997e-02 -2.959333360195159912e-04 1.660033315420150757e-02 5.065355449914932251e-03 -3.181515634059906006e-02 -1.865161769092082977e-02 2.400629594922065735e-02 -3.503136336803436279e-03
2.537680044770240784e-02 -1.744721271097660065e-02 -2.756707370281219482e-03 -1.781306229531764984e-02 -6.206798553466796875e-02 -2.024607807397842407e-01 -1.995920240879058838e-01 -3.515506684780120850e-01 -3.880617022514343262e-01 -5.559045672416687012e-01 -4.803361892700195312e-01 -7.844913601875305176e-01 -1.877167969942092896e-01 2.893304079771041870e-02 1.251043975353240967e-01 9.633507579565048218e-02 -3.190240263938903809e-02 -9.022696316242218018e-02 8.425792679190635681e-03 -1.099056750535964966e-01 -2.883910834789276123e-01 -1.430469453334808350e-01 1.867880821228027344e-01 3.084866404533386230e-01 3.119226396083831787e-01 7.073225080966949463e-02 3.293201699852943420e-02 -2.827525697648525238e-02
6.200224161148071289e-03 3.245059773325920105e-02 -7.620214670896530151e-02 -2.404050678014755249e-01 -4.028770029544830322e-01 -8.069027662277221680e-01 -5.838882923126220703e-01 2.434696443378925323e-02 1.041819825768470764e-01 -2.834856882691383362e-02 -4.520661532878875732e-01 -7.329216003417968750e-01 2.671999484300613403e-02 2.770485579967498779e-01 1.443421393632888794e-01 -6.455503404140472412e-03 -1.801233440637588501e-01 -5.385336652398109436e-02 -8.416762948036193848e-02 -3.131836950778961182e-01 2.519411146640777588e-01 5.646741986274719238e-01 3.796504437923431396e-01 1.839641481637954712e-01 6.607540249824523926e-01 4.982773065567016602e-01 1.808378845453262329e-01 5.212809890508651733e-02
-2.393762767314910889e-02 -1.167867146432399750e-02 -1.448194682598114014e-01 -4.953947365283966064e-01 -2.310567796230316162e-01 2.014164179563522339e-01 1.985533535480499268e-01 -1.249485909938812256e-01 -1.302584856748580933e-01 -9.721152484416961670e-02 1.483509093523025513e-01 2.032673358917236328e-02 3.165660500526428223e-01 4.062088429927825928e-01 3.541042804718017578e-01 2.156494259834289551e-01 6.174360215663909912e-02 1.780880987644195557e-01 2.051726132631301880e-01 1.525175198912620544e-02 -2.658108472824096680e-01 1.137652918696403503e-01 2.967797815799713135e-01 -4.630818963050842285e-02 4.599294438958168030e-02 8.555871844291687012e-01 3.229058384895324707e-01 4.413153976202011108e-02
-1.155162416398525238e-02 -7.692983001470565796e-02 -1.544286459684371948e-01 -7.694150805473327637e-01 9.548924118280410767e-02 1.910956017673015594e-02 -7.840755581855773926e-02 -1.536510139703750610e-01 -1.762186177074909210e-02 -5.868062749505043030e-02 1.786890476942062378e-01 1.854777485132217407e-01 3.551473319530487061e-01 1.551480442285537720e-01 4.030701890587806702e-02 1.543576717376708984e-01 3.013910353183746338e-01 2.123300135135650635e-01 8.539446443319320679e-02 1.649852842092514038e-01 -1.858085393905639648e-01 -2.566500306129455566e-01 3.231531381607055664e-02 -2.700690925121307373e-01 -1.435173898935317993e-01 1.414669275283813477e+00 5.654031634330749512e-01 1.350958496332168579e-01
-3.224975615739822388e-02 -2.899290323257446289e-01 -2.681815922260284424e-01 -3.864415884017944336e-01 -2.397087775170803070e-02 3.177236020565032959e-02 -9.790000505745410919e-03 -3.630775511264801025e-01 -2.496064268052577972e-02 2.078748941421508789e-01 1.684056818485260010e-01 -1.341737061738967896e-01 2.917985990643501282e-02 1.250013858079910278e-01 -1.015765443444252014e-01 2.101392596960067749e-01 1.796203404664993286e-01 5.759988911449909210e-03 1.696103811264038086e-01 -5.976442992687225342e-02 1.298940628767013550e-01 7.478477060794830322e-02 1.928035914897918701e-01 -7.749010622501373291e-02 1.731682717800140381e-01 1.448243141174316406e+00 5.177079439163208008e-01 2.023071348667144775e-01
3.398395702242851257e-02 -1.195299699902534485e-01 -2.631020843982696533e-01 1.045181676745414734e-01 -2.253707647323608398e-01 -4.973819851875305176e-02 2.307547628879547119e-01 -7.889901101589202881e-02 9.213859587907791138e-02 1.288066208362579346e-01 5.262560769915580750e-02 -2.527373135089874268e-01 1.691808865871280432e-04 1.727147251367568970e-01 6.652143318206071854e-03 7.258841395378112793e-02 7.357435673475265503e-02 1.457369774580001831e-01 1.073684915900230408e-01 -2.160209603607654572e-02 1.194893047213554382e-01 -2.897602505981922150e-02 -2.091566920280456543e-01 -1.302336603403091431e-01 5.868836641311645508e-01 1.033016204833984375e+00 4.730184376239776611e-01 1.863922327756881714e-01
-3.240521252155303955e-02 -1.012097373604774475e-01 -1.850106418132781982e-01 -7.192800939083099365e-02 -2.542521953582763672e-01 -3.749829828739166260e-01 5.117724067531526089e-04 -2.522112429141998291e-01 -1.674058735370635986e-01 -1.264507025480270386e-01 4.716449603438377380e-02 -1.461499184370040894e-01 -3.296346068382263184e-01 -6.276673823595046997e-02 1.518237888813018799e-01 1.467301398515701294e-01 1.408880352973937988e-01 2.455647103488445282e-02 -5.464910343289375305e-02 -4.883164912462234497e-02 2.979242429137229919e-02 -1.298304796218872070e-01 -3.231484293937683105e-01 -4.626653492450714111e-01 8.082882165908813477e-01 7.904362082481384277e-01 4.032355844974517822e-01 1.291729211807250977e-01
1.574598252773284912e-02 -1.100558713078498840e-01 -2.712027132511138916e-01 1.469078361988067627e-01 2.719193994998931885e-01 -1.749918311834335327e-01 -1.588984578847885132e-01 -2.404963672161102295e-01 7.011493295431137085e-02 -1.440088078379631042e-02 1.290188580751419067e-01 -5.702522397041320801e-02 -1.983530521392822266e-01 1.879294216632843018e-01 2.776336073875427246e-01 2.675101906061172485e-02 4.031445458531379700e-02 -2.756551373749971390e-03 1.555988043546676636e-01 2.860993444919586182e-01 1.811907738447189331e-01 4.167238995432853699e-02 4.656920582056045532e-02 -1.127043366432189941e-02 1.089179158210754395e+00 6.797970533370971680e-01 4.254271090030670166e-01 1.168371364474296570e-01
1.595664024353027344e-02 -6.837122142314910889e-02 -2.991787791252136230e-01 2.840270400047302246e-01 5.858268588781356812e-02 4.273245483636856079e-02 -3.234295547008514404e-01 1.306234672665596008e-02 5.996263772249221802e-02 4.045327007770538330e-02 -1.435979753732681274e-01 -1.066308841109275818e-01 2.567286789417266846e-01 2.731335759162902832e-01 2.806693911552429199e-01 -4.415629897266626358e-03 5.704985558986663818e-02 -7.374136243015527725e-03 1.878025680780410767e-01 3.090988397598266602e-01 6.273279339075088501e-02 3.916825950145721436e-01 8.478790521621704102e-02 3.021545112133026123e-01 1.247425556182861328e+00 4.834804832935333252e-01 3.786844015121459961e-01 8.083339780569076538e-02
-2.800106257200241089e-02 -8.066729456186294556e-02 -1.199008673429489136e-01 2.795459330081939697e-01 4.090878367424011230e-01 -1.530079990625381470e-01 -4.479954764246940613e-02 3.276249468326568604e-01 1.200857535004615784e-01 1.362119466066360474e-01 4.632584750652313232e-02 2.173760384321212769e-01 1.104102954268455505e-01 8.758854120969772339e-02 -1.527407914400100708e-01 -1.847534626722335815e-01 -1.556467264890670776e-01 -4.868572577834129333e-02 -4.624064266681671143e-02 5.489343404769897461e-02 -1.083821281790733337e-01 7.298995554447174072e-02 3.278172761201858521e-02 5.528872013092041016e-01 1.120842456817626953e+00 7.374974433332681656e-03 1.999216824769973755e-01 2.331786043941974640e-02
-2.643084526062011719e-02 -5.536237731575965881e-03 -2.040942758321762085e-02 1.119352579116821289e-01 3.998594582080841064e-01 5.730682611465454102e-01 2.410605400800704956e-01 5.790995955467224121e-01 1.603022217750549316e-01 3.460521996021270752e-01 2.590301036834716797e-01 1.429466307163238525e-01 1.313462853431701660e-01 8.285739272832870483e-02 1.093788072466850281e-02 7.961316406726837158e-02 -1.158510521054267883e-01 -2.250745445489883423e-01 -5.545450374484062195e-02 9.631972014904022217e-02 1.766166239976882935e-01 -2.595106959342956543e-01 9.815092384815216064e-02 -2.056600339710712433e-02 4.044224917888641357e-01 5.076727867126464844e-01 2.158917188644409180e-01 4.691675305366516113e-02
-1.837452873587608337e-02 -3.102977946400642395e-02 -1.165152434259653091e-02 2.334326207637786865e-01 2.064022719860076904e-01 8.941400647163391113e-01 3.320424258708953857e-01 1.979361623525619507e-01 7.826167345046997070e-02 1.682774871587753296e-01 2.580438256263732910e-01 2.667583823204040527e-01 1.374382376670837402e-01 -3.328393772244453430e-02 1.767810806632041931e-02 1.659052795730531216e-04 1.817602962255477905e-01 1.488673407584428787e-02 -1.402703374624252319e-01 9.165635704994201660e-02 -2.742495536804199219e-01 -1.445817351341247559e-01 2.155865281820297241e-01 3.149083629250526428e-02 -4.097682610154151917e-02 6.253851652145385742e-01 1.084196791052818298e-01 1.957082375884056091e-02
2.830420061945915222e-02 -6.201257463544607162e-03 -7.928480207920074463e-02 -2.431987524032592773e-01 9.917506575584411621e-02 -1.067875996232032776e-01 1.662470549345016479e-01 1.751826554536819458e-01 5.153122544288635254e-02 3.145661950111389160e-01 8.810368925333023071e-02 1.386349946260452271e-01 -2.107865177094936371e-02 -1.634410321712493896e-01 6.177258118987083435e-02 2.262776941061019897e-01 1.999017447233200073e-01 1.563671678304672241e-01 -7.668939977884292603e-02 -1.211133450269699097e-01 -2.396463900804519653e-01 -1.810271292924880981e-01 -5.563797056674957275e-02 -1.376655101776123047e-01 -1.930661201477050781e-01 4.791515171527862549e-01 -3.323414325714111328e-01 3.396730497479438782e-02
-3.220748156309127808e-03 1.482084859162569046e-02 -8.026712387800216675e-02 -2.183134704828262329e-01 -1.320896595716476440e-01 -1.552321463823318481e-01 2.519470639526844025e-02 -1.517285853624343872e-01 2.112119048833847046e-01 -5.439979955554008484e-02 -9.008625522255897522e-03 -2.060648202896118164e-01 -1.299168020486831665e-01 -2.051162570714950562e-01 -5.477556958794593811e-03 1.105595305562019348e-01 2.552607059478759766e-01 2.156966477632522583e-01 -2.525081038475036621e-01 -2.349452078342437744e-01 -2.282400131225585938e-01 -1.500407606363296509e-01 -1.982573121786117554e-01 1.401454210281372070e-01 -2.986464202404022217e-01 6.379026770591735840e-01 -4.083763062953948975e-02 -2.240233495831489563e-02
-6.213797256350517273e-03 -1.003229543566703796e-01 -1.576170139014720917e-02 -8.177420496940612793e-01 3.799758553504943848e-01 1.222273930907249451e-01 1.004526987671852112e-01 -2.377879321575164795e-01 -3.093250095844268799e-01 -1.594759970903396606e-01 -1.515514105558395386e-01 -1.615755110979080200e-01 -1.546646505594253540e-01 -4.544254243373870850e-01 7.879830896854400635e-03 8.429926633834838867e-02 2.185838669538497925e-01 -1.446150243282318115e-01 -1.990942806005477905e-01 -1.234221532940864563e-01 -8.732306770980358124e-03 -1.384903937578201294e-01 -2.948335930705070496e-02 3.582005798816680908e-01 1.291832029819488525e-01 9.989734292030334473e-01 9.123687446117401123e-02 -1.329503022134304047e-02
2.848377451300621033e-02 -1.456961482763290405e-01 -1.276921778917312622e-01 -7.033755779266357422e-01 3.368054628372192383e-01 2.480608820915222168e-01 4.029254615306854248e-02 2.207089588046073914e-02 2.428710088133811951e-02 -4.484799504280090332e-02 -4.257114529609680176e-01 -4.786255955696105957e-01 -2.756102979183197021e-01 -2.790130674839019775e-01 2.149813771247863770e-01 -6.066044792532920837e-02 -2.404645550996065140e-03 -2.211532741785049438e-01 -1.605792790651321411e-01 -2.075400054454803467e-01 -2.408411726355552673e-02 -9.550447762012481689e-02 -9.366991370916366577e-02 3.958756849169731140e-02 1.811353266239166260e-01 8.412138223648071289e-01 9.223423153162002563e-02 -1.652074791491031647e-02
6.613433361053466797e-03 -2.598708681762218475e-02 -5.356119871139526367e-01 -3.257760405540466309e-01 -6.265938282012939453e-02 -2.896864898502826691e-02 2.387151420116424561e-01 1.192707344889640808e-01 4.827645048499107361e-02 8.196636289358139038e-02 -4.292928799986839294e-02 -3.871389329433441162e-01 -3.707013130187988281e-01 7.878019660711288452e-02 -7.921285182237625122e-02 -4.473664611577987671e-02 -2.338047325611114502e-01 -1.934303641319274902e-01 -3.006453067064285278e-02 1.180765181779861450e-01 9.524638205766677856e-02 -1.269121654331684113e-02 1.970577836036682129e-01 1.995026320219039917e-01 1.187208369374275208e-01 5.482890605926513672e-01 -1.466594450175762177e-02 -3.257759287953376770e-02
-1.376995071768760681e-02 -1.152100041508674622e-01 -5.972340703010559082e-01 -4.327144026756286621e-01 1.689515262842178345e-01 2.110584974288940430e-01 1.867973506450653076e-01 9.979968518018722534e-02 1.452597379684448242e-01 -1.141356676816940308e-01 -2.352793700993061066e-02 -1.879193037748336792e-01 -3.811210393905639648e-02 1.568010002374649048e-01 -7.382559776306152344e-02 1.721686124801635742e-01 -1.762725226581096649e-02 -1.160280928015708923e-01 -1.146477833390235901e-01 1.814320087432861328e-01 1.259208023548126221e-01 9.261909872293472290e-03 -6.581247597932815552e-02 1.062775310128927231e-02 -1.760683059692382812e-01 2.316191196441650391e-01 -1.074710488319396973e-01 -1.749567501246929169e-02
2.174281701445579529e-02 -8.020749688148498535e-02 -5.589466691017150879e-01 -2.279164940118789673e-01 3.848800063133239746e-01 8.071196675300598145e-01 6.754842400550842285e-01 2.674044966697692871e-01 2.946810424327850342e-01 4.372739791870117188e-01 -4.627689719200134277e-02 -1.880202740430831909e-01 -6.120652705430984497e-02 -5.703319981694221497e-02 1.102766916155815125e-01 -8.217565715312957764e-02 -8.712231367826461792e-02 1.376346796751022339e-01 -2.320482395589351654e-02 2.186276167631149292e-01 5.428371485322713852e-03 -1.799735054373741150e-02 1.840272545814514160e-01 -9.884530305862426758e-02 6.021684035658836365e-02 2.629260718822479248e-01 -9.490395337343215942e-02 -2.369901537895202637e-02
-1.896827667951583862e-02 2.968444302678108215e-02 -3.808460533618927002e-01 3.375864028930664062e-01 6.702977418899536133e-01 6.545743346214294434e-01 6.434409618377685547e-01 6.158300042152404785e-01 2.592248320579528809e-01 2.397082448005676270e-01 2.223509252071380615e-01 -2.205286324024200439e-01 -1.502695232629776001e-01 4.575940221548080444e-02 1.037878915667533875e-01 -2.068184763193130493e-01 2.027557417750358582e-02 4.943941533565521240e-02 2.391213923692703247e-02 -1.123403571546077728e-02 -1.513776034116744995e-01 2.351884543895721436e-02 2.048744708299636841e-01 9.055390208959579468e-02 3.414726853370666504e-01 1.834734678268432617e-01 -1.423252671957015991e-01 3.011315688490867615e-02
2.869735285639762878e-02 -3.956269472837448120e-03 -3.392841517925262451e-01 1.057226285338401794e-01 2.646917402744293213e-01 1.358717828989028931e-01 -5.127329006791114807e-02 8.074730634689331055e-02 2.669514343142509460e-02 1.665400713682174683e-01 -6.617994606494903564e-02 -9.642291814088821411e-02 2.024363493546843529e-03 -8.624987676739692688e-04 2.550600469112396240e-02 1.435820907354354858e-01 1.630945503711700439e-01 5.850347504019737244e-02 1.210877746343612671e-01 2.041523754596710205e-01 1.778555959463119507e-01 1.840343326330184937e-01 2.018148601055145264e-01 7.414437532424926758e-01 -5.162806063890457153e-02 -1.229661181569099426e-01 -1.342010051012039185e-01 -6.315665319561958313e-03
-1.687997207045555115e-02 -9.503917768597602844e-03 -2.856512665748596191e-01 -5.546139478683471680e-01 -3.956612050533294678e-01 -4.551356285810470581e-02 -3.914816305041313171e-02 -3.867463767528533936e-01 -4.518707096576690674e-02 1.410946249961853027e-01 6.235064938664436340e-02 9.578906930983066559e-03 5.182364210486412048e-02 -9.333737939596176147e-02 -1.269237790256738663e-02 3.716989606618881226e-02 7.622722536325454712e-02 -1.768238544464111328e-01 -1.341523081064224243e-01 3.224282991141080856e-03 -8.114820718765258789e-02 -1.672913879156112671e-01 -1.568164080381393433e-01 5.583037734031677246e-01 1.423887610435485840e-01 -1.578998565673828125e-02 7.925767451524734497e-03 2.651403844356536865e-02
2.535669505596160889e-02 3.186483308672904968e-02 -1.448186958441510797e-04 -3.311787173151969910e-02 -2.197513729333877563e-01 -2.105169184505939484e-02 3.533509746193885803e-02 -8.436033129692077637e-02 -2.882858514785766602e-01 -1.005292609333992004e-01 -2.149745225906372070e-01 -1.245817169547080994e-01 -5.252363681793212891e-01 -3.217015564441680908e-01 -1.759370565414428711e-01 3.746315836906433105e-02 3.259998187422752380e-02 1.358420997858047485e-01 8.711051940917968750e-02 2.786272205412387848e-02 -6.236716359853744507e-02 -6.733093410730361938e-02 2.935796380043029785e-01 2.307123243808746338e-01 2.060063183307647705e-03 -2.759735286235809326e-02 2.986001595854759216e-02 1.404862478375434875e-02
1.130962744355201721e-02 -4.751572385430335999e-03 -2.658499218523502350e-02 2.898607030510902405e-02 -2.349367365241050720e-02 -2.122929096221923828e-01 -2.039055228233337402e-01 -2.626610100269317627e-01 -1.970235407352447510e-01 -1.943411082029342651e-01 -2.232785522937774658e-01 -5.217496678233146667e-02 2.582118101418018341e-02 2.934686243534088135e-01 2.927662059664726257e-02 -3.354864418506622314e-01 -9.082973003387451172e-02 2.714914828538894653e-02 3.381560742855072021e-02 -1.586152426898479462e-02 -3.130443096160888672e-01 -1.223584786057472229e-01 5.495525896549224854e-02 1.000983193516731262e-01 -2.097210288047790527e-02 8.402206003665924072e-03 2.007039636373519897e-02 -1.236170530319213867e-03
1.587983593344688416e-02 1.295851171016693115e-02 -3.519541025161743164e-02 1.572007685899734497e-02 3.047585859894752502e-02 -1.207623630762100220e-03 -1.453088410198688507e-02 -2.659879624843597412e-02 7.912598550319671631e-03 -1.392309553921222687e-02 -1.808709464967250824e-02 1.883439719676971436e-03 5.693588405847549438e-03 -2.027060464024543762e-02 2.824116125702857971e-02 2.818480134010314941e-04 -9.397592395544052124e-03 -4.950417205691337585e-03 1.366404071450233459e-02 -1.528168283402919769e-02 3.386786952614784241e-02 3.282494470477104187e-02 -1.819037646055221558e-02 -7.296307012438774109e-03 8.048631250858306885e-03 -2.601615525782108307e-02 2.918954566121101379e-02 -6.647996604442596436e-03
