-3.532316535711288452e-03 -1.724352315068244934e-02 -8.588152006268501282e-03 -4.733333364129066467e-03 1.063434779644012451e-02 -1.356158964335918427e-02 -3.280829638242721558e-02 9.259190410375595093e-03 7.481805980205535889e-03 1.412376388907432556e-02 3.559846803545951843e-02 2.647942304611206055e-02 6.730683147907257080e-03 -2.896165475249290466e-02 1.898177713155746460e-02 -2.007664181292057037e-02 3.540111705660820007e-02 2.832062169909477234e-02 -3.560757264494895935e-02 5.207177251577377319e-03 4.681680351495742798e-03 -4.337362945079803467e-03 6.612449884414672852e-03 1.777969300746917725e-03 -1.629680395126342773e-02 -1.028424501419067383e-02 -2.642232924699783325e-03 -3.051941841840744019e-02
-2.400060370564460754e-02 2.123164385557174683e-02 -2.970835752785205841e-02 1.856971904635429382e-02 -4.873033612966537476e-03 -3.147052973508834839e-02 -1.136101596057415009e-02 -5.839275196194648743e-03 8.672982454299926758e-03 1.981551945209503174e-02 3.466608747839927673e-02 -1.845991611480712891e-02 -8.289899677038192749e-03 1.494149118661880493e-02 -4.525244235992431641e-03 -1.488273218274116516e-02 1.387603580951690674e-02 -2.953972667455673218e-02 1.833360269665718079e-02 -2.609049528837203979e-02 -2.291871048510074615e-02 -6.298074498772621155e-03 1.065459102392196655e-02 -1.037351973354816437e-02 -1.151841133832931519e-02 -2.068334445357322693e-02 -2.968732453882694244e-02 9.663380682468414307e-03
5.536563694477081299e-04 -2.428186498582363129e-02 5.455873906612396240e-04 2.883015945553779602e-02 -5.933923646807670593e-03 -2.122685872018337250e-02 -3.083537518978118896e-02 -2.175781130790710449e-02 3.214679285883903503e-02 -2.992522902786731720e-02 3.134514391422271729e-01 3.332518339157104492e-01 3.254659175872802734e-01 3.503772616386413574e-01 4.408567249774932861e-01 4.844812154769897461e-01 2.339514195919036865e-01 2.751907110214233398e-01 2.608818411827087402e-01 1.920147091150283813e-01 1.288174837827682495e-01 -1.618662476539611816e-02 -1.490106433629989624e-02 2.783515676856040955e-02 -1.635207608342170715e-02 2.202876284718513489e-02 7.515922188758850098e-03 -2.464637719094753265e-02
7.076814770698547363e-03 -2.412780374288558960e-02 -2.046348899602890015e-02 -1.727770641446113586e-02 2.062764018774032593e-01 6.089795827865600586e-01 8.026021122932434082e-01 7.648498415946960449e-01 8.234065175056457520e-01 1.468154072761535645e+00 6.104366779327392578e-01 8.613895177841186523e-01 8.619318604469299316e-01 7.477650642395019531e-01 5.347311496734619141e-01 9.480212926864624023e-01 7.942935824394226074e-01 6.379947066307067871e-01 6.023311018943786621e-01 4.865537881851196289e-01 7.012776136398315430e-01 4.313581287860870361e-01 -1.244368851184844971e-01 -2.825803458690643311e-01 -2.656585872173309326e-01 -1.663802936673164368e-02 -1.510143838822841644e-02 1.342499628663063049e-02
3.332171589136123657e-03 7.368566840887069702e-02 3.291306793689727783e-01 7.544339895248413086e-01 9.187811613082885742e-01 1.603805780410766602e+00 1.843839287757873535e+00 1.607372045516967773e+00 8.397077322006225586e-01 3.641121387481689453e-01 4.547769427299499512e-01 3.929159045219421387e-01 3.680226504802703857e-01 4.492161273956298828e-01 2.256508618593215942e-01 3.927641510963439941e-01 3.076834678649902344e-01 1.463205814361572266e-01 3.877313435077667236e-01 1.142372116446495056e-01 -1.999564021825790405e-01 -8.402162045240402222e-02 2.622980773448944092e-01 9.705033898353576660e-02 -3.077232837677001953e-01 -2.783254981040954590e-01 1.318819075822830200e-02 1.147026196122169495e-02
-2.433240041136741638e-02 -1.335262507200241089e-02 3.870181441307067871e-01 1.354712605476379395e+00 1.508174061775207520e+00 1.820974588394165039e+00 4.061237871646881104e-01 1.199078634381294250e-01 -6.386400014162063599e-02 -2.860439941287040710e-02 1.918725520372390747e-01 1.897706538438796997e-01 1.378981471061706543e-01 1.778924018144607544e-01 2.177741937339305878e-02 5.450701713562011719e-02 1.383957266807556152e-01 -1.775637269020080566e-01 2.568382918834686279e-01 1.676970422267913818e-01 2.572831511497497559e-01 1.145268082618713379e-01 9.947086125612258911e-02 1.246106922626495361e-01 -3.354670703411102295e-01 -2.712631821632385254e-01 2.156247198581695557e-02 -1.855158805847167969e-02
6.132081151008605957e-03 3.491542935371398926e-01 6.233835816383361816e-01 2.002391576766967773e+00 8.548289537429809570e-01 3.435293436050415039e-01 6.738736629486083984e-01 5.667092278599739075e-02 -2.443219348788261414e-02 1.425471603870391846e-01 2.571006715297698975e-01 1.895162612199783325e-01 -2.330796420574188232e-01 1.096758022904396057e-01 8.870976418256759644e-02 5.305037274956703186e-02 1.458223462104797363e-01 -1.358221620321273804e-01 1.725508123636245728e-01 -4.187910556793212891e-01 -3.422766625881195068e-01 -3.317757844924926758e-01 -4.002585113048553467e-01 -6.319186184555292130e-03 -4.339197576045989990e-01 -2.956419289112091064e-01 1.490693911910057068e-02 2.026158943772315979e-02
3.520737215876579285e-02 7.086582779884338379e-01 1.027578353881835938e+00 9.584541320800781250e-01 8.593875765800476074e-01 2.387672960758209229e-01 6.573093533515930176e-01 4.372758865356445312e-01 8.621259033679962158e-02 -1.749414950609207153e-02 -2.129015177488327026e-01 9.462649375200271606e-02 2.768078744411468506e-01 1.817093491554260254e-01 2.431510984897613525e-01 -6.624849140644073486e-02 8.306972682476043701e-02 2.249816209077835083e-01 -5.998427793383598328e-02 4.206512589007616043e-03 2.659759819507598877e-01 1.171729899942874908e-02 -1.655282378196716309e-01 -1.045532897114753723e-01 -5.553415417671203613e-01 2.067584916949272156e-02 5.593482404947280884e-03 -2.056497894227504730e-02
8.662406355142593384e-03 5.335986614227294922e-01 9.235055446624755859e-01 8.058782815933227539e-01 9.029690027236938477e-01 1.411439776420593262e-01 1.118554025888442993e-01 -4.715258255600929260e-02 1.989061385393142700e-02 -2.364687621593475342e-02 -1.225706711411476135e-01 1.752050817012786865e-01 -1.356206238269805908e-01 -1.369470171630382538e-02 3.480987250804901123e-01 2.915962934494018555e-01 2.671168148517608643e-01 -4.769054800271987915e-02 -1.579027473926544189e-01 1.942429319024085999e-02 4.378978908061981201e-02 -2.448539249598979950e-02 -8.507592976093292236e-02 -1.243287250399589539e-01 -7.093109488487243652e-01 -1.939513981342315674e-01 -1.844275295734405518e-01 2.960268408060073853e-03
5.857195705175399780e-03 3.321276605129241943e-01 5.657274723052978516e-01 8.628175854682922363e-01 9.091269969940185547e-01 5.723410099744796753e-02 -7.408262044191360474e-02 1.419871896505355835e-01 -4.998534452170133591e-03 1.340724229812622070e-01 -2.981881983578205109e-02 -2.417748421430587769e-01 -9.673714637756347656e-02 -2.717289030551910400e-01 2.935221195220947266e-01 5.113797783851623535e-01 3.422985076904296875e-01 4.499453678727149963e-02 1.333718150854110718e-01 -9.134497493505477905e-02 -5.655425041913986206e-02 -6.936452537775039673e-02 2.273272573947906494e-01 3.790906667709350586e-01 -1.659994870424270630e-01 -7.586944103240966797e-02 -1.590136140584945679e-01 7.203876972198486328e-03
-2.397172152996063232e-03 3.408171832561492920e-01 1.101704120635986328e+00 1.303522109985351562e+00 4.623206704854965210e-02 -1.839167438447475433e-02 -2.564110457897186279e-01 -6.773269772529602051e-01 -2.313953042030334473e-01 -6.447038650512695312e-01 -6.218747496604919434e-01 -4.185263514518737793e-01 -7.922274470329284668e-01 -5.400549173355102539e-01 -1.525289118289947510e-01 -8.824092149734497070e-02 2.757065892219543457e-01 3.211838006973266602e-01 -1.509119272232055664e-01 -2.261237353086471558e-01 -3.198665976524353027e-01 -2.014173418283462524e-01 -1.665226966142654419e-01 -3.018312156200408936e-01 -1.608464568853378296e-01 1.339524611830711365e-02 -2.049892544746398926e-01 -1.539532281458377838e-02
1.033466309309005737e-02 3.094137012958526611e-01 1.122854590415954590e+00 7.216553688049316406e-01 -3.732917606830596924e-01 -3.184056878089904785e-01 -2.505577206611633301e-01 -5.197348594665527344e-01 -6.330265402793884277e-01 -8.288950920104980469e-01 -7.991651296615600586e-01 -3.756762146949768066e-01 -2.996350824832916260e-01 -1.707324832677841187e-01 -1.361919343471527100e-01 -1.652332246303558350e-01 -1.737805008888244629e-01 1.003366559743881226e-01 2.641738653182983398e-01 4.941705614328384399e-02 -1.102949902415275574e-01 -5.836061835289001465e-01 -7.898933291435241699e-01 -3.577573597431182861e-01 2.900841236114501953e-01 5.371772050857543945e-01 1.226111501455307007e-02 1.342486962676048279e-02
-8.683810010552406311e-03 3.109198212623596191e-01 5.718796849250793457e-01 3.994621634483337402e-01 -1.460377573966979980e-01 -2.037921398878097534e-01 1.129626631736755371e-01 -1.561630964279174805e-01 -5.859854817390441895e-01 -4.214392900466918945e-01 4.300825893878936768e-01 -1.692224293947219849e-01 -6.110585480928421021e-02 -3.668468073010444641e-02 -1.444623172283172607e-01 -6.846166402101516724e-02 5.062494799494743347e-02 -6.512728519737720490e-03 3.966225385665893555e-01 -1.167347580194473267e-01 -2.247700691223144531e-01 -5.501734018325805664e-01 -5.783191323280334473e-01 -4.318306744098663330e-01 3.071836531162261963e-01 4.324448108673095703e-01 3.891579806804656982e-03 6.946660578250885010e-03
-1.881403662264347076e-02 1.244979724287986755e-02 1.096601784229278564e-02 1.470577269792556763e-01 3.301416337490081787e-01 1.592928729951381683e-02 -5.564705729484558105e-01 -6.213154792785644531e-01 -1.778819710016250610e-01 6.759586185216903687e-02 2.519524395465850830e-01 -1.200384274125099182e-01 -1.697144359350204468e-01 -1.749110072851181030e-01 -6.674325466156005859e-02 -2.118223160505294800e-01 -4.004919826984405518e-01 2.022917196154594421e-02 -1.950536370277404785e-01 -2.152194678783416748e-01 -3.535696119070053101e-02 -1.186447441577911377e-01 -2.875979542732238770e-01 1.993072777986526489e-01 1.947683840990066528e-01 2.122718244791030884e-01 -3.148154541850090027e-02 -1.137143373489379883e-02
-3.467967733740806580e-02 3.860766589641571045e-01 1.518119424581527710e-01 7.582338061183691025e-03 8.983474373817443848e-01 1.121832132339477539e-01 -1.176889836788177490e-01 -7.906396985054016113e-01 -2.683592028915882111e-02 6.706464290618896484e-02 -3.456013202667236328e-01 -4.613496065139770508e-01 -2.269601076841354370e-01 -3.199495375156402588e-01 -6.314960122108459473e-02 -9.598167613148689270e-03 -3.310652375221252441e-01 -3.782093226909637451e-01 2.390076965093612671e-01 -1.319313645362854004e-01 8.124244399368762970e-03 3.249878585338592529e-01 -1.066450476646423340e-01 1.785657405853271484e-01 4.113346040248870850e-01 1.354192048311233521e-01 -3.028310835361480713e-02 1.829113066196441650e-02
-6.895989179611206055e-03 2.048800140619277954e-01 5.424159169197082520e-01 1.171652317047119141e+00 7.082628607749938965e-01 5.887997150421142578e-01 3.657605051994323730e-01 -2.880272269248962402e-01 -1.073303520679473877e-01 -4.048070684075355530e-02 -2.956774532794952393e-01 2.698240578174591064e-01 1.561802532523870468e-02 -3.578321039676666260e-01 -2.189433574676513672e-01 2.769796177744865417e-02 -1.462786644697189331e-01 -1.080377250909805298e-01 2.535497546195983887e-01 4.603854715824127197e-01 4.511038959026336670e-01 1.705134361982345581e-01 4.596358239650726318e-01 4.376375079154968262e-01 6.118108034133911133e-01 7.648561149835586548e-02 3.334271013736724854e-01 -2.803456969559192657e-02
-5.457177758216857910e-05 4.109515547752380371e-01 5.487869977951049805e-01 1.534734964370727539e+00 7.212946414947509766e-01 9.733022451400756836e-01 3.389393985271453857e-01 -3.351662158966064453e-01 -5.163554549217224121e-01 -3.107680678367614746e-01 -7.984714210033416748e-02 3.172290697693824768e-02 2.491196431219577789e-02 -1.306829750537872314e-01 -3.732228875160217285e-01 -6.248009949922561646e-02 -2.824825048446655273e-01 1.382684856653213501e-01 5.627244710922241211e-01 4.677200913429260254e-01 4.645378887653350830e-01 8.360931277275085449e-02 5.378770232200622559e-01 4.166242778301239014e-01 7.433862686157226562e-01 2.057116292417049408e-02 1.067939773201942444e-01 1.955871284008026123e-02
-3.350804373621940613e-02 4.475181996822357178e-01 5.488052368164062500e-01 1.650020360946655273e+00 1.165486335754394531e+00 5.611057877540588379e-01 -4.734240472316741943e-01 -4.460717737674713135e-01 -6.929960250854492188e-01 -1.015271306037902832e+00 -8.186998367309570312e-01 -5.451132059097290039e-01 -4.499215185642242432e-01 -1.433154642581939697e-01 -3.147884905338287354e-01 -2.965457551181316376e-02 -1.910324841737747192e-01 1.691809147596359253e-01 4.079947471618652344e-01 2.032973915338516235e-01 2.250936627388000488e-01 1.112926453351974487e-01 1.748768836259841919e-01 1.378667503595352173e-01 9.677261859178543091e-02 -5.544563010334968567e-02 -3.052624687552452087e-02 9.647607803344726562e-03
3.088157996535301208e-02 4.573782384395599365e-01 8.263465762138366699e-01 1.813724517822265625e+00 1.342389822006225586e+00 2.784132361412048340e-01 -8.188690990209579468e-02 -3.209337592124938965e-01 -1.602624505758285522e-01 -9.058964252471923828e-01 -1.086363196372985840e+00 -1.208020567893981934e+00 -7.398390769958496094e-01 -5.890223383903503418e-01 -2.234492897987365723e-01 2.968500256538391113e-01 4.194426238536834717e-01 3.600865304470062256e-01 4.108486473560333252e-01 1.377621889114379883e-01 1.616342663764953613e-01 4.904584884643554688e-01 2.377910763025283813e-01 -9.198197722434997559e-02 3.981495276093482971e-03 -7.155176252126693726e-02 -3.907300531864166260e-03 -1.699347235262393951e-02
-1.490573398768901825e-02 3.219358325004577637e-01 1.138845920562744141e+00 1.535284399986267090e+00 1.432188987731933594e+00 1.342478245496749878e-01 -1.463603228330612183e-01 -4.167871475219726562e-01 -1.393484324216842651e-01 -4.182661771774291992e-01 -4.377030730247497559e-01 -4.645287692546844482e-01 -2.345452904701232910e-01 -1.364536136388778687e-01 1.476089209318161011e-01 2.162616997957229614e-01 4.980734288692474365e-01 2.802388668060302734e-01 4.527410268783569336e-01 -2.907634479925036430e-03 2.957061827182769775e-01 4.786845445632934570e-01 -2.262203767895698547e-02 2.684732079505920410e-01 2.206697165966033936e-01 2.380989193916320801e-01 1.195176690816879272e-02 -1.727251149713993073e-02
-2.782654389739036560e-02 3.288158774375915527e-01 8.321232795715332031e-01 1.615281581878662109e+00 1.094825387001037598e+00 1.857249736785888672e-01 1.935939192771911621e-01 1.321656703948974609e-01 3.570754230022430420e-01 4.210656285285949707e-01 3.507501780986785889e-01 2.426843345165252686e-01 -6.579247117042541504e-02 1.844758689403533936e-01 3.065934777259826660e-01 -1.190287526696920395e-02 2.548021078109741211e-01 2.525459229946136475e-01 1.612029075622558594e-01 1.484121084213256836e-01 2.788119614124298096e-01 -1.383789777755737305e-01 -7.094218581914901733e-02 6.969289183616638184e-01 4.159289896488189697e-01 3.086168169975280762e-01 3.306566178798675537e-01 3.276671096682548523e-02
-7.753513753414154053e-03 5.401397943496704102e-01 1.040142893791198730e+00 1.220340251922607422e+00 4.875353574752807617e-01 9.153707325458526611e-02 3.859241679310798645e-02 1.095948517322540283e-01 2.766449451446533203e-01 -1.205139160156250000e-01 9.743767231702804565e-02 8.944825083017349243e-02 1.793230324983596802e-02 1.474927086383104324e-02 9.654068201780319214e-02 1.787316650152206421e-01 1.243523210287094116e-01 -4.982553049921989441e-02 6.526006013154983521e-02 1.422888785600662231e-01 -2.831090390682220459e-01 -4.492041766643524170e-01 -7.073987275362014771e-02 1.398087024688720703e+00 4.532379209995269775e-01 -3.543545957654714584e-03 3.283022642135620117e-01 3.466304764151573181e-02
-7.870627567172050476e-03 5.757934600114822388e-02 1.694848299026489258e+00 5.529627799987792969e-01 2.881286740303039551e-01 2.259315103292465210e-01 -7.119170576333999634e-02 1.687827892601490021e-02 2.242016047239303589e-01 -2.058465927839279175e-01 2.713781893253326416e-01 2.088090628385543823e-01 -9.351072460412979126e-02 -3.868189081549644470e-02 -1.783473938703536987e-01 1.873066835105419159e-02 -1.501646488904953003e-01 -1.549150645732879639e-01 5.412562564015388489e-02 1.106711477041244507e-01 -2.228263951838016510e-02 -4.849062860012054443e-01 1.947421431541442871e-01 3.205547332763671875e-01 2.344119995832443237e-01 2.446902170777320862e-02 3.085276484489440918e-01 -1.641444303095340729e-02
-1.163521036505699158e-02 -3.064208850264549255e-02 6.681556105613708496e-01 7.703933715820312500e-01 1.249032855033874512e+00 4.795999825000762939e-01 4.204839169979095459e-01 2.969034314155578613e-01 2.594567239284515381e-01 1.575862616300582886e-01 5.245415568351745605e-01 2.200855314731597900e-01 -1.325762644410133362e-02 -3.300843760371208191e-02 3.185618817806243896e-01 1.221679672598838806e-01 -1.050448939204216003e-01 2.828704118728637695e-01 2.600683569908142090e-01 -1.346783041954040527e-01 -4.442763626575469971e-01 -4.392581284046173096e-01 -2.789806127548217773e-01 2.659486532211303711e-01 2.529975175857543945e-01 3.181962370872497559e-01 3.475621342658996582e-01 -1.026862114667892456e-02
-8.763793855905532837e-03 -2.699597924947738647e-02 4.691132605075836182e-01 9.314813613891601562e-01 1.609379172325134277e+00 9.181957840919494629e-01 1.138906002044677734e+00 1.063298344612121582e+00 3.157267868518829346e-01 3.489949703216552734e-01 4.687443375587463379e-01 3.246829509735107422e-01 6.400851160287857056e-02 3.295462131500244141e-01 3.368000388145446777e-01 -1.003321260213851929e-01 -2.792281508445739746e-01 1.306224614381790161e-01 1.298161149024963379e-01 -1.960635036230087280e-01 -4.695905447006225586e-01 -2.643002867698669434e-01 -2.086551487445831299e-02 3.047214448451995850e-01 -1.603836659342050552e-03 2.700035646557807922e-02 2.316821739077568054e-02 -3.238370269536972046e-02
2.040527760982513428e-04 -2.227017842233181000e-02 3.566575422883033752e-02 1.709002405405044556e-01 5.653417706489562988e-01 6.777859330177307129e-01 1.089828491210937500e+00 1.222271084785461426e+00 1.164341807365417480e+00 6.993274092674255371e-01 7.437382340431213379e-01 4.462512433528900146e-01 8.918508887290954590e-01 8.853096961975097656e-01 4.308743774890899658e-01 1.195308193564414978e-01 2.532262504100799561e-01 1.499235779047012329e-01 2.599369585514068604e-01 3.781578838825225830e-01 4.637963175773620605e-01 8.817410469055175781e-02 2.727838456630706787e-01 -1.142756454646587372e-02 -2.952504344284534454e-02 -9.193480014801025391e-03 2.036361023783683777e-02 -1.150835864245891571e-02
-1.184591278433799744e-02 -3.199851140379905701e-02 2.499974146485328674e-02 1.549314334988594055e-02 6.821725517511367798e-02 7.644532620906829834e-02 4.002416878938674927e-02 3.619885146617889404e-01 -1.346744247712194920e-03 1.917167683131992817e-03 1.799356341361999512e-01 3.644055128097534180e-01 9.148199558258056641e-01 7.190504074096679688e-01 6.203698515892028809e-01 8.226412534713745117e-01 8.737231492996215820e-01 9.242026805877685547e-01 7.341935634613037109e-01 7.965770959854125977e-01 5.365561842918395996e-01 5.077314376831054688e-01 3.080613315105438232e-01 -1.479893177747726440e-02 1.129560917615890503e-02 -3.230793401598930359e-02 1.033756881952285767e-02 -1.298582553863525391e-02
3.519929572939872742e-02 2.584796026349067688e-02 2.043810114264488220e-02 2.353474870324134827e-02 -2.504710108041763306e-03 3.283384069800376892e-02 2.631287649273872375e-02 -3.481205925345420837e-02 -2.707276679575443268e-02 5.041472613811492920e-03 -3.167727589607238770e-02 -1.194733940064907074e-02 1.877017691731452942e-02 3.116365522146224976e-03 1.917781680822372437e-02 -3.383614867925643921e-02 -3.223745152354240417e-02 -1.406703703105449677e-02 7.559247314929962158e-03 -6.145440042018890381e-03 3.479011729359626770e-02 3.465517237782478333e-02 2.776075527071952820e-02 -1.282381266355514526e-02 -7.545309141278266907e-03 4.632059484720230103e-03 1.194819435477256775e-02 -2.695433795452117920e-02
