-1.779699884355068207e-02 -2.341163717210292816e-02 -2.022014930844306946e-02 -1.416096091270446777e-02 3.066360577940940857e-02 1.890643686056137085e-02 1.561315730214118958e-02 -4.372633993625640869e-03 -2.025660872459411621e-02 1.407089829444885254e-02 -2.514476515352725983e-02 3.455523401498794556e-03 -1.816277801990509033e-01 -2.480823397636413574e-01 -2.357346266508102417e-01 -1.917192637920379639e-01 1.653982698917388916e-02 3.118839487433433533e-02 2.355863153934478760e-02 7.753703743219375610e-03 -2.351361140608787537e-02 -1.538227871060371399e-02 -2.376946061849594116e-02 1.937720552086830139e-02 -2.617948502302169800e-02 1.419906690716743469e-02 -2.629744634032249451e-02 -3.276243805885314941e-04
-1.376172527670860291e-02 3.260394558310508728e-02 7.031131535768508911e-03 2.238627150654792786e-02 5.546183511614799500e-02 6.737115979194641113e-02 2.182803452014923096e-01 1.151549294590950012e-01 3.240346908569335938e-01 7.490063905715942383e-01 5.661062002182006836e-01 9.293550252914428711e-01 7.097815275192260742e-01 2.450362145900726318e-01 -2.895981371402740479e-01 -3.784866631031036377e-01 -5.594975352287292480e-01 -4.807413518428802490e-01 -3.998082876205444336e-01 -3.601601421833038330e-01 -2.868741154670715332e-01 -6.740172393620014191e-03 -1.018448173999786377e-01 -1.326967626810073853e-01 2.375885471701622009e-02 1.350095495581626892e-02 -1.419633626937866211e-02 2.160664647817611694e-03
-2.493797987699508667e-02 1.236894726753234863e-02 -1.316503435373306274e-01 1.347134262323379517e-01 4.060982167720794678e-01 1.517628580331802368e-01 4.075942933559417725e-01 3.126060962677001953e-01 -6.528648138046264648e-01 -3.294183015823364258e-01 2.424998730421066284e-01 2.646345794200897217e-01 -9.987258166074752808e-02 -2.898843288421630859e-01 -3.529703319072723389e-01 -1.012221455574035645e+00 -3.667916059494018555e-01 -7.879152894020080566e-01 -3.382252156734466553e-01 -3.625085949897766113e-01 -5.994696021080017090e-01 -6.664272546768188477e-01 -3.078457415103912354e-01 2.440641671419143677e-01 3.061460852622985840e-01 1.540688723325729370e-01 -2.932292781770229340e-02 2.545300871133804321e-03
2.943934127688407898e-02 5.690913647413253784e-03 3.445175290107727051e-01 3.815077245235443115e-01 1.592277139425277710e-01 -3.415364027023315430e-01 -1.063045114278793335e-01 6.507404446601867676e-01 2.417493611574172974e-01 2.576505541801452637e-01 1.889708638191223145e-01 6.206830739974975586e-01 5.677889585494995117e-01 -2.404203638434410095e-02 8.588541299104690552e-02 -1.460181176662445068e-01 1.547704935073852539e-01 1.742556542158126831e-01 -2.765504121780395508e-01 -2.607467472553253174e-01 6.937720775604248047e-01 -3.033301532268524170e-01 -1.442539691925048828e-01 4.887954294681549072e-01 -1.868701279163360596e-01 3.060048818588256836e-01 1.564036160707473755e-01 2.777348831295967102e-02
-2.352064475417137146e-02 -2.940025180578231812e-03 4.329630136489868164e-01 -3.039375506341457367e-02 -1.965455859899520874e-01 -1.773958057165145874e-01 1.825021207332611084e-01 4.263903573155403137e-02 -1.674539744853973389e-01 1.155862137675285339e-01 -2.754739224910736084e-01 -1.170935183763504028e-01 1.321052461862564087e-01 4.791447520256042480e-01 2.815333306789398193e-01 -2.025028914213180542e-01 -6.333082169294357300e-02 5.002819299697875977e-01 -9.319142997264862061e-02 -1.296687126159667969e-01 -2.817580103874206543e-01 -3.904522657394409180e-01 -3.408586382865905762e-01 -2.642014920711517334e-01 -2.732652723789215088e-01 -9.835539013147354126e-02 -7.981078326702117920e-02 3.186976611614227295e-01
3.397558256983757019e-02 8.543044328689575195e-03 -4.661500155925750732e-01 2.341273427009582520e-01 -4.772753417491912842e-01 -1.708977967500686646e-01 -9.482204914093017578e-01 -1.345496177673339844e-01 7.602524012327194214e-02 -3.450207784771919250e-02 -2.642897702753543854e-02 1.199491098523139954e-01 -3.269085586071014404e-01 2.032859325408935547e-01 6.485811620950698853e-02 3.110449016094207764e-01 6.313049793243408203e-02 -4.344464465975761414e-02 1.439116243273019791e-02 2.262673228979110718e-01 -2.444156259298324585e-01 1.298606246709823608e-01 -7.874283790588378906e-01 -7.408813238143920898e-01 -2.731052413582801819e-02 -4.593442380428314209e-02 -8.580610156059265137e-01 2.798295319080352783e-01
2.608299255371093750e-04 -1.531981676816940308e-01 -5.263609290122985840e-01 5.327063202857971191e-01 -3.695521056652069092e-01 -5.542446300387382507e-02 -4.206552207469940186e-01 -2.514052763581275940e-02 4.588468074798583984e-01 -2.359536439180374146e-01 2.336864024400711060e-01 -2.585517168045043945e-01 1.115111038088798523e-01 1.669673174619674683e-01 9.670235961675643921e-02 -1.403851658105850220e-01 -4.552220553159713745e-02 -1.597204059362411499e-01 -7.919969037175178528e-03 -1.962056159973144531e-01 -2.295471727848052979e-01 2.442742735147476196e-01 6.012957543134689331e-03 -3.952163159847259521e-01 -4.465873241424560547e-01 -8.054305315017700195e-01 -6.317948698997497559e-01 -3.442720472812652588e-01
2.460242994129657745e-02 -4.269813001155853271e-01 -9.299643635749816895e-01 2.450020797550678253e-02 -1.204362139105796814e-01 -9.449232369661331177e-02 -7.359770685434341431e-02 -3.355040773749351501e-02 -5.484866444021463394e-03 3.932371363043785095e-02 2.107453346252441406e-01 -2.036586590111255646e-02 3.264911100268363953e-02 -2.342921793460845947e-01 -9.807650931179523468e-03 1.197798475623130798e-01 1.722862944006919861e-02 -3.136930242180824280e-02 6.089904159307479858e-02 -2.224741280078887939e-01 -4.035682976245880127e-01 4.641963168978691101e-02 -3.266429901123046875e-01 -3.396968245506286621e-01 -4.479110836982727051e-01 -1.152370572090148926e+00 -1.289589047431945801e+00 -4.313657283782958984e-01
2.896927595138549805e-01 2.945302426815032959e-01 -3.312339186668395996e-01 -2.633047997951507568e-01 -1.444422360509634018e-02 7.044922560453414917e-02 -1.007681414484977722e-01 -1.467089951038360596e-01 9.527590125799179077e-02 9.702430665493011475e-02 -8.112255483865737915e-02 -2.277690470218658447e-01 7.212135009467601776e-03 3.915843367576599121e-02 5.985802412033081055e-02 9.170542657375335693e-02 6.891216337680816650e-02 3.102196753025054932e-01 -2.900970540940761566e-02 8.276516944169998169e-02 1.290584653615951538e-01 4.650215059518814087e-02 -1.813331395387649536e-01 -2.922503650188446045e-01 -1.444673985242843628e-01 -2.683375477790832520e-01 -1.777045279741287231e-01 -3.246810287237167358e-02
-1.070968806743621826e-01 -6.164259314537048340e-01 5.035930871963500977e-02 1.038178503513336182e-01 5.818956494331359863e-01 6.281096935272216797e-01 4.688547849655151367e-01 1.855015158653259277e-01 -3.223899379372596741e-02 -1.311426460742950439e-01 4.073909521102905273e-01 1.017554476857185364e-02 1.833936125040054321e-01 3.757935762405395508e-01 4.583933949470520020e-01 3.742810189723968506e-01 9.234735369682312012e-02 3.589399755001068115e-01 3.922762870788574219e-01 1.298551857471466064e-01 1.471081078052520752e-01 7.648436725139617920e-02 -1.544152051210403442e-01 -3.252594918012619019e-02 2.202587723731994629e-01 -2.331687510013580322e-01 3.006179034709930420e-01 3.468120694160461426e-01
-1.459815651178359985e-01 -6.538430452346801758e-01 -5.850939080119132996e-02 4.421721696853637695e-01 -1.886339858174324036e-02 1.812358498573303223e-01 8.037401437759399414e-01 4.378762841224670410e-01 1.907705701887607574e-02 4.082055985927581787e-01 1.322624385356903076e-01 2.817703187465667725e-01 1.193800941109657288e-01 5.223168134689331055e-01 7.914605140686035156e-01 1.148323640227317810e-01 5.635497570037841797e-01 2.630367577075958252e-01 6.199884414672851562e-01 4.915289878845214844e-01 7.553828358650207520e-01 5.813032984733581543e-01 4.644024670124053955e-01 6.364586949348449707e-01 2.613540589809417725e-01 -7.265013456344604492e-01 -2.847321629524230957e-01 5.719856023788452148e-01
-1.811461895704269409e-01 4.633194506168365479e-01 3.175844997167587280e-02 3.153902590274810791e-01 3.520443290472030640e-02 -2.224460095167160034e-01 -4.544508457183837891e-01 2.563512921333312988e-01 4.706589877605438232e-01 7.560101896524429321e-02 7.228218019008636475e-02 5.342363715171813965e-01 2.421811223030090332e-02 1.375090777873992920e-01 1.612403988838195801e-01 4.037639796733856201e-01 -9.733191132545471191e-02 -1.548278927803039551e-01 -1.111102029681205750e-01 4.466537758708000183e-02 2.644131183624267578e-01 5.611979961395263672e-01 7.512033581733703613e-01 7.366369366645812988e-01 1.286525368690490723e+00 -2.943713366985321045e-01 7.770885825157165527e-01 9.764693975448608398e-01
-4.323280416429042816e-03 2.985799908638000488e-01 1.120462343096733093e-01 3.069691956043243408e-01 8.782224059104919434e-01 4.905498623847961426e-01 2.741227447986602783e-01 3.101884424686431885e-01 -1.257282048463821411e-01 3.886411488056182861e-01 -2.607688605785369873e-01 -2.725550234317779541e-01 -1.945980787277221680e-01 -2.096624374389648438e-01 2.276794612407684326e-01 -7.961037755012512207e-02 -3.223504126071929932e-01 6.143585965037345886e-02 -2.491656243801116943e-01 2.748160064220428467e-01 1.251675933599472046e-01 2.104247063398361206e-01 3.524196147918701172e-01 4.876986145973205566e-01 3.755960762500762939e-01 -1.544237136840820312e-01 6.314954757690429688e-01 1.909788399934768677e-01
2.857315540313720703e-01 4.222103655338287354e-01 5.131909847259521484e-01 1.996613666415214539e-02 6.408389806747436523e-01 -5.503532290458679199e-02 8.837573230266571045e-02 -3.120582103729248047e-01 -1.872620582580566406e-01 -1.617204397916793823e-01 -2.517831921577453613e-01 -3.648973107337951660e-01 -2.727760970592498779e-01 -5.602320656180381775e-02 -2.627041004598140717e-02 -1.683315932750701904e-01 1.781153827905654907e-01 2.135606715455651283e-03 1.123347282409667969e-01 8.830774575471878052e-02 -2.154111564159393311e-01 -3.625800460577011108e-02 1.345112454146146774e-02 1.826142668724060059e-01 1.782246530055999756e-01 8.523719906806945801e-01 3.512161672115325928e-01 -4.068411290645599365e-01
-2.375410050153732300e-01 3.195897489786148071e-02 1.130241036415100098e+00 -1.413776129484176636e-01 -4.759561121463775635e-01 -4.207251965999603271e-01 -3.755733370780944824e-01 -6.651644110679626465e-01 -3.832990825176239014e-01 -2.611586153507232666e-01 -2.546163201332092285e-01 -2.452963143587112427e-01 3.787820460274815559e-03 6.509458273649215698e-02 -4.909550845623016357e-01 1.941311955451965332e-01 -3.938423693180084229e-01 -2.646866440773010254e-02 2.445119619369506836e-02 1.772621721029281616e-01 -7.925653457641601562e-02 3.952881321310997009e-02 -3.186281397938728333e-02 -2.025798559188842773e-01 4.582625329494476318e-01 -3.218526393175125122e-02 6.746498942375183105e-01 -3.217140436172485352e-01
-4.530641138553619385e-01 -1.798603534698486328e-01 1.003960520029067993e-01 -9.111965894699096680e-01 -2.659224271774291992e-01 -3.525890409946441650e-01 -6.193298101425170898e-02 -1.247571185231208801e-01 -1.639460325241088867e-01 -1.493991911411285400e-01 -2.479030340909957886e-01 -1.692859530448913574e-01 -1.293327808380126953e-01 -4.534475132822990417e-02 5.007506161928176880e-02 1.130744293332099915e-01 -5.436812713742256165e-02 -1.255526840686798096e-01 -2.296486496925354004e-01 8.254643529653549194e-02 1.293091028928756714e-01 2.426263988018035889e-01 -1.213611289858818054e-01 -2.632406353950500488e-01 2.542935013771057129e-01 -3.339125514030456543e-01 -4.809026420116424561e-01 -9.263772964477539062e-01
-2.405059486627578735e-01 1.650279313325881958e-01 -2.174630314111709595e-01 -3.805631995201110840e-01 -2.376777082681655884e-01 -5.081903655081987381e-03 2.057352513074874878e-01 1.389529705047607422e-01 3.803301155567169189e-01 1.126434579491615295e-01 -7.730304449796676636e-02 -4.104638099670410156e-02 -3.066539764404296875e-01 -4.906442016363143921e-02 -2.449066340923309326e-01 -3.044277131557464600e-01 -2.849708497524261475e-01 -2.683366239070892334e-01 -7.674124091863632202e-02 7.268700748682022095e-02 -1.985365897417068481e-01 -4.542249441146850586e-02 -7.795413583517074585e-02 -3.436557650566101074e-01 -2.560760974884033203e-01 -3.618872761726379395e-01 -4.350146353244781494e-01 -4.700922369956970215e-01
-1.182129979133605957e-02 3.485839068889617920e-01 -2.550430893898010254e-01 6.545239128172397614e-03 -1.776227541267871857e-02 2.021036893129348755e-01 -1.621306128799915314e-02 2.342205196619033813e-01 5.708495527505874634e-02 -8.481591194868087769e-02 4.027964770793914795e-01 1.307537406682968140e-01 1.469422280788421631e-01 1.011215224862098694e-01 -1.110160648822784424e-01 -2.879467010498046875e-01 1.402771025896072388e-01 -7.099495083093643188e-02 -6.961982697248458862e-02 -1.259727329015731812e-01 -6.701346486806869507e-02 -7.822765409946441650e-02 2.757097035646438599e-02 2.026501446962356567e-01 3.390305936336517334e-01 1.405026167631149292e-01 -2.988272309303283691e-01 -5.913543105125427246e-01
4.808538034558296204e-02 7.152646780014038086e-02 2.900721132755279541e-01 -6.365982294082641602e-01 2.654250264167785645e-01 2.425347119569778442e-01 3.839735984802246094e-01 1.316393613815307617e-01 4.734627902507781982e-01 1.165573820471763611e-01 2.967478036880493164e-01 2.131945490837097168e-01 2.128541916608810425e-01 -2.371691726148128510e-02 -3.133787512779235840e-01 2.359284758567810059e-01 -1.418984234333038330e-01 1.866056621074676514e-01 -3.790791705250740051e-02 1.249788403511047363e-01 5.539689585566520691e-02 -3.658471107482910156e-01 5.223368406295776367e-01 2.073261141777038574e-01 -5.668675899505615234e-02 -3.042592108249664307e-01 -5.811721682548522949e-01 -3.470955789089202881e-01
8.192595839500427246e-02 3.695141375064849854e-01 -1.213288381695747375e-01 5.906906723976135254e-02 1.229638233780860901e-02 2.120844274759292603e-01 2.795528173446655273e-01 2.728843092918395996e-01 1.008364558219909668e-01 9.754791110754013062e-02 1.902027130126953125e-01 -3.846778720617294312e-02 2.642427086830139160e-01 1.674231290817260742e-01 -2.415282577276229858e-01 -6.299927085638046265e-02 -1.406337320804595947e-01 1.765397489070892334e-01 2.218348383903503418e-01 1.910744458436965942e-01 2.962111830711364746e-01 -1.963386535644531250e-01 2.330685257911682129e-01 1.010886393487453461e-02 -1.767462044954299927e-01 -7.273053526878356934e-01 -1.638998985290527344e+00 2.575097084045410156e-01
-1.002615317702293396e-02 7.570781745016574860e-03 -3.368371427059173584e-01 -3.551835417747497559e-01 1.037954092025756836e-01 5.557592511177062988e-01 2.855711430311203003e-02 4.014697968959808350e-01 3.813729882240295410e-01 1.725088655948638916e-01 3.974557816982269287e-01 9.235658496618270874e-02 2.647364139556884766e-01 2.207391560077667236e-01 1.406315714120864868e-01 -2.183435410261154175e-01 -2.067995518445968628e-01 4.981036484241485596e-02 -3.311214447021484375e-01 -1.547980159521102905e-01 2.048890739679336548e-01 4.102996289730072021e-01 -8.412574231624603271e-02 -1.743293553590774536e-02 1.183677762746810913e-01 4.089895784854888916e-01 -8.010301589965820312e-01 9.298065304756164551e-02
1.833305060863494873e-01 -4.934816062450408936e-01 -2.418183088302612305e-01 -4.429063498973846436e-01 -4.117755293846130371e-01 -1.832415461540222168e-01 3.952397406101226807e-02 1.459309011697769165e-01 -4.102291464805603027e-01 1.046027243137359619e-01 -5.509340018033981323e-02 1.106021180748939514e-01 -5.089608952403068542e-02 2.213238179683685303e-01 1.932007372379302979e-01 2.198546975851058960e-01 1.963654160499572754e-01 -1.640233546495437622e-01 1.003905162215232849e-01 2.056740224361419678e-01 -3.682115972042083740e-01 -3.772592544555664062e-01 -1.694208942353725433e-02 6.907804608345031738e-01 1.232450678944587708e-01 5.094454437494277954e-02 4.667629003524780273e-01 1.022585108876228333e-01
1.747912466526031494e-01 1.022169142961502075e-01 1.980660557746887207e-01 3.321958482265472412e-01 1.229645833373069763e-01 1.160678863525390625e-01 3.070428669452667236e-01 4.387295246124267578e-01 8.363608270883560181e-02 4.072423577308654785e-01 4.385855048894882202e-02 -1.743264943361282349e-01 2.100816667079925537e-01 2.096920162439346313e-01 -6.723094731569290161e-02 2.586944401264190674e-02 1.323186457157135010e-01 1.157919615507125854e-01 2.770082838833332062e-02 -4.549226164817810059e-01 -1.412725746631622314e-01 7.361016422510147095e-02 4.434974193572998047e-01 -2.064626514911651611e-01 -4.341989755630493164e-01 -4.222923517227172852e-01 3.311420083045959473e-01 1.147170439362525940e-01
-1.527935266494750977e-02 2.257331460714340210e-02 -2.673989236354827881e-01 4.017983973026275635e-01 2.939562313258647919e-02 -3.761923909187316895e-01 -5.424436554312705994e-02 -3.132474422454833984e-01 -1.756883859634399414e-01 -8.925785869359970093e-02 4.146197810769081116e-02 6.234982982277870178e-02 2.909689545631408691e-01 1.892838627099990845e-01 6.142944470047950745e-02 -8.083249442279338837e-03 1.081238612532615662e-01 1.709948629140853882e-01 1.071283966302871704e-01 3.040240108966827393e-01 1.594964563846588135e-01 2.669554960448294878e-04 2.027908861637115479e-01 2.300933189690113068e-02 3.255505114793777466e-02 -6.436526309698820114e-03 -1.883699595928192139e-01 -1.446301303803920746e-02
2.755771204829216003e-02 2.008755505084991455e-02 -5.255929380655288696e-02 -9.086509943008422852e-01 -4.531993269920349121e-01 -2.766015939414501190e-02 -2.676011323928833008e-01 1.258269101381301880e-01 -1.137972101569175720e-01 -4.976723492145538330e-01 1.951945722103118896e-01 4.413319751620292664e-03 5.300816521048545837e-02 7.407706230878829956e-02 8.770373463630676270e-02 4.338141679763793945e-01 1.078472379595041275e-02 2.430245876312255859e-01 -3.755276501178741455e-01 1.781997531652450562e-01 -5.166516304016113281e-01 -4.471301138401031494e-01 -1.004885584115982056e-01 8.599693328142166138e-02 7.686379551887512207e-01 2.605010867118835449e-01 2.923036813735961914e-01 -3.727652132511138916e-03
-3.198329359292984009e-03 -3.103182651102542877e-02 -2.012815922498703003e-01 -6.950287222862243652e-01 3.187105953693389893e-01 8.421751856803894043e-01 4.375058710575103760e-01 -1.139634996652603149e-01 8.571041375398635864e-02 -1.500591188669204712e-01 -1.829843819141387939e-01 1.932464987039566040e-01 -7.279548794031143188e-02 -1.211644802242517471e-02 1.683454215526580811e-01 -1.798119843006134033e-01 2.265151888132095337e-01 3.313805535435676575e-02 2.824268862605094910e-02 -1.016348898410797119e-01 4.325319826602935791e-01 1.668216884136199951e-01 -9.903331398963928223e-01 -1.194851517677307129e+00 9.284088015556335449e-02 -2.257077582180500031e-02 2.455708831548690796e-01 1.751663535833358765e-02
-1.307766884565353394e-02 -3.515736013650894165e-02 -7.087750360369682312e-03 -2.401387244462966919e-01 -3.895070254802703857e-01 7.152047008275985718e-02 -6.358059495687484741e-02 -3.512743413448333740e-01 -1.762888580560684204e-01 -3.125396072864532471e-01 -7.042370736598968506e-02 5.416419729590415955e-02 1.129164993762969971e-01 1.049401164054870605e-01 -3.120539188385009766e-01 -1.846307963132858276e-01 -9.113552421331405640e-02 -4.624889492988586426e-01 -3.880590796470642090e-01 -2.502375543117523193e-01 -3.764950633049011230e-01 -7.137914896011352539e-01 4.829012453556060791e-01 5.604984164237976074e-01 4.797548428177833557e-02 1.406142767518758774e-02 5.892641842365264893e-03 -3.444457054138183594e-02
2.141016721725463867e-02 -1.986729353666305542e-02 -2.637088298797607422e-02 1.389762759208679199e-02 3.249965608119964600e-01 5.656437277793884277e-01 7.256470918655395508e-01 7.246348857879638672e-01 -1.332330703735351562e-01 -7.575495634227991104e-03 2.598333405330777168e-03 -3.794564306735992432e-01 -3.953078687191009521e-01 -7.377018686383962631e-03 1.577972173690795898e-01 -5.589557290077209473e-01 -2.018648386001586914e-01 -9.832936525344848633e-02 -1.928003430366516113e-01 -2.727224864065647125e-02 -1.172259682789444923e-03 1.905895620584487915e-01 3.490365743637084961e-01 1.498245596885681152e-01 -1.250774599611759186e-02 -5.752772092819213867e-03 -2.676476538181304932e-02 -5.362235009670257568e-03
