-3.099758625030517578e-01 2.007648348808288574e-01 1.278320997953414917e-01 2.121517434716224670e-02 1.704716980457305908e-01 1.067456975579261780e-01 1.790959388017654419e-01
-2.710229754447937012e-01 9.958626329898834229e-02 1.068923622369766235e-01 -4.493754729628562927e-02 7.208523154258728027e-02 -1.403316408395767212e-01 4.057088866829872131e-02
-1.846316456794738770e-01 3.308184910565614700e-03 1.913610100746154785e-01 5.377473309636116028e-02 -9.192511439323425293e-02 -5.273328423500061035e-01 -2.358845472335815430e-01
-2.465817332267761230e-01 -1.232394576072692871e-01 2.100085467100143433e-01 -2.134020067751407623e-02 -7.687239348888397217e-02 -6.683261990547180176e-01 -7.165821790695190430e-01
-1.759626418352127075e-01 2.351990528404712677e-02 2.513984777033329010e-02 1.124779805541038513e-01 -1.102471873164176941e-01 -7.119774818420410156e-01 -4.069105684757232666e-01
-7.391355931758880615e-02 -8.009484969079494476e-03 2.889795601367950439e-01 1.397855132818222046e-01 1.869888007640838623e-01 -4.210459291934967041e-01 -5.544995665550231934e-01
5.662984028458595276e-02 -2.254475653171539307e-02 1.814552694559097290e-01 3.406845927238464355e-01 -2.459887228906154633e-02 -3.369963169097900391e-01 -3.157286643981933594e-01
