1.922277510166168213e-01 1.659245043992996216e-01 1.956871747970581055e-01 -4.859689250588417053e-02 2.259627543389797211e-02 -1.198940500617027283e-01 1.554394364356994629e-01
2.111532837152481079e-01 9.296724200248718262e-02 8.990009874105453491e-02 2.481235191226005554e-03 -1.425454113632440567e-02 1.154491230845451355e-01 6.017887592315673828e-02
1.308907419443130493e-01 3.110219910740852356e-02 -1.626495122909545898e-01 -9.240915626287460327e-02 -2.352286428213119507e-01 -1.191663369536399841e-01 1.571866497397422791e-02
-9.439271688461303711e-02 -3.722793608903884888e-02 7.640349119901657104e-02 -1.742490753531455994e-02 -3.966994956135749817e-02 -2.744737453758716583e-02 1.007425710558891296e-01
3.178377076983451843e-02 -1.512374542653560638e-02 -9.682624787092208862e-02 -4.275514557957649231e-02 -1.295553892850875854e-01 -2.556253969669342041e-01 2.123354934155941010e-02
-1.051473319530487061e-01 -1.033421978354454041e-01 3.118248656392097473e-02 -7.514514029026031494e-02 -2.588029801845550537e-01 -2.407280057668685913e-01 -1.782623678445816040e-01
3.403483331203460693e-02 7.455629855394363403e-02 1.165476813912391663e-01 1.609620451927185059e-02 1.764064840972423553e-02 1.785683073103427887e-02 3.844054788351058960e-02
