6.121103465557098389e-02 -2.345440536737442017e-01 -8.588882684707641602e-01 -7.708411812782287598e-01 7.014112174510955811e-02 8.404130488634109497e-02 2.362694889307022095e-01
4.054373875260353088e-02 -2.027735412120819092e-01 -8.684664964675903320e-01 -1.686106681823730469e+00 -1.153182625770568848e+00 1.994356140494346619e-02 3.589977622032165527e-01
1.837649494409561157e-01 2.225823253393173218e-01 2.333403676748275757e-01 -4.395133554935455322e-01 -5.397740602493286133e-01 -6.905484478920698166e-03 3.251778781414031982e-01
7.811862230300903320e-02 2.383689582347869873e-01 1.005701646208763123e-01 -1.454632878303527832e-01 -5.668953806161880493e-02 -7.507282774895429611e-03 1.470044106245040894e-01
9.180419147014617920e-02 1.709300279617309570e-01 1.349772363901138306e-01 -2.280078530311584473e-01 -1.085641607642173767e-01 -3.395838662981987000e-02 1.125931590795516968e-01
-2.783139050006866455e-02 6.631098221987485886e-03 -1.090159788727760315e-01 -3.660495951771736145e-02 -8.882987312972545624e-03 5.310897156596183777e-02 2.354747503995895386e-01
1.723496019840240479e-01 8.225610107183456421e-02 5.203429609537124634e-02 -6.783696264028549194e-02 -7.916019111871719360e-02 1.152187362313270569e-01 6.504212319850921631e-02
