1.241463124752044678e-01 -7.437088643200695515e-04 1.771308481693267822e-02 -2.156502157449722290e-01 -2.924376353621482849e-02 3.961853384971618652e-01 2.568640112876892090e-01 1.798242330551147461e-01 3.395149111747741699e-02
-4.497179016470909119e-02 1.447370946407318115e-01 2.678464725613594055e-02 -3.468440175056457520e-01 -1.651130318641662598e-01 1.919573694467544556e-01 1.116452887654304504e-01 2.128936648368835449e-01 2.195676416158676147e-01
6.837272644042968750e-02 3.082072176039218903e-02 -1.191116869449615479e-01 -3.877199292182922363e-01 -4.331998527050018311e-01 2.415569685399532318e-02 -4.088668152689933777e-02 -9.250580333173274994e-03 9.703349322080612183e-02
-7.032919675111770630e-02 1.061657965183258057e-01 1.198603119701147079e-02 -1.623652875423431396e-01 -4.051939249038696289e-01 -9.050672501325607300e-02 -2.434049695730209351e-01 -3.653443604707717896e-02 9.550065547227859497e-02
-9.497840702533721924e-02 1.049238890409469604e-01 2.411014586687088013e-01 -1.468736529350280762e-01 -2.426379323005676270e-01 8.524185419082641602e-02 -1.544424444437026978e-01 -9.879647940397262573e-02 7.952971756458282471e-02
-1.782980188727378845e-02 6.768824160099029541e-02 3.429499864578247070e-01 -1.149166822433471680e-01 -2.656289041042327881e-01 3.741398826241493225e-02 1.945185288786888123e-02 -8.765781670808792114e-02 -2.085761912167072296e-02
1.266002953052520752e-01 8.958375453948974609e-02 2.958478331565856934e-01 -1.913695782423019409e-01 -3.826482892036437988e-01 6.478293240070343018e-02 1.591371595859527588e-01 -4.254588484764099121e-02 -1.407556352205574512e-03
9.343335777521133423e-02 3.027495443820953369e-01 3.528452217578887939e-01 -2.277812510728836060e-01 -3.994975090026855469e-01 7.906010001897811890e-02 1.278790682554244995e-01 -8.290989696979522705e-02 -5.276588350534439087e-02
-1.508923918008804321e-01 1.641894429922103882e-01 4.921316504478454590e-01 -6.043569371104240417e-02 -5.184307098388671875e-01 7.751286029815673828e-02 1.533466279506683350e-01 3.719585761427879333e-02 -7.370387762784957886e-02
