-6.874554604291915894e-02 1.050438582897186279e-01 2.043126523494720459e-01 3.418540954589843750e-01 3.218569159507751465e-01 7.104945182800292969e-02 1.966540217399597168e-01 2.064099311828613281e-01 4.466591477394104004e-01
-7.337535731494426727e-03 -5.333312228322029114e-02 -3.565737511962652206e-03 9.394078701734542847e-02 2.464033104479312897e-02 -1.550162793137133121e-03 -1.905600540339946747e-02 8.448123186826705933e-02 1.992733329534530640e-01
1.364406850188970566e-02 1.202804148197174072e-01 -8.761367946863174438e-02 3.782288357615470886e-02 3.397471457719802856e-02 -1.280516535043716431e-01 -8.635040372610092163e-02 6.837356835603713989e-02 5.984690971672534943e-03
-1.069422438740730286e-01 7.274492830038070679e-02 8.748046308755874634e-02 -1.059386655688285828e-01 -6.887475401163101196e-02 -2.362529337406158447e-01 -1.120096519589424133e-01 -1.807820051908493042e-01 5.570570379495620728e-02
7.031097263097763062e-02 3.675235435366630554e-02 4.448322951793670654e-02 -8.193601667881011963e-02 -3.782948851585388184e-02 -1.337214559316635132e-01 -1.168647855520248413e-01 1.882496871985495090e-03 1.237020716071128845e-01
1.073467060923576355e-01 1.969949305057525635e-01 1.759821921586990356e-01 1.332816481590270996e-01 1.175324693322181702e-01 7.782188057899475098e-02 1.882992126047611237e-02 -1.074813380837440491e-01 8.635145425796508789e-02
3.031753301620483398e-01 6.077010557055473328e-02 1.860046982765197754e-01 -1.586921885609626770e-02 5.570005998015403748e-02 -4.797930270433425903e-02 -9.124293923377990723e-03 3.869130462408065796e-02 1.162263900041580200e-01
2.927634418010711670e-01 -1.582641527056694031e-02 -1.318681389093399048e-01 -9.429381787776947021e-02 -3.748997449874877930e-01 -2.443443089723587036e-01 -1.773405261337757111e-02 -4.155639186501502991e-02 1.399445980787277222e-01
2.061611860990524292e-01 -5.398392304778099060e-02 -3.111023902893066406e-01 -6.275436878204345703e-01 -8.955938816070556641e-01 -6.829402446746826172e-01 -4.673406183719635010e-01 -2.608427107334136963e-01 -3.241008147597312927e-02
