1.709812879562377930e-02 -2.557569742202758789e-02 3.931682556867599487e-03 -2.100892364978790283e-03 -3.857444971799850464e-03 1.579970121383666992e-03 -9.735494852066040039e-03 2.331153675913810730e-02 -9.912537410855293274e-03 2.778273448348045349e-02 1.033923774957656860e-02 -2.443407475948333740e-02 8.592095226049423218e-03 -2.540832385420799255e-02 -1.835420727729797363e-02 4.689119756221771240e-03 -3.775149583816528320e-03 -3.280973434448242188e-02 -2.060572244226932526e-02 3.398197516798973083e-02 2.778149768710136414e-02 -7.325373589992523193e-04 -1.431136578321456909e-02 -1.074589975178241730e-02 -1.640275120735168457e-02 -7.060583680868148804e-03 3.384974226355552673e-02 -3.312177956104278564e-02
-3.006292879581451416e-02 -4.260957241058349609e-03 6.264347583055496216e-03 1.639046892523765564e-02 2.735103294253349304e-02 1.023396849632263184e-02 1.852053590118885040e-02 -9.592208266258239746e-02 -9.391269832849502563e-02 -6.582642346620559692e-02 3.229514136910438538e-02 -3.399603664875030518e-01 -3.293639123439788818e-01 -3.533511161804199219e-01 1.001758687198162079e-02 1.635357365012168884e-02 -4.060187935829162598e-02 -1.688228547573089600e-02 1.314665749669075012e-02 2.726856246590614319e-02 6.535395979881286621e-03 3.133665770292282104e-03 -1.333664171397686005e-02 -2.980215288698673248e-02 -1.592812873423099518e-02 -1.461576670408248901e-03 -2.363221347332000732e-02 1.740571856498718262e-02
-1.935357414186000824e-02 -1.970946416258811951e-02 3.453269600868225098e-04 3.687329590320587158e-04 2.170903608202934265e-02 2.764439210295677185e-02 -2.607973814010620117e-01 -3.713234066963195801e-01 -1.254410445690155029e-01 -1.311809122562408447e-01 -1.487602144479751587e-01 -4.639388620853424072e-01 -4.031758308410644531e-01 -3.522751629352569580e-01 -9.076686576008796692e-03 -3.722051978111267090e-01 -3.743453025817871094e-01 -3.707192242145538330e-01 -7.480573258362710476e-04 -4.705081135034561157e-02 -1.559573039412498474e-02 2.565625868737697601e-02 -5.004803184419870377e-03 1.666218787431716919e-02 -9.989598765969276428e-03 -2.121329307556152344e-04 1.802573725581169128e-02 1.818938180804252625e-02
-2.646472305059432983e-02 -9.512947872281074524e-03 2.804547548294067383e-03 3.399026766419410706e-02 -1.487657427787780762e-02 2.364735677838325500e-02 -1.413736585527658463e-02 -4.544269442558288574e-01 -4.629414975643157959e-01 -9.198195934295654297e-01 -5.688622593879699707e-01 -8.360328674316406250e-01 -7.622398138046264648e-01 -5.819867253303527832e-01 -6.174407005310058594e-01 -7.340862751007080078e-01 -5.168093442916870117e-01 -5.143693685531616211e-01 -9.856984019279479980e-02 -1.112978830933570862e-01 -3.234640061855316162e-01 -3.580188751220703125e-01 -9.311478585004806519e-03 1.639650948345661163e-02 -1.932003535330295563e-02 9.725157171487808228e-03 -3.197389096021652222e-02 7.152017205953598022e-03
-1.156982779502868652e-02 -1.733356714248657227e-02 1.876416429877281189e-02 2.895646691322326660e-01 -3.941819816827774048e-02 -4.530741274356842041e-01 -6.148691177368164062e-01 -9.463459253311157227e-01 -1.161721467971801758e+00 -9.757485985755920410e-01 -1.729380369186401367e+00 -1.985616922378540039e+00 -2.135881662368774414e+00 -1.940300583839416504e+00 -1.581403136253356934e+00 -1.518052697181701660e+00 -1.054187893867492676e+00 -1.251029729843139648e+00 -9.296011924743652344e-01 -8.899061679840087891e-01 -9.793139696121215820e-01 -4.913421571254730225e-01 -3.146764338016510010e-01 -3.543128967285156250e-01 -7.638356834650039673e-02 -5.381579324603080750e-02 7.394669111818075180e-03 7.133729755878448486e-03
-3.147887066006660461e-02 -1.347927935421466827e-02 1.831613830290734768e-03 -3.986466210335493088e-03 -5.540396571159362793e-01 -9.874241948127746582e-01 -7.317121624946594238e-01 -1.306823015213012695e+00 -5.251969099044799805e-01 -5.095018744468688965e-01 -1.312149643898010254e+00 -1.460229396820068359e+00 -1.360791087150573730e+00 -2.720013856887817383e+00 -3.278963088989257812e+00 -4.022826194763183594e+00 -5.005775451660156250e+00 -5.461240291595458984e+00 -5.010929584503173828e+00 -4.691941738128662109e+00 -4.632119655609130859e+00 -3.460898160934448242e+00 -2.415307283401489258e+00 -3.302592754364013672e+00 -7.057787179946899414e-01 -1.338445544242858887e-01 -8.787674456834793091e-02 -5.090248584747314453e-02
-1.391087658703327179e-02 1.995782926678657532e-02 -5.917182192206382751e-02 9.170683026313781738e-01 -3.761380016803741455e-01 2.765047550201416016e-01 -9.215439856052398682e-02 -3.141755461692810059e-01 4.958855509757995605e-01 1.252716481685638428e-01 1.444982886314392090e-01 3.191484212875366211e-01 2.495632618665695190e-01 -9.954966604709625244e-02 -4.569901525974273682e-01 -2.633330225944519043e-01 -1.981773972511291504e-02 2.724867761135101318e-01 -9.420592337846755981e-02 -5.770777910947799683e-02 -3.092223703861236572e-01 3.257339596748352051e-01 -4.865207076072692871e-01 -1.093031287193298340e+00 -2.196618318557739258e+00 -1.238604903221130371e+00 -8.547340035438537598e-01 -2.694002091884613037e-01
1.338276565074920654e-01 -2.562021017074584961e-01 2.287039756774902344e-01 5.418692827224731445e-01 -2.895094156265258789e-01 -3.913033008575439453e-02 5.026646256446838379e-01 4.360164701938629150e-02 -1.232794374227523804e-01 1.242218017578125000e-01 2.253759056329727173e-01 -1.287934631109237671e-01 2.330470979213714600e-01 3.586492314934730530e-02 -7.221131026744842529e-02 -2.932852506637573242e-01 -1.728001236915588379e-02 2.145320922136306763e-01 2.610054314136505127e-01 2.855029329657554626e-02 2.051729708909988403e-01 -1.319277882575988770e-01 2.112491279840469360e-01 3.683226704597473145e-01 -3.639496862888336182e-01 -1.249256491661071777e+00 -1.124165058135986328e+00 -4.809692129492759705e-02
-2.290355116128921509e-01 2.556374967098236084e-01 2.594973146915435791e-01 -1.227454021573066711e-01 1.770809590816497803e-01 -3.207479417324066162e-01 -2.744846642017364502e-01 4.000898003578186035e-01 1.983025372028350830e-01 2.344693057239055634e-03 1.865604966878890991e-01 2.247729301452636719e-01 2.495869696140289307e-01 -1.305349618196487427e-01 1.174326986074447632e-01 1.616698503494262695e-01 2.649852335453033447e-01 1.888126879930496216e-01 2.338123619556427002e-01 -9.910480678081512451e-02 1.608522981405258179e-01 5.004587396979331970e-02 1.893866062164306641e-01 4.934196174144744873e-02 -5.745102763175964355e-01 -1.567616581916809082e+00 -2.073162794113159180e+00 -1.684279888868331909e-01
4.267372190952301025e-01 4.714100360870361328e-01 7.191295176744461060e-02 2.580359280109405518e-01 -1.116124689579010010e-01 7.714546471834182739e-02 -4.571937397122383118e-02 5.740548484027385712e-03 1.771714538335800171e-01 1.784505099058151245e-01 -1.261182278394699097e-01 -1.257601976394653320e-01 4.765673279762268066e-01 -1.062587946653366089e-01 3.844806253910064697e-01 2.888089418411254883e-01 4.500858113169670105e-02 4.663016200065612793e-01 5.358686670660972595e-02 2.757028937339782715e-01 -3.541944548487663269e-03 4.756225273013114929e-02 1.414917409420013428e-01 -1.517684608697891235e-01 2.614669203758239746e-01 -1.584429144859313965e+00 -2.503435134887695312e+00 -2.103461921215057373e-01
3.293797969818115234e-01 -7.854740321636199951e-02 3.719310276210308075e-03 -2.626220583915710449e-01 7.668617181479930878e-03 2.641461789608001709e-01 9.389719367027282715e-02 2.724079042673110962e-02 -2.179108262062072754e-01 -7.143149524927139282e-02 2.679586224257946014e-02 6.845337338745594025e-04 -1.740287095308303833e-01 3.628989160060882568e-01 -1.110174283385276794e-01 1.845281273126602173e-01 2.747418284416198730e-01 1.011222824454307556e-01 9.333830326795578003e-03 2.989396750926971436e-01 1.561830788850784302e-01 1.530901640653610229e-01 3.730850517749786377e-01 3.483979105949401855e-01 -8.653014153242111206e-02 -7.477665543556213379e-01 -2.055583238601684570e+00 -1.032332107424736023e-01
3.754216134548187256e-01 -7.118345797061920166e-02 1.181223317980766296e-01 -2.751461789011955261e-02 -3.522764518857002258e-02 3.098416700959205627e-02 -7.809457927942276001e-02 1.805179268121719360e-01 -3.589200675487518311e-01 1.481225788593292236e-01 8.744085580110549927e-02 1.980105489492416382e-01 -6.978735327720642090e-02 1.788401752710342407e-01 -1.850389502942562103e-02 4.463811218738555908e-01 2.706018090248107910e-01 3.300445377826690674e-01 2.007896602153778076e-01 1.080047637224197388e-01 4.299437701702117920e-01 2.245569415390491486e-02 1.376442015171051025e-01 1.209773272275924683e-01 -1.222130656242370605e+00 -1.459131002426147461e+00 -1.618320822715759277e+00 -4.739325866103172302e-02
1.376565545797348022e-01 5.047224164009094238e-01 3.732310235500335693e-01 3.828753232955932617e-01 1.591555774211883545e-01 1.138099059462547302e-01 -3.525215685367584229e-01 1.312066465616226196e-01 2.720040082931518555e-01 2.652884460985660553e-03 -5.090942382812500000e-01 8.880972862243652344e-02 -4.066464304924011230e-02 -1.245116949081420898e+00 -4.698562920093536377e-01 6.058505773544311523e-01 3.651728630065917969e-01 3.177365958690643311e-01 5.704423040151596069e-02 -2.209944278001785278e-01 -2.853976190090179443e-01 -3.171896040439605713e-01 -1.687832325696945190e-01 -1.139458417892456055e+00 -2.281529188156127930e+00 -9.724044203758239746e-01 -4.460054039955139160e-01 2.864523231983184814e-02
-1.926297880709171295e-02 5.110047459602355957e-01 8.325626701116561890e-02 1.684228777885437012e-01 -1.868658661842346191e-01 -2.518951334059238434e-02 2.064491212368011475e-01 4.967470467090606689e-02 7.013595104217529297e-02 -6.140106543898582458e-02 3.198556900024414062e-01 2.991035878658294678e-01 -1.246044158935546875e+00 -2.818870782852172852e+00 -1.482555866241455078e-01 -2.668833732604980469e-01 -5.890351533889770508e-02 -1.097869127988815308e-01 -4.321689903736114502e-01 -6.465324163436889648e-01 -3.468957543373107910e-01 -8.456686735153198242e-01 -7.534738779067993164e-01 -1.142899036407470703e+00 -1.665161490440368652e+00 -1.255656361579895020e+00 -8.695696294307708740e-02 1.847719773650169373e-02
-3.478944301605224609e-02 2.161706835031509399e-01 4.912681281566619873e-01 -1.384209841489791870e-01 1.461703628301620483e-01 3.093748986721038818e-01 -1.048690527677536011e-01 -1.722449213266372681e-01 7.426320016384124756e-02 -3.738936185836791992e-01 -6.084563136100769043e-01 -7.871149778366088867e-01 -1.789668679237365723e+00 -6.006738543510437012e-01 -1.087584346532821655e-01 -3.482724130153656006e-01 -2.049500197172164917e-01 3.893499448895454407e-02 2.751946151256561279e-01 3.174663186073303223e-01 1.018950119614601135e-01 3.484038114547729492e-01 6.241483688354492188e-01 6.176995038986206055e-01 -5.391635894775390625e-01 -1.013206005096435547e+00 -7.836516201496124268e-02 -8.883498609066009521e-03
3.524540066719055176e-01 -1.538704708218574524e-02 -1.307817250490188599e-01 8.680091053247451782e-02 -1.670608669519424438e-01 -6.185342669486999512e-01 -9.202228486537933350e-02 -2.195902466773986816e-01 -6.955168247222900391e-01 -1.974992305040359497e-01 -6.647151708602905273e-01 -5.960255265235900879e-01 -6.717448830604553223e-01 -1.684525907039642334e-01 -2.957502007484436035e-01 7.883966714143753052e-02 -1.932810842990875244e-01 6.068536639213562012e-01 4.552354216575622559e-01 5.677897930145263672e-01 6.118270754814147949e-01 4.193569123744964600e-01 7.848252654075622559e-01 1.451825373806059361e-03 -2.042630761861801147e-01 -5.423557758331298828e-01 -6.524085998535156250e-01 -2.842734195291996002e-02
3.220704793930053711e-01 4.397588316351175308e-03 -4.237944632768630981e-02 2.958524040877819061e-03 5.072427392005920410e-01 -6.437110304832458496e-01 3.913173079490661621e-01 9.694510698318481445e-02 -5.897064208984375000e-01 -1.596924513578414917e-01 -3.684795498847961426e-01 -1.077966094017028809e+00 -1.557621452957391739e-02 -3.472908437252044678e-01 -3.728269636631011963e-01 -1.166498474776744843e-02 -5.540203675627708435e-02 3.111378662288188934e-02 3.381166160106658936e-01 3.180274367332458496e-01 1.704683601856231689e-01 4.817639291286468506e-01 8.418916165828704834e-02 -4.709956347942352295e-01 -1.469209909439086914e+00 -2.121024847030639648e+00 -7.641707062721252441e-01 -1.960220038890838623e-01
9.440340101718902588e-03 -2.767134904861450195e-01 2.418019771575927734e-01 -7.285697460174560547e-01 -3.012576103210449219e-01 5.896835327148437500e-01 -2.771363556385040283e-01 -3.791555762290954590e-01 -1.540689729154109955e-02 6.655686348676681519e-02 -1.163211584091186523e+00 5.776854977011680603e-02 4.881624132394790649e-02 -1.020914241671562195e-01 -1.720092594623565674e-01 -1.647416204214096069e-01 -1.561281085014343262e-01 -6.896213442087173462e-02 1.855489909648895264e-01 1.967634111642837524e-01 7.182220816612243652e-01 3.133381903171539307e-01 1.682601422071456909e-01 -3.605279922485351562e-01 -4.701733589172363281e-01 -5.992739796638488770e-01 -6.234145760536193848e-01 -1.978040486574172974e-01
2.867735624313354492e-01 -2.538499236106872559e-01 3.031741976737976074e-01 9.354544430971145630e-02 -9.488169103860855103e-02 -6.072799563407897949e-01 -6.915005445480346680e-01 -3.178036808967590332e-01 -4.810353517532348633e-01 -1.706662587821483612e-02 -6.227418780326843262e-01 -3.517006337642669678e-01 -2.650177180767059326e-01 2.844595611095428467e-01 1.737769246101379395e-01 -1.845004409551620483e-01 -1.702585816383361816e-01 -3.051183819770812988e-01 9.567360579967498779e-02 -6.957045942544937134e-02 8.843414485454559326e-02 2.795787155628204346e-01 1.527661234140396118e-01 -1.527899265289306641e+00 -1.987156748771667480e+00 -6.968457102775573730e-01 -1.351174712181091309e-01 -4.796409048140048981e-03
-2.438564412295818329e-02 8.984082937240600586e-01 6.374940276145935059e-01 -1.031386926770210266e-01 -3.871148228645324707e-01 -1.005328536033630371e+00 -3.699043273925781250e+00 -1.624964952468872070e+00 1.337899416685104370e-01 -3.106257915496826172e-01 -4.557252526283264160e-01 1.641077734529972076e-02 1.625386774539947510e-01 -1.160438582301139832e-01 2.004204839468002319e-01 -3.053214550018310547e-01 -3.302234411239624023e-01 -3.054713606834411621e-01 -5.721562504768371582e-01 1.209413036704063416e-01 8.723249286413192749e-02 -1.013570666313171387e+00 -9.479976892471313477e-01 -1.774239301681518555e+00 -1.496426105499267578e+00 -3.478600829839706421e-02 -4.844466224312782288e-02 -2.392360940575599670e-02
-3.446865826845169067e-03 5.897860527038574219e-01 1.335042715072631836e-01 -1.044838547706604004e+00 -1.463018417358398438e+00 -2.195629835128784180e+00 -1.445905327796936035e+00 -5.319646596908569336e-01 -2.975751459598541260e-01 -1.350945699959993362e-02 1.894288808107376099e-01 -1.583649963140487671e-02 4.235046803951263428e-01 -7.657898217439651489e-02 3.405221179127693176e-02 -7.006022334098815918e-02 -5.168463587760925293e-01 -4.983748495578765869e-01 -7.784217596054077148e-01 -7.989672422409057617e-01 -1.591657519340515137e+00 -1.729281902313232422e+00 -1.035413146018981934e+00 -1.264634370803833008e+00 -6.665819883346557617e-01 -4.325917661190032959e-01 -4.860260337591171265e-02 -3.355092555284500122e-02
5.821522325277328491e-03 -1.953678205609321594e-02 -3.784706294536590576e-01 -1.343501448631286621e+00 -2.310031175613403320e+00 -1.555524230003356934e+00 -1.341166615486145020e+00 -6.999277472496032715e-01 1.479429453611373901e-01 8.282860368490219116e-02 -7.815570384263992310e-02 -1.822718530893325806e-01 -1.663054674863815308e-01 6.720764189958572388e-02 -1.547801643610000610e-01 -1.189338937401771545e-01 1.525903195142745972e-01 -2.701704623177647591e-03 -3.634797334671020508e-01 -6.593167781829833984e-01 -7.078324556350708008e-01 -6.573563814163208008e-01 -9.111409783363342285e-01 -1.245175361633300781e+00 -1.943085491657257080e-01 9.291874617338180542e-02 -5.471717119216918945e-01 -1.373297534883022308e-02
1.621812582015991211e-03 -3.141798544675111771e-03 -8.742815852165222168e-01 -1.871448397636413574e+00 -1.445513486862182617e+00 1.512787938117980957e-01 -1.058539748191833496e+00 5.327414870262145996e-01 1.173094809055328369e-01 1.280315071344375610e-01 8.237409591674804688e-02 -2.206831723451614380e-01 3.326493315398693085e-03 7.996055483818054199e-02 2.156050950288772583e-01 2.212624698877334595e-01 -1.760521829128265381e-01 -1.426329612731933594e-01 4.669629782438278198e-02 1.022135019302368164e-01 4.930289387702941895e-01 -3.126755952835083008e-01 -1.434981107711791992e+00 -7.898499369621276855e-01 3.123145103454589844e-01 2.544607408344745636e-02 -7.927972078323364258e-01 -1.656342856585979462e-02
1.414427533745765686e-02 -6.737049669027328491e-03 -1.138655424118041992e+00 -8.998408317565917969e-01 -7.876028865575790405e-02 8.590229749679565430e-01 -3.454451635479927063e-02 5.892367959022521973e-01 -4.613834619522094727e-01 -3.211608529090881348e-01 2.047978639602661133e-01 -1.769313663244247437e-01 -2.057841569185256958e-01 -1.228877454996109009e-01 -7.817923277616500854e-02 -6.821567658334970474e-03 1.744236983358860016e-02 1.936322748661041260e-01 3.529130816459655762e-01 -4.021790921688079834e-01 -1.917095631361007690e-01 -5.364876389503479004e-01 -3.847339749336242676e-01 -6.055803298950195312e-01 1.156596615910530090e-01 2.389400079846382141e-02 -2.862611114978790283e-01 -3.749348223209381104e-03
-9.210655465722084045e-03 2.439459413290023804e-02 -3.087909221649169922e-01 -2.816233336925506592e-01 7.596398591995239258e-01 1.050170421600341797e+00 2.557350397109985352e-01 1.637533158063888550e-01 2.437169104814529419e-01 -1.988714635372161865e-01 6.896984577178955078e-02 8.338781073689460754e-03 -1.085664182901382446e-01 -1.198840141296386719e-01 -9.595608711242675781e-02 9.240920096635818481e-02 -1.288063079118728638e-01 -7.988783717155456543e-02 -5.310141444206237793e-01 -5.521993637084960938e-01 1.328740417957305908e-01 -7.944335341453552246e-01 -5.404037833213806152e-01 -1.122524857521057129e+00 -4.305087625980377197e-01 -4.309904575347900391e-02 -2.421584352850914001e-02 -2.626202069222927094e-02
1.594677940011024475e-02 2.803974971175193787e-02 -7.748450040817260742e-01 -1.460539847612380981e-01 1.884782761335372925e-01 -3.792295455932617188e-01 -8.028200864791870117e-01 -2.691087126731872559e-01 -1.152866631746292114e-01 2.381547540426254272e-02 -5.909004807472229004e-01 2.536721900105476379e-02 -1.700688749551773071e-01 -2.147785872220993042e-01 -1.520562171936035156e-01 -1.705911457538604736e-01 6.631327420473098755e-02 -3.724644780158996582e-01 -2.354486584663391113e-01 -2.471602708101272583e-01 8.711873739957809448e-02 -5.978725478053092957e-02 -1.609337925910949707e-01 -7.377936244010925293e-01 -1.467395722866058350e-01 -1.083976589143276215e-02 -1.319925300776958466e-02 -2.512699365615844727e-02
2.656301483511924744e-02 -2.771444618701934814e-03 1.928351819515228271e-02 -2.883605360984802246e-01 -8.056797385215759277e-01 -3.098856210708618164e-01 4.540195688605308533e-02 -4.715249538421630859e-01 -3.000354580581188202e-02 -1.146816909313201904e-01 -7.508385926485061646e-02 1.777892000973224640e-02 -3.113377392292022705e-01 1.645763665437698364e-01 -1.157157868146896362e-01 1.349528431892395020e-01 2.544612251222133636e-02 1.138156726956367493e-01 7.347445487976074219e-01 2.302009165287017822e-01 -1.078199297189712524e-01 -2.222336232662200928e-01 7.654450535774230957e-01 -1.175365000963211060e-01 -3.362066447734832764e-01 -2.165260463953018188e-01 -2.778881788253784180e-02 4.409503191709518433e-03
3.119095042347908020e-02 -2.772491425275802612e-02 1.493806391954421997e-02 1.223111525177955627e-02 9.379559010267257690e-02 -2.334762811660766602e-01 2.767907083034515381e-01 -1.211819797754287720e-01 -1.669893413782119751e-01 -4.695067107677459717e-01 3.504600524902343750e-01 -4.178615808486938477e-01 8.990815281867980957e-02 2.957999408245086670e-01 -2.325130254030227661e-01 -1.917939865961670876e-03 -1.247219592332839966e-01 3.480259478092193604e-01 -1.002783179283142090e-01 7.063329815864562988e-01 8.184174299240112305e-01 3.742569684982299805e-01 2.915411293506622314e-01 3.336195349693298340e-01 -2.296553924679756165e-02 3.190742805600166321e-02 -3.194856271147727966e-02 2.135968580842018127e-02
