2.943928167223930359e-02 8.032049983739852905e-03 1.303872466087341309e-02 9.248256683349609375e-03 1.065929234027862549e-02 1.744547858834266663e-02 -2.256328426301479340e-02 -1.648420654237270355e-02 -1.632787659764289856e-02 1.365134865045547485e-02 -2.161408960819244385e-02 3.244363889098167419e-02 1.119925081729888916e-02 1.809717342257499695e-02 -3.170710802078247070e-02 2.529942616820335388e-02 3.072592988610267639e-02 -2.779548615217208862e-02 3.243125975131988525e-03 5.258925259113311768e-03 -3.814507275819778442e-03 -1.786475256085395813e-02 3.384674713015556335e-02 -3.477836772799491882e-02 2.819605171680450439e-03 5.728103220462799072e-03 -4.939958453178405762e-04 -1.848477683961391449e-02
1.064111664891242981e-02 1.138462871313095093e-02 1.742847263813018799e-02 -1.457188092172145844e-02 1.365737617015838623e-02 -1.461915671825408936e-04 -1.489907130599021912e-02 -1.501309126615524292e-02 -3.117152303457260132e-02 3.496540710330009460e-02 -1.783230528235435486e-02 -1.538134925067424774e-02 -2.932295762002468109e-02 -9.951792657375335693e-03 -4.487697035074234009e-03 2.343354001641273499e-02 -2.878432348370552063e-02 -2.788775041699409485e-02 6.834067404270172119e-03 -1.798837631940841675e-02 -4.759583622217178345e-03 -3.493059426546096802e-03 1.968312636017799377e-02 1.388077437877655029e-02 -1.538031548261642456e-02 1.852913573384284973e-02 2.642025426030158997e-02 -5.665855482220649719e-03
5.728971213102340698e-03 3.502461686730384827e-02 2.864847704768180847e-02 -2.813123166561126709e-03 4.409607499837875366e-03 7.064260542392730713e-03 1.482262089848518372e-02 -2.855791524052619934e-02 -7.211374118924140930e-03 -1.263905875384807587e-02 -4.305779933929443359e-03 7.503889501094818115e-03 3.416321054100990295e-02 3.179112449288368225e-02 1.685497164726257324e-02 3.253464028239250183e-02 -1.739078015089035034e-02 -2.478202432394027710e-02 2.955911681056022644e-02 8.994270116090774536e-03 3.079946711659431458e-02 1.910379901528358459e-02 -2.007877826690673828e-02 -3.307923302054405212e-02 1.620283350348472595e-02 1.245943456888198853e-02 7.895208895206451416e-03 -2.256274782121181488e-02
1.376486197113990784e-02 -1.104986667633056641e-02 -7.820976898074150085e-03 -3.205464780330657959e-02 -3.331886231899261475e-02 -3.279684484004974365e-02 1.920558884739875793e-02 1.472915709018707275e-02 -1.443674787878990173e-02 6.775132846087217331e-03 1.377843506634235382e-02 -8.850756101310253143e-03 1.086390204727649689e-02 1.566130295395851135e-02 4.453185829333961010e-04 -3.331778571009635925e-02 -3.365227580070495605e-02 5.491919815540313721e-03 3.561249002814292908e-02 -1.971492730081081390e-02 3.444990888237953186e-02 1.495285984128713608e-02 3.122130176052451134e-03 1.654267683625221252e-02 -5.799029022455215454e-03 2.361752465367317200e-02 7.314208894968032837e-03 1.535790413618087769e-02
2.930233255028724670e-02 -2.113510109484195709e-02 1.351143419742584229e-02 -2.722598053514957428e-02 -9.080406278371810913e-03 -9.608900174498558044e-03 3.785233246162533760e-03 -3.157049044966697693e-02 2.476595714688301086e-02 -4.550254438072443008e-03 2.547853812575340271e-02 -1.657488755881786346e-02 1.022534072399139404e-02 7.887976244091987610e-03 5.704315844923257828e-03 -1.827833242714405060e-02 1.162022538483142853e-02 -3.124890476465225220e-02 -1.626737974584102631e-02 3.038143331650644541e-04 -2.652258239686489105e-02 -6.444827187806367874e-03 2.439322136342525482e-02 3.090547956526279449e-02 -1.720900274813175201e-02 -2.561318129301071167e-02 -7.581975311040878296e-03 2.345822751522064209e-03
1.963513717055320740e-02 1.890149712562561035e-02 2.359937503933906555e-02 -7.972849532961845398e-03 3.513384610414505005e-03 2.990888431668281555e-02 -7.354511126322904602e-06 7.338374387472867966e-03 -2.246734220534563065e-03 -4.206022620201110840e-02 -3.093031607568264008e-02 2.181533724069595337e-02 -3.747229278087615967e-02 1.556178461760282516e-02 -1.758864033035933971e-03 -1.420234050601720810e-02 -2.553899772465229034e-02 -2.316704206168651581e-02 1.400162465870380402e-02 2.055105380713939667e-02 -3.255761042237281799e-02 -1.880526170134544373e-02 2.488890849053859711e-02 -1.379598397761583328e-02 5.941013339906930923e-03 -9.003078565001487732e-03 -2.182195521891117096e-02 -3.133980929851531982e-02
2.232998609542846680e-03 1.584589108824729919e-02 1.011939719319343567e-02 1.745998486876487732e-02 -4.398383200168609619e-03 6.528229452669620514e-03 2.657699957489967346e-02 8.763334713876247406e-03 9.564666077494621277e-03 -1.039243116974830627e-02 1.837896928191184998e-02 -1.295910123735666275e-02 2.323024533689022064e-02 -3.473587334156036377e-02 -1.084562018513679504e-02 -1.601448282599449158e-02 1.235257834196090698e-02 -3.570436686277389526e-02 6.035387632437050343e-04 6.428049411624670029e-03 1.361650601029396057e-02 -2.778841182589530945e-02 -3.067969717085361481e-02 -7.192834746092557907e-03 1.747451350092887878e-02 2.034521661698818207e-02 -2.764953114092350006e-02 -2.137207612395286560e-02
-3.005536645650863647e-02 -3.714252263307571411e-03 3.450373932719230652e-02 -4.475567489862442017e-03 -9.189916774630546570e-03 -2.841082587838172913e-02 -2.076365798711776733e-02 7.012961432337760925e-04 2.590016648173332214e-02 -2.855400741100311279e-02 2.819122932851314545e-02 -2.217104844748973846e-02 1.799744321033358574e-03 2.319496683776378632e-02 -4.056437313556671143e-02 1.300289202481508255e-02 2.657074714079499245e-03 2.301225438714027405e-02 -6.501555908471345901e-03 -6.007152609527111053e-03 -1.168395043350756168e-03 2.512294054031372070e-02 2.821556106209754944e-02 9.230638970620930195e-04 1.581368409097194672e-02 3.327613230794668198e-03 -3.100709430873394012e-02 -1.558485627174377441e-02
-1.628632657229900360e-02 2.874214202165603638e-03 -1.052642427384853363e-02 -1.138162240386009216e-02 8.709438145160675049e-03 1.570728048682212830e-02 -3.369101881980895996e-02 -1.849103905260562897e-02 4.190389881841838360e-05 9.274480864405632019e-03 -3.060479648411273956e-02 5.205967929214239120e-03 5.141333211213350296e-03 4.555115941911935806e-03 2.683024108409881592e-02 1.043197512626647949e-02 1.919615268707275391e-02 -1.955045759677886963e-02 -1.220605988055467606e-02 -1.248789485543966293e-02 -3.619235008955001831e-02 9.090811014175415039e-03 -8.428623899817466736e-03 1.483811996877193451e-03 -1.145403087139129639e-02 -1.382398698478937149e-02 2.680774219334125519e-02 -2.646698430180549622e-02
4.053823649883270264e-04 -7.169459015130996704e-03 4.031457006931304932e-03 2.596627920866012573e-02 -3.283818066120147705e-02 -2.597388438880443573e-02 1.719241775572299957e-02 2.208166010677814484e-02 1.999958977103233337e-02 -6.001325324177742004e-03 -1.187575981020927429e-02 -4.428469575941562653e-03 -1.275653671473264694e-02 -8.714399300515651703e-03 -3.921502083539962769e-02 8.872742764651775360e-03 1.123445946723222733e-02 -1.731710322201251984e-02 1.447266316972672939e-03 -2.925942093133926392e-02 1.261801924556493759e-02 -1.340695749968290329e-02 -1.734554581344127655e-02 -3.244946710765361786e-03 2.352699264883995056e-02 -1.075976807624101639e-02 2.477765781804919243e-03 -2.490038238465785980e-02
1.497513428330421448e-02 -1.534285023808479309e-02 -2.609283290803432465e-02 -3.415435552597045898e-03 -3.230182453989982605e-02 7.784992922097444534e-04 -1.031376793980598450e-02 1.462105847895145416e-02 1.713933981955051422e-02 -2.590958774089813232e-02 1.215090416371822357e-02 7.016559131443500519e-03 -2.104288153350353241e-02 -9.375818190164864063e-04 -4.910037666559219360e-02 -1.721452176570892334e-02 8.174671791493892670e-03 -2.941212058067321777e-02 3.160530235618352890e-03 6.124768871814012527e-03 -3.445941209793090820e-02 -6.934669334441423416e-03 2.630707249045372009e-02 1.702549308538436890e-02 -3.612354397773742676e-02 3.210768476128578186e-02 -2.371165342628955841e-02 3.369246050715446472e-02
2.660416439175605774e-02 -1.004828698933124542e-02 -2.238219231367111206e-02 -2.062544785439968109e-02 1.462854444980621338e-03 -4.768840968608856201e-03 -2.190260775387287140e-02 -6.860269233584403992e-03 1.691841706633567810e-02 2.317940257489681244e-02 -3.027565963566303253e-02 8.603998459875583649e-03 1.141045242547988892e-02 1.649961620569229126e-02 -1.148929353803396225e-02 -3.183635324239730835e-02 -1.383876707404851913e-02 2.198400348424911499e-02 6.397954188287258148e-03 1.485184417106211185e-03 1.437403261661529541e-02 2.504549920558929443e-02 -2.855880931019783020e-02 -2.693620696663856506e-02 3.294852375984191895e-02 2.360841818153858185e-02 2.896182425320148468e-02 -3.352385014295578003e-02
-3.279560804367065430e-02 -5.111217498779296875e-03 1.117361336946487427e-02 -1.278750784695148468e-02 1.325562596321105957e-02 3.045679815113544464e-02 1.215704996138811111e-02 -3.297892212867736816e-02 -8.709331974387168884e-03 2.081015706062316895e-02 -3.733929619193077087e-02 3.304813057184219360e-03 -1.599843055009841919e-02 -1.880834251642227173e-02 1.222245767712593079e-02 3.641916438937187195e-03 -3.139406815171241760e-02 2.330579329282045364e-03 -3.903190046548843384e-02 3.988837823271751404e-03 -1.035420875996351242e-02 -1.373321656137704849e-02 3.561500925570726395e-03 -9.391876868903636932e-03 1.834837021306157112e-04 -8.720059879124164581e-03 -3.247874230146408081e-02 2.580851316452026367e-02
3.074653446674346924e-03 5.816023796796798706e-03 4.330281168222427368e-03 1.398462243378162384e-02 2.160689607262611389e-02 6.451203487813472748e-03 -1.347952987998723984e-02 -3.058379888534545898e-02 2.501641027629375458e-02 1.343936845660209656e-02 -2.667656226549297571e-04 1.211681519635021687e-03 -3.993257880210876465e-02 -4.214553628116846085e-03 -6.368747912347316742e-03 -9.627085179090499878e-03 -1.553590409457683563e-02 -2.930258959531784058e-02 -2.578110992908477783e-02 -2.531235478818416595e-02 -3.530085086822509766e-02 5.364591721445322037e-03 8.789071813225746155e-03 2.791488170623779297e-02 -2.488927543163299561e-02 -1.876592636108398438e-03 -3.242709487676620483e-02 -1.444348692893981934e-02
2.364094927906990051e-02 1.983722299337387085e-02 -1.354191266000270844e-02 1.683681644499301910e-02 2.838468737900257111e-02 -4.729429259896278381e-03 -2.688892930746078491e-02 2.537576016038656235e-03 -2.361370995640754700e-02 -1.191142387688159943e-02 -4.095295071601867676e-02 -5.377315450459718704e-03 -2.967017143964767456e-02 2.792805247008800507e-02 4.825331270694732666e-03 -2.568800933659076691e-02 -2.854346670210361481e-02 -3.397080674767494202e-02 7.108508143573999405e-04 -3.320993855595588684e-02 -2.485366165637969971e-02 -3.281087428331375122e-02 -2.482020109891891479e-02 -2.018110267817974091e-02 2.156646177172660828e-02 2.101862803101539612e-02 -1.362332329154014587e-02 4.495535045862197876e-03
1.487024128437042236e-02 1.929406821727752686e-02 -4.327416419982910156e-03 -2.282557636499404907e-02 7.056000642478466034e-03 -3.093883860856294632e-03 2.841928415000438690e-02 -3.423307463526725769e-02 2.923600189387798309e-02 3.829679451882839203e-03 1.253003906458616257e-02 -7.030240260064601898e-03 -2.528543397784233093e-02 1.188489329069852829e-02 6.994070485234260559e-03 -2.491372078657150269e-02 -2.820901386439800262e-02 1.928716711699962616e-02 6.872741039842367172e-03 2.137661539018154144e-02 -2.363768406212329865e-02 5.803761305287480354e-04 -3.469289839267730713e-02 2.942205220460891724e-02 -8.435748517513275146e-03 -1.971083506941795349e-02 -1.142791472375392914e-02 -8.451454341411590576e-03
-2.560734003782272339e-02 3.162096068263053894e-02 2.940345555543899536e-03 -6.032330915331840515e-03 -5.686795338988304138e-03 -1.344335731118917465e-02 -2.540395781397819519e-02 -1.483023632317781448e-02 1.682457141578197479e-02 -3.666812181472778320e-02 -3.881010413169860840e-02 -1.481320615857839584e-02 1.196262612938880920e-02 -1.796399126760661602e-03 -3.661298379302024841e-02 -5.116088781505823135e-03 -3.487953171133995056e-02 1.012467220425605774e-02 -3.996181860566139221e-02 8.566303178668022156e-03 -2.280568471178412437e-03 -2.998053282499313354e-02 6.853708531707525253e-03 -2.562109567224979401e-02 2.287361398339271545e-02 2.524754777550697327e-02 1.187475025653839111e-02 -3.201801329851150513e-03
3.124017268419265747e-03 3.124807029962539673e-03 -1.957586035132408142e-02 -8.950071409344673157e-03 -7.620345335453748703e-03 1.249393355101346970e-02 -1.832142286002635956e-02 1.031074393540620804e-02 -2.865673042833805084e-02 1.840193197131156921e-02 1.807670854032039642e-02 -2.772130630910396576e-02 -4.465805832296609879e-03 -2.856089919805526733e-02 -3.111479617655277252e-02 -3.724310174584388733e-02 2.140021137893199921e-02 -7.000057026743888855e-03 9.111836552619934082e-04 6.391836795955896378e-03 1.774243824183940887e-02 3.089091274887323380e-03 -2.204834856092929840e-02 -3.103484772145748138e-02 3.214194998145103455e-02 -3.354813903570175171e-02 7.891096174716949463e-03 -3.338957577943801880e-02
1.989065855741500854e-02 1.137923076748847961e-02 -2.393620461225509644e-02 1.340819150209426880e-02 1.864736154675483704e-02 2.953100018203258514e-02 -4.757435061037540436e-03 1.408131513744592667e-02 -2.604418620467185974e-02 -2.322428114712238312e-02 1.733708009123802185e-02 2.204529941082000732e-02 -1.220052316784858704e-02 -1.198766403831541538e-03 1.073417719453573227e-02 -8.391323499381542206e-03 -3.328156098723411560e-02 8.737442083656787872e-03 1.777402125298976898e-02 -3.788132593035697937e-02 -3.022556751966476440e-02 -9.922535391524434090e-04 -3.415806218981742859e-02 -2.979754097759723663e-02 2.929956093430519104e-02 -1.146214827895164490e-02 -7.895734161138534546e-03 2.537864819169044495e-02
2.732078358530998230e-02 1.408905163407325745e-02 -3.363351151347160339e-02 -5.111776292324066162e-03 -8.433921262621879578e-03 -3.429874405264854431e-02 1.750362850725650787e-02 9.304489940404891968e-03 -1.104599703103303909e-02 3.514656797051429749e-03 -1.760541112162172794e-03 -1.878074184060096741e-02 -2.280269376933574677e-02 1.066679367795586586e-03 1.401367504149675369e-02 -2.728018350899219513e-02 -2.054524794220924377e-02 8.447921834886074066e-03 -3.666988760232925415e-02 -1.980896666646003723e-02 -2.757482416927814484e-02 2.667990326881408691e-02 -1.099217496812343597e-02 6.131910718977451324e-03 -3.710653260350227356e-02 -3.555285185575485229e-02 1.063967496156692505e-02 -3.159356862306594849e-02
2.879342809319496155e-02 -1.000642776489257812e-03 -3.832012414932250977e-03 -1.276323199272155762e-02 8.067922666668891907e-03 -1.682402379810810089e-02 -3.205072507262229919e-02 -1.921304874122142792e-02 1.256124116480350494e-02 -2.454045787453651428e-02 1.617924124002456665e-02 -1.341527886688709259e-02 -1.479096245020627975e-02 1.225659216288477182e-04 -4.188016429543495178e-02 1.992916502058506012e-02 -2.801639400422573090e-02 3.483518492430448532e-03 -1.895269192755222321e-02 -2.175367623567581177e-02 2.150878868997097015e-02 -1.193196699023246765e-02 -9.599636308848857880e-03 -1.423650979995727539e-02 -3.430799767374992371e-02 1.293633133172988892e-03 1.857935637235641479e-02 -1.277952082455158234e-02
1.213479787111282349e-03 -1.594391092658042908e-02 -2.339988574385643005e-02 -2.796509489417076111e-02 -2.814239263534545898e-02 -1.615398004651069641e-02 -3.652560710906982422e-02 1.769991219043731689e-02 -1.368245389312505722e-02 7.665138226002454758e-03 1.113944407552480698e-02 -1.700984500348567963e-02 -2.543458715081214905e-02 -3.140733391046524048e-02 8.632634766399860382e-03 -2.587774954736232758e-02 2.000715024769306183e-02 -1.740822196006774902e-02 -2.957678772509098053e-02 -1.592430844902992249e-02 1.396512705832719803e-02 -1.235042978078126907e-02 -9.150185622274875641e-03 -1.797258108854293823e-02 2.252767793834209442e-02 1.029676198959350586e-02 1.900851726531982422e-02 1.719943061470985413e-02
1.411389186978340149e-02 -3.427528962492942810e-02 2.542234957218170166e-02 9.635243564844131470e-03 -2.132049761712551117e-02 -3.090557828545570374e-02 2.441029809415340424e-02 1.875431649386882782e-02 2.079088473692536354e-03 -1.056992262601852417e-02 -1.562370266765356064e-02 1.386054977774620056e-02 1.187109854072332382e-02 8.161635138094425201e-03 1.805527135729789734e-02 -4.006825014948844910e-02 -2.339203283190727234e-02 -5.236193072050809860e-03 2.020677551627159119e-02 1.322280056774616241e-02 -3.285651654005050659e-02 -2.450902014970779419e-02 2.497862465679645538e-02 2.076442725956439972e-02 1.934459432959556580e-02 -2.393081784248352051e-02 -4.279315471649169922e-03 -1.172255724668502808e-02
1.023382321000099182e-02 -2.524371817708015442e-02 2.763599529862403870e-02 1.563284546136856079e-02 2.381509914994239807e-02 -1.271267421543598175e-02 -1.328918430954217911e-02 -7.931003347039222717e-03 -3.605250269174575806e-02 2.132821455597877502e-02 -2.933112345635890961e-02 -3.084999881684780121e-02 -4.630809649825096130e-03 -1.627006195485591888e-02 1.410664152354001999e-02 -3.541637212038040161e-02 1.396208442747592926e-02 -2.635551989078521729e-02 -3.310014680027961731e-02 6.863801274448633194e-03 -2.990768477320671082e-02 -1.628218777477741241e-02 -1.457185856997966766e-02 -3.311620093882083893e-03 -1.819894276559352875e-02 1.369518786668777466e-02 7.053539156913757324e-03 -2.869500219821929932e-02
3.070301935076713562e-02 -2.950384095311164856e-02 3.558069840073585510e-02 2.507109940052032471e-02 -3.497366560623049736e-03 -3.348705591633915901e-03 1.751892454922199249e-02 -6.099638994783163071e-03 1.763297244906425476e-02 -1.235678978264331818e-02 -6.631975411437451839e-04 -1.015063188970088959e-02 -5.209914874285459518e-03 -1.668278686702251434e-02 3.343678690725937486e-05 -3.463571891188621521e-02 -2.187835611402988434e-02 -1.861393637955188751e-02 3.403030103072524071e-03 1.933945156633853912e-02 1.487031346186995506e-03 5.897175054997205734e-03 -3.176916390657424927e-02 1.410510390996932983e-03 7.572352886199951172e-03 -2.906244248151779175e-03 -2.184416726231575012e-02 -3.420536220073699951e-02
1.271819323301315308e-02 2.991055324673652649e-02 -3.031148388981819153e-02 -5.170861259102821350e-03 5.034449510276317596e-03 -4.970550071448087692e-03 2.870967425405979156e-02 1.482457760721445084e-02 -7.006512023508548737e-03 -1.600193977355957031e-02 -1.052590087056159973e-02 1.919495500624179840e-02 -6.679485086351633072e-04 1.143591944128274918e-02 -2.681399509310722351e-02 -2.846112474799156189e-02 -9.007165208458900452e-03 1.279810070991516113e-02 -2.995452471077442169e-02 7.493380922824144363e-03 -2.635120227932929993e-02 -2.987168729305267334e-02 1.774276047945022583e-02 2.327321097254753113e-02 3.417918458580970764e-02 1.542028039693832397e-02 -3.037540055811405182e-02 -2.479438483715057373e-02
-1.266035437583923340e-02 -1.500105485320091248e-02 5.287315696477890015e-03 2.802890166640281677e-02 1.920690760016441345e-02 -2.682461589574813843e-02 -1.027659513056278229e-02 4.687387496232986450e-03 -2.186864614486694336e-02 -4.681790247559547424e-03 -9.482458233833312988e-03 2.331827580928802490e-02 -8.524703793227672577e-03 -2.956418553367257118e-03 -3.025747276842594147e-02 2.922680601477622986e-02 2.657578513026237488e-02 6.827808916568756104e-03 2.694162353873252869e-02 -9.940547868609428406e-03 -2.362341620028018951e-02 -8.350262418389320374e-03 -3.413547575473785400e-02 2.726081758737564087e-03 -5.270067602396011353e-03 -3.332681953907012939e-02 1.136329770088195801e-02 -3.372313082218170166e-02
8.714959025382995605e-03 -2.904840186238288879e-02 -1.278194785118103027e-02 2.835717424750328064e-02 2.370296418666839600e-02 -1.077431999146938324e-02 -5.915390327572822571e-03 1.088391616940498352e-02 9.851783514022827148e-03 1.294734701514244080e-02 -2.660387009382247925e-02 -2.482270821928977966e-02 -2.001427672803401947e-02 -1.528904400765895844e-02 3.504511341452598572e-02 -3.179246932268142700e-02 1.123705133795738220e-02 1.605441421270370483e-02 8.617345243692398071e-03 -3.019152954220771790e-02 -7.890645414590835571e-03 2.948519214987754822e-02 6.891567260026931763e-03 -2.130208350718021393e-02 1.610306277871131897e-02 -1.950437761843204498e-02 -1.657116971909999847e-02 -2.687368728220462799e-02
