4.259100854396820068e-01 -5.234869122505187988e-01 -1.995343685150146484e+00 -2.832571566104888916e-01 1.909018516540527344e+00 1.802212715148925781e+00 1.364765882492065430e+00 5.027415752410888672e-01 1.882391273975372314e-01 -3.949997723102569580e-01 3.624562621116638184e-01 -5.005208775401115417e-02 4.065084159374237061e-01 7.444827556610107422e-01 3.798491135239601135e-02 5.438121557235717773e-01 -3.895758390426635742e-01 -2.196951359510421753e-01 -1.052146703004837036e-01 3.532246947288513184e-01 -5.376208424568176270e-01 1.023391485214233398e+00 1.396205306053161621e+00 2.093542337417602539e+00 -7.117615938186645508e-01 -6.760330796241760254e-01 1.380523443222045898e+00 9.834110736846923828e-03
2.945762872695922852e-01 1.179973483085632324e+00 1.002921938896179199e+00 5.963190793991088867e-01 1.555222511291503906e+00 1.651034504175186157e-01 8.608834147453308105e-01 7.917447686195373535e-01 3.333978354930877686e-01 1.281179860234260559e-02 1.616698056459426880e-01 2.555339932441711426e-01 3.806159496307373047e-01 3.267961442470550537e-01 4.494899213314056396e-01 1.322143673896789551e-01 1.505497694015502930e-01 2.662889361381530762e-01 -2.587549388408660889e-01 -1.698677092790603638e-01 -2.209303379058837891e-01 -4.009534418582916260e-01 -1.731014549732208252e-01 1.875778287649154663e-01 1.304363757371902466e-01 -8.511270880699157715e-01 3.920503556728363037e-01 1.245013236999511719e+00
3.699497282505035400e-01 2.016052484512329102e+00 8.931556940078735352e-01 -2.993085682392120361e-01 1.981364041566848755e-01 -2.071235701441764832e-02 3.980574756860733032e-02 -4.016437530517578125e-01 -4.317319020628929138e-02 1.328433305025100708e-01 7.707224041223526001e-02 1.812538802623748779e-01 1.504904329776763916e-01 1.698429733514785767e-01 4.868911206722259521e-01 4.397796988487243652e-01 2.227636054158210754e-02 -3.009481728076934814e-02 8.704450726509094238e-02 6.081208214163780212e-02 -6.644911766052246094e-01 -2.160334885120391846e-01 -4.367502033710479736e-01 -3.896830081939697266e-01 -7.835567593574523926e-01 2.995122969150543213e-01 1.380234718322753906e+00 8.461825847625732422e-01
2.852781713008880615e-01 -4.467204213142395020e-01 -6.852091550827026367e-01 2.635909914970397949e-01 1.997059583663940430e-01 1.890340596437454224e-01 -5.778005719184875488e-01 1.222495064139366150e-01 1.669708192348480225e-01 -1.658183485269546509e-01 -1.248966306447982788e-01 3.001933395862579346e-01 -3.695139586925506592e-01 2.349403798580169678e-01 3.735737800598144531e-01 4.067951142787933350e-01 7.459370791912078857e-02 6.708857417106628418e-02 -8.891946636140346527e-03 -6.251292675733566284e-02 4.422359168529510498e-01 -3.407662212848663330e-01 -2.077344805002212524e-01 -8.117294311523437500e-01 -1.193553209304809570e+00 2.139265090227127075e-01 5.435677766799926758e-01 6.320364475250244141e-01
-1.331260442733764648e+00 -2.549331188201904297e-01 2.201695144176483154e-01 -1.288530111312866211e+00 4.615922272205352783e-01 1.681479252874851227e-02 -4.133994132280349731e-02 3.271066844463348389e-01 2.565977573394775391e-01 -3.533361554145812988e-01 4.120793193578720093e-02 4.203469455242156982e-01 2.051735222339630127e-01 9.289257228374481201e-02 4.413168132305145264e-01 -2.325715497136116028e-02 6.307032704353332520e-01 -5.145272612571716309e-02 -3.089536428451538086e-01 -3.022325783967971802e-02 4.995859786868095398e-02 1.303402781486511230e-01 -2.898980677127838135e-01 -6.595259904861450195e-01 -1.609409451484680176e-01 -8.734190464019775391e-02 -7.510533928871154785e-02 4.937859773635864258e-01
1.471767015755176544e-02 7.187816500663757324e-02 -4.227207005023956299e-01 5.897440388798713684e-02 -5.858560204505920410e-01 -1.204132847487926483e-02 -1.306329816579818726e-01 3.771659135818481445e-01 -1.240235045552253723e-01 1.504909098148345947e-01 2.051222026348114014e-01 2.008329182863235474e-01 -1.696021668612957001e-02 2.617709040641784668e-01 4.762080609798431396e-01 -1.099670305848121643e-01 4.628057181835174561e-01 -9.127374738454818726e-02 -1.169528663158416748e-01 -2.928665876388549805e-01 -1.737021505832672119e-01 1.376079171895980835e-01 -2.079025954008102417e-01 1.894092857837677002e-01 3.396834433078765869e-01 -8.581174612045288086e-01 5.106732994318008423e-02 7.847296595573425293e-01
-2.120468378067016602e+00 -7.963061332702636719e-01 -6.205872297286987305e-01 -2.204104214906692505e-01 2.148840427398681641e-01 2.241145074367523193e-01 5.653301998972892761e-02 5.038972571492195129e-02 -3.088250160217285156e-01 -1.640661656856536865e-01 -2.856839895248413086e-01 3.897905349731445312e-01 1.861701011657714844e-01 -1.996895670890808105e-01 1.010672152042388916e-01 -2.473085671663284302e-01 -4.327341541647911072e-02 7.331410050392150879e-02 -2.358552813529968262e-01 -1.370694935321807861e-01 2.922411262989044189e-02 8.866713196039199829e-02 -3.685804307460784912e-01 1.298831999301910400e-01 -4.534543156623840332e-01 -6.321917176246643066e-01 2.078539729118347168e-01 7.239415645599365234e-01
-3.593842744827270508e+00 -1.649090647697448730e-01 -2.464268058538436890e-01 -7.914739847183227539e-02 1.597896963357925415e-01 3.581360876560211182e-01 3.520153462886810303e-02 -5.198295041918754578e-02 -1.273400336503982544e-01 -3.601180315017700195e-01 1.956147141754627228e-02 -1.170634627342224121e-01 -1.671366766095161438e-02 -1.503271609544754028e-01 1.198656037449836731e-01 6.944704800844192505e-02 -2.032157480716705322e-01 2.220162190496921539e-02 1.376807242631912231e-01 -2.906102500855922699e-02 -2.036524564027786255e-01 7.144853007048368454e-03 -1.367641091346740723e-01 2.327840328216552734e-01 -2.921656966209411621e-01 -8.304686844348907471e-02 -3.069379031658172607e-01 -7.926946878433227539e-01
-3.285373210906982422e+00 -2.057713568210601807e-01 -7.735109925270080566e-01 -2.774849832057952881e-01 -3.540909886360168457e-01 3.805362880229949951e-01 3.881173441186547279e-03 -8.039414137601852417e-02 -3.173145353794097900e-01 -5.499772429466247559e-01 -2.102166265249252319e-01 5.828916653990745544e-02 -4.337870180606842041e-01 -2.135267108678817749e-01 -2.490030415356159210e-02 -1.232990175485610962e-01 -4.765748511999845505e-03 -9.010403603315353394e-02 9.696328639984130859e-02 -4.971247613430023193e-01 -3.208632767200469971e-01 5.917495489120483398e-02 -1.794280558824539185e-01 4.275423288345336914e-01 4.480516165494918823e-02 -1.160955727100372314e-01 -5.558080673217773438e-01 -5.141695737838745117e-01
-3.256901264190673828e+00 8.351193070411682129e-01 -7.780836820602416992e-01 -4.828065931797027588e-01 -6.906510889530181885e-02 6.085121538490056992e-03 3.305876627564430237e-02 2.162618190050125122e-01 -5.558487176895141602e-01 -5.163942575454711914e-01 -5.826443433761596680e-01 -3.291797339916229248e-01 -4.286439418792724609e-01 -3.006941378116607666e-01 -2.386943250894546509e-01 -1.221078634262084961e-01 -7.690845429897308350e-02 2.576832175254821777e-01 2.402924746274948120e-01 -1.330515593290328979e-01 1.949675530195236206e-01 -3.618450760841369629e-01 -2.063841074705123901e-01 4.912010431289672852e-01 2.283222228288650513e-01 1.308922022581100464e-01 -3.474286943674087524e-02 4.646596312522888184e-01
-6.307382583618164062e-01 9.090496897697448730e-01 3.221538364887237549e-01 6.428421735763549805e-01 1.393397599458694458e-01 -2.029397636651992798e-01 2.857100069522857666e-01 -5.758164823055267334e-02 -3.041533529758453369e-01 -6.867540478706359863e-01 -4.545645713806152344e-01 -2.239099293947219849e-01 -2.398240566253662109e-01 -1.646432429552078247e-01 1.593928784132003784e-01 -9.393738210201263428e-02 -1.385056674480438232e-01 1.517326980829238892e-01 3.807497769594192505e-02 2.695874124765396118e-02 -1.710401773452758789e-01 -3.240251839160919189e-01 -2.960722893476486206e-03 1.980136930942535400e-01 1.004240363836288452e-01 9.537144303321838379e-01 6.203343868255615234e-01 1.068008467555046082e-01
-1.216020941734313965e+00 9.778732061386108398e-01 -4.477415084838867188e-01 -5.295994505286216736e-02 -9.923467040061950684e-02 1.320752650499343872e-01 2.393245398998260498e-01 4.107981175184249878e-02 1.784775406122207642e-01 8.468083292245864868e-02 -8.026260137557983398e-02 1.768734008073806763e-01 -2.332044020295143127e-02 -8.763800561428070068e-02 -1.583736985921859741e-01 2.733712494373321533e-01 2.220579795539379120e-02 9.352728724479675293e-02 -5.564041435718536377e-02 -1.717109978199005127e-01 1.471138149499893188e-01 -2.525129914283752441e-01 1.263173222541809082e-01 -5.684030707925558090e-03 3.540288209915161133e-01 7.167650461196899414e-01 6.312338709831237793e-01 -4.873605370521545410e-01
-2.152166128158569336e+00 -1.643441617488861084e-01 -3.460521399974822998e-01 -9.827800095081329346e-02 -1.358695179224014282e-01 6.019136309623718262e-01 1.937088668346405029e-01 1.154164597392082214e-01 3.820340931415557861e-01 1.593835353851318359e-01 -2.161737531423568726e-01 -3.883455693721771240e-01 -2.980445921421051025e-01 5.518672615289688110e-02 8.566446602344512939e-02 2.346709221601486206e-01 -2.641349434852600098e-01 3.693278878927230835e-02 2.410249710083007812e-01 2.995707988739013672e-01 3.076462447643280029e-01 -6.507743895053863525e-02 3.914639055728912354e-01 -9.614446759223937988e-02 1.852704137563705444e-01 7.583315968513488770e-01 -7.922294735908508301e-02 -2.496635913848876953e-01
-1.271887540817260742e+00 -9.704964756965637207e-01 -3.434570729732513428e-01 -1.084349229931831360e-01 5.366559624671936035e-01 -1.042308360338211060e-01 -2.774880528450012207e-01 2.460277527570724487e-01 3.265164792537689209e-01 7.849243283271789551e-02 2.098903656005859375e-01 1.816610395908355713e-01 -1.787632405757904053e-01 3.547119349241256714e-02 2.231267988681793213e-01 2.022394835948944092e-01 -8.337739855051040649e-02 -3.638455867767333984e-01 -6.570337805896997452e-03 2.519940733909606934e-01 4.308778643608093262e-01 -2.854343056678771973e-01 -2.348624356091022491e-02 1.501817256212234497e-01 8.810794353485107422e-02 3.616677224636077881e-01 7.471118867397308350e-02 -4.423684477806091309e-01
-2.545752823352813721e-01 -2.637209296226501465e-01 1.086693704128265381e-01 -3.635227978229522705e-01 -1.830148696899414062e-01 -3.216520845890045166e-01 -3.424081504344940186e-01 1.641460508108139038e-01 2.841267883777618408e-01 9.853331744670867920e-02 2.851566672325134277e-01 3.736649453639984131e-01 -4.130411893129348755e-02 -4.259117320179939270e-02 -1.362802460789680481e-03 1.225233227014541626e-01 4.848844558000564575e-02 -1.144536770880222321e-02 2.549552619457244873e-01 2.838072478771209717e-01 4.008712470531463623e-01 5.951583012938499451e-02 -2.006515115499496460e-01 -2.256057709455490112e-01 3.974024057388305664e-01 -3.042392898350954056e-03 1.605147123336791992e-01 1.018606778234243393e-02
3.745549321174621582e-01 -5.847344174981117249e-02 4.694754183292388916e-01 3.686618804931640625e-01 2.550337910652160645e-01 -2.844409346580505371e-01 -1.996119618415832520e-01 2.009680867195129395e-01 2.719927430152893066e-01 4.132258892059326172e-01 1.545386016368865967e-01 2.338101118803024292e-01 -6.652144342660903931e-02 -1.804965436458587646e-01 4.515646025538444519e-02 -2.457011342048645020e-01 -3.675012290477752686e-01 -4.193699955940246582e-01 2.634286284446716309e-01 -1.185163185000419617e-01 1.432422697544097900e-01 -1.032820995897054672e-02 3.604504466056823730e-01 -4.246482625603675842e-02 2.341196686029434204e-01 3.670985102653503418e-01 5.524589121341705322e-02 4.911806583404541016e-01
5.871442556381225586e-01 2.131326347589492798e-01 1.714833825826644897e-01 2.447775453329086304e-01 -1.957584619522094727e-01 -3.166091144084930420e-01 -3.373255431652069092e-01 -9.727337956428527832e-02 8.471494168043136597e-02 2.536099851131439209e-01 7.339927833527326584e-04 -1.170801892876625061e-01 -3.309794515371322632e-02 -2.067927569150924683e-01 1.594724059104919434e-01 1.960472911596298218e-01 9.003220498561859131e-02 6.780025362968444824e-02 1.197096779942512512e-01 8.805798739194869995e-02 3.574382960796356201e-01 -2.891107201576232910e-01 -2.401597052812576294e-01 5.350636318325996399e-02 3.147348463535308838e-01 2.018539607524871826e-01 -3.300601989030838013e-02 4.926774203777313232e-01
3.851181864738464355e-01 3.954676091670989990e-01 8.160538077354431152e-01 2.331815063953399658e-01 -4.036906361579895020e-01 -2.137927263975143433e-01 -1.273759901523590088e-01 -1.520487219095230103e-01 4.797548651695251465e-01 -2.267086356878280640e-01 2.205172032117843628e-01 6.450017094612121582e-01 5.306107550859451294e-02 -3.768332302570343018e-02 -2.976111173629760742e-01 2.646899819374084473e-01 9.099138528108596802e-02 9.642331302165985107e-02 9.514919668436050415e-02 4.414165392518043518e-02 3.445021808147430420e-01 2.513624168932437897e-02 -8.249668776988983154e-02 2.175272852182388306e-01 5.127756670117378235e-02 1.399333626031875610e-01 3.441674634814262390e-03 -4.167488962411880493e-02
2.011528760194778442e-01 3.410506248474121094e-01 1.117953300476074219e+00 1.919270604848861694e-01 -7.923566550016403198e-02 -2.194016128778457642e-01 -1.745377928018569946e-01 5.385607481002807617e-02 7.839528471231460571e-02 4.657069593667984009e-02 1.001089513301849365e-01 9.830722212791442871e-02 -1.307971924543380737e-01 1.129542663693428040e-01 1.167019642889499664e-02 1.913350820541381836e-01 1.432247832417488098e-02 -2.135338261723518372e-02 1.281261816620826721e-02 -2.540039271116256714e-02 -3.345132246613502502e-02 -7.387188822031021118e-02 -8.453059010207653046e-03 2.917362749576568604e-01 1.987089067697525024e-01 -3.198123574256896973e-01 1.283069401979446411e-01 2.955121099948883057e-01
-1.604311913251876831e-01 8.408094048500061035e-01 7.215569615364074707e-01 2.153256982564926147e-01 4.621267914772033691e-01 -3.630158007144927979e-01 -1.478234082460403442e-01 5.023081302642822266e-01 -5.395925045013427734e-02 7.441288232803344727e-02 -1.200791001319885254e-01 3.118363320827484131e-01 1.486263424158096313e-01 2.122630327939987183e-01 1.920446902513504028e-01 4.633029699325561523e-01 2.744775116443634033e-01 1.708152890205383301e-01 6.923984736204147339e-02 2.524450235068798065e-02 4.179016500711441040e-02 2.742525041103363037e-01 2.551811039447784424e-01 1.643792539834976196e-01 1.640879958868026733e-01 -5.187597274780273438e-01 3.991658091545104980e-01 6.299086809158325195e-01
3.174794614315032959e-01 2.465270459651947021e-01 6.424539089202880859e-01 7.106150686740875244e-02 5.284804701805114746e-01 -1.084775105118751526e-01 7.180681079626083374e-02 -1.372346282005310059e-01 8.842730522155761719e-02 1.905230134725570679e-01 -5.187479034066200256e-02 -2.619496881961822510e-01 -5.681293830275535583e-02 6.707105785608291626e-02 6.082364544272422791e-02 5.501629319041967392e-03 -1.684532910585403442e-01 4.286798536777496338e-01 4.985892772674560547e-01 1.589484363794326782e-01 -5.913234502077102661e-02 -1.852156035602092743e-02 1.977969706058502197e-01 1.549409925937652588e-01 1.922731697559356689e-01 -5.615157485008239746e-01 -1.540716737508773804e-01 3.126508593559265137e-01
1.204238176345825195e+00 -5.814443826675415039e-01 6.901420950889587402e-01 1.173183023929595947e-01 9.006360545754432678e-03 -3.626036643981933594e-02 5.991492420434951782e-02 -2.469639033079147339e-01 6.954797543585300446e-03 4.165281355381011963e-01 -1.108456104993820190e-01 -1.108716726303100586e-01 -2.445168644189834595e-01 7.567008957266807556e-03 3.516907691955566406e-01 -1.436579227447509766e-02 1.100346446037292480e-01 2.518287301063537598e-01 3.343015536665916443e-02 3.931550383567810059e-01 3.290386199951171875e-01 -2.001982480287551880e-01 3.002667566761374474e-03 4.035489261150360107e-01 3.297395408153533936e-01 2.606611140072345734e-02 3.210265338420867920e-01 7.630584239959716797e-01
1.550891399383544922e+00 6.726294755935668945e-01 1.082984209060668945e+00 4.417107999324798584e-01 4.760477691888809204e-02 -5.599182471632957458e-02 2.092484571039676666e-02 -4.549210369586944580e-01 2.051174789667129517e-01 8.875560015439987183e-02 1.973001360893249512e-01 -4.418447986245155334e-02 -1.821966916322708130e-01 -7.939896732568740845e-02 -2.211302705109119415e-02 -1.282926052808761597e-01 3.673999011516571045e-01 5.046742558479309082e-01 2.635580301284790039e-01 2.328235208988189697e-01 -2.688921689987182617e-01 -2.413350790739059448e-01 3.480930328369140625e-01 3.685550987720489502e-01 4.127390682697296143e-01 3.230204433202743530e-02 1.919181197881698608e-01 2.412744462490081787e-01
2.921321988105773926e-01 -1.342305243015289307e-01 7.579992413520812988e-01 -2.825706638395786285e-02 2.523832917213439941e-01 1.859110593795776367e-01 -2.896539866924285889e-03 -1.386983841657638550e-01 1.143448725342750549e-01 3.432355076074600220e-02 -2.850014530122280121e-02 -3.439958393573760986e-01 -2.452884763479232788e-01 -6.442501395940780640e-02 1.465913653373718262e-01 -5.158987045288085938e-01 3.250826522707939148e-02 3.020801544189453125e-01 -2.509325742721557617e-01 3.167191520333290100e-02 2.814411818981170654e-01 5.061805620789527893e-02 3.505993783473968506e-01 -4.586150497198104858e-02 4.157263338565826416e-01 -6.435389518737792969e-01 -7.601351141929626465e-01 -1.881077885627746582e-01
1.714398413896560669e-01 2.598118782043457031e-01 4.660071060061454773e-02 2.454760670661926270e-01 5.347111225128173828e-01 1.349660605192184448e-01 -2.383724600076675415e-01 -1.413415372371673584e-01 -2.285189777612686157e-01 -2.709843814373016357e-01 -3.847598657011985779e-02 6.608155369758605957e-02 2.412895113229751587e-01 3.074713051319122314e-01 3.144993185997009277e-01 -5.958744511008262634e-02 -2.855110727250576019e-02 1.531154513359069824e-01 2.712760567665100098e-01 2.320106029510498047e-01 -1.331654340028762817e-01 -2.358597368001937866e-01 1.648843474686145782e-02 3.035097122192382812e-01 5.474956631660461426e-01 -6.450200825929641724e-02 -6.134667992591857910e-01 9.906307607889175415e-02
-1.467816948890686035e+00 1.009032502770423889e-01 -3.166055679321289062e-01 3.172521591186523438e-01 3.660847544670104980e-01 4.285860359668731689e-01 1.386522548273205757e-03 1.863330751657485962e-01 2.200428955256938934e-02 -2.361013367772102356e-02 1.111535280942916870e-01 -3.609780669212341309e-01 -3.535769879817962646e-01 2.148551195859909058e-01 6.810110807418823242e-02 -6.254283245652914047e-03 -2.362186275422573090e-02 5.145699977874755859e-01 -1.443115919828414917e-01 4.526539240032434464e-03 2.056591212749481201e-01 4.354254007339477539e-01 -9.307136386632919312e-02 5.448345541954040527e-01 2.332108169794082642e-01 -2.538001537322998047e-01 -1.125796079635620117e+00 -8.068611621856689453e-01
-1.207896471023559570e+00 -1.071612313389778137e-01 -4.523881077766418457e-01 1.426259987056255341e-02 -1.777605414390563965e-01 -1.986004859209060669e-01 1.636885404586791992e-01 2.452477067708969116e-01 7.559906691312789917e-02 7.519870251417160034e-02 -9.963365644216537476e-02 -3.092856705188751221e-01 -3.464035987854003906e-01 -1.105990782380104065e-01 -1.719349771738052368e-01 2.359671890735626221e-01 -1.083202585577964783e-01 1.611732691526412964e-02 -1.100130304694175720e-01 1.607888191938400269e-01 5.426576137542724609e-01 1.665925830602645874e-01 -1.771296709775924683e-01 1.796175539493560791e-01 2.666516900062561035e-01 8.226113021373748779e-02 3.054030537605285645e-01 -2.239308804273605347e-01
5.458793640136718750e-01 6.512303352355957031e-01 6.882343441247940063e-02 4.364298284053802490e-01 2.518943883478641510e-02 -3.804202377796173096e-01 9.343443065881729126e-02 -3.702176511287689209e-01 2.430969029664993286e-01 2.034579366445541382e-01 -3.043259680271148682e-01 -5.630473494529724121e-01 -1.594488471746444702e-01 1.329284310340881348e-01 1.824218034744262695e-01 1.142069846391677856e-01 -3.151547014713287354e-01 2.206630632281303406e-02 1.654042899608612061e-01 -9.776017628610134125e-03 -1.030729889869689941e+00 -4.785687327384948730e-01 -3.440269231796264648e-01 2.999075949192047119e-01 7.905174493789672852e-01 -4.362275004386901855e-01 1.600611925125122070e+00 8.608062267303466797e-01
