2.886205613613128662e-01 3.111658394336700439e-01 -4.152132198214530945e-02 -7.179356217384338379e-01 2.269237279891967773e+00 1.441197037696838379e+00 1.470229029655456543e+00 8.634698390960693359e-01 -6.348868459463119507e-02 1.595374643802642822e-01 -5.039023160934448242e-01 -6.631354242563247681e-02 -7.242680788040161133e-01 4.291448891162872314e-01 2.179745435714721680e-01 -8.820635266602039337e-03 3.352684676647186279e-01 -1.156646609306335449e-01 3.481867313385009766e-01 3.921735882759094238e-01 1.765218824148178101e-01 1.161491990089416504e+00 2.015688657760620117e+00 1.211668610572814941e+00 6.508223414421081543e-01 5.254101753234863281e-01 2.667605280876159668e-01 2.820135056972503662e-01
1.610493659973144531e-01 3.745660185813903809e-01 -9.177675843238830566e-01 -8.899136781692504883e-01 1.117254614830017090e+00 2.550791800022125244e-01 2.352214306592941284e-01 -9.384737014770507812e-01 -2.036053836345672607e-01 2.142396569252014160e-01 -1.658880710601806641e-01 4.414010345935821533e-01 6.733100116252899170e-02 9.049084782600402832e-02 -1.832365244626998901e-02 -6.606650352478027344e-02 4.688107967376708984e-02 -1.309234797954559326e-01 5.564364790916442871e-02 -2.125949859619140625e-01 -2.386120259761810303e-01 -1.437548100948333740e-01 7.273740768432617188e-01 3.815203905105590820e-01 -2.817463874816894531e-01 4.225026965141296387e-01 -8.186760544776916504e-02 1.088000386953353882e-01
4.485884308815002441e-01 2.251529395580291748e-01 -3.307008445262908936e-01 -1.228148639202117920e-01 1.248349189758300781e+00 5.597574114799499512e-01 -4.634003639221191406e-01 6.078525185585021973e-01 6.076269596815109253e-02 -1.946604102849960327e-01 3.076263889670372009e-02 -2.724858932197093964e-02 -1.936104148626327515e-01 1.021480485796928406e-01 1.133979707956314087e-01 -2.059005200862884521e-01 -2.786158323287963867e-01 9.991212189197540283e-02 1.189885735511779785e-01 4.067088663578033447e-02 2.726686894893646240e-01 1.190607175230979919e-01 1.093858620151877403e-03 -5.822564959526062012e-01 -6.774029135704040527e-01 1.120807170867919922e+00 -1.397368758916854858e-01 -2.619052529335021973e-01
3.745369911193847656e-01 2.487145215272903442e-01 3.932648599147796631e-01 -1.371288537979125977e+00 1.031775474548339844e+00 8.284837603569030762e-01 2.036898583173751831e-01 7.850005477666854858e-02 -2.200309932231903076e-01 4.635328650474548340e-01 1.808064989745616913e-02 -1.341348141431808472e-01 1.510604470968246460e-01 -5.030807107686996460e-03 -2.016494609415531158e-02 3.143334388732910156e-01 -1.864357292652130127e-01 -1.571435630321502686e-01 2.710008025169372559e-01 -1.129543408751487732e-02 -7.821419835090637207e-02 -3.141159117221832275e-01 1.932040601968765259e-01 -9.736892580986022949e-01 -1.985575079917907715e+00 4.112903028726577759e-02 -4.359025657176971436e-01 4.600980877876281738e-02
8.860925436019897461e-01 -2.587148845195770264e-01 -9.614673256874084473e-02 -1.904348015785217285e+00 -2.699581347405910492e-02 -5.528832674026489258e-01 -3.353470191359519958e-02 -3.503882586956024170e-01 -4.734854027628898621e-02 -8.548257499933242798e-02 -1.727959066629409790e-01 -2.888127565383911133e-01 -1.034653931856155396e-01 -9.781932085752487183e-02 8.958231657743453979e-02 -7.747028768062591553e-02 -3.041514158248901367e-01 1.936744526028633118e-02 -4.756158590316772461e-02 2.740846574306488037e-01 -2.389327436685562134e-01 -4.656594395637512207e-01 8.553276956081390381e-02 -7.949932217597961426e-01 -4.061060428619384766e+00 -7.256902456283569336e-01 7.944667339324951172e-01 2.694968581199645996e-01
1.435374379158020020e+00 8.390670418739318848e-01 1.052040815353393555e+00 -2.983680963516235352e+00 1.292458921670913696e-01 -1.138801097869873047e+00 -4.349374175071716309e-01 8.903755247592926025e-02 2.664684653282165527e-01 -4.368177801370620728e-02 -3.491044789552688599e-02 1.620341092348098755e-01 -2.362813241779804230e-02 -1.149929985404014587e-01 -1.410250961780548096e-01 2.323611974716186523e-01 3.788466751575469971e-01 -2.853097319602966309e-01 2.309950888156890869e-01 -1.024454906582832336e-01 -2.433345764875411987e-01 -6.479009985923767090e-01 -5.251566171646118164e-01 -1.815123319625854492e+00 -2.771914243698120117e+00 -4.678871035575866699e-01 -2.226022034883499146e-01 1.944756694138050079e-02
1.213357686996459961e+00 1.453367471694946289e+00 4.629695117473602295e-01 -2.941212654113769531e+00 -2.578800618648529053e-01 -8.560149669647216797e-01 -2.132912278175354004e-01 -3.582263290882110596e-01 -1.087853834033012390e-01 1.114551648497581482e-01 -2.061546742916107178e-01 -2.114403247833251953e-02 6.089954986236989498e-04 -9.520430862903594971e-02 -1.670731455087661743e-01 -1.847658008337020874e-01 2.180146723985671997e-01 -1.057672351598739624e-01 3.213645219802856445e-01 3.519876003265380859e-01 9.303014725446701050e-02 4.758317023515701294e-02 -4.267763793468475342e-01 -3.215299606323242188e+00 -2.093554735183715820e+00 3.529492914676666260e-01 2.044878154993057251e-01 6.124743819236755371e-01
2.787532806396484375e-01 8.314613103866577148e-01 6.623951196670532227e-01 -1.134324789047241211e+00 -1.267641544342041016e+00 -1.747429072856903076e-01 4.318439662456512451e-01 2.080923169851303101e-01 2.574592828750610352e-01 6.471244990825653076e-02 -2.952043414115905762e-01 -8.377150446176528931e-02 3.927075769752264023e-03 7.054814486764371395e-04 2.278266698122024536e-01 -3.318042755126953125e-01 -1.175040286034345627e-02 -3.438470065593719482e-01 -8.640474826097488403e-02 2.650797665119171143e-01 -1.360411196947097778e-02 -6.985762715339660645e-02 1.525648832321166992e-01 -6.934147477149963379e-01 -3.489946126937866211e-01 -1.072965383529663086e+00 -2.029333561658859253e-01 8.320745825767517090e-01
5.477923154830932617e-01 1.630974888801574707e+00 3.089855313301086426e-01 -5.191515684127807617e-01 -1.236441493034362793e+00 3.252063393592834473e-01 2.557281553745269775e-01 7.137377858161926270e-01 1.891459673643112183e-01 1.932992786169052124e-01 -9.566430817358195782e-04 1.226255483925342560e-02 -1.003191173076629639e-01 1.610076725482940674e-01 1.717050224542617798e-01 -8.842443674802780151e-02 -1.918925791978836060e-01 -3.095254898071289062e-01 1.254505068063735962e-01 -1.926000043749809265e-02 1.214579194784164429e-01 9.298294782638549805e-03 -2.182666212320327759e-01 -9.474336355924606323e-02 2.495953142642974854e-01 -3.699521422386169434e-01 -5.972391366958618164e-01 4.126107990741729736e-01
6.714183092117309570e-01 7.783083915710449219e-01 1.162464261054992676e+00 3.106946051120758057e-01 -1.950495123863220215e+00 2.809206843376159668e-01 3.313739299774169922e-01 5.116904377937316895e-01 2.529303170740604401e-02 4.716802537441253662e-01 2.913262844085693359e-01 -2.147812955081462860e-02 -6.946755200624465942e-02 1.573473028838634491e-02 -3.147185742855072021e-01 -1.590039879083633423e-01 -4.260478019714355469e-01 -6.153511404991149902e-01 -1.130512803792953491e-01 1.696047484874725342e-01 3.019175231456756592e-01 -1.869237236678600311e-02 3.787419945001602173e-02 -3.865385428071022034e-02 2.841210365295410156e-01 3.199899792671203613e-01 5.155028104782104492e-01 -2.625801973044872284e-02
1.074008822441101074e+00 4.010126590728759766e-01 3.265498578548431396e-01 -3.233544901013374329e-02 -5.568669438362121582e-01 -2.962386906147003174e-01 1.080049052834510803e-01 1.024368181824684143e-01 1.994113922119140625e-01 2.168082147836685181e-01 4.906564205884933472e-02 2.792613804340362549e-01 -9.584350138902664185e-02 2.133084237575531006e-01 9.680276736617088318e-03 -1.774600297212600708e-01 8.868527412414550781e-02 -3.878462016582489014e-01 -2.664918005466461182e-01 -3.449436724185943604e-01 2.382392585277557373e-01 2.535071372985839844e-01 2.587878108024597168e-01 1.391697302460670471e-02 6.161052584648132324e-01 -5.821665525436401367e-01 -1.336677968502044678e-01 -4.416852071881294250e-02
1.746293187141418457e+00 2.075334936380386353e-01 -3.862085342407226562e-01 -4.747901558876037598e-01 -7.990441918373107910e-01 -3.586522638797760010e-01 4.800818562507629395e-01 5.167049765586853027e-01 5.836577713489532471e-02 2.910257130861282349e-02 -2.493983209133148193e-01 4.229354485869407654e-02 2.809265553951263428e-01 1.179994121193885803e-01 -7.554974406957626343e-02 -1.122030839323997498e-01 -1.740977540612220764e-02 -2.533606588840484619e-01 -7.769025862216949463e-02 1.924870908260345459e-01 -4.241510853171348572e-02 -1.296195834875106812e-01 3.446368873119354248e-02 3.246415033936500549e-02 3.236215412616729736e-01 -3.821410834789276123e-01 -4.722483754158020020e-01 -6.218171715736389160e-01
3.380485773086547852e-01 4.947098195552825928e-01 1.425195634365081787e-01 -5.299621820449829102e-01 -9.528397917747497559e-01 -1.997855305671691895e-01 -1.077658757567405701e-01 9.336683154106140137e-02 2.195893079042434692e-01 -1.726483553647994995e-01 -3.328167796134948730e-01 2.670073211193084717e-01 1.378751546144485474e-01 1.147050261497497559e-01 -6.288508325815200806e-02 2.039835602045059204e-01 3.547674044966697693e-02 -3.862632438540458679e-02 -7.891706377267837524e-02 -4.708789885044097900e-01 1.710676960647106171e-02 8.095992207527160645e-01 4.238313063979148865e-02 -1.630550064146518707e-02 -1.282856166362762451e-01 -4.834925755858421326e-03 -6.744933724403381348e-01 -7.461355924606323242e-01
7.473073601722717285e-01 4.054079055786132812e-01 1.030634716153144836e-01 -6.094789505004882812e-01 6.761682685464620590e-03 5.021372437477111816e-01 1.991748660802841187e-01 -1.929849386215209961e-01 2.029070854187011719e-01 -4.527852684259414673e-02 -8.334386348724365234e-02 -7.973363995552062988e-02 -3.369559347629547119e-02 2.718765735626220703e-01 -4.607877135276794434e-02 4.313612356781959534e-02 -2.217519097030162811e-02 7.403440028429031372e-02 1.636672392487525940e-02 9.896289557218551636e-02 -1.683937460184097290e-01 2.251006066799163818e-01 -2.442627586424350739e-02 9.858606755733489990e-02 -1.385308355093002319e-01 -2.482845336198806763e-01 -8.349853157997131348e-01 -1.469228118658065796e-01
4.837154746055603027e-01 3.717561960220336914e-01 -1.730577498674392700e-01 -4.916602075099945068e-01 -8.444133400917053223e-02 -1.712157740257680416e-03 -1.910371482372283936e-01 1.034780219197273254e-01 -1.233615577220916748e-01 -2.233239263296127319e-01 -2.111915266141295433e-03 -1.449685096740722656e-01 8.289251476526260376e-02 -4.252108931541442871e-02 1.118576303124427795e-01 2.307337820529937744e-01 2.538701295852661133e-01 9.778323769569396973e-02 -5.382983386516571045e-02 9.277400374412536621e-02 1.210241094231605530e-01 1.267518103122711182e-01 -1.569836586713790894e-01 2.707875967025756836e-01 -5.580173730850219727e-01 -6.971348524093627930e-01 -2.511820495128631592e-01 6.903132200241088867e-01
2.081249803304672241e-01 -1.646162122488021851e-01 2.954035997390747070e-01 -4.913398027420043945e-01 -1.126181110739707947e-01 3.697530627250671387e-01 2.932526767253875732e-01 2.211398445069789886e-02 -1.681525558233261108e-01 -2.071106061339378357e-02 7.152108103036880493e-02 4.736223071813583374e-02 4.391122460365295410e-01 1.989988982677459717e-02 -1.509510278701782227e-01 -1.016567200422286987e-01 5.390792712569236755e-02 1.543024778366088867e-01 1.473673582077026367e-01 3.840152919292449951e-02 1.868876069784164429e-02 1.230358853936195374e-01 8.956093341112136841e-02 -5.442994236946105957e-01 -7.608756422996520996e-01 -1.612493246793746948e-01 3.407278954982757568e-01 1.898648440837860107e-01
1.124355494976043701e-01 1.020662263035774231e-01 2.974041104316711426e-01 -5.077752843499183655e-02 2.040197551250457764e-01 -1.650146953761577606e-02 1.649039536714553833e-01 2.173311710357666016e-01 1.806150376796722412e-02 2.448597401380538940e-01 -2.905072271823883057e-01 -2.635485529899597168e-01 3.505573421716690063e-02 -6.059091165661811829e-02 -7.540175318717956543e-02 -6.665141880512237549e-02 4.135842248797416687e-02 9.352336078882217407e-02 1.274021565914154053e-01 2.727508842945098877e-01 2.137888371944427490e-01 -1.612695120275020599e-02 -4.825421422719955444e-02 -4.859581887722015381e-01 -2.458022683858871460e-01 6.185328960418701172e-02 3.791920840740203857e-01 -8.891762793064117432e-02
-5.141246318817138672e-01 2.451424747705459595e-01 3.601830899715423584e-01 1.984848640859127045e-02 -1.769799925386905670e-02 -9.569311141967773438e-02 3.754633013159036636e-03 -8.844638615846633911e-02 9.971442818641662598e-02 2.608661055564880371e-01 -5.751085653901100159e-02 -5.121241509914398193e-02 1.909826844930648804e-01 -3.234813362360000610e-02 1.560016870498657227e-01 6.574018299579620361e-02 -2.147649079561233521e-01 -8.483016490936279297e-02 -1.384568810462951660e-01 1.759168654680252075e-01 1.501312851905822754e-01 2.611367730423808098e-03 -2.648615241050720215e-01 -2.528826892375946045e-01 1.305080056190490723e-01 7.005379796028137207e-01 1.853224486112594604e-01 -1.958973854780197144e-01
1.820619553327560425e-01 4.689276516437530518e-01 4.398821592330932617e-01 1.840283274650573730e-01 -1.868994235992431641e-01 -1.725165694952011108e-01 -3.748977929353713989e-02 -3.552406430244445801e-01 2.472087591886520386e-01 -2.465448379516601562e-01 2.709335684776306152e-01 3.928429260849952698e-02 -4.132261127233505249e-02 4.426244795322418213e-01 -2.748032212257385254e-01 -3.613268956542015076e-02 7.585099339485168457e-02 -1.256237924098968506e-01 -2.315720766782760620e-01 1.764272898435592651e-01 -9.664496779441833496e-02 2.434307150542736053e-02 2.967303618788719177e-02 5.815721582621335983e-03 -2.873207069933414459e-02 1.513544023036956787e-01 -1.428466886281967163e-01 8.097445219755172729e-02
2.319359034299850464e-01 6.456286311149597168e-01 9.125732630491256714e-02 -1.597693413496017456e-01 -1.596533358097076416e-01 -3.666083812713623047e-01 -8.490776270627975464e-02 -1.911213248968124390e-01 -1.406565010547637939e-01 -1.559694707393646240e-01 -1.076389104127883911e-02 3.975151106715202332e-02 3.013634122908115387e-02 1.544311642646789551e-01 -1.072746291756629944e-01 -1.898432970046997070e-01 -3.311849236488342285e-01 1.940027028322219849e-01 -1.304164230823516846e-01 -7.678084075450897217e-02 1.134031265974044800e-01 -2.646605074405670166e-01 3.215616941452026367e-01 5.116533041000366211e-01 -7.005551457405090332e-02 1.779510825872421265e-02 -4.480526149272918701e-01 9.153731167316436768e-02
-9.299606084823608398e-01 7.014477625489234924e-03 -2.624472975730895996e-01 -7.685586065053939819e-02 2.286077588796615601e-01 -9.550332278013229370e-02 3.888694345951080322e-01 -1.903353258967399597e-02 -2.883754372596740723e-01 -6.283278763294219971e-02 1.387520432472229004e-01 -1.224758476018905640e-02 2.254577539861202240e-02 5.587913841009140015e-02 -2.018567323684692383e-01 -2.991423755884170532e-02 -5.262376368045806885e-02 -1.801024824380874634e-01 -1.964941322803497314e-01 -3.325672447681427002e-01 -1.647005826234817505e-01 -1.304409205913543701e-01 -4.851419012993574142e-03 -9.482060372829437256e-02 1.071554608643054962e-02 -4.234451055526733398e-01 -3.463588953018188477e-01 -8.674285411834716797e-01
1.054242551326751709e-01 4.796430170536041260e-01 3.769612312316894531e-01 9.336904883384704590e-01 6.884534657001495361e-02 9.244110435247421265e-02 1.662504076957702637e-01 -1.228973269462585449e-01 -3.979929387569427490e-01 -5.796886682510375977e-01 -3.160340478643774986e-03 -3.014934994280338287e-02 4.565287381410598755e-02 1.142715066671371460e-01 -1.835114210844039917e-01 1.389902085065841675e-01 4.019466042518615723e-02 8.603177964687347412e-02 -1.778091937303543091e-01 -1.910751312971115112e-01 -2.354906201362609863e-01 -1.161335185170173645e-01 -3.824985325336456299e-01 6.718065589666366577e-02 7.289210557937622070e-01 1.915031075477600098e-01 -2.970420122146606445e-01 -4.000650942325592041e-01
-2.395651042461395264e-01 -3.763056695461273193e-01 2.723526656627655029e-01 4.478736966848373413e-02 -1.267980337142944336e-01 4.970914125442504883e-02 -3.449476361274719238e-01 -2.831485867500305176e-01 -3.422612249851226807e-01 -4.939862787723541260e-01 8.138924837112426758e-02 5.647927522659301758e-02 3.185261785984039307e-02 2.653118073940277100e-01 -4.680623766034841537e-03 1.507526934146881104e-01 4.757517948746681213e-02 1.539899259805679321e-01 3.296270966529846191e-01 -7.041106820106506348e-01 6.681361794471740723e-02 -9.604826569557189941e-02 -3.069525584578514099e-02 3.377893865108489990e-01 7.071834057569503784e-02 5.693332552909851074e-01 1.949301213026046753e-01 3.627214133739471436e-01
-1.320443302392959595e-01 1.167376115918159485e-01 6.510981917381286621e-01 -8.963702917098999023e-01 -3.157312273979187012e-01 -8.407646417617797852e-02 -1.730943024158477783e-01 -1.274940073490142822e-01 -3.530398905277252197e-01 -3.417041003704071045e-01 1.119874492287635803e-01 7.861816883087158203e-02 -6.698175519704818726e-02 1.813507378101348877e-01 3.411803543567657471e-01 2.525521218776702881e-01 2.638368308544158936e-01 8.595222234725952148e-02 5.183346867561340332e-01 -5.618749558925628662e-02 -1.911516673862934113e-02 -2.787528634071350098e-01 4.239746928215026855e-02 1.915730386972427368e-01 -1.948289424180984497e-01 2.398743480443954468e-01 6.734676957130432129e-01 -1.702022701501846313e-01
-2.918765135109424591e-02 4.429305493831634521e-01 5.759717822074890137e-01 -1.164284825325012207e+00 2.342891544103622437e-01 1.193445697426795959e-01 -4.338179528713226318e-01 -2.265102602541446686e-02 3.769395872950553894e-02 -2.276320196688175201e-02 -1.358363330364227295e-01 -5.384223163127899170e-02 -1.199936270713806152e-01 2.210131436586380005e-01 1.115622594952583313e-01 3.677944242954254150e-01 -9.458871185779571533e-02 6.177936494350433350e-02 1.968331634998321533e-01 -3.622137010097503662e-01 3.766135871410369873e-01 -6.072898209095001221e-02 -1.911220550537109375e-01 3.234245479106903076e-01 -9.486686438322067261e-02 1.305569261312484741e-01 5.587631464004516602e-01 6.267564296722412109e-01
3.865601420402526855e-01 7.352369427680969238e-01 3.295305073261260986e-01 -9.019058197736740112e-02 -1.084787249565124512e+00 -8.710888773202896118e-02 -3.240297138690948486e-01 -6.432780027389526367e-01 -1.770486831665039062e-01 1.117702573537826538e-01 1.327731907367706299e-01 7.668811082839965820e-02 -1.032915711402893066e-01 1.736139655113220215e-01 6.950570642948150635e-02 -4.804348573088645935e-02 8.175071328878402710e-03 3.042550683021545410e-01 1.202290877699851990e-01 2.489698082208633423e-01 -2.670437470078468323e-02 -6.599045395851135254e-01 3.521478474140167236e-01 -2.402242869138717651e-01 -1.014477729797363281e+00 -5.732772946357727051e-01 7.018212080001831055e-01 4.410485625267028809e-01
-3.785276114940643311e-01 1.438807845115661621e-01 5.357682704925537109e-01 1.589560657739639282e-01 -1.669523268938064575e-01 -1.061997532844543457e+00 -5.489321947097778320e-01 -2.841264009475708008e-02 3.823371529579162598e-01 1.963115632534027100e-01 -3.120946884155273438e-01 2.310356050729751587e-01 1.718503534793853760e-01 2.652300894260406494e-01 1.665658056735992432e-01 1.104542911052703857e-01 1.597207635641098022e-01 -7.903633266687393188e-02 -1.158571988344192505e-01 4.739360883831977844e-02 1.385011374950408936e-01 -1.172251999378204346e-01 -7.136657238006591797e-01 -1.887604951858520508e+00 -9.989252686500549316e-01 -3.249209523200988770e-01 3.363991677761077881e-01 2.923953533172607422e-01
-3.591903150081634521e-01 -3.224763870239257812e-01 -4.799915477633476257e-02 5.823206901550292969e-02 1.829964280128479004e+00 -7.589646577835083008e-01 -1.119030237197875977e+00 -1.072329133749008179e-01 -3.000050485134124756e-01 -3.690557181835174561e-01 5.235435366630554199e-01 3.185992836952209473e-01 -2.835860848426818848e-01 -1.383140534162521362e-01 9.200683981180191040e-02 8.711707592010498047e-02 1.802475452423095703e-01 1.305394023656845093e-01 -1.936781108379364014e-01 -2.553641796112060547e-01 -1.283816546201705933e-01 -1.309853196144104004e-01 -7.570877075195312500e-01 3.342632353305816650e-01 4.053893685340881348e-01 2.143415659666061401e-01 1.031119465827941895e+00 -5.395359173417091370e-02
