2.750768885016441345e-02 -3.473510965704917908e-02 -3.169681504368782043e-02 2.667692489922046661e-02 -9.073993191123008728e-03 -1.727966368198394775e-01 -1.549592912197113037e-01 -6.347622871398925781e-01 -8.166034221649169922e-01 -8.829501867294311523e-01 -1.333424448966979980e+00 -1.560503125190734863e+00 -1.306914925575256348e+00 -1.502108931541442871e+00 -1.784247279167175293e+00 -1.447812199592590332e+00 -9.961756467819213867e-01 -1.369157075881958008e+00 -1.282095432281494141e+00 -9.260349273681640625e-01 -7.745137810707092285e-01 -5.586142539978027344e-01 -1.869220137596130371e-01 -1.706047952175140381e-01 -2.424428611993789673e-02 1.654527895152568817e-02 -7.348323706537485123e-03 -1.812816224992275238e-02
-1.269915793091058731e-02 -1.973446086049079895e-02 2.276270464062690735e-02 -3.198106214404106140e-02 -5.914439260959625244e-02 -1.946206241846084595e-01 -2.946424484252929688e-01 -8.008203506469726562e-01 -8.748233914375305176e-01 -1.136823177337646484e+00 -1.384903550148010254e+00 -1.412469506263732910e+00 -1.140260100364685059e+00 -1.608563184738159180e+00 -1.772603511810302734e+00 -1.697058796882629395e+00 -1.466815829277038574e+00 -9.712300896644592285e-01 -1.403448462486267090e+00 -1.288753509521484375e+00 -9.104150533676147461e-01 -6.471040844917297363e-01 -3.457985520362854004e-01 -2.274373620748519897e-01 -1.563082262873649597e-02 -1.420715730637311935e-02 -2.062426507472991943e-02 2.555305510759353638e-02
-3.601226955652236938e-02 7.823671214282512665e-03 2.062485925853252411e-02 8.146107196807861328e-03 -2.301586605608463287e-02 -2.902844548225402832e-01 -3.149557411670684814e-01 -8.214859366416931152e-01 -9.815688133239746094e-01 -1.320835828781127930e+00 -1.278495192527770996e+00 -1.578715205192565918e+00 -1.150775313377380371e+00 -1.621959686279296875e+00 -1.559351444244384766e+00 -1.697092771530151367e+00 -1.688720345497131348e+00 -1.629368305206298828e+00 -1.399854660034179688e+00 -1.612359523773193359e+00 -1.214251279830932617e+00 -9.345587491989135742e-01 -4.720102548599243164e-01 -3.430947065353393555e-01 -5.589169263839721680e-02 1.838527736254036427e-03 -1.471139788627624512e-01 -9.035836905241012573e-03
-5.090923979878425598e-02 -8.188668638467788696e-02 -3.834688290953636169e-02 -5.457711592316627502e-02 -2.278405725955963135e-01 -3.763989806175231934e-01 -3.005991578102111816e-01 -9.667373299598693848e-01 -1.193124651908874512e+00 -1.200384378433227539e+00 -1.247978687286376953e+00 -1.367923617362976074e+00 -1.453631877899169922e+00 -1.032509088516235352e+00 -1.531254649162292480e+00 -1.114239454269409180e+00 -8.523644208908081055e-01 -8.650624155998229980e-01 -8.582045435905456543e-01 -1.317077755928039551e+00 -1.503798961639404297e+00 -1.080513238906860352e+00 -1.018239974975585938e+00 -1.038532137870788574e+00 -5.483087897300720215e-01 -7.945854663848876953e-01 -4.281210005283355713e-01 -1.589724421501159668e-01
-7.238279283046722412e-02 -4.970314353704452515e-02 -9.450922161340713501e-02 -6.156286597251892090e-02 -2.238073647022247314e-01 -3.705820441246032715e-01 -3.633596003055572510e-01 -8.668908476829528809e-01 -1.330818414688110352e+00 -1.277884483337402344e+00 -1.928946375846862793e+00 -1.543499827384948730e+00 -1.720057487487792969e+00 -1.536126375198364258e+00 -9.401708245277404785e-01 -4.292215108871459961e-01 -9.829902648925781250e-01 -4.920923113822937012e-01 7.578268647193908691e-01 3.931143581867218018e-01 6.268605589866638184e-02 -8.199353218078613281e-01 -2.553981781005859375e+00 -2.221997499465942383e+00 -1.259155154228210449e+00 -1.473235607147216797e+00 -1.097205758094787598e+00 -1.140255570411682129e+00
5.120940506458282471e-02 1.069960817694664001e-01 1.377238035202026367e-01 7.657998055219650269e-02 -1.159580647945404053e-01 -1.508453637361526489e-01 -3.110407292842864990e-01 -5.990684032440185547e-01 -4.550313651561737061e-01 -1.363456845283508301e+00 -1.798507452011108398e+00 -2.074189424514770508e+00 -1.834346890449523926e+00 -1.194940209388732910e+00 -6.505864858627319336e-01 2.018038332462310791e-01 -2.535650134086608887e-01 1.452087610960006714e-01 1.044993877410888672e+00 8.107517361640930176e-01 2.424899339675903320e-01 -8.710642457008361816e-01 -1.762237548828125000e+00 -1.778255343437194824e+00 -2.318923711776733398e+00 -2.354015111923217773e+00 -1.683698177337646484e+00 -1.556737422943115234e+00
-6.594010163098573685e-03 -6.956049799919128418e-02 -9.519845992326736450e-02 -2.313455790281295776e-01 -3.482883274555206299e-01 3.693365724757313728e-03 -3.418408930301666260e-01 -7.263746857643127441e-01 -1.612469404935836792e-01 -1.489627957344055176e+00 -1.289316892623901367e+00 -1.344694852828979492e+00 -1.164351820945739746e+00 -3.506831526756286621e-01 -6.313016414642333984e-01 -7.179632782936096191e-01 -1.926203221082687378e-01 6.096241474151611328e-01 1.596976757049560547e+00 1.484133481979370117e+00 7.860736548900604248e-02 -7.336227297782897949e-01 -9.028375148773193359e-01 -1.485479474067687988e+00 -7.171592712402343750e-01 -1.121186852455139160e+00 -3.197623729705810547e+00 -2.726100683212280273e+00
-4.066074192523956299e-01 -8.505748957395553589e-02 3.569734841585159302e-02 -8.650644868612289429e-02 2.333301305770874023e-01 -3.138110414147377014e-02 -6.507382392883300781e-01 -1.689129829406738281e+00 3.156254887580871582e-01 -8.641957640647888184e-01 -1.215244293212890625e+00 -1.531778573989868164e+00 -1.298586845397949219e+00 -5.154103040695190430e-01 -6.643357276916503906e-01 -4.946818649768829346e-01 -3.114682137966156006e-01 1.382778882980346680e-01 1.142179369926452637e+00 1.316056132316589355e+00 2.065457254648208618e-01 -6.888648271560668945e-01 -5.430562496185302734e-01 -7.702445983886718750e-01 -8.103987574577331543e-01 -1.122975707054138184e+00 -1.925571203231811523e+00 -1.643655776977539062e+00
-6.262384057044982910e-01 -4.456069469451904297e-01 -5.740070939064025879e-01 -2.970739305019378662e-01 -4.825690090656280518e-01 -2.846171855926513672e-01 -8.556255102157592773e-01 -1.189549922943115234e+00 -6.254528462886810303e-02 -1.110035300254821777e+00 -1.448178768157958984e+00 -5.231807231903076172e-01 -3.449321389198303223e-01 -8.295833468437194824e-01 -5.048294067382812500e-01 -7.128026485443115234e-01 1.868182271718978882e-01 7.626340985298156738e-01 7.298288941383361816e-01 -1.359432749450206757e-02 -3.826065361499786377e-01 -4.898098111152648926e-01 -5.253159403800964355e-01 -5.676512122154235840e-01 -5.875096917152404785e-01 -6.888009309768676758e-01 -8.345805406570434570e-01 -4.955306649208068848e-01
-3.206274211406707764e-01 -2.341857552528381348e-01 -8.997038602828979492e-01 -4.718368351459503174e-01 -1.223996162414550781e+00 -1.133296251296997070e+00 -8.402276635169982910e-01 -1.420565247535705566e+00 -1.524462938308715820e+00 -1.786443591117858887e+00 -8.165037631988525391e-01 4.190536141395568848e-01 4.607802629470825195e-01 1.504732295870780945e-02 -7.171488404273986816e-01 -3.937336504459381104e-01 7.595683932304382324e-01 1.333825826644897461e+00 1.114522457122802734e+00 -2.973145544528961182e-01 -6.613047122955322266e-01 -6.348957419395446777e-01 -3.248389065265655518e-01 8.835818618535995483e-02 -9.403865039348602295e-02 3.428377211093902588e-01 -2.599610686302185059e-01 -8.774176239967346191e-01
-6.597779989242553711e-01 -5.518304705619812012e-01 -6.302453875541687012e-01 -1.000638127326965332e+00 -1.266490221023559570e+00 -1.987636923789978027e+00 -1.979042410850524902e+00 -1.950761198997497559e+00 -1.448816299438476562e+00 -7.082874178886413574e-01 1.790568381547927856e-01 1.258115291595458984e+00 5.861985087394714355e-01 4.464280009269714355e-01 1.873788982629776001e-01 -4.159452319145202637e-01 7.207038253545761108e-02 8.034492731094360352e-01 2.970188856124877930e-01 -2.242206633090972900e-01 -4.444890618324279785e-01 -7.750888466835021973e-01 -4.258065223693847656e-01 -4.405492544174194336e-02 6.364986300468444824e-02 2.706239819526672363e-01 -1.572058796882629395e-01 -1.540158629417419434e+00
-1.683728098869323730e+00 -7.073163986206054688e-01 -4.448875784873962402e-01 -6.157944798469543457e-01 -1.151424407958984375e+00 -2.465628385543823242e+00 -2.760282516479492188e+00 -2.317800045013427734e+00 -8.754410743713378906e-01 2.305841892957687378e-01 1.109306454658508301e+00 1.007149100303649902e+00 -4.974098876118659973e-03 -2.813628911972045898e-01 -1.545923054218292236e-01 -2.005171924829483032e-01 -1.635394096374511719e-01 3.410270512104034424e-01 3.586020171642303467e-01 -3.000621199607849121e-01 -1.490587145090103149e-01 -2.515726387500762939e-01 -1.558935791254043579e-01 -1.758370846509933472e-01 2.454591691493988037e-01 2.821089029312133789e-01 9.130572080612182617e-01 -9.954850077629089355e-01
-3.674803495407104492e+00 -8.089120388031005859e-01 -2.114165425300598145e-01 3.203761279582977295e-01 3.533090353012084961e-01 -1.053161621093750000e+00 -2.547433614730834961e+00 -1.783076763153076172e+00 2.665662169456481934e-01 8.235473036766052246e-01 4.250341057777404785e-01 5.752217769622802734e-01 -3.036074340343475342e-01 -1.250186115503311157e-01 -1.047955006361007690e-01 2.282651364803314209e-01 2.576302587985992432e-01 2.525893151760101318e-01 1.617249548435211182e-01 3.402117192745208740e-01 1.590489298105239868e-01 -1.424965634942054749e-02 -1.559073328971862793e-01 1.328167021274566650e-01 2.420936077833175659e-01 2.056788504123687744e-01 1.186902761459350586e+00 3.453438580036163330e-01
-1.808769464492797852e+00 5.065852403640747070e-01 1.420199513435363770e+00 1.916055560111999512e+00 4.825347065925598145e-01 -2.185780048370361328e+00 -2.481078386306762695e+00 -5.364133715629577637e-01 3.528736829757690430e-01 2.347037345170974731e-01 4.495758712291717529e-01 9.536965489387512207e-01 3.400016129016876221e-01 1.439477652311325073e-01 3.580910265445709229e-01 6.274545788764953613e-01 6.558166742324829102e-01 1.347594708204269409e-01 3.930729031562805176e-01 3.566961884498596191e-01 2.121603190898895264e-01 4.493667185306549072e-01 2.439174950122833252e-01 1.659707874059677124e-01 6.898595094680786133e-01 1.273963451385498047e+00 1.525710582733154297e+00 9.765598773956298828e-01
-1.020899057388305664e+00 6.175658702850341797e-01 1.749244093894958496e+00 2.106082439422607422e+00 3.256161808967590332e-01 -2.847126483917236328e+00 -1.560548901557922363e+00 -6.455760598182678223e-01 6.255621910095214844e-01 9.566590785980224609e-01 7.662151455879211426e-01 5.124799609184265137e-01 4.808257818222045898e-01 3.777004182338714600e-01 4.145472347736358643e-01 2.482851147651672363e-01 2.761560976505279541e-01 -1.371805220842361450e-01 -4.090271294116973877e-01 -1.671476215124130249e-01 3.486020863056182861e-02 2.544912397861480713e-01 2.325996384024620056e-02 5.392268896102905273e-01 1.328633785247802734e+00 1.550661683082580566e+00 1.252481102943420410e+00 9.931137412786483765e-02
-2.935900390148162842e-01 1.597989723086357117e-02 1.060097813606262207e+00 1.350769162178039551e+00 1.974047161638736725e-02 -2.424474477767944336e+00 -1.480901241302490234e+00 -3.649768829345703125e-01 -5.546602606773376465e-02 6.101978421211242676e-01 5.698149278759956360e-02 -1.719998717308044434e-01 4.052422195672988892e-02 2.292909473180770874e-01 2.863946557044982910e-01 5.880430936813354492e-01 4.545526951551437378e-02 2.939913608133792877e-02 -4.223890006542205811e-01 -7.708529233932495117e-01 -2.400326579809188843e-01 2.131789475679397583e-01 1.530233770608901978e-01 7.515681982040405273e-01 9.651663303375244141e-01 1.026781916618347168e+00 4.823009967803955078e-01 -1.561300635337829590e+00
4.051493108272552490e-01 7.599011063575744629e-01 5.399238467216491699e-01 4.274772703647613525e-01 -4.057963788509368896e-01 -2.026139497756958008e+00 -1.426356434822082520e+00 -7.077658772468566895e-01 -4.326112270355224609e-01 -7.319535128772258759e-03 2.045730501413345337e-01 1.113573387265205383e-01 2.918247878551483154e-02 3.247869387269020081e-02 2.637290358543395996e-01 4.881275892257690430e-01 2.252470999956130981e-01 1.194241419434547424e-01 -2.232253849506378174e-01 -4.246906042098999023e-01 -3.032070994377136230e-01 -1.631049364805221558e-01 -1.845732033252716064e-01 8.408884704113006592e-02 3.895792663097381592e-01 1.316980719566345215e-01 -1.136452332139015198e-02 -1.608418822288513184e+00
1.283667922019958496e+00 9.079807996749877930e-01 4.796715676784515381e-01 -5.984754487872123718e-02 -5.366675853729248047e-01 -1.211686134338378906e+00 -1.172443151473999023e+00 -3.103373050689697266e-01 2.751142382621765137e-01 -1.098730117082595825e-01 2.859693765640258789e-01 7.352436780929565430e-01 2.060768753290176392e-01 1.360724270343780518e-01 1.927478238940238953e-02 -3.893307968974113464e-02 2.303230911493301392e-01 3.137550652027130127e-01 -1.491869688034057617e-01 -2.571839988231658936e-01 -1.933216750621795654e-01 -4.145939052104949951e-01 -1.480664778500795364e-02 -8.403291576541960239e-04 -2.125900089740753174e-01 -6.893227696418762207e-01 -5.623080134391784668e-01 -1.108032703399658203e+00
8.405579924583435059e-01 4.610342383384704590e-01 1.589562296867370605e-01 -2.251812489703297615e-03 -1.179715469479560852e-01 -2.070868462324142456e-01 -5.129215717315673828e-01 -2.662610411643981934e-01 -2.274688780307769775e-01 -7.983204722404479980e-02 1.370678395032882690e-01 4.305373877286911011e-03 -7.277663052082061768e-02 2.726509273052215576e-01 6.836906820535659790e-02 5.505544599145650864e-03 -8.131407946348190308e-02 1.142007410526275635e-01 2.705013155937194824e-01 2.106755822896957397e-01 -2.734378166496753693e-02 -5.066833272576332092e-02 -2.519757151603698730e-01 -4.745837450027465820e-01 -7.486942410469055176e-01 -9.794444441795349121e-01 -1.179399862885475159e-01 1.909839808940887451e-01
7.422552108764648438e-01 -3.591710925102233887e-01 -4.748006165027618408e-01 -3.392831683158874512e-01 -4.143738150596618652e-01 -5.783667564392089844e-01 -4.287657737731933594e-01 -1.888910084962844849e-01 -8.486197143793106079e-02 -5.251834541559219360e-02 -4.654227523133158684e-04 -5.380170047283172607e-02 -7.284621149301528931e-02 9.936407208442687988e-02 1.069593429565429688e-01 3.566055297851562500e-01 1.242992505431175232e-01 2.735315561294555664e-01 5.102105736732482910e-01 4.149445891380310059e-01 -1.078487634658813477e-01 -1.889515370130538940e-01 -3.637044727802276611e-01 -7.529451847076416016e-01 -9.896411895751953125e-01 -1.334989190101623535e+00 5.942960828542709351e-02 2.080140113830566406e+00
7.781084179878234863e-01 3.072422742843627930e-01 1.643418073654174805e-01 -3.284562751650810242e-02 -3.327254354953765869e-01 -4.728893637657165527e-01 -1.703773438930511475e-01 -1.789975017309188843e-01 -1.750677824020385742e-01 -1.334721893072128296e-01 -3.692992627620697021e-01 -4.127452373504638672e-01 -3.451742231845855713e-01 -2.723414003849029541e-01 5.363574251532554626e-02 7.066476345062255859e-01 1.055768728256225586e+00 1.586656332015991211e+00 1.716586709022521973e+00 1.124181866645812988e+00 -1.384091377258300781e-01 -4.825733900070190430e-01 -6.565343737602233887e-01 -9.817246198654174805e-01 -9.249428510665893555e-01 -1.249097704887390137e+00 -4.457502365112304688e-01 1.212808012962341309e+00
5.120025873184204102e-01 -6.885157227516174316e-01 4.633333534002304077e-02 3.806169629096984863e-01 1.731319725513458252e-01 5.423690006136894226e-02 -1.215926334261894226e-01 -1.432800590991973877e-01 -2.315475493669509888e-01 -4.654981493949890137e-01 -6.616495847702026367e-01 -5.741935968399047852e-01 -5.906499624252319336e-01 -1.994867771863937378e-01 3.472228646278381348e-01 7.505728006362915039e-01 1.603136658668518066e+00 2.092601776123046875e+00 2.199565172195434570e+00 1.237379431724548340e+00 -1.003761529922485352e+00 -1.065663337707519531e+00 -1.008239150047302246e+00 -1.176992058753967285e+00 -1.107241868972778320e+00 -1.528327941894531250e+00 -1.135216116905212402e+00 2.386660426855087280e-01
-5.986053347587585449e-01 -4.928256571292877197e-01 -1.450712233781814575e-01 -1.029052659869194031e-01 -1.937003135681152344e-01 -1.487291157245635986e-01 -1.842889934778213501e-02 -2.490169107913970947e-01 -8.890198916196823120e-02 -3.212267756462097168e-01 -6.058480739593505859e-01 -5.489693880081176758e-01 -7.527461051940917969e-01 -1.867141425609588623e-01 6.763054728507995605e-01 1.351951003074645996e+00 2.228649616241455078e+00 2.485606193542480469e+00 2.166900634765625000e+00 4.114698767662048340e-01 -1.074320793151855469e+00 -7.665472626686096191e-01 -8.336493968963623047e-01 -1.329065442085266113e+00 -1.161313772201538086e+00 -1.554698109626770020e+00 -8.372718095779418945e-01 -7.380701899528503418e-01
-9.440739750862121582e-01 -6.918160319328308105e-01 -3.829577565193176270e-01 -2.004359513521194458e-01 4.877432435750961304e-02 1.901745498180389404e-01 2.765185534954071045e-01 -2.405168861150741577e-01 -3.860374689102172852e-01 -6.047011017799377441e-01 -9.490675926208496094e-01 -9.639423489570617676e-01 -5.939499735832214355e-01 2.047014087438583374e-01 9.985437989234924316e-01 1.504746317863464355e+00 1.529803395271301270e+00 1.629954934120178223e+00 1.457270503044128418e+00 1.147438865154981613e-02 -9.589395523071289062e-01 -7.954950332641601562e-01 -9.864647388458251953e-01 -1.339285850524902344e+00 -1.225449442863464355e+00 -1.512932896614074707e+00 -7.861204743385314941e-01 -3.979970812797546387e-01
-3.623357415199279785e-01 -4.843461215496063232e-01 -6.445468217134475708e-02 2.154662273824214935e-02 8.378648012876510620e-02 1.492857653647661209e-02 -5.982470512390136719e-02 -4.448104500770568848e-01 -4.089232385158538818e-01 -8.218365907669067383e-01 -1.002501606941223145e+00 -9.315156936645507812e-01 -8.537999391555786133e-01 -4.828619956970214844e-01 -2.665375173091888428e-01 -2.729892730712890625e-01 1.126876398921012878e-01 4.851582273840904236e-02 -2.312290370464324951e-01 -9.161336719989776611e-02 -3.093319535255432129e-01 -9.885969758033752441e-02 1.494440734386444092e-01 -2.465153485536575317e-01 -2.843025326728820801e-01 -5.749793648719787598e-01 -3.594428300857543945e-01 -3.704547286033630371e-01
-2.387697398662567139e-01 -6.451299190521240234e-01 -4.894527792930603027e-01 4.288666322827339172e-02 -2.169764935970306396e-01 -2.107615321874618530e-01 -5.031347870826721191e-01 -9.718861579895019531e-01 -1.233936190605163574e+00 -1.614101886749267578e+00 -1.928420424461364746e+00 -1.908142805099487305e+00 -1.792433500289916992e+00 -1.851682782173156738e+00 -1.849668145179748535e+00 -1.777518272399902344e+00 -1.749107122421264648e+00 -1.736358046531677246e+00 -1.556030750274658203e+00 -1.228300571441650391e+00 -7.248424291610717773e-01 -4.897347092628479004e-01 -4.532756209373474121e-01 -4.359978139400482178e-01 -1.746889203786849976e-01 -2.104389220476150513e-01 -1.631008982658386230e-01 -2.688908874988555908e-01
-2.614609710872173309e-02 1.224818173795938492e-02 -1.967584043741226196e-01 -3.517869114875793457e-01 -3.547426164150238037e-01 -4.898083508014678955e-01 -3.568552434444427490e-01 -6.801747679710388184e-01 -1.135802388191223145e+00 -1.401973843574523926e+00 -1.502735018730163574e+00 -1.579123973846435547e+00 -1.398765087127685547e+00 -1.690676569938659668e+00 -1.653279781341552734e+00 -1.414987921714782715e+00 -1.455125808715820312e+00 -1.608602881431579590e+00 -1.423277735710144043e+00 -1.019531369209289551e+00 -7.669075131416320801e-01 -3.802614212036132812e-01 -1.839254945516586304e-01 -2.379173338413238525e-01 -6.528650969266891479e-02 -3.679727017879486084e-02 -4.909668490290641785e-02 -3.785248100757598877e-02
1.045827753841876984e-02 -8.484843187034130096e-03 1.899428665637969971e-03 -1.899878494441509247e-02 -5.662045255303382874e-02 -1.983074396848678589e-01 -3.183453083038330078e-01 -7.211888432502746582e-01 -9.010941386222839355e-01 -8.153334259986877441e-01 -1.235959291458129883e+00 -1.382279753684997559e+00 -1.214770436286926270e+00 -1.058860421180725098e+00 -1.333649516105651855e+00 -1.424979448318481445e+00 -1.358291268348693848e+00 -1.449071645736694336e+00 -1.346618771553039551e+00 -1.132387995719909668e+00 -7.386289238929748535e-01 -4.837402403354644775e-01 -1.792420297861099243e-01 -2.459208816289901733e-01 -4.301925376057624817e-02 -9.888305328786373138e-03 -2.460368908941745758e-02 -5.913548171520233154e-03
