1.239975169301033020e-02 -1.320841535925865173e-02 2.433204650878906250e-02 1.177077740430831909e-02 2.138518914580345154e-02 5.789319518953561783e-03 2.274728938937187195e-02 1.536464691162109375e-02 -1.696217991411685944e-02 -1.295429281890392303e-02 3.805152373388409615e-04 1.578141190111637115e-02 2.762445062398910522e-02 -1.430244557559490204e-02 1.961820013821125031e-02 -2.224496379494667053e-02 2.341616665944457054e-03 2.755981124937534332e-02 -9.857924655079841614e-03 -7.519725710153579712e-03 1.214320538565516472e-03 -5.431792233139276505e-03 2.647863468155264854e-03 -1.115566235966980457e-03 4.002786241471767426e-03 -2.584500610828399658e-02 1.108305156230926514e-02 1.597769558429718018e-02
1.535533741116523743e-02 3.376030549407005310e-02 1.617416366934776306e-02 -7.258500903844833374e-03 2.537113241851329803e-02 -1.378574594855308533e-02 1.918914914131164551e-02 1.887637935578823090e-02 2.971907891333103180e-02 -2.359896525740623474e-02 2.621356630697846413e-03 1.883150078356266022e-02 3.119434230029582977e-02 3.017506375908851624e-02 1.924379379488527775e-03 -9.016180410981178284e-03 -3.152753412723541260e-02 -1.823012344539165497e-02 3.101630136370658875e-02 -3.086957894265651703e-02 -7.890013046562671661e-03 1.925688982009887695e-02 -4.135264549404382706e-03 7.103867828845977783e-03 2.248314768075942993e-02 3.378143534064292908e-02 -3.467618301510810852e-02 3.223238512873649597e-02
2.289860695600509644e-02 1.102204993367195129e-02 3.285698220133781433e-02 7.707510376349091530e-04 -3.224335610866546631e-02 3.236682713031768799e-02 -2.544780261814594269e-02 -5.903267265239264816e-06 -5.435940809547901154e-03 -1.275762356817722321e-02 1.147153694182634354e-02 9.493666701018810272e-03 -3.308219462633132935e-02 1.019021868705749512e-02 -8.170860382961109281e-05 -2.140372060239315033e-02 -2.276047877967357635e-02 3.264996036887168884e-02 -3.122625686228275299e-02 -1.200039777904748917e-02 -3.035996295511722565e-02 -2.711791172623634338e-02 -3.423544391989707947e-02 -1.677118428051471710e-02 2.230698429048061371e-02 2.135385200381278992e-02 2.519841119647026062e-02 -2.213578298687934875e-02
3.534280881285667419e-02 2.356832474470138550e-02 2.211146429181098938e-02 9.491598233580589294e-03 3.025148063898086548e-02 1.301965583115816116e-02 2.300105988979339600e-03 -3.011252544820308685e-02 -4.614572040736675262e-03 5.166363902390003204e-03 -3.553349524736404419e-02 -6.853827275335788727e-03 -2.565323561429977417e-02 -3.703173995018005371e-02 1.889120414853096008e-02 -3.601290285587310791e-02 2.834090404212474823e-02 9.158480912446975708e-03 4.394318442791700363e-03 -8.147830143570899963e-03 -1.982691511511802673e-02 -6.704796571284532547e-03 2.499742899090051651e-03 -4.220966249704360962e-03 -2.933827461674809456e-03 -1.909097842872142792e-02 -1.706659235060214996e-02 1.206521131098270416e-02
2.203889936208724976e-02 -1.814149692654609680e-02 1.445296499878168106e-02 1.581851765513420105e-02 8.074969053268432617e-03 9.591753594577312469e-03 -2.611129917204380035e-02 2.421067282557487488e-02 -1.075023319572210312e-02 1.626587100327014923e-02 -4.278182052075862885e-03 -2.778343111276626587e-02 -6.306521594524383545e-03 -3.702168911695480347e-02 1.717595569789409637e-02 1.164286583662033081e-02 -3.328846022486686707e-02 -3.884233161807060242e-02 -2.208121120929718018e-03 -2.004206180572509766e-04 1.320187654346227646e-02 -2.218738198280334473e-02 1.901065371930599213e-02 -1.475383993238210678e-02 -2.222676761448383331e-02 2.958672866225242615e-02 3.128306940197944641e-02 -1.448963023722171783e-02
7.677435874938964844e-03 1.735170558094978333e-02 -2.561117708683013916e-02 2.258035168051719666e-02 1.033395808190107346e-02 -1.197066344320774078e-02 -4.352596588432788849e-03 7.928465493023395538e-04 1.102027576416730881e-02 -4.490891296882182360e-04 -2.883827686309814453e-02 2.268142439424991608e-02 2.723126299679279327e-02 -2.790013886988162994e-02 2.916338481009006500e-02 -5.237124860286712646e-03 -5.799855571240186691e-03 -7.795226294547319412e-03 -4.071074351668357849e-02 -1.907262019813060760e-02 -1.640328578650951385e-02 1.902533695101737976e-02 1.325899362564086914e-02 -3.968201950192451477e-02 2.782422117888927460e-02 -2.477426896803081036e-04 2.301696874201297760e-02 -3.065987862646579742e-02
-2.791795320808887482e-02 2.775624021887779236e-02 -1.989974826574325562e-02 2.353354170918464661e-02 2.868416160345077515e-02 -2.415022812783718109e-02 -1.677228510379791260e-02 1.155384932644665241e-03 -1.161067187786102295e-02 -3.716792911291122437e-02 -3.475138545036315918e-02 -2.867920137941837311e-02 -1.578676514327526093e-02 1.437162235379219055e-02 -2.965053729712963104e-02 -2.417985163629055023e-02 -1.682928018271923065e-02 -9.809697046875953674e-03 -6.040796637535095215e-03 1.099754218012094498e-02 -2.266993373632431030e-02 -8.239158429205417633e-03 2.245164848864078522e-02 -2.182984910905361176e-02 1.360432524234056473e-02 1.943068206310272217e-02 -2.266181446611881256e-02 1.050588022917509079e-02
1.938865706324577332e-02 2.869593724608421326e-02 6.231634411960840225e-03 -4.235526081174612045e-03 -1.718903332948684692e-02 -2.745144255459308624e-02 -9.563237428665161133e-03 -3.683195635676383972e-02 3.425335045903921127e-03 2.657965291291475296e-03 3.083395585417747498e-02 2.731924504041671753e-02 3.012194111943244934e-02 -2.358675561845302582e-02 8.853743202053010464e-04 -2.456458099186420441e-02 -2.379379048943519592e-02 -1.402820646762847900e-02 -2.520083216950297356e-03 -1.625031582079827785e-04 -1.984497904777526855e-02 -5.528449546545743942e-03 -3.003790043294429779e-02 1.518727513030171394e-03 -3.263627737760543823e-02 -3.529056161642074585e-02 1.950542069971561432e-02 1.188307534903287888e-02
2.974424883723258972e-02 1.961338520050048828e-02 3.346278518438339233e-02 1.861086860299110413e-02 3.105265088379383087e-02 -9.339788928627967834e-03 2.387551218271255493e-02 1.877326890826225281e-02 -1.879804185591638088e-03 -1.707075536251068115e-02 6.691258866339921951e-03 1.327677071094512939e-02 -3.373685106635093689e-02 3.768367751035839319e-04 -3.058469668030738831e-02 -1.726096123456954956e-02 1.996215246617794037e-02 -1.852901838719844818e-02 -2.768412604928016663e-02 -9.717302396893501282e-03 8.544016629457473755e-03 1.166567485779523849e-02 -3.196582943201065063e-02 2.284605056047439575e-03 2.047253400087356567e-02 -2.269587712362408638e-03 2.255905978381633759e-02 6.389453541487455368e-03
-2.129266224801540375e-02 -9.375678375363349915e-03 2.124737761914730072e-02 1.394240371882915497e-02 -3.801030665636062622e-02 1.338513195514678955e-02 -3.965711966156959534e-02 -3.307720273733139038e-02 2.854071557521820068e-02 -3.501686453819274902e-02 1.544313319027423859e-02 -2.341707795858383179e-02 -3.656794503331184387e-02 -8.980872109532356262e-03 -1.707152836024761200e-02 1.382715348154306412e-02 -3.577458113431930542e-02 -3.251168131828308105e-02 -3.494575247168540955e-02 6.793751381337642670e-03 -3.022115863859653473e-02 7.281605619937181473e-03 2.406937815248966217e-02 -2.523242868483066559e-02 -3.679191693663597107e-02 9.278249926865100861e-03 2.003928646445274353e-03 2.843181043863296509e-02
1.118227839469909668e-02 -3.529706597328186035e-02 -1.511909812688827515e-02 1.009207312017679214e-02 1.614238321781158447e-02 2.596718259155750275e-03 1.473340392112731934e-02 1.098799705505371094e-02 -3.706007078289985657e-02 1.139082014560699463e-03 -7.366630714386701584e-03 2.464826405048370361e-02 2.754186466336250305e-02 -3.023644350469112396e-02 1.574034243822097778e-02 -2.227889560163021088e-02 -1.526496652513742447e-02 -1.669149263761937618e-03 -2.522574365139007568e-02 -3.457411751151084900e-02 -8.829933591187000275e-03 -4.440481774508953094e-03 -1.762999966740608215e-02 -2.719009108841419220e-02 -2.531486004590988159e-02 8.268420584499835968e-03 1.499100122600793839e-02 -3.269705176353454590e-02
-1.144527341239154339e-04 2.528730034828186035e-02 -1.880461536347866058e-02 -1.441132742911577225e-02 -1.843495108187198639e-02 1.099032070487737656e-02 8.463489823043346405e-03 -3.424458950757980347e-02 9.515676647424697876e-03 -9.572727140039205551e-05 2.228140458464622498e-02 -4.448551335372030735e-04 -1.640210160985589027e-03 2.614777348935604095e-02 -9.057620540261268616e-03 4.261276219040155411e-03 1.371433376334607601e-03 2.048870176076889038e-02 4.072484560310840607e-03 -1.711020246148109436e-02 3.197857411578297615e-03 2.410972863435745239e-02 -9.896717965602874756e-03 -1.552297174930572510e-02 3.159752814099192619e-03 -2.832870185375213623e-02 -2.626155130565166473e-02 9.946053847670555115e-03
-3.368677943944931030e-02 -2.867724560201168060e-02 2.222796902060508728e-02 -1.588124036788940430e-02 -2.496039308607578278e-02 -4.095954354852437973e-03 1.393550541251897812e-02 -3.352029994130134583e-02 -3.435099869966506958e-02 2.018297091126441956e-02 -2.308874577283859253e-02 -3.334054723381996155e-02 1.593402773141860962e-02 4.116002004593610764e-03 -2.648946247063577175e-04 -4.235643148422241211e-02 1.456992980092763901e-02 -2.135658077895641327e-02 2.021137438714504242e-02 1.674334146082401276e-02 -1.812732964754104614e-02 1.645312877371907234e-03 1.281252317130565643e-02 -1.243476872332394123e-03 -4.122176021337509155e-02 1.231444440782070160e-02 -5.435395985841751099e-03 1.996912620961666107e-02
-2.461646869778633118e-02 -1.975907478481531143e-03 -2.569527179002761841e-02 -7.332746405154466629e-03 3.764386288821697235e-03 1.852088607847690582e-02 -2.486586943268775940e-02 -2.336298301815986633e-02 7.164183072745800018e-03 -2.454191818833351135e-02 -1.382765825837850571e-02 -3.257796913385391235e-02 -9.332004003226757050e-03 -1.579752564430236816e-02 3.959728404879570007e-03 -8.081601001322269440e-03 2.127251029014587402e-02 -1.567314751446247101e-02 -3.108214400708675385e-02 -3.551032394170761108e-02 -2.921205759048461914e-02 -1.938674785196781158e-02 1.355626061558723450e-02 -1.083224173635244370e-02 2.162997610867023468e-02 -3.646233677864074707e-02 -1.439602300524711609e-02 -1.776033453643321991e-02
-1.756210066378116608e-02 -2.852008305490016937e-02 1.929222419857978821e-02 -1.226524170488119125e-02 -2.370428852736949921e-02 -2.657446637749671936e-02 2.276444062590599060e-02 -9.117252193391323090e-03 -3.723035566508769989e-03 -1.348826289176940918e-02 3.722479799762368202e-03 -3.566025570034980774e-02 1.337078679352998734e-02 2.057028561830520630e-02 1.460380386561155319e-02 -1.253842562437057495e-02 -3.586093336343765259e-02 -1.054634340107440948e-02 -4.262238740921020508e-02 -2.858005091547966003e-02 -2.768765948712825775e-02 -2.947693690657615662e-02 -6.402058061212301254e-03 2.654081210494041443e-03 -3.617635369300842285e-02 -2.783336676657199860e-02 -2.539914473891258240e-02 -3.060154244303703308e-02
2.256030589342117310e-02 1.021211408078670502e-02 -2.285797894001007080e-02 2.906996384263038635e-02 2.971745654940605164e-02 -2.436927892267704010e-02 -3.626201674342155457e-02 1.798080280423164368e-03 -1.516262628138065338e-02 -2.527052164077758789e-02 -3.279879316687583923e-02 -4.080670420080423355e-03 6.136979209259152412e-04 -2.431518957018852234e-02 -3.184987977147102356e-02 -8.355998434126377106e-03 -2.927174419164657593e-02 -3.588647395372390747e-02 3.737434162758290768e-04 -5.674514686688780785e-04 -5.573866888880729675e-03 -3.713786602020263672e-02 1.397075038403272629e-02 -2.744731120765209198e-02 2.016886137425899506e-02 -3.880258277058601379e-02 -1.303925737738609314e-02 -4.964388441294431686e-03
-2.355996705591678619e-02 -1.300263032317161560e-02 -1.542174909263849258e-02 -2.387730963528156281e-02 -3.914044238626956940e-03 -1.255878619849681854e-02 4.002269823104143143e-03 -3.401972120627760887e-03 1.859004423022270203e-02 -3.189167380332946777e-02 -2.864648029208183289e-02 1.182247791439294815e-02 1.557066384702920914e-02 -3.233567997813224792e-02 -3.391861915588378906e-02 -3.567188233137130737e-02 3.973207436501979828e-03 1.460629515349864960e-02 -2.878070063889026642e-02 1.777730882167816162e-02 7.937262766063213348e-03 -3.269597515463829041e-02 -1.077956520020961761e-03 -3.605312854051589966e-02 -1.111746951937675476e-02 -7.516939193010330200e-03 1.026035659015178680e-02 2.437269315123558044e-02
-1.555911917239427567e-02 -7.500281091779470444e-03 -1.176969334483146667e-02 -1.097073545679450035e-03 1.015266776084899902e-02 -2.260839380323886871e-02 -3.548451140522956848e-02 -9.600122459232807159e-03 2.449648920446634293e-03 7.398733287118375301e-04 -6.223514676094055176e-03 5.785068031400442123e-03 1.751795038580894470e-02 -1.015911810100078583e-02 -2.617809548974037170e-02 -9.094062261283397675e-03 8.915608748793601990e-03 -2.198027819395065308e-02 -3.473696857690811157e-02 -2.304620575159788132e-03 7.832202129065990448e-03 2.147779986262321472e-02 -1.163215283304452896e-02 6.834000349044799805e-03 6.716702133417129517e-03 2.385756000876426697e-02 -6.889200769364833832e-03 1.982997544109821320e-02
-1.773619093000888824e-02 -2.960767224431037903e-02 6.197558715939521790e-03 3.930010425392538309e-04 -2.446744032204151154e-02 2.216210775077342987e-02 -5.706880241632461548e-03 -1.008742395788431168e-02 -1.870082505047321320e-02 1.341560948640108109e-02 5.930268671363592148e-03 -3.455094993114471436e-02 -6.571480073034763336e-03 -3.283567354083061218e-02 -2.239978127181529999e-02 1.301893964409828186e-02 2.657910995185375214e-02 7.345092948526144028e-03 -2.992862835526466370e-02 3.161744214594364166e-03 -4.277160763740539551e-02 -3.298082947731018066e-02 1.109437830746173859e-02 -1.878787763416767120e-03 -5.432019010186195374e-03 1.400893460959196091e-02 -1.460050046443939209e-02 -2.680784463882446289e-02
9.046441875398159027e-03 6.814813241362571716e-03 6.635196041315793991e-03 -4.394027590751647949e-02 -1.122439838945865631e-02 -3.888924792408943176e-02 -2.471987856552004814e-03 -1.010394282639026642e-02 1.202141959220170975e-02 2.014355175197124481e-02 -2.247747592628002167e-02 -3.150257840752601624e-02 1.608062535524368286e-02 -1.340011134743690491e-02 -3.266134858131408691e-02 -4.142323881387710571e-02 3.100649220868945122e-03 -2.882179804146289825e-03 1.385464426130056381e-02 -1.858237758278846741e-02 -7.943779230117797852e-03 8.455739356577396393e-03 2.027083374559879303e-02 1.730630360543727875e-02 -6.686540320515632629e-03 1.523715071380138397e-02 4.546511918306350708e-03 2.963691018521785736e-02
-1.188404485583305359e-02 -1.023764722049236298e-02 -1.611237414181232452e-02 -2.852060273289680481e-02 -9.986753575503826141e-03 1.162235043011605740e-03 -2.008914202451705933e-02 -3.963791579008102417e-02 1.142698898911476135e-02 9.101855568587779999e-03 -8.830045349895954132e-03 2.380709350109100342e-02 1.242513395845890045e-02 -3.129305690526962280e-02 -1.508728135377168655e-02 1.289044786244630814e-02 8.509062172379344702e-05 8.538756519556045532e-03 4.231041762977838516e-03 7.828425616025924683e-03 1.075400225818157196e-02 -4.332684352993965149e-02 -2.196770347654819489e-02 -4.415939562022686005e-03 3.048085141927003860e-03 -2.430527471005916595e-03 1.524892915040254593e-02 -2.851442433893680573e-02
-1.911693252623081207e-02 1.205338537693023682e-02 2.960369177162647247e-02 1.855204626917839050e-02 -1.702828332781791687e-02 1.385606452822685242e-02 2.779187075793743134e-02 -3.273256123065948486e-02 -2.862684428691864014e-02 -4.084862396121025085e-02 -1.043138373643159866e-02 4.528562072664499283e-03 9.172918274998664856e-03 1.596164144575595856e-02 -7.918342016637325287e-03 2.115680463612079620e-02 1.227459032088518143e-02 2.030000090599060059e-02 -1.726736873388290405e-02 2.385812066495418549e-02 -1.841133646667003632e-02 2.914658561348915100e-02 2.556911297142505646e-02 -2.905427664518356323e-02 6.716208066791296005e-03 -8.980463026091456413e-04 1.020738855004310608e-02 -2.302083186805248260e-02
-8.396107587032020092e-04 -3.668674454092979431e-02 -1.324138254858553410e-03 2.865611808374524117e-03 9.393677115440368652e-03 1.244597136974334717e-03 2.389470860362052917e-02 -2.654170989990234375e-02 -2.788762003183364868e-02 -3.367716819047927856e-02 3.008439019322395325e-02 -1.691525615751743317e-02 2.674276754260063171e-02 2.014490589499473572e-02 2.005586028099060059e-02 -2.795317769050598145e-02 -2.862307429313659668e-02 -3.268342465162277222e-03 -3.446000814437866211e-02 -3.452541679143905640e-02 -1.177780423313379288e-02 1.092779543250799179e-02 5.804893560707569122e-03 -1.701307296752929688e-02 -1.406212151050567627e-02 1.469356566667556763e-02 -3.269751556217670441e-03 2.399035356938838959e-02
-1.145978458225727081e-02 1.514439238235354424e-03 6.351603660732507706e-03 2.372323721647262573e-02 -5.701505579054355621e-03 -3.043590672314167023e-02 -1.864433288574218750e-02 1.425965502858161926e-02 2.649425901472568512e-02 -3.824315220117568970e-02 -3.861683234572410583e-02 -1.311607938259840012e-02 -2.244829759001731873e-02 1.283251401036977768e-02 -9.421297349035739899e-03 -3.958255052566528320e-02 -1.029444672167301178e-02 1.837558299303054810e-02 -1.645960658788681030e-02 -3.360398113727569580e-02 -3.494437411427497864e-02 2.254500985145568848e-02 7.176153827458620071e-03 -2.844761591404676437e-03 1.375744305551052094e-02 -8.649151423014700413e-04 1.511101890355348587e-02 -1.831309404224157333e-03
-2.953553386032581329e-02 1.624385081231594086e-02 -1.071986090391874313e-02 1.175091974437236786e-02 3.520140191540122032e-03 -3.366905823349952698e-02 -1.586582139134407043e-02 -1.091890595853328705e-02 2.477370202541351318e-02 -1.595100015401840210e-02 -3.245269507169723511e-02 2.179662324488162994e-02 -1.542118843644857407e-03 -4.628306720405817032e-03 -2.134701237082481384e-02 -3.021964058279991150e-02 -2.123179472982883453e-02 1.098002493381500244e-02 -2.539025060832500458e-02 -1.403885427862405777e-02 9.246857371181249619e-04 -2.747905068099498749e-02 -2.038732171058654785e-02 -2.290019206702709198e-02 -1.881673559546470642e-02 -1.796120963990688324e-02 -1.019340381026268005e-02 3.229248337447643280e-03
-2.770710177719593048e-02 2.627738006412982941e-02 -2.271138876676559448e-02 1.968985889106988907e-04 -1.728755980730056763e-02 -1.717478036880493164e-02 1.706695742905139923e-02 -6.648722104728221893e-03 -3.662563487887382507e-02 -2.259755693376064301e-02 -1.139615476131439209e-02 -1.661101914942264557e-02 -2.649896219372749329e-02 2.047424204647541046e-02 -3.959505259990692139e-02 8.593437261879444122e-03 1.696345768868923187e-02 -2.029740437865257263e-02 -1.726768352091312408e-02 2.556406334042549133e-02 -5.683208000846207142e-04 -6.282637361437082291e-03 -1.060223020613193512e-02 8.625562302768230438e-03 -8.784085512161254883e-04 -2.842123992741107941e-02 2.436038851737976074e-02 3.457865118980407715e-02
-3.585346788167953491e-02 2.869202569127082825e-02 6.699274759739637375e-03 -1.988031901419162750e-03 -1.017329003661870956e-02 -2.737851999700069427e-02 1.606915146112442017e-02 2.761195786297321320e-02 1.392451673746109009e-02 9.271354414522647858e-03 2.629596181213855743e-02 -7.386384997516870499e-03 -4.160087928175926208e-02 2.079876512289047241e-02 -1.457792147994041443e-02 -6.220577750355005264e-03 -2.639478445053100586e-02 -2.285597659647464752e-02 6.500007584691047668e-03 -3.419993817806243896e-02 -1.459596329368650913e-03 -3.154340013861656189e-02 2.090751193463802338e-03 2.796778269112110138e-02 3.150996565818786621e-02 2.649125270545482635e-02 4.856489598751068115e-03 3.448129398748278618e-03
3.271069377660751343e-02 1.956764049828052521e-02 6.973402574658393860e-03 1.084215100854635239e-02 2.548749558627605438e-02 -4.328534472733736038e-03 3.397369012236595154e-02 -1.858134567737579346e-02 -1.942806690931320190e-02 -4.416847601532936096e-03 2.827773056924343109e-02 -2.181793190538883209e-02 -2.022815309464931488e-02 -5.201229825615882874e-03 1.228467468172311783e-02 3.152252361178398132e-02 1.889893226325511932e-02 -1.554957590997219086e-02 -3.637387230992317200e-02 -1.221417356282472610e-02 2.591173537075519562e-02 -4.005720838904380798e-02 -2.554922550916671753e-02 3.883361816406250000e-03 -2.843955904245376587e-02 1.494370028376579285e-02 -1.306030992418527603e-02 3.374979272484779358e-02
