3.088042512536048889e-02 -3.319997712969779968e-02 -1.537930592894554138e-02 2.501707151532173157e-02 1.728144288063049316e-02 -2.407166920602321625e-02 -2.080159634351730347e-02 2.449317649006843567e-02 4.120346158742904663e-03 -1.860987022519111633e-02 -2.456466294825077057e-02 6.147399544715881348e-04 -2.306925505399703979e-02 1.002973318099975586e-02 2.769212052226066589e-02 -1.383832655847072601e-02 -9.223802015185356140e-03 3.491764888167381287e-02 -3.221495077013969421e-02 1.300800219178199768e-02 2.833891659975051880e-03 1.489233225584030151e-02 -3.166946396231651306e-02 -2.206661552190780640e-02 -2.881341427564620972e-02 -3.230953961610794067e-02 3.199919685721397400e-02 2.806606516242027283e-02
-3.033907711505889893e-02 -1.918743364512920380e-02 3.275237604975700378e-02 -2.110462635755538940e-02 7.527895271778106689e-03 3.566883131861686707e-02 1.161021366715431213e-02 1.529855281114578247e-02 1.941441372036933899e-02 -6.898164749145507812e-03 -7.288290187716484070e-03 -1.265218481421470642e-02 2.045296877622604370e-02 -7.320526987314224243e-03 -2.188100107014179230e-02 6.917568854987621307e-03 -3.190664574503898621e-02 1.253648102283477783e-02 -1.390758901834487915e-03 7.476422935724258423e-03 3.123811259865760803e-02 1.438245177268981934e-02 2.781685814261436462e-02 -2.186115458607673645e-02 3.182754293084144592e-02 -4.247907549142837524e-03 7.184386253356933594e-03 3.192186355590820312e-03
-2.465737424790859222e-02 2.868333831429481506e-02 -2.653026580810546875e-02 1.553555205464363098e-02 1.085065305233001709e-04 1.816819980740547180e-02 6.382133811712265015e-03 -3.314897418022155762e-02 2.472646906971931458e-02 -2.704630792140960693e-02 1.888428926467895508e-01 1.569471210241317749e-01 9.941618889570236206e-02 -1.151296123862266541e-01 -2.453230917453765869e-01 -9.293986856937408447e-02 -1.991574019193649292e-01 -2.549466490745544434e-02 -2.496903948485851288e-02 3.844513371586799622e-02 -1.564241014420986176e-02 3.428157791495323181e-02 -2.698889933526515961e-02 2.222625911235809326e-02 -2.424146980047225952e-02 2.767023816704750061e-02 7.524300366640090942e-03 -3.209085017442703247e-02
-2.560909837484359741e-02 2.902369573712348938e-02 -2.938684076070785522e-03 -9.522592648863792419e-03 1.683482974767684937e-01 3.845068514347076416e-01 4.014877974987030029e-01 6.373233199119567871e-01 5.426875352859497070e-01 6.475129127502441406e-01 8.435845375061035156e-01 1.105507731437683105e+00 7.695876359939575195e-01 4.749153554439544678e-01 1.174237206578254700e-01 -1.570394635200500488e-02 -1.545681208372116089e-01 2.825670540332794189e-01 2.136638015508651733e-01 -1.632688939571380615e-01 -1.339136362075805664e-01 -6.841277331113815308e-02 2.003255486488342285e-01 3.041324019432067871e-02 -6.062792614102363586e-03 1.651766523718833923e-02 2.049556747078895569e-02 3.584086894989013672e-03
-2.840040996670722961e-02 2.378310635685920715e-02 6.706102192401885986e-02 2.923417687416076660e-01 3.328564167022705078e-01 3.186360299587249756e-01 5.116802453994750977e-01 7.242536544799804688e-01 7.255044579505920410e-01 4.677052497863769531e-01 6.069881916046142578e-01 7.421892881393432617e-01 5.129296183586120605e-01 2.204883694648742676e-01 2.438340187072753906e-01 5.842764675617218018e-02 1.214760392904281616e-01 2.447831779718399048e-01 4.453461766242980957e-01 2.490144670009613037e-01 -8.326250826939940453e-04 2.040052264928817749e-01 2.935891151428222656e-01 4.909167438745498657e-02 2.301687374711036682e-02 2.589786052703857422e-02 2.930072322487831116e-02 2.314286306500434875e-02
3.330468013882637024e-02 3.513982519507408142e-02 1.627724319696426392e-01 7.032138705253601074e-01 2.854880392551422119e-01 -2.947023883461952209e-02 7.398398220539093018e-02 2.384295016527175903e-01 3.509679138660430908e-01 1.510321944952011108e-01 4.124230146408081055e-01 5.793561339378356934e-01 3.967461585998535156e-01 2.874394357204437256e-01 -1.424862770363688469e-03 1.632245033979415894e-01 3.590268194675445557e-01 1.548279672861099243e-01 3.015651404857635498e-01 8.250360935926437378e-02 -1.427566260099411011e-01 -2.237629741430282593e-01 -2.421769052743911743e-01 -2.936379611492156982e-01 -6.839921325445175171e-02 2.168214181438088417e-03 -3.154186159372329712e-02 1.739039272069931030e-02
1.704214513301849365e-02 1.245213449001312256e-01 2.285809367895126343e-01 6.110517382621765137e-01 5.489887595176696777e-01 4.109848141670227051e-01 2.672907710075378418e-01 1.575480997562408447e-01 3.162061870098114014e-01 3.214440345764160156e-01 1.939799338579177856e-01 2.544372379779815674e-01 3.146790266036987305e-01 4.591161310672760010e-01 1.929006725549697876e-01 8.349662274122238159e-02 2.395238280296325684e-01 2.019490301609039307e-02 -3.103387076407670975e-03 -1.281933635473251343e-01 -2.599111199378967285e-01 -7.320895791053771973e-02 -5.400440469384193420e-02 -7.617010921239852905e-02 -7.539317011833190918e-02 2.488834038376808167e-02 8.774600923061370850e-03 -1.307356357574462891e-02
3.310541436076164246e-02 2.271457165479660034e-01 3.403384685516357422e-01 6.019248962402343750e-01 8.704245686531066895e-01 5.552639365196228027e-01 4.419764578342437744e-01 3.353563249111175537e-01 5.847401022911071777e-01 2.869198918342590332e-01 1.165249869227409363e-01 1.327604502439498901e-01 1.800220608711242676e-01 4.392594993114471436e-01 9.951549023389816284e-02 7.030637562274932861e-02 1.487845480442047119e-01 1.630300879478454590e-01 4.237658809870481491e-03 -1.280218511819839478e-01 -1.618890613317489624e-01 -1.628005653619766235e-01 -1.028922721743583679e-01 -1.443147808313369751e-01 -8.457333594560623169e-02 -1.222665049135684967e-02 -2.497529983520507812e-02 3.424438461661338806e-02
1.501197367906570435e-02 2.146330326795578003e-01 3.538877964019775391e-01 6.051239371299743652e-01 8.060050010681152344e-01 5.901273488998413086e-01 1.608974635601043701e-01 5.242914333939552307e-02 -1.138418242335319519e-01 1.978830248117446899e-01 1.082934364676475525e-01 3.031006455421447754e-02 3.344585001468658447e-02 -1.368655636906623840e-02 -1.615143939852714539e-02 -3.243865817785263062e-02 2.454677522182464600e-01 1.268142312765121460e-01 1.539394557476043701e-01 -2.697060443460941315e-02 1.863839775323867798e-01 -1.714078895747661591e-02 -2.124078422784805298e-01 -1.001143231987953186e-01 -3.428223729133605957e-02 -1.974601857364177704e-02 -2.372786961495876312e-02 -1.277490705251693726e-02
-1.275668852031230927e-02 9.756886214017868042e-02 1.386909931898117065e-01 8.870281577110290527e-01 1.007972121238708496e+00 9.025117754936218262e-01 2.782129645347595215e-01 -1.351567506790161133e-01 -2.398430109024047852e-01 -5.429885908961296082e-02 -8.662937581539154053e-02 -1.341514438390731812e-01 -3.043099343776702881e-01 -4.365072250366210938e-01 -1.443893909454345703e-01 -8.249011635780334473e-02 6.405739486217498779e-02 2.071369141340255737e-01 2.677544057369232178e-01 2.604086995124816895e-01 4.549716413021087646e-01 1.159749925136566162e-01 3.429169207811355591e-02 3.274754583835601807e-01 6.540749222040176392e-02 8.311562240123748779e-02 2.639926597476005554e-02 -2.625598758459091187e-02
-2.245675772428512573e-02 1.031457036733627319e-01 1.822477728128433228e-01 6.073052883148193359e-01 7.510223388671875000e-01 9.845032095909118652e-01 3.501868844032287598e-01 5.855160206556320190e-02 -1.664825826883316040e-01 3.788009658455848694e-02 -1.011571194976568222e-02 -2.732932269573211670e-01 -3.500432372093200684e-01 -5.334474444389343262e-01 -4.223552942276000977e-01 -3.232045173645019531e-01 -7.016374170780181885e-02 9.770799428224563599e-02 4.955630302429199219e-01 3.401780724525451660e-01 4.104485511779785156e-01 1.937282383441925049e-01 1.819590777158737183e-01 3.562659025192260742e-01 1.439491212368011475e-01 4.427786916494369507e-02 -3.163784742355346680e-02 8.348599076271057129e-03
-4.095945507287979126e-03 7.185827940702438354e-02 1.472432762384414673e-01 5.018326640129089355e-01 4.106129407882690430e-01 6.008407473564147949e-01 6.073474884033203125e-01 4.428410530090332031e-01 4.759620726108551025e-01 5.199506282806396484e-01 -1.001728773117065430e-01 -1.569597572088241577e-01 -2.460774481296539307e-01 -3.129153251647949219e-01 -3.013645708560943604e-01 -3.173668384552001953e-01 -2.582427561283111572e-01 8.263412117958068848e-02 3.907315731048583984e-01 3.762437403202056885e-01 2.489877641201019287e-01 2.950686216354370117e-01 1.092228144407272339e-01 2.718196213245391846e-01 2.224685251712799072e-01 1.977239102125167847e-01 -6.573656573891639709e-03 -2.203760109841823578e-02
2.473950013518333435e-02 5.544366687536239624e-02 2.645185589790344238e-02 3.172240555286407471e-01 2.899150550365447998e-01 3.824715614318847656e-01 1.827832013368606567e-01 3.595547676086425781e-01 3.803495764732360840e-01 4.939492642879486084e-01 6.465137749910354614e-02 7.937745749950408936e-02 8.612039685249328613e-02 -1.603023149073123932e-02 -9.450396150350570679e-02 -2.287509590387344360e-01 -3.106105923652648926e-01 -1.116257682442665100e-01 2.618312835693359375e-01 3.094469010829925537e-01 3.152541518211364746e-01 7.892762310802936554e-03 -5.810104683041572571e-02 3.796784877777099609e-01 2.708796262741088867e-01 1.932287365198135376e-01 1.970344409346580505e-02 3.286288306117057800e-02
-2.365408279001712799e-02 1.348654180765151978e-02 2.908847853541374207e-02 2.436122596263885498e-01 1.641230285167694092e-02 2.690878510475158691e-01 1.226513460278511047e-01 2.900986373424530029e-01 1.862385571002960205e-01 2.044776082038879395e-01 2.551519572734832764e-01 1.740413159132003784e-01 9.421949088573455811e-02 1.525209248065948486e-01 1.046886947005987167e-02 -2.130233794450759888e-01 -3.903073072433471680e-01 -3.420732021331787109e-01 2.911263704299926758e-01 3.685494959354400635e-01 2.975844144821166992e-01 9.027238190174102783e-02 8.510418236255645752e-02 6.994208693504333496e-01 2.502524852752685547e-01 6.535280495882034302e-02 -3.155311197042465210e-02 -1.714077591896057129e-02
-3.018293529748916626e-03 4.740560427308082581e-02 9.429465979337692261e-02 1.529541164636611938e-01 -5.736011639237403870e-02 2.030588537454605103e-01 2.742065787315368652e-01 5.969302654266357422e-01 1.049565300345420837e-01 2.106455340981483459e-02 2.871726155281066895e-01 2.794249057769775391e-01 4.699813947081565857e-02 6.921886652708053589e-02 -3.845468908548355103e-02 -3.116450607776641846e-01 -2.961009740829467773e-01 -1.260980963706970215e-01 4.521676003932952881e-01 4.638898670673370361e-01 3.681032359600067139e-01 4.198308587074279785e-01 4.716375470161437988e-01 5.931127667427062988e-01 3.860531151294708252e-01 8.121645078063011169e-03 5.446344614028930664e-03 -2.240762673318386078e-02
-3.340806066989898682e-02 3.850357607007026672e-02 1.958875358104705811e-01 3.277613818645477295e-01 5.702016949653625488e-01 4.158114492893218994e-01 4.089666604995727539e-01 9.488292038440704346e-02 -7.743377983570098877e-02 -5.936441197991371155e-02 1.930409967899322510e-01 2.642226517200469971e-01 1.266911327838897705e-01 8.713800460100173950e-02 -2.670089304447174072e-01 -4.119429290294647217e-01 -1.801334023475646973e-01 3.573090434074401855e-01 7.368758320808410645e-01 1.288959383964538574e+00 1.203425884246826172e+00 5.679190158843994141e-01 7.098055481910705566e-01 7.068617939949035645e-01 5.363097190856933594e-01 -6.432583928108215332e-02 2.473489381372928619e-02 -1.685388758778572083e-02
-2.252846211194992065e-02 5.297939851880073547e-02 2.780697047710418701e-01 5.470122098922729492e-01 5.380973219871520996e-01 4.780804216861724854e-01 5.534105896949768066e-01 1.440158188343048096e-01 -8.651465922594070435e-02 -1.178371012210845947e-01 4.858076944947242737e-02 5.958184227347373962e-02 -5.308014340698719025e-03 -1.041403710842132568e-01 -4.838427007198333740e-01 -3.877484202384948730e-01 9.869162924587726593e-03 5.629811882972717285e-01 7.542092800140380859e-01 8.761976361274719238e-01 6.114072203636169434e-01 4.528989791870117188e-01 2.475522160530090332e-01 2.863410413265228271e-01 -8.171210065484046936e-03 -1.391754113137722015e-02 1.775541529059410095e-02 1.531193405389785767e-02
-2.009115181863307953e-02 8.624217659235000610e-02 3.413133025169372559e-01 8.732854127883911133e-01 8.204675912857055664e-01 5.063198804855346680e-01 4.134077727794647217e-01 2.266105711460113525e-01 -7.057417929172515869e-02 -2.634735405445098877e-02 -2.039985805749893188e-01 -3.395196795463562012e-01 -4.251095056533813477e-01 -2.586281001567840576e-01 -5.455883741378784180e-01 -2.603785395622253418e-01 2.456458210945129395e-01 6.778574585914611816e-01 2.769278287887573242e-01 2.365519404411315918e-01 1.827660202980041504e-01 2.496144622564315796e-01 1.302588731050491333e-02 -9.589790366590023041e-03 -2.338904291391372681e-01 -6.605859100818634033e-02 7.173120975494384766e-04 -9.673424065113067627e-04
2.227808162569999695e-02 1.812164634466171265e-01 4.753115177154541016e-01 7.594805955886840820e-01 1.126725077629089355e+00 1.170726299285888672e+00 6.202854514122009277e-01 1.060362383723258972e-01 -7.077258080244064331e-02 -5.676335096359252930e-02 -1.361991018056869507e-01 -2.620885968208312988e-01 -3.283659815788269043e-01 -2.346652746200561523e-01 -3.199830949306488037e-01 -3.365232050418853760e-02 4.224352240562438965e-01 6.621569991111755371e-01 1.549846678972244263e-01 3.038049861788749695e-02 -1.915870308876037598e-01 -3.988137934356927872e-03 6.664953660219907761e-03 -2.446578629314899445e-02 -1.732541322708129883e-01 -1.823309063911437988e-01 1.982538402080535889e-02 -1.370557211339473724e-02
-2.015727013349533081e-02 1.221778392791748047e-01 4.310176074504852295e-01 6.493585109710693359e-01 1.089389562606811523e+00 8.907186388969421387e-01 3.979160189628601074e-01 1.918766945600509644e-01 2.817710041999816895e-01 6.949324905872344971e-02 -2.369037270545959473e-01 -2.630359828472137451e-01 -3.146568536758422852e-01 -1.082861274480819702e-01 -4.910374805331230164e-02 1.066509634256362915e-01 1.471340060234069824e-01 1.391149908304214478e-01 7.922490686178207397e-02 -8.112989366054534912e-02 -2.136396914720535278e-01 -5.622556433081626892e-02 -1.146283894777297974e-01 -3.462639153003692627e-01 -2.923706471920013428e-01 -2.848866879940032959e-01 2.095353603363037109e-02 -1.731716620270162821e-04
2.653425186872482300e-02 1.246977671980857849e-01 6.309773325920104980e-01 9.854436516761779785e-01 1.153505802154541016e+00 5.031957626342773438e-01 1.631094962358474731e-01 -7.079426199197769165e-02 -9.660425037145614624e-02 -2.499778419733047485e-01 -2.021907866001129150e-01 -1.864934861660003662e-01 -2.219013720750808716e-01 -6.519463658332824707e-02 2.734535932540893555e-02 1.651055552065372467e-02 -1.692582666873931885e-01 -4.241480231285095215e-01 -4.667264223098754883e-01 -2.076274901628494263e-01 -1.216154694557189941e-01 -1.269455403089523315e-01 -1.219517886638641357e-01 -2.472248226404190063e-01 -2.825226187705993652e-01 -1.341997683048248291e-01 5.902544409036636353e-02 2.633781358599662781e-02
2.186104655265808105e-02 2.602637112140655518e-01 5.307220220565795898e-01 1.080093741416931152e+00 3.384755253791809082e-01 -1.244428977370262146e-01 -2.405299693346023560e-01 -2.772804498672485352e-01 -1.595849394798278809e-01 -9.948811680078506470e-02 7.178414613008499146e-02 1.424538493156433105e-01 7.062064856290817261e-02 1.595663651823997498e-02 -2.222541160881519318e-02 -1.088521927595138550e-01 -2.216188907623291016e-01 -3.379324376583099365e-01 -4.038839638233184814e-01 -2.580226361751556396e-01 -2.281298637390136719e-01 -4.878199398517608643e-01 -3.782780468463897705e-02 -1.121310368180274963e-01 -2.776209115982055664e-01 -1.161967292428016663e-01 5.977948755025863647e-02 -9.674727916717529297e-04
2.230544760823249817e-02 2.000414580106735229e-02 4.804977178573608398e-01 7.696371674537658691e-01 -4.794895648956298828e-02 -3.241277635097503662e-01 -1.784720271825790405e-01 1.371647715568542480e-01 8.833074569702148438e-02 2.505923807621002197e-02 2.313327789306640625e-01 3.691173791885375977e-01 3.369858860969543457e-01 9.292593598365783691e-02 1.009679660201072693e-01 2.075187414884567261e-01 5.991495400667190552e-02 -2.623340785503387451e-01 -3.517583906650543213e-01 -1.348519623279571533e-01 -3.421497941017150879e-01 -2.732125818729400635e-01 1.244692951440811157e-01 3.654589504003524780e-02 -2.318889796733856201e-01 -1.191456764936447144e-01 6.954276561737060547e-02 2.733032032847404480e-02
-3.442706540226936340e-02 2.851046994328498840e-02 4.595376849174499512e-01 3.156856000423431396e-01 2.386503964662551880e-01 2.531225681304931641e-01 3.539473712444305420e-01 4.359791576862335205e-01 4.851246774196624756e-01 1.585310101509094238e-01 1.954740583896636963e-01 2.473289370536804199e-01 5.572452023625373840e-02 1.625376790761947632e-01 2.901884019374847412e-01 2.763228714466094971e-01 1.093203574419021606e-01 1.429231464862823486e-01 6.867226958274841309e-02 2.207333892583847046e-01 1.790452599525451660e-01 2.042611986398696899e-01 2.034894376993179321e-01 1.180862039327621460e-01 1.324087828397750854e-01 1.305281817913055420e-01 1.275423020124435425e-01 9.524013847112655640e-03
1.985856890678405762e-02 4.991870373487472534e-03 3.261354267597198486e-01 3.135719001293182373e-01 4.278167486190795898e-01 2.850840985774993896e-01 4.415595829486846924e-01 3.595457673072814941e-01 2.896602451801300049e-01 2.743537425994873047e-01 5.434545874595642090e-01 5.362513661384582520e-01 3.307724595069885254e-01 3.088617324829101562e-01 5.818288326263427734e-01 5.886045694351196289e-01 7.597737312316894531e-01 5.160145163536071777e-01 3.294070661067962646e-01 3.347050547599792480e-01 4.563065767288208008e-01 6.891354918479919434e-02 5.525504052639007568e-02 2.134158164262771606e-01 -1.617026887834072113e-02 -5.812304094433784485e-03 -2.951235137879848480e-02 9.521149098873138428e-03
-1.279252395033836365e-02 -1.381280273199081421e-02 6.286840140819549561e-02 1.264632046222686768e-01 5.284776687622070312e-01 5.478613972663879395e-01 6.557711958885192871e-01 6.494539380073547363e-01 6.149061918258666992e-01 4.942534267902374268e-01 8.171614408493041992e-01 6.166687011718750000e-01 4.633602797985076904e-01 3.282374739646911621e-01 5.636379122734069824e-01 1.209247469902038574e+00 1.304050207138061523e+00 1.087436199188232422e+00 1.015183806419372559e+00 9.486378431320190430e-01 8.797467350959777832e-01 3.743164837360382080e-01 2.190701514482498169e-01 6.534844636917114258e-03 4.299856722354888916e-03 -2.227036654949188232e-02 2.616100758314132690e-02 2.249717339873313904e-02
-2.540218457579612732e-02 2.727366611361503601e-02 -3.538446873426437378e-02 7.951483130455017090e-03 7.803422212600708008e-02 1.451904624700546265e-01 1.411905884742736816e-01 1.728623807430267334e-01 2.760612368583679199e-01 2.697084248065948486e-01 4.087138772010803223e-01 4.317605197429656982e-01 5.973381996154785156e-01 5.335418581962585449e-01 4.057714939117431641e-01 4.833939671516418457e-01 5.547735691070556641e-01 5.626202821731567383e-01 4.983913898468017578e-01 3.858709335327148438e-01 3.333688676357269287e-01 2.233272939920425415e-01 1.805817633867263794e-01 -4.289396107196807861e-03 -1.692692749202251434e-02 -1.710711792111396790e-02 -1.537611708045005798e-02 -3.352156281471252441e-02
6.311036646366119385e-03 1.215525716543197632e-02 -2.989515848457813263e-02 8.934639394283294678e-03 -2.595190703868865967e-02 -9.796151891350746155e-03 -7.214777171611785889e-03 -1.652767881751060486e-02 -1.819237694144248962e-02 2.067254856228828430e-02 1.727347820997238159e-02 -1.134874112904071808e-02 -1.536019518971443176e-02 -5.087580531835556030e-03 3.560736402869224548e-02 1.984940096735954285e-02 -1.314079761505126953e-02 -1.976487971842288971e-02 3.280397504568099976e-03 -3.348231315612792969e-02 1.729086413979530334e-02 1.994886621832847595e-02 -2.387500368058681488e-02 1.539908349514007568e-03 2.212364971637725830e-02 2.672506868839263916e-02 -3.355706483125686646e-02 2.301171049475669861e-02
