-1.353715173900127411e-02 -1.335663534700870514e-02 1.077135279774665833e-02 3.256158158183097839e-02 1.044470444321632385e-02 -2.112883329391479492e-02 -2.290934324264526367e-03 1.768024265766143799e-02 3.209048137068748474e-02 8.753180503845214844e-03 -3.146969899535179138e-02 -1.555174216628074646e-02 7.830291986465454102e-02 1.372194439172744751e-01 1.727913171052932739e-01 9.830965101718902588e-02 -3.825582563877105713e-03 3.114679083228111267e-02 -3.358585759997367859e-02 -2.090267278254032135e-02 3.510291501879692078e-02 1.525595039129257202e-02 2.299666777253150940e-02 -7.219456136226654053e-03 -2.594688162207603455e-02 1.490472257137298584e-02 -9.845504537224769592e-03 1.420897617936134338e-02
-6.717218086123466492e-03 -3.461075574159622192e-02 -5.960129201412200928e-03 -1.831365190446376801e-02 -2.229016274213790894e-02 -5.725555866956710815e-02 -2.347985953092575073e-01 -3.740109503269195557e-01 -4.701705574989318848e-01 -1.866979300975799561e-01 -2.117971330881118774e-02 -5.781920999288558960e-02 -3.440414071083068848e-01 -4.046096801757812500e-01 4.601434767246246338e-01 3.000970184803009033e-01 2.260286062955856323e-01 -3.199785053730010986e-01 -2.990303933620452881e-01 -2.016477435827255249e-01 -1.642587929964065552e-01 -1.400843858718872070e-01 -3.923384472727775574e-02 -3.877439722418785095e-02 -3.425043821334838867e-02 -1.252129673957824707e-02 3.514897450804710388e-02 -1.693742722272872925e-02
7.973786443471908569e-03 4.847735166549682617e-03 -3.044047020375728607e-02 -9.757727384567260742e-03 -2.353382259607315063e-01 -6.962381005287170410e-01 -7.895830869674682617e-01 -1.280200481414794922e+00 -6.391323208808898926e-01 -7.770887017250061035e-01 -9.736829996109008789e-01 -7.746314406394958496e-01 -3.219016790390014648e-01 -2.793447673320770264e-01 2.169331461191177368e-01 3.189394772052764893e-01 7.103629410266876221e-02 1.625534743070602417e-01 -2.012888044118881226e-01 -1.118920445442199707e+00 -6.851077675819396973e-01 -1.701489806175231934e+00 -1.515007376670837402e+00 -5.610850453376770020e-01 -8.204185217618942261e-02 -7.283376157283782959e-02 1.686602085828781128e-02 3.712356090545654297e-03
-2.820193022489547729e-02 -1.152260787785053253e-02 3.555798530578613281e-01 2.564544975757598877e-01 9.390364587306976318e-02 -5.204107761383056641e-01 6.634804606437683105e-01 -3.467340469360351562e-01 -1.001089215278625488e+00 1.587106585502624512e-01 -1.463889032602310181e-01 -3.200279176235198975e-01 5.561617612838745117e-01 -2.068009525537490845e-01 8.660075068473815918e-02 1.608444303274154663e-01 -1.443639304488897324e-02 -1.886132061481475830e-01 -2.610439360141754150e-01 -3.078726828098297119e-01 -2.323350161314010620e-01 3.087004423141479492e-01 1.671226173639297485e-01 3.848060667514801025e-01 -4.227840900421142578e-01 2.536115348339080811e-01 -3.377726078033447266e-01 -5.140142515301704407e-03
-2.235157229006290436e-02 1.867246031761169434e-01 7.383083105087280273e-01 8.644586056470870972e-02 -4.371843859553337097e-02 1.055449917912483215e-01 2.221456617116928101e-01 -1.692390069365501404e-02 9.032579064369201660e-01 2.502218484878540039e-01 4.135837554931640625e-01 4.992347210645675659e-02 3.303512334823608398e-01 5.509416460990905762e-01 -4.627446085214614868e-02 3.181207552552223206e-02 3.748685121536254883e-01 -1.797436773777008057e-01 6.509866565465927124e-02 2.162328064441680908e-01 -3.360731527209281921e-02 -3.629589080810546875e-01 2.342335730791091919e-01 -3.988279104232788086e-01 -3.962912559509277344e-01 -6.415325999259948730e-01 -5.163742303848266602e-01 -8.895539492368698120e-02
2.742314711213111877e-02 3.210080787539482117e-02 7.903754711151123047e-01 1.032511711120605469e+00 1.211351156234741211e+00 3.612736165523529053e-01 5.388472080230712891e-01 5.470962822437286377e-02 -3.716639801859855652e-02 -1.120955646038055420e-01 -4.400939345359802246e-01 2.885512821376323700e-02 2.547564506530761719e-01 3.263819217681884766e-02 -4.941955208778381348e-02 3.524731397628784180e-01 -2.055665254592895508e-01 -1.271119564771652222e-01 -8.652887493371963501e-02 4.067021980881690979e-02 -2.473676651716232300e-01 -1.758967339992523193e-01 4.726626276969909668e-01 2.461481839418411255e-01 -8.280947059392929077e-02 9.061533957719802856e-02 -7.604092955589294434e-01 2.642827630043029785e-01
2.854812517762184143e-02 -1.274286955595016479e-01 -1.354229450225830078e-01 2.936985790729522705e-01 2.948218584060668945e-01 -4.837209880352020264e-01 2.058854103088378906e-01 1.089230850338935852e-01 3.575858771800994873e-01 2.310725897550582886e-01 2.753884196281433105e-01 1.332544386386871338e-01 1.662063002586364746e-01 1.055235229432582855e-02 1.098923664540052414e-02 -2.294045537710189819e-01 5.307910498231649399e-03 9.138767421245574951e-02 1.921696066856384277e-01 -2.959333956241607666e-01 -1.609376966953277588e-01 -9.336747229099273682e-02 -1.106899306178092957e-01 7.619928568601608276e-02 -3.097886145114898682e-01 -4.828908443450927734e-01 -1.791927665472030640e-01 -1.198288574814796448e-01
-8.869855105876922607e-02 -2.019757181406021118e-01 -5.721835494041442871e-01 6.472990512847900391e-01 5.249696373939514160e-01 1.555411964654922485e-01 -3.000771701335906982e-01 -3.907729685306549072e-01 1.696434170007705688e-01 6.398174166679382324e-02 -6.450948119163513184e-02 -1.042285189032554626e-01 1.325518041849136353e-01 1.885358057916164398e-02 -9.130243957042694092e-02 -3.574787080287933350e-02 1.730891130864620209e-02 -1.936205923557281494e-01 -3.248235583305358887e-01 -2.220380306243896484e-01 1.593407429754734039e-02 -4.037733748555183411e-02 -6.726174950599670410e-01 -7.887672185897827148e-01 -6.230281591415405273e-01 -1.420433878898620605e+00 -4.930943846702575684e-01 -3.949609398841857910e-01
-2.905092239379882812e-01 -1.021063327789306641e+00 -5.679026618599891663e-02 4.764152467250823975e-01 8.740516304969787598e-01 -4.307638704776763916e-01 -1.560445725917816162e-01 8.341153152287006378e-03 -1.666210889816284180e-01 -1.700584962964057922e-02 3.014456629753112793e-01 -5.062646269798278809e-01 -5.230738967657089233e-02 4.841582104563713074e-02 8.021265268325805664e-03 7.231187075376510620e-02 -2.766690850257873535e-01 2.026199251413345337e-01 1.129332780838012695e-01 1.864023953676223755e-01 -1.967019140720367432e-01 -3.097598552703857422e-01 -2.822124361991882324e-01 -1.582460999488830566e+00 -5.931670069694519043e-01 -5.873273611068725586e-01 1.110168918967247009e-01 -2.304377108812332153e-01
-4.040574431419372559e-01 -1.099776148796081543e+00 -3.822058141231536865e-01 9.547341614961624146e-02 3.460929989814758301e-01 2.579402029514312744e-01 4.869571328163146973e-02 4.341706261038780212e-02 1.114693731069564819e-01 3.812551125884056091e-02 1.683053374290466309e-02 -2.186261117458343506e-02 -1.168705150485038757e-01 3.200415894389152527e-02 1.321718394756317139e-01 4.212996959686279297e-01 1.489125490188598633e-01 2.040643841028213501e-01 7.685600221157073975e-02 -5.395100265741348267e-02 -2.092062234878540039e-01 -2.773505747318267822e-01 -5.510683059692382812e-01 -1.562962293624877930e+00 -1.894365310668945312e+00 -8.923274464905261993e-03 6.419365759938955307e-03 -3.669737139716744423e-03
-3.412822782993316650e-01 -8.295417428016662598e-01 1.190969944000244141e-01 7.683055400848388672e-01 2.604716122150421143e-01 4.594063013792037964e-02 -1.943204253911972046e-01 -1.077155768871307373e-01 -4.220894575119018555e-01 -6.605535149574279785e-01 3.812584280967712402e-02 3.618671372532844543e-02 1.015117913484573364e-01 1.875066161155700684e-01 2.577292919158935547e-01 3.109293878078460693e-01 7.077005505561828613e-02 5.749188661575317383e-01 3.555361926555633545e-01 2.500242590904235840e-01 -1.938275098800659180e-01 -7.070074677467346191e-01 -1.507465362548828125e+00 -6.447742581367492676e-01 -2.144186973571777344e+00 3.377287387847900391e-01 1.628821343183517456e-01 4.164703786373138428e-01
-4.948519766330718994e-01 -3.079068958759307861e-01 -3.031951189041137695e-01 1.403870701789855957e+00 -1.444939374923706055e-01 1.100014746189117432e-01 -3.838441967964172363e-01 -3.679544627666473389e-01 -1.109086349606513977e-01 -9.684496372938156128e-02 8.111341297626495361e-02 3.089972212910652161e-02 2.929857969284057617e-01 1.126713752746582031e-01 3.170741200447082520e-01 4.996611475944519043e-01 2.156894356012344360e-01 4.421300292015075684e-01 3.907658159732818604e-01 3.266978561878204346e-01 2.479154020547866821e-01 -1.009342312812805176e+00 -7.516736388206481934e-01 -1.041917443275451660e+00 -8.187533617019653320e-01 4.120795130729675293e-01 -2.107463032007217407e-01 2.066323906183242798e-01
-2.367258518934249878e-01 -9.720588326454162598e-01 -8.254179358482360840e-01 8.243694901466369629e-01 -1.224149763584136963e-02 3.139707744121551514e-01 -3.743752539157867432e-01 7.265644669532775879e-01 -6.085245683789253235e-02 4.254395067691802979e-01 -1.304560247808694839e-02 6.644080579280853271e-02 3.702088594436645508e-01 1.255068928003311157e-01 2.470450103282928467e-01 3.355998098850250244e-01 2.641446292400360107e-01 1.319728344678878784e-01 2.814755141735076904e-01 -4.922196269035339355e-02 -1.130859136581420898e+00 -1.055131673812866211e+00 -1.731686592102050781e+00 -1.370211601257324219e+00 3.665617108345031738e-01 9.554396867752075195e-01 6.281101107597351074e-01 -7.963556051254272461e-02
3.405307233333587646e-01 -5.542118549346923828e-01 -1.036915183067321777e+00 4.393635988235473633e-01 1.761887669563293457e-01 -1.506758630275726318e-01 -4.021273180842399597e-02 2.088061124086380005e-01 9.872061759233474731e-02 1.611281782388687134e-01 1.861190944910049438e-01 1.804182976484298706e-01 2.448045015335083008e-01 2.904455363750457764e-01 3.772096037864685059e-01 3.388795852661132812e-01 8.008749783039093018e-02 1.617240458726882935e-01 -7.951816916465759277e-02 -5.939877033233642578e-01 -4.674932360649108887e-01 -1.188309431076049805e+00 -1.189831972122192383e+00 -6.445086002349853516e-01 8.586461842060089111e-02 1.167085886001586914e+00 1.438853621482849121e+00 -1.843473017215728760e-01
-2.332536503672599792e-02 2.271437346935272217e-01 -7.107399702072143555e-01 9.960802197456359863e-01 2.830697596073150635e-01 -3.399915993213653564e-01 -2.097773849964141846e-01 5.655322596430778503e-02 -3.267703950405120850e-01 2.677784264087677002e-01 -1.603980660438537598e-01 -1.254488378763198853e-01 9.176182746887207031e-02 1.877274811267852783e-01 1.185926720499992371e-01 8.630824089050292969e-02 4.278239011764526367e-01 4.257811605930328369e-01 -1.653403490781784058e-01 -6.254672408103942871e-01 -1.013912916183471680e+00 -4.523911476135253906e-01 -6.025263667106628418e-01 4.384005665779113770e-01 3.853825926780700684e-01 -2.425520308315753937e-02 1.324442625045776367e+00 1.337946020066738129e-02
2.730467170476913452e-02 5.858109593391418457e-01 1.325641512870788574e+00 9.357662200927734375e-01 3.754669427871704102e-01 -4.669224321842193604e-01 3.381404578685760498e-01 -5.112528055906295776e-02 -2.222792245447635651e-02 2.204061672091484070e-02 -1.315583437681198120e-01 -2.130735218524932861e-01 -7.268051058053970337e-02 -1.268891058862209320e-02 3.705039620399475098e-01 2.179028242826461792e-01 3.638381958007812500e-01 -2.606147825717926025e-01 -9.089903235435485840e-01 -7.525787353515625000e-01 -3.088146746158599854e-01 -1.730221211910247803e-01 1.992100030183792114e-01 8.452988862991333008e-01 9.722828865051269531e-02 5.301296114921569824e-01 1.505222678184509277e+00 7.150055170059204102e-01
1.201682314276695251e-01 7.732356786727905273e-01 1.666988492012023926e+00 5.446244478225708008e-01 2.040099352598190308e-01 -4.573126137256622314e-01 3.903937637805938721e-01 2.868029773235321045e-01 4.533326625823974609e-02 4.645328223705291748e-01 -2.006509006023406982e-01 -2.161926217377185822e-02 8.757042884826660156e-02 1.809172630310058594e-01 5.304754972457885742e-01 5.465015769004821777e-02 6.210376694798469543e-02 -8.353149294853210449e-01 -2.197782248258590698e-01 -3.340318799018859863e-01 -3.469460457563400269e-02 7.677232474088668823e-02 -1.999617069959640503e-01 3.343598544597625732e-01 9.722411632537841797e-01 6.523475646972656250e-01 1.993005990982055664e+00 8.504294157028198242e-01
2.231450006365776062e-02 7.264426350593566895e-01 1.411858320236206055e+00 3.998100757598876953e-01 6.233909726142883301e-01 -1.134622246026992798e-01 4.665739461779594421e-02 1.362076699733734131e-01 1.071500927209854126e-01 -2.670737504959106445e-01 -4.005017504096031189e-02 -1.211799830198287964e-01 -2.093896828591823578e-02 1.809806227684020996e-01 2.349562644958496094e-01 -1.525380164384841919e-01 -5.449439883232116699e-01 -3.102549612522125244e-01 -2.298201322555541992e-01 -1.146232411265373230e-01 -2.144089192152023315e-01 -2.641698718070983887e-02 -2.784272730350494385e-01 -4.248205423355102539e-01 -1.674652993679046631e-01 -7.735974192619323730e-01 8.229070901870727539e-01 1.798400998115539551e+00
-2.404526025056838989e-01 4.223940968513488770e-01 9.972310662269592285e-01 1.187385439872741699e+00 3.670053184032440186e-01 1.715725213289260864e-01 -7.147321850061416626e-02 -1.400456875562667847e-01 -3.480356559157371521e-02 -2.191758304834365845e-01 -1.936543583869934082e-01 1.489670574665069580e-01 -2.756979465484619141e-01 -3.904434293508529663e-02 -9.733713418245315552e-02 -1.121483296155929565e-01 5.138936918228864670e-03 -4.831362143158912659e-02 1.228064149618148804e-01 -7.690209150314331055e-02 4.175375103950500488e-01 -7.500079274177551270e-02 3.722889125347137451e-01 5.961480736732482910e-01 5.307365059852600098e-01 1.414626091718673706e-01 4.190370440483093262e-01 1.373746037483215332e+00
3.498612046241760254e-01 -1.247089281678199768e-01 -4.921990931034088135e-01 1.298273205757141113e+00 -1.314585655927658081e-01 6.720289587974548340e-02 -4.932567775249481201e-01 2.225281745195388794e-01 -6.608861684799194336e-01 1.446063071489334106e-01 -7.347603887319564819e-02 -5.397329926490783691e-01 -4.521495997905731201e-01 5.730328708887100220e-02 -3.466943800449371338e-01 9.100523591041564941e-02 1.998797804117202759e-01 5.010813102126121521e-02 1.363842785358428955e-01 3.745188415050506592e-01 3.424076437950134277e-01 1.762706935405731201e-01 2.550085783004760742e-01 5.838846564292907715e-01 2.040266543626785278e-01 8.428245782852172852e-01 1.008296966552734375e+00 1.096522688865661621e+00
3.195181861519813538e-02 2.255979776382446289e-01 4.891677200794219971e-02 1.668719410896301270e+00 -2.898435294628143311e-01 -7.112211585044860840e-01 -1.664115339517593384e-01 3.062869422137737274e-02 1.236516162753105164e-01 2.821086645126342773e-01 -2.138467691838741302e-02 6.809633225202560425e-02 -9.324546903371810913e-03 -1.722653023898601532e-02 -1.437163203954696655e-01 -1.768142431974411011e-01 1.980438679456710815e-01 1.905419826507568359e-01 1.558375805616378784e-01 1.087347716093063354e-01 5.983806252479553223e-01 5.249546766281127930e-01 3.071471750736236572e-01 1.202076449990272522e-01 5.078294873237609863e-01 5.154108405113220215e-01 1.035921931266784668e+00 2.281683385372161865e-01
3.427290320396423340e-01 9.408378601074218750e-01 4.970819354057312012e-01 6.546241641044616699e-01 4.100243151187896729e-01 1.670173406600952148e-01 2.312999367713928223e-01 -1.039731800556182861e-01 1.866582483053207397e-01 -7.901674136519432068e-03 3.014879859983921051e-02 -1.169943958520889282e-01 -2.013868391513824463e-01 -2.527935504913330078e-01 -1.813307404518127441e-01 1.463986635208129883e-01 1.080208346247673035e-01 1.434687972068786621e-01 2.011584639549255371e-01 -1.015761941671371460e-01 -2.915539741516113281e-01 -2.011187933385372162e-02 -7.198194861412048340e-01 2.887712121009826660e-01 4.482378363609313965e-01 5.632163882255554199e-01 7.658776044845581055e-01 -2.905423939228057861e-02
3.292623460292816162e-01 4.841853380203247070e-01 1.402527570724487305e+00 8.969405889511108398e-01 1.169944703578948975e-01 4.843324422836303711e-01 2.596169710159301758e-01 1.134428828954696655e-01 8.629150688648223877e-02 -1.112108156085014343e-01 1.273039430379867554e-01 -7.440169155597686768e-02 -4.327087700366973877e-01 -1.806395798921585083e-01 -1.761081516742706299e-01 -3.525749146938323975e-01 -1.892451047897338867e-01 -1.344651728868484497e-01 -3.648170083761215210e-02 -5.329838767647743225e-02 2.507453858852386475e-01 1.707903444766998291e-01 -1.276269108057022095e-01 -4.541111290454864502e-01 -1.001464501023292542e-01 4.725832343101501465e-01 4.339377582073211670e-01 -2.672917209565639496e-02
5.366813391447067261e-03 -9.787989780306816101e-03 1.265281558036804199e+00 1.440818190574645996e+00 3.192479908466339111e-02 -1.322851330041885376e-01 -1.318672150373458862e-01 3.078562021255493164e-01 -1.128891259431838989e-01 2.683642804622650146e-01 -5.623967200517654419e-02 -2.476872131228446960e-02 -2.516040205955505371e-02 5.644518509507179260e-02 -2.846979796886444092e-01 3.127314746379852295e-01 -1.318088769912719727e-01 1.349570155143737793e-01 1.042101010680198669e-01 2.438142448663711548e-01 -6.452178210020065308e-02 6.040821671485900879e-01 -5.409067273139953613e-01 -6.131497025489807129e-01 3.802002072334289551e-01 9.607249498367309570e-01 1.046984553337097168e+00 2.943860366940498352e-02
2.703171595931053162e-02 1.614501699805259705e-02 1.303582072257995605e+00 6.748892068862915039e-01 3.565722107887268066e-01 3.776429295539855957e-01 -7.466539740562438965e-02 5.079810023307800293e-01 -1.126353815197944641e-01 -2.582779526710510254e-01 4.674930274486541748e-01 5.658788979053497314e-02 -1.951482295989990234e-01 4.496775567531585693e-02 2.491626739501953125e-01 -1.654968261718750000e-01 7.950050383806228638e-02 9.588453173637390137e-02 -1.290958561003208160e-02 3.985795080661773682e-01 -5.125986337661743164e-01 1.511385738849639893e-01 2.083601355552673340e-01 1.025653481483459473e+00 6.189214587211608887e-01 1.587612867355346680e+00 4.676978290081024170e-01 2.578780427575111389e-02
-3.328068554401397705e-02 3.391999378800392151e-02 3.615473508834838867e-01 -8.128569722175598145e-01 -1.667214184999465942e-01 5.402830988168716431e-02 -8.267178535461425781e-01 -5.357991456985473633e-01 -1.245380789041519165e-01 -1.132109016180038452e-01 2.962516844272613525e-01 -5.111788511276245117e-01 -1.260119974613189697e-01 2.979990243911743164e-01 3.878914117813110352e-01 1.102575287222862244e-01 1.705592963844537735e-03 7.934138178825378418e-02 -2.626687288284301758e-01 -2.880616486072540283e-01 2.453440725803375244e-01 4.550184588879346848e-03 -1.618234440684318542e-02 2.858260273933410645e-01 -3.982182741165161133e-01 4.609557092189788818e-01 2.063442766666412354e-01 3.918763250112533569e-03
3.317267820239067078e-02 2.589208260178565979e-02 -1.886895298957824707e-02 1.980733722448348999e-01 1.009101390838623047e+00 5.222148895263671875e-01 -1.364795118570327759e-01 -1.260566353797912598e+00 -1.476040482521057129e+00 -7.466656565666198730e-01 6.492859721183776855e-01 -4.606145620346069336e-02 2.203788906335830688e-01 -5.772938728332519531e-01 -6.102863699197769165e-02 8.072462677955627441e-01 7.440993785858154297e-01 5.116310119628906250e-01 1.999997943639755249e-01 -5.429618954658508301e-01 -3.894004225730895996e-02 -3.984401822090148926e-01 -9.468687176704406738e-01 -3.627334535121917725e-01 -3.037790209054946899e-02 -5.503662675619125366e-02 4.001431167125701904e-03 2.921307459473609924e-02
-1.864125579595565796e-02 -1.410862803459167480e-02 -7.923973724246025085e-03 -3.282590582966804504e-02 -9.751565754413604736e-02 -8.048348128795623779e-02 -5.262674093246459961e-01 -7.149223089218139648e-01 -3.344924449920654297e-01 -7.076745629310607910e-01 -1.072906553745269775e-01 -5.695092678070068359e-01 -1.642408967018127441e+00 -1.726521849632263184e+00 -4.536670446395874023e-01 -1.577608287334442139e-01 -1.458502650260925293e+00 -1.632103204727172852e+00 -8.548744320869445801e-01 -5.976648330688476562e-01 -1.378115266561508179e-01 4.471269249916076660e-01 -1.912292093038558960e-02 6.264705210924148560e-03 9.809911251068115234e-03 1.757962256669998169e-02 -2.692000940442085266e-02 1.717326417565345764e-02
