-2.350318990647792816e-02 1.782267540693283081e-02 -1.456658355891704559e-02 6.206095218658447266e-03 -2.260940521955490112e-02 1.770101487636566162e-02 -2.201215364038944244e-02 3.535391017794609070e-02 -6.741592660546302795e-03 -9.171664714813232422e-04 1.588778942823410034e-02 1.761135831475257874e-02 2.524976432323455811e-02 3.041731938719749451e-02 -2.539403177797794342e-02 -7.949365302920341492e-03 -3.405107185244560242e-02 1.358051970601081848e-02 3.013695403933525085e-02 -1.076649315655231476e-02 2.982458844780921936e-02 -3.466524556279182434e-02 -3.063681349158287048e-02 -1.035325229167938232e-03 1.052628457546234131e-02 2.436158061027526855e-02 2.949200198054313660e-02 2.970222756266593933e-02
-2.538965083658695221e-02 -8.746007457375526428e-03 -2.817140892148017883e-02 -1.816298440098762512e-02 -6.817745044827461243e-03 -3.105566464364528656e-02 1.073931530117988586e-02 -1.212752796709537506e-02 -2.682094275951385498e-02 1.540105417370796204e-02 -1.958911865949630737e-02 2.227859199047088623e-02 2.623724564909934998e-02 -1.409409008920192719e-02 3.360630199313163757e-02 -3.448486328125000000e-02 3.568176552653312683e-02 1.432000473141670227e-02 1.965283229947090149e-02 -2.215916849672794342e-02 -1.198869198560714722e-02 2.325230836868286133e-02 1.896759495139122009e-02 -2.581766247749328613e-02 5.275838077068328857e-03 7.070638239383697510e-03 2.938167378306388855e-02 3.171655908226966858e-02
-1.593719236552715302e-02 -2.246157824993133545e-02 -3.141282126307487488e-02 2.533178776502609253e-03 -1.926821097731590271e-02 7.265806198120117188e-05 -7.523605599999427795e-03 2.737641707062721252e-02 1.096372306346893311e-02 1.644589751958847046e-02 -2.682621404528617859e-02 -3.983395174145698547e-02 -2.399784512817859650e-03 7.618032395839691162e-03 -2.756844647228717804e-02 -5.527455359697341919e-02 1.269919518381357193e-02 6.607274711132049561e-02 1.070150882005691528e-01 7.050786167383193970e-02 -4.575671162456274033e-03 -7.770176976919174194e-03 2.057092264294624329e-02 2.108363807201385498e-02 -3.022827953100204468e-02 -2.170994505286216736e-02 -2.608481794595718384e-03 -2.239275723695755005e-03
1.831836998462677002e-03 3.059933707118034363e-02 1.684122905135154724e-02 -7.721100002527236938e-03 -1.002943515777587891e-02 -6.678526848554611206e-02 -9.361651539802551270e-02 -2.535774707794189453e-01 -3.113389313220977783e-01 -4.686705172061920166e-01 -6.522335410118103027e-01 -5.355347990989685059e-01 -1.502923518419265747e-01 -1.457387767732143402e-02 -3.340631350874900818e-02 -7.951533794403076172e-02 -4.549450799822807312e-02 2.356702983379364014e-01 4.850679934024810791e-01 2.956715226173400879e-01 -1.888078153133392334e-01 -1.195916086435317993e-01 3.051963746547698975e-01 3.311716020107269287e-01 3.003006875514984131e-01 9.329322725534439087e-02 -3.555433824658393860e-02 -2.866779267787933350e-02
-1.763873919844627380e-02 1.887355372309684753e-02 -2.130320221185684204e-01 -1.993189156055450439e-01 -1.109625771641731262e-01 5.781785584986209869e-03 -2.802279293537139893e-01 -1.297646015882492065e-01 8.154374361038208008e-02 1.011663079261779785e-01 -1.991596445441246033e-02 -4.336516261100769043e-01 -1.260497272014617920e-01 1.631931364536285400e-01 2.462633699178695679e-01 -9.750670939683914185e-02 -5.447446554899215698e-02 7.886766642332077026e-02 9.000897407531738281e-02 -1.472518891096115112e-01 1.796330213546752930e-01 4.118305444717407227e-01 4.566220641136169434e-01 2.153110802173614502e-01 8.770281076431274414e-01 4.708124101161956787e-01 2.390302419662475586e-01 7.520046085119247437e-02
-3.893278539180755615e-03 -2.533052302896976471e-02 -2.196986079216003418e-01 -4.113528728485107422e-01 -4.982773959636688232e-01 -5.771897435188293457e-01 1.117855757474899292e-01 2.440397813916206360e-02 -6.441468745470046997e-02 7.105651497840881348e-02 -3.453996032476425171e-02 -2.480337629094719887e-03 1.154899299144744873e-01 1.000567227602005005e-01 5.295262113213539124e-02 1.922265067696571350e-02 -2.057697176933288574e-01 -3.275850415229797363e-02 1.454451084136962891e-01 1.641477197408676147e-01 -3.831818327307701111e-02 1.279196292161941528e-01 3.644056916236877441e-01 -6.390935741364955902e-03 3.333380818367004395e-01 9.513367414474487305e-01 3.890595734119415283e-01 2.322268858551979065e-02
-2.437845431268215179e-02 -4.510590434074401855e-02 -1.241288483142852783e-01 -4.375538825988769531e-01 -2.268705964088439941e-01 -1.381675750017166138e-01 -3.403658270835876465e-01 -1.517437677830457687e-02 -7.596633583307266235e-02 -7.266582548618316650e-02 -3.029078803956508636e-02 -2.826022729277610779e-02 1.696076393127441406e-01 4.663944989442825317e-02 5.666676908731460571e-03 2.838714979588985443e-02 -1.156704407185316086e-02 4.733911156654357910e-02 -4.633018374443054199e-02 1.698649972677230835e-01 2.389701269567012787e-02 4.023230634629726410e-03 1.413959860801696777e-01 -2.318806797266006470e-01 3.964291140437126160e-02 1.494228839874267578e+00 5.084068775177001953e-01 1.517663300037384033e-01
3.227073326706886292e-02 -2.367089502513408661e-02 -1.450966894626617432e-01 -4.254179298877716064e-01 -4.980285186320543289e-03 5.105453077703714371e-03 -1.452549099922180176e-01 -4.093498885631561279e-01 -3.421817421913146973e-01 -6.119846180081367493e-02 1.132312193512916565e-01 -1.038130186498165131e-02 3.591574355959892273e-02 -3.189196810126304626e-02 -3.231828510761260986e-01 -1.068028733134269714e-01 -1.521701067686080933e-01 8.360764011740684509e-03 7.367119193077087402e-03 -2.164555490016937256e-01 1.978241354227066040e-01 -6.886846572160720825e-02 2.262711971998214722e-01 7.624634355306625366e-02 5.785991549491882324e-01 1.483448863029479980e+00 4.757184386253356934e-01 1.898098737001419067e-01
2.418213337659835815e-02 -3.189545124769210815e-02 -1.238652393221855164e-01 -1.422267258167266846e-01 -1.197899952530860901e-01 -2.795790135860443115e-01 1.879780292510986328e-01 -2.610412612557411194e-02 -1.818051189184188843e-01 -7.160689681768417358e-02 1.003882288932800293e-01 9.699534624814987183e-02 2.733248174190521240e-01 5.083787441253662109e-01 -5.852267146110534668e-02 -2.262203842401504517e-01 -8.594384789466857910e-02 1.758594661951065063e-01 1.764647811651229858e-01 -2.474671006202697754e-01 1.447391659021377563e-01 -7.174605131149291992e-02 -1.323780566453933716e-01 2.335123270750045776e-01 1.017382860183715820e+00 1.069700241088867188e+00 5.110180974006652832e-01 1.739172190427780151e-01
-2.161752805113792419e-02 2.197480946779251099e-02 -6.264423578977584839e-02 3.567740693688392639e-02 -1.985050141811370850e-01 -2.720293402671813965e-01 1.583316475152969360e-01 -5.185636281967163086e-01 -5.488176345825195312e-01 -1.592813879251480103e-01 1.137135177850723267e-01 1.337343305349349976e-01 1.814300864934921265e-01 4.239437580108642578e-01 2.038237154483795166e-01 -7.094547897577285767e-02 -3.953453153371810913e-02 -1.820575743913650513e-01 -2.026595622301101685e-01 -1.253816038370132446e-01 -8.355479687452316284e-02 -2.696952819824218750e-01 -2.856662571430206299e-01 -1.097767278552055359e-01 1.355315685272216797e+00 8.329957723617553711e-01 4.088584482669830322e-01 1.410542577505111694e-01
-3.276197984814643860e-02 -1.317270472645759583e-02 -1.325951367616653442e-01 -2.759765461087226868e-02 7.454864680767059326e-02 -2.715989053249359131e-01 -1.252044886350631714e-01 -1.241981983184814453e-01 -3.121756911277770996e-01 -2.912247776985168457e-01 1.215419843792915344e-01 2.591503262519836426e-01 2.820127904415130615e-01 4.377160668373107910e-01 4.248662889003753662e-01 2.630746066570281982e-01 2.601199410855770111e-02 -9.451034665107727051e-02 4.583499208092689514e-02 -3.049954213201999664e-02 4.582300037145614624e-02 1.802936047315597534e-01 1.572635769844055176e-01 2.138599753379821777e-01 1.493625044822692871e+00 8.223384618759155273e-01 4.807085394859313965e-01 1.271423250436782837e-01
-3.471671417355537415e-02 1.947148144245147705e-02 -1.401845663785934448e-01 -1.208108216524124146e-01 3.435101509094238281e-01 2.156052738428115845e-02 -8.886773884296417236e-02 9.903927147388458252e-02 -1.414122134447097778e-01 -3.448315262794494629e-01 -1.742533743381500244e-01 3.107998333871364594e-02 2.728923559188842773e-01 3.574831485748291016e-01 4.591851234436035156e-01 1.429490298032760620e-01 1.113037914037704468e-01 1.143238320946693420e-02 1.177842244505882263e-01 -1.621123701333999634e-01 2.367193698883056641e-01 7.117967009544372559e-01 1.980214864015579224e-01 5.624417662620544434e-01 1.211223602294921875e+00 5.539854168891906738e-01 3.832776546478271484e-01 1.062509715557098389e-01
3.177401050925254822e-02 -2.762533724308013916e-02 -2.971505187451839447e-02 -1.899468898773193359e-01 -2.969898516312241554e-03 -4.552624523639678955e-01 -2.985917218029499054e-02 -1.646425276994705200e-01 -1.092995107173919678e-01 1.055682171136140823e-02 -4.283114336431026459e-03 2.916147708892822266e-01 9.215987473726272583e-02 1.937172114849090576e-01 5.969533696770668030e-02 6.919928640127182007e-02 -3.710943087935447693e-02 -5.499818548560142517e-02 -1.085691228508949280e-01 -2.977374196052551270e-01 9.746850281953811646e-02 4.382706284523010254e-01 3.304747045040130615e-01 1.274737119674682617e+00 1.080629825592041016e+00 1.491406839340925217e-02 2.048432379961013794e-01 4.123428836464881897e-02
-2.080522477626800537e-02 2.856093272566795349e-02 1.189041137695312500e-02 -1.924143135547637939e-01 -1.378838568925857544e-01 -3.666222095489501953e-02 -7.900531589984893799e-02 -4.185149967670440674e-01 -2.489842772483825684e-01 -8.166232705116271973e-02 -2.231986373662948608e-01 6.748762680217623711e-04 9.384234249591827393e-02 6.315162405371665955e-03 9.853958338499069214e-02 2.495342940092086792e-01 4.325988888740539551e-02 -1.829330325126647949e-01 -1.395475119352340698e-01 -1.338973343372344971e-01 1.967555657029151917e-02 -1.647276133298873901e-01 8.656766265630722046e-02 1.168580427765846252e-01 8.975266218185424805e-01 3.898017704486846924e-01 1.994196474552154541e-01 2.166246436536312103e-02
-9.351730346679687500e-03 -2.303560450673103333e-02 3.128983080387115479e-02 -5.660140141844749451e-02 -2.710332274436950684e-01 4.805463850498199463e-01 1.683845967054367065e-01 7.018318772315979004e-02 -2.775023281574249268e-01 -1.190766170620918274e-01 -4.411345720291137695e-02 1.784785650670528412e-02 1.390202939510345459e-01 1.114455759525299072e-01 1.287298798561096191e-01 2.288959324359893799e-01 3.240720629692077637e-01 -3.548031300306320190e-02 -2.463789135217666626e-01 -2.702026627957820892e-02 -1.726482361555099487e-01 -1.622249037027359009e-01 -1.449334472417831421e-01 -1.059986725449562073e-01 3.337334990501403809e-01 5.155037641525268555e-01 1.304332464933395386e-01 -3.535310178995132446e-02
2.987626567482948303e-02 -5.594871938228607178e-03 -5.485955625772476196e-02 -2.252361774444580078e-01 -7.349384427070617676e-01 -2.093753218650817871e-01 9.898179769515991211e-02 4.763290658593177795e-02 -2.109995186328887939e-01 -1.443638652563095093e-02 -3.121490962803363800e-02 3.519837185740470886e-02 1.270065009593963623e-01 1.638825684785842896e-01 1.799271255731582642e-01 9.253929369151592255e-03 8.084939420223236084e-02 -3.573551401495933533e-02 -2.514408826828002930e-01 -1.739811450242996216e-01 -1.757837831974029541e-01 7.511410117149353027e-02 -3.032893836498260498e-01 -6.711620688438415527e-01 -2.763496711850166321e-02 4.806116521358489990e-01 -3.213461935520172119e-01 -1.179770939052104950e-02
1.305814087390899658e-02 -2.695175260305404663e-02 -8.185929059982299805e-02 -2.535567879676818848e-01 -5.132427811622619629e-01 -8.423211425542831421e-02 -1.443774700164794922e-01 -1.682906597852706909e-01 1.782034039497375488e-01 1.697122156620025635e-01 1.907103955745697021e-01 2.230091243982315063e-01 4.452162384986877441e-01 2.100946158170700073e-01 -3.784557878971099854e-01 -3.854762017726898193e-01 -1.465125977993011475e-01 -2.151498384773731232e-02 -2.162320315837860107e-01 -1.093323752284049988e-01 -2.410456091165542603e-01 1.013904958963394165e-01 -3.455385863780975342e-01 -4.547602534294128418e-01 -3.846993446350097656e-01 5.376321673393249512e-01 1.973415166139602661e-02 7.823236286640167236e-03
-1.556470617651939392e-02 1.281636580824851990e-02 6.151565909385681152e-02 -6.273973584175109863e-01 7.788339257240295410e-02 -6.745491921901702881e-02 -7.487394660711288452e-02 -3.238319158554077148e-01 -2.546631395816802979e-01 4.085306450724601746e-02 2.628861069679260254e-01 4.749976396560668945e-01 3.304701149463653564e-01 -3.202373981475830078e-01 -5.058557391166687012e-01 -3.193523585796356201e-01 -1.960370391607284546e-01 -3.044664561748504639e-01 6.919444352388381958e-02 -2.150951512157917023e-02 -3.154771029949188232e-02 9.463431686162948608e-02 -1.739988327026367188e-01 -1.617874950170516968e-01 -3.947598934173583984e-01 5.029166340827941895e-01 1.266329139471054077e-01 1.346287131309509277e-02
1.793211698532104492e-02 -5.311859026551246643e-02 6.791491527110338211e-03 -1.873165071010589600e-01 -1.877845674753189087e-01 -8.837520331144332886e-02 -1.535633802413940430e-01 -1.148151606321334839e-01 -5.111958831548690796e-02 6.423161178827285767e-02 -1.116738542914390564e-01 -2.796098403632640839e-02 2.280361056327819824e-01 -4.666118919849395752e-01 -3.112846612930297852e-01 -2.365878820419311523e-01 -1.232778728008270264e-01 -2.673673331737518311e-01 -6.930242478847503662e-02 1.350863277912139893e-02 -3.563397377729415894e-02 7.103395462036132812e-02 -1.636430770158767700e-01 3.302099928259849548e-02 -1.180690713226795197e-02 4.944699108600616455e-01 1.458019912242889404e-01 1.569887623190879822e-02
3.505677357316017151e-02 -4.571235924959182739e-02 -1.624233275651931763e-01 -1.289377082139253616e-02 -4.823957979679107666e-01 -1.623403429985046387e-01 9.499463438987731934e-02 2.108751386404037476e-01 2.184730470180511475e-01 3.065129518508911133e-01 3.843814134597778320e-01 1.203432455658912659e-01 -3.544843792915344238e-01 -6.878876090049743652e-01 -6.111949682235717773e-01 -2.982630431652069092e-01 -1.457499712705612183e-01 -3.516301512718200684e-01 -2.643046379089355469e-01 5.244679003953933716e-02 6.117497012019157410e-02 5.635352432727813721e-02 1.007046774029731750e-01 6.643171608448028564e-02 1.064991876482963562e-01 2.377038300037384033e-01 5.352072417736053467e-03 -9.423971176147460938e-03
1.667547225952148438e-02 -3.139101713895797729e-02 -7.943419367074966431e-02 -1.293580532073974609e-01 -2.470982223749160767e-01 -1.257381886243820190e-01 2.892241626977920532e-02 1.224798336625099182e-01 4.492497146129608154e-01 3.326464593410491943e-01 5.346874594688415527e-01 2.286570370197296143e-01 -1.737378537654876709e-01 -6.535908579826354980e-01 -4.535756409168243408e-01 7.241685874760150909e-03 -2.532639168202877045e-02 -2.430015057325363159e-01 -3.642668128013610840e-01 -1.725674839690327644e-03 3.857648000121116638e-02 4.087901860475540161e-02 -1.778994128108024597e-02 -1.161478012800216675e-01 -1.319527179002761841e-01 -7.755633443593978882e-02 -1.145896092057228088e-01 1.830433681607246399e-02
-5.724608898162841797e-03 -8.179729431867599487e-02 -1.372104436159133911e-01 -8.482733368873596191e-02 -9.420388191938400269e-02 2.756767272949218750e-01 4.026424884796142578e-01 1.085734665393829346e-01 4.100400805473327637e-01 6.054579019546508789e-01 3.365869820117950439e-01 2.584344446659088135e-01 -2.247108668088912964e-01 -5.816293954849243164e-01 -3.743035495281219482e-01 -5.339019373059272766e-02 -1.618028730154037476e-01 -1.787872612476348877e-01 -2.191047966480255127e-01 -4.690006002783775330e-02 1.558668613433837891e-01 9.244742244482040405e-02 7.573426514863967896e-02 2.363568544387817383e-02 1.534920334815979004e-01 4.027101770043373108e-02 -1.031818538904190063e-01 1.566488295793533325e-03
-2.183236926794052124e-02 1.911713927984237671e-02 -1.538543999195098877e-01 3.827660679817199707e-01 3.797274529933929443e-01 1.748089045286178589e-01 2.308776825666427612e-01 2.814743816852569580e-01 1.659158766269683838e-01 3.271604180335998535e-01 3.926153779029846191e-01 2.053067237138748169e-01 7.976497709751129150e-02 -2.011994719505310059e-01 -2.528562247753143311e-01 -1.743195801973342896e-01 -5.015960335731506348e-02 -2.128444910049438477e-01 -2.620937228202819824e-01 -3.056465648114681244e-02 -3.952064737677574158e-02 7.077735662460327148e-02 1.601384207606315613e-02 4.104170948266983032e-03 -4.344667308032512665e-03 2.043938785791397095e-01 -4.692805185914039612e-02 -2.920363284647464752e-02
1.613207533955574036e-02 1.431675255298614502e-02 -2.064644098281860352e-01 8.001816272735595703e-02 1.409584134817123413e-01 8.065673708915710449e-02 5.749031528830528259e-02 2.484710812568664551e-01 7.906983047723770142e-02 2.424200028181076050e-01 1.772518008947372437e-01 8.750122040510177612e-02 1.999347060918807983e-01 1.061370670795440674e-01 1.258400082588195801e-01 1.152085661888122559e-01 -1.504560708999633789e-01 -3.833262026309967041e-01 -6.860337406396865845e-02 2.638520896434783936e-01 6.846212595701217651e-02 -1.656175702810287476e-01 -1.023190394043922424e-01 1.856742203235626221e-01 2.549826800823211670e-01 1.038205251097679138e-01 -4.604819416999816895e-02 -3.153894096612930298e-03
-7.988141849637031555e-03 9.848821908235549927e-03 -4.014420509338378906e-02 -4.765011370182037354e-01 -2.353525608777999878e-01 1.822197288274765015e-01 2.578414380550384521e-01 -1.597050428390502930e-01 2.746794223785400391e-01 2.794725596904754639e-01 3.461866378784179688e-01 2.200070619583129883e-01 4.787392318248748779e-01 6.147740483283996582e-01 1.073189452290534973e-01 -1.867859214544296265e-01 -1.268263161182403564e-01 -2.220836132764816284e-01 -1.244233995676040649e-01 -2.007125020027160645e-01 -2.009891718626022339e-01 -1.409699022769927979e-01 -7.079851627349853516e-02 4.414926469326019287e-01 1.147938668727874756e-01 -1.270983926951885223e-02 3.316990658640861511e-02 8.730426430702209473e-03
9.673882275819778442e-03 -2.892520651221275330e-02 -3.326989710330963135e-03 4.806057084351778030e-03 -1.319948583841323853e-01 3.770574629306793213e-01 2.540093362331390381e-01 3.430622816085815430e-01 4.134688153862953186e-02 2.393595874309539795e-01 5.093665122985839844e-01 4.916827082633972168e-01 3.430070877075195312e-01 2.639760673046112061e-01 2.313696295022964478e-01 8.077555894851684570e-02 -5.984271410852670670e-03 -1.692104488611221313e-01 -3.247946202754974365e-01 -2.378645390272140503e-01 -4.423899576067924500e-02 -2.372362315654754639e-01 1.960881352424621582e-01 2.215496152639389038e-01 -3.545656055212020874e-02 4.321936517953872681e-03 -2.339603751897811890e-02 2.192109823226928711e-02
7.070112973451614380e-03 3.306804224848747253e-02 -2.590408548712730408e-02 -2.960513532161712646e-02 2.622995898127555847e-02 -4.169280081987380981e-02 -2.739228121936321259e-02 1.672776415944099426e-02 7.036986947059631348e-02 7.617229223251342773e-02 -1.011640578508377075e-01 1.741291768848896027e-02 2.134649604558944702e-01 1.661754101514816284e-01 -1.925264298915863037e-01 -2.031162381172180176e-01 -1.459452211856842041e-01 -1.808345690369606018e-02 -3.765126690268516541e-02 -2.606697753071784973e-02 -2.894057892262935638e-02 2.462232410907745361e-01 2.379037737846374512e-01 2.799683809280395508e-01 -3.330405801534652710e-02 1.160930842161178589e-02 -2.146900631487369537e-02 2.293265238404273987e-02
1.814532652497291565e-02 -2.203734591603279114e-02 5.776982754468917847e-03 1.307924091815948486e-02 -2.484241127967834473e-02 -1.037251204252243042e-02 2.916068956255912781e-02 -2.802032418549060822e-02 -1.986367441713809967e-02 -2.574712038040161133e-02 3.567432239651679993e-02 -1.938786357641220093e-02 -2.242373302578926086e-02 -1.473317854106426239e-02 -6.176659837365150452e-03 6.842572242021560669e-03 -3.118679113686084747e-02 2.358658984303474426e-02 -1.204357482492923737e-02 6.056129932403564453e-04 9.373072534799575806e-03 -3.135023266077041626e-02 2.534078434109687805e-02 9.958744049072265625e-03 -5.202544853091239929e-03 -2.348941192030906677e-02 5.214665085077285767e-03 -2.517243474721908569e-02
