-2.499334514141082764e-04 3.139491006731987000e-02 3.373027965426445007e-02 1.777623593807220459e-02 1.299296692013740540e-02 -1.018231734633445740e-02 7.595047354698181152e-03 -2.938990294933319092e-02 -1.397974975407123566e-02 -2.791123837232589722e-02 -2.590035274624824524e-02 2.377629280090332031e-04 -2.161463648080825806e-01 -2.348696440458297729e-01 -1.742355823516845703e-01 -1.578644961118698120e-01 -2.167433127760887146e-02 3.163035586476325989e-02 -2.373138628900051117e-02 9.207800030708312988e-03 1.546360924839973450e-02 -1.848643273115158081e-02 2.269455417990684509e-02 2.989251539111137390e-02 -4.467168822884559631e-03 2.659612149000167847e-02 -3.260192275047302246e-02 3.182860836386680603e-02
2.790534123778343201e-02 -1.932227239012718201e-02 2.047358825802803040e-02 -1.364280469715595245e-02 1.731968224048614502e-01 1.237327698618173599e-02 -2.646708786487579346e-01 -1.067317351698875427e-01 -1.166713908314704895e-01 3.346537351608276367e-01 7.431400567293167114e-02 1.610627770423889160e-01 1.144010201096534729e-01 -2.370576187968254089e-02 5.192956328392028809e-01 4.693692922592163086e-01 -3.077550232410430908e-02 1.613650619983673096e-01 5.169895291328430176e-01 4.012181758880615234e-01 1.566614210605621338e-01 6.509451568126678467e-02 -4.643613472580909729e-02 3.167963027954101562e-02 -1.825975254178047180e-02 -2.873382158577442169e-02 -2.340156584978103638e-03 3.150704130530357361e-02
2.227259054780006409e-02 -5.147457122802734375e-04 6.404615938663482666e-03 2.717530913650989532e-02 2.538645267486572266e-01 2.481508404016494751e-01 -1.934561580419540405e-01 2.921841442584991455e-01 3.203776180744171143e-01 4.647464454174041748e-01 7.902119755744934082e-01 1.947530508041381836e-01 5.300010442733764648e-01 5.181182026863098145e-01 4.856210947036743164e-01 2.775018811225891113e-01 8.248546719551086426e-01 3.904002904891967773e-01 6.047551035881042480e-01 4.530549645423889160e-01 4.811050593852996826e-01 3.128369748592376709e-01 6.664876937866210938e-01 -5.198377370834350586e-02 1.262841373682022095e-01 -4.317910671234130859e-01 3.996185958385467529e-03 9.712763130664825439e-04
-3.673851490020751953e-03 -1.075367443263530731e-02 -2.403713911771774292e-01 1.796323955059051514e-01 5.271874070167541504e-01 -2.025110870599746704e-01 2.427159249782562256e-01 -3.962330520153045654e-02 1.494985967874526978e-01 1.199848428368568420e-01 3.367035686969757080e-01 -1.588252373039722443e-02 -4.998052865266799927e-02 2.353664487600326538e-02 1.998466402292251587e-01 2.442396283149719238e-01 1.113975793123245239e-01 2.426147907972335815e-01 5.098644495010375977e-01 4.403911232948303223e-01 7.274017333984375000e-01 7.271612286567687988e-01 7.465010285377502441e-01 9.617857336997985840e-01 7.335240244865417480e-01 2.133302539587020874e-01 3.479785621166229248e-01 1.697754859924316406e-02
-5.801048129796981812e-03 1.809649541974067688e-02 -3.077355027198791504e-01 4.853064715862274170e-01 4.308180510997772217e-01 2.960010170936584473e-01 7.430406659841537476e-02 -1.250038444995880127e-01 1.057896390557289124e-01 5.437419936060905457e-02 9.792982041835784912e-02 3.547907248139381409e-02 -1.176490858197212219e-01 -2.017548233270645142e-01 -4.527206718921661377e-02 -3.213912248611450195e-01 -2.527922391891479492e-01 -2.283792942762374878e-01 -1.711604446172714233e-01 -1.322977840900421143e-01 -9.507513046264648438e-02 -5.169299617409706116e-02 -2.762917056679725647e-02 3.034624159336090088e-01 5.820996761322021484e-01 4.969842135906219482e-01 1.043028831481933594e-01 2.853142619132995605e-01
6.314519792795181274e-03 2.466740459203720093e-02 2.019630223512649536e-01 -3.408266007900238037e-01 -1.479586660861968994e-01 3.484147787094116211e-02 -2.656331360340118408e-01 -1.785154454410076141e-02 8.340921252965927124e-02 -3.117646276950836182e-02 -1.170257776975631714e-01 -1.372535526752471924e-01 7.867934554815292358e-02 -2.216495424509048462e-01 2.046055160462856293e-02 1.861238479614257812e-02 1.078161671757698059e-01 1.715196222066879272e-01 2.191147953271865845e-01 -3.478515148162841797e-02 1.231020130217075348e-02 -1.529417634010314941e-01 -4.398743063211441040e-02 -2.668798156082630157e-02 -2.923691272735595703e-02 2.638289630413055420e-01 1.052559986710548401e-01 4.814874231815338135e-01
3.039786592125892639e-02 1.790953427553176880e-02 5.135184526443481445e-02 6.640679389238357544e-02 -1.093675345182418823e-01 2.605270743370056152e-01 3.173128515481948853e-02 -1.251704990863800049e-02 -8.652020245790481567e-02 5.325707420706748962e-02 -1.134306471794843674e-02 -1.588227599859237671e-02 1.923223771154880524e-02 3.383656218647956848e-02 1.058260351419448853e-01 1.938824057579040527e-01 7.991826534271240234e-02 5.248770490288734436e-02 -2.758645415306091309e-01 -9.979560971260070801e-03 -1.636560857295989990e-01 -5.467553809285163879e-02 -6.518982350826263428e-02 1.543234288692474365e-01 4.521485790610313416e-02 3.559572696685791016e-01 1.889273077249526978e-01 3.730153143405914307e-01
4.466158803552389145e-03 -2.123128436505794525e-02 2.733525931835174561e-01 2.177404463291168213e-01 -2.690925002098083496e-01 -1.457396894693374634e-01 -1.422101110219955444e-01 -8.680917322635650635e-02 6.047446280717849731e-02 -2.731040492653846741e-02 3.040108829736709595e-02 -7.250906527042388916e-02 -8.343482017517089844e-02 -1.702142506837844849e-01 -2.501705586910247803e-01 -1.065023317933082581e-01 -1.851638406515121460e-01 -2.744330167770385742e-01 -7.936210185289382935e-02 -2.867418825626373291e-01 5.863619595766067505e-02 5.167516320943832397e-02 -1.745517104864120483e-01 2.856855690479278564e-01 4.865867197513580322e-01 1.532945185899734497e-01 -3.937146440148353577e-02 3.715430200099945068e-01
-1.658553183078765869e-01 -4.024347662925720215e-01 2.621876299381256104e-01 4.241849854588508606e-02 7.587059587240219116e-02 1.992319710552692413e-02 -4.195709526538848877e-02 -9.790061973035335541e-03 5.708353221416473389e-02 3.282505273818969727e-02 3.645613044500350952e-02 9.805137291550636292e-03 -7.190581411123275757e-02 -9.125505387783050537e-02 -2.458252310752868652e-01 -2.370264679193496704e-01 -1.512706279754638672e-01 -2.148004770278930664e-01 -3.136459738016128540e-02 5.183419957756996155e-02 -1.468170583248138428e-01 1.538173109292984009e-01 -1.211368665099143982e-02 2.698973417282104492e-01 6.719790101051330566e-01 3.714929223060607910e-01 5.677324905991554260e-02 8.686368912458419800e-02
5.852377507835626602e-03 1.378758847713470459e-01 6.162928342819213867e-01 1.542657762765884399e-01 -5.538584291934967041e-02 4.974037781357765198e-02 1.346898078918457031e-01 7.597865164279937744e-02 1.623587608337402344e-01 7.984478026628494263e-02 9.741672873497009277e-02 1.417401432991027832e-01 1.163974869996309280e-02 -3.274582028388977051e-01 -3.429053425788879395e-01 -2.841511368751525879e-01 -2.345464676618576050e-01 -2.201957255601882935e-01 -2.971547544002532959e-01 -1.314314305782318115e-01 -3.644652292132377625e-02 2.798286825418472290e-02 -1.783710671588778496e-03 1.920047551393508911e-01 5.139309763908386230e-01 5.248375535011291504e-01 1.864764988422393799e-01 4.621499404311180115e-02
1.170160174369812012e-01 2.303100228309631348e-01 3.551275730133056641e-01 -4.019379913806915283e-01 1.850057989358901978e-01 9.762761741876602173e-02 2.313226163387298584e-01 1.086179539561271667e-01 1.156261116266250610e-01 9.858281165361404419e-02 2.833323776721954346e-01 2.664409875869750977e-01 2.229122668504714966e-01 6.698495894670486450e-02 -2.567119300365447998e-01 -2.635805904865264893e-01 -1.854827851057052612e-01 -3.306042850017547607e-01 -1.427929848432540894e-01 -1.425149738788604736e-01 -2.468184083700180054e-01 -1.513433009386062622e-01 -5.408559367060661316e-02 -4.490958899259567261e-02 -2.415036410093307495e-01 9.049576520919799805e-01 7.011324912309646606e-02 -4.666137695312500000e-02
2.986754477024078369e-01 8.046081662178039551e-02 4.143875837326049805e-01 -2.167658656835556030e-01 1.062776595354080200e-01 3.402850031852722168e-01 2.875943183898925781e-01 3.082668483257293701e-01 3.421400189399719238e-01 3.668497800827026367e-01 2.179940789937973022e-01 3.381025791168212891e-01 4.882642328739166260e-01 4.629700183868408203e-01 -5.188183858990669250e-03 -1.853349357843399048e-01 1.242416650056838989e-01 2.001335024833679199e-01 5.120687931776046753e-02 -1.004843488335609436e-01 -1.082525774836540222e-01 -1.493111401796340942e-01 -2.326089143753051758e-01 -5.567401051521301270e-01 -4.412500262260437012e-01 4.580152332782745361e-01 3.635694086551666260e-01 1.288627237081527710e-01
-3.452947363257408142e-02 2.456437796354293823e-01 3.276878297328948975e-01 -1.307330876588821411e-01 1.494152247905731201e-01 2.780098915100097656e-01 1.928647458553314209e-01 5.849597230553627014e-02 -4.113581404089927673e-02 -5.753570236265659332e-03 -5.918914079666137695e-02 2.806521356105804443e-01 2.659679949283599854e-01 2.597979009151458740e-01 -1.074697598814964294e-01 1.257056146860122681e-01 2.081329375505447388e-01 2.651164531707763672e-01 7.900980301201343536e-03 1.144972816109657288e-01 -6.043578684329986572e-02 1.212977543473243713e-01 2.189059183001518250e-02 -1.769387722015380859e-01 -2.686851322650909424e-01 6.830136477947235107e-02 -4.319000244140625000e-01 4.015430808067321777e-02
-1.479202806949615479e-01 1.999327242374420166e-01 9.022627770900726318e-02 2.092377990484237671e-01 2.692255377769470215e-01 8.668975532054901123e-02 3.661449998617172241e-02 -4.514984413981437683e-02 7.686358690261840820e-02 3.967279940843582153e-02 2.873771265149116516e-02 1.730244457721710205e-01 5.771281719207763672e-01 1.054816246032714844e-01 -3.798146918416023254e-02 2.840721905231475830e-01 1.695164591073989868e-01 1.133128553628921509e-01 1.256897002458572388e-01 8.541487902402877808e-02 6.280212104320526123e-02 -1.914283446967601776e-02 -1.838251650333404541e-01 -1.158534809947013855e-01 3.280841708183288574e-01 1.653218418359756470e-01 -1.028393387794494629e+00 -2.300964891910552979e-01
-6.378001719713211060e-02 2.993100285530090332e-01 1.130561977624893188e-01 3.014360666275024414e-01 -2.480673640966415405e-01 -1.661578863859176636e-01 -1.778035014867782593e-01 -1.717430353164672852e-01 -5.683109909296035767e-02 -7.542675733566284180e-02 -2.708346247673034668e-01 3.332572877407073975e-01 4.160480797290802002e-01 -9.246709197759628296e-02 2.772971689701080322e-01 -1.618180125951766968e-01 3.037742078304290771e-01 2.921020090579986572e-01 -7.734806090593338013e-02 -1.563765853643417358e-02 -1.471164077520370483e-01 -2.753511369228363037e-01 1.737963757477700710e-04 -5.405371263623237610e-02 1.239550188183784485e-01 2.514163553714752197e-01 -1.283640503883361816e+00 -5.168647766113281250e-01
7.033868879079818726e-02 2.201595343649387360e-02 -1.341051906347274780e-01 2.635307051241397858e-02 -2.991969585418701172e-01 -4.394425153732299805e-01 -9.917070716619491577e-02 -1.331951171159744263e-01 -1.921933442354202271e-01 -6.392060965299606323e-02 -9.419305622577667236e-02 1.733342260122299194e-01 2.151222229003906250e-01 3.152220696210861206e-02 1.227820739150047302e-01 3.126305714249610901e-02 3.598816990852355957e-01 1.262696236371994019e-01 -8.173749595880508423e-02 -6.645132601261138916e-02 -2.963324636220932007e-02 7.694141566753387451e-02 5.067373812198638916e-02 1.035375613719224930e-02 1.523044407367706299e-01 3.270031511783599854e-01 -8.434180617332458496e-01 -2.068851590156555176e-01
1.805800944566726685e-01 -2.713133990764617920e-01 -3.155797123908996582e-01 3.066792190074920654e-01 1.305646896362304688e-01 -1.665177792310714722e-01 -8.134682476520538330e-02 -2.838619612157344818e-02 -1.514678746461868286e-01 -7.118805497884750366e-02 -3.711841255426406860e-02 1.268566101789474487e-01 1.421434730291366577e-01 6.472788751125335693e-02 -3.425624221563339233e-02 2.657157182693481445e-01 3.452605605125427246e-01 -9.220997244119644165e-02 -1.653292328119277954e-01 -1.392824500799179077e-01 7.466490380465984344e-03 -8.560807257890701294e-02 6.740958243608474731e-02 2.670008130371570587e-02 -4.334028437733650208e-02 -3.711542189121246338e-01 -8.457884192466735840e-01 -3.839282393455505371e-01
-1.881644688546657562e-02 -2.922696173191070557e-01 4.999065399169921875e-02 4.045799672603607178e-01 3.410539627075195312e-01 7.325243949890136719e-02 -1.613657027482986450e-01 -3.566730394959449768e-02 1.513573825359344482e-01 1.460812687873840332e-01 2.896106743719428778e-04 2.487955540418624878e-01 2.035187035799026489e-01 8.524134755134582520e-02 1.241735443472862244e-01 1.715993285179138184e-01 9.552649408578872681e-02 -9.191842377185821533e-02 6.686315406113862991e-03 -4.194585978984832764e-02 8.519764244556427002e-02 -3.658213838934898376e-02 -2.060416787862777710e-01 6.754159182310104370e-02 1.148634403944015503e-01 -3.489684760570526123e-01 -5.444012880325317383e-01 -3.776545822620391846e-01
1.795553863048553467e-01 -4.261340498924255371e-01 8.035809546709060669e-02 1.416392531245946884e-02 -2.532578445971012115e-02 5.478958040475845337e-02 2.221799790859222412e-01 -2.698184177279472351e-02 -8.926539123058319092e-02 1.357254236936569214e-01 3.094782829284667969e-01 2.418814897537231445e-01 -4.271962121129035950e-02 -3.298739790916442871e-01 -1.600104421377182007e-01 -2.083425596356391907e-02 1.143120005726814270e-01 -6.255249027162790298e-03 9.538887441158294678e-02 -4.192493855953216553e-02 3.712230920791625977e-02 -6.200058851391077042e-04 2.924007922410964966e-02 8.396867662668228149e-02 -4.994350075721740723e-01 -7.395591586828231812e-02 4.840974211692810059e-01 3.176254928112030029e-01
-1.617709994316101074e-01 -2.715030917897820473e-03 5.316890478134155273e-01 -4.284909367561340332e-02 6.475347280502319336e-02 -2.918118983507156372e-02 9.728898853063583374e-02 -1.123217195272445679e-01 1.727563738822937012e-01 6.629472132772207260e-03 2.049849778413772583e-01 1.474485695362091064e-01 8.866824209690093994e-02 -3.274534642696380615e-01 -1.529107391834259033e-01 -2.122115343809127808e-02 2.005195170640945435e-01 4.686666186898946762e-03 -2.896273322403430939e-02 1.048382185399532318e-02 -8.211895823478698730e-02 -1.762102544307708740e-01 -7.318653166294097900e-02 3.578040748834609985e-02 -2.058866322040557861e-01 -2.782212197780609131e-01 -2.934067249298095703e-01 3.188373986631631851e-03
-2.392263151705265045e-02 1.895595341920852661e-01 4.051764607429504395e-01 -3.448511660099029541e-02 -1.671855300664901733e-01 2.797009646892547607e-01 -7.669837772846221924e-02 -2.552120015025138855e-03 2.166267111897468567e-02 -1.071909666061401367e-01 4.349791258573532104e-02 -5.978488549590110779e-02 9.918484836816787720e-02 1.232957020401954651e-01 -1.006715744733810425e-01 9.460038691759109497e-02 6.584114860743284225e-03 -1.182634234428405762e-01 -2.441537566483020782e-02 -1.040106266736984253e-01 -6.217467784881591797e-02 -1.110644787549972534e-01 2.426336146891117096e-02 -2.781745605170726776e-02 -2.502961754798889160e-01 -1.945883333683013916e-01 -3.896978870034217834e-02 -2.642123401165008545e-01
-1.326408386230468750e-01 1.266846656799316406e-01 2.283756881952285767e-01 2.498747594654560089e-02 -6.006978079676628113e-02 -3.880331991240382195e-03 3.177347034215927124e-02 3.548296913504600525e-02 2.196787856519222260e-02 -1.762765832245349884e-02 -3.013619408011436462e-02 -6.282867491245269775e-02 4.853828996419906616e-02 8.392948657274246216e-02 1.208944246172904968e-02 -1.041190698742866516e-01 5.750694125890731812e-02 5.554316937923431396e-02 1.466355472803115845e-01 -2.666616346687078476e-03 1.201079562306404114e-01 -1.899949461221694946e-01 3.335784375667572021e-02 3.772738389670848846e-03 -1.495992392301559448e-01 -2.601945400238037109e-01 -5.251368880271911621e-01 -1.479625850915908813e-01
-1.474415361881256104e-01 1.006419509649276733e-01 -1.904966831207275391e-01 -4.790978133678436279e-02 2.170663475990295410e-01 -2.656673789024353027e-01 -2.633830718696117401e-02 -6.299943476915359497e-02 3.776119649410247803e-02 -1.547396779060363770e-01 4.549881815910339355e-02 2.578146010637283325e-02 1.448920965194702148e-01 6.852494925260543823e-02 8.947253972291946411e-02 -5.921835824847221375e-02 1.118311099708080292e-02 -2.423199079930782318e-02 1.331657320261001587e-01 -2.673474848270416260e-01 -5.249191448092460632e-02 -8.412187546491622925e-02 -9.592840075492858887e-02 -1.897500008344650269e-01 -1.413419246673583984e-01 -2.156726419925689697e-01 -5.488908886909484863e-01 -1.861242800951004028e-01
-1.296290382742881775e-02 -1.115287654101848602e-02 6.491674482822418213e-02 6.052794456481933594e-01 2.761049568653106689e-01 -6.026868894696235657e-02 2.165268659591674805e-01 -1.983592063188552856e-01 1.286329329013824463e-01 -9.969861805438995361e-02 -3.035618178546428680e-02 7.694142311811447144e-02 3.053645044565200806e-02 2.501582503318786621e-01 1.390953212976455688e-01 -3.292505815625190735e-02 -8.102755248546600342e-02 7.709848880767822266e-02 1.365460604429244995e-01 1.869755238294601440e-01 1.636989712715148926e-01 1.022707819938659668e-01 -5.448587238788604736e-02 -4.755462519824504852e-03 -9.476514905691146851e-02 -4.550199210643768311e-01 -8.773879408836364746e-01 -1.330636255443096161e-02
-1.295848935842514038e-02 1.460682228207588196e-02 -8.059589564800262451e-02 -2.109645679593086243e-02 -1.271543055772781372e-01 -4.001059532165527344e-01 -3.039186000823974609e-01 9.258005023002624512e-02 -5.224667116999626160e-02 5.777808278799057007e-02 1.912481337785720825e-01 7.494711875915527344e-02 1.909769326448440552e-01 7.670611608773469925e-03 1.128469631075859070e-01 1.152686849236488342e-01 2.348804771900177002e-01 1.174510270357131958e-01 3.254445642232894897e-02 4.298478662967681885e-01 3.821054100990295410e-01 2.579094171524047852e-01 -3.764057457447052002e-01 -1.599976122379302979e-01 -3.806373178958892822e-01 -5.672638416290283203e-01 -3.005253374576568604e-01 -5.246993154287338257e-03
-1.855713129043579102e-02 1.659947633743286133e-02 1.814446002244949341e-01 1.285398155450820923e-01 1.469779014587402344e-01 3.514416813850402832e-01 2.528379298746585846e-02 1.059299409389495850e-01 -1.259023696184158325e-01 -2.208821177482604980e-01 -2.935010492801666260e-01 -3.959376513957977295e-01 -5.298823714256286621e-01 -4.394826889038085938e-01 -4.262410402297973633e-01 -3.291765749454498291e-01 -1.982846260070800781e-01 -1.909088045358657837e-01 -2.453830987215042114e-01 -1.194024682044982910e-01 2.018804848194122314e-01 -5.218827351927757263e-02 5.567091703414916992e-02 -9.059865772724151611e-02 -1.086798235774040222e-01 -2.452642424032092094e-03 -1.920984685420989990e-01 -5.159530788660049438e-03
8.789293467998504639e-03 8.063562214374542236e-03 1.085948571562767029e-02 1.331303864717483521e-01 2.802670896053314209e-01 2.120794951915740967e-01 3.464024066925048828e-01 1.959991008043289185e-01 4.253081679344177246e-01 3.069094717502593994e-01 1.595923751592636108e-01 4.746691882610321045e-02 4.808973893523216248e-02 2.512448132038116455e-01 5.346154570579528809e-01 2.488059848546981812e-01 3.187720179557800293e-01 2.121199071407318115e-01 3.507139980792999268e-01 1.982139647006988525e-01 8.920315653085708618e-02 2.703619301319122314e-01 1.024331822991371155e-01 6.022551059722900391e-01 4.745133593678474426e-02 1.841538697481155396e-01 -1.988082379102706909e-02 2.117311209440231323e-02
2.788710221648216248e-02 -3.816515207290649414e-03 2.218682318925857544e-03 3.155265003442764282e-03 -1.506489366292953491e-01 -1.424388587474822998e-02 1.948814690113067627e-01 1.058257594704627991e-01 -1.720624119043350220e-01 -1.075032949447631836e-01 7.475145161151885986e-02 -1.704740710556507111e-02 4.168904200196266174e-02 8.028183132410049438e-02 2.448541224002838135e-01 1.757754832506179810e-01 -1.363129168748855591e-02 8.578396588563919067e-02 -1.805823668837547302e-02 -1.869717538356781006e-01 8.896139264106750488e-02 7.959401607513427734e-01 4.330782592296600342e-01 3.185605704784393311e-01 3.182109072804450989e-02 1.407237350940704346e-02 2.715263888239860535e-02 -3.051996417343616486e-02
