8.008323609828948975e-03 2.274857833981513977e-02 1.461286842823028564e-02 -2.361028268933296204e-02 3.260440751910209656e-02 3.142760321497917175e-02 -1.256391406059265137e-04 -2.596707083284854889e-02 8.343126624822616577e-03 -1.394947618246078491e-02 4.388317465782165527e-04 -1.051027514040470123e-02 2.778792008757591248e-02 -2.251939475536346436e-02 2.022932469844818115e-02 -2.864884212613105774e-02 2.477116882801055908e-03 2.369428798556327820e-02 3.733720630407333374e-03 1.009184494614601135e-02 -3.111360967159271240e-02 9.758993983268737793e-04 1.468998193740844727e-02 -3.405170887708663940e-02 -2.832034789025783539e-02 2.424060553312301636e-02 -3.438477963209152222e-02 -3.476216271519660950e-02
-3.317118808627128601e-02 2.817163243889808655e-02 -1.251964084804058075e-02 -2.186945080757141113e-02 -1.759963855147361755e-02 2.096102014183998108e-02 2.727198228240013123e-02 -2.481210231781005859e-02 -7.055461406707763672e-03 -1.629620790481567383e-03 9.667366743087768555e-03 -3.053300082683563232e-02 -3.082851506769657135e-02 2.537548542022705078e-03 3.950368613004684448e-03 1.710877195000648499e-02 6.795682013034820557e-03 3.004987165331840515e-02 -1.234226673841476440e-02 -1.178543455898761749e-02 -1.014678366482257843e-02 -3.794945776462554932e-03 -4.253774881362915039e-03 4.118118435144424438e-03 -3.042601421475410461e-02 -2.640195190906524658e-02 -3.044406510889530182e-02 3.079009428620338440e-02
-1.294839382171630859e-02 3.198261186480522156e-02 -2.903498709201812744e-02 -1.857894286513328552e-02 9.959507733583450317e-03 3.062547370791435242e-02 -3.035945259034633636e-02 1.387633383274078369e-04 -1.542817801237106323e-02 -2.526029199361801147e-02 -3.225009143352508545e-01 -2.162750214338302612e-01 -1.666979193687438965e-01 -1.712807267904281616e-01 -2.628010511398315430e-01 -6.499037742614746094e-01 -3.834844231605529785e-01 -2.465055137872695923e-01 -1.619127988815307617e-01 8.853666484355926514e-02 -2.433981746435165405e-02 -1.385083794593811035e-02 2.792916819453239441e-02 2.449249476194381714e-02 1.597640290856361389e-02 8.028753101825714111e-03 -1.666976325213909149e-02 3.078426793217658997e-02
-3.548392653465270996e-02 1.061565056443214417e-02 7.051341235637664795e-03 1.434464752674102783e-02 1.228577569127082825e-01 -3.052837960422039032e-02 -7.528260350227355957e-02 -5.037212967872619629e-01 -7.851455360651016235e-02 1.734676212072372437e-01 -6.242107227444648743e-02 -3.527984619140625000e-01 -1.486854553222656250e-01 2.194160968065261841e-01 -1.753867268562316895e-01 -4.501123130321502686e-01 -2.496639490127563477e-01 -3.157859668135643005e-02 1.377198845148086548e-01 -3.830843269824981689e-01 -1.035340785980224609e+00 -2.810114026069641113e-01 6.317368149757385254e-01 5.031764507293701172e-01 3.940125405788421631e-01 -5.285452678799629211e-02 -7.258594036102294922e-03 -1.683055236935615540e-02
-1.605063676834106445e-03 2.906988561153411865e-01 1.162759363651275635e-01 -2.284841388463973999e-01 -2.424403280019760132e-02 -3.521574437618255615e-01 1.736456453800201416e-01 -1.043052673339843750e-01 -1.584042906761169434e-01 -9.582020342350006104e-03 -1.575319916009902954e-01 -2.186677008867263794e-01 -7.624880527146160603e-04 -1.464125216007232666e-01 8.401138335466384888e-02 -3.335028421133756638e-03 -6.642654538154602051e-02 1.246724873781204224e-01 -1.283958107233047485e-01 -4.459636285901069641e-02 2.638036198914051056e-02 -1.571931503713130951e-02 5.667216330766677856e-02 1.453994363546371460e-01 -7.485207915306091309e-02 -2.833198010921478271e-01 -3.322262763977050781e-01 3.047871887683868408e-01
-3.120712004601955414e-02 2.379338815808296204e-02 -4.365758895874023438e-01 -1.782061904668807983e-01 1.238585561513900757e-01 -9.433604776859283447e-02 -1.272434145212173462e-01 2.428604103624820709e-02 4.835506528615951538e-02 -4.573234915733337402e-02 -4.770407080650329590e-02 9.894566755974665284e-05 -6.653457414358854294e-03 -6.447662413120269775e-02 6.808000057935714722e-02 1.943164318799972534e-02 -8.544431626796722412e-02 1.532481908798217773e-01 -4.998819902539253235e-02 5.785135924816131592e-02 2.705446444451808929e-02 4.540338739752769470e-02 1.648202836513519287e-01 -2.095008790493011475e-01 1.718028932809829712e-01 2.755879759788513184e-01 -5.958228558301925659e-02 3.333726525306701660e-01
-2.900657244026660919e-02 2.514543235301971436e-01 -3.717375695705413818e-01 -1.070113182067871094e-01 9.939229488372802734e-02 -2.575023286044597626e-02 -1.704825907945632935e-01 -7.022298127412796021e-02 -1.106687337160110474e-01 -1.207293123006820679e-01 -1.248113065958023071e-01 -1.335453838109970093e-01 1.596654504537582397e-01 -3.038292750716209412e-02 -8.440788835287094116e-02 1.135364547371864319e-01 -4.472170397639274597e-02 1.431439816951751709e-01 -1.134193316102027893e-01 1.512433141469955444e-01 -2.950912900269031525e-02 1.351216156035661697e-02 -1.049657091498374939e-01 -1.355574876070022583e-01 -3.998811542987823486e-02 -1.719568967819213867e-01 2.879665791988372803e-02 2.290261685848236084e-01
3.226313740015029907e-03 -3.103871271014213562e-02 -3.175626397132873535e-01 -2.484770715236663818e-01 -2.199779823422431946e-02 -1.048363074660301208e-01 -1.111815050244331360e-01 9.778614155948162079e-03 7.426784373819828033e-03 -1.453327760100364685e-02 3.026250004768371582e-02 -1.695316731929779053e-01 -7.490251958370208740e-02 -6.931258738040924072e-02 -1.887099295854568481e-01 -3.243174403905868530e-02 -4.191574454307556152e-02 -1.298165470361709595e-01 5.963072180747985840e-02 -1.006625518202781677e-01 -6.578420847654342651e-02 5.443605035543441772e-02 -4.811613634228706360e-02 2.360209226608276367e-01 -5.153046175837516785e-02 -4.023730754852294922e-03 -1.194547712802886963e-01 3.031288683414459229e-01
-1.644451171159744263e-03 -3.200623989105224609e-01 -4.106717407703399658e-01 2.389669045805931091e-02 1.618212610483169556e-01 -1.070384979248046875e-01 8.367533981800079346e-02 -3.178828209638595581e-02 5.107163637876510620e-02 7.455915212631225586e-02 1.688234359025955200e-01 -5.520307645201683044e-02 5.958903580904006958e-02 1.331800520420074463e-01 -2.073998302221298218e-01 -9.651616960763931274e-02 2.684678137302398682e-02 -6.941194832324981689e-02 2.175783552229404449e-02 7.844779640436172485e-02 -2.402765490114688873e-02 1.904962956905364990e-01 -1.153275594115257263e-01 1.038062795996665955e-01 1.322247534990310669e-01 -5.891862511634826660e-02 -2.063229382038116455e-01 4.329018592834472656e-01
2.025797218084335327e-02 -2.865869998931884766e-01 -3.166392743587493896e-01 -6.140343844890594482e-02 -3.318112492561340332e-01 -2.424795478582382202e-01 6.657607853412628174e-02 -1.990932784974575043e-02 -3.699951246380805969e-02 -3.775823488831520081e-02 -8.389119803905487061e-02 1.148299276828765869e-01 -2.986354567110538483e-02 -1.522745285183191299e-02 -1.506016254425048828e-01 -2.744791209697723389e-01 -2.635932527482509613e-02 -5.268280208110809326e-02 1.770311221480369568e-02 -8.716150186955928802e-03 -8.617933094501495361e-02 -5.407875403761863708e-02 -1.658252067863941193e-02 -7.447440177202224731e-02 4.784800577908754349e-03 9.459633380174636841e-02 -1.256252825260162354e-01 5.007934197783470154e-02
2.002569288015365601e-02 -2.801470756530761719e-01 -4.696980714797973633e-01 -2.917966544628143311e-01 1.497284471988677979e-01 -1.593397706747055054e-01 -8.849620074033737183e-02 1.182940453290939331e-01 1.088229268789291382e-01 2.099078446626663208e-01 3.741114735603332520e-01 1.937531679868698120e-01 2.077130675315856934e-01 1.414057761430740356e-01 -7.196350023150444031e-03 -1.641464084386825562e-01 -1.215261146426200867e-01 -8.948346227407455444e-02 3.422553837299346924e-02 1.607227474451065063e-01 4.660755395889282227e-03 1.291191279888153076e-01 -3.421972319483757019e-02 5.170290917158126831e-02 -3.180211484432220459e-01 6.178504787385463715e-03 -8.847945928573608398e-02 -4.961964488029479980e-01
3.371828421950340271e-02 -2.782353460788726807e-01 -5.514881014823913574e-01 -2.249158024787902832e-01 -7.132028788328170776e-02 2.187551558017730713e-01 2.373921871185302734e-01 3.271039426326751709e-01 2.769974768161773682e-01 2.974135875701904297e-01 1.738739460706710815e-01 1.702222824096679688e-01 1.471044123172760010e-01 2.031007707118988037e-01 1.910712569952011108e-01 5.641190335154533386e-02 -1.618460752069950104e-02 -4.699149727821350098e-02 -4.737987741827964783e-02 -3.537718206644058228e-02 -4.508567228913307190e-02 1.360407844185829163e-02 3.157023712992668152e-02 7.680466864258050919e-03 1.662578880786895752e-01 8.309553563594818115e-02 2.683518528938293457e-01 -1.714299023151397705e-01
3.983963280916213989e-03 -2.965993285179138184e-01 -2.194002866744995117e-01 4.594872146844863892e-02 1.351697146892547607e-01 2.187773957848548889e-02 2.291141003370285034e-01 3.779850155115127563e-02 -1.222571171820163727e-02 1.527740806341171265e-01 -1.468961387872695923e-01 9.376265108585357666e-02 -3.655875474214553833e-02 2.028530091047286987e-01 -9.748948365449905396e-02 3.971445932984352112e-02 -4.461899399757385254e-02 -9.497571736574172974e-03 -6.045106053352355957e-02 4.421789571642875671e-02 -4.458416625857353210e-02 2.011880576610565186e-01 -2.225759923458099365e-01 -2.046452276408672333e-02 -1.190548315644264221e-01 -4.695934355258941650e-01 4.485078155994415283e-02 1.494894269853830338e-02
-1.380399428308010101e-02 1.427758485078811646e-02 2.408384904265403748e-02 5.576410517096519470e-02 -8.245889097452163696e-02 2.799679040908813477e-01 5.880169197916984558e-02 1.536322832107543945e-01 -3.758363798260688782e-02 1.588390171527862549e-01 3.267858922481536865e-02 1.285719312727451324e-02 1.003899518400430679e-02 1.071068868041038513e-01 -8.455881476402282715e-02 3.027188777923583984e-01 2.771306037902832031e-02 -1.282003223896026611e-01 1.171772554516792297e-01 -1.435716287232935429e-03 1.226749643683433533e-02 1.005311161279678345e-01 2.413837164640426636e-01 -9.905726462602615356e-02 -1.343471109867095947e-01 -1.005665540695190430e+00 -3.336303234100341797e-01 -2.991712987422943115e-01
-2.912241779267787933e-02 -3.873805105686187744e-01 -2.300304770469665527e-01 2.790311574935913086e-01 -6.159005165100097656e-01 4.522495865821838379e-01 -1.710743904113769531e-01 8.790864795446395874e-02 -1.714816433377563953e-03 -1.233403161168098450e-01 -7.694413512945175171e-02 8.419206738471984863e-02 6.573438644409179688e-02 2.363069653511047363e-01 2.704391628503799438e-02 9.584080427885055542e-02 4.448640719056129456e-02 -4.845257103443145752e-02 -1.717475056648254395e-01 7.709334790706634521e-02 -6.793804466724395752e-03 -4.079710319638252258e-02 2.096448242664337158e-01 1.050861403346061707e-01 1.777696311473846436e-01 4.631338417530059814e-01 -1.168092787265777588e-01 9.976737201213836670e-03
8.446447551250457764e-03 -3.079986870288848877e-01 -9.697788208723068237e-02 -1.768546104431152344e-01 -5.204105004668235779e-02 -3.070945441722869873e-01 -2.349501699209213257e-01 -2.490739822387695312e-01 2.620822004973888397e-02 1.007002741098403931e-01 2.109337411820888519e-02 -7.382076233625411987e-02 1.034099049866199493e-02 2.282924503087997437e-01 2.270968109369277954e-01 -9.280637837946414948e-03 1.786367595195770264e-02 -1.288659423589706421e-01 7.808814197778701782e-02 -7.461234927177429199e-02 -1.580009162425994873e-01 -1.129711717367172241e-01 -6.776738446205854416e-03 -3.284160494804382324e-01 -7.934173941612243652e-02 6.980599761009216309e-01 -3.797654435038566589e-02 4.493050277233123779e-03
3.037594258785247803e-03 -5.570152401924133301e-01 -1.620109081268310547e-01 3.249580785632133484e-02 8.228900283575057983e-02 -3.932973742485046387e-01 2.576902806758880615e-01 1.299923807382583618e-01 2.378907054662704468e-01 4.858328029513359070e-02 -2.588095888495445251e-02 -1.894992962479591370e-02 1.934621334075927734e-01 4.516449570655822754e-02 5.746156349778175354e-02 8.692042529582977295e-02 4.284786060452461243e-02 -2.192166866734623909e-03 -1.846668571233749390e-01 -1.875065267086029053e-01 -3.135336562991142273e-03 -3.541161864995956421e-02 -1.419531702995300293e-01 -1.573860347270965576e-01 -5.364111661911010742e-01 5.944580435752868652e-01 2.783938348293304443e-01 -2.169672213494777679e-02
-1.134471036493778229e-02 -2.873015403747558594e-01 -1.073432713747024536e-01 -8.446140587329864502e-02 5.377253890037536621e-02 -2.610149085521697998e-01 9.470782428979873657e-02 -1.652364060282707214e-02 2.108859717845916748e-01 5.346217155456542969e-01 2.227941900491714478e-01 2.410861700773239136e-01 2.900207638740539551e-01 1.439287364482879639e-01 2.206101268529891968e-01 -3.725686110556125641e-03 1.544838026165962219e-02 -1.659463942050933838e-01 -1.423294842243194580e-01 -6.574321538209915161e-02 9.341467171907424927e-03 7.876126468181610107e-02 -9.310811758041381836e-02 2.970753237605094910e-03 5.527070760726928711e-01 8.993176817893981934e-01 3.024595677852630615e-01 -2.495519816875457764e-02
-6.700925529003143311e-03 -2.473765313625335693e-01 -8.739552646875381470e-02 -1.313935965299606323e-01 -2.238653786480426788e-02 -3.597555682063102722e-02 -3.189164446666836739e-03 3.103763796389102936e-02 -3.663279116153717041e-02 3.873926997184753418e-01 3.299263715744018555e-01 2.993442118167877197e-01 2.915737032890319824e-01 3.091177642345428467e-01 3.425757586956024170e-02 -2.223615944385528564e-01 -1.523325890302658081e-01 -1.734344959259033203e-01 -3.082788176834583282e-02 -8.789578825235366821e-02 7.761166244745254517e-02 -2.039649933576583862e-01 3.575616702437400818e-02 1.946306787431240082e-02 5.863242149353027344e-01 1.419629305601119995e-01 3.155712187290191650e-01 -2.420946955680847168e-02
9.652487933635711670e-04 1.892087757587432861e-01 6.944285333156585693e-02 -2.423494681715965271e-02 -5.370126292109489441e-02 -1.437094360589981079e-01 -2.874898165464401245e-02 3.562898188829421997e-02 -7.436017692089080811e-02 4.907611757516860962e-02 4.921015352010726929e-02 1.129505708813667297e-01 2.970139384269714355e-01 -1.009754613041877747e-01 -2.749673128128051758e-01 -5.116935446858406067e-02 1.920145004987716675e-02 -5.772729218006134033e-02 -3.385430946946144104e-02 -6.812600791454315186e-02 -6.031772866845130920e-02 -1.557065546512603760e-01 1.115953326225280762e-01 2.949612587690353394e-02 2.666428089141845703e-01 2.160590142011642456e-01 7.048271596431732178e-03 -1.503048650920391083e-02
-1.090225577354431152e-02 9.872901439666748047e-02 1.867317855358123779e-01 -2.502154409885406494e-01 -8.245240896940231323e-02 -2.461229637265205383e-02 -9.908773750066757202e-02 4.866202548146247864e-02 -2.484793961048126221e-02 -1.287728101015090942e-01 1.587508171796798706e-01 -3.132506087422370911e-02 8.598344027996063232e-02 1.453547328710556030e-01 -1.485849469900131226e-01 1.540900114923715591e-02 -1.159639582037925720e-01 -1.369884908199310303e-01 -6.114898249506950378e-02 -6.864496320486068726e-02 -1.216187179088592529e-01 -1.202370375394821167e-01 -4.253329336643218994e-02 -2.779487669467926025e-01 1.863436251878738403e-01 2.082181572914123535e-01 -2.916400730609893799e-01 -7.703134790062904358e-03
-2.230603434145450592e-02 1.734700649976730347e-01 -2.007291764020919800e-01 4.622096940875053406e-02 -1.869904100894927979e-01 7.252852618694305420e-02 -2.098822444677352905e-01 6.998737156391143799e-02 -1.254103183746337891e-01 1.151051223278045654e-01 -5.063408240675926208e-02 3.057264536619186401e-02 -9.839392453432083130e-02 -4.899729788303375244e-02 5.633703619241714478e-02 -7.853814959526062012e-02 -1.784145832061767578e-01 -9.058473515324294567e-04 -8.601319789886474609e-02 -1.203757897019386292e-01 1.059535741806030273e-01 -2.266544476151466370e-02 8.666398376226425171e-02 -3.298459649085998535e-01 1.152161285281181335e-01 9.626235067844390869e-02 -2.827996909618377686e-01 2.377041056752204895e-02
-1.452207565307617188e-03 3.952637910842895508e-01 -4.633879959583282471e-01 1.835705637931823730e-01 2.143421210348606110e-02 5.046094954013824463e-02 9.712707996368408203e-02 1.226930320262908936e-01 -5.992732197046279907e-02 -5.901668593287467957e-02 -4.058486223220825195e-02 -5.673749372363090515e-02 4.896946996450424194e-02 2.801086753606796265e-02 6.195384263992309570e-02 -1.040249783545732498e-02 1.780162006616592407e-02 -6.808236241340637207e-02 8.904519677162170410e-02 -7.457175105810165405e-02 -2.318886965513229370e-01 1.108803451061248779e-01 6.077824160456657410e-02 -3.545958697795867920e-01 -5.339021608233451843e-02 -2.305691093206405640e-01 -2.554405927658081055e-01 1.385374739766120911e-02
3.046954795718193054e-02 1.482774689793586731e-02 4.106088876724243164e-01 1.275009512901306152e-01 -1.442079693078994751e-01 -1.137927100062370300e-01 -1.094495225697755814e-02 -3.272707760334014893e-01 2.298995293676853180e-02 -1.173469889909029007e-02 -1.319340318441390991e-01 -4.206315428018569946e-02 4.874099791049957275e-02 1.067877113819122314e-01 4.975302144885063171e-02 1.200255677103996277e-01 4.899359121918678284e-02 -3.565466776490211487e-02 4.743649065494537354e-02 2.029405385255813599e-01 1.157220155000686646e-01 1.791452988982200623e-02 1.753718554973602295e-01 1.983559429645538330e-01 -4.782150685787200928e-01 -2.938853502273559570e-01 -2.638855576515197754e-01 -1.493892073631286621e-02
-3.466721624135971069e-02 7.365647703409194946e-03 7.102648019790649414e-01 -3.519318401813507080e-01 -3.002938330173492432e-01 -4.558242112398147583e-02 -1.421276032924652100e-01 -1.247156038880348206e-01 7.926897145807743073e-03 -8.377285301685333252e-02 -1.300344616174697876e-01 -3.389979526400566101e-02 3.462757542729377747e-02 -1.347268819808959961e-01 -5.881745368242263794e-02 6.871014833450317383e-02 1.786265075206756592e-01 -2.644029557704925537e-01 9.146280586719512939e-02 3.106701374053955078e-01 2.370315492153167725e-01 -2.077291607856750488e-01 2.696834206581115723e-01 3.708459138870239258e-01 6.512457132339477539e-02 1.801034063100814819e-02 -1.343303918838500977e-02 -2.426968514919281006e-02
2.436622977256774902e-02 1.318069547414779663e-02 8.163200318813323975e-02 -1.405150443315505981e-01 2.862705588340759277e-01 2.523091435432434082e-02 8.541697263717651367e-02 1.716096252202987671e-01 -2.781197726726531982e-01 -3.243766129016876221e-01 -6.522855907678604126e-02 -3.458555787801742554e-02 -3.306436836719512939e-01 -9.342632442712783813e-02 -1.193873584270477295e-01 8.255401998758316040e-02 -2.102389633655548096e-01 6.124247610569000244e-02 5.556920170783996582e-02 -1.891445517539978027e-01 -1.378519386053085327e-01 -9.843657910823822021e-02 5.007204040884971619e-02 -1.585750579833984375e-01 1.394667848944664001e-02 3.043457493185997009e-02 -2.079480886459350586e-02 -1.594007574021816254e-02
1.107262447476387024e-02 1.516543328762054443e-02 3.531384840607643127e-02 3.673348575830459595e-03 3.070969581604003906e-01 -9.306113421916961670e-02 1.261807233095169067e-01 1.140554621815681458e-01 -8.327303826808929443e-02 -1.626938283443450928e-01 -5.325893163681030273e-01 -2.841906249523162842e-01 2.109438478946685791e-01 -1.315759122371673584e-01 -5.281911492347717285e-01 -6.551973819732666016e-01 -1.212774395942687988e+00 -8.494437336921691895e-01 -4.855454266071319580e-01 -2.963439822196960449e-01 -4.975518584251403809e-01 7.684560865163803101e-02 5.368211492896080017e-02 3.131782412528991699e-01 2.796980366110801697e-02 2.333634719252586365e-02 -6.867162883281707764e-04 -8.424375206232070923e-03
3.546381369233131409e-02 -2.676605060696601868e-02 9.458769112825393677e-03 -2.937734127044677734e-03 -1.494139991700649261e-02 2.156704291701316833e-02 -1.715149730443954468e-02 -3.457881510257720947e-02 -2.518517337739467621e-02 6.789065897464752197e-03 -3.066748380661010742e-03 -1.614775881171226501e-02 -2.751266956329345703e-02 -1.761341653764247894e-02 -1.331595890223979950e-02 2.599951252341270447e-02 2.906015887856483459e-02 -7.523242384195327759e-03 1.865765824913978577e-02 -2.651763521134853363e-02 -1.128435134887695312e-03 -1.087159849703311920e-02 -2.505708485841751099e-03 -3.314432129263877869e-02 2.653169631958007812e-02 -1.564183831214904785e-02 2.680185064673423767e-02 1.483546197414398193e-02
