-3.277042806148529053e-01 -5.229125618934631348e-01 -2.475823909044265747e-01 2.852942049503326416e-01 4.807398319244384766e-01 4.584264159202575684e-01 1.024648472666740417e-01 3.169851377606391907e-02 1.202161386609077454e-01
-2.407777011394500732e-01 -7.132130861282348633e-02 -1.473910920321941376e-02 2.419253885746002197e-01 2.655426263809204102e-01 1.566070616245269775e-01 -2.766848206520080566e-01 -1.246146187186241150e-01 -2.878471976146101952e-03
1.072325780987739563e-01 2.119740098714828491e-01 1.295284181833267212e-01 1.721619069576263428e-01 1.841984838247299194e-01 2.763464748859405518e-01 -6.056802347302436829e-02 2.320719137787818909e-02 6.402626633644104004e-02
4.232539236545562744e-02 1.026821956038475037e-01 -3.358126059174537659e-02 -1.383553743362426758e-01 -1.542737483978271484e-01 1.915397047996520996e-01 -7.159507274627685547e-02 -8.298985660076141357e-02 2.657694369554519653e-02
6.201872974634170532e-02 -1.262966245412826538e-01 -1.194562464952468872e-01 -1.999187320470809937e-01 -2.042572647333145142e-01 -3.596529737114906311e-02 -7.341369986534118652e-02 1.515401303768157959e-01 2.457966953516006470e-01
2.830790579319000244e-01 1.545345932245254517e-01 -8.935309201478958130e-02 -2.013163864612579346e-01 -3.105301856994628906e-01 -2.102457284927368164e-01 -2.322526127099990845e-01 3.556002862751483917e-03 6.581598520278930664e-02
2.568171620368957520e-01 3.379046022891998291e-01 2.017204463481903076e-01 6.555163860321044922e-02 -3.078119456768035889e-01 -2.487974613904953003e-01 -3.426709473133087158e-01 -1.780387163162231445e-01 1.355273425579071045e-01
1.209309473633766174e-01 1.478918194770812988e-01 1.452723145484924316e-01 6.342373788356781006e-02 4.598787426948547363e-02 -1.216925084590911865e-01 -3.302282989025115967e-01 4.299993813037872314e-02 1.289279162883758545e-01
3.045244812965393066e-01 1.609293967485427856e-01 -1.528607867658138275e-02 -5.886017903685569763e-02 5.325274541974067688e-02 7.973220199346542358e-02 -8.379984647035598755e-02 -1.114551275968551636e-01 -1.545012835413217545e-02
