4.734167754650115967e-01 3.736622929573059082e-01 4.012971222400665283e-01 1.430923044681549072e-01 -3.004466593265533447e-01 -5.038209557533264160e-01 -1.075317025184631348e+00 -1.684353947639465332e+00 -1.207719922065734863e+00
-6.979363970458507538e-03 9.082934260368347168e-02 -1.431685313582420349e-02 -1.156520098447799683e-01 -3.579644486308097839e-02 -1.710682958364486694e-01 -3.835524022579193115e-01 -4.559424519538879395e-01 -2.304180413484573364e-01
2.454173713922500610e-01 6.632392108440399170e-02 1.062497720122337341e-01 -1.559325587004423141e-02 -4.353631287813186646e-02 2.062258683145046234e-02 2.690693736076354980e-01 3.292522132396697998e-01 1.119853109121322632e-01
1.590792387723922729e-01 1.918751597404479980e-01 5.414085090160369873e-02 -1.587324887514114380e-01 -1.692833155393600464e-01 7.506228238344192505e-02 -9.697201312519609928e-05 2.683357298374176025e-01 -4.434695933014154434e-03
7.325516641139984131e-02 6.679008901119232178e-02 6.173420324921607971e-02 -9.444764815270900726e-03 -6.404857337474822998e-02 -3.426717128604650497e-03 1.034028381109237671e-01 9.478855133056640625e-02 1.353491544723510742e-01
3.529686108231544495e-02 2.608851529657840729e-02 9.523329325020313263e-03 -2.175611704587936401e-01 -1.136222109198570251e-01 -1.826088130474090576e-02 -1.325833052396774292e-01 4.450150206685066223e-02 9.407158195972442627e-02
1.443626582622528076e-01 4.315282404422760010e-02 -2.556987479329109192e-02 -1.101289466023445129e-01 -2.191965430974960327e-01 1.120212972164154053e-01 -5.784050375223159790e-02 -3.966851159930229187e-03 1.950137317180633545e-01
9.671781957149505615e-02 7.882028073072433472e-02 -5.203782021999359131e-02 -2.414422482252120972e-01 -1.107799857854843140e-01 2.766540050506591797e-01 -5.951385945081710815e-02 -1.593923196196556091e-02 1.289892196655273438e-01
1.605288237333297729e-01 1.944035440683364868e-01 1.806709915399551392e-02 -2.346971780061721802e-01 -5.623973533511161804e-02 3.709098696708679199e-01 2.501929998397827148e-01 1.561082601547241211e-01 2.177613675594329834e-01
