1.185426563024520874e-01 5.189194083213806152e-01 4.838369190692901611e-01 -2.316501140594482422e-01 -4.012354016304016113e-01 -3.140637278556823730e-01 -2.406093478202819824e-01 3.327172249555587769e-02 2.527437508106231689e-01
2.010816186666488647e-01 5.837886929512023926e-01 8.338674157857894897e-02 -3.420265614986419678e-01 -4.195555448532104492e-01 -2.006751447916030884e-01 -3.550528362393379211e-02 3.688187897205352783e-02 8.644212037324905396e-02
-5.232839584350585938e-01 -4.924507141113281250e-01 -5.130847096443176270e-01 -2.651956677436828613e-01 7.444157451391220093e-02 6.044260784983634949e-02 8.907058835029602051e-02 -3.317420184612274170e-02 8.391931653022766113e-02
-2.395581245422363281e+00 -3.001784324645996094e+00 -9.407963752746582031e-01 3.030532971024513245e-02 2.525175809860229492e-01 2.480781972408294678e-01 -9.572219848632812500e-02 -5.769899114966392517e-02 1.844647154211997986e-02
-7.721241712570190430e-01 -1.308695793151855469e+00 -7.114650011062622070e-01 3.017634451389312744e-01 3.684328198432922363e-01 7.346936315298080444e-02 5.264945328235626221e-02 -1.494818646460771561e-02 7.760995626449584961e-02
1.573456674814224243e-01 -1.416632533073425293e-01 -9.010839462280273438e-02 2.371205538511276245e-01 1.961610317230224609e-01 4.247662797570228577e-02 -6.972555071115493774e-02 8.078604191541671753e-02 1.624100655317306519e-01
8.635984361171722412e-02 -5.874118208885192871e-02 5.276706069707870483e-02 3.009048700332641602e-01 3.082417249679565430e-01 1.913000941276550293e-01 8.658889681100845337e-02 2.027506679296493530e-01 1.305453330278396606e-01
-1.296445280313491821e-01 1.008019503206014633e-02 1.200835779309272766e-01 4.013086110353469849e-02 -1.001223735511302948e-02 -1.509314053691923618e-03 6.540098041296005249e-02 5.738504976034164429e-02 1.083142776042222977e-02
1.638457924127578735e-01 6.860594451427459717e-02 -1.765053421258926392e-01 -2.565351426601409912e-01 -9.019540250301361084e-02 -2.578479349613189697e-01 -1.983565092086791992e-01 -1.485439091920852661e-01 1.283538490533828735e-01
